300,1
-0.00355018
0.0582154
0.0542721
0.00817271
-0.0459135
-0.0916884
-0.05329
0.0774039
-0.0828922
-0.0337617
0.0856498
0.022295
0.00383811
0.0353009
0.0439108
-0.071338
-0.0202436
-0.036646
-0.00955725
-0.0747954
0.0971939
-0.0290639
-0.0829273
-0.009801
0.0632422
-0.0172976
-0.0662488
0.00575563
-0.0724667
0.0751572
-0.0377678
-0.0851753
-0.0180758
0.0278297
0.0424337
-0.0705941
-0.0584274
0.0275348
-0.00960424
0.0645497
-0.0539526
-0.0136438
0.0509095
0.0783162
-0.0369927
0.0297446
-0.0936395
-0.0273095
0.0660442
-0.0566547
-0.0433391
0.0311099
0.0642826
-0.0597795
0.0618556
-0.0585518
-0.001317
-0.0624204
-0.0429838
-0.0797032
-0.0842954
-0.0478302
0.0436686
0.0246458
0.0711353
0.0599944
0.0847132
-0.0452076
0.0650034
0.0476855
-0.0115243
0.0199287
0.0751112
0.0910381
0.00447979
-0.0630349
0.0208921
-0.019645
0.0690894
0.0808421
-0.0688957
-0.0277355
0.0425209
0.0134656
-0.0289312
-0.0550155
0.0952965
-0.00830713
0.0501938
0.0033663
-0.0404783
0.019514
0.0700329
-0.0571684
-0.0635258
-0.0646032
-0.027805
0.0542092
0.0364904
0.0450599
-0.0104684
-0.0374039
0.0094845
-0.0442577
-0.0141994
-0.0694287
0.0199445
0.0507041
0.072707
-0.021761
0.0450293
0.02962
0.0428643
-0.0392414
0.0942458
0.091515
0.0575788
-0.0243729
0.0695846
0.0237094
0.00168058
0.0257356
-0.0302641
0.0766721
0.0516529
0.0444305
-0.0538909
-0.0717722
0.0508051
0.0390979
-0.0390661
-0.000866216
-0.0540676
0.067595
0.0878046
-0.0137525
0.0866506
0.0508933
-0.00380149
0.0580514
0.0647446
-0.093159
-0.0588521
-0.0466935
0.0679706
0.0652963
0.0183236
-0.0216711
0.0310803
0.00697674
0.0715783
0.0507209
-0.0320712
0.0154435
0.0287079
0.0367643
0.0665
0.0407192
0.0548379
0.0781881
0.0475364
0.0158569
-0.00546606
0.0182647
0.0574266
-0.0241587
-0.0123034
0.0634586
0.0938933
-0.0580678
0.0361047
0.0453331
-0.0190021
0.0362842
-0.0635523
-0.0717773
0.0569737
0.0625922
0.0889378
0.0758814
-0.0433919
-0.0398997
0.0187747
0.0277396
0.0689006
-0.0394564
0.00453525
0.0582908
0.00924232
0.053102
-0.037485
-0.0577191
-0.0839613
-0.00746535
-0.0193307
0.0546394
-0.0663676
0.0304812
-0.0810338
0.0644929
-0.0321408
0.0410833
-0.0495211
0.0778716
-0.0563568
0.0819772
0.100288
0.027086
-0.00212128
0.00513172
-0.00894503
0.0535951
0.0742988
0.0474594
-0.0504559
-0.0298581
0.0238636
0.00380706
-0.016142
0.0739921
0.074991
-0.0341672
0.0740581
-0.0341771
0.0445367
0.0170357
0.0858428
0.0374652
0.0983718
0.083908
0.0542477
-0.0066019
0.0388061
-0.0674389
0.0335259
-0.0572758
0.0541231
0.0248274
-0.043139
0.0929836
-0.0330885
-0.0088683
0.0363177
0.046898
0.0761664
-0.0868171
-0.0201537
-0.0430295
0.0732004
0.0449502
0.0574196
0.0448467
-0.0550051
0.0765644
-0.0770288
0.0455206
0.00251336
0.0848877
-0.0345379
0.0616798
0.0773445
0.0467738
-0.0540292
0.0993981
0.0847779
-0.0428128
0.026005
0.0516745
0.00708393
0.0258131
0.0543872
0.0825438
0.0258621
0.0994098
0.0749914
-0.000199677
-0.0182815
-0.0548409
0.0768152
0.0305351
0.0730355
-0.060033
0.031348
-0.0121584
-0.00837215
-0.0583275
-0.000500284
0.013137
-0.068524
-0.0614966
-0.0504407
0.0195295
0.027117
0.0727673
-0.0600763
-0.0124617
0.00583355
0.0176541
0.0450459
-0.00791467
