100,1
0.0740304
0.0413531
-0.0852896
0.0753747
-0.0505403
-0.124298
-0.025652
-0.11912
-0.0330998
0.0327145
0.137164
0.100767
0.150419
0.141635
0.0993642
0.122021
-0.0297244
-0.00188137
-0.000708147
-0.0953821
-0.0752492
0.041198
0.0828731
-0.135971
0.0747495
-0.0717543
0.168231
0.11007
-0.0685612
-0.129939
-0.0481617
0.0653311
0.148114
-0.0153779
0.049875
-0.00261994
0.0530318
-0.128112
0.0272521
0.0301571
-0.0315063
-0.0102441
0.0671823
-0.112868
0.0823147
0.0430203
-0.06013
-0.140709
-0.0225757
-0.0786276
0.0415254
-0.0771811
-0.0414836
-0.0808107
0.0872786
-0.112033
-0.0359057
-0.093917
-0.0786097
0.0795427
0.0689724
-0.0775345
-0.0915663
0.00683075
-0.13308
0.0997607
-0.128283
0.000703242
0.137497
-0.0431746
-0.0974678
0.112573
-0.0831747
0.127248
-0.0995451
-0.103748
0.00534193
0.020101
-0.00620857
0.14913
-0.0268164
0.13379
-0.00191927
0.0132743
-0.0270932
0.0860922
-0.0132085
0.0258695
0.105245
0.143819
0.117183
-0.104927
-0.0770161
0.0207783
0.146398
-0.0429271
0.0926713
0.0242672
0.116568
0.11224
