800,1
-0.00369793
-0.0235508
-0.00347502
0.0227558
-0.0226832
-0.0314757
0.0345215
0.0252076
0.0260704
0.0249702
0.0274012
-0.0100235
-0.00601832
0.031994
-0.0242105
-0.0228119
0.0172902
0.0126116
-0.00717024
-0.00547854
-0.0340279
-0.00556559
0.0174744
-0.0293964
0.0298463
0.00465609
0.00701546
-0.00537314
0.0212685
-0.0338824
0.0138899
-0.0334836
0.0355551
0.0240168
0.00246695
0.0116648
0.0336286
0.0254853
-0.00514521
-0.0222169
0.00643805
-0.0180261
0.0342896
-0.0350738
0.0135709
0.0295519
0.0200223
-0.00779179
0.0125302
0.0311022
-0.0318237
0.017754
0.0150172
-0.00906164
-0.029781
-0.00703469
-0.00202735
0.01163
-0.031704
-0.0105392
-0.00666274
0.0155366
-0.0323421
-0.00659859
-0.0187059
-0.0107353
0.018306
-0.0326083
-0.00990237
-0.0283963
0.0302347
-0.0245062
-0.00967062
0.0137163
0.0190826
-0.0168043
-0.0211019
-0.0167966
0.0180178
-0.0286742
0.031783
0.0308613
-0.0164221
0.00787458
0.0283853
0.0035572
-0.0337457
-0.014603
-0.00819146
-0.000139938
0.0282824
-0.0348873
-0.0258467
0.00426698
-0.00350124
0.0130372
-0.022673
-0.00693485
-0.0194581
0.00336051
-0.0187491
0.0316877
0.032381
-0.0126917
0.0344124
-0.0121504
0.0277592
-0.0143898
0.00513366
-0.0172419
0.0279255
0.0139292
0.0306895
-0.0180085
0.0265026
-0.0297356
0.0293138
-0.0218674
0.0357646
0.0163585
0.0352424
0.0309721
-0.0320023
-0.00528556
-0.0182799
-0.0310621
-0.0142235
0.0209526
-0.0244177
-0.00790044
0.0294606
-0.031463
-0.030834
-0.00359482
-0.00133428
-0.00428024
-0.0299811
0.0277897
-0.0213995
0.0219034
0.00471593
0.0278879
0.0292822
0.0211192
-0.0268836
-0.0246136
-0.0046555
0.0181476
-0.0179785
-0.01434
-0.00978268
0.00289373
-0.0233147
0.019732
-0.0145824
0.0267455
-0.0153238
-0.0316227
-0.0224332
-0.0212358
0.0120311
-0.00114884
-0.015596
-0.0163167
0.027532
0.0194886
0.0344625
-0.0208126
-0.0319282
-0.00326195
0.0293396
-0.0323125
-0.023502
0.0152029
-0.00891075
-0.0124729
-0.00402988
0.00190828
-0.0324666
-0.0152007
-0.0326504
-0.00136008
-0.0248174
-0.0187334
-0.0102127
-0.0267613
0.00410277
0.0286351
0.000972614
-0.0238077
0.0239912
0.00489642
0.00729605
0.0262427
-0.0124971
-0.0306687
0.00144913
0.0195987
0.0118865
0.0336736
-0.00623559
0.00333596
0.0272823
-0.0194794
-0.0335045
0.0290103
0.0350536
-0.0177209
-0.00533388
-0.00555081
0.034347
0.00762676
0.0206178
0.0198758
-0.0300195
-0.0228975
0.0124792
-0.00227928
0.0286596
0.0255034
-0.0214643
0.0215762
0.0333463
-0.00182665
5.27181e-05
0.00583653
0.00677219
0.0071861
0.0147199
-0.0113674
-0.00164285
-0.0246836
-0.00393678
0.0272954
0.00160057
0.0134121
0.0269916
-0.0089792
-0.0273339
0.00105121
-0.0356747
-0.0208598
-0.024581
-0.0132107
0.000529448
-0.0173666
-0.00929726
0.00834573
-0.00932664
-0.0268479
-0.0184748
-0.0213711
0.0349994
0.0305288
-0.0100862
0.0109706
0.00620584
0.0168462
0.0277622
-0.0198743
-0.0340435
-0.00904675
0.00504518
0.0305754
-0.0249939
-0.0117648
0.0137956
0.00533451
-0.0203145
-0.003763
0.000139989
-0.0253317
-0.00703983
-0.00557397
-0.0107439
0.0117103
0.0216373
-0.0135195
0.0319306
0.0234274
0.0205787
0.00875307
-0.0163738
-0.00653845
-0.0277816
0.0328835
-0.00772161
0.0271381
-0.0172517
0.00216856
-0.0255928
0.0120999
0.0123639
0.0287007
0.019091
-0.0311009
0.00502618
0.0251051
-0.0185933
-0.00270404
0.0116656
-0.0163946
-0.0225141
0.019767
0.0022221
-0.0178321
0.0109782
0.0111675
-0.00783578
-0.021035
0.0295921
0.00787517
-0.0234729
-0.0031461
-0.0324251
0.015424
0.0153612
-0.020706
-0.0272482
-0.0100742
0.00902534
0.0258553
-0.0213325
-0.00254014
0.0162504
0.0155723
-0.0329837
0.0273654
0.0322901
0.0293211
-0.0232948
0.01087
-0.0215851
-0.0323146
-0.0071177
0.0286861
-0.00217186
-0.0011988
0.0181849
0.0218577
0.0147813
-0.00178794
-0.0234597
0.00805394
0.0212529
-0.0350355
0.0354106
-0.0291921
-0.0353012
-0.0136718
0.0273105
0.021555
-0.0141395
0.0283403
-0.0180224
-0.0339473
0.000498348
0.0299086
-0.0161638
0.001913
0.00606823
0.0222152
-0.00495336
-0.0219123
0.0345249
-0.0257472
0.0348617
0.0110477
0.0119035
0.0249928
0.0161313
-0.0345539
0.00729852
0.0319915
0.0263331
-0.0114908
0.00516534
-0.00227808
0.0136873
-0.018298
0.00108692
0.0152237
0.00225044
0.0199527
0.0158165
-0.0226972
-0.0348751
-0.00291213
-0.014496
-0.0117747
-0.030066
-0.016489
0.0192264
-0.00938832
-0.0205267
-0.00593162
0.0124112
-0.0223767
0.00809206
0.0119999
-0.00946446
-0.00838811
0.00779518
0.0323064
0.0322165
0.00182238
0.00864042
-0.0141669
-0.0173446
-0.0118354
-0.0156784
0.0133736
0.0236651
-0.00361941
0.00298737
0.0352822
0.028051
-0.0306897
-0.00529455
-0.0188301
0.0159063
-0.0329849
0.0156964
0.0222315
-0.0325927
0.0232753
-0.0167742
0.0216653
-0.0240158
0.0194407
-0.0106146
0.0228837
-0.0214494
0.0200847
0.00202867
0.0017703
0.0294543
0.0177022
0.00960057
0.00412509
-0.00720717
0.0147222
0.000868053
0.0178506
0.0081766
-0.00281605
-0.00325951
-0.0141955
-0.00598276
0.0165302
0.00260836
0.00969214
-0.0106477
-0.0248889
0.0158944
0.0244445
-0.00123369
0.0076549
-0.0325829
0.0234205
0.0220621
0.00137435
0.00552413
-0.000274138
-0.02333
-0.00929197
0.0259391
0.0049323
-0.0145267
-0.0238993
0.00981585
-0.0245101
-0.0307379
0.0192267
-0.0128676
0.000107216
-0.0346539
0.0143492
-0.0317766
-0.00641983
-0.0108759
-0.0338823
0.0280226
0.02529
0.0356968
-0.0282637
0.0141215
0.0200729
-0.0233301
-0.0321583
0.011568
-0.0223278
-0.0278913
0.0209642
-0.014533
-0.0201654
-0.0127289
-0.0138445
-0.00769948
-0.0170915
-0.0234452
0.00976029
0.0129958
-0.0162009
0.035243
0.0145365
0.0165222
0.0130889
0.0109905
0.00406713
0.00939714
0.0163405
0.0142266
-0.00233069
0.028435
-0.00689711
-0.0280028
-0.00893462
0.00536153
0.0113289
-0.0121934
0.0335239
-0.0316865
0.0278104
0.0175459
0.0257279
-0.0237561
-0.010563
0.0325229
0.00666965
-0.0326459
0.016525
0.0313421
-0.0213246
0.0123134
-0.0126542
0.0220339
0.00806941
-0.0132184
0.0343396
-0.0325444
-0.0181661
0.0052913
-0.0108927
0.020438
0.0230226
-0.0237137
0.0351977
-0.00603536
-0.00793569
-0.0118477
0.0214167
-0.0254685
0.00495556
-0.0155527
-0.0338539
-0.00201638
-0.0306701
-0.00988891
0.0314721
0.0228443
0.0119423
-0.0114573
0.0245431
0.0148574
0.0293583
0.00903439
0.0103931
0.00531618
0.0282085
0.0254335
0.0168671
-0.01512
-0.0162979
0.0136105
-0.00576803
0.0290748
-0.00712936
-0.0165964
-0.000108896
0.030034
-0.0220162
-0.0108523
0.019692
-0.000782417
-0.0219628
0.02958
-0.0152209
0.0106706
-0.032985
-0.0334954
0.00231509
0.0200581
0.00859339
0.0114965
0.0313319
0.00864813
0.00760358
-0.0125342
-0.0202034
-0.0324388
-0.0205451
0.0298946
0.00921667
-0.0157835
0.0303574
-0.0238032
-0.0098318
-0.0267715
-0.0149382
0.0330604
0.00762982
0.0303183
0.0014782
0.0247941
-0.0338688
0.00228425
-0.00647972
-0.00463056
0.0210059
0.0207061
-0.0324171
-0.0175988
0.00357297
0.028837
0.00290768
0.0344547
-0.00265083
0.00670009
0.0246713
0.00392643
0.0281945
0.00297864
-0.00551494
-0.0220602
0.00232381
0.0265435
-0.0258524
-0.00882233
-0.0309026
-0.0148418
-0.00119096
-0.00173709
-0.017144
0.000622115
0.0172537
-0.00296122
0.0321353
0.0235214
-0.0211883
-0.00527307
-0.0161225
0.032285
-0.00053589
0.0114639
-0.0275978
-0.00202127
-0.00201026
-0.022418
0.0167919
0.0337518
0.00218437
0.00731798
0.00941928
-0.021988
0.0264276
-0.0255487
0.0252784
-0.0173279
-0.01665
0.0132741
-0.00282447
0.0287921
0.000625483
-0.0248702
-0.0192106
0.0346758
0.0212725
0.0166663
0.00260201
-0.00304537
-0.00715455
-0.0163761
0.00705969
0.0249364
0.0106326
0.0222634
0.0122178
-0.00753931
0.0106611
-0.0330569
0.0193743
-0.0332823
-0.0290267
-0.0087035
0.00568449
0.0180066
0.0353435
-0.0120943
0.000524026
-0.00116949
0.00289022
-0.0253192
0.00783703
-0.0189162
-0.0299157
-0.00471617
5.389e-05
0.0193916
0.026476
-0.0224624
-0.0117406
0.00426276
-0.0213034
-0.0306961
0.00991395
0.0144155
-0.0344341
0.00208964
0.00876207
0.0137858
0.0197038
-0.0122964
-0.0261793
0.0205639
0.0097545
-0.00578305
0.0115518
-0.018452
-0.014499
0.00284592
0.0097118
0.0190191
-0.00506139
0.0356937
-0.00233741
-0.00980054
-0.005272
-0.00774494
0.00495736
0.0245815
-0.00852992
-0.0236412
0.00574752
0.0218166
-0.0305607
-0.00638696
0.0215977
-0.0113294
-0.0138465
-0.0349722
0.00291672
-0.0240627
-0.00343629
-0.0145505
-0.0229632
-0.0144355
-0.0341608
-0.00884469
0.0200668
0.014384
0.010759
0.0297672
0.0206162
0.0300512
0.0124768
-0.000369973
-0.0246119
-0.0207037
-0.0116345
-0.0278408
-0.0131132
-0.0142387
-0.00940538
0.0342964
-0.0216563
0.0331311
0.0282497
0.0326244
-0.0211679
-0.0148419
-0.00376854
0.0119563
0.0191071
0.0281318
0.0313391
-0.0147135
0.0165383
-0.010962
0.0205881
0.00944296
0.0185276
0.0310199
-0.00109394
0.019753
0.0282957
0.0281723
0.00987898
0.0286497
0.00121059
