100,1
-0.0582547
0.0202206
-0.0617156
0.0199766
-0.03315
-0.00090108
0.00017484
-0.023993
0.013004
-0.0569865
0.012643
-0.0659021
0.00568121
-0.0617521
-0.0493433
0.0165109
-0.0690314
-0.0245135
0.00927866
-0.0791009
-0.0406556
-0.00400527
-0.0491972
-0.00676483
-0.00375626
-0.0187137
0.0304865
0.0230561
-0.0530149
-0.0726746
0.0165658
-0.0555207
-0.00961012
-0.0393547
-0.0337479
0.01664
-0.0721381
-0.00808759
0.0266072
-0.0471785
-0.00527608
-0.0596371
0.0189033
-0.00415229
0.0182098
-0.0145685
0.0178762
0.0259261
-0.052905
0.0266282
0.0187071
-0.00504582
0.000825343
-0.0251271
-0.0390196
-0.0476078
-0.0488139
0.010188
-0.00904531
-0.00456801
-0.0603741
-0.0083386
-0.0659949
-0.0273394
-0.0423167
-0.0760694
-0.0573116
-0.0518687
-0.058892
-0.0594956
-0.0515653
0.0213758
0.00604804
-0.0618529
0.0205863
-0.0175723
0.00350716
-0.011494
-0.0746163
0.0152737
0.0252802
-0.0375073
0.0338048
-0.0555657
-0.0302352
-0.0313962
-0.0210185
0.0320337
0.0260421
-0.0432361
0.0342564
-0.0722355
-0.0420109
-0.0424378
0.0365097
-0.00729811
0.00684145
-0.0155152
-0.0211879
-0.0590919
