100,1
-0.0613818
-0.0955934
-0.0590143
-0.0544255
-0.139598
0.0945606
-0.0139257
-0.113423
0.105299
0.0160119
-0.0878246
0.0426265
-0.0648578
0.137713
-0.13315
0.0412338
0.126352
-0.114648
-0.024934
-0.0341112
0.0162007
0.0922682
0.108643
0.0584034
0.0132725
0.0122076
0.0653863
-0.126484
0.013994
0.115116
-0.0302899
-0.136191
0.0659988
-0.0462451
-0.141371
0.111484
0.035107
-0.0200283
0.126871
-0.140609
0.0726983
0.0834742
-0.020273
-0.110249
-0.111039
-0.0415163
-0.137108
0.0768403
-0.0272507
0.0964051
-0.109436
-0.138748
-0.0645812
0.131989
0.143275
0.110897
-0.102718
-0.0862541
0.107793
0.0430606
0.0296994
-0.119862
0.100699
-0.104235
-0.112603
-0.138157
-0.108924
0.0398931
0.00943693
0.00817401
0.00292298
-0.0649985
0.0514663
-0.0469923
0.0843507
-0.0844872
-0.105252
-0.0281209
0.00262753
-0.103466
0.0618777
0.018331
-0.0256804
-0.0768721
0.120044
0.028944
-0.103639
0.0177496
0.0595879
0.0161572
-0.0695796
-0.134572
-0.0845907
-0.131818
0.0444067
0.103013
-0.123078
-0.0485056
0.0998468
0.0493219
