300,1
-0.00426162
0.0563321
0.0565443
0.0110061
-0.0451201
-0.0919484
-0.0517642
0.0781949
-0.0846216
-0.0304635
0.0874876
0.0247603
0.00332959
0.0370562
0.0444082
-0.0709842
-0.0158016
-0.0349521
-0.0110007
-0.0740916
0.0991741
-0.0297275
-0.0839544
-0.0100116
0.063187
-0.0218328
-0.0645037
0.00757674
-0.0717409
0.0762585
-0.0363579
-0.0855051
-0.0164996
0.0278121
0.0427613
-0.070072
-0.058332
0.02749
-0.00983953
0.0678648
-0.0549416
-0.0136048
0.0525777
0.0786
-0.0358165
0.0309072
-0.0943033
-0.02622
0.0650615
-0.0560729
-0.0427327
0.0322976
0.0676011
-0.0566543
0.0625892
-0.0590908
-0.00059899
-0.0623559
-0.0389395
-0.0779098
-0.0845521
-0.0478277
0.0462886
0.027295
0.06946
0.0597581
0.0838719
-0.0444511
0.0648761
0.0455012
-0.012183
0.0215151
0.0755728
0.0922898
0.00500993
-0.0660322
0.0241995
-0.0171146
0.0690407
0.0800223
-0.0682464
-0.0270399
0.0430035
0.0153403
-0.0292131
-0.0541378
0.0934028
-0.00739098
0.0510176
0.00240839
-0.0400107
0.0209742
0.0693517
-0.0577916
-0.063675
-0.0621839
-0.0269209
0.0560314
0.0386281
0.0429165
-0.0120065
-0.0348829
0.0102431
-0.0440831
-0.0137972
-0.0675844
0.0212974
0.0521787
0.0741429
-0.0203212
0.0443111
0.0333326
0.0404125
-0.0394048
0.0937808
0.0896681
0.0606057
-0.0243949
0.069461
0.0229955
0.00420049
0.0251023
-0.0287415
0.0767526
0.0497159
0.0483032
-0.0531974
-0.0707995
0.0490844
0.0403088
-0.0335124
3.36344e-05
-0.0533315
0.0702597
0.0886585
-0.0145092
0.0862444
0.0504225
-0.000749835
0.0600054
0.0622616
-0.0936223
-0.0599418
-0.0463755
0.067709
0.0629611
0.0159598
-0.0245014
0.0305226
0.00801891
0.0703757
0.0508117
-0.0320478
0.0168292
0.0292358
0.0366231
0.0658868
0.0418869
0.0547899
0.0786309
0.0479527
0.019461
-0.00532967
0.0190335
0.0578695
-0.0242059
-0.0111438
0.0644864
0.0953836
-0.0564503
0.0374043
0.0452228
-0.0175355
0.0385438
-0.0654068
-0.0740413
0.0588093
0.0632967
0.0902424
0.0781616
-0.0423369
-0.0402334
0.0189232
0.023062
0.0687307
-0.0373566
0.00480062
0.060331
0.0102218
0.0533275
-0.0377019
-0.0564601
-0.082099
-0.00524916
-0.0172384
0.0600891
-0.0658109
0.030374
-0.0810326
0.0636739
-0.0302186
0.0397409
-0.0478725
0.0794917
-0.0541382
0.0835151
0.101943
0.0258543
-0.00130895
0.00526831
-0.0079159
0.0524325
0.0752735
0.0476114
-0.0516363
-0.0289025
0.0206144
0.00586958
-0.0135703
0.0757324
0.0760969
-0.0339123
0.0715274
-0.0350489
0.0473591
0.0202059
0.0874813
0.0386855
0.0974734
0.0848577
0.0577613
-0.00554375
0.0394108
-0.0678979
0.0344268
-0.0569505
0.0527547
0.0238523
-0.0427885
0.0949759
-0.0302857
-0.0078965
0.0385032
0.0506815
0.0749594
-0.0850714
-0.0191035
-0.0422396
0.0734732
0.0454282
0.0577764
0.0462334
-0.0523699
0.0757672
-0.0765758
0.0483033
0.00274037
0.0867869
-0.0346261
0.0618274
0.0768693
0.048664
-0.0532564
0.100052
0.08672
-0.0408327
0.0257252
0.0528014
0.00731634
0.0260246
0.051654
0.082883
0.0281128
0.100071
0.0748485
-0.00331961
-0.0168025
-0.0573406
0.0760328
0.0297752
0.0725101
-0.060428
0.0285445
-0.0103974
-0.00106672
-0.0562068
-0.000108741
0.0109842
-0.069555
-0.0623361
-0.0505764
0.021097
0.0282944
0.0752014
-0.0580725
-0.00722677
0.0049539
0.0182278
0.0466676
-0.00758496
