100,1
0.0745367
0.0409326
-0.0843865
0.0776203
-0.0496332
-0.122258
-0.0256815
-0.118459
-0.0300882
0.0352658
0.136612
0.100755
0.147332
0.1417
0.0999158
0.123373
-0.0283479
-0.00191775
0.00151764
-0.0924286
-0.0764724
0.0386698
0.0855312
-0.134889
0.0740942
-0.0718137
0.170316
0.111215
-0.070216
-0.130639
-0.0480042
0.0672138
0.151055
-0.0150103
0.049875
-0.00269697
0.0524942
-0.128809
0.0272521
0.0319977
-0.0303603
-0.0113061
0.0666008
-0.11261
0.0826702
0.0419325
-0.060549
-0.140645
-0.0244054
-0.0762359
0.0412665
-0.0780086
-0.0401414
-0.0811913
0.0896109
-0.111974
-0.0333625
-0.0918951
-0.0790337
0.081034
0.0689483
-0.0748989
-0.0896634
0.00634926
-0.13207
0.0995904
-0.129477
0.00382557
0.138045
-0.0394931
-0.0967969
0.11234
-0.0812224
0.126769
-0.0995502
-0.105362
0.00401974
0.021544
-0.00411542
0.152056
-0.0246854
0.137005
0.00110528
0.0128344
-0.0260344
0.0862278
-0.011223
0.0282223
0.107634
0.145049
0.11947
-0.104644
-0.078
0.0239461
0.147251
-0.0414056
0.0934902
0.0243124
0.117737
0.11247
