300,1
-0.0634352
-0.0508951
-0.000177745
-0.00525443
0.0496064
0.0723252
0.0397688
-0.0101066
0.0209798
-0.0255012
0.0634533
-0.0373617
0.0480313
-0.0510344
-0.0737538
-0.033716
0.068444
-0.0758862
0.00352151
0.0105338
-0.0360105
0.0440294
0.00356029
0.00397386
-0.0477571
0.0656716
-0.0176991
-0.0591298
-0.0070388
0.0814606
0.0146435
0.0751841
-0.0112725
0.0663006
-0.0421844
-0.0390842
0.0397919
-0.012889
-0.0226526
0.0699271
-0.070985
0.0816764
0.00660018
0.0320128
-0.070139
0.0166853
-6.96056e-07
-0.0184162
0.00859668
-0.0773904
-0.0594487
0.0679767
-0.0526377
-0.0186286
0.0869281
0.0770905
-0.00550947
-0.0523053
0.045047
-0.0473531
-0.0807406
0.0581438
-0.0860602
-0.0270415
-0.00486211
-0.0131087
0.0176179
-0.00949812
0.0408161
-0.00850877
-0.0748555
-0.0629314
-0.0320131
0.0429137
0.0834258
0.0255856
-0.0708816
0.0207047
0.0402199
-0.0696799
-0.00107036
-0.0618158
-0.0170081
0.0543989
0.0580224
-0.0543849
-0.0455597
0.0458372
0.0278749
-0.030978
-0.0358803
0.0673599
-0.0650036
0.00670744
0.0112241
0.0798832
0.0345183
-0.0670483
-0.0744693
-0.0189799
-0.000778379
0.0509774
0.0167323
0.0735644
0.0534101
0.00680533
-0.0496576
0.0209196
-0.0207095
-0.0724283
0.0104163
0.022006
-0.0178689
0.0732394
0.0850693
-0.0275953
-0.0404363
-0.018264
0.0796541
-0.000993034
-0.0209803
-0.084336
0.0810699
-0.075026
-0.0518297
-0.0427997
0.0222231
-0.0760479
-0.0721125
0.0431785
-0.0168953
0.0420957
0.0732891
0.0299525
-0.0716373
-0.0503689
-0.0289467
0.0245573
-0.0343766
0.0647936
0.0507638
-0.00623916
0.0243283
0.0574639
0.0364118
0.0726788
0.0686137
0.00202734
-0.0328204
-0.0589105
-0.037621
-0.0268448
-0.0239287
0.0211236
-0.0264388
-0.0133061
0.0607261
-0.0612977
-0.0387219
0.0272908
0.0197864
-0.0678878
0.0419452
0.00056435
-0.00921073
-0.0509226
0.0510624
0.0720595
-0.0778459
0.0366793
0.0176893
0.00434496
-0.0207468
-0.0609895
-0.0306311
0.0341249
0.024239
0.0361062
0.0380455
0.0830506
-0.0789458
0.0466373
0.0180142
0.000530434
0.0314037
0.0410966
0.0113464
0.0440948
-0.0111057
0.042717
0.0142414
0.0385783
0.0227792
-0.019483
-0.0274289
-0.0785752
0.0484178
0.0612654
0.0492028
-0.0288195
-0.0568146
-0.023537
-0.0214081
0.0700576
0.0537596
0.00580345
0.0687284
-0.0017237
-0.0186197
-0.00925209
-0.0525788
0.0780973
0.078895
-0.0172237
0.0647567
-0.0175129
0.0806312
-0.0155942
-0.0636817
-0.0770036
-0.0572297
-0.0826815
0.039958
0.0521832
-0.000828075
-0.0538773
0.025618
-0.0208303
0.00784552
0.00390148
0.0676577
0.0508375
0.066447
0.0104069
-0.0423208
-0.0503615
-0.0197409
-0.0305576
-0.0807768
-0.0607535
0.00282596
0.0554295
0.0601292
-0.0851947
0.0332218
-0.0173173
0.0725582
-0.0803683
-0.0639384
-0.00250918
-0.0308793
0.001186
0.0209156
0.0656214
0.0709399
0.0716667
-0.0299779
0.0261979
-0.0415246
-0.0367962
0.0722524
-0.0163368
0.0210723
0.0429265
0.0240232
-0.0301018
0.0787526
-0.0485423
-0.0284841
-0.0193916
-0.0571702
0.0485935
0.0133275
0.00102105
-0.0555036
-0.0668189
-0.000963308
-0.0142462
-0.0349117
-0.0224983
-0.0691685
-0.0462511
-0.0233031
0.0585293
-0.0812502
0.0240697
-0.0577526
-0.0226657
0.0573796
-0.0815672
0.00759002
0.0668032
-0.0501828
-0.0861501
0.047155
0.0194381
0.0178916
0.000178638
-0.0555833
0.0660203
