300,1
0.0323068
0.0270012
-0.0277305
-0.00745793
-0.0247373
0.0377572
-0.0284127
0.0290988
0.0111415
0.0246857
-0.0222846
0.029773
0.030199
0.0258121
-0.00187203
-0.00981674
0.0166828
-0.0235493
0.0141713
0.0257641
-0.00683652
-0.000972498
0.01396
0.0160075
0.0280362
-0.0258546
-0.012733
0.0271608
-0.00158939
0.00747723
0.0145545
0.0151593
-0.00964671
0.0175201
0.033264
-0.0235519
-0.0227773
-0.00107823
-0.0138422
0.019481
-0.0203069
0.0061883
-0.0100049
0.0225037
-0.0183491
0.0228948
0.0171761
-0.0257811
-0.00233905
-0.0144713
-0.0065938
0.0367431
-0.023831
-0.010887
0.00839901
-0.00855888
-0.0271187
-0.0200177
0.0150859
-0.000484759
0.0311815
-0.0313596
0.0216552
-0.0129926
0.0143832
0.0013981
0.0121821
-0.0168248
0.0306697
0.0148585
-0.0136637
0.0101069
0.03718
0.00801554
0.0093584
-0.0167734
0.0291307
0.0225871
0.0249498
-0.0210566
0.0265966
0.0147142
0.0122595
0.00612368
0.00615506
0.0129369
0.00152023
-0.0333279
0.0252342
-0.0308594
7.80344e-05
0.0180591
0.0356445
-0.0215244
0.0181487
0.00449047
0.0193517
-0.0298403
0.0355332
0.00708387
0.0322597
0.00928797
0.011292
0.00722177
-0.0244227
0.0364185
-0.00879234
-0.0279511
0.00516305
0.00949119
-0.00262966
-0.0281813
0.0325873
-0.0108029
0.0193385
0.0296435
-0.0119332
-0.0240337
-0.0313367
-0.025535
-0.0159943
-0.00100774
0.0327599
0.0379803
0.0368805
0.00332647
-0.00361744
0.0107142
0.0369065
0.0288201
-0.00875921
-0.023267
0.0321908
0.0241858
0.0172911
-0.00909322
-0.0305009
-0.0332223
-0.0325327
0.0238459
0.0237391
0.0186522
0.00753687
-0.015732
0.00356522
-0.000678307
-0.0139908
0.0276611
-0.0346682
-0.0186818
0.0323346
0.0328555
0.00533851
0.0306556
0.0222192
0.0302387
0.0163166
0.021475
0.0287944
-0.0175618
0.0377274
0.0334067
0.0306892
-0.00593333
0.0133532
0.0319782
-0.0248023
0.00780622
-0.0167058
-0.00684721
-0.00277555
-0.00261352
-0.0304945
0.0324174
-0.0254012
0.0270711
0.000197205
-0.012439
0.0137135
0.00287296
0.00316964
-0.0127127
-0.00777944
0.0220276
-0.00211202
-0.0150358
-0.0077489
0.0335232
0.0246448
0.00256055
0.0363321
-0.027045
-0.00337593
0.0306826
0.0372521
0.0194658
0.0209472
0.023249
0.00275079
0.0189113
0.0206965
-0.0126936
-0.0273962
0.0214306
0.0198811
0.0261822
0.0300447
-0.0286702
0.00966888
0.00213027
0.0206063
-0.0282714
0.0130286
0.028493
-0.0230202
-0.0156119
-0.0251669
-0.00762943
-0.0230067
0.0216661
0.0165945
0.0185875
-0.0166772
0.00772163
0.0329523
0.0346346
-0.0209293
0.018553
0.0093399
-0.0080776
-0.0299916
0.0112975
-0.000261309
-0.0173501
-0.0231596
0.0129899
-0.0220452
-0.00669936
-0.0259008
0.0232321
0.00188916
-0.0261936
-0.0126833
-0.013202
-0.0126699
0.0228246
-0.00257954
0.0211666
-0.0231839
0.0295013
-0.0161557
-0.00993077
0.0177231
-0.0304679
0.011924
0.0160922
-0.0235935
0.0237299
0.016468
-0.025334
0.00669203
-0.00335401
0.0194252
-0.0303027
-0.00266713
-0.0218707
0.0349298
-0.0164903
0.0350276
0.0287309
-0.00014346
0.0208329
-0.0239518
0.0314619
0.0218623
0.00550992
0.00778111
0.000654484
-0.0115015
-0.0174792
-0.0216312
0.0157718
0.0377045
-0.0152116
0.00208005
-0.00317631
0.0112236
0.0166401
-0.0272021
0.0296455
0.0336595
0.0373592
-0.0250329
-0.00175943
0.00305015
0.0172
-0.0147693
-0.00205567
0.0098401
0.0204609
