100,1
-0.0542568
0.0239128
-0.0571274
0.0239075
-0.0292381
0.00314268
0.00467336
-0.0196324
0.0172593
-0.053202
0.016659
-0.0630447
0.0093646
-0.0582469
-0.0456766
0.0204762
-0.0653617
-0.0208501
0.0129246
-0.0754296
-0.0372833
-0.000182313
-0.0448236
-0.0029273
0.00039641
-0.0146944
0.0348324
0.0271358
-0.0496522
-0.0686882
0.0201992
-0.0520017
-0.00596016
-0.0358421
-0.0304074
0.0210426
-0.0687531
-0.0048463
0.0305627
-0.0431211
-0.000915931
-0.0561006
0.0224789
-0.000773294
0.0218371
-0.0103213
0.0218807
0.0307169
-0.0484895
0.0308836
0.0230885
-0.000794949
0.00407087
-0.0209554
-0.035191
-0.0446247
-0.0446481
0.0143581
-0.00465355
-0.00034811
-0.0564469
-0.00414632
-0.0629688
-0.022713
-0.0385448
-0.0725378
-0.0531053
-0.0484288
-0.0553637
-0.0556341
-0.0481611
0.0259994
0.0101314
-0.0575381
0.0245433
-0.0139824
0.00702688
-0.00711926
-0.0709982
0.0186998
0.0292489
-0.0338402
0.0374719
-0.0514821
-0.0255255
-0.0269953
-0.0173344
0.0360402
0.0297649
-0.0394445
0.0379954
-0.0686334
-0.0381377
-0.038878
0.0400508
-0.00375436
0.0103663
-0.0116018
-0.0172845
-0.0550429
