800,1
-0.0037421
-0.0236978
-0.00358018
0.0226781
-0.0228918
-0.0316077
0.0343876
0.025097
0.0259648
0.0248149
0.0272876
-0.010083
-0.00615605
0.0318208
-0.02425
-0.0229414
0.017329
0.012419
-0.00726497
-0.00552848
-0.0340027
-0.00564431
0.0173697
-0.029566
0.0299024
0.00469258
0.00708515
-0.00533057
0.0211564
-0.0338988
0.0137538
-0.0335193
0.035418
0.0238843
0.00228051
0.0116619
0.0334998
0.0254334
-0.00522144
-0.0222808
0.00626039
-0.0180272
0.034204
-0.0351616
0.0134143
0.0295155
0.0199545
-0.00782374
0.0124945
0.0310863
-0.0320599
0.0177228
0.0148466
-0.00909095
-0.0298659
-0.00718332
-0.00197804
0.0115382
-0.0315374
-0.0106586
-0.00679862
0.015499
-0.0324053
-0.00671545
-0.0187525
-0.0108358
0.0181889
-0.0326541
-0.00993606
-0.0285233
0.0301675
-0.0246994
-0.00972276
0.0135419
0.0190993
-0.0168232
-0.0213239
-0.0169185
0.0180087
-0.0286756
0.0318843
0.0306787
-0.0165473
0.00790472
0.0283656
0.00354639
-0.0338839
-0.0146898
-0.00819182
-0.000299767
0.0281676
-0.0348632
-0.0258895
0.00432939
-0.00345996
0.0129914
-0.0226828
-0.00703858
-0.0195396
0.00310565
-0.0188579
0.0316479
0.0323227
-0.0128313
0.0343117
-0.0123234
0.0276746
-0.0143978
0.0050089
-0.0174752
0.0278531
0.0138424
0.0306347
-0.0180953
0.0264858
-0.0299004
0.0291009
-0.0219286
0.0357077
0.0163527
0.0351178
0.0308417
-0.0319224
-0.00537795
-0.0183283
-0.0310389
-0.0141896
0.0208155
-0.0245192
-0.00790258
0.0293936
-0.0317493
-0.030803
-0.00359346
-0.0014494
-0.0043579
-0.030088
0.0277408
-0.0213584
0.0217968
0.00458303
0.0277619
0.0291812
0.0210388
-0.0270202
-0.0246926
-0.00470597
0.0179367
-0.0179647
-0.014435
-0.00988176
0.00275724
-0.0234416
0.0195982
-0.0146181
0.0266483
-0.0153392
-0.0317241
-0.0224649
-0.0212723
0.0120659
-0.00120188
-0.0156962
-0.0164307
0.0274389
0.019394
0.0343905
-0.0207724
-0.0318797
-0.00332613
0.0292107
-0.03236
-0.0235518
0.014961
-0.00896597
-0.0126341
-0.00400338
0.00186686
-0.0324446
-0.0152292
-0.0327317
-0.00159593
-0.0248983
-0.0187758
-0.0103257
-0.0267809
0.00396325
0.0285953
0.000902481
-0.0239698
0.0237787
0.00478317
0.00713614
0.02614
-0.0125103
-0.0307728
0.0014504
0.0196071
0.0118155
0.0335554
-0.00613748
0.00326327
0.0272968
-0.0195478
-0.0334667
0.0289344
0.034906
-0.0178263
-0.005421
-0.00547981
0.0342045
0.00752582
0.0204922
0.0198365
-0.0300841
-0.0228593
0.0124072
-0.00243451
0.0286441
0.0254126
-0.0216097
0.0215778
0.0332403
-0.00195508
-5.86063e-05
0.00577718
0.00678
0.00712522
0.0146055
-0.0115426
-0.00171726
-0.0247291
-0.00413919
0.0271776
0.00156213
0.0131996
0.0268782
-0.00898201
-0.0275142
0.000867168
-0.0356891
-0.0209401
-0.024582
-0.0133561
0.000528482
-0.017439
-0.00948431
0.0082724
-0.00955461
-0.0269264
-0.0184792
-0.0215419
0.0348792
0.0305112
-0.0102361
0.0107042
0.0060978
0.0167855
0.0277014
-0.0198328
-0.0341231
-0.00919449
0.00489535
0.0303993
-0.0250502
-0.0118116
0.0136877
0.00531387
-0.0204836
-0.00387973
8.09252e-05
-0.0254124
-0.00706838
-0.00566829
-0.0107801
0.0115982
0.0215938
-0.0135503
0.0318905
0.023415
0.0204795
0.00866964
-0.0163919
-0.00655704
-0.0278574
0.0326823
-0.00778846
0.027018
-0.0172339
0.00207833
-0.0257503
0.0120325
0.0122146
0.0286987
0.0188906
-0.0312689
0.00513503
0.0249949
-0.0186408
-0.00279888
0.0115393
-0.0165094
-0.0227265
0.0195673
0.00224749
-0.0179037
0.0108506
0.0110828
-0.00793392
-0.0211088
0.0295231
0.00772273
-0.0234112
-0.00326711
-0.0325804
0.01537
0.0153049
-0.020842
-0.0273059
-0.0101864
0.00899314
0.0257786
-0.0214317
-0.00261152
0.0161645
0.0156278
-0.0330603
0.0273448
0.032349
0.029377
-0.0233776
0.0107387
-0.0215677
-0.0325588
-0.0072309
0.0286418
-0.00238945
-0.00133407
0.0180717
0.021694
0.014641
-0.00185035
-0.0234344
0.007934
0.0211974
-0.0350598
0.0352441
-0.0292846
-0.0354378
-0.0137234
0.0272624
0.0214712
-0.0143135
0.0282338
-0.0181138
-0.0340587
0.000415814
0.0298743
-0.0161661
0.00173043
0.005975
0.0221867
-0.00507958
-0.0220224
0.0344969
-0.0258442
0.0347676
0.0110023
0.0117109
0.0248858
0.0159544
-0.0347118
0.0072586
0.0320745
0.0261483
-0.0115196
0.00505477
-0.00241754
0.0136616
-0.0183859
0.00108485
0.0152132
0.00224767
0.0200434
0.0157132
-0.0229178
-0.0350986
-0.00302575
-0.0144138
-0.0118218
-0.0301831
-0.0165628
0.0192223
-0.00952639
-0.0205478
-0.00588455
0.012407
-0.0224286
0.00800664
0.0120336
-0.00957076
-0.00841397
0.00772011
0.0323367
0.0322244
0.001824
0.00850689
-0.0142697
-0.0172287
-0.0117642
-0.0157789
0.0133315
0.0236244
-0.00364315
0.00302388
0.0352249
0.0279235
-0.0306775
-0.00536261
-0.0188629
0.0157576
-0.0329635
0.0157503
0.0219903
-0.0326852
0.0232528
-0.0168838
0.0215395
-0.0242501
0.0193565
-0.0107609
0.0227649
-0.021462
0.0199527
0.00189077
0.00158673
0.029368
0.0176481
0.00955741
0.00406149
-0.00737167
0.0147274
0.000798735
0.0176921
0.00813111
-0.00289511
-0.00337045
-0.0142496
-0.00608125
0.0163876
0.002445
0.00962201
-0.0107341
-0.0248882
0.0158129
0.0244198
-0.001213
0.00760089
-0.0326595
0.0232872
0.0220596
0.00127692
0.0054575
-0.000264867
-0.023447
-0.00937748
0.0259053
0.00486123
-0.0147515
-0.0240594
0.00978127
-0.0245574
-0.0306118
0.0192399
-0.0128551
3.23391e-05
-0.0347256
0.0143142
-0.0319183
-0.00656737
-0.0109871
-0.0340677
0.0280092
0.0251619
0.0355964
-0.0283669
0.014088
0.0200383
-0.0233888
-0.0323108
0.011436
-0.0223511
-0.0280071
0.0210648
-0.0146285
-0.0202259
-0.0129349
-0.0137787
-0.00771627
-0.017211
-0.02356
0.00964912
0.0129336
-0.0163014
0.0352969
0.0144672
0.0163756
0.0130772
0.0109197
0.00406743
0.00936581
0.016291
0.014113
-0.00242011
0.0283049
-0.00705661
-0.0280694
-0.0091764
0.0052061
0.0112516
-0.0122614
0.033451
-0.0317925
0.0277283
0.0174945
0.0256831
-0.0238409
-0.0106907
0.0323893
0.00655965
-0.0327473
0.0164669
0.0312172
-0.021412
0.0122046
-0.0126979
0.0221098
0.00799246
-0.0132431
0.0342426
-0.0324802
-0.0182188
0.00523934
-0.0110003
0.020397
0.0229588
-0.0236249
0.0350464
-0.00610477
-0.00802271
-0.0120599
0.0212957
-0.0256317
0.00477622
-0.0156157
-0.033888
-0.00208261
-0.0308011
-0.009936
0.0314008
0.0227635
0.0117514
-0.0114676
0.0243133
0.0147158
0.0294177
0.00894039
0.0103496
0.00535683
0.0281388
0.0254285
0.0167977
-0.0151802
-0.0162944
0.0134713
-0.0058765
0.0289903
-0.00735695
-0.0168932
-0.000278893
0.0299205
-0.0221392
-0.0109618
0.0196573
-0.000737253
-0.0220418
0.0296217
-0.0153948
0.0106453
-0.0330755
-0.0336274
0.0022628
0.019946
0.00860815
0.0114188
0.0312612
0.0086355
0.00761152
-0.0125387
-0.0203515
-0.0325756
-0.0206475
0.0297818
0.00920474
-0.0157759
0.0302475
-0.0240237
-0.00984132
-0.0270097
-0.0150004
0.0331321
0.007679
0.030254
0.00137091
0.0246633
-0.0337911
0.00208214
-0.00659487
-0.0046889
0.0208591
0.0206571
-0.0325442
-0.0175551
0.00357705
0.0287668
0.00274866
0.034355
-0.0027435
0.0067265
0.0246759
0.0038877
0.0281965
0.00291834
-0.00562351
-0.0220584
0.00228304
0.0265727
-0.025866
-0.00872287
-0.0309289
-0.0148135
-0.00115927
-0.00175321
-0.0172511
0.000615934
0.0171884
-0.00307814
0.0320377
0.023425
-0.021292
-0.0053335
-0.0161071
0.0322032
-0.000610861
0.0114206
-0.0277414
-0.00210824
-0.00198321
-0.0225488
0.0166881
0.0336795
0.0020858
0.00723776
0.00932512
-0.0219902
0.0264793
-0.0256311
0.0253062
-0.0174525
-0.0167738
0.0131684
-0.0029629
0.028743
0.00061057
-0.0249845
-0.0193114
0.0346201
0.0214288
0.0165965
0.00244091
-0.00302798
-0.00722427
-0.0164137
0.00705623
0.0248578
0.0106778
0.0222872
0.0120032
-0.00763286
0.0105016
-0.0330834
0.0193539
-0.0334602
-0.0291112
-0.00884769
0.00570651
0.0179788
0.0351305
-0.0121378
0.000474331
-0.00116353
0.00274957
-0.0254908
0.00775899
-0.0190669
-0.0299918
-0.00488054
-0.000127497
0.0192842
0.0264002
-0.0225647
-0.0118018
0.00424592
-0.0212335
-0.0308488
0.00988287
0.0143891
-0.0345234
0.00194242
0.00858973
0.0138089
0.0197222
-0.0123975
-0.0261381
0.0206282
0.00973379
-0.00586561
0.0115383
-0.0185939
-0.0145007
0.00273092
0.00965833
0.0189894
-0.00515592
0.0354182
-0.00239569
-0.00987492
-0.00530091
-0.00775501
0.00492461
0.0244906
-0.0085526
-0.0237434
0.00564665
0.0217532
-0.0307401
-0.00642279
0.0216834
-0.0114613
-0.0138975
-0.0349729
0.00274623
-0.0242496
-0.00352692
-0.0146728
-0.0230361
-0.0145693
-0.0341575
-0.00894401
0.0201259
0.0143449
0.0107453
0.0297649
0.0204366
0.0300082
0.0123317
-0.000515085
-0.024641
-0.0208537
-0.0117744
-0.0280049
-0.0132076
-0.0142913
-0.0094747
0.0342347
-0.0217777
0.0331203
0.0281996
0.0324505
-0.0214105
-0.0148015
-0.00389864
0.0119214
0.0188957
0.0280266
0.0313442
-0.014698
0.0164214
-0.0110839
0.0207059
0.00937297
0.0184782
0.0310696
-0.00124542
0.0197308
0.0281722
0.0281355
0.00980881
0.0284513
0.00113513
