800,1
0.0820075
0.0280093
0.0772878
-0.0226036
0.0269474
-0.050119
-0.0512196
-0.0507558
0.0895085
-0.0659363
0.0595077
-0.0583681
0.0596649
0.0860861
-0.0231252
-0.0233626
0.0485179
0.014055
0.0239484
0.0668794
0.059764
-0.0144162
0.050394
-0.0329615
-0.039999
0.0641151
-0.0611666
0.0172327
0.0764994
-0.0644991
-0.0493943
-0.028494
-0.0220806
0.0457945
-0.0618666
0.043902
0.00684863
-0.0687147
-0.0225452
-0.0802398
-0.0408826
0.0260156
0.0171598
-0.0664383
-0.0764399
-0.0321538
-0.0616216
-0.0236889
-0.0165224
0.0276913
-0.055849
0.0486683
0.0579403
-0.0541305
0.00137741
0.02539
0.0799279
-0.0475327
-0.0495613
-0.0577918
-0.0528656
0.0335671
-0.0544268
-0.0401153
-0.0173778
-0.0439565
-0.0663856
0.0639228
-0.0708745
-0.0374894
0.0629157
0.0630069
0.032341
0.0996165
0.0722474
-0.00204825
-0.00947757
-0.0393648
0.0173091
0.0217437
-0.0854395
-0.036611
0.0459925
0.0744297
0.0320252
-0.0183226
0.0337567
-0.0551736
0.0149599
0.0658979
0.00453193
-0.0691739
0.083477
-0.0525132
-0.0448689
-0.0365767
0.0148142
-0.0419873
-0.0337163
-0.051945
0.0311144
-0.0592266
0.0261359
-0.0540639
0.0609023
0.071139
-0.0516469
0.0823617
-0.035718
-0.0635006
0.0837345
-0.0406455
0.0391564
-0.0571753
-0.0478085
0.0355028
0.0585145
-0.0594785
0.0218281
0.0422667
0.0226612
-0.060136
0.0632156
0.028613
-0.00967886
-0.0701358
0.0134574
-0.0290558
-0.0729336
-0.0445954
-0.037946
-0.0240073
-0.0359884
-0.0394106
-0.0196376
0.00975111
-0.0249814
0.0651826
0.0415532
-0.0363358
0.0500837
-0.0319353
0.00257499
-0.000229442
0.0696639
0.0736889
-0.0475009
-0.0956015
0.0146501
0.0718964
-0.0517322
0.0383433
-0.0410522
0.0637123
0.0316203
-0.0338261
0.0616635
0.0392084
0.077455
-0.0450104
0.0217562
0.0611223
0.0190472
0.0579213
0.0766054
-0.0561937
-0.0606501
0.0387348
-0.0531831
-0.0762013
0.0412256
-0.00158672
-0.00639257
0.0581189
0.0389724
0.0164182
-0.0828285
-0.011436
0.059854
0.0172473
0.0313795
0.0251346
0.0639526
0.0245568
-0.0430372
-0.0102126
-0.0424079
-0.0095752
0.0216932
0.0286183
-0.0622421
0.000255219
0.0193572
-0.069836
-0.0649619
-0.0600706
0.0582093
-0.0287439
-0.0822164
-0.00816273
-0.0525823
0.0674908
-0.0240914
0.0750181
0.002586
0.0301703
0.0283483
0.044506
0.037503
0.00553695
0.0378407
-0.0239996
0.048565
-0.0583332
0.0793214
0.0514666
-0.0857087
0.0828263
-0.00208261
0.0698596
-0.0772093
-0.054966
0.0383131
0.0983665
-0.0762205
0.044679
-0.0233503
-0.0611962
-0.0519844
0.0135433
0.0376346
0.0416876
-0.022567
0.0658694
0.0678903
-0.0875631
0.0203483
-0.0188436
-0.024036
-0.0818192
0.0467012
-0.0798474
0.0760546
0.0684711
0.0531972
-0.00265328
0.00633486
0.0650859
-0.0459824
0.0761387
0.0216808
-0.0730997
0.000623996
-0.0727896
-0.0613628
0.0141797
-0.0413763
0.0649787
-0.0183589
0.0838845
0.0706703
-0.0622471
0.0184264
0.0846403
0.0114062
-0.077574
-0.0545111
-0.023603
0.0391337
-0.00373028
0.0321238
0.0823982
-0.031359
-0.0252259
0.0948962
0.073174
0.022283
-0.0257541
0.060229
-0.0629918
0.0854041
0.0729161
0.0384728
0.053976
-0.0315158
0.0398612
-0.00212927
-0.012779
-0.0281482
0.0386001
-0.00402962
0.0437076
-0.0483837
-0.00888359
-0.0255733
0.0983449
-0.0297102
-0.0635535
0.0587242
0.0381548
-0.0813212
-0.0727777
-0.0707316
0.0688671
-0.0802631
0.0523855
0.0516993
-0.0642934
-0.00145171
0.0372925
0.00556068
-0.0120129
0.052074
0.0852049
0.0823996
0.0477963
0.0582146
-0.0207322
0.0225846
0.00124608
0.0421001
-0.0134319
0.0800973
0.0548286
-0.0397324
0.0683218
0.0423129
-0.00684944
-0.0259038
0.0105604
-0.0665325
0.0506357
0.0799807
-0.0729257
-0.0313461
-0.0667185
0.0298142
0.0770797
-0.0111774
-0.00327453
0.0310741
0.0713401
0.0619222
-0.0346213
0.0875173
-0.0562702
-0.0624927
-0.0296575
0.00663418
-0.0618829
-0.0114086
-0.0588035
0.0427299
-0.0806652
-0.0525478
-0.0724311
-0.0782479
0.0196544
0.0488425
0.063597
0.106996
0.00446664
-0.00264578
-0.0711129
0.0801167
-0.0278808
-0.0365865
0.0855079
0.0210297
0.0140236
0.0761806
-0.0651906
0.100625
0.000613106
-0.069446
0.0394564
-0.0708878
0.0100175
-0.00915786
0.00344896
0.026153
0.0272405
0.0623305
0.0886843
0.00567565
0.0745267
0.0699856
0.0737855
-0.00122077
-0.0622088
-0.071034
-0.0328789
0.0450754
-0.0132036
0.0342874
0.0366452
0.0284926
-0.00383352
0.0207592
-0.00536947
0.0793961
0.0240381
-0.0110349
-0.0454803
-0.0193892
0.06448
-0.0329303
0.0118205
0.00820245
-0.0160023
-0.0231579
-0.0608766
0.080821
0.0516816
0.0257183
0.0637726
0.0220474
-0.0166085
-0.0480345
-0.0597633
0.0500041
0.00725565
-0.0704523
0.0087611
-0.0543017
-0.0722915
0.0791297
-0.0445995
0.0864185
-0.0634497
0.0666304
-0.023905
-0.0861899
0.0541087
-0.079207
0.0910035
-0.0562478
-0.0113256
0.0287057
-0.0582862
0.0606133
-0.0922428
0.0716255
-0.00901366
-0.0652166
-0.00464678
-0.00463506
0.0724152
0.00600817
0.0909717
-0.021689
0.00520584
-0.0168586
-0.0238652
-0.0419584
-0.079745
0.0192638
0.0476236
-0.031464
0.0287105
-0.0517759
0.091722
0.0856269
0.052431
0.100101
-0.032053
-0.0483596
-0.0943865
-0.00356656
0.0930083
-0.0149924
-0.0144303
0.00706371
-0.0389878
-0.0608627
-0.0923457
-0.0370868
-0.039722
-0.0323538
0.0821717
-0.062725
0.0350774
0.0174662
0.0738478
-0.0600992
0.0597344
-0.0739777
0.0145373
0.0191332
-0.0503503
0.0571214
0.0315727
0.057564
0.0886564
-0.0421305
0.0632323
-0.0128955
0.00891698
0.0199896
0.0545476
0.0683895
0.0600324
0.0359457
0.0253047
-0.0817369
0.0868146
0.0553563
-0.0728637
-0.0283401
0.0537438
0.0470782
-0.0440887
-0.0579685
0.00320408
0.00190943
-0.0347479
-0.0224001
-0.0834264
-0.000756775
-0.0607217
0.0855467
-0.00570816
-0.0153121
-0.0336709
-0.058195
-0.0570325
0.0756216
0.0659536
0.0870031
0.00380014
0.0506764
-0.0843707
0.0719265
-0.0719938
-0.0190491
-0.0157586
0.0119224
-0.0937607
0.0381069
-0.0158598
-0.0800921
-0.0645769
0.0874643
-0.00254082
0.0495324
0.0796256
-0.0208997
-0.0748551
0.0369439
0.0712537
-0.0113069
0.0766627
0.0173714
0.0191669
-0.0703695
-0.0397208
-0.0977745
0.0803798
-0.0489396
-0.00731253
0.0784028
0.0228196
0.0317605
-0.0661875
-0.0420244
-0.0721352
-0.0516122
-0.0607108
-0.0494119
0.0784795
-0.0572801
-0.0730726
0.0257418
-0.0157048
0.0214397
0.0328742
-0.0758493
-0.0529867
-0.0547786
0.082795
-0.00250719
0.00595091
0.0728904
0.00465429
0.059466
0.0152997
-0.0138514
-0.0467439
-0.052063
0.0837869
-0.0617482
0.056858
0.011729
0.0122702
-0.0295459
0.0386714
0.0518625
0.0449815
0.0322396
0.0728974
-0.0249023
-0.05943
0.0663061
-0.0409482
0.0172888
-0.0168728
-0.0962073
-0.0511039
-0.0413248
0.0188117
-0.0282306
0.0917026
-0.0770948
-0.044582
-0.0229585
0.0577212
-0.0190064
0.0348673
-0.0120273
-0.0306554
-0.0138847
-0.0486794
0.0628374
0.0886372
-0.0679047
0.0152251
-0.0728351
-0.0835972
0.0238152
-0.0783901
-0.0580014
-0.0742232
-0.081169
-0.0582896
-0.0200164
-0.0328249
-0.0530065
0.000762901
-0.0164943
-0.0697367
-0.0523821
-0.04701
-0.00890656
0.0190392
-0.0495473
0.0901285
0.0309934
0.097976
0.0388053
0.0599868
0.0719948
-0.00104478
-0.0046727
0.0400199
0.0392409
0.0769609
0.0514692
0.00072416
-0.0179874
0.0955571
-0.0511347
-0.0107344
-0.0414765
-0.00723781
-0.0146605
-0.0107843
0.0209397
0.00593715
-0.0312142
-0.0131726
0.0359515
0.0754647
-0.00576996
0.0332224
-0.0651719
0.0813075
0.0336615
-0.0141456
-0.0177988
-0.0769273
-0.0571817
-0.0771346
0.0752565
0.0127164
-0.0145983
-0.0328118
-0.0503215
-0.0124899
0.0420816
-0.0827252
0.0335839
0.0202691
0.0669075
0.000950657
-0.0356411
0.0687852
-0.0565731
-0.0318266
0.0352
0.0638721
-0.0579285
0.01119
0.00899462
0.040744
0.0701207
-0.0587931
0.0880416
0.0287522
-0.00165632
0.102411
0.0387957
0.0859079
-0.0445851
0.0156838
0.0148435
-0.0430052
0.0154608
0.0058994
0.0771832
-0.00126054
-0.0658209
0.0844191
0.0608502
-0.0321367
-0.0542873
0.00283599
-0.0177213
0.0640163
-0.0233361
0.0746317
0.047901
-0.0742499
0.054262
-0.0286292
0.0559259
-0.0115876
0.0715926
0.0104712
0.0880959
0.0555471
0.0371064
-0.0177976
-0.0107927
-0.0721477
0.0168309
-0.0712534
-0.0485004
0.0523699
0.0782622
0.0152987
-0.0469385
-0.0443674
-0.0153827
0.0610137
-0.0632372
-0.068584
0.0315373
0.0774319
0.0207523
-0.0624539
0.0743934
-0.024615
-0.0369807
0.0460353
0.0772196
0.0551345
0.0156249
0.0551765
-0.00149956
0.0894243
-0.0278212
-0.0129287
0.0746942
0.0577859
-0.0584862
0.00718649
0.0410189
-0.052721
-0.0349706
0.0853247
-0.0514937
0.0622256
-0.00450346
-0.0830665
0.00208546
0.100074
-0.078027
0.0675726
0.0115018
0.0436873
0.0387039
-0.0199289
-0.0725379
0.0687087
-0.0460038
0.0147283
0.0159109
0.0652987
0.0621255
-0.0088148
