800,1
0.0815935
0.0258819
0.072981
-0.0207795
0.0260496
-0.0493407
-0.0536059
-0.0508084
0.0938146
-0.0660389
0.0572625
-0.0590659
0.0573399
0.0879162
-0.0235436
-0.0243673
0.0493603
0.0141892
0.0243605
0.0673351
0.0597942
-0.0141261
0.0506991
-0.0329817
-0.0411705
0.0630207
-0.0614684
0.0174537
0.073341
-0.0664087
-0.048936
-0.0300608
-0.0236729
0.045872
-0.0623964
0.0437369
0.00507415
-0.0711045
-0.0240612
-0.0810369
-0.043545
0.0258703
0.0172992
-0.066778
-0.0759278
-0.032411
-0.0628502
-0.0240218
-0.016067
0.0271013
-0.0570413
0.0485831
0.0564737
-0.0575155
0.00152532
0.0222855
0.0794857
-0.0452579
-0.0505024
-0.0579981
-0.0535819
0.0324182
-0.0566368
-0.0397155
-0.019907
-0.0410723
-0.0660947
0.0640599
-0.0696555
-0.0389214
0.0667458
0.062412
0.0291533
0.0971309
0.073153
-0.00547583
-0.0103956
-0.0398247
0.0174234
0.0221823
-0.0868697
-0.0368764
0.0443794
0.0780283
0.0335984
-0.0128555
0.0340034
-0.0575002
0.0137917
0.066596
0.00534232
-0.0700727
0.0853702
-0.0535204
-0.0485776
-0.0389412
0.0140633
-0.0402185
-0.0365207
-0.0517841
0.0323652
-0.06188
0.0267041
-0.0545434
0.0591067
0.0705597
-0.0512552
0.0815801
-0.0356898
-0.0668384
0.0859039
-0.0414935
0.0380137
-0.0600813
-0.0484019
0.0360037
0.056556
-0.0597352
0.0197233
0.0431631
0.0211851
-0.0582075
0.0634507
0.027707
-0.0112979
-0.0708336
0.0138112
-0.0315423
-0.0736249
-0.0478889
-0.0396612
-0.0247265
-0.0365914
-0.0402613
-0.0215229
0.00750541
-0.0239145
0.0675836
0.0423154
-0.0367791
0.0496562
-0.0303492
0.00454322
0.00108482
0.0688995
0.071052
-0.0495349
-0.0955599
0.0148674
0.0714723
-0.0502452
0.0375194
-0.0395082
0.0631904
0.0326532
-0.0326374
0.0625629
0.0363868
0.0750036
-0.0461186
0.0219687
0.0598189
0.0199636
0.0586006
0.0772927
-0.0584509
-0.0623219
0.0379201
-0.0539964
-0.0781238
0.0414694
-0.00216514
-0.00652615
0.0581792
0.0380575
0.0174392
-0.0814032
-0.010917
0.0602186
0.0177337
0.0300627
0.0251735
0.0646289
0.0239392
-0.0434176
-0.0100239
-0.0447149
-0.00737367
0.0235258
0.0269929
-0.0635316
0.00160838
0.0178678
-0.0711647
-0.0616495
-0.0621948
0.0522604
-0.0307095
-0.0842728
-0.00886588
-0.0540348
0.0644229
-0.0226974
0.0756201
0.00161224
0.0291702
0.0307072
0.0464741
0.0357365
0.00767097
0.0365214
-0.0251498
0.0501182
-0.0610432
0.080333
0.0519237
-0.0848335
0.0846896
-0.00162132
0.0672579
-0.0772936
-0.0582046
0.0374165
0.0974252
-0.0780115
0.0467288
-0.0238551
-0.0611874
-0.0513496
0.0132576
0.0367549
0.0413579
-0.0239102
0.0652435
0.0666839
-0.088641
0.0176823
-0.0199015
-0.0215898
-0.0799426
0.0463129
-0.0809047
0.0755458
0.0672387
0.0542833
-0.00263605
0.00920296
0.065926
-0.0461705
0.0759463
0.0324859
-0.0715255
0.000608954
-0.0724341
-0.0631082
0.0139967
-0.0411953
0.0658709
-0.0209293
0.0851333
0.0712733
-0.0631978
0.0160558
0.0807939
0.0105862
-0.0771421
-0.0593045
-0.0255469
0.0387118
-0.00563969
0.0336178
0.0865551
-0.0318797
-0.028761
0.0938679
0.0727209
0.0215984
-0.0265529
0.0641727
-0.0638684
0.083767
0.0709278
0.0383238
0.0545376
-0.0323198
0.0369173
-0.00251494
-0.0132787
-0.0230687
0.0347726
-0.00584888
0.0410915
-0.0481602
-0.00878958
-0.024557
0.0968298
-0.0323771
-0.0645285
0.0597161
0.035316
-0.0829191
-0.0744067
-0.074358
0.067116
-0.0804306
0.0542824
0.0523815
-0.0623883
-0.000707111
0.0373716
0.00527019
-0.0111112
0.0511106
0.0842829
0.0821055
0.0471089
0.0593173
-0.0198903
0.0221312
0.0017643
0.0368348
-0.0135162
0.0808206
0.0548026
-0.0398802
0.0690519
0.0417371
-0.00928242
-0.0267246
0.0116702
-0.0683994
0.0490562
0.0806118
-0.0739456
-0.031796
-0.0666107
0.0283013
0.0764947
-0.0115904
-0.00454226
0.0307386
0.0715369
0.0607791
-0.0374513
0.0863062
-0.059062
-0.0635013
-0.0277047
0.00887957
-0.064036
-0.013781
-0.0590996
0.0421089
-0.0794705
-0.0530227
-0.072907
-0.0771013
0.0163372
0.0497835
0.0651965
0.104668
0.00454579
-0.00278656
-0.0721752
0.080938
-0.0288839
-0.0359692
0.0836822
0.0217581
0.0112037
0.0751772
-0.065977
0.0975297
-0.00253951
-0.0673569
0.0389235
-0.0697107
0.00924241
-0.00946191
0.00220874
0.0303174
0.0260237
0.0630674
0.0860959
0.00491077
0.0723707
0.0693853
0.0722019
-0.00307568
-0.0621703
-0.0720355
-0.0329637
0.0456466
-0.0114155
0.0353076
0.0395721
0.0275621
-0.00471307
0.0228687
-0.00620715
0.0781229
0.0247294
-0.0116251
-0.0483823
-0.0210495
0.0653907
-0.0334971
0.0117709
0.0103484
-0.0189952
-0.0243772
-0.0611119
0.0776574
0.0529834
0.026053
0.0616299
0.0224488
-0.0143096
-0.0491637
-0.0571461
0.0460753
0.00849456
-0.0726332
0.0091178
-0.0541015
-0.0744754
0.0788478
-0.0471966
0.0868255
-0.0629744
0.0677622
-0.0259466
-0.0896961
0.0543058
-0.080097
0.089487
-0.0572322
-0.00978667
0.0259919
-0.0558501
0.0630703
-0.0928315
0.0726057
-0.00619751
-0.0649712
-0.00296359
-0.00310362
0.0717037
0.00503757
0.0904161
-0.0212781
0.00432598
-0.0158339
-0.0260685
-0.0443289
-0.0793335
0.0196249
0.0479673
-0.0329033
0.0287033
-0.05495
0.0893505
0.0855335
0.0504659
0.100889
-0.031179
-0.0499963
-0.09555
-0.00412902
0.0928996
-0.0175961
-0.016178
0.00866888
-0.0384247
-0.0610419
-0.0907879
-0.0369123
-0.0408022
-0.0316984
0.0826326
-0.0620246
0.0328943
0.0184283
0.0722999
-0.0596728
0.0602566
-0.0739195
0.0147268
0.0193526
-0.051982
0.0550084
0.0324161
0.056963
0.0877192
-0.0410524
0.0650573
-0.0129765
0.00913392
0.0190849
0.0543813
0.0654293
0.0602886
0.0357405
0.025204
-0.0815817
0.0852569
0.0571175
-0.073154
-0.0279198
0.0540092
0.0470906
-0.0435622
-0.0584218
0.00422711
0.00376652
-0.037201
-0.0210906
-0.0834691
-0.0012871
-0.0634745
0.08531
-0.00514259
-0.0154608
-0.0328732
-0.0588333
-0.0568629
0.0734143
0.06565
0.0856494
0.00371097
0.0489993
-0.085034
0.0705368
-0.0717495
-0.0198539
-0.0168466
0.0118697
-0.0936395
0.0367589
-0.01531
-0.0796445
-0.0652084
0.0884804
-0.0022852
0.0495912
0.0784762
-0.0210112
-0.0745149
0.0365033
0.0723504
-0.0111683
0.0764484
0.0179172
0.0164811
-0.0721232
-0.0409336
-0.0946502
0.078908
-0.0501215
-0.00628252
0.0766379
0.0216725
0.0310266
-0.0660884
-0.0414442
-0.0738713
-0.0505572
-0.0587276
-0.0499506
0.0777246
-0.0569536
-0.0751212
0.0230998
-0.0149392
0.021511
0.0332364
-0.0768252
-0.0528232
-0.0552226
0.0811089
-0.00275915
0.00775256
0.0715869
0.00481995
0.0601701
0.0176961
-0.0139529
-0.0485095
-0.0532089
0.0822359
-0.062451
0.0581636
0.013436
0.0120609
-0.0276279
0.0364568
0.0491293
0.0455062
0.0307729
0.0731267
-0.0274209
-0.05593
0.0629608
-0.0407913
0.0174036
-0.0178798
-0.0952489
-0.0540385
-0.0419475
0.0142956
-0.0296571
0.0897135
-0.0765999
-0.0453925
-0.0247021
0.0580379
-0.0192068
0.0327874
-0.00957365
-0.0310388
-0.0147938
-0.0485252
0.0635074
0.0873481
-0.0669605
0.0151424
-0.0737611
-0.0829933
0.0228932
-0.078789
-0.0594877
-0.0732059
-0.0814178
-0.0615391
-0.0212787
-0.034789
-0.0528835
0.000730446
-0.0177173
-0.0681525
-0.0524164
-0.0510256
-0.00826767
0.0187082
-0.0492801
0.088453
0.0267692
0.0967646
0.0391799
0.0592736
0.0712495
-0.00116521
-0.00470863
0.0420684
0.0419707
0.0766917
0.051251
-7.9379e-05
-0.0192559
0.0921823
-0.0514311
-0.0103475
-0.0407675
-0.00631886
-0.014672
-0.00906904
0.0203742
0.00596167
-0.0315631
-0.010989
0.0345157
0.0761622
-0.00497937
0.0316554
-0.0661971
0.0827456
0.0350435
-0.0168994
-0.0171583
-0.0783962
-0.0547428
-0.0767166
0.0737333
0.0111883
-0.0147117
-0.0334585
-0.0494294
-0.012269
0.0425506
-0.0823513
0.0344586
0.0204378
0.0662333
0.000125834
-0.0352674
0.0659674
-0.0559008
-0.0328016
0.0343035
0.0617877
-0.0580649
0.00619756
0.0106616
0.0391399
0.0705161
-0.0578999
0.0855448
0.0276463
-0.00266381
0.102025
0.0400582
0.0848565
-0.0447543
0.0153855
0.017058
-0.0412013
0.0126478
0.00508505
0.0770043
-0.000783563
-0.0661003
0.0790757
0.0607553
-0.0310505
-0.0551198
0.00649202
-0.0175919
0.0647175
-0.0206414
0.0735831
0.0471702
-0.075953
0.0562941
-0.0266194
0.0553369
-0.0118255
0.0693578
0.00843499
0.0858418
0.0572276
0.0358701
-0.0191765
-0.00998788
-0.0721221
0.0157741
-0.0721091
-0.0482045
0.0535168
0.0772608
0.0150764
-0.0489816
-0.0448678
-0.0158808
0.060851
-0.0629592
-0.068894
0.0274433
0.0805179
0.0168269
-0.0627955
0.0744204
-0.0240252
-0.0402091
0.0440542
0.0729332
0.0560232
0.0148408
0.0567312
0.00191328
0.0880896
-0.0269598
-0.0128809
0.0743989
0.054659
-0.0594356
0.00507432
0.0407781
-0.0529888
-0.0386397
0.0829358
-0.0457979
0.0662069
-0.00260969
-0.0803634
0.00378026
0.099891
-0.0784491
0.0680324
0.0112111
0.0435943
0.0386184
-0.0192628
-0.0719677
0.0683203
-0.0465835
0.0153999
0.0159818
0.0637142
0.063092
-0.00920014
