800 1
-0.578746
-0.32256
-0.643751
0.64647
-0.741727
0.224469
0.506788
-0.819702
-0.15922
-0.547072
0.646311
-0.873643
-0.959085
-0.937899
-0.396885
0.730614
0.0480986
0.328745
0.285966
0.447089
0.28557
0.387572
-0.608552
0.350735
0.957022
0.665539
0.9997
0.389247
-0.428918
0.762792
-0.0794483
0.020281
-0.585029
0.227517
-0.331957
-0.322898
-0.542324
-0.826644
-0.105885
0.253479
-0.383615
-0.475956
0.332844
-0.313243
-0.504282
0.966916
-0.558303
0.572523
0.262823
0.744787
0.0765555
-0.458773
0.0761431
0.425583
0.860907
0.0511816
0.10959
0.838089
-0.5732
0.661409
0.65387
0.364844
-0.327818
-0.990459
-0.436593
0.332094
-0.342292
0.0420517
0.515577
0.582347
-0.70655
-0.853294
-0.941437
0.590416
-0.19414
-0.471212
0.504784
0.260352
-0.881252
-0.216778
0.000439189
0.167899
0.254199
-0.909658
-0.376428
0.193909
0.0840092
0.739525
-0.00557326
0.558664
0.424139
-0.321151
-0.0973706
-0.952001
-0.331773
0.477763
0.346659
0.406375
-0.536808
-0.101786
-0.0736937
-0.292438
-0.0555425
0.0281224
-0.723189
0.761229
0.554349
0.809211
0.0163775
0.724326
-0.386741
1.02194
-0.153696
0.911779
-0.961639
0.441959
0.073661
0.197726
0.14707
-0.854113
-0.229154
-0.446776
-0.241466
0.620218
-0.410786
0.448885
0.0935651
0.962572
-0.134709
0.525308
-0.186932
0.778942
-0.717943
0.753544
-0.251427
-0.456324
0.482587
-0.702177
-0.666328
-0.490544
0.963877
-0.0196166
-0.4568
-0.200315
-0.0903529
-0.427021
-0.733745
0.968892
0.819035
0.43372
-0.922054
-0.445733
1.01295
-0.121209
-0.859931
-0.401373
-0.707162
0.272652
-0.393844
0.172118
-0.14933
0.408748
-0.0247748
0.0843063
0.125801
0.673998
0.676904
-0.395437
0.99178
-0.987415
0.143333
0.957912
-0.0215932
0.67087
-0.26718
0.837494
-0.751186
-0.0626811
0.764229
-1.01847
-0.556145
0.865479
-0.415353
-0.59299
-0.28083
-0.276281
-0.0287354
0.0820951
-0.976054
0.624821
-0.817735
-0.148555
-0.0361019
0.0656859
0.989488
-0.877642
-0.256235
0.659785
-0.247899
-0.272354
0.666162
0.909365
-0.33898
-0.362403
0.579736
0.433688
-0.497003
0.804735
-0.637939
-0.711593
0.819929
-0.159085
-0.797689
-0.629033
0.211516
-0.0930159
0.084483
-0.758412
0.91802
0.127318
0.861995
-0.901954
-1.00405
-0.159968
0.152091
-1.01429
-0.0287121
0.903656
0.69428
0.771181
-0.287069
0.364505
0.652813
0.349473
-1.00578
0.236413
-0.225998
-0.442931
0.0922608
0.0880525
-0.1746
-0.099084
0.942278
0.00259624
0.357917
0.223636
0.936774
-0.545424
0.436511
0.848596
0.564993
0.356767
0.943473
0.605105
-0.818394
0.0621484
0.613626
0.202225
-0.022526
0.300028
-0.103576
0.717086
-0.381502
-0.440605
0.0353877
-0.330659
0.809907
0.784487
0.202456
-0.168227
-0.0610987
-0.988574
0.768448
-0.0480288
0.103959
0.0210968
-0.899537
0.00180716
0.486657
0.530169
-0.110248
0.12377
-0.0965978
-0.249214
-0.297394
-0.0037498
0.895184
-0.698993
-0.742445
-0.150784
0.628317
0.179306
-0.42443
-0.756748
0.713631
0.634814
-0.0979073
0.578803
0.369028
-0.951363
-0.569403
-0.691062
-0.845177
-0.812244
0.215371
0.215841
0.161092
0.35584
-0.748318
-0.280156
-0.171726
0.0426066
0.799448
0.734408
0.813593
-0.483026
-0.209192
0.645741
-0.153451
0.0448606
-0.499062
-0.511598
-0.847963
0.123796
-0.288914
0.872238
-0.225191
0.548112
0.445829
-0.880223
0.675013
0.832543
-0.570008
0.830888
0.974344
0.626533
-0.00157958
0.245823
-0.0104117
0.227051
0.950002
0.846506
-0.685912
0.750383
0.561369
-0.857562
-0.780573
-0.655761
0.829035
0.102227
0.361949
-0.6281
0.57185
0.546578
0.40587
-0.7652
0.422221
-0.839231
0.8297
-0.191892
-0.731737
0.469653
-0.36815
-0.321968
0.218458
-0.37994
-0.692291
-0.745423
0.802402
0.26903
0.572959
0.793008
0.143534
0.873184
0.542149
-0.326675
0.983403
0.779443
0.0168525
0.751449
-0.104096
-0.62848
-0.913461
-0.512025
0.876001
0.501575
-0.26079
0.254894
0.647121
-0.457184
-0.922278
0.851967
1.00571
-0.295542
-0.453662
0.292515
0.266867
-0.139529
0.537918
0.153046
-0.814253
0.0481449
-0.096768
0.233231
-0.170868
-0.52714
0.967026
-0.148979
-0.721269
0.00242303
-0.381334
0.196477
0.327541
-0.372501
0.672119
0.143441
-0.76336
-0.661295
-0.53299
0.830898
-0.137848
-0.484449
0.724784
-0.138775
0.18215
-0.765477
-0.872892
-0.518938
0.151844
0.657852
0.615791
0.248931
-0.311839
-0.48372
-0.384777
0.582874
-0.00500835
-0.518671
-0.603232
0.2424
0.475268
0.0251614
-0.530111
-0.225744
0.66337
-0.902414
-0.959245
0.924509
-0.602785
-0.552493
0.700784
0.322868
0.0320907
0.476526
-0.775527
-0.743226
0.723167
-0.659685
-0.313993
-0.0834601
0.976267
-0.723548
-0.80816
-0.313903
-0.182827
-0.162918
-0.695625
0.773414
0.30167
-0.325835
0.0580658
-0.262731
0.719596
0.462064
0.576583
0.43361
0.518418
0.527688
0.22703
0.97005
-0.963032
-0.0387923
0.317044
0.0731457
-0.562855
0.484884
0.230007
-0.850313
0.811917
0.914322
0.0815911
0.8623
-0.748862
0.317373
-0.484531
0.0242967
-0.882829
-0.18737
-0.182057
0.407238
0.54972
0.839778
-0.80807
0.276725
0.3169
0.780952
-0.36358
-0.149243
0.30527
0.870008
-0.169796
0.329407
-0.168283
-0.837909
-0.571983
0.201304
0.627781
0.624583
0.375453
0.47742
0.558247
-0.576508
0.303175
0.733873
0.776901
0.76072
-0.246694
0.855821
-0.412956
0.522013
0.266054
-0.862786
0.374849
0.461934
0.374067
-0.365377
0.184088
0.97471
0.428019
-0.474759
0.874101
-0.730687
0.854961
-0.356711
-0.60608
-0.765243
0.880257
0.981573
0.897292
0.289817
0.419038
0.420119
0.733326
-0.263142
0.14287
0.587782
-0.478309
0.889539
0.406297
0.105475
0.418544
-0.287158
0.232619
-0.241735
-0.832045
-0.382567
0.342693
0.369562
-0.376444
-0.165964
0.898219
-0.52203
0.0596877
0.692765
0.137555
0.421575
0.961244
0.0522718
0.446597
0.854951
-0.663743
-0.118012
0.252565
-0.870901
0.584993
-0.640054
0.600679
-0.931956
-0.752531
0.0320772
0.225798
0.645925
0.7769
-0.509868
-0.60197
0.912083
0.0766642
0.736646
0.253389
0.702154
-0.381533
0.140789
-0.791297
0.629259
-0.156497
0.417488
0.0388803
-0.172414
-0.590028
-0.514962
-0.355132
-0.24102
0.337532
0.888062
-0.153439
-0.0687166
-0.720171
-0.5022
0.0392624
-0.461262
0.54928
-0.732797
-0.798269
0.303626
-0.244437
-0.426859
0.172392
0.835805
-0.686983
-0.547417
0.558104
-0.0981543
0.56478
0.745583
-0.474577
-0.601166
0.0995246
0.601025
0.19885
0.5355
-0.906798
0.893608
-0.739366
0.401609
0.834625
0.184712
-0.601823
-0.913855
0.690613
0.432999
-0.379658
0.178329
0.704688
-0.208569
-0.492556
-0.546368
0.359762
0.674937
-0.790515
0.705828
-0.889281
0.802399
-0.418563
0.665146
0.557328
0.149332
-0.904911
-0.363418
-0.263926
0.317762
-0.847321
-0.174547
0.233819
-0.560431
-0.719975
0.00849291
0.567092
-0.298638
0.147211
0.207464
-0.87234
0.671916
-0.64035
0.860112
-0.43541
-0.124486
-0.848611
0.930885
-0.475258
-0.543682
0.616495
-0.310882
-0.77298
-0.775297
-0.69891
0.752074
0.34323
-0.606621
-0.573158
-0.857686
0.709285
-0.43673
-0.0270754
-0.0907714
-0.0396342
0.234746
0.937908
-0.434254
0.967539
0.0388546
0.809649
-0.91377
-0.220586
-0.784355
0.855138
0.315643
0.0795997
-0.904135
0.296995
0.643799
-0.422477
-0.195506
-0.699758
-0.19215
0.0846312
-0.404684
-0.429424
-0.542477
-0.00829781
-0.0231259
-0.434905
-0.293902
0.573391
0.504643
0.60479
-0.444615
-0.227475
0.575011
0.11804
-0.262618
-0.388777
-0.158992
-0.245955
0.377974
0.0908541
-0.351983
-0.316632
-0.809212
-0.246601
0.958636
0.861858
0.319762
-0.218379
-0.845076
-0.845258
0.90208
-0.199346
-0.282867
-0.685915
0.769799
0.695394
-0.110931
-0.537315
0.337596
-0.557355
-0.926801
0.77086
0.16098
0.663771
-0.0909599
0.934651
-0.750374
0.788269
-0.26341
0.698602
-0.102802
0.398474
-0.691174
0.133011
-0.889555
-0.749586
0.0162207
0.433489
0.0745692
0.061569
0.624234
-0.0162052
0.952718
-0.718341
0.276025
0.695617
-1.00044
-0.861023
-0.834269
0.319009
-0.474019
-0.76207
0.152301
0.715781
0.929183
