100,300
-0.0458613,0.0367589,-0.0482246,0.0760271,0.0345275,0.019405,0.0331993,-0.0336012,0.0760489,-0.00271084,-0.137319,0.00673464,-0.0663767,0.135113,0.0564589,0.0302853,-0.00414052,0.113776,0.0584664,-0.0335384,0.0483754,-0.071043,-0.0702697,0.0655202,0.1239,0.0369082,0.0819785,-0.112794,-0.0398231,-0.0907103,0.0177779,0.0279293,0.131596,-0.0980988,0.0699592,0.0590313,0.0724526,0.0374506,-0.0422919,-0.0438817,-0.140983,-0.0862091,0.043305,-0.0779071,-0.0795302,-0.0288919,-0.0308274,-0.115201,-0.088645,0.0882994,-0.139864,0.00383107,-0.0625737,-0.079308,-0.0832692,0.0773638,0.141367,0.126063,0.130994,-0.029362,-0.101276,-0.0190976,0.00591922,0.0499637,-0.100633,-0.0739114,0.0473446,-0.131553,-0.0558973,-0.110877,-0.0806047,-0.132977,-0.0226428,0.0894999,-0.104361,-0.119175,0.0178088,-0.0343047,0.109645,-0.0440846,0.00978315,0.135656,-0.13658,0.0617803,-0.136581,-0.0905417,-0.0216145,-0.115362,0.0671748,-0.064637,-0.0851169,0.0601233,0.108251,-0.0516977,-0.00643332,-0.0855636,0.0845846,0.122688,0.0384999,-0.0646886,0.0933772,-0.100991,-0.0624939,0.128622,0.00386632,-0.13499,-0.0779325,0.108721,-0.0319919,-0.0365541,0.0289427,-0.0943803,-0.0375892,-0.0849008,-0.117076,0.118159,-0.0454679,0.115122,-0.0135379,0.0418014,0.0311381,0.109392,0.0368689,-0.0172081,0.0849859,0.0448726,-0.13945,0.0880304,-0.0925226,-0.0906172,-0.0832133,0.0889601,-0.120488,-0.119144,0.038104,0.0194689,-0.0732948,0.062405,-0.00228462,0.107107,0.0319371,0.043894,0.0505049,-0.112254,0.120535,0.128111,0.0467021,-0.0566984,0.112076,0.110902,0.109433,0.0863153,0.0456989,-0.0231021,-0.0525585,-0.13406,0.0151209,-0.111695,-0.0655767,0.031648,-0.0341394,0.0764693,0.0568001,-0.0671429,-0.0763888,0.124721,0.00277117,-0.0671574,-0.0785736,-0.124476,-0.112712,0.00801607,-0.0935953,-0.0309307,-0.0670356,0.13593,-0.035555,0.127868,0.070858,0.127118,-0.0942436,-0.0960159,-0.0381544,0.0434447,0.022943,-0.131453,-0.136704,0.0891116,-0.0746999,-0.0980163,-0.122615,-0.0595058,-0.109524,0.0848704,-0.05405,-0.110033,0.0499631,-0.0419719,0.00395383,0.103173,0.0316098,-0.134994,0.140148,-0.125388,-0.117467,-0.00421245,0.0203122,0.0301726,-0.0695025,-0.0513133,-0.0997065,-0.0262828,-0.0603531,0.129859,0.0949306,-0.0431431,-0.0962937,0.0520069,0.103818,-0.111572,0.0103762,0.117184,-0.111188,-0.0496296,0.116285,-0.0455386,-0.0778881,-0.0520111,-0.130518,-0.0880542,-0.0285019,0.027581,-0.0876737,0.104971,0.0160779,0.0259794,-0.0958877,-0.0715736,-0.102929,-0.119357,0.109901,-0.0138762,-0.00470071,-0.0657522,0.0621341,-0.00263415,0.0955422,0.0594222,0.117789,0.119187,-0.0444027,0.0466736,-0.0330151,-0.0576805,0.109205,-0.044147,0.0993396,0.0291761,0.0943277,0.111325,0.0775735,-0.00135283,-0.0278912,0.0709249,-0.00640098,0.0153419,0.0464051,0.0395311,0.0022047,0.0146037,-0.0630189,0.0533167,0.10525,0.0844075,0.0951087,0.0428543,0.02074,-0.135537,-0.098432,0.102394,0.0132156,0.0788948,-0.126029,0.11158,0.037711,-0.0199432,-0.102037,-0.114878,-0.0473447,-0.105862,0.0211033,0.126647,-0.011783,-0.00799964,-0.101158,0.11195,-0.0341804,-0.112952,0.051832,0.0658912
-0.137022,0.0951576,-0.062891,0.117572,-0.0736331,-0.138706,0.0480352,-0.104342,0.10533,-0.0707749,0.0258918,0.135803,0.0700058,0.0165949,0.0685763,0.0874365,-0.039326,-0.082167,-0.119967,0.0040442,0.108922,-0.0590259,0.0744901,-0.0496783,0.0796107,-0.109427,0.0959557,0.0807506,0.105217,-0.122248,0.027433,0.0286353,0.131082,-0.0966027,0.0520974,0.0114923,-0.0604445,0.100019,-0.00163848,-0.103197,0.0972807,0.138308,0.0576186,-0.102499,-0.0096402,0.0621637,0.0997941,0.0449608,0.106656,0.134709,-0.10807,0.134424,0.00417949,0.0239107,0.110505,0.0740054,0.0333091,0.00545844,0.0797687,0.120973,-0.027082,0.124423,0.130023,0.137638,0.0912487,0.0624009,0.0160748,0.0457693,-0.139043,-0.117689,0.0607384,0.0897218,-0.135926,-0.111787,-0.106026,-0.0381447,-0.112185,-0.0741758,0.0883631,0.0487254,-0.0808467,0.01425,-0.0427716,0.128122,-0.0431356,0.0397744,0.0582251,0.111963,-0.0245847,-0.0536666,-0.057715,-0.0971838,0.0734661,0.132178,-0.0216737,-0.052512,-0.0642943,0.00698162,0.113232,0.0539646,-0.034757,0.108232,-0.113159,-0.0758718,-0.10161,0.0741586,-0.07583,-0.0829393,-0.0595464,0.0402586,0.0363211,0.0800036,-0.133716,-0.124438,-0.112269,-0.0555413,-0.0849909,0.0164388,-0.046377,0.0802036,-0.058265,-0.0611185,0.110777,-0.04462,-0.0169579,0.117857,0.093122,-0.0123424,0.116567,0.138704,0.0567511,-0.0271177,-0.102658,-0.0296383,0.0513387,-0.0462647,0.097463,-0.0893096,-0.123971,0.0693916,-0.0624859,0.12944,-0.0891444,-0.0579683,0.0407382,-0.0945653,-0.0841964,-0.0584809,-0.12153,-0.0936329,0.0246004,-0.0162434,-0.124076,0.0352929,0.103058,-0.112679,-0.0953977,-0.0772353,0.0751587,0.0541547,-0.0282524,-0.107592,0.101221,0.0136376,-0.0145083,-0.0409291,0.0875389,0.127176,0.0445363,0.13272,0.0471116,0.0328287,0.0729195,-0.0142024,0.0769421,0.074203,0.0668031,-0.121016,0.0574272,-0.138695,0.115873,0.0910527,0.0430932,0.0226303,-0.0218715,-0.129839,0.0489805,-0.072312,-0.0280954,0.0668783,0.11092,0.104201,-0.0444168,-0.0725158,0.118941,0.0203312,-0.104957,-0.100657,-0.0304488,0.0394317,-0.0648492,0.0870738,-0.0568893,-0.00786409,0.00668954,-0.0582713,-0.133271,0.0133962,0.00418807,0.0301431,-0.0855771,-0.094577,0.0307366,0.0681061,0.00930493,0.0902516,0.0563512,-0.0957055,0.10011,-0.0101727,0.120295,0.0308154,-0.00929981,-0.125861,-0.106078,0.0714859,-0.00922647,-0.0222488,0.00457191,-0.106384,-0.00791027,-0.0870024,0.0905379,0.0837473,0.125695,-0.0555012,0.0292893,-0.116602,-0.082518,-0.0815458,-0.0227857,-0.0406872,0.12423,-0.0229031,-0.0596391,-0.13575,0.117908,-0.0830354,-0.132061,0.0110067,0.0446647,-0.0338345,0.0096232,-0.136816,0.0195205,0.0778411,0.0162953,-0.0390518,0.116202,-0.0836457,-0.00453265,-0.0651635,0.130714,0.13146,0.083466,-0.0535856,0.0578559,-0.0535871,0.0611557,-0.0664249,0.1311,-0.00766682,-0.0855497,-0.0546573,-0.134156,0.0556986,-0.11736,-0.0208675,-0.0276905,-0.129894,-0.00761377,-0.106318,0.11869,0.0616312,-0.108012,-0.129341,0.135132,-0.0539411,0.0305979,-0.0653287,-0.0964112,0.031363,-0.0744605,0.140681,0.0963493,0.113031,0.114964,0.102255,0.0631271,0.0654494
-0.11677,0.118546,-0.00861697,0.0952658,0.0527116,0.0905484,0.0719997,0.038688,0.0323323,-0.119849,-0.0967883,-0.0748937,-0.0454994,0.00664988,0.116836,0.0812389,0.0526569,0.0987706,0.123041,0.0924757,-0.100583,-0.118779,0.131357,0.0154949,-0.127049,0.0577161,0.10528,0.037986,0.0898661,0.0910714,0.133881,-0.061421,0.0160777,-0.00645319,0.0046951,-0.0143326,-0.00681846,-0.130703,-0.032966,-0.0163836,0.0747734,-0.0625061,0.0569819,-0.0793686,-0.00957322,0.0131242,0.0299213,-0.0213968,-0.0596837,0.130454,0.0328953,0.0494137,0.026617,-0.0992551,0.046875,0.115945,-0.0180946,-0.0982418,-0.0592015,-0.0587438,0.12487,0.0146138,-0.121679,-0.0710654,-0.108995,-0.0967367,-0.115578,0.0526476,-0.122023,-0.0689181,0.118131,0.00152767,-0.101095,-0.130305,-0.137166,-0.130218,-0.0431718,0.132463,-0.0525829,-0.0594612,0.111828,0.0795573,-0.0708772,-0.139808,-0.0964927,-0.051184,-0.0677794,-0.122267,-0.11552,0.0708246,-0.105834,-0.108855,-0.067609,0.0671223,-0.0868251,-0.0640219,0.0741221,-0.0684038,0.131337,-0.0638732,-0.0693548,0.117045,-0.000383019,0.0897604,0.0843659,-0.0735024,0.0446428,0.132023,-0.101361,-0.0568979,-0.0799659,0.115411,-0.0488721,0.0840409,-0.0158864,-0.0339757,0.0876886,0.0902116,-0.113641,0.0370006,-0.093225,0.0520436,-0.0484275,0.069859,-0.0217171,0.130584,0.0763996,0.0415569,-0.0241593,-0.130842,0.035697,-0.0908726,0.0295062,-0.020797,-0.123303,0.0276979,-0.0171452,0.0524945,0.000446498,0.133901,-0.0811504,0.0706982,0.0671443,-0.0742222,-0.0121696,0.0836033,-0.00340204,-0.102402,0.110779,-0.123569,0.0637387,0.0983022,0.0685219,0.0645795,-0.0978008,0.0156264,-0.0384537,0.0473045,-0.120468,-0.06753,0.12003,0.0773085,-0.125261,0.107884,-0.0582329,-0.0350484,0.137088,0.0676829,0.127901,0.0590629,-0.0978736,-0.0238573,0.0691787,0.109934,0.0116009,0.0757258,0.128942,-0.135335,-0.110243,-0.104102,-0.0451439,0.0058019,0.112762,0.0907814,-0.134019,-0.103141,-0.078128,-0.0787051,0.102432,-0.140456,-0.106235,0.0154219,-0.0691399,0.0488492,-0.134968,-0.0965194,0.0937522,-0.137973,-0.0657137,0.137502,-0.00152199,-0.0388506,0.0128823,-0.0638139,0.0972204,-0.130745,0.0489268,0.0783244,-0.110183,-0.00799958,-0.015292,-0.112512,-0.098563,0.0943635,-0.0898616,0.0209334,0.0481675,0.123384,0.139837,-0.00136304,-0.0761249,0.0978757,0.0286516,-0.0943246,-0.000460729,0.0475716,0.0557064,-0.0969427,-0.037725,-0.0725712,0.140836,0.138433,0.107213,0.122708,0.0419338,-0.0486151,0.110221,0.0603347,-0.110452,0.0691098,-0.0328355,-0.0253689,-0.0861869,-0.0940708,-0.0548134,0.0803061,-0.0754615,0.0780105,0.081377,-0.054048,0.00822036,-0.132749,-0.0524484,-0.129143,-0.0726391,-0.0490608,-0.107756,-0.00386792,0.0245426,-0.00809449,0.00769182,0.0954603,-0.0957202,-0.0174921,-0.101927,-0.0104329,-0.0251764,-0.099582,-0.127583,0.0907699,0.0139385,-0.108812,-0.0168532,-0.0617526,-0.0117635,-0.0912503,0.0109344,-0.0893813,0.11695,0.113689,0.102406,0.117078,-0.0483698,-0.113649,-0.0339762,-0.051449,0.0238121,-0.0543374,-0.0996629,-0.0944734,-0.0673214,-0.0270482,-0.138323,-0.0931384,-0.108199,0.00531197,-0.0566361,0.0925391,0.05181,-0.0447086
0.101946,-0.130162,-0.0415168,0.0702437,0.0650345,-0.024842,0.0411102,-0.00977636,-0.0212227,-0.0173762,0.0220745,0.071195,0.0683222,0.0294349,-0.0873556,0.0255881,-0.0696282,0.0180928,0.044668,0.0196433,0.12295,0.090051,-0.12766,0.104298,0.0539244,-0.0652324,0.0378932,-0.0836033,-0.0882093,0.0399953,-0.05217,-0.0476002,-0.0427088,-0.0680317,-0.0385791,-0.0693826,0.0611225,-0.0858625,-0.103948,-0.126075,-0.00164743,-0.121296,-0.0689707,0.0475173,-0.0736168,0.10524,0.128856,-0.0389215,-0.0256949,-0.0948643,0.111113,0.104779,0.0692187,-0.0358438,0.0677204,-0.134025,-0.103877,-0.0434414,-0.112715,0.0780834,-0.130261,-0.0127715,-0.124228,0.00485359,0.06555,0.0259613,0.119419,3.38004e-05,0.112073,0.0355944,-0.0601352,0.0804402,-0.0762926,0.135425,-0.0267168,-0.102805,0.0898506,0.0108119,0.0268971,-0.133347,-0.0571768,-0.0658815,0.131421,-0.110954,0.0158565,0.068881,-0.129425,-0.0335367,0.124189,0.0330958,0.119738,-0.0799386,-0.116125,-0.0969364,0.1035,-0.0138179,0.0456019,0.0403444,-0.101647,0.116058,0.119086,-0.0794535,0.119654,0.0798547,-0.101475,0.037131,0.0448338,-0.0893136,0.00834455,0.096844,-0.104241,-0.0317331,-0.100589,0.0271415,-0.000977809,0.0559733,-0.0679791,0.133473,-0.0139087,-0.100375,0.12064,-0.112537,0.0979913,0.122997,-0.0427183,0.0927629,-0.09987,0.00932931,0.140071,0.132958,0.104296,0.0521073,-0.00610874,-0.0433237,0.00424905,0.13808,0.077472,-0.0468976,0.116532,-0.0332074,0.0214941,0.00473728,-0.112345,-0.127297,0.0977565,0.0338775,0.102503,-0.132094,0.052511,-0.00811881,0.0520258,0.0273639,-0.093106,-0.118511,0.0969626,0.096594,0.121233,-0.136172,-0.023244,0.053719,-0.0423818,0.0474656,-0.107847,0.0911269,-0.0335501,-0.116319,0.110573,0.0482105,0.124745,0.0229413,-0.0516311,0.12028,-0.0497704,0.0663527,0.130186,-0.00824105,0.138224,0.0128696,-0.0196941,-0.0410864,-0.139954,0.0462693,0.0270782,-0.131185,0.10702,-0.0335874,0.0215061,0.093312,-0.0680845,-0.0445291,0.0884689,0.107204,-0.0647169,0.109072,-0.0699317,0.0909035,0.0245926,0.0348344,0.131225,-0.0935283,0.0749044,-0.00872475,0.0127038,-0.0776514,-0.0557786,-0.132249,0.000893166,-0.107163,-0.0862812,-0.0568422,0.0272586,0.118495,0.0871878,-0.00259321,0.0119598,-0.0363428,-0.103376,-0.0345697,0.00488852,0.0457752,0.078749,0.0754147,-0.0142596,-0.0505354,0.0876639,-0.038615,-0.0831325,-0.0954649,-0.093664,-0.0909959,-0.00371084,-0.0927051,0.0293444,0.0617282,-0.118529,0.0372161,0.113914,-0.085784,-0.0119011,0.0626022,0.0266765,-0.0721267,0.0804808,-0.0452046,-0.00133015,0.11862,-0.0787993,-0.0014312,0.12848,0.00461222,0.125935,0.0469848,0.0587501,-0.0845652,-0.0945251,-0.0727338,0.0752241,0.0338027,-0.0345797,0.0648595,0.0679953,0.0690643,-0.057514,-0.098008,-0.041928,0.0300629,0.0782406,0.0592918,-0.0271098,-0.0998133,0.000256046,0.131865,0.0177575,0.0633997,-0.105368,0.0890339,0.019362,-0.0104966,0.10648,-0.136381,0.139326,0.00425256,0.101677,0.00554154,0.127591,-0.11597,-0.116007,0.0208315,-0.0694437,-0.00720247,0.101652,0.0154549,0.121824,0.0336687,-0.0759847,0.0871948,0.0218049,-0.037322,0.069482,-0.0849862
-0.0558234,0.110396,0.0101685,0.0845389,0.0754673,-0.104904,-0.101147,0.0635143,-0.140987,-0.0893701,-0.0829866,-0.0767017,0.0933079,-0.0720521,-0.121673,-0.0735199,0.118331,0.0646686,-0.125346,0.0967752,0.135667,0.054014,-0.0541936,0.0765572,0.0148791,-0.0546193,-0.0629107,0.000523351,-0.0780537,-0.136396,0.0223453,0.0501646,0.0952205,0.0274831,-0.0378967,-0.126985,0.115167,-0.0798908,0.0568564,-0.114496,0.0904556,0.0202898,-0.0683209,0.0630682,0.128852,-0.00783147,-0.062129,-0.0863781,0.11606,-0.0220753,-0.0481259,-0.094545,-0.0342086,-0.133032,0.0635139,-0.00463016,0.120598,-0.00554124,0.084752,-0.114326,-0.0786054,-0.0869564,0.0428239,-0.0320646,-0.126626,0.11342,0.00507417,-0.0104015,-0.0928683,0.0568,-0.0896153,-0.0645796,-0.0611596,-0.123827,-0.0296139,0.0632291,0.111582,-0.057135,-0.020367,-0.120766,-0.105106,-0.0531971,0.0944793,0.0443453,-0.114781,-0.0493137,0.0714811,0.0435281,-0.00920606,-0.110263,0.0750967,-0.132844,-0.0292107,-0.0914159,0.117714,-0.118832,-0.103855,-0.101296,0.0269998,-0.138648,0.0872431,-0.0493551,-0.0965809,0.0566949,-0.122407,-0.069298,-0.125612,0.133153,0.0379168,-0.039411,-0.000925285,0.0418048,0.0490836,-0.0960723,-0.140048,0.127379,0.124258,-0.133802,-0.0294875,0.121948,0.133645,0.0218703,0.0830781,0.0801894,0.0408962,0.00985121,0.0747968,0.113598,-0.124529,0.133371,-0.00422399,0.1028,-0.114323,0.0699595,-0.0807398,-0.0983316,-0.0883716,0.0768863,-0.0644303,-0.141403,0.124262,0.0933819,-0.0907841,-0.118286,0.014498,-0.078991,-0.0574819,-0.117833,-0.0362361,0.12166,-0.0786483,0.0779549,0.128517,0.0174455,-0.0760916,0.108179,0.000919427,0.09969,0.0229066,-0.0746049,-0.0809367,-0.001232,-0.0460355,-0.0307713,0.135921,0.0929334,0.0587768,-0.140509,0.107167,0.105145,0.0859811,0.0770527,0.121281,0.0202227,0.137617,0.122459,-0.107337,0.0304271,0.0126764,0.12118,-0.123198,-0.0833664,-0.0029481,-0.0523847,0.0758707,-0.109324,-0.137432,0.127411,-0.0283384,0.129495,0.135148,0.102477,-0.0207477,0.0456494,-0.00237028,0.0881457,0.112272,0.0763547,-0.0678878,-0.0198843,0.0395435,0.121539,-0.0679502,0.0510613,0.0238723,-0.125924,-0.0348939,0.0899095,-0.121467,0.0175042,0.0711076,0.00536057,-0.0772036,0.118519,-0.0102998,-0.0343979,0.0530372,0.00900233,0.0758091,0.036635,0.0113551,0.0222511,-0.132152,0.0185603,-0.0261428,-0.0217785,-0.0097937,-0.035922,-0.0219428,-0.048676,-0.106365,-0.0607732,-0.0277964,0.00328987,-0.0323549,-0.113287,-0.0759214,-0.0517969,0.0100575,0.0674981,0.0080126,-0.0344932,0.055161,0.0606319,-0.0191257,-0.000926971,-0.121064,-0.115414,0.101524,-0.0794627,-0.0304706,0.0299656,-0.113981,-0.0203916,-0.129425,-0.0581515,-0.0372599,0.0750339,0.0933996,-0.0460852,-0.0530489,-0.0454552,-0.13102,0.115546,-0.0311179,-0.0958464,-0.0808301,0.105208,0.105978,0.0193799,-0.124616,-0.0181701,0.127641,-0.107936,0.0280792,0.0751164,0.0618118,0.126707,-0.0788229,-0.113497,0.132479,-0.0696868,-0.103865,-0.100168,0.0653376,0.110476,0.0537152,-0.139486,0.0509295,-0.0296679,0.11415,0.110283,0.025704,0.0732177,0.138839,0.103403,0.0122168,0.0183872,-0.0613232,-0.120782
-0.0129511,-0.136867,0.135976,-0.0976776,0.129585,-0.0193448,-0.00856433,0.0161945,-0.0237568,0.093237,0.139842,-0.0538265,0.123219,-0.109914,0.0891797,0.0073868,0.0325535,0.00416683,-0.0774711,-0.066188,-0.0747969,0.0794817,-0.0788654,0.0388575,-0.112188,-0.111831,0.0294178,-0.0545038,-0.132688,0.0450028,0.0522271,0.0448619,0.0189038,0.134197,0.0592107,-0.0296426,0.0382333,0.0960509,0.10471,-0.100208,-0.0909713,-0.0890888,0.129447,0.0255815,-0.03824,0.0182719,0.108866,-0.0934825,0.110784,-0.0500828,0.0438425,0.00171618,0.0500869,-0.0792118,0.109607,-0.0892721,-0.0433783,-0.0454638,-0.0176871,0.13196,0.0154352,-0.0943944,-0.126821,-0.12237,-0.0636655,0.0172814,0.0747655,-0.123574,-0.110552,-0.0962944,0.0510199,-0.0177298,-0.045128,0.133429,0.13198,-0.028706,0.117046,0.0646624,-0.0406056,0.14208,-0.0597947,0.0904299,0.00950301,0.109575,0.0393173,0.0224993,0.0990878,-0.0642808,-0.0602834,-0.0437919,0.085287,0.0814572,-0.00813941,-0.139863,-0.0374157,0.0275341,-0.0771271,-0.0052401,-0.134927,0.0389872,-0.0896108,-0.00736581,-0.0684739,0.128711,-0.0903704,0.0864108,0.0460548,0.0523786,-0.0389258,-0.119238,0.101887,0.0299235,0.102542,0.123333,-0.0842474,0.0308967,0.0716599,0.0144247,0.0766698,0.0688095,0.0951329,-0.0833805,-0.0246306,0.00168711,-0.0977473,-0.00129403,0.0311937,0.0590081,-0.0885186,0.106878,0.0371794,-0.022068,-0.0173825,-0.0275394,0.113325,-0.111844,0.0665893,-0.0765237,-0.0164548,0.0216422,-0.129266,-0.0324441,0.0447855,0.0108179,-0.0730384,0.052346,-0.0898659,0.137442,-0.0495059,-0.132921,-0.0213846,-0.0551947,0.0937377,-0.12819,0.0672348,-0.0397238,0.00273783,0.0732221,-0.101897,-0.00529426,0.135654,-0.089469,-0.0454947,0.074639,0.100319,-0.0206659,0.0428672,0.140717,0.0626335,0.0961804,-0.128515,0.0952627,0.097429,0.135533,0.0635078,0.0436211,0.0573364,-0.0728889,0.126083,-0.0177039,0.0613932,-0.0268599,-0.0863669,0.116088,0.0105415,-0.130293,0.00380312,0.0334895,0.139071,0.106151,0.0351406,0.077462,-0.034653,-0.0970784,-0.140841,-0.0368304,-0.0515294,-0.0793145,0.139467,-0.0383136,0.0887901,0.0662702,-0.000100742,0.129562,-0.0454567,0.0106188,0.0819611,0.0438689,-0.0734834,0.0813953,-0.0429746,-0.0105329,-0.0710887,-0.129895,-0.102745,0.0594336,0.0369834,-0.137656,-0.0369473,-0.124146,-0.0724971,-0.0191419,-0.0926437,-0.0391141,-0.0798338,0.0381557,0.103859,-0.128334,-0.00968622,-0.0772507,-0.0826414,-0.104696,-0.0801708,-0.104175,0.0148163,-0.0677397,0.0174535,-0.040384,-0.065327,0.0221572,0.0314411,0.0966213,-0.0878868,-0.0477716,0.106174,-0.12136,-0.0981943,-0.0168183,0.000837121,-0.0307698,-0.0487881,-0.0966647,-0.00323179,-0.0526012,0.0890046,0.0164847,0.0648655,0.118118,0.0735083,-0.133064,-0.096579,0.0200703,0.0629878,0.0159864,-0.00926495,-0.0363595,-0.0368888,-0.00925736,0.128984,-0.122323,-0.133443,-0.0727422,-0.113895,0.131974,-0.131828,0.0425816,0.126332,0.00873088,0.0170291,-0.0405614,-0.0246379,-0.0414908,0.0277166,-0.110043,0.0104886,-0.123366,-0.0492514,0.096381,-0.107147,0.0453964,0.0251034,-0.0398958,0.119372,0.14095,-0.0966187,-0.066562,0.0498987,0.0484687,0.112149,0.0443014
0.102028,0.0344266,-0.0975854,-0.0420767,0.0261111,0.0582466,0.0977195,0.0911543,-0.048609,0.0581037,-0.0288666,-0.1318,0.00946497,-0.136667,0.072093,0.108497,0.085097,-0.0136998,0.121338,-0.107901,0.0289758,-0.113547,-0.130188,0.0137394,0.13527,0.075236,0.115343,-0.12289,-0.114366,0.0492547,0.0278921,0.0737129,0.0618756,0.0888278,-0.0313263,-0.135829,0.062647,-0.00117563,-0.0812087,0.108343,0.127779,0.13511,-0.0183805,-0.0191689,0.0727987,0.00845495,-0.0751702,0.0910326,-0.107122,0.0498953,-0.0260845,-0.0975466,-0.140321,-0.0667704,0.0860754,0.01456,-0.0956938,0.120368,-0.0907728,0.131407,0.0455901,0.0727734,-0.102147,-0.0692985,0.0137593,-0.0147933,0.097395,0.0320638,-0.00121605,-0.0901129,-0.139173,-0.0187197,-0.0399361,-0.0228081,0.104907,0.0653522,0.0651341,-0.0314619,0.116469,-0.038658,0.134576,0.00458273,-0.0911101,0.00675969,0.0532145,0.0628981,-0.0824595,-0.0942993,-0.120667,0.0121137,0.0251915,0.0196017,0.102691,0.0826492,0.111464,0.0958945,-0.121495,0.0300306,0.116877,0.0155989,-0.0381005,-0.104351,0.140356,0.0375405,-0.135343,-0.0233525,0.00704787,0.10093,0.124468,0.00775194,-0.015946,0.0621588,-0.115511,0.032998,0.000850926,-0.118339,-0.122281,-0.130449,0.131441,0.126734,0.0669,-0.00761129,0.100291,0.0467459,0.128579,-0.125554,0.0876253,0.0556121,0.0246784,-0.0991436,0.114859,0.0551903,0.114923,0.0734342,0.0285458,-0.0521981,0.00555121,0.0893509,-0.114613,-0.116048,0.0417315,-0.0291677,0.00964669,0.038596,0.124708,-0.0010886,0.0979873,0.0533665,-0.0735167,-0.114734,0.0753742,-0.128318,0.0253965,-0.113865,0.0846302,0.0945572,-0.134066,0.113716,0.0941586,0.107881,0.0281993,-0.124842,-0.107364,-0.083816,-0.115811,0.0224289,-0.116311,0.0933816,-0.125017,-0.106473,-0.088392,0.0559393,-0.122494,0.0694516,-0.0691794,-0.125855,0.122573,-0.120298,0.101789,-0.051015,-0.130441,0.077748,0.0751339,-0.0302452,0.0877802,-0.0291793,-0.0763129,-0.115527,-0.0315338,-0.00372987,-0.0678309,-0.0400561,0.125706,0.057861,0.0103489,0.135511,-0.113356,0.0303863,-0.12759,-0.123329,0.129562,-0.084365,-0.017284,-0.0361401,-0.141474,-0.0947845,0.0665464,0.115977,0.0321438,0.0514972,-0.078492,0.0306592,-0.0580855,-0.080776,0.0759193,-0.129386,-0.0403205,0.0212835,0.0974862,0.11998,-0.109197,-0.113396,-0.124158,0.0512382,0.0160296,0.124988,-0.0861852,0.0313077,0.0522398,-0.0328155,0.119999,0.132605,0.0291646,-0.106822,0.0393155,-0.000913707,0.0773729,0.0495508,0.0557728,0.0730531,0.0288252,0.0953361,-0.106649,-0.0132703,-0.0569496,-0.0236546,0.0137236,-0.0838483,-0.00453142,-0.032691,0.0958357,0.00269457,0.138391,0.0706854,0.127551,-0.134448,-0.0248246,0.0175041,0.000603539,-0.0945697,-0.112633,-0.0239353,0.0901989,0.121268,-0.12297,0.0542519,0.0432467,0.0349944,-0.0477674,0.030068,-0.0735892,0.0535736,0.0546706,0.0502901,-0.0129218,-0.0651302,-0.0120305,-0.130134,-0.0837336,0.12073,0.0872141,-0.0444603,0.0480247,-0.111804,-0.03942,0.0327232,-0.0815989,0.0955752,-0.103699,0.128005,-0.127989,-0.0751788,-0.052156,0.0506798,0.00373467,0.140633,-0.06053,-0.0307412,0.058627,0.00810512
0.0996346,-0.122241,-0.0619882,-0.0761426,-0.107069,0.00300317,-0.000381936,-0.138807,-0.0886295,-0.0526349,0.128814,0.0899234,0.0164197,-0.0677215,-0.128886,0.0170848,0.0933592,-0.0652535,0.126457,0.0311741,0.0580929,0.101894,0.0535171,0.0247026,0.0520568,0.114791,-0.133118,0.136475,0.0136026,-0.12865,0.0862732,0.121686,-0.0821881,-0.122589,0.0288146,0.0428697,0.0594154,0.113417,-0.00592665,-0.125088,0.0640593,-0.013856,0.101267,-0.0385208,0.1232,-0.0377702,0.136757,-0.079807,-0.0245528,0.066211,-0.0816044,-0.0108586,0.0600688,-0.106743,-0.0267344,0.0538697,-0.110317,0.00792477,0.0178686,-0.10564,-0.0355215,0.113107,-0.0975785,0.13798,0.0152072,-0.0948051,0.0504246,0.073305,0.0868304,-0.0526465,-0.081636,-0.046584,-0.105799,0.0716016,0.0496985,0.0562543,-0.0114982,-0.0657432,-0.0366367,-0.0483901,0.096432,-0.0110514,0.139502,0.111841,0.135768,0.12273,-0.0659316,-0.0967535,0.0710047,0.120951,0.0159624,-0.13945,0.0045213,0.0375564,0.0712117,-0.121197,-0.104195,-0.0609388,-0.0547972,0.103538,0.0569208,0.137153,0.0158349,-0.0970955,-0.0975102,0.139505,0.00299882,-0.130503,0.0903542,-0.0743033,-0.00101319,0.0604396,-0.13984,0.124841,0.0919589,-0.0196099,-0.00802186,0.137994,-0.0160162,0.0996068,0.0281378,0.0136132,0.0143872,0.0418392,0.0689021,0.00710966,0.0331849,-0.0868041,0.0835064,0.107319,0.0306296,0.0879579,-0.114481,-0.0548228,-0.105401,-0.039085,0.0408761,0.0294394,0.0697793,-0.0832683,0.0504217,-0.125091,0.0967517,-0.139602,0.0494016,0.139372,-0.0212274,0.0037675,0.0654825,-0.0341489,-0.0245875,-0.136643,-0.0283436,0.0345015,0.00471543,0.0536152,-0.00789277,0.0284683,0.125296,-0.104206,-0.0863205,0.0267845,-0.0424893,-0.0960261,-0.136211,0.0134409,-0.113659,-0.0487975,0.0383136,-0.132015,0.127221,0.014663,0.120085,0.134058,-0.0901396,-0.101325,0.0328284,0.124547,0.141253,-0.043183,0.105605,-0.0841074,0.0365733,0.105021,0.121733,0.0579313,-0.0471289,-0.0226667,-0.135303,-0.0673351,0.0638738,-0.0237156,0.0985714,0.0426356,-0.0288005,-0.0556728,-0.0173663,-0.0250251,-0.016269,-0.0526113,0.0801332,0.0366974,-0.0220351,-0.00523696,0.116583,-0.0226203,-0.0667062,0.033778,-0.0126958,-0.00896737,0.0774568,0.0257313,-0.0484799,-0.114113,0.108074,-0.0830281,-0.0913438,-0.0127151,-0.0515045,0.0885081,-0.0676144,0.113246,-0.00836795,-0.0556032,0.0667394,-0.0922936,-0.0341309,0.126384,0.0352899,0.080819,0.121678,0.125485,-0.140376,-0.0880333,0.0583288,0.141128,-0.0778612,0.0192161,0.0529069,0.0587273,-0.0200109,-0.133639,0.0739501,-0.107624,-0.0553992,-0.11835,-0.0273363,-0.117235,-0.0610169,0.120822,0.0382447,0.0804461,0.0294846,0.0430515,0.127033,0.042063,-0.0580771,-0.0205695,0.119008,0.0868836,-0.0844415,-0.0495009,0.0114957,-0.0720534,0.0853269,0.0141099,0.122479,0.020012,-0.0358114,0.0271171,-0.00317262,0.0187546,0.0954434,0.124179,0.057729,0.0760001,-0.0281527,-0.0600344,0.0600671,-0.0273311,0.049136,0.0106465,-0.0674307,-0.00877063,0.000981067,-0.0533274,0.0442659,0.114114,-0.0777025,0.132895,0.0175738,-0.0445242,0.125425,-0.112228,0.074145,-0.0293918,0.0482389,-0.094374,-0.0459714,0.106885
0.0567134,0.0347236,0.102901,0.0817993,-0.0981136,0.124909,-0.0069815,-0.11104,-0.0796349,0.0207066,0.0829651,-0.125494,0.116028,-0.014786,0.0848069,0.129486,0.116582,0.0633759,0.104795,0.0549867,-0.0629611,0.00146633,0.0781996,0.00368054,-0.0607071,-0.019786,0.0919667,-0.110592,-0.0628812,-0.05278,-0.0784806,-0.0732264,-0.0147416,0.0824173,-0.0944467,0.0578664,0.139989,0.0239833,0.0980635,0.0734646,0.0945316,-0.080013,0.00288175,0.00584478,-0.0452328,-0.0827489,-0.0189164,0.040598,-0.00426845,0.126299,0.0633236,-0.121883,0.108694,0.11849,0.0669097,0.0768605,0.0656677,0.0166955,0.0497626,-0.115951,0.0789692,0.100621,0.0416376,-0.0835115,-0.0992781,-0.0783269,-0.0647701,-0.0480683,0.092725,-0.0739202,0.0972382,-0.0634762,-0.129735,0.121449,-0.116452,-0.0799887,0.0907411,0.0354003,0.0895518,0.094583,0.000311732,0.131288,-0.100618,-0.127318,0.028355,-0.0444314,0.0873135,-0.0610922,-0.0824691,-0.0703647,0.0825234,0.000163033,0.121987,0.0518785,-0.0992341,0.044868,0.0703778,0.0985826,0.0377833,0.0796674,-0.120362,-0.0191848,0.132983,0.11773,-0.124015,0.0182739,0.0331219,0.136755,-0.0265626,0.0147886,-0.00319837,0.0226228,0.0554846,-0.0306342,-0.0949574,0.116692,-0.0368887,-0.105859,0.120971,-0.118485,0.129004,-0.0176381,0.132476,-0.0736199,0.130009,-0.108068,-0.066328,-0.0294815,-0.097505,0.0468609,-0.0332797,-0.0332833,0.028696,0.130317,-0.0597813,-0.0159128,0.0678336,-0.0141473,0.0862128,0.123633,-0.0375816,0.0794548,0.098765,0.0745812,-0.123432,0.0660361,-0.114179,-0.0136249,0.0686388,0.0427434,-0.122652,-0.131766,-0.0941715,0.127368,0.0980476,-0.126133,-0.0868133,-0.0227744,0.104371,-0.131068,0.036169,-0.0276868,0.084379,-0.116926,0.0366775,0.0620635,0.121878,0.0427984,-0.136403,0.131177,-0.00535376,-0.060414,-0.0748769,0.0116086,0.0933394,0.104111,-0.0724108,-0.0492207,-0.140166,-0.0652499,0.104125,-0.110333,0.109818,-0.0446617,-0.0688227,-0.140128,-0.115927,0.0112691,0.04549,-0.0370361,0.0217145,-0.0241233,-0.135537,0.021838,-0.131566,-0.0527854,-0.0273115,0.0924548,0.0807326,-0.138482,0.0600899,-0.0457097,-0.0236395,0.0887375,-0.0876604,0.0228965,0.0853472,-0.0648385,0.0302284,0.130376,0.0489476,-0.0428834,-0.121655,-0.0720863,-0.106683,0.0161708,-0.139179,0.00839115,0.0759572,-0.0705318,-0.0275287,-0.105139,0.025762,0.0421398,-0.130964,0.00127166,-0.107404,-0.112833,-0.0906554,0.0253361,-0.0469798,0.0846906,-0.0726284,-0.116643,0.00455974,0.0530281,0.0649215,0.131659,0.0601725,0.0614971,0.00442016,0.132289,0.015574,-0.0286113,-0.118849,-0.0817125,0.10274,-0.111224,0.119927,-0.129382,0.0542189,-0.0533679,-0.028785,-0.0185039,0.0952768,-0.0360584,-0.096887,-0.0881578,0.0420502,0.0749884,-0.0510771,-0.00627512,0.122955,-0.048842,0.120564,-0.0697815,-0.0433485,0.0322178,0.107853,-0.0633451,-0.128786,0.0372658,-0.0790939,0.0270137,-0.0765967,-0.079826,-0.00205094,-0.0243422,-0.0251722,0.0886292,0.00506396,0.110794,-0.0952666,-0.038501,-0.124664,0.0960547,-0.105033,0.0626609,-0.0871117,-0.0405347,0.133227,-0.0191614,-0.0935556,-0.0365593,-0.0926056,-0.0130251,0.123471,-0.135605,0.0131865,0.0512979
-0.0604518,0.115722,0.052985,-0.0352998,-0.0949746,0.0339836,-0.0240703,-0.108746,0.0778829,0.00390753,0.127703,0.131447,0.0724037,-0.0987307,0.121259,-0.0355183,-0.134088,0.000117531,-0.118591,0.0771442,0.0211971,0.059896,-0.116729,0.0503578,0.124524,0.0650661,-0.0328554,0.0878097,0.112531,0.0696931,-0.000925463,0.0478051,0.0618022,0.113722,0.137155,0.116297,-0.122602,0.0485077,0.0955267,-0.138076,0.138707,-0.0104551,0.0888761,-0.0304873,0.0656308,0.0674782,0.0438576,-0.0810227,-0.0486109,0.113372,-0.114556,0.0619691,0.0198423,0.112032,0.110178,-0.0582908,-0.0503964,0.11459,-0.108748,0.0890588,0.108083,0.12191,0.099589,0.0323437,0.119497,-0.0308879,-0.13865,0.0858797,0.00994334,-0.0448104,-0.098374,0.0892264,0.130796,0.0348582,0.0741743,0.10196,-0.13205,0.107909,0.12009,-0.00331734,0.0468706,-0.00177552,-0.0205844,-0.0148211,0.0114715,-0.100104,0.101857,0.0691874,0.0861886,0.0192998,0.0856706,-0.0576616,0.0425072,0.0546876,0.00804465,-0.00947715,-0.128383,-0.100174,-0.027271,-0.0505506,-0.12754,0.025112,0.0420966,-0.0353447,0.100874,0.0669816,0.110801,-0.0383136,-0.012986,-0.103014,0.0500385,-0.0281504,-0.0342595,0.0362205,0.0385799,0.127623,-0.00586083,0.0399093,0.0981999,-0.0242343,-0.109952,-0.0864738,0.0997232,-0.0543987,-0.0393374,-0.111128,-0.00381755,-0.0163583,-0.0524927,-0.00939027,0.0599142,-0.08215,-0.117358,0.119437,0.0926398,0.00390489,-0.0196948,-0.00430742,0.0402676,-0.124391,0.04734,0.122281,0.0149262,0.0135611,-0.11769,-0.0538133,0.0120296,-0.0471711,-0.07167,0.07677,0.10359,-0.0531714,0.104983,0.0495945,0.112845,-0.118132,0.0362799,0.12453,0.0794236,0.132884,-0.130073,0.0952996,0.0794309,0.000539181,0.0569624,0.0665373,0.0667052,0.062041,0.0377235,-0.0414806,-0.128166,0.0970072,0.0505929,0.0611077,-0.0664584,0.0387172,0.023279,0.131264,0.125599,0.0369041,0.138514,0.124232,-0.0559335,0.0788618,0.11273,0.0575341,0.129015,0.05536,0.128972,-0.129169,-0.0187735,-0.0513356,-0.066699,-0.047255,-0.118176,0.077058,-0.123996,-0.106866,-0.0373839,0.0647236,0.125824,-0.0921299,0.0835269,-0.0740904,0.0164525,0.107781,-0.0965476,0.132877,0.0685825,0.0136782,-0.111374,-0.134158,0.0565062,0.0283707,0.0619298,-0.0418065,-0.0135207,-0.0239084,0.0819717,-0.117569,-0.0877193,0.0383667,-0.0458093,-0.0479069,0.0237176,0.115283,0.101084,0.0119195,-0.0872819,0.0252131,-0.045896,-0.0501205,-0.0571337,-0.0981901,-0.116406,0.0786642,-0.0168947,0.0785508,-0.0585477,-0.0307586,0.0071697,-0.00502497,-0.00778656,0.11937,0.00449034,-0.134955,-0.0119386,0.0488242,0.0194365,-0.0767683,0.0817752,-0.113452,-0.137709,-0.127358,0.00504023,0.0463477,-0.092069,-0.0265751,-0.0780455,-0.0795087,-0.10911,0.0356207,-0.0415478,-0.0252669,-0.0915505,-0.00331298,0.138671,0.0669277,0.053915,0.0855437,-0.00609128,-0.0292472,-0.0846919,-0.0464662,0.131059,0.085798,-0.0306415,0.0196951,0.100411,0.125564,-0.00438368,0.0766516,-0.139052,0.136157,-0.0710725,0.12088,0.000279941,0.11444,-0.0307399,0.0540959,-0.111633,0.00711886,0.0416353,-0.0062277,-0.0038336,0.0244649,-0.0939948,0.112679,0.034001,-0.0436434
0.03466,0.0308353,0.0238071,0.0982835,-0.12505,-0.0408517,0.0773282,0.0661114,0.0571242,0.096106,-0.107486,0.0617801,-0.136283,-0.110714,0.134787,-0.132218,0.107079,0.0077463,0.082215,-0.057517,-0.108693,-0.134461,-0.0295008,-0.0421199,0.0593266,-0.111066,0.0340028,-0.102243,-0.11108,-0.0753251,-0.0271301,-0.0379131,-0.081292,0.000994634,-0.0626564,-0.0784124,0.0813616,0.0627957,-0.119612,0.112364,-0.0188541,-0.0419667,-0.0772127,0.11785,-0.140667,0.0616257,-0.133147,-0.0131244,0.137052,0.0846251,0.0233059,0.0770749,-0.0077529,0.0133703,0.106372,0.0502943,0.122903,0.00490094,0.113313,-0.124216,-0.123889,-0.0207054,-0.126339,-0.0778021,0.0785837,-0.118495,-0.0656527,0.119223,0.138954,-0.0683469,0.105549,0.0448093,0.0260339,-0.113494,0.0151574,0.118954,-0.0579543,0.0905798,-0.0336291,-0.0276107,-0.0515161,-0.0804071,0.00740362,0.141344,-0.120488,-0.100384,0.130544,0.0655303,-0.0947663,-0.0739597,-0.0149044,0.135296,0.0578821,0.0416657,-0.116699,0.0133742,0.135706,0.127718,0.0266193,0.110313,-0.0260974,0.0658105,0.0618365,0.029417,0.0613918,0.0652215,0.0746119,0.106827,0.133797,0.0836112,0.128264,0.115573,0.0710308,0.0373686,-0.0315222,0.0665855,-0.0481842,-0.0601174,0.072592,0.123341,-0.00346638,-0.00468389,-0.0357138,-0.0647947,-0.0883624,0.0702001,0.0610836,-0.0704666,-0.0153339,0.0553266,0.0756511,0.0649741,-0.0865481,0.115034,0.124508,-0.126531,0.0779149,0.0474269,-0.11841,-0.0844651,-0.140471,0.0984241,0.0338049,0.0211649,0.0618615,-0.0803595,0.117602,-0.0561309,0.094988,-0.0626361,-0.114488,0.0816446,0.0575331,0.042071,0.0645697,0.0806826,0.131158,-0.0511582,-0.0654503,0.0255292,-0.0751321,0.067975,0.0591316,-0.0993658,-0.130149,0.119441,0.0141026,-0.0328798,-0.0420499,0.0611632,-0.108706,0.113381,0.0476488,0.0303614,-0.0487987,0.0707822,0.112749,0.0957092,-0.0963916,-0.0534008,-0.00146849,-0.052953,0.108285,0.0428476,0.0992653,-0.115356,0.10249,-0.0367354,0.0957766,0.0822762,-0.125961,0.00795896,0.127795,0.00149714,0.119521,-0.0467569,-0.097108,0.0281258,0.0517108,0.0015423,0.0768918,0.0563608,0.0112473,-0.0984051,0.0331702,0.113864,0.0566871,-0.0738912,0.0265442,-0.133555,-0.00531623,0.1156,-0.136573,0.040352,0.0862598,0.073478,-0.0957694,0.00138418,0.0100344,0.0651261,-0.0224452,0.0686272,-0.121381,0.108654,-0.136322,-0.139024,0.0255687,-0.0494809,-0.0172675,-0.114665,0.129285,-0.11609,0.125408,-0.0497944,0.0681603,-0.13285,0.0343192,-0.115232,0.136366,-0.132436,0.0881186,-0.0620778,0.003936,0.0804457,0.0515726,-0.0194626,-0.135923,-0.0194237,-0.030817,0.0642786,0.0517072,0.0677115,-0.0135546,-0.00825926,0.134979,-0.05822,0.128465,0.0238567,-0.10866,0.00753553,-0.112231,-0.0487065,-0.0252244,-0.0972343,0.0693806,0.116581,-0.0750987,0.0817539,0.062425,-0.0588376,0.0489182,-0.0912965,0.0378813,-0.0178571,-0.118852,0.0524617,0.0560033,-0.139558,0.0190242,0.0665665,0.0671233,0.0338443,0.0504638,0.136087,-0.112005,0.0955307,-0.0604538,-0.039409,0.0403555,0.0518819,-0.118042,-0.0555152,0.0755697,0.041493,-0.0374092,0.022565,0.0518085,-0.0555911,-0.102559,-0.0619122
-0.0600101,0.119864,0.0195898,0.1408,-0.0284375,-0.0448555,0.11729,-0.116652,0.0559379,0.0242078,-0.0651888,0.0972161,0.0145366,0.0196819,-0.0672885,0.00787531,0.0964067,-0.03017,-0.103747,0.00155247,0.0214664,-0.0216703,-0.0680479,-0.141586,0.0452221,0.0494997,-0.0498925,-0.0892472,-0.0165613,0.0662427,0.0298634,0.12535,0.124243,0.090303,-0.11604,0.000860547,-0.0854182,0.085772,0.0344252,-0.140044,-0.107741,-0.0457493,-0.108608,-0.0398342,-0.0567935,-0.000884441,-0.135766,-0.00678881,-0.0731007,-0.027572,-0.141106,0.0314866,-0.104731,0.139136,-0.0364838,-0.0302223,-0.0496964,0.0181777,-0.105269,-0.108883,0.0290801,0.128656,0.0466663,-0.0882492,0.0858738,0.0536006,-0.0358702,0.071402,-0.078952,-0.0808119,0.141426,-0.0813512,0.0767638,-0.0182399,-0.0379784,0.0745429,0.0618411,0.0217995,0.0553861,0.114294,0.110901,0.074028,-0.00838981,0.056647,0.0710783,0.0582936,0.11514,-0.117652,-0.0723462,0.104045,0.0144407,-0.140089,0.0663957,0.076252,0.0091728,-0.137823,-0.0521533,-0.0504615,-0.101483,-0.0419269,-0.0996853,0.0733899,0.041188,0.0773659,0.062727,-0.119384,0.074904,-0.0446081,0.0585612,-0.0688872,0.0456039,-0.0603873,-0.107051,-0.0132467,-0.0927529,-0.0509196,-0.00249875,-0.0747882,-0.0323157,-0.0958377,0.0881188,0.0479921,0.0676086,-0.0348671,-0.0981782,-0.0423268,-0.0428224,0.0526324,0.0543993,-0.00890965,0.0617253,0.0650588,0.0438535,0.0240174,-0.069689,-0.0707046,0.0466247,-0.0730724,0.0361818,0.0774939,-0.0378364,0.112891,0.00549921,-0.00462999,0.0215508,-0.0782864,-0.133701,0.0767553,0.140066,0.0902196,-0.0541875,-0.0836764,0.138522,0.123427,0.127275,0.118172,0.137908,-0.0129269,0.0908762,0.0509286,-0.0180149,0.0795608,-0.037594,0.00621202,0.0988497,0.138827,0.10224,-0.0475747,0.0602074,0.00605293,0.127178,-0.0510417,-0.101895,-0.0984919,0.122347,-0.0438738,-0.0967812,0.0927455,0.106222,-0.112464,-0.0639405,0.0172671,0.0128562,-0.117391,0.0800439,-0.140793,0.0370817,0.0594862,-0.0201624,0.135328,-0.0318371,0.0734691,0.00813082,-0.0228693,0.138197,0.138155,0.0376468,0.0286959,-0.0907778,-0.102359,0.092177,-0.117947,0.0606772,0.0337783,0.113612,0.126818,-0.0318849,0.0240069,-0.0345446,-0.0334306,-0.0711254,0.125764,-0.0306806,0.0929678,-0.121361,0.0635922,-0.0900466,0.139996,-0.0228071,0.120379,-0.121899,-0.0751382,0.0546761,-0.0710555,0.0767357,-0.0200814,0.0159668,0.132196,-0.0941244,0.114372,-0.0299005,0.0729683,0.11603,0.0992012,-0.101401,0.053165,0.0650705,0.0248052,0.0854943,0.098517,0.097781,-0.0837603,-0.141525,0.0314851,0.00304674,-0.140063,-0.037571,0.083315,0.0403223,0.0509492,-0.0249771,-0.112473,-0.0437928,0.0685882,0.0547047,-0.127877,-0.0612198,-0.05729,0.0671404,-0.0320492,0.0190445,0.102641,-0.00984637,-0.140479,-0.0166214,0.0698105,-0.126496,-0.0716468,0.0362039,0.108692,0.0277535,0.0211678,0.0396164,-0.0320834,0.0841826,0.127898,0.0302829,-0.0324336,-0.0712998,0.0924592,0.0699205,0.0949816,-0.116363,-0.0628616,-0.00994605,-0.0386152,0.0828879,-0.0631788,0.0187903,0.0644081,0.139791,0.116466,-0.000758714,-0.132837,0.132281,0.128181,-0.080938,0.0581565,0.0373234,0.0786163
0.138528,0.110017,-0.00614646,0.0308401,-0.0345,-0.0393792,0.0514987,-0.058537,-0.116078,0.027553,-0.11485,-0.131793,-0.0254666,-0.0256246,-0.128254,0.129158,-0.0767471,0.0323945,0.0936896,0.0139821,-0.101369,0.0453839,0.050121,0.132474,-0.105463,0.102449,-0.010178,-0.11116,-0.138209,-0.0471776,-0.00794278,0.0302165,-0.0678371,0.0208454,-0.099342,0.0101828,0.101557,0.0604984,0.136432,0.115221,-0.0287812,0.0649562,0.117426,-0.0302562,-0.0637413,0.0389221,-0.0392647,-0.0211808,0.0794254,-0.0938986,-0.0739191,0.00169175,0.125706,-0.100074,-0.104103,-0.049125,-0.00894854,0.0635316,0.0698906,-0.0788829,0.0341158,0.0933514,0.103694,-0.0800898,0.0353213,-0.127669,0.116616,0.0611623,-0.0870005,0.133154,0.120744,0.139282,-0.00773928,-0.0286599,0.014246,0.0669618,0.0846522,-0.0219598,0.0568074,-0.00570422,-0.0403642,0.0688554,-0.0054191,0.053893,-0.0481076,-0.0208084,0.0763111,-0.0713816,0.0478994,-0.0432767,-0.0489047,0.133092,-0.0289557,0.0512517,0.0407202,-0.0819996,-0.04283,0.0699453,0.0517457,0.0865173,-0.137012,-0.0645041,-0.134517,-0.0617149,-0.0874207,-0.0223722,0.0618308,0.113178,0.0373996,0.110564,-0.0381433,-0.0374067,0.119243,-0.0375738,0.0687361,0.019671,-0.140189,-0.0786567,-0.0104603,-0.114187,-0.136759,-0.0747694,-0.127457,-0.115485,-0.0487944,0.0226488,-0.122284,-0.107141,0.105766,-0.120536,-0.0510479,-0.0699845,-0.0949163,0.0937971,-0.137451,0.11037,0.0832062,0.119636,0.0441002,0.101208,0.140381,-0.0624594,-0.042796,-0.0725667,-0.0562179,-0.134155,0.135524,0.0224275,-0.065973,-0.0366359,0.125221,-0.123117,-0.0903663,-0.141363,-0.0508203,-0.0478802,-0.0349499,-0.0705513,-0.0213509,-0.035804,0.0342977,0.126315,-0.0597437,-0.0148162,-0.0700144,0.108741,0.0496277,0.00620264,-0.016525,0.111572,0.0238479,0.0542063,-0.011451,0.105877,0.0528166,-0.0958173,-0.080849,-0.0838107,-0.126542,0.0606731,0.106463,-0.134679,0.0575303,-0.128182,0.0171275,0.00318869,0.112855,-0.0972138,0.0545209,-0.069718,-0.0930436,0.06948,-0.13331,-0.00909634,0.0869533,-0.127209,-0.118081,-0.0698775,0.0964979,0.0528699,0.07677,0.139623,-0.0409983,0.0568699,0.0137796,-0.056427,-0.0649187,-0.136551,0.0873845,-0.0459286,0.118634,-0.0315194,0.0847479,0.139957,-0.0124092,-0.0910547,0.0865822,0.05665,-0.0376546,-0.0896595,-0.0668143,-0.115489,0.119501,0.0742991,-0.0245799,0.0271506,-0.0337371,0.0941811,0.0803437,-0.0405197,-0.0773645,0.00257487,-0.119952,0.00798909,0.042517,0.00984695,-0.0193662,-0.0878689,0.0912497,0.0157077,0.0409329,0.119106,0.132637,0.0898679,-0.0916088,0.00556296,0.0388583,0.103665,-0.131656,0.0913398,0.0929943,0.0741107,0.0336811,0.0595708,0.0227425,0.0504362,-0.0724021,-0.00931194,0.0659377,-0.0968668,0.138121,-0.0225609,0.0358467,0.0818657,0.0891321,-0.125737,0.0841167,0.134232,-0.090409,-0.0241375,0.117508,-0.0621477,0.0223554,0.0492583,-0.000497472,-0.0953243,-0.0609601,-0.0542551,0.0330116,-0.0508811,0.081486,-0.117655,0.0990556,0.0209693,-0.131196,0.0911613,0.0330899,0.0349618,0.13596,0.0236206,0.024043,-0.0509583,-0.120191,-0.112787,0.0787267,-0.129695,-0.0415057,-0.0571666,-0.114293,0.0281548
-0.0876878,-0.0600725,-0.0313842,-0.0881116,-0.00131303,0.0102618,0.0204083,0.0306458,-0.0182657,0.075043,-0.082477,-0.0710449,0.104702,0.128912,0.06526,-0.0795692,-0.115192,0.10302,-0.117562,-0.0533776,-0.0410167,0.122892,-0.0472933,-0.0577485,-0.122248,0.0299168,-0.0346723,-0.0268236,0.0846994,0.0285676,-0.0968411,0.0398838,0.0673572,0.0258221,0.127426,0.0156778,-0.043452,0.132188,0.065516,0.0898726,-0.1372,-0.031468,0.0264961,-0.0814913,0.105055,0.0170603,0.0634867,0.0370063,0.0666085,0.133834,-0.111664,0.0692348,-0.0608672,0.138218,-0.120908,0.0108822,-0.0659605,-0.0633636,-0.0428349,-0.076876,-0.0648872,0.0157933,0.115412,0.00483788,-0.0048485,-0.0190436,-0.0521266,0.0801755,0.127546,-0.0514189,0.0308139,0.135773,-0.00170728,0.110575,0.069968,0.10465,0.0594566,-0.136628,-0.0803898,-0.0232109,-0.133358,0.0714821,-0.0710306,0.100136,-0.00122195,0.0662778,-0.0107344,-0.0931786,0.117948,0.0233919,0.0436868,-0.130639,-0.113289,-0.0869616,-0.0639233,0.0225102,-0.0183354,0.0319046,-0.0466729,-0.0734913,-0.0492334,-0.10965,0.0248003,-0.139298,-0.0510187,0.116936,-0.0302727,-0.0944092,0.019781,0.0355898,0.0378863,-0.0857243,-0.125207,-0.00691485,0.0598771,-0.0917268,0.0451708,-0.0657705,0.00100562,0.00219632,0.110499,-0.104744,-0.107375,0.0549072,0.0700934,0.130273,0.0738792,-0.0347404,0.0252665,0.0652074,-0.125269,-0.0676066,-0.0786159,-0.0742761,0.0391952,-0.0217257,0.0825967,0.0817964,0.0323143,0.0222802,0.0442809,-0.0466735,-0.00365129,0.0112135,0.0576458,0.00344714,0.049127,0.0807888,-0.031552,-0.117357,0.0892577,0.00604459,-0.133331,-0.0964669,-0.0641552,-0.0616165,-0.0575854,0.114299,-0.0689563,-0.0153032,0.0839147,-0.134576,-0.0123695,-0.058703,0.0407058,0.0764467,-0.0781343,-0.121438,0.128435,0.0155069,0.039747,-0.00768563,0.114361,0.105623,0.113091,0.129412,0.11163,0.0216431,-0.127964,0.123397,0.0432648,-0.139623,0.0659218,0.0922038,0.0575253,0.0122498,-0.0555825,-0.0932214,0.111199,-0.110354,0.00472238,0.0338844,-0.00627776,-0.0683842,0.0567443,0.123469,0.0435806,-0.100942,-0.101424,0.0815537,-0.110466,0.0615612,0.0117816,0.0157782,-0.091024,-0.0430611,0.0914817,0.121407,-0.103855,0.0927228,-0.0915511,0.0497995,-0.109181,0.108161,-0.0378359,-0.0582683,-0.0487955,0.0488351,-0.0926907,0.101615,-0.055221,0.0489524,0.072678,0.0446063,0.024685,0.125938,-0.0255227,-0.124955,-0.139119,-0.0310545,-0.0106189,-0.10686,-0.0491761,-0.090568,-0.0061978,0.0213399,-0.0754353,-0.132298,0.109461,0.0579936,0.020055,0.0336309,-0.0668588,-0.0273392,0.0925965,0.0494977,-0.0590217,0.015876,-0.0259271,-0.0783573,0.00404443,-0.0878972,0.138334,0.0284834,0.0203764,-0.0480404,0.0585479,0.11107,-0.0357053,-0.128679,0.00337002,-0.115008,0.0401637,-0.00813819,0.0740422,-0.00820724,0.0277428,-0.104725,-0.120104,-0.070937,0.0116875,0.00315212,0.0110909,-0.0578253,-0.128259,0.103493,-0.0634976,-0.0153349,-0.0657337,-0.106694,-0.0425389,0.0971996,-0.0363211,0.0574943,0.0154947,0.0875458,0.123324,-0.117746,0.109298,-0.0986521,-0.037185,-0.0616192,-0.0924077,-0.0286945,-0.114356,-0.0287347,0.0516339,0.0505638,-0.074796,0.0935298
0.0955385,-0.0185225,0.107412,-0.107558,0.0689515,0.00768366,-0.0539411,0.0435268,-0.00114683,0.0612337,0.0672853,-0.0736204,0.1286,0.135377,0.0274104,-0.0790173,0.140054,-0.0658966,-0.0147609,8.48676e-06,0.015136,-0.13258,0.0325463,0.0459076,-0.0616358,-0.127735,-0.0995764,0.112481,0.0338063,0.064927,-0.0838601,-0.0937555,0.0552565,-0.0493528,-0.0525736,-0.078367,0.0629192,0.0703947,0.0878007,-0.114005,-0.066139,-0.12932,-0.0283885,-0.120673,0.0681395,0.0457221,-0.0471422,-0.00790621,-0.1392,-0.0891287,0.073899,0.0501634,-0.111518,0.0491035,0.0741715,-0.0345533,0.0152972,-0.0459052,-0.0537821,-0.128188,-0.0924372,-0.141684,0.0683241,-0.0292461,0.056146,0.0232267,0.120231,-0.0204421,0.0736605,-0.0361553,-0.0449472,-0.0667249,-0.112069,0.0399033,0.00799641,0.0124612,0.080939,-0.11767,-0.112181,-0.114891,0.0738819,0.0625936,-0.0698044,-0.127893,0.0584237,-0.00853916,-0.0657482,0.140218,-0.0379806,-0.0177365,0.00565403,-0.00394787,0.126599,0.0255061,0.0926652,0.0299589,0.108081,-0.0630347,0.0214289,0.102313,0.0912562,0.12697,-0.0794994,-0.123585,0.00441239,0.0472163,0.0736453,-0.11494,0.0328707,-0.0410067,-0.0489151,-0.09074,-0.0898917,-0.0114914,-0.000517091,-0.047987,0.125675,-0.137269,-0.120316,0.0791642,0.0737996,-0.0556079,-0.00645768,-0.00287361,0.10291,0.117693,0.0272799,-0.0269344,0.0274246,-0.114828,7.19585e-05,-0.0943194,0.0626769,-0.0757457,0.0435074,-0.0553153,-0.119034,-0.0951103,-0.0478364,0.108849,0.0854516,0.0961102,0.118741,0.107726,0.00928995,-0.0532875,-0.0911836,-0.042591,0.125698,0.077365,-0.0943598,-0.132112,-0.12151,0.0759615,0.0263388,0.0105632,-0.0259432,-0.0777815,-0.0930725,0.0848235,0.024465,0.0923406,-0.124462,0.0793661,-0.0306679,-0.0604065,0.0885079,0.0910709,0.0142611,0.104805,0.00604405,0.0932297,0.0525236,-0.0250611,0.0260545,0.0863168,-0.00591259,-0.0382247,-0.0709552,-0.0724096,-0.0455411,0.10902,-0.00660453,0.00333803,0.0746601,-0.139459,-0.137194,0.0606645,-0.0798406,-0.0602546,-0.0216957,-0.114503,-0.0229927,0.0232159,-0.0826598,-0.118278,-0.0608569,-0.0747234,-0.12652,-0.114314,-0.0986358,-0.0766467,-0.115625,0.0962716,-0.0805298,0.130925,-0.0516412,-0.134405,0.0895991,-0.0814018,0.126683,-0.085021,0.102332,0.0228894,0.0673407,0.0968157,-0.106221,-0.12594,0.0931862,0.109108,-0.0672264,-0.0451973,0.0788857,-0.104008,-0.0682312,0.0118597,-0.0390151,-0.0780553,0.0825647,0.13633,0.0968587,0.0060622,0.0622254,0.126443,0.0194405,0.00460876,0.120196,-0.110974,-0.0843651,0.0313567,0.126097,0.139327,0.0364536,-0.0164407,-0.104499,-0.129096,-0.0981502,0.137708,0.12484,-0.0338914,0.0388169,0.0114382,0.127658,0.00473088,-0.108392,0.00192757,-0.0863934,0.0545479,-0.0710665,0.122151,0.0647556,0.0998232,0.00919978,-0.114168,0.108781,0.107117,0.135413,0.0780928,-0.0173048,0.108538,-0.0919979,0.0110218,0.0329342,0.131844,0.136041,-0.0848878,0.0548886,-0.104968,-0.0324261,-0.0814776,-0.0412547,-0.113265,-0.0214455,-0.073548,0.0702287,0.120741,-0.0866552,-0.014949,0.0625837,-0.135928,-0.0574078,0.124948,-0.127315,0.0577831,-0.0919529,-0.0995674,0.0993218,-0.135215,-0.0570099,-0.0583818
-0.131944,-0.0107149,0.0193396,-0.060533,0.0792334,-0.0825688,0.0456416,-0.00623543,-0.0573438,0.00771524,0.0678246,0.029667,0.0625659,0.000630273,-0.0250397,-0.0150747,0.0893695,0.0513283,-0.0570589,-0.0957696,-0.00780992,-0.120693,0.00910055,-0.0124981,0.10447,-0.0844081,-0.097793,-0.000508436,0.0292926,0.0354897,-0.0552677,-0.126502,0.00861311,-0.064905,0.0287529,-0.0949374,-0.133756,0.0418249,0.137816,0.0223643,-0.128289,0.0122361,0.0540415,-0.119253,0.140248,0.091771,0.0412324,0.040956,-0.135647,-0.0264418,-0.103234,-0.00984744,0.0740002,-0.0798656,0.0513363,-0.0928278,0.0303545,-0.0230765,0.0554012,-0.0922089,0.0935433,0.137206,-0.0331885,0.0375428,-0.0194422,0.108434,0.0407961,0.108891,-0.00224716,0.0764141,-0.0527516,-0.141264,0.0125306,0.130326,-0.140176,-0.0368519,0.131353,-0.095672,-0.00891704,0.00506175,-0.0195969,-0.00142063,0.0550827,-0.0168224,-0.00193653,-0.110291,0.121373,-0.00256231,0.0296684,-0.0649756,-0.120977,-0.12306,-0.0308845,0.124722,0.0500788,-0.0567269,0.0040175,0.0162284,0.0443882,0.0841185,-0.0117523,0.115396,-0.0390893,0.10534,0.0259598,-0.0771074,0.107685,0.0814407,-0.0217606,0.140581,-0.000247844,-0.036109,0.0146861,-0.136656,-0.0272735,-0.0095791,0.0662346,0.00864945,-0.0612587,0.0530471,-0.0397625,0.0257108,0.135088,0.0155553,0.0831351,-0.0945874,0.0755172,-0.0292217,-0.128029,0.102229,0.110838,0.0121703,0.0198258,0.0524093,0.0201848,0.0651747,0.102449,-0.0774093,0.0563421,0.0344313,-0.104698,-0.108871,-0.113466,0.0861958,0.0753447,-0.0559913,0.0907967,-0.00157207,-0.0247876,0.0387024,-0.0254412,-0.115478,0.0400967,0.00976996,-0.0013127,0.134478,-0.0938675,-0.0708823,-0.0447215,0.128931,-0.132255,-0.111212,0.0646612,-0.128193,-0.0781166,0.0576076,-0.0103014,-0.125422,0.0569339,0.0324822,-0.09579,0.0526037,-0.0795515,-0.0801477,0.0568138,0.012293,-0.112157,0.103934,-0.031833,0.135774,-0.0712345,-0.0887769,0.104514,0.0463253,-0.0765613,-0.0113938,0.0589913,0.016551,-0.127138,-0.118315,-0.0322827,0.0873118,0.110676,0.104482,-0.00847286,0.134006,0.0994856,-0.138372,0.0517578,-0.0539263,0.0914494,-0.0779645,-0.0368143,-0.126862,0.0111941,-0.0710838,-0.104588,0.135446,0.136847,0.140919,0.133695,0.0879815,-0.100046,0.0797057,-0.0175542,0.051223,0.0388064,-0.0130996,-0.0720197,-0.0506928,-0.123959,-0.0280566,-0.093041,-0.0763905,-0.0253626,0.0282457,0.126303,0.0244194,-0.0403982,0.0628328,0.113653,0.0870007,0.0571447,0.0526516,0.0373807,0.0752861,-0.095507,0.130913,-0.107568,0.00783716,-0.0696506,-0.0493516,-0.0225688,0.126249,-0.00206252,0.0387224,-0.117055,0.0227192,0.109477,0.0910358,-0.035984,0.0451014,0.01792,-0.0585589,0.00415762,0.0931853,-0.129352,-0.0808839,0.0387072,-0.0444891,-0.0313316,0.129208,0.0083614,-0.0461415,0.0931596,-0.140131,-0.117249,-0.115621,0.0697792,-0.103314,0.114493,-0.064391,0.105634,0.00403899,0.0534267,0.00235117,-0.0206705,0.0932247,0.111366,-0.0548394,-0.110726,-0.12192,-0.112653,-0.0826348,0.0200418,0.00606853,-0.117763,0.0581465,-0.105612,-0.0600165,0.0581792,-0.0678074,-0.105804,-0.13535,-0.140077,-0.0919114,-0.0202281,-0.100425,0.0337248,-0.011016
-0.0219713,-0.032238,-0.0818086,0.0721819,0.00390098,0.000662191,0.00375483,0.0380501,0.100969,0.0124691,0.103461,-0.10875,-0.0531302,0.0343484,-0.134131,-0.0418039,-0.138466,-0.0821945,0.129463,-0.00203206,-0.131687,-0.0551702,0.123003,-0.0244921,-0.0495968,-0.137545,0.0334183,0.0579688,-0.0934893,0.065972,-0.0941712,0.0197061,0.0839635,-0.12023,0.0977476,-0.0150775,0.108933,0.0608826,-0.127048,-0.074105,0.00312005,0.04216,0.140553,-0.0069409,-0.0686811,0.0718033,-0.0268264,0.0306665,0.00368349,0.114253,0.0190882,-0.0253631,0.0904501,0.0698491,-0.121399,0.0265082,0.0384451,0.139356,0.023126,-0.0173239,0.077903,0.136716,-0.11457,-0.059448,-0.0805505,0.128144,-0.00598024,-0.0882578,-0.0953377,-0.0493465,-0.129523,-0.0198354,-0.00233439,0.0708138,0.0800266,-0.0761984,0.0299139,0.115232,0.106913,0.0604968,0.113256,-0.0201088,-0.133729,0.0780004,-0.129098,-0.100114,0.0680063,-0.0117657,-0.0877013,-0.000447157,0.0847748,0.0359773,0.0387878,-0.0627995,-0.00879082,-0.0267759,0.0909196,-0.135468,-0.0894203,-0.0883307,0.0957842,-0.0693182,0.0379585,0.0486129,-0.126646,-0.0277696,0.0046803,-0.0665611,0.125578,-0.0497034,-0.0624544,-0.0335961,-0.00768721,-0.0904887,0.00665616,-0.0229794,0.129156,-0.0671681,0.00646277,0.0568917,-0.117048,0.140222,0.0659677,-0.103958,0.0580174,-0.115944,-0.08088,0.121804,-0.0673867,-0.0108425,0.068546,-0.0611777,0.0585357,0.0817581,-0.131915,-0.134316,0.089469,0.0120814,-0.0234725,-0.0983172,0.138962,0.117389,-0.0983968,-0.0667666,-0.140435,-0.0721977,0.0185287,-0.0506761,0.0621661,-0.104625,0.0633445,0.0361822,0.0573654,-0.109576,-0.129648,-0.136083,-0.0933968,-0.0931624,0.104082,0.132488,-0.00511021,-0.0981062,-0.0517121,0.00766175,0.0333442,0.12211,0.0129521,0.0798363,-0.0221441,-0.12525,-0.139547,0.014702,-0.0280352,-0.0682495,0.0552582,-0.101694,-0.035637,-0.0929655,0.0353984,-0.0518336,-0.113774,0.131912,-0.0583004,0.0759043,0.0890231,-0.0387997,0.0484305,0.0847566,0.0412073,0.126485,0.0239995,-0.129113,0.08554,-0.0781603,0.0232218,0.103841,-0.0318983,-0.0747146,0.092667,0.00320473,-0.048034,0.0618216,-0.119076,-0.135049,0.0285437,-0.0489622,0.130179,0.0686918,-0.0124764,0.0683493,-0.069795,0.110605,-0.137546,0.0941925,-0.0401543,-0.0557813,-0.0273707,-0.0539367,-0.0497086,0.0762437,-0.0310856,-0.0892776,0.123484,-0.00353784,0.00459478,-0.0509461,0.0130274,-0.138218,0.0195385,0.101043,0.0346107,-0.105949,0.0511737,-0.0516289,0.0918176,0.0591887,-0.0043308,-0.053214,0.0185158,0.0755819,0.0139634,-0.11283,-0.103505,0.11148,0.0527547,-0.0771164,0.0919353,0.0746573,-0.00158506,-0.0863493,-0.0103724,0.0972435,0.0397684,-0.0581142,0.0728371,-0.045509,-0.140136,0.0489268,-0.103295,-0.12246,0.104224,0.136767,-0.0679674,-0.0212999,0.10003,-0.0638092,-0.0338747,-0.105148,0.0303311,0.0153106,-0.10486,0.117433,-0.0159865,-0.0573679,0.106355,0.0892244,0.0377449,0.11694,-0.119339,0.011092,-0.0668802,-0.0236611,0.0287652,0.102889,-0.127436,0.0796714,-0.0921559,-0.0488225,0.110037,-0.0921917,-0.118644,-0.0557872,0.14137,-0.0129121,-0.100712,0.132951,0.0669517,-0.137315,0.0402246,0.122754
-0.136363,0.0902661,0.0473904,-0.0763376,-0.0577423,-0.000304952,0.041528,-0.0704132,0.0975708,0.0872532,-0.126069,0.0385084,0.109842,-0.0637501,-0.00595216,0.0429295,0.0761436,0.031852,0.100581,-0.0152947,0.136076,-0.0672567,-0.000182047,-0.089324,-0.0901204,0.0728855,-0.087099,0.1293,-0.0173477,-0.079191,-0.124186,0.018117,0.0072957,-0.069518,0.00338954,-0.0978792,-0.0825533,0.0273649,-0.0986,0.0465638,-0.110422,-0.0159696,-0.0984311,-0.0930068,-0.0703554,-0.0338696,-0.112725,-0.085811,0.079642,0.0961952,-0.0706202,-0.112374,-0.0170778,0.0539347,-0.0552932,0.0965301,-0.0643336,-0.0734883,0.0762735,0.0413846,0.0140992,-0.0234137,0.127152,-0.0449732,-0.0115895,-0.0511474,0.067997,-0.0906229,-0.123056,-0.0768022,-0.0655138,0.0745763,-0.119659,-0.0492697,0.132432,0.109318,0.00897431,-0.131456,-0.104117,-0.136922,0.0317054,0.0045867,0.103281,0.0974174,-0.0967382,-0.0306733,0.0914852,0.135583,0.0848508,-0.0446617,-0.0405355,0.129659,0.00764021,0.0495588,0.03869,0.057302,-0.0115556,-0.102661,-0.113145,0.00769733,0.00042434,0.0289272,0.11343,0.0446346,-0.0419184,0.0972334,-0.0719175,0.114327,-0.031472,-0.123959,0.0979438,0.102046,0.110235,-0.0499487,0.0247966,0.00361016,0.0163203,0.0691532,-0.112813,0.0494823,0.134322,-0.0979354,-0.080044,-0.0345607,-0.0445083,-0.0786817,0.0915818,-0.0164066,-0.139488,-0.0402796,-0.112298,0.0151843,0.0400577,0.103212,0.117102,-0.0310368,-0.0901162,-0.127619,0.0578206,-0.00238359,0.0767145,-0.0437375,-0.00824207,0.136176,0.0819249,-0.0900797,-0.03523,0.0572924,-0.0259872,0.0586322,-0.129997,0.0679952,-0.0851921,0.0855857,0.135372,0.118882,-0.0542701,-0.0291747,0.0254521,-0.13577,-0.129752,-0.0680379,-0.0506596,0.0268135,0.0480958,-0.0601294,0.0797662,-0.11643,0.00745076,0.119253,-0.0519416,-0.0817778,-0.12416,0.0983541,0.00463654,0.0283846,-0.110837,-0.0360471,0.118146,0.00711617,0.131203,-0.0831822,0.0755168,-0.100771,0.126426,0.135805,-0.0661321,-0.0470432,-0.096068,0.137871,-0.056587,0.0568372,0.00132501,-0.111056,-0.123396,-0.00210382,0.135742,-0.0131172,0.0661826,-0.0502322,-0.000487581,-0.0946966,-0.1373,-0.0276787,0.0266321,-0.117662,0.0965461,0.0600384,0.117425,0.0154732,-0.104416,-0.0365448,-0.088088,-0.140851,-0.129807,0.00847252,0.00665422,-0.0496782,0.064928,0.0437893,-0.132444,0.0204464,0.117256,0.0309321,0.0370966,0.0110274,-0.0933348,-0.128109,-0.0450053,0.109516,-0.0139547,-0.100826,-0.00933155,-0.0785909,0.0139593,0.0409884,0.0728265,-0.103839,-0.0356906,0.0531008,-0.10153,-0.0137729,-0.097135,-0.0225918,0.0920635,-0.100438,0.104275,-0.0896619,0.057936,-0.0672246,-0.117246,0.0852989,-0.0301798,0.134131,-0.133467,0.140558,0.0945185,-0.0492672,0.0512541,0.0977197,0.0149578,-0.0956159,-0.125433,0.0272183,0.0777946,0.107556,-0.00790258,-0.0598941,-0.0275802,-0.137042,-0.120907,0.058621,-0.11426,-0.0394293,-0.0695874,0.137568,0.0161873,-0.0847909,0.0653909,0.067794,-0.138514,0.0417122,0.100863,-0.128653,0.0922821,-0.0204563,-0.0451899,-0.0435993,0.0395323,0.0208024,0.11196,-0.0215003,-0.115825,0.0245916,0.0902406,0.107495,-0.000503018,0.0274595,-0.103522,0.0944028
0.0501363,-0.0514416,-0.00361634,0.0670507,0.0611772,0.11978,-0.0800269,0.113562,-0.0789509,-0.0842822,-0.138285,-0.138795,-0.0185533,0.109789,0.0336762,-0.0816566,-0.140298,0.0327517,0.140117,-0.100462,0.0457145,0.139922,-0.112898,-0.0724827,-0.0524365,-0.066828,0.134036,0.0186486,0.127212,0.0447801,-0.0553725,0.0566453,0.0710623,-0.00105546,-0.0240735,-0.135888,-0.100024,0.118255,-0.0212549,0.0726515,0.111001,0.0120475,-0.10408,-0.137357,0.101158,0.11364,0.0584463,0.133498,-0.030327,-0.00781667,0.113185,-0.0596161,0.0919863,-0.129293,-0.0499324,0.00686663,-0.133437,-0.13383,0.00390643,0.125211,-0.118367,0.0526874,0.0643037,0.0385423,0.0233591,-0.0869471,0.0928974,0.0127517,-0.11296,-0.106429,-0.00182043,0.00775366,0.00803865,0.0174257,-0.0193779,0.118665,0.0553878,0.0530761,0.0530275,0.0438817,0.0850083,-0.129224,-0.127836,-0.0919029,0.0939768,0.0876809,-0.0323817,-0.0100092,-0.00612512,0.0579209,-0.136894,0.0508261,0.0795043,0.0907941,-0.0613399,0.116906,0.135972,-0.0427613,-0.0849634,-0.0265251,0.0749346,-0.0595483,0.121961,-0.134095,0.0744123,0.0524091,-0.0971685,-0.0500823,0.130338,0.133624,-0.0423105,0.125028,-0.105517,0.112763,-0.132131,0.0559886,-6.79464e-05,-0.121095,-0.104048,-0.0951644,0.0140935,0.00717952,0.132599,-0.0285597,0.0999237,0.0340298,-0.137731,0.124827,-0.0899028,0.00420362,0.00165939,-0.00113906,-0.0379431,0.0790283,-0.0741575,-0.0543714,0.0791224,0.0182505,-0.107284,-0.0139491,-0.113008,-0.0241955,0.099259,0.0766133,-0.0203149,0.0851675,-0.0416797,-0.0903413,-0.0604052,-0.00552009,0.0851585,-0.0632054,-0.111682,0.0802166,0.071085,-0.141142,0.12513,0.0501643,0.0596362,0.106159,0.110362,-0.0942837,0.0125484,-0.0119305,0.0408892,-0.00982423,-0.0905062,-0.0391879,-0.0992979,-0.0247451,-0.00349949,-0.0171707,-0.0331687,-0.063742,0.0980993,0.0623288,-0.0891275,-0.0195503,0.0528563,0.102853,-0.0732275,-0.00943489,0.0483504,0.12276,0.0753126,-0.129912,-0.127744,0.0277864,0.103398,-0.109026,-0.135058,-0.0581383,-0.0909513,-0.0858857,0.138796,0.0827156,0.0461251,-0.0987677,-0.0628447,-0.00125661,5.80346e-06,-0.0256641,0.128026,-0.00729117,-0.0383063,0.0818377,0.073928,0.0702915,-0.0761609,-0.0603823,-0.0538445,-0.135835,-0.118725,-0.0248746,-0.121794,-0.0108677,-0.0494322,0.00510796,0.101122,-0.0442539,0.0398559,0.0557326,-0.00386563,0.013042,0.131546,0.105898,-0.0854848,0.00964445,-0.00138764,-0.06674,0.021646,-0.0430291,-0.00255708,0.0620435,-0.0386216,0.11148,0.0886131,-0.0748061,-0.103702,0.020423,-0.0817247,-0.0421816,-0.0459493,0.0962437,-0.129464,0.000494591,0.0503964,0.00250165,0.0607228,0.040975,0.127095,0.0169848,0.00473191,0.0525261,0.125208,0.012683,0.0389104,0.0747852,0.0102517,0.114637,0.0402885,0.010696,0.0274791,-0.00693369,-0.0871692,0.0805576,0.0182756,0.0945607,0.0784905,0.0093942,-0.0445505,0.108512,-0.0476502,0.00347493,0.068099,0.105034,0.0138336,-0.0826658,0.0458452,0.0750262,0.119222,-0.0329319,0.0828654,0.00550337,0.11217,0.0794888,-0.0615527,0.040599,0.0191699,-0.0558023,-0.0465724,0.109277,0.0747762,0.0150718,-0.0205713,-0.0108815,0.126011,0.116831,0.095723,-0.0310861
-0.0769699,-0.0660853,0.00282646,-0.00830583,-0.0873774,-0.12789,-0.127669,-0.0201126,0.0994523,0.123268,-0.0883447,0.132693,-0.0658516,-0.0917448,0.129966,0.112511,-0.0758178,-0.134216,0.0679556,0.120199,-0.00738733,-0.105508,-0.13518,0.031673,0.106574,-0.0866507,0.0688441,-0.102054,-0.0160607,-0.108444,0.0212451,-0.135159,0.0501225,0.0188333,0.135405,-0.0887238,-0.0342513,-0.0726302,0.075625,-0.0147993,0.117682,0.0609682,0.0498435,-0.134761,-0.084405,-0.0989593,0.095781,-0.00388659,0.138927,0.00515984,0.103792,-0.013231,-0.0508016,0.123334,-0.105278,0.0461888,-0.0814315,-0.0266289,0.0427295,0.0907487,0.106134,-0.0864498,-0.137988,-0.0695681,0.0860304,-0.128808,0.043044,0.140784,-0.0958176,-0.0802757,-0.106509,-0.00549417,-0.0545303,0.101243,0.0412391,-0.0505478,0.0546584,0.104402,-0.0305283,0.0773822,0.0154856,0.0132025,0.0784316,-0.0141521,0.0540333,-0.0690385,0.0687356,-0.0174363,0.105825,0.129229,-0.0226207,-0.0521825,-0.120616,0.07943,-0.051037,0.0125443,0.0427183,-0.0459425,-0.113093,-0.0664512,0.0169018,-0.119518,0.0920939,-0.110553,0.0421598,0.0819453,-0.100555,0.0839914,-0.0807615,-0.134862,0.0715327,-0.0194374,0.0638952,-0.0390452,-0.0735693,0.0926834,0.0370722,0.0774715,0.0435465,-0.0195947,0.0826313,-0.0152966,-0.027897,-0.0934621,-0.00816039,-0.140177,-0.0422565,0.117306,0.0673176,0.0725975,-0.0030746,-0.0468934,-0.0150255,-0.131673,0.0214524,0.104165,-0.139459,0.0320599,0.0410758,0.123643,0.0152851,-0.0231641,-0.0550234,0.122986,0.102236,-0.013036,0.0866909,0.116399,0.00685091,0.0676748,-0.12389,-0.0597793,0.109071,-0.0976187,-0.0866471,0.00452274,-0.119191,-0.0116015,-0.0864123,-0.0624185,0.0162214,0.0265794,-0.0246673,-0.0256358,0.11773,0.083994,0.0988865,0.0437984,0.00483587,0.0137059,-0.0545371,0.130607,0.0729607,-0.0618014,0.121202,-0.0866673,-0.129065,0.140473,0.126326,0.0601282,0.0340686,-0.118899,0.00814932,0.102733,0.12281,-0.0860065,-0.0616827,0.00230924,-0.00665938,-0.0525611,0.113209,0.0928491,0.0517812,-0.0242367,0.0569831,0.124796,-0.065509,0.067229,-0.0155708,0.131073,-0.0703363,-0.0850406,0.0261555,-0.0678388,-0.088174,-0.0507199,0.124832,0.122037,0.117241,0.00304807,0.13412,0.0364779,-0.0442572,-0.115165,-0.0476465,0.130431,0.0331171,-0.133685,-0.130764,0.0201183,-0.107702,0.057531,0.0581551,0.0373249,-0.0353404,-0.044664,0.0821166,0.132914,0.0456212,-0.0163359,-0.0927323,0.0788333,0.12177,-0.10546,0.104151,0.0119545,0.0687227,-0.0445083,0.0180418,0.018664,0.0933109,-0.11134,0.0988755,0.0900415,0.0701844,0.0341592,-0.01974,0.129185,0.0062847,0.022589,-0.0378779,0.00920053,0.0764054,0.029278,-0.0429124,0.103437,-0.0724307,0.0735351,0.107041,-0.14017,0.139716,-0.0890239,-0.0427086,-0.0549033,0.0628847,-0.12595,0.0457481,0.0336639,0.0503931,-0.0195312,-0.0294299,-0.0187398,-0.0688472,-0.12937,0.141321,-0.0930257,0.0846324,-0.114657,0.119966,0.1258,-0.0577272,0.0763708,0.123505,0.03135,-0.128176,0.044639,0.0492627,0.107165,-0.0616715,-0.0710199,0.00339749,-0.107225,-0.0968718,-0.0942944,0.0760935,-0.0718381,0.0479871,0.0905738,-0.108234,0.131518
0.0651504,-0.0363231,-0.103433,0.0120247,-0.12271,-0.0668381,-0.0254465,0.119753,-0.0855356,0.127151,0.00285221,0.0637088,0.12192,-0.0631778,0.100024,0.134959,0.0315755,-0.0438575,-0.0278863,0.022882,0.00878776,5.17986e-06,-0.0672712,0.136096,-0.0241962,-0.10419,-0.0166308,0.0683798,-0.047945,-0.0959432,0.0558236,-0.0367219,0.0577726,0.0284602,-0.119997,-0.00734254,-0.138123,0.00796915,0.0834705,0.0660249,-0.113536,0.127528,0.0723453,0.00212576,0.0492461,-0.0479893,0.0640854,0.136406,0.0302933,0.109423,0.0277382,0.115104,0.101222,-0.0607744,0.0463182,-0.0966418,-0.0419414,0.0973314,-0.128301,0.129662,-0.0973302,0.110191,-0.00407402,0.0410717,-0.0579158,-0.0673599,0.126709,0.0926704,0.130361,-0.0152646,0.0649812,-0.138445,0.107113,-0.0808138,0.0563692,0.120818,-0.0937198,-0.133762,0.132837,0.0583084,0.0229022,0.0905739,-0.0955872,-0.0853022,0.0224578,-0.0439823,-0.0461598,-0.117486,-0.0813615,-0.0347973,-0.00761368,-0.0989674,0.0430964,-0.0522418,0.138278,0.0262182,-0.0929953,-0.127587,0.0829375,-0.131977,0.121372,0.0722478,-0.140511,-0.0815838,0.00278469,-0.10835,0.124003,0.0687402,-0.0232891,-0.11875,0.0446315,-0.0412201,0.0705913,-0.0141285,-0.013125,-0.0934802,0.0628132,-0.00328658,-0.119639,-0.0975119,0.0289637,-0.0670577,-0.13865,0.122016,0.0210948,0.0109447,-0.111728,0.133332,-1.87754e-05,0.078154,0.0963083,-0.00908503,-0.00248635,-0.0504894,-0.00755374,0.0558859,-0.0468355,0.117696,0.114297,-0.118604,0.0308533,0.0485316,0.0807281,-0.04013,-0.0208709,0.00461731,0.122026,-0.115772,0.0748308,0.105397,-0.0129184,0.0257194,0.0834933,0.0648949,-0.0596368,0.0431182,-0.019948,0.0949583,-0.0167714,0.0495434,-0.0395091,0.140839,0.118208,0.0517051,-0.0790407,-0.0487543,-0.0447432,0.020512,-0.0383501,0.108198,0.0844797,-0.0162781,0.0701293,0.0567035,-0.101264,-0.0534609,-0.119419,-0.0418634,0.0789781,0.0738202,-0.0855737,0.021665,-0.0232746,-0.130714,0.135376,0.0933734,-0.0414401,0.0398575,0.0975883,-0.0881991,-0.0447086,0.0658722,-0.0349762,0.0210743,-0.0357716,0.123677,-0.0952817,0.0827358,0.0939613,0.0953951,-0.00808987,0.0622523,-0.0939206,0.0775777,0.136663,0.048075,-0.0982968,0.0325111,0.0118868,0.0273248,-0.113729,0.0230798,0.0473212,-0.0501541,0.0582333,-0.0911042,0.0780322,0.106189,0.0453184,-0.0849737,-0.0323661,0.03407,-0.0980733,-0.0667383,-0.0812651,0.0198796,0.0389883,-0.000145502,0.125279,-0.0493311,0.116991,-0.0725985,-0.0563812,0.0324389,-0.0529327,0.0782164,-0.0907286,0.0694551,0.144567,-0.0189619,-0.0842759,-0.0904618,0.0297819,0.0547269,-0.0948657,0.0273962,-0.075643,0.110522,0.0243721,-0.0401733,-0.012545,-0.067723,0.137784,-0.0888421,0.0947618,0.000131172,0.119956,0.107536,0.0933426,0.0269239,0.093972,-0.108187,-0.0125429,0.0886267,0.0925932,-0.08914,0.000368373,-0.0093084,0.112799,-0.130519,0.091399,0.0650871,0.0608253,0.0899128,-0.139537,-0.0691216,0.0636569,-0.122714,0.115323,0.0351625,0.140966,0.0557389,0.128057,-0.0275735,-0.0599037,0.137408,-0.0278261,-0.111392,0.0265772,-0.0163071,-0.00616827,0.0692129,0.0577683,-0.0749734,-0.0924138,0.0283067,0.134247,0.024313,0.10059,0.0941667
-0.127825,-0.134123,0.0225457,0.034339,0.137263,0.122139,0.110781,0.0326697,0.0174035,-0.08666,0.00991111,0.0257249,-0.0411461,-0.0299522,-0.139761,-0.127565,-0.00520193,-0.0170854,0.0552041,-0.104879,0.00745408,-0.0475562,0.0932181,-0.0914887,0.0554939,-0.0594392,0.0574745,0.0264694,0.0636611,-0.0249113,-0.130589,0.0605126,0.0130853,-0.0692764,-0.133612,-0.0398309,-0.00941367,-0.109192,-0.0211723,-0.0405865,0.0576507,-0.0424375,-0.0227874,-0.106708,-0.0367501,0.0819791,-0.124343,0.0387827,-0.116068,0.0203215,-0.00835464,-0.0979072,0.0439231,-0.100037,0.130823,-0.0673654,0.0150155,0.091416,-0.133198,-0.0650081,-0.0191571,-0.0341547,0.0593798,0.065953,0.0314748,-0.117107,-0.0820042,-0.0163595,-0.0973847,0.0960795,0.0594531,0.114975,-0.075355,0.0389474,0.0727677,-0.0108689,0.0928717,-0.0195143,-0.0714269,0.0414495,-0.083071,-0.0844276,-0.0453558,-0.0687686,0.109975,0.110666,0.103896,0.100041,0.139929,0.0250665,-0.0633124,0.063162,-0.129652,0.033656,-0.01473,0.0635713,0.068067,0.142072,-0.103885,-0.0616606,-0.0373221,-0.0145414,-0.0919183,0.065517,0.00542446,-0.0844082,-0.0175029,0.0300476,-0.0639788,0.135898,-0.117941,-0.0115243,-0.0257045,0.0851866,-0.111841,0.0808938,0.109878,0.042513,0.0893495,-0.131305,0.0235089,-0.0558541,0.129978,-0.0825675,0.101611,-0.0453571,0.0386952,-0.0858743,-0.0985738,-0.118084,-0.0065878,-0.113874,-0.099931,-0.0157557,-0.0671404,0.135011,-0.0581002,0.0997381,0.0844734,0.104355,-0.10265,-0.134298,0.127713,0.0380425,0.0983521,0.0885715,0.0641164,-0.0574348,0.0980893,-0.123267,0.11741,0.0892549,0.0712962,-0.0791434,-0.0231672,-0.128787,-0.0839874,-0.0908253,-0.0498892,-0.103153,0.0966852,-0.0182657,-0.0978319,-0.127564,0.000570777,-0.100901,0.0717042,0.125787,0.0612944,0.0339256,-0.0112281,0.111887,0.115609,-0.119129,-0.0960843,0.0887243,-0.0193872,0.0315343,-0.109563,-0.0571398,-0.0115212,0.0565257,0.107032,-0.0164716,0.103894,0.0373324,-0.0693884,-0.0617448,-0.138734,-0.0591786,-0.101687,0.0515438,-0.0343945,0.0414333,0.117045,0.138232,0.0899034,0.0421618,0.0110505,-0.116344,-0.10413,-0.0385203,-0.00243594,0.0560353,0.0304339,-0.0491956,0.083802,-0.10671,0.00185139,-0.0622634,0.106251,0.119219,0.0148893,-0.0647492,0.0260101,0.0163788,0.0939751,0.020222,0.0598348,0.0348893,0.0556011,-0.0845387,-0.0437283,-0.135858,0.0495315,0.103459,0.14079,-0.019274,-0.00786326,-0.0625793,0.140252,0.0292942,-0.0151841,0.0792347,-0.000909936,0.142257,-0.0331035,0.0288412,0.111121,0.10221,0.016497,0.124097,-0.0443635,-0.0664488,-0.00313868,-0.0136964,-0.107755,0.0334572,-0.089263,0.0675795,-0.0952344,0.0760954,-0.0609943,0.105021,-0.0892563,0.130454,0.0773804,0.128504,-0.133769,-0.0395329,0.132489,0.114827,-0.109191,-0.0427401,-0.00860443,0.0149697,0.0487657,-0.0889784,-0.0674053,0.0653189,-0.0930812,0.100273,-0.0508417,-0.115763,-0.0347519,0.0449339,-0.0017385,0.105995,0.0150662,-0.0246846,-0.0897216,-0.0154632,-0.0484869,-0.118248,-0.0616858,0.0734581,0.0566566,-0.0901884,-0.0916079,-0.00867903,0.100823,-0.0634998,-0.0300196,-0.120861,0.13204,-0.055007,0.0629969,-0.0792744,0.0605941,0.0710095
0.115815,0.00583184,0.086266,-0.0888731,-0.0269993,0.136728,0.0203841,-0.139043,-0.0753857,-0.00363653,-0.00628295,0.0305251,-0.0735314,0.00768815,0.0411598,-0.0844866,-0.133745,0.0461706,0.115522,0.0272449,0.137259,-0.119117,0.137477,-0.104346,0.0385175,-0.0460034,-0.00695773,-0.0637463,0.132662,-0.102089,-0.0147187,0.0388798,-0.0853389,-0.116805,-0.00178443,-0.117477,-0.0421058,-0.11318,-0.0402827,-0.104898,0.0247898,0.0721847,-0.117727,-0.0173342,0.116151,-0.0137641,0.128708,-0.0168049,0.134291,-0.0793661,-0.0706348,-0.110138,0.0486083,-0.125789,-0.0492991,-0.13037,0.049182,-0.0686959,0.0274127,0.125486,-0.0125599,0.0222163,-0.0785652,-0.122765,0.0637184,-0.0670803,-0.0526933,-0.141194,0.117924,0.0445727,-0.0603355,-0.0597088,-0.127321,-0.0385229,0.0528799,-0.12641,0.12662,-0.0476064,0.0241995,-0.127473,0.0836804,-0.00145242,-0.0640748,-0.101611,0.108205,0.0562265,0.0493686,0.0961165,-0.106956,0.0505699,-0.111479,0.116521,0.0185055,-0.0413071,-0.139829,-0.130085,-0.130757,-0.125823,0.0959693,-0.116326,-0.0943756,0.0362031,-0.0304419,-0.0483098,0.04457,-0.0548572,-0.00608953,-0.0209707,-0.113296,0.0704512,0.0784186,0.0974994,0.105114,0.12702,0.0693377,-0.116097,-0.0157349,0.106931,0.138949,0.127588,0.0874205,-0.106899,-0.076747,0.0713881,-0.115217,0.0572317,0.0758809,0.066112,-0.113005,-0.120654,-0.0925054,0.109943,-0.00697152,-0.0838082,0.089931,0.125215,-0.0784678,0.123286,0.0793604,-0.122833,0.0990038,-0.0214073,-0.0103447,0.0675902,0.124428,0.0850301,-0.0712653,0.131823,0.114953,-0.0980978,0.109214,-0.0582017,-0.0611778,-0.0577403,-0.00262915,-0.108307,-0.0465994,0.0508876,0.05742,-0.104668,0.131059,0.10198,0.0442568,0.00720356,0.0221189,0.120928,0.10972,-0.100143,-0.0364973,-0.0870211,0.0990781,-0.0217194,0.0957374,0.00822658,0.05569,-0.0053877,0.0602233,-0.14074,0.0345162,0.095485,0.106103,-0.0519494,0.0230696,0.0623129,0.0724588,-0.0568003,-0.0460851,0.0182195,0.0718409,0.132909,-0.129481,-0.0525261,-0.0909435,-0.0898457,0.107365,0.0277173,0.029719,-0.00595006,0.0787974,0.053868,-0.0599786,-0.0386343,-0.0665673,0.0932364,0.139381,0.0260294,0.0117216,-0.135527,-0.071426,0.124813,-0.0762047,0.0980138,0.134723,0.0163476,0.0218267,0.0665261,0.0685977,-0.109224,0.0700731,-0.0921908,0.113124,0.125057,-0.0387654,-0.0304102,0.104747,-0.0739705,-0.109136,0.0124895,0.098295,-0.0897943,0.0796262,-0.0181728,-0.0621384,-0.106858,0.138261,0.0767747,0.111036,-0.0123323,-0.0126613,0.0905301,0.0596418,-0.12788,-0.0295866,-0.0458651,-0.00427664,-0.0241467,0.131793,-0.070566,-0.0138592,0.00899469,-0.0873371,0.10608,0.00193889,-0.0329624,-0.0445256,0.131625,0.00254867,-0.0262687,-0.0164077,-0.109129,-0.0364869,0.0418864,0.0863037,-0.0415463,0.0412746,0.0122267,-0.0915956,-0.141225,-0.00302856,-0.101257,0.120604,-0.127781,-0.0925867,-0.00418219,-0.0404285,0.132276,-0.134553,0.137604,-0.00841481,-0.140805,0.0456828,-0.0299481,-0.0734934,0.0542348,-0.08156,-0.048716,-0.0394475,-0.117123,-0.129245,0.123105,-0.00768358,0.0491057,-0.0572992,-0.0429881,0.00744917,-0.113722,0.138067,0.081032,-0.134409,-0.0351733
0.037187,-0.0804703,-0.0359892,0.0561586,-0.106355,-0.0795818,0.104583,0.132801,-0.13353,0.0843213,-0.00886367,0.0623138,0.00871004,0.094312,0.0921833,0.0743412,0.0285381,-0.0789845,0.100023,-0.0301234,-0.0409303,0.0894627,-0.0270258,0.0105132,-0.099562,-0.126838,-0.0654811,0.0623798,-0.100938,-0.00674812,0.0351068,-0.13715,-0.0602548,0.132838,-0.000423756,-0.100139,-0.129934,0.0987211,-0.00056802,-0.0826867,-0.112094,0.02217,-0.101613,0.062653,-0.0743622,-0.107414,0.121553,0.0720157,0.031338,0.0469334,-0.074636,0.105339,-0.122503,0.01383,-0.0717779,0.0769707,0.0770551,-0.111866,-0.0713469,0.106809,0.000711053,-0.0169964,0.0207011,-0.0955621,-0.0395001,-0.133359,0.111737,-0.0002397,0.0224382,0.0695127,0.0941762,0.0634741,0.122988,0.125319,0.0513868,0.113091,0.0222425,0.0748226,-0.0455426,-0.075167,-0.00431392,0.106552,-0.0857814,0.140838,0.0655123,0.0876098,0.0377087,0.0155237,-0.0546459,0.059225,0.0799261,0.0429161,-0.0124082,-0.0326168,0.00538215,0.0447561,0.140497,-0.0514139,-0.0272928,-0.109854,-0.00413995,-0.115612,-0.0478678,-0.116148,0.0711441,-0.13896,-0.0571887,-0.0178907,0.0199091,0.0279344,-0.110173,-0.110868,0.0355984,-0.11917,0.0207115,0.0396212,0.124737,-0.0940857,0.0317885,0.104481,0.0731892,-0.0389036,0.105203,0.0115808,-0.0587651,-0.0532537,-0.117169,0.109461,0.0366915,0.050486,0.00944587,-0.0331736,0.0518755,-0.0256245,0.12972,0.100533,0.11058,0.00674059,0.0716282,0.0289372,-0.113479,-0.0351989,-0.00445758,0.126827,-0.0767523,0.138888,-0.117892,-0.0391958,0.0215266,0.00457977,0.115523,-0.0942979,0.102085,-0.0738068,-0.0974481,-0.00752972,-0.0596432,-0.0378757,-0.104892,0.0871006,-0.0287619,-0.0420157,-0.0412514,-0.0856131,-0.0176075,-0.0201503,-0.120579,-0.0352851,0.111806,0.0852971,-0.0500111,0.0773892,0.109544,0.0073277,-0.139453,-0.114191,0.0395196,0.0498607,0.0977704,0.111917,-0.0459911,-0.0633307,0.0332446,-0.107655,0.0826587,0.0688769,-0.128079,-0.0502891,0.0561603,0.0981086,-0.0406881,-0.0180801,0.136751,-0.0232249,-0.105662,-0.0356983,-0.00878321,-0.0450735,-0.0561163,-0.134126,0.136091,0.122014,-0.0954952,0.129986,0.015173,-0.111252,-0.052317,0.0678339,0.0516483,0.0752291,0.0492993,0.0800908,-0.00472692,-0.0400795,-0.139228,-0.0481662,-0.0187252,-0.0663575,-0.0238853,0.0679859,-0.067967,-0.13476,-0.0366143,0.121425,-0.070257,-0.0547395,-0.0986576,0.0818404,-0.020646,-0.0627376,-0.0350491,0.0918171,0.112602,0.0153108,-0.0255884,-0.0453605,0.110132,-0.0390075,0.107156,-0.00382442,-0.0587473,0.066058,0.0547523,0.0261954,-0.0559545,0.0317539,-0.0366062,-0.034319,-0.0395611,-0.0681833,0.04215,0.0737092,-0.135033,0.0523802,-0.129472,0.0210033,0.128816,0.0919789,0.100993,0.0947946,0.0457775,-0.100339,-0.0449099,-0.0605425,-0.12945,-0.0439252,0.137855,-0.136684,0.0938074,-0.0512244,0.0323321,0.109214,-0.140639,0.000204594,-0.0735615,-0.0904497,-0.00721501,-0.110804,0.0239084,-0.0992997,-0.0620366,-0.113035,-0.0981473,-0.054792,-0.120886,0.115147,0.0509806,-0.029381,-0.00212278,0.0439497,-0.0852392,0.100514,0.128964,0.113431,0.0198853,0.114372,-0.0827104,0.0187894,-0.135865,-0.105203
0.0786567,0.0607478,0.00504202,0.0992605,0.0262143,0.0755681,-0.0595635,-0.0516153,-0.0505532,-0.0977595,-0.142154,0.0215603,-0.12469,-0.0934437,-0.0208022,-0.117934,0.0326262,0.108705,-0.00115224,-0.128281,0.0491388,-0.0105098,0.0297938,-0.0493418,0.131225,-0.074568,-0.0648863,-0.0534009,0.0474112,0.11593,0.092971,-0.00438259,-0.00210486,-0.0706217,-0.0867936,0.00558159,0.0280946,-0.0996085,-0.0198503,-0.12676,0.0702644,0.0477215,0.115727,-0.14089,0.0522049,-0.0678047,-0.112818,0.0216667,-0.0865182,-0.130341,-0.0182656,0.0927603,0.00976709,0.0331225,-0.0610933,0.0691436,0.0196707,-0.136249,0.11611,-0.0995613,0.115891,0.0954636,0.139395,0.00468588,-0.12484,-0.132971,0.0203105,0.110433,-0.00797027,0.0959138,0.0702621,0.0168516,0.0939312,0.139742,0.141013,-0.0744805,0.123362,-0.106103,-0.0579456,0.0387145,-0.0288256,-0.12384,-0.0788566,-0.138562,0.0893868,-0.0427176,-0.083237,-0.128797,0.010123,0.0716821,-0.1258,0.0122708,-0.0359505,-0.0826361,0.121247,-0.135185,0.10896,0.10619,-0.125988,0.0630218,0.0158963,0.00832468,0.0541234,-0.0601512,-0.0757191,0.134564,0.0859669,0.133273,-0.0622766,0.114073,-0.0980075,0.0262849,-0.0934794,0.0826797,-0.0908524,-0.130191,-0.104476,-0.122176,-0.0200135,-0.115076,-0.136547,0.0571829,0.134696,-0.0280723,-0.0621685,0.0902207,0.0540586,-0.0659714,0.020016,0.0288992,-0.13508,-0.0195089,0.00475799,-0.0908036,-0.10206,-0.0748477,-0.119429,-0.0534755,0.0221466,0.131211,-0.0350353,0.0386921,-0.0284486,-0.0210519,-0.0717762,0.083933,-0.0791609,-0.0874511,0.0820279,0.041848,-0.117354,0.0813492,0.0114278,0.00689429,-0.0244161,-0.0100546,-0.125999,0.0900961,0.123553,0.138108,-0.0127925,-0.0702923,-0.031449,-0.105046,-0.0701784,-0.013451,-0.0705828,-0.0421274,0.0455824,-0.0919064,-0.132909,0.0359817,0.127568,-0.0377353,-0.0833884,-0.123892,-0.013255,0.112258,-0.025247,0.134947,0.00813979,0.0136983,0.114037,-0.134559,-0.0871332,-0.0465447,0.0197063,0.0485203,-0.122869,0.0467066,0.100297,-0.0139776,0.0443654,-0.0410169,-0.118682,0.11171,0.0712145,0.000973509,0.127544,-0.12124,-0.0935631,-0.0305566,0.0855754,0.0693614,-0.136805,-0.117839,-0.0359684,-0.0137881,-0.11904,0.0140872,-0.102672,-0.100542,-0.0162712,0.140574,-0.0868983,0.0713688,-0.0607979,-0.111717,-0.0271889,-0.0023784,0.126905,0.0651914,-0.0666729,0.0579552,0.0820881,-0.0142587,0.133683,0.137186,0.063338,0.0149817,0.0410672,0.0024746,0.0938762,0.0609075,-0.0863296,0.0861857,0.0910806,-0.133667,-0.069853,0.114943,-0.0110199,-0.0779868,0.115888,-0.0881839,-0.0634301,-0.0646208,-0.106861,-0.0119757,-0.0380647,-0.0502886,0.093713,0.0518495,-0.0149283,0.0146003,-0.028458,-0.0540253,0.01053,0.123636,0.0688258,0.0378461,-0.0118643,0.106543,-0.00385966,-0.035047,0.109089,-0.134524,0.0677574,0.0704634,-0.0442253,-0.0598305,-0.071285,-0.117999,-0.141522,-0.0458116,-0.139183,-0.0537062,0.132691,-0.0388765,-0.063112,-0.0565828,0.0363497,0.0526876,0.124872,-0.0812716,0.0385041,0.0639491,0.068401,-0.0237525,-0.0115955,-0.0599677,-0.116447,-0.136061,-0.0724567,0.0705419,0.0999736,-0.0847002,-0.139061,0.0130066,0.103277,0.132949
-0.0549971,0.0792914,-0.0361954,0.00460806,0.0641585,0.128937,0.0242495,-0.0110134,0.0799276,-0.1373,-0.118569,-0.00327638,0.115722,0.00738042,0.0980186,-0.104772,-0.0239133,-0.00329817,-0.0110579,-0.132299,0.0444122,-0.112715,0.084675,0.104205,0.127728,-0.0211708,0.0654302,-0.132146,-0.0598921,0.0874824,-0.0919929,0.0523919,-0.0451427,0.100032,-0.0743128,0.0421433,-0.0112239,-0.118892,0.134504,0.0530132,0.0775592,-0.0184732,-0.0736387,-0.0752675,-0.0011419,-0.0538292,0.0582426,0.0554291,-0.0617567,-0.121285,-0.123618,0.0478217,0.13176,-0.0576223,0.0124259,0.135178,0.0940845,-0.102824,-0.00185546,-0.123644,0.108996,-0.0331129,-0.106333,-0.100825,0.0598564,-0.0957328,-0.0137375,0.130102,0.0985233,-0.0326061,-0.0773734,-0.0320322,-0.103301,0.028801,-0.106343,-0.106554,-0.0199274,-0.0451786,0.0471915,-0.0492219,-0.0952828,0.110105,-0.0807129,-0.135683,-0.0571894,-0.0252422,0.0655014,0.0692239,-0.0191647,-0.0229595,0.118791,-0.0292721,-0.0941991,-0.0967648,0.11746,0.0365781,-0.0476031,0.0073294,-0.0151291,0.0967234,0.00239316,0.0910759,-0.10389,0.123303,-0.0586712,0.102746,0.00446024,-0.105637,-0.00251484,0.108641,0.0229576,-0.0143008,-0.108144,-0.0885258,-0.0421951,-0.016561,0.0468393,0.140092,0.0234864,0.0163466,-0.135893,-0.0535869,-0.114123,-0.0977815,-0.0075786,-0.0137652,-0.0384483,-0.0816281,0.102437,-0.139194,0.0454293,-0.0190351,0.124348,-0.125788,-0.0291716,-0.0510722,-0.0328283,-0.0726384,0.100271,0.0423806,-0.00358941,-0.0592776,-0.0916663,-0.0903782,-0.0181336,0.0748595,-0.0520629,-0.126253,-0.130689,-0.0469963,0.079927,-0.0907596,0.0561091,0.133502,-0.0161676,-0.0720902,-0.054278,0.131214,-0.0142364,-0.0339793,-0.0798693,-0.0227702,-0.0285073,0.0241057,0.0153688,0.0812377,-0.0285883,0.113725,0.124053,-0.0666574,0.0182762,-0.110213,0.0458492,-0.108238,0.0730519,0.00427578,0.036586,0.0423656,-0.0372046,0.1032,-0.0745546,0.0908773,-0.136569,0.0684619,0.056496,0.0459092,0.0831097,0.0170324,0.0147268,0.134396,0.0492181,0.0124293,0.135602,-0.0643215,-0.0900742,0.0717852,0.131243,0.10765,0.0058562,0.0734143,0.102626,0.050162,0.122259,0.0678147,0.0418886,-0.128468,0.00380658,0.118317,0.0254766,0.135211,0.0422948,0.0579961,0.080556,-0.0988969,0.13637,0.101644,-0.0355028,-0.0927473,-0.0518079,0.0449251,-0.00588049,0.121983,0.0841761,-0.0663214,0.0969405,0.0645705,0.0856052,0.0976787,0.0203665,0.0504122,-0.127369,-0.138574,-0.0655469,-0.0172014,-0.0137205,0.0496183,0.000861789,-0.0868144,0.0343507,0.136388,0.0310031,0.102116,-0.0613611,-0.0454223,0.0616636,-0.0126766,-0.132608,-0.0190354,0.100803,-0.093785,-0.127275,0.00774916,-0.0379541,0.0800948,-0.0274991,-0.135692,0.0998126,-0.123143,0.0360018,-0.0649006,0.0573777,0.0660508,-0.0142661,0.0279208,-0.0558904,-0.0767834,-0.01349,-0.124043,0.0496053,-0.0460738,-0.0192193,0.0439114,-0.0663645,0.0580951,-0.0359105,0.0854904,0.0248422,0.0745122,-0.00301841,0.128105,-0.0790585,0.12912,-0.132653,0.11334,0.072953,0.078375,-0.110262,0.129041,-0.0533708,-0.0879837,-0.10856,0.0072092,-0.137985,-0.00663733,-0.0630255,-0.0225644,0.0433615,0.0178606,-0.0722949,0.133764
0.123445,0.00620985,-0.11547,-0.0381013,0.0235129,0.0504349,0.00352861,-0.0358786,-0.0133757,0.125752,-0.130675,-0.113721,-0.10949,-0.127687,-0.141,-0.0435212,0.0891931,-0.0968374,0.0986327,-0.106218,-0.0258897,-0.103669,-0.136995,0.0379316,-0.078192,0.126411,-0.136107,0.016532,0.128599,0.130304,0.104007,-0.044899,-0.102204,0.0758209,-0.0558635,-0.120973,-0.115188,0.0841109,-0.136345,-0.0884051,-0.00356927,0.0929766,0.132688,0.0917459,0.0158532,-0.105478,0.0625502,0.134606,-0.0276101,0.0638667,0.0181837,0.102023,0.0889531,-0.00230726,-0.103362,-0.0225273,-0.112131,0.00672155,0.0265656,-0.031386,-0.0145756,0.133473,-0.0362349,0.00253036,-0.0875039,0.134264,-0.0478991,-0.0704675,0.0341208,0.00378104,0.0372003,-0.0822473,0.0545489,0.0792786,-0.0891871,-0.136657,-0.0811095,0.0486218,-0.0612477,-0.0863945,0.101944,-0.106955,-0.133395,-0.109715,-0.124673,-0.125884,0.00977389,-0.0892856,-0.0312482,-0.00967162,0.0132165,-0.0983006,-0.0977662,-0.138909,-0.107565,-0.0752847,0.00262228,0.0417424,-0.0104074,0.00422211,-0.0385376,0.0322744,-0.112944,-0.0199193,0.0238907,0.0728727,0.140251,-0.0625994,0.0225691,0.0243756,0.112482,0.08699,0.0809399,-0.0834263,-0.0329138,-0.0144947,-0.0590493,0.0123086,0.0609787,-0.0691494,-0.101092,-0.13511,-0.00372068,0.130239,0.140676,-0.0221361,-0.0578975,-0.0571955,-0.0798903,0.0131376,-0.0534191,0.0262991,0.0109185,-0.0831214,-0.0495903,0.105934,-0.134839,-0.127216,0.0985669,0.0539785,-0.123485,0.0271163,0.132278,-0.0872937,0.0292074,0.0184903,-0.0221536,0.0113555,-0.0889099,0.0859239,-0.11503,0.0821561,0.110482,-0.062579,-0.0175405,-0.105976,-0.0325566,0.0858746,-0.0200433,-0.0206682,-0.056455,-0.0539843,-0.0265533,0.137727,0.0533181,0.122236,0.118419,-0.0294545,0.0887607,0.0371249,0.0446481,0.0329438,0.0935349,-0.00290899,-0.0994915,0.0130816,0.123324,-0.110535,-0.0286526,-0.114261,-0.0414135,-0.0180186,-0.0804742,0.0309851,-0.0585895,-0.0695015,-0.0283052,0.118566,-0.0329088,-0.0830658,0.11049,-0.080987,0.114629,-0.0987228,-0.0879002,-0.0179678,0.0834622,-0.042943,0.0464599,-0.0732855,0.0323194,-0.0674594,-0.0951566,0.134084,-0.0810021,-0.0982274,-0.0830623,-0.122747,-0.0994896,-0.0439252,-0.0663939,0.0540925,0.0643086,-0.0658824,-0.125783,0.00773057,0.0799113,-0.0116616,0.0247946,-0.104346,-0.114646,-0.0405102,0.112449,0.0547932,-0.0708124,-0.068858,-0.137538,0.128226,0.0631881,0.0811901,-0.0293234,0.0754499,-0.110514,-0.0547867,-0.106641,-0.121248,-0.135206,-0.0196762,0.0558912,-0.0359027,0.0505089,0.05235,-0.0268612,0.0848418,-0.019893,-0.0990691,-0.123379,0.0289436,-0.0701286,0.0798137,0.131038,0.0235905,0.136983,0.114128,0.118569,-0.0338216,-0.00894219,0.107534,-0.048445,-0.082627,0.0161737,-0.0952278,-0.0891739,0.139411,0.0471082,0.0812751,0.108024,0.0265284,-0.0917186,-0.0222119,0.0289006,0.0591135,0.0771345,0.125014,0.126518,-0.122293,0.115637,0.0849294,-0.0845706,-0.0914853,0.00371235,-0.0814777,0.00590579,0.0150085,0.080676,0.0297578,0.10199,0.128625,-0.0250418,0.0619476,-0.0913358,-0.0930346,0.1194,-0.141269,-0.105937,-0.110645,0.115685,0.018618,-0.0901729,0.0521517
0.0974457,-0.0118048,-0.0580558,0.0345244,-0.0110914,0.129444,0.0720501,0.0400943,-0.0825771,-0.066977,-0.0186262,0.0653823,-0.00855639,-0.0984498,-0.134667,-0.0130258,-0.00460366,-0.0708669,0.0233813,0.0553777,-0.0759784,0.0163213,-0.0524453,0.119956,0.0597868,-0.112397,0.115114,0.0428148,-0.0946283,-0.00575271,0.117696,0.0798299,-0.0369454,0.0432695,-0.0471391,0.0622891,-0.134266,-0.0207777,-0.0155062,0.0296296,-0.0627152,0.0304141,-0.0316674,-0.0789823,-0.0911432,0.077369,-0.0348813,0.0120891,0.0841831,-0.0483538,0.00539105,0.12469,0.0586158,-0.122151,0.047439,-0.116356,-0.0624338,0.0228226,0.0523565,0.00586545,0.0282081,0.113207,-0.128418,-0.0321752,-0.00199979,-0.00460903,0.0471364,0.0449038,0.140128,-0.0870767,0.11287,0.0156791,-0.131844,0.0128833,-0.126472,-0.0397315,0.0558812,-0.0389526,0.127777,0.0924579,-0.00902947,-0.0309511,-0.105262,-0.115383,-0.0706307,0.0120777,0.139642,0.0871922,-0.140954,0.0250736,-0.138313,0.0936041,0.112592,-0.0993815,0.118422,0.114034,-0.0941007,0.0929037,-0.0445557,0.129655,0.116156,-0.0915224,-0.126847,0.0633618,-0.0251355,0.0558644,-0.0831225,0.0414185,-0.110275,0.0198761,0.123079,-0.0670037,-0.0896653,-0.0433075,-0.114166,0.0669481,0.106362,0.0846473,-0.136995,0.0897837,0.115342,0.0311032,-0.0535344,0.0954848,0.00210036,-0.0358133,-0.0629773,-0.101467,0.0990389,-0.122972,-0.056754,0.0655152,-0.0278539,-0.0239688,0.0538172,0.112836,-0.112331,-0.0567724,0.0371457,0.0904329,-0.125451,-0.106928,-0.0334047,0.0875378,0.0526141,0.119497,0.0258865,0.0486342,-0.116841,0.0895512,0.023941,0.0677007,-0.0598186,-0.137333,-0.127722,-0.0760284,0.12969,-0.0248057,-0.0472462,0.0779456,0.140442,-0.024251,-0.121167,0.117982,0.119758,0.139169,0.107249,0.115367,-0.0516435,-0.130369,-0.0908466,-0.109327,0.137691,0.0862677,-0.128623,0.035249,-0.0946295,-0.133746,-0.00555892,0.0483755,0.130374,-0.089043,0.126361,-0.0725514,0.0464937,0.0567207,-0.109719,0.046863,0.133931,0.129895,0.0780149,0.046521,0.0726281,0.114147,-0.08168,-0.115813,0.134297,-0.13545,-0.114936,0.0635754,-0.133165,0.112214,0.108569,0.0817989,0.0891699,-0.0124188,0.13205,0.06006,0.000241408,-0.0111996,-0.0168477,-0.0416943,-0.11859,0.0909848,0.131197,0.0202976,-0.08578,-0.127165,0.099897,0.0208113,-0.00155188,-0.0659599,-0.10524,-0.100142,-0.0822202,-0.0517513,0.119116,-0.0982455,-0.125653,-0.00451236,0.0202258,0.0554746,-0.0289159,0.00659239,-0.120006,0.0682918,-0.0304243,-0.0148839,0.0398666,-0.017662,0.0664055,0.133152,0.0177902,-0.0342299,-0.00610159,-0.0118017,-0.0945816,-0.110019,-0.0782767,0.0238207,0.120734,0.127837,0.0245657,-0.0868227,-0.0186354,-0.0242804,0.0722385,0.120263,0.092189,-0.0609395,-0.0308853,0.104148,-0.0838048,-0.131283,0.0585709,-0.0845916,-0.0442781,0.0124896,0.066364,-0.121893,0.101249,-0.117109,0.0348634,-0.0884167,0.10813,0.0756688,-0.139209,-0.100762,0.139967,0.00394505,-0.0778209,0.0362348,0.0124868,0.0691986,0.00837915,-0.00796343,0.105665,0.0852523,0.139375,-0.0824526,-0.106218,0.121821,0.0474348,-0.0990572,0.0354323,-0.0313809,-0.0352582,0.114017,0.0693225,-0.109543
-0.115175,-0.0191959,-0.0557836,-0.0649547,0.0315826,-0.056253,-0.116062,0.0476973,-0.085321,-0.0185774,-0.130223,0.120318,-0.132104,-0.0791025,0.135163,-0.11823,0.0947046,0.0995564,-0.0668049,-0.11547,0.0586451,0.0760638,0.0544443,0.0722782,0.0223447,0.080002,0.0215468,0.0456464,0.0913827,-0.0850251,-0.0550681,0.00358379,-0.0900182,-0.135063,0.12901,-0.0145137,0.0358724,0.0132912,0.0205573,0.0397113,0.0580052,-0.00800989,-0.0109028,-0.0126207,-0.109833,-0.0575373,-0.0282039,-0.130709,0.029328,-0.0854191,0.0979262,-0.0932978,0.112798,0.0994387,0.118404,-0.0401558,0.0161941,-0.0738975,-0.107135,-0.0108208,-0.0298572,-0.0684199,-0.00384412,-0.0999235,0.0830555,0.104132,0.113402,-0.0331237,0.0907546,-0.055147,0.0584866,-0.0425819,0.0755679,0.0197068,-0.133423,0.107947,-0.129326,0.111352,0.0887958,-0.0985636,0.0595303,0.075115,-0.0477048,0.132258,-0.0421977,0.0600506,0.0379329,-0.11453,-0.0811594,0.101538,-0.0983322,0.128758,-0.0882734,-0.116093,0.0185418,0.00269567,0.0680393,-0.132599,0.0802586,0.0255489,-0.122155,-0.120051,-0.07285,0.00765467,-0.0398153,0.00513738,-0.0765072,0.0911681,-0.0355777,0.111609,0.106542,0.0793055,0.00646048,0.00807456,0.115571,-0.107883,0.0333041,-0.0266328,-0.0517364,0.101936,0.0681107,0.0933211,0.00341093,0.0395071,0.114389,0.11236,0.0491026,0.0891227,0.135269,0.0280538,0.133965,-0.0723727,0.0753503,-0.121568,0.0412271,-0.00882712,-0.0844005,0.130379,-0.139154,0.122665,0.0597599,-0.0697279,0.0800842,0.135911,0.118638,-0.0330356,-0.038377,-0.0710022,-0.0673668,0.0128553,-0.0340553,-0.0917536,0.0316978,-0.0522898,-0.0772389,-0.0847501,0.046502,-0.118135,-0.0243984,-0.0912606,-0.0811601,-0.129222,-0.105636,0.055003,-0.0995316,0.033516,-0.0935321,-0.0749252,0.125092,-0.0262847,-0.116263,-0.120226,-0.0390701,0.000417884,-0.117248,0.00480596,0.0254785,0.062707,0.110184,-0.0680466,-0.00961991,0.117444,-0.0399645,0.0614372,-0.131269,-0.0505119,0.0291471,0.016649,0.00871721,-0.071492,0.0250785,-0.0461869,0.0573895,-0.106252,0.0138953,-0.0623811,-0.0620199,-0.0102809,-0.112438,0.0646075,-0.099368,0.10646,0.0044631,0.107381,0.0938699,0.0294027,-0.00164213,0.0191993,0.124195,0.0540355,0.106974,-0.0682183,-0.0368563,0.136276,-0.0536422,-0.0740295,-0.0410002,-0.00265308,-0.0597228,0.0230341,-0.0172357,0.0202899,-0.0207377,0.122043,-0.126373,0.10045,0.131882,0.0345722,-0.0867715,-0.0378703,-0.0924978,0.0531616,0.03617,0.0961181,0.13645,-0.108183,0.0116012,-0.0825086,0.109281,-0.114667,-0.00035328,-0.0417769,-0.119582,0.0160161,0.0480188,-0.0596191,-0.0585657,-0.110032,-0.00247823,0.12184,0.0411387,-0.12608,0.0915772,-0.110375,0.0534537,-0.047069,0.138747,-0.0970787,0.108247,0.11334,0.0756135,0.0148,-0.0301826,-0.0208431,0.0694452,-0.0540923,0.107952,0.0957406,0.0901521,0.136179,-0.0251615,-0.13501,0.112048,0.0993149,0.0530778,0.0872974,-0.103116,0.130282,-0.021056,0.110831,-0.125402,0.052995,-0.105742,0.0703379,0.115229,-0.0598381,0.0378864,-0.098455,0.0118399,-0.0941698,-0.0255717,0.03638,-0.0636779,-0.116477,-0.0623275,0.0552636,-0.0775582,-0.0879534,-0.0394055,0.0861382
0.0751989,0.0274761,0.00655298,-0.117411,-0.11123,0.0866491,-0.108891,0.0712031,0.120155,0.0901061,0.0954319,-0.141166,-0.118977,-0.119218,-0.0993909,-0.0241769,0.040627,-0.0517904,0.0390966,-0.0510923,0.0414667,0.110299,0.00229835,0.0291794,-0.128736,0.0482775,-0.114368,-0.0245033,-0.105811,-0.079164,-0.0515179,0.0332805,-0.0145788,-0.0947674,-0.00541371,-0.136305,0.128075,0.100784,0.120593,0.105872,-0.0543735,0.0745548,-0.0861755,0.0497652,0.0387761,0.109438,0.0166283,-0.0959539,0.116962,0.0772889,-0.0429857,0.0841984,0.0219717,0.0363468,0.0876674,0.122939,0.0936682,-0.000319185,-0.135208,-0.00885578,-0.113817,-0.104609,0.067269,0.0682095,0.0735612,-0.026225,-0.0404382,-0.0837006,7.91689e-05,-0.0173875,-0.0828248,0.0795235,-0.133219,0.0154348,-0.0667928,0.0997602,-0.00703344,0.0656092,-0.0724112,0.02544,0.141463,0.0237824,-0.0270495,-0.0537669,-0.0717214,-0.0747109,-0.127147,0.103451,0.124157,0.00449595,0.073542,-0.117251,-0.00790121,-0.126267,0.0780485,0.000239615,0.120499,-0.0856441,0.0309187,0.112684,0.114896,0.0167019,0.0135311,-0.0403636,-0.0183964,0.0610156,-0.0351638,-0.0273901,0.0600094,0.0337135,0.102037,0.0845379,0.00478424,-0.12511,-0.0248662,-0.0271079,0.0689906,-0.0844877,0.134555,0.0490676,0.0248832,0.0307918,-0.0238908,-0.0749473,0.100103,0.0213643,-0.114284,0.123762,0.0358722,0.126414,-0.000941101,0.00233857,0.0564683,-0.0140891,0.0883842,-0.0580996,0.0928437,-0.0950266,-0.0661016,-0.121027,0.0192714,0.0916836,-0.117076,0.105834,0.124742,0.0138094,0.0184038,-0.0568486,0.0266867,-0.0256907,-0.0848373,0.114671,-0.114078,-0.0601745,0.0490243,-0.111907,0.0872349,0.0693645,0.0204965,0.0521171,0.11074,-0.108764,-0.0380998,-0.0141083,-0.0806803,-0.0110393,-0.0519505,-0.140587,0.0332947,0.0522333,-0.0704101,-0.0114658,0.0675369,0.0241752,0.0572316,0.0839296,-0.0553829,-0.00926712,0.00334854,-0.129293,-0.0731206,0.108554,0.117485,0.00928111,-0.0305576,0.0131164,0.103524,0.128904,-0.107909,-0.0568618,-0.0198591,-0.0971636,-0.0828174,0.00758834,-0.0240531,0.098116,-0.0332669,-0.109619,0.0176537,0.017286,-0.0081551,-0.0825106,-0.128134,0.106869,0.020927,0.00416698,0.0383574,-0.0815222,-0.11023,-0.0775486,0.0569681,-0.106756,-0.0727514,-0.0331332,-0.00107481,-0.0250521,-0.109626,0.10802,0.0187025,-0.137341,0.0859701,0.109537,-0.00370698,0.12419,-0.0856751,-0.0273555,-0.132209,0.0580936,-0.117143,0.136662,-0.0687927,0.0463034,0.0290669,0.061502,0.0453237,0.0688279,0.119393,-0.0371545,-0.0404891,-0.00623161,-0.029454,-0.00995879,-0.116334,0.0304042,0.0315954,-0.0164888,-0.124562,0.104417,0.00503851,0.109035,-0.100554,0.0860284,0.113687,-0.0616647,0.0184665,0.0337096,0.027164,0.0379768,-0.139488,-0.0333494,-0.124453,-0.0730814,0.119327,-0.0965271,0.110132,-0.0769832,0.10846,0.0716564,0.0999083,-0.126697,0.0610273,-0.0186851,-0.00871214,-0.103553,0.128145,-0.101832,-0.0260405,-0.00342212,0.112127,0.0928765,-0.0921551,-0.0185125,0.114637,0.0045384,0.0642791,0.0906154,0.0082825,0.0100844,0.139072,0.106656,0.0665961,-0.105323,-0.0857043,-0.0115501,0.100636,-0.0983314,0.0465751,-0.00317491,-0.0648174,-0.0924403
0.0259157,0.106058,0.0124522,0.0541691,-0.138637,-0.0718363,0.00877287,-0.0780369,-0.0279708,0.0520387,0.0758823,-0.0495962,-0.0475545,0.0175137,-0.029772,-0.0487412,0.085241,-0.119466,0.122808,-0.0577614,-0.0399231,-0.0735735,0.0756467,-0.000429565,0.130172,-0.0939633,-0.0974814,0.100819,0.116792,-0.0592636,-0.0973924,-0.0223379,0.124827,-0.126087,-0.124185,0.124939,-0.112046,-0.098948,0.103023,0.118508,0.038347,0.116178,0.0887393,-0.140707,-0.0579343,-0.0650085,0.100891,-0.0970058,-0.130911,0.0498592,-0.0724478,-0.134168,-0.0963105,-0.031005,-0.0684618,0.0888959,-0.0539079,0.131893,0.0891025,-0.0471694,-0.0376215,-0.0647176,0.106165,-0.135364,0.074588,-0.127264,0.119298,-0.0460779,0.00757489,0.0218374,0.100078,0.0511889,0.0394324,0.0756197,0.102357,-0.126925,0.079607,0.0448811,-0.0153356,-0.110607,-0.0521226,-0.0575514,0.024959,-0.0177597,0.133638,0.114942,-0.0228245,-0.058143,-0.0443905,-0.122388,0.0651314,0.114932,-0.0145685,-0.0418739,0.111907,0.0981362,-0.0686253,0.0799889,-0.0626452,-0.0413012,-0.139236,0.132548,-0.00164926,-0.0649227,-0.068407,0.0210334,0.0488897,-0.0518528,-0.00580755,-0.100305,0.037077,0.11987,0.133576,-0.119633,0.120214,-0.0707143,-0.0548167,0.0396728,0.0373107,0.0828335,-0.0595675,-0.00476339,0.0430778,0.0969952,0.0529927,0.0379889,-0.136139,0.0242622,-0.0470819,0.0174629,-0.124741,0.0898847,-0.0803815,-0.0819879,-0.138289,-0.0513859,-0.134297,-0.0529523,0.0277463,-0.116879,0.102263,-0.0636768,0.138382,0.0328244,-0.109538,-0.10509,0.0969401,-0.0711174,-0.00280548,-0.128582,0.10428,-0.0453412,0.082302,0.0791363,0.0635637,-0.0765336,-0.0237662,0.0657999,0.10112,0.00929415,0.00809758,-0.0034249,-0.0370556,-0.139482,0.105273,-0.0532241,-0.0128215,0.109986,0.0375579,-0.028394,0.00536047,-0.030006,-0.105131,0.111722,-0.035464,0.0831454,0.080433,0.0224343,0.104586,-0.0637713,-0.082647,0.138753,0.0145391,-0.10566,0.0701559,-0.0676838,-0.00216676,0.021981,0.0908204,-0.11078,0.107139,-0.0207579,0.105634,0.111312,-0.129223,0.121176,-0.00808375,-0.0143443,0.00963512,0.0269718,-0.117387,0.0955294,0.0845028,-0.042935,0.059861,0.0193579,-0.0111772,-0.0927075,0.105688,-0.0607499,0.00637352,-0.0101031,0.0112292,0.0494391,0.0512154,-0.00760189,0.00776683,0.111611,-0.0488787,-0.0497143,-0.121754,0.00583369,0.101865,0.0427676,-0.137679,0.0649594,0.0555236,-0.0486549,-0.140093,-0.137329,-0.0941618,0.0497884,-0.0654965,-0.101873,-0.0962484,0.0139129,-0.0731834,0.00897274,-0.0639718,0.109862,0.136916,0.0400944,0.0364031,-0.0648053,-0.0640257,0.110291,-0.110061,0.0336212,-0.0557057,0.0995256,-0.0635582,-0.0860478,0.0339306,-0.0269311,-0.0481975,0.0023015,-0.086487,-0.0973203,0.000298381,0.0848319,-0.112879,-0.00112779,-0.0792784,0.0581476,0.101563,0.0255813,0.0135018,0.027043,-0.0533818,0.0590347,0.0165088,-0.0617664,0.0538327,-0.0861054,0.139901,0.0863508,0.0145924,0.0543677,0.029333,0.0579613,0.0547752,0.130711,0.0180851,0.0766201,0.111515,-0.0379837,-0.0753019,0.0494937,-0.0826469,0.034945,0.0225965,0.0378147,0.00978123,0.1152,-0.121743,-0.12106,0.136596,0.133627,-0.0204191,-0.0811564
0.135455,-0.0882628,-0.0068378,0.116178,0.0502318,0.10062,-0.111072,0.105187,0.112822,0.0563411,0.129033,-0.137964,0.0820098,-0.126055,-0.0332036,-0.0281661,-0.0504872,-0.0934983,0.015135,-0.140063,-0.0848902,0.125577,-0.0944548,0.0207803,0.00063237,-0.0367396,-0.113942,0.102932,-0.0465907,-0.0807325,0.0617415,0.0729202,0.135458,0.0337299,0.103321,-0.0835525,0.00982086,-0.0692964,-0.0358748,-0.0155631,0.0215188,-0.124941,0.0669398,-0.0267629,0.0582584,0.0825559,-0.107237,0.119458,-0.0263378,-0.0896932,0.0256909,0.130316,0.115965,0.0350698,-0.0566108,0.0339551,0.113127,0.130047,0.0826226,0.0365627,0.0145745,0.0752219,0.0818778,-0.12443,-0.135952,-0.137827,-0.00820032,-0.0515519,0.128056,-0.0544839,-0.0857272,0.0530867,0.0905659,0.123216,0.0942765,0.0580897,0.0499022,-0.0500202,0.0438494,-0.132791,-0.0648675,-0.0879929,0.134336,-0.140216,0.0148447,0.0477643,0.122768,-0.035299,0.0778064,0.0401799,0.00401946,0.0494402,-0.124535,0.0770419,-0.0769089,-0.0954065,-0.0257697,0.0623691,-0.046197,0.141042,0.0253175,0.10203,0.072784,0.0220421,-0.00640767,0.0714167,0.07525,0.0596923,0.0932759,-0.029175,-0.140526,0.0653354,-0.00935664,0.000496714,0.0563945,0.0247781,-0.125561,0.075878,0.0183995,0.0861298,-0.0745803,0.121452,-0.0534147,-0.0808182,-0.0174105,0.139899,0.0298781,0.102481,0.0279052,0.0233408,-0.0417559,-0.0701165,-0.0237825,-0.0115472,-0.0243303,-0.129522,0.135143,0.120519,-0.0893704,-0.131511,0.0271723,-0.112548,0.0810323,0.138599,-0.0829676,-0.0433033,0.109527,-0.0926701,0.112411,0.0319323,-0.0600232,-0.0373211,0.117444,0.0494927,-0.0494543,-0.0966607,-0.00318646,0.0321798,0.0693994,-0.0409541,0.0927159,-0.0729321,-0.0486275,-0.0104273,0.0635832,-0.0640534,-0.122276,-0.0310943,0.00817919,0.0333437,-0.0668647,-0.121214,-0.0798934,-0.0557894,-0.0130548,0.0249645,-0.109294,0.0880258,-0.0592395,-0.11989,0.0484156,-0.0873505,0.120692,-0.0114656,0.0789979,-0.0499886,-0.118942,0.0544369,0.126149,-0.0447516,-0.0329739,-0.088087,0.111505,-0.13818,-0.0335096,0.03424,0.0683341,-0.0501897,-0.056081,-0.0542082,0.0574182,0.0391238,0.0952583,-0.0315705,0.0639191,0.0662552,-0.05675,-0.12227,-0.074624,-0.0942639,-0.0661474,-0.108688,0.0336248,-0.0126287,-0.0716995,0.0515781,-0.0617936,0.0770842,-0.0806596,-0.112103,-0.0671477,0.0355162,0.0910983,0.0945511,-0.00298047,-0.0149261,0.125087,0.0610862,-0.117872,0.129908,0.0690681,0.121383,-0.0997884,-0.0721886,-0.0578489,0.0236122,0.0845355,0.117335,-0.0799638,-0.117373,0.113101,0.0277083,0.0739932,-0.00241248,-0.0106827,-0.138026,0.00573585,0.0768551,0.0565964,-0.12904,0.0279461,0.0541821,-0.061155,-0.0807479,-0.0177239,-0.00827959,0.0877904,0.0601501,0.0853974,-0.0617144,0.106965,-0.0501584,-0.0873848,-0.0104644,0.0498504,0.0834408,0.00272302,-0.027345,0.039054,-0.00316963,-0.0311561,-0.00558892,-0.0119282,-0.121538,0.124997,-0.114133,0.072506,0.0842726,0.0325005,-0.0885344,-0.00867465,0.0945693,0.096388,-0.0195849,-0.0857376,-0.0303999,-0.100526,0.0312934,-0.0123659,-0.0984464,-0.111607,0.0694977,-0.0541075,-0.103051,-0.108282,0.12234,-0.0198698,0.0128163,-0.104542,0.135088
