300,800
-0.0216309,0.0299567,0.0285501,-0.022724,0.000877026,0.00421887,0.0129822,0.0142291,-0.0154804,0.0103224,0.0212039,-0.0346606,-0.00139923,0.0223247,0.0208533,-0.00832761,0.00777521,0.0207776,0.024289,-0.0174862,0.00894939,0.0070446,0.00105279,0.00186124,-0.0312393,-0.00118576,-0.00928278,0.0309038,-0.0314793,-0.0144623,-0.013518,-0.0224783,-0.0100932,-0.000196263,-0.00341962,0.00529287,-0.0254036,-0.0234563,0.0310519,0.0332527,-0.00922684,-0.0285867,0.0149774,0.0288278,-0.0134931,-0.00522394,-0.00423809,-0.0164854,0.0205308,0.0168736,0.0137752,-0.00675062,-0.000373543,-0.0301443,0.033963,0.0186713,-0.00966711,0.00402123,-0.0148641,0.033239,0.0225526,0.00578145,-0.0146283,-0.0076521,0.00257038,-0.0347795,-0.0040409,0.00232478,-0.0151111,-0.0185537,0.0223484,0.0194782,-0.0163324,0.00194768,-0.0206389,-0.00775851,0.0209057,0.018186,-0.0151265,-0.0162579,0.011712,-0.00773835,-0.0268015,-0.0283197,0.0270735,0.0300449,0.00245084,-0.0040644,-0.0326074,-0.00735469,0.0168138,-0.0088469,0.0147225,0.0293553,-0.0258239,-0.0261037,-0.0346212,0.00812594,-0.0152294,0.00545212,0.00161415,0.0248554,0.0195723,-0.0206911,0.0269525,-0.0188387,-0.0342464,0.0147472,-0.00556617,0.00805944,0.00716196,0.0266125,-0.0199325,-0.0162823,-0.0257974,-0.00834035,0.0169337,0.0120897,0.00896966,0.0314508,0.0269112,-0.00814806,-0.0179444,-0.0177748,-0.0160025,-0.0149728,-0.0121507,-0.0208177,0.0055852,0.0220966,-0.030618,0.00577947,0.00189179,0.0167388,0.0117486,0.0181073,-0.00365194,-0.0235382,0.0314116,0.0210181,-0.0308879,-0.00834502,0.014636,-0.0228566,-0.00264731,-0.00688596,-0.0264791,0.0263471,0.0237259,-0.0177819,0.014314,0.0214361,0.0104635,0.0192885,-0.00614462,-0.000412253,0.0189675,-0.0110831,-0.0249939,-0.0272055,-0.00624124,-0.0183117,0.00682971,-0.030772,-0.0308248,-0.00842313,-0.00086937,-0.0332571,0.0102147,0.0109756,-0.0170363,0.0248297,-0.00555414,-0.00470472,0.0142308,0.024886,0.0346107,0.00367288,0.0205145,0.0318903,0.0149007,-0.0281063,0.00947364,0.00536961,-0.00153379,0.000447043,-0.0124914,-0.00552697,-0.0165469,0.0114239,-0.0308071,0.0113716,0.0307891,-0.0196053,0.0345087,0.0177142,0.00186124,0.0226653,-0.00421898,0.00510972,0.0116141,0.00967271,0.0142523,-0.0197355,0.00854745,0.00458711,-0.00563767,0.0361371,-0.0149234,0.00496425,-0.00624456,-0.0325624,0.0189163,-0.0123233,0.034134,-0.0300832,0.0209388,-0.0303339,0.0154268,0.0302324,-0.0251465,0.0163227,0.0222607,-0.00733556,-0.0319591,-0.0196104,0.0300653,0.00521002,0.0353337,0.0113743,-0.0185296,-0.0305746,0.00996097,0.0312956,0.0259892,-0.0220986,0.0206717,-0.0116434,0.0289437,0.0316023,-0.00855599,-0.000367464,-0.0313821,-0.0134183,-0.00846878,-0.0135749,0.0279426,-0.0087077,0.0264586,-0.00124345,-0.0240317,0.010811,0.0301928,-0.00379227,-0.00683069,0.0239814,-0.0227126,-0.013467,0.0160626,-0.0107842,-0.00923729,0.0344236,-0.0168316,0.00223766,0.0297902,-0.0335296,-0.0107776,0.0023444,0.00620782,0.0084933,-0.0223091,-0.00922998,-0.0112319,0.0201011,0.00152049,-0.00507276,0.0224318,-0.0243597,0.0262791,-0.0142905,-0.0248226,-0.00299203,-0.0272802,0.0118445,-0.0172464,0.0351693,-0.00295205,-0.0313648,-0.0192837,-0.0157614,0.000632734,-0.0313046,0.0182705,-0.0242678,0.00461538,-0.031446,0.0162864,0.00731248,0.0239349,0.0319352,-0.0038085,-0.0105374,-0.0158944,-0.0344376,-0.011317,-0.022635,-0.0304452,-0.0170803,0.00700654,-0.0285503,-0.0144652,0.0252264,0.00886135,0.00711816,-0.0115705,-0.0175086,-0.0125383,-0.0199341,-0.00676071,-0.00357426,0.0360921,0.0188123,0.0273976,-0.02057,0.0062136,-0.0244083,0.0303907,-0.0173069,0.0135081,-0.014223,0.0169493,-0.00316858,0.00631417,-0.0072661,0.0183,-0.00219983,0.0348335,-0.0102032,-0.0331189,-0.00144589,0.0172084,-0.00941472,-0.0155506,-0.0129622,0.0246159,-0.0278937,-0.0194247,-0.0155908,-0.0320683,-0.017599,-0.0324711,-0.0263466,0.0232606,0.0352758,0.00821788,-0.00793042,-0.0121428,-0.00396501,0.0250274,0.00499344,0.0145018,0.0341327,0.0327803,0.0357329,-0.015582,-0.0178293,0.00608472,0.0285862,-0.0327247,-0.0151864,-0.000123009,-0.000859022,-0.0319303,0.00161547,-0.000514611,0.0319743,0.0318445,0.0329754,0.00684132,-0.00148826,0.00503568,0.0336312,0.00574418,-0.00156618,0.0326932,0.0192233,0.0188102,0.030718,-0.0224786,0.00919624,0.013838,-0.00757305,0.0114504,-0.00319651,0.0112444,0.0123345,0.00325179,-0.0176667,0.0272884,0.00440684,-0.0287545,0.0199501,0.00539331,-0.0174563,0.0214875,0.00575853,-0.0217552,-0.00970216,0.0359698,0.0244431,-0.00763151,-0.0249893,0.0005072,-0.00929622,0.0175746,-0.0224293,0.0263731,-0.0278761,0.021215,-0.00869421,-0.0236741,-0.0286824,-0.00288607,0.0318522,-0.018723,0.0314212,0.032944,-0.0248401,-0.0225447,0.0186575,-0.00389138,-0.0178789,-0.0284533,0.035925,0.0102417,-0.00559759,0.0345912,0.00527333,-0.0090324,0.0122061,0.0308441,0.00798446,-0.00414484,0.0215314,0.00712492,-0.0192628,0.0154152,0.0140506,0.0133551,-0.0269709,-0.0283163,-0.0235635,-0.0293441,-0.00723038,0.0255009,0.0257693,0.0157926,-0.0145902,-0.019066,-0.014118,-0.00826109,0.0175396,0.0290505,-0.0104697,0.000207354,0.0271187,-0.0250388,0.015398,-0.0103209,0.0133862,0.0229787,0.00520807,-0.0180082,-0.0214352,0.0296073,-0.0131309,0.0149289,-0.0078089,0.0356528,-0.00295224,-0.00235412,-0.0321979,0.0271001,-0.0237971,-0.00370386,0.0122575,0.00203052,0.0176556,-0.0212047,-0.0210053,0.0258844,0.0203969,0.0214041,0.0223336,0.0306921,0.0131194,-0.0131251,0.00354357,-0.0196184,-0.0160582,-0.0175043,0.0261282,-0.0272667,0.000109811,-0.0271452,0.0136909,0.0227865,0.000982994,-0.00735641,0.0298425,0.0196948,0.0142111,-0.0219552,0.00996371,0.0168735,-0.0142301,-0.031293,0.0220261,-0.0245869,0.0311722,-0.0259752,0.0232995,0.021564,0.0188866,0.0136361,0.00634315,-0.00627624,0.0294859,-0.0299008,0.0354084,0.0121899,-0.0236131,0.0116533,-0.0109758,-0.0242703,0.00760798,-0.025235,-0.0293747,-0.0248246,0.0199052,-0.00658126,0.00424258,0.00423766,-0.0266033,0.0203985,0.0101576,-0.00472826,-0.00951953,0.0208786,-0.00181281,-0.00509742,-0.00722203,-0.0309716,0.0321289,-0.02097,-0.0250732,0.0358541,-0.025425,-0.0173054,-0.0140426,-0.00300137,0.0237283,0.0100871,0.0197697,-0.00932194,0.0122793,0.0222223,0.0186496,0.020332,-0.0122895,-0.0118443,0.0306778,-0.0227676,-0.0203088,-0.0315624,0.00998436,-0.0118891,-0.0155872,-0.0312473,-0.0219388,0.0110226,0.0226633,0.0155593,-0.0148188,0.00117804,-0.0116611,-0.0328959,0.0123492,-0.0188966,0.0171244,0.0275753,0.0138164,-0.0292532,0.00101934,0.0281439,0.0304214,-0.00265649,0.0244689,-0.0139819,-0.00862067,-0.00982075,0.0290324,0.0104045,0.0112207,-0.00429921,0.0319289,-0.0322063,0.0298207,0.0340667,-0.0257358,0.0245148,0.0327576,0.0236544,-0.0210822,0.0207554,-0.0187001,-0.00123126,0.0210249,0.0215278,0.0264328,-0.0209267,0.0054666,0.0201794,0.0285174,-0.0326281,-0.0151377,0.0018326,0.0316937,0.0132014,-0.0299838,-0.0150842,-0.0120321,0.0278013,-0.00793598,-0.00117689,-0.00903029,-0.0250042,-0.00224773,0.00655669,0.00412585,-0.0145062,-0.0302294,0.0226704,-0.0181122,0.00220865,0.0295673,0.00943988,-0.0161998,-0.028685,-0.0216765,0.00367812,-0.0212289,-0.00495633,0.0177826,0.00446415,0.0303718,0.00638937,-0.0027518,0.00404423,-0.0313923,-0.0288075,-0.0066508,-0.0187338,-0.0310795,0.0327098,-0.00139175,-0.008298,-0.0106576,-0.00205367,0.0157436,-0.0131715,0.0261107,-0.00161214,0.02839,-0.0330394,-0.0139898,0.00610494,0.0111323,-0.004856,0.0351806,-0.0067182,-0.0230681,0.0257907,0.00933881,-0.0222716,-0.0347021,0.00166683,0.031151,-0.0262794,0.00981445,0.0027931,-0.0217643,0.00554136,-0.0121369,0.00791734,-0.0242409,-0.0192301,-0.0185867,0.0282234,0.0326337,-0.0322347,0.0251677,-0.0168848,0.00466849,0.0319237,0.0253789,0.031257,0.034271,-0.0233667,-0.0160855,0.0175424,0.0172021,-0.0267527,-0.0321588,-0.0253444,0.0261514,-0.0222064,0.0360904,0.0221481,0.0198852,0.031516,0.0296996,0.025612,0.00355995,0.013099,-0.00200425,0.0270726,-0.0226638,-0.0107729,-0.00362864,-0.000439306,0.0212446,0.000301607,0.0187223,-0.0224314,-0.00770729,0.0231649,-0.0186793,0.0195095,-0.0105402,0.020497,-0.0101495,-0.0172711,-0.00680838,0.0356772,-0.00352231,-0.0260587,-0.0324822,0.0105193,0.0189585,0.0325143,-0.0104078,0.0332752,-0.0260409,0.00142713,-0.0268874,0.0344797,0.0225157,-0.02779,0.0113308,-0.00540149,0.0103199,0.00680306,0.0321514,-0.0132849,-0.021225,0.0350613,0.0113115,-0.00883464,0.0348811,0.0139619,0.0245178,0.015148,0.0122942,-0.00220351,0.0190182,0.0353511,-0.0200711,0.0259013,0.034789,-0.00589581,0.0230104,0.031678,0.0268986,0.0291003,-0.00272589,-0.00196061,0.0111682,0.0139714,-0.0274486,-0.00901809,-0.00394908,-0.0194596,-0.0151266,-0.0170461,0.0151411,0.019065,-0.0146289,-0.01379,-0.025174
0.0225379,0.0273805,0.0189791,0.0339224,0.010406,0.0109229,-0.0175058,-0.000784713,-0.0257701,0.00930554,0.0012957,-0.00300536,0.0272749,-0.0152208,-0.017342,-0.0185253,-0.0253919,-0.0276683,0.0336903,-0.013599,-0.0122179,-0.0299702,0.0259755,-0.0112374,0.00784351,-0.0336563,-0.0348711,0.0258943,-0.0218243,0.0140965,-0.0349476,0.00472256,0.0278918,0.0328228,-0.0219682,-0.0134152,-0.000860806,-0.0318735,-0.0266149,0.0150222,0.0253357,-0.0243352,0.0251461,-0.0120011,0.02509,0.0284336,-0.00944023,0.0222365,0.00396432,0.0211537,0.000927508,0.00149915,-0.00340716,0.00676873,-0.00277807,-0.0276569,0.0202813,0.0350406,0.000498507,-0.0265221,0.0283564,-0.0203173,-0.0302017,-0.0254932,-0.00661581,0.00222867,0.00894621,0.0149218,-0.00927036,-0.00960264,0.00917667,0.0128042,0.00467718,0.0221373,0.0175853,0.0223412,0.00299159,-0.00755091,-0.0207494,-0.00850444,0.00282106,0.03269,-0.0214968,0.00837703,-0.00580438,-0.0140731,-0.0313095,-0.029041,0.0274444,-0.0340541,-0.0206816,-0.0332978,0.0346282,0.0342359,0.0253438,0.0204252,-0.0165211,0.00264843,0.00275975,0.0346958,0.0156548,-0.00882547,-0.0315053,0.0158076,0.00518365,-0.016383,0.0279338,-0.0258123,0.00832234,0.0265059,0.0167597,-0.0351953,0.0290422,-0.00402004,-0.00284201,-0.0300768,0.0148759,-0.000285808,-0.0320703,0.0326804,0.00753914,0.0309549,0.00469135,0.000431896,-0.024016,-0.0161643,-0.0314383,-0.0131393,-0.0141752,-0.00554939,0.00306057,-0.0135173,0.00594493,-0.0245007,-0.0215121,-0.0265605,0.0190768,0.0326605,-0.0319671,0.00381068,0.0109882,-0.0314709,-0.0177032,0.0211247,-0.00507508,0.030496,-0.027007,0.00470122,-0.00705293,0.0270805,-0.023183,-0.0146519,0.0301848,0.0177794,0.0138586,0.00779928,0.0205463,0.00500136,0.0218993,0.0101959,-0.0231727,0.0206558,-0.00395994,0.0289006,0.0248614,0.0161875,-0.0125039,0.0177481,0.0224302,-0.0157077,-0.013213,-0.0318789,0.0189393,0.0256191,0.0339727,-0.0300404,-0.00657744,0.00103554,-0.0282108,-0.00448074,-0.0341288,0.0046087,0.00274297,-0.0281159,-0.0348165,0.00511485,-0.0221802,0.032884,0.00153166,0.0267662,0.0349957,0.0147828,-0.00639583,0.0164659,0.017708,-0.0305195,-0.00339604,0.0120433,-0.00853234,0.0118461,0.0169702,0.0203636,0.0287652,-0.027764,0.00276023,-0.0316845,-0.00571718,0.0111568,0.0313769,-0.0101041,-0.0195708,-0.00419693,0.0295181,-0.00921713,0.018564,-0.026514,-0.00995441,0.000657679,0.0286439,-0.00508992,-0.0256446,0.0330098,0.00257293,0.0311712,-0.0237153,0.0282943,-0.0229081,0.0206107,0.0171677,-0.020175,-0.00897348,-0.034172,0.0314171,0.0233415,-0.0300708,-0.0337914,0.0275511,-0.0311328,-0.033577,0.00524743,-0.0188584,-0.0315571,-0.0346567,0.0225179,-0.0038721,0.0080879,-0.0129824,-0.0154548,0.000206656,0.0169293,0.0153635,-0.0192931,0.0273247,0.0348539,-0.000808896,0.0328888,0.0273012,-0.00222149,0.034252,-0.0331435,-0.0276424,0.00917743,-0.00897755,0.0164001,0.0103069,-0.0253574,-0.0356958,-0.0275858,0.00829482,-0.0324616,-3.55852e-05,0.013268,-0.0188062,-0.0174897,-0.0258235,-0.0206454,-0.0116005,0.0309813,0.0213234,-0.0125378,-0.0126698,0.021138,-0.00548892,0.0229324,-0.0331371,0.00319727,0.0210903,0.00886193,-0.0323314,0.00655243,0.00226336,0.0105637,0.0277565,0.0238004,0.0110054,0.0193611,0.0204053,-0.0223449,0.0349059,-0.0344218,-0.0338494,-0.0325912,-0.0301059,-0.0337095,0.016073,0.0283629,0.00583237,0.00926534,0.0142749,-0.0029447,0.0232289,-0.0252425,0.00141952,-0.0259577,0.0287527,0.0273243,-4.03431e-05,0.0350894,-0.0114893,-0.02196,0.0107958,0.00143898,0.0191258,0.0263058,-0.0105598,-0.0206583,0.011958,-0.0237318,-0.0334363,0.0210452,0.0340239,0.0296316,-0.00896569,-0.00520049,-0.0254191,0.00120324,-0.0213295,-0.0252355,-0.0337159,0.0241939,-0.0039135,0.00894182,-0.0320623,0.0302543,0.025493,-0.0104024,0.0247351,0.00523316,0.00107722,0.00256638,-0.00103952,0.00566969,0.00418681,0.0128412,-0.00835837,-0.0269569,0.0123592,-0.0203794,-0.0280894,0.0135088,-0.00629265,-0.00797558,0.0159188,-0.0034159,-0.0331888,-0.034093,-0.0259671,-0.0292935,-0.018258,-0.0189426,0.0128607,0.0218245,0.0284254,-0.0134652,0.00383053,-5.96796e-05,0.0193575,0.0190048,0.0236102,-0.0202004,-0.010469,-0.0211659,0.0315121,-0.00884865,0.0244842,0.0121133,-0.0267564,0.00244184,0.0281941,0.030417,-0.0149988,0.0253258,0.0189829,0.0267674,-0.0340071,-0.0291921,-0.0100342,-0.0110393,-0.0265937,-0.0036351,0.00321265,-0.0123349,0.0251561,-0.0317862,0.0116554,0.00543668,0.00226957,0.00570799,0.0228403,-0.012772,-0.020015,0.0168639,0.0152403,0.0249989,0.0265851,0.00261169,-0.0312361,-0.0200995,0.00390202,-0.0263205,-0.0217625,0.0203736,0.00233065,0.0117555,-0.00739456,0.0070933,-0.00861781,-0.0231066,0.0119253,0.0287938,-0.00351898,0.00825974,-0.000440575,0.0281066,0.00368306,-0.0328895,0.0336347,-0.0232362,-0.0200014,0.0243868,0.0218919,-0.0313082,0.0290681,0.0322446,-0.00300748,-0.0114602,-0.00222742,-0.0349984,0.00132264,-0.00145893,-0.000459173,0.0247734,-0.0340708,-0.0011745,0.0252229,-0.0249199,0.0230394,-0.0073665,-0.0187658,0.00633394,0.00511632,0.0190079,-0.0348614,-0.00961099,0.0338037,0.0294502,-0.0220524,-0.0129589,0.0346318,-0.0159609,0.0292049,-0.0125518,0.0180826,0.0241821,-0.0304397,-0.0318349,-0.0201383,0.00833884,-0.035024,0.0145216,-0.0310401,-0.00233453,0.0180146,-0.0258621,-0.033307,0.0343944,0.0124561,0.0141893,0.0290187,-0.00651637,-0.0236767,-0.0304928,0.0115697,0.0269061,-0.0340728,0.00740372,0.01717,0.0320766,0.0276393,0.00146561,0.0305404,-0.00220031,-0.0318143,0.0336813,-0.0269441,-0.0333254,0.00999696,-0.0074214,0.00877305,0.0196887,-0.0287901,0.0337354,0.000216892,0.0119997,-0.0171885,-0.0343933,-0.0221984,0.00398328,-0.00881074,-0.0217919,-0.0122207,-0.0162054,-0.0159368,-0.0102573,-0.025557,-0.030206,0.0229408,-0.020791,-0.00123122,0.024919,-0.002813,-0.0292724,-0.0097042,0.0108837,-0.000291087,-0.0333236,-0.0239746,0.0011538,-0.0300902,-0.00618147,-0.00369052,-0.0246158,-0.023577,0.0240126,-0.0348618,-0.00570385,0.0313022,0.00280191,0.0213991,-0.0255133,-0.0297288,-0.0024136,-0.0109611,0.00155393,-0.00846281,-0.00866751,-0.00617317,0.0130775,0.0155931,-0.0283932,-0.0195451,-0.0229353,-0.001187,-0.00872863,0.00151732,-0.0109087,-0.0316506,0.029039,0.0264916,0.00333846,0.00202764,-0.00493651,0.0175761,0.00320529,-0.0214382,0.0315479,-0.0268849,0.0310568,0.0301968,0.00857257,0.00701939,0.0292812,-0.0185037,-0.0327926,0.00612061,-0.0287802,4.11192e-05,-0.0157334,0.0195238,-0.0137808,0.0154601,0.030058,0.00723943,-0.0358201,-0.000551183,-0.0320875,0.0155622,0.0131308,0.0216736,-0.00635294,0.0185291,0.0167236,-0.0305626,-0.0280339,0.0264766,0.0315432,-0.00724167,0.0177272,0.0140989,-0.0154746,-0.0217027,-0.0130883,0.0165814,-0.0324906,-0.0325327,-0.00838641,-0.0105736,0.0177707,-0.0305472,0.0175527,-0.0123701,-0.0211104,0.0161485,0.0152482,-0.0129786,0.0177718,0.0123363,-0.0146877,0.018534,0.000157723,0.00438426,-0.0186057,-0.026327,0.0331385,0.0350115,0.0307283,-0.00799118,-0.0153688,0.0206231,-0.0141413,0.0330947,0.00352623,0.0094408,-0.0335202,0.0333359,-0.0227934,-0.0302952,-0.023616,0.0217327,0.000502406,-0.00514126,-0.0329034,0.0242342,0.01874,-0.00454549,-0.00508922,0.00944261,0.0221641,0.00385341,0.0300661,0.0185531,0.0225251,-0.00582297,-0.0152086,-0.0192864,-0.00674341,0.0193855,-0.0142221,0.000890366,0.0216878,-0.00427986,0.018103,-0.0102926,-0.0183427,-0.00274659,0.0238399,0.0137907,-0.0204867,-0.022546,0.031701,0.0300451,-0.0207224,0.0261508,0.0263711,-0.00222439,-0.00534151,0.0339607,-0.00783801,-0.00914756,0.007571,-0.0221397,-0.0357275,-0.0137915,0.0223689,-0.0200189,-0.0349819,-0.00687648,0.00452986,0.0236237,0.0044274,-0.000840154,-0.0268319,0.00855529,-0.0263752,-0.0264486,-0.0203806,0.0186586,0.0274998,0.0259245,-0.00395008,0.0179517,-0.0257163,-0.019881,0.0215102,-0.00836018,-0.0311246,0.0287427,0.00324412,0.0207586,-0.00297477,-0.0115381,-0.00890014,-0.0294252,0.0249563,0.0139908,-0.0309089,-0.0152062,-0.012214,-0.00996211,-0.0339001,-0.0314445,0.00697893,-0.0118742,-0.0155348,0.0228793,-0.0272727,0.00903145,0.0257501,0.0190165,0.0286186,0.0124804,0.0226471,-0.0182404,-0.0264938,-0.0345986,0.0266529,-0.0286158,-0.0252822,-0.0175856,0.0176709,0.0320341,-0.0288437,0.01691,-0.0239345,-0.00845894,-0.015939,-0.0111053,0.00662192,-0.0268362,-0.0196755,-0.0340023,0.0221669,-0.0212255,-0.0342252,0.0238871,-0.0262052,-0.0226299,0.00306321,0.0053837,-0.0272882,-0.025552,-0.00766632,-0.00940763,0.011064,-0.0322503,0.00801738,0.0193168,0.0287288,-0.0298924,-0.0178122,0.0303445,0.006721,0.0261584,0.0216305,-0.0201474,-0.032977,-0.0324255,0.00744681,0.00750067,0.0189547,-0.00864921,-0.00399987,0.00669618,0.0249695,0.0213849,0.00982081,0.0320608,0.00841067,-0.0342614,-0.0229948
0.022766,-0.0113876,0.0350179,0.0145654,-0.0264452,-0.00726496,0.0231647,-0.0125394,0.0301316,-0.0224894,0.0349221,0.00947904,0.0241132,0.0214784,0.0177872,0.0157047,0.0320747,-0.0182395,0.0268134,0.0215764,-0.00742781,-0.0038817,-0.00849773,-0.0328871,0.034261,0.0230597,-0.0126644,-0.0142366,-0.0261235,0.0222444,-0.0274627,0.007387,-0.000922182,0.0274892,0.0351342,0.0161353,-0.00262035,0.0202024,-0.0118117,-0.00608165,0.00333896,-0.0214853,-0.00339553,-0.0315214,-0.0186706,-0.0159393,0.019972,0.0166947,-0.0230449,-0.00100598,-0.00435295,0.0174288,-0.0265087,-0.0065854,-0.0260598,0.00846495,0.0264308,-0.0245792,0.0244372,0.02012,0.0311757,0.0124637,-0.0140585,-0.0233916,0.033397,-0.0169965,-0.0237056,0.00511427,-1.68324e-07,-0.00283846,-0.0278253,0.00954093,-0.0252971,-0.00837985,0.0217023,-0.00950593,0.00729675,0.0340021,-0.0146087,-0.0148929,-0.0168959,0.0261841,-0.0300478,0.0327385,0.0121733,-0.0023969,-0.0178454,-0.00793083,-0.0266633,0.0139025,0.0206231,-0.0336891,-0.00718798,0.023123,-0.00414039,0.00516177,0.00974241,-0.0326982,-0.00505153,0.0251776,-0.00169711,0.0153294,0.00536982,-0.00252886,0.0156112,0.0352513,0.0270315,-0.0313142,0.0208563,0.000952255,-0.00837062,0.0116646,0.0101549,0.00533829,0.0264925,0.0275013,0.0247995,0.0291171,-0.0216618,-0.00847026,-0.00460591,-0.0238594,-0.0289882,-0.0309804,-0.017504,0.0297524,0.0120343,-0.0157162,-0.0298118,0.0117795,-0.025112,0.0216542,-0.00134128,-0.00437748,-0.0237014,0.0191586,-0.0322996,0.018641,0.00639698,0.0152224,0.0144805,0.00721508,0.01509,0.0344673,0.0192443,-0.0157263,0.00299124,0.0287306,-0.0144051,0.0158121,0.0316764,-0.0120689,0.0151867,0.00290999,-0.0145553,-0.00963273,0.00159131,0.0148228,-0.00443894,0.0152286,-0.0209021,-0.0176324,0.0252472,-0.0160179,-0.032045,0.0177845,0.0210734,-0.0185031,-0.0107475,0.0181797,0.0101074,0.00673717,-0.0110412,-0.029366,-0.0212518,0.00881811,-0.0147211,-0.0149062,0.0225325,0.00829826,0.0304599,0.0042689,-0.0296541,0.0302463,-0.0105105,0.0222592,0.00116694,-0.0201772,0.0117387,-0.00100785,-0.0189463,-0.0057454,-0.0183241,0.0228519,-0.0303322,-0.00882029,-0.0113214,0.0282284,0.00422284,-0.0309782,0.0165161,0.0051282,0.0286605,-0.0078361,-0.035122,0.00602642,0.00777522,0.000187994,-0.0143657,0.0170278,-0.0316675,0.0221692,-0.0195045,0.033683,0.0232526,-0.00815522,0.0179764,-0.00258886,-0.0139908,-0.000934022,0.000542302,-0.0349633,-0.0171289,0.00211544,-0.0145847,-0.0241314,0.0249942,-0.0128567,-0.0324211,-0.00259226,0.00304006,0.00171021,0.024392,-0.0235074,-0.029612,0.0128465,0.0149303,0.0330499,-0.00822405,-0.0240184,-0.00735532,0.0172368,-0.027694,-0.0301049,-0.0210289,-0.0293373,0.0322791,0.00902265,2.82429e-05,0.00552079,0.0135505,-0.00272494,-0.0245732,-0.0326819,0.0273506,0.018302,-0.0106324,-0.00614,-0.00388033,0.0294688,-0.00830899,-0.0165281,-0.0193261,0.0219595,0.0211035,0.00315943,0.0323259,-0.0334023,-0.014284,0.00445591,-0.0124834,-0.000902411,0.0225285,0.00343483,-0.00993073,0.0274449,0.0196165,-0.0250813,-0.0320622,-0.0279137,0.0185081,0.0244352,-0.0236235,-0.0251522,0.0329076,-0.0160721,-0.0256583,0.00983767,-0.0343188,-0.0110323,0.0351683,-0.00906886,-0.0103947,0.000164415,-0.030304,0.0331616,-0.0170784,-0.0270085,0.0102103,0.0282732,-0.00626597,-0.00633058,-0.0284313,-0.00445469,0.0181708,-0.0346687,0.0323013,-0.0243154,-0.000854865,-0.0345534,0.0081656,0.0144264,-0.0137879,-0.0183163,0.017589,-0.0244429,-0.0346473,-0.00454953,0.00113538,0.0309962,-0.00357899,0.0158286,0.0117302,0.0298796,0.0290124,-0.0293476,0.0205454,0.010312,-0.0341875,0.0230404,-0.00888495,-0.0254503,0.0253622,0.000739403,0.0139101,-0.0149764,0.00625164,-0.000209919,-0.00446937,0.0271186,0.0279834,0.0272227,0.0315588,0.00237193,0.0108652,0.03346,-0.0316865,0.0292002,0.018836,0.0273854,-7.46795e-05,0.0253048,0.0227655,0.00486699,-0.011426,0.006384,0.0227009,0.0252477,0.0347327,-0.0249007,0.0350951,-0.0103809,-0.0200532,0.0224181,0.0060044,-0.00624312,-0.00845777,0.0319132,-0.0126607,-0.0321772,0.00682384,-0.00252597,-0.0204845,0.00513585,0.00352837,0.00255632,0.0138971,0.0338274,-0.0267855,0.0232581,0.0283502,0.027781,-0.0179579,-0.0214154,0.00827002,-0.0132308,-0.00312364,0.00858029,-0.0309659,0.0106848,-0.00667032,-0.0247541,-0.00672861,-0.0222031,-0.0318927,-0.00640671,-0.00827301,-0.0104478,-0.0170916,0.000130844,-0.00347981,0.00319257,-0.0338054,-0.00662847,-0.030738,0.0165769,0.0182863,0.0142547,-0.0199396,-0.00191795,0.0255935,-0.00751176,-0.0307301,0.0118409,0.0139055,0.0306679,0.0182203,-0.00070198,0.0324634,-0.00946493,-0.00707266,0.00179066,-0.0337568,-0.00037163,0.0101014,-0.00600389,0.0194955,0.0127429,0.00358843,0.0344499,-0.0327192,0.0114817,-0.0313678,0.00112919,0.0192384,-0.0211958,0.0213773,0.0298495,-0.00555657,0.0201899,-0.0227058,-0.0200966,0.0313141,-0.0320897,0.000507377,-0.0240877,-0.000323298,0.00213102,0.0188538,0.0157739,-0.000839859,0.0312536,0.015373,0.0115611,-0.00761138,0.00932259,-0.023412,-0.00668758,0.0315468,0.00925783,-0.0242622,0.0100146,-0.009685,-0.00466264,0.0150473,0.0191711,-0.0165599,0.0113193,0.0273819,-0.0276325,-0.00288805,-0.0102667,-0.0120951,0.0247563,-0.0335095,-0.0280405,-0.00404155,-0.0208022,-0.0246947,-0.0133067,0.0286041,-0.0327362,0.0246609,0.027019,-0.0131154,0.0213146,-0.0245975,0.0019103,0.0169783,-0.0142363,-0.0166729,-0.0211888,0.0165579,0.0203855,0.0284344,-0.011936,-0.0224754,0.0198582,-0.0255384,-0.0226249,0.023243,0.00580113,-0.0220973,0.00841131,0.0177139,-0.0306873,-0.032133,0.00247065,0.00867694,0.00344944,-0.0249881,0.00230849,0.00130181,0.0133171,0.0319784,-0.0294766,0.00690517,-0.0139405,-0.0222766,-0.0330708,-0.00599292,0.0239498,0.0304153,0.0169942,0.0333287,0.0238168,-0.0255985,-0.0318848,0.0151346,-0.00976384,0.0342618,-0.0301839,-0.0202937,-0.0173694,0.00572706,-0.00832445,-0.00833331,-0.000953632,0.0315653,0.0219939,0.0135218,0.0045608,-0.0338864,0.00611289,0.0121667,-0.019714,0.00424858,0.00578813,0.0217771,-0.00659618,0.0110839,-0.000502153,0.0128721,-0.0100393,-0.0214429,-0.0194608,-0.0163241,0.00851403,-0.0241832,-0.0181428,-0.00158372,-0.0117389,-0.00211745,0.0263127,0.0252317,-0.0220697,0.020536,-0.022771,0.0338607,-0.0224922,0.00161834,0.028183,-0.0323965,0.026805,-0.0096997,0.0204486,0.0238204,0.0332026,0.0299495,0.00333165,0.000242871,0.0138285,-0.0101838,-0.00563839,0.00324924,0.011959,-0.00904371,-0.0327382,0.0322959,-0.0139114,-0.0247593,-0.00840998,0.0306968,0.0164611,0.0277566,0.00918226,0.0200192,-0.01235,-0.0240586,-0.0342699,-0.00859539,0.0155204,-0.00101157,0.0321518,0.00427068,0.0217274,-0.0116782,0.0191845,0.0329227,-0.0170796,-0.0216241,-0.00514954,0.0330655,0.0296641,-0.0234453,-0.00398191,0.00557293,0.0348713,0.00319236,-0.00836693,-0.00842929,0.034434,-0.0345367,-0.00187491,-0.00124216,0.00490274,-0.0112803,0.0101036,0.0180755,-0.00544523,-0.00377855,0.021404,-0.0119797,0.00803896,-0.00978561,0.00574683,-0.023166,0.0164093,-0.01477,-0.0228775,-0.0213809,0.0175405,0.0299023,0.0348052,0.00158309,-0.0237244,-0.00662539,-0.0293869,0.0132246,-0.0168243,-0.0150497,0.0251171,-0.0349067,-0.0139623,-0.0262541,0.00593747,-0.00160844,0.0253704,-0.0188994,0.0256005,-0.0228042,0.0191247,0.0330573,0.0299999,-0.000287598,0.015537,-0.0215326,-0.0292857,0.00683257,0.0251095,0.00583085,0.00345986,-0.00143717,0.00135796,-0.0186509,0.0147773,-0.017945,-0.0290582,-0.0110129,-0.0323035,-0.0247945,-0.0235653,-0.0325988,-0.00435821,0.027706,0.0275609,-0.0248487,0.0169456,-0.0140762,0.0341548,-0.0121541,0.0137619,-0.0302818,-0.0327101,0.00992198,0.00189899,-0.0101899,0.0289743,0.00583756,-0.0188804,-0.0048575,0.00268694,0.0121739,0.00935857,-0.00803183,-0.000723376,0.0191529,-0.0137938,0.0321965,0.0179074,-0.0321754,0.0102583,-0.00580297,-0.0265317,-0.00355811,-0.00738588,-0.0020186,-0.0229226,-0.0308552,0.0172826,0.027056,-0.012876,-0.00549196,-0.0266455,-0.000668166,-0.0164189,0.023989,-0.033924,0.001483,0.00679252,-0.0176342,0.0155442,0.0107891,-0.00208781,0.0179229,0.0325357,-0.0303513,0.0082265,0.0212883,0.0126309,0.00807115,-0.0177774,0.0104069,0.0281384,0.0188209,-0.0315771,-0.0347479,0.0121076,-0.0102083,0.0304634,-0.00750334,0.0131738,0.0158423,0.0045819,0.0247205,-0.0235369,-0.0329696,0.00364746,0.0111127,0.00872583,0.0195369,0.0028229,-0.0051824,0.0295523,0.0234947,-0.00233534,0.0214404,0.0150473,0.022211,-0.0251195,0.0351336,0.00841642,-0.0299622,-0.0236337,0.00871366,0.0065478,0.0198336,0.0227635,-0.0211187,0.0234574,-0.00971739,0.0144211,0.0171331,0.0321247,0.0114319,0.0206441,0.00285773,-0.0216849,-0.0107684,-0.0341317,0.0223581,-0.0200075,0.00643261,0.0294817,0.0301504,0.0277448,0.0154092,-0.0307707,-0.0339197,0.0137267
-0.015903,-0.00472531,0.00875119,-0.0148463,0.0353467,0.0373064,-0.0297994,0.0288053,0.0106409,-0.0188191,0.0103857,-0.0311264,0.0303066,0.0115931,-0.00247217,-0.0162395,-0.029984,-0.0163522,-0.0181196,0.0223755,0.0109529,0.0350381,0.0118519,-0.0235595,0.0371086,0.0230141,0.0346774,-0.028819,0.00427777,-0.0144275,0.00545541,0.0247575,0.0154316,0.0377669,0.0118934,-0.0255029,0.0293558,0.0248172,0.0183013,0.0116005,0.00742033,0.0132978,0.0168727,-0.00677082,-0.0250837,-0.0173837,-0.014556,-0.00592654,0.00307162,0.00268742,0.0068141,0.0259838,0.00310727,-0.0177055,0.0340528,0.0172364,0.0197735,-0.00510461,-0.0257923,-0.0171225,0.0118007,-0.0285015,0.00779145,0.0089586,-0.00150159,-0.0144081,0.00491738,-0.0172561,-0.00482369,0.0243694,0.0195356,0.026263,-0.00966576,-0.0326791,-0.0138008,-0.0270369,0.0122119,0.01631,0.00489236,0.00341262,-0.0267971,0.0340909,0.00551755,-0.00492119,-0.0270779,-0.014329,0.0147397,-0.028241,0.025281,-0.0308318,-0.0256531,-0.0299007,0.0132888,0.0146202,0.0145352,-0.027812,0.00875431,-0.0155664,0.00501932,0.0349004,-0.017114,0.0322845,-0.0251526,0.0050504,-0.0226725,0.0228297,0.0179646,-0.00387114,-0.0265744,0.0064421,0.0303787,0.0135481,0.0120871,0.0128157,0.00590387,-0.00997472,-0.0170203,-0.0155649,0.0352661,0.00112143,-0.00407364,-0.00591299,-0.0148243,0.00328832,-0.0251328,0.0313216,-0.0171394,-0.0148194,-0.020386,0.0339686,0.0321307,-0.0188718,0.0340342,-0.0262741,-0.0250336,0.00984276,-0.0248883,0.000879837,-0.00569903,0.0318348,-0.00824033,-0.015828,0.0198634,0.00902041,0.00257584,-0.0226401,0.0103546,0.00293883,0.00739765,0.013331,-0.0319268,0.0327487,0.0348298,0.0245266,0.00997879,-0.00463868,0.0223701,-0.00155425,-0.0133419,-0.0109278,0.0123503,-0.00616505,-0.0227237,-0.0109725,0.0323938,0.032884,0.00987633,-0.0136161,-0.0212756,0.0295571,0.0275243,0.00946774,-0.020882,0.0321963,0.00518903,-0.0229604,0.01147,0.0263273,0.00756265,-0.015241,-0.0263705,0.0219073,0.00601641,0.0053314,0.0379133,0.0202189,0.017635,-0.0277606,-0.0294364,0.0174365,-0.00886965,0.0191581,-0.016364,0.0118613,-0.0305148,-0.0212381,-0.0172792,0.00611461,0.00842803,-0.0130505,-0.000422268,-0.0309562,-0.00454539,0.00485725,0.00526987,-0.00530646,0.0360041,0.00335675,-0.00207379,-0.00929362,-0.00743483,-0.000337693,0.0192401,-0.0279668,0.0264961,0.0256943,0.00753604,0.0350407,-0.0242776,0.0305599,0.0161725,-0.0099823,0.0230163,0.0348067,0.00575936,0.0130318,0.0169864,-0.000874879,0.000958616,0.0365807,0.0256277,0.0238894,0.0145288,0.00144366,0.0370513,-0.00923822,0.0236764,0.0244256,-0.00720302,0.0186433,0.0345548,-0.00548874,0.00906563,0.0250773,0.0188459,0.0327366,0.0095638,0.022268,0.00598067,-0.0149327,-0.00536219,0.0292878,0.0272649,-0.0242245,-0.0308047,-0.0185277,-0.018766,-0.0200783,0.0245015,-0.0183175,-0.0197553,-0.0206019,0.0277723,-0.00469661,0.0195327,-0.0132928,0.00853981,-0.00264488,-0.0182967,0.0352583,0.00598695,0.0206205,0.0102124,-0.00992614,0.00633785,0.0257434,-0.00483905,0.0205412,-0.0273007,0.0182197,-0.0112317,0.01822,-0.0292489,0.0137156,-0.0320135,-0.0122419,-0.0111238,0.0112286,-0.0194301,0.0200072,-0.0153534,-0.0217166,0.0223307,0.0313274,0.0253315,0.0112428,-0.0292953,0.0273454,-0.010162,0.0366929,0.0144716,0.0344507,0.00113427,0.0365899,0.0156953,-0.0286643,0.0305451,0.0157956,0.00263501,0.00126875,-0.0254747,0.0144219,0.0348294,0.0130689,0.031187,-0.00887257,-0.00679203,-0.00565492,-0.000752969,0.020569,0.00433734,-0.0212661,0.0261357,0.0189959,0.0135784,0.00161982,0.0216935,0.0160825,-0.00694653,0.0168574,-0.0141251,-0.0289116,0.0208949,0.0344625,-0.0122049,0.0136758,0.0181034,-0.00546154,-0.0141083,0.00133566,-0.0262606,0.0325477,-0.0161771,0.0195953,0.012122,-0.019371,0.0311474,0.03689,-0.00422269,-0.0113543,0.0370708,0.001728,-0.0191006,-0.0172115,-0.0186618,-0.0292069,0.0337374,0.00807468,-0.0322387,0.00205584,-0.00652725,0.0245818,0.00795372,-0.0201039,0.0129483,0.0063044,0.0198143,0.0379711,-0.0247227,-0.0241541,0.0346741,-0.0302214,-0.0167621,-0.0187758,-0.000143011,0.0312905,0.0192341,-0.00890637,0.00652517,0.0338561,-0.00879884,9.52018e-06,-0.0102108,0.00182406,0.0182193,0.0326309,0.0245495,0.0352197,0.0001586,0.0268981,-0.0148458,-0.0323387,0.0051806,0.0106935,0.030586,0.00931464,0.00488797,-0.0272968,0.0140859,0.00510815,0.0154001,-0.0252382,-0.0160207,-0.0134467,0.0137294,0.0183658,-0.00593661,-0.00215502,-0.0315128,-0.0174307,-0.0171908,-0.0102838,0.0274883,-0.0308305,0.0218021,0.000728776,-0.0159551,-0.0253877,-0.0097253,0.0014889,0.014634,-0.0278294,0.00800946,0.00889597,0.00831994,-0.00546727,-0.0033196,0.0291345,-0.00836066,0.0190218,0.0145872,0.0046626,0.0150251,0.0344544,0.01466,-0.0268363,-0.0237242,0.032081,0.00265741,0.0213444,-0.0268856,0.0308788,0.0330073,-0.00333862,-0.0273778,-0.0312602,-0.00483989,0.0100413,0.0113585,-0.0214904,0.00761114,-0.0239198,-0.00618641,-0.0031154,-0.0147144,-0.0134523,0.0329474,-0.00675228,0.00487628,0.0280593,0.0346839,0.0273719,0.0271982,-0.0179642,-0.0173609,0.000822595,-0.0298224,0.017585,-0.00475815,0.0203595,-0.0221842,-0.0287571,-0.0130766,-0.00384996,-0.0266307,0.00717031,-0.00822841,-0.0273867,-0.0116811,-0.00583861,0.00365951,0.0210622,0.0307959,0.0130948,0.0320686,0.0185964,-0.0259124,-0.0010828,0.0364801,0.0104389,0.0311771,0.0087192,0.030888,-0.0142098,-0.0259491,-0.0027372,0.0116412,0.00961533,0.0349538,-0.0184885,-0.00472093,-0.0104434,-0.0235006,-0.00512079,-0.0155488,0.0365779,0.0118469,-0.0240289,-0.0130441,0.00657337,0.0314177,0.0356685,0.0174014,0.0118519,-0.0229053,0.0279765,0.00244108,0.0332934,-0.0112206,-0.0234337,0.00771857,0.0138454,-0.0247948,-0.00730299,-0.0269858,0.0320073,-0.00372538,0.0233939,0.0315178,-0.0256647,0.0150039,-0.00685476,0.0248757,-0.0283209,0.0274493,-0.0311897,-0.00941023,0.00776456,0.0272403,0.0201542,-0.0303338,0.0276459,0.0248834,-0.0277038,-0.00748408,0.00987908,0.011263,-0.00260911,0.0214398,-0.0170374,0.0269341,0.0310019,0.0288735,-0.0304616,-0.00896083,-0.00742908,0.036902,-0.0256499,-0.0241724,0.014844,-0.0278622,0.0077899,0.0179601,0.00387746,-0.00740716,0.00824674,-0.00328373,0.0135783,-0.00764269,0.0217338,0.0190393,-0.006745,0.0340092,-0.0238923,-0.0223081,0.00402061,0.0224755,0.0144403,0.0311816,0.0211595,0.0273892,0.0209596,-0.00451481,-0.0170879,-0.0286513,-0.0303433,0.003242,0.00534852,-0.025203,0.0262577,0.00396204,-0.00271386,-0.00680506,-0.021701,0.00678678,-0.0233336,-0.0306231,0.0183256,0.00980681,-0.0134319,-0.0198846,-0.0155273,0.0158957,-0.0286239,-0.00768054,0.00847528,0.0157338,0.0103314,-0.00628395,-0.0218724,0.00543262,0.0233391,0.0189454,-0.00688143,0.0147822,-0.0200696,-0.00418015,0.0322739,0.0139772,0.0035464,-0.00462377,0.0216178,-0.0146975,-0.00628264,0.0188238,-0.00652147,0.0329905,-0.00614674,0.0010058,-0.0186647,0.0141137,0.0152406,-0.00144797,-0.00139448,0.0377084,-0.0205791,-0.0266059,0.0161694,-0.0219273,0.00462403,-0.00567034,-0.032678,0.0330303,-0.0163335,0.0052887,0.0112535,0.0115911,0.0310874,-0.00789484,0.0226962,0.00468496,0.0295787,0.0364202,0.010616,0.0180935,-0.0210985,-0.00159755,-0.0244673,-0.0282623,-0.0259774,0.00919168,0.0367693,-0.00884229,0.0311763,0.01102,0.022496,-0.0139955,-0.0309282,0.00456647,0.0230862,0.00696464,0.0196777,0.0365602,0.0362186,0.00889091,0.00051401,-0.00925402,-0.0181003,0.035825,0.00518034,0.00665546,0.00298439,0.035693,-0.000950696,0.0377024,0.0353088,0.0169919,0.00335017,-0.00892352,-0.0112092,0.0241968,0.00190799,0.00762042,0.0312507,-7.70208e-06,-0.0222045,-0.01297,0.0245378,-0.0207823,-0.029556,0.0295977,-0.00884008,0.0310791,0.0038295,0.0158033,0.0230398,-0.00867605,0.0198711,-0.0135797,0.0171037,0.0355986,-0.0288963,-0.00749045,-0.0231948,-0.0117837,-0.0052857,-0.0210768,-0.0123132,-0.0244762,0.0381202,0.0355422,-0.00751014,-0.0284093,-0.0214215,0.0138783,-0.00859072,-0.0294654,-0.0208947,0.0261036,-0.00811298,0.0226749,0.0106097,0.00111864,0.0230572,0.0223353,-0.0293573,0.026758,-0.00363919,-0.0298656,0.0181178,0.00633543,-0.023925,-0.0105752,0.0323539,-0.00473636,-0.0159069,0.0226264,-0.00445368,0.0330145,-0.0115487,0.00346367,0.00446325,0.0362657,0.0108774,0.0310796,-0.0205632,-0.00489022,-0.0063626,-0.0269149,-0.0136562,0.0211387,-0.00655818,0.0303249,-0.0312297,-0.0225198,0.00484546,0.0179557,9.34565e-05,-0.0022072,-0.0177552,0.0115037,-0.0291262,-0.011582,-0.00929283,0.00983117,-0.00907675,0.0168658,0.0043341,-0.000878531,0.0274933,0.0170103,-0.0242478,0.00248093,0.0305774,0.0380191,0.0316702,-0.0121664,0.00256128,0.0100297,-0.0309677,-0.0229685,-0.000570615,-0.0119478,0.00169094,-0.0219627,-0.0234434,0.033546,-0.0275233,0.0304019,-0.00631333
-0.0309381,-0.00489976,-0.0127628,0.00473958,0.00515346,0.0356009,0.0124174,0.0113766,-0.011615,0.0215271,-0.00862989,0.0145748,-0.0097168,-0.00173256,-9.65825e-05,0.0363416,-0.030517,0.0329178,0.0334993,-0.00158829,0.00960918,-0.0190412,0.0196239,0.00384724,0.000382894,0.0075924,0.00922815,0.033673,-0.00024923,-0.0020426,0.00579653,0.0106049,-0.0118353,-0.0203298,0.0129398,-0.0135305,0.0350961,0.0246928,0.035707,0.0262996,0.000906222,0.0119886,0.0365725,-0.00311773,0.023425,0.0160961,0.0256306,-0.0240459,0.00538548,-0.00803601,0.0242597,0.00275108,-0.0293473,0.0330135,-0.000218799,0.00155744,0.0248797,-0.00184712,0.029336,-0.00673588,-0.00588694,0.00491197,0.0285928,0.0310964,-0.0237807,-0.0057469,0.0354446,0.0173005,-0.0234816,-0.000681221,0.0274873,-0.0037768,-0.00737493,-0.0236265,0.0284672,0.0161586,0.0260039,0.0332081,-0.0203809,-0.0335511,0.0194505,-0.0198795,0.02805,-0.0225576,-0.0287291,0.022799,0.00842784,0.000403157,0.0246181,0.0223835,0.023417,0.0168098,0.0360601,0.0253441,-0.0317363,0.00801899,-0.0208602,0.019054,-0.0224404,-0.00783742,-0.0256508,-0.0196695,0.00753711,-0.00223945,0.0336509,-0.0117182,0.0284558,-0.0333829,0.00909904,-0.00235164,0.000549996,-0.00777391,-0.00142716,-0.00227373,-0.0198926,0.0188294,-0.00501732,0.0124412,0.0220336,0.0011001,0.0347263,-0.029363,-0.0141121,0.0296846,0.0150642,0.0124312,-0.032528,-0.0265799,0.0284649,-0.0192355,-0.0237283,-0.000382417,0.01967,-0.0248362,0.0356994,0.0140045,-0.0312641,0.0252185,-0.0292177,0.0330166,-0.0170811,-0.025525,0.0352215,-0.0203978,-0.0261774,0.0163707,0.0144342,0.0217442,0.0104705,0.0139212,-0.00795601,0.0317861,-0.0230061,0.0143633,0.0190678,-0.0303726,0.0128245,-0.00781771,-0.0182028,-0.0145572,0.0312198,-0.0178782,0.00120023,-0.0323394,-0.0138701,0.0163609,0.0154814,0.0266429,0.0263836,0.00996676,-0.0144675,0.0280794,0.0126495,0.000628846,-0.00187689,0.0354452,0.0187891,-0.0301296,-0.0254835,0.02609,0.0223818,0.0279975,-0.0143366,0.017373,-0.0277834,-0.0209414,-0.0330857,-0.0221087,-0.00380502,0.0262821,0.0211921,-0.00665444,0.0012023,0.00708911,0.0167232,0.0331731,0.00367797,-0.0236457,-0.0085667,-0.0206251,0.00451594,-0.0127429,-0.00140835,0.0210888,-0.0307361,0.0137552,0.0218242,-0.0223571,0.0206572,0.0205471,0.00728999,0.00709119,-0.0169041,0.0173465,-0.0174964,0.0323374,-0.00179267,-0.0321363,-0.0185929,0.0342534,-0.0100783,-0.0230878,0.0238472,-0.00172033,-0.00432517,0.0277541,0.00921846,0.0342871,0.0309228,0.00956354,0.0243902,-0.0167632,-0.025399,0.00881163,-0.00712005,-0.0130661,0.0322079,0.0367329,-0.0313673,-0.0210671,-0.0193703,0.00195588,-0.0119594,0.0325821,-0.00536645,-0.00226575,0.000450502,-0.0266449,0.00678597,0.00299079,0.00982904,-0.00691026,0.0277162,0.0033898,-0.0307847,0.00395933,0.0334838,0.0252128,0.0219152,-0.00391796,0.0103447,0.0019577,0.0266308,0.0108169,-0.00431487,0.00172203,0.00731452,-0.0171757,0.010222,0.0140932,0.0235216,-0.0121029,-0.0282444,-0.0105291,0.0347606,0.0152042,0.00393426,0.0281721,-0.0334243,6.90443e-05,-0.020819,-0.00100294,-0.0252908,0.00402213,0.0204566,0.0131003,0.0351353,0.0325644,-0.00844733,0.0141371,0.00233809,-0.0167099,0.00411571,0.0303311,-0.0117476,-0.0266976,-0.031274,0.0181394,0.0176102,-0.0033661,-0.0100953,0.0121655,0.0145328,0.00333153,-0.018133,-0.00184292,0.021639,0.0224483,0.00188634,-0.0284063,0.0201115,-0.000686067,0.0157932,-0.0101778,0.0119488,0.00685206,-0.00780443,0.0288253,0.0139681,0.0175283,-0.0210517,0.0261605,0.0218255,-0.0322759,-0.00732225,-0.0292272,-0.0323189,-0.0167209,-0.0301824,0.0120131,-0.0167005,0.00627574,0.00096646,0.0167349,0.0345481,-0.00433793,0.0277225,0.00771288,-0.00594114,-0.020752,0.0095965,-0.00446694,0.00733462,0.00634015,0.0325382,0.00631702,0.0158837,0.0112927,-0.0120875,0.00862956,0.0241647,0.0278504,-0.0293543,0.0366831,-0.0222547,0.0278412,-0.00803624,0.011375,-0.0184715,0.0357861,-0.0275939,0.0236845,0.00689485,0.0354733,-0.027666,-0.0264112,0.0206496,-0.000304195,-0.0114238,0.0237713,0.0305812,0.0100277,-0.00655659,0.0174082,-0.0161762,0.0297063,0.0287783,0.00152181,0.0345972,-0.0185631,0.0041,0.0185246,0.00966068,-0.0312205,0.0102196,0.0199781,0.00718951,0.00914962,-0.00938821,-0.0329465,-0.00455285,-0.00441578,-0.0320607,0.0124693,-0.0141661,-0.00919617,-0.0139636,0.0125167,-0.0188933,0.026449,-0.0174111,0.030246,0.00457526,-0.0295229,-0.0284433,0.00495722,0.0282087,0.0251345,-5.33793e-05,-0.0195327,0.00790958,-0.0202577,-0.0214104,0.0217311,0.0239784,-0.0269548,-0.00399408,0.0302239,-0.000514575,-0.0306808,-0.0207824,0.00911335,0.0142466,0.011387,0.0241611,-0.00395848,-0.0184821,0.0202962,-0.0148051,-0.0129252,0.0193169,-0.00586973,-0.0328538,0.0262148,0.0137258,0.00332156,0.0209659,-0.0240913,0.024266,0.0195855,-0.0057582,-0.00766682,0.0151337,0.0305942,0.00937077,0.0169411,0.0243846,-0.00123865,-0.0166823,-0.00681007,-0.000960133,-0.0319104,0.00469271,0.0350634,-0.00756778,-0.00662893,0.0196024,-0.0281493,-0.00809245,0.0308004,-0.0331577,0.0114043,0.029308,-0.00876999,0.0247173,0.0312554,-0.0174799,0.00569109,0.0177908,0.0218906,0.0267741,0.0299901,-0.0136739,-0.0143173,-0.0161983,-0.0300538,0.00529071,-0.0245999,0.0194543,0.0332316,-0.00205594,0.0186507,-0.0254027,-0.010322,-0.0207705,-0.0199145,-0.00392988,-0.00874495,-0.0247542,-0.0289228,0.0166978,0.0180937,-0.0242122,-0.0173817,-0.0107856,-0.0125993,0.0227215,-0.0294728,-0.028155,0.0204892,-0.0216208,-0.0238167,-0.00241991,-0.0158843,0.0297653,0.0345443,-0.0216769,0.0261536,0.0358812,0.0202926,0.0352453,0.0149075,-0.0163263,0.0321364,-0.0218047,0.00759171,-0.0261719,0.00130817,-0.0156327,0.0219768,0.0256195,0.0232368,-0.0258431,0.0064741,0.000820375,-0.00923396,0.0246648,0.0127239,-0.00632926,-0.0308845,-0.0127747,-0.0129365,-0.0154336,-0.026655,-0.0301401,0.0062133,-0.0160706,-0.0227924,0.0233719,-0.0334511,-0.0196444,0.0257077,0.0212257,0.00661488,-0.0127345,-5.79549e-06,-0.0329053,-0.00211583,-0.0265485,-0.0119066,0.0284643,0.0296344,-0.0341117,-0.0166701,0.00710208,0.0290459,-0.00817587,0.0188791,0.0117604,0.0231831,0.0277856,-0.0291471,0.0343409,-0.0339147,-0.0328874,-0.0185815,-0.0258994,-0.00478642,-0.00995812,0.0200029,-0.0147052,0.0168272,0.0251518,-0.00874328,-0.0204318,-0.0131181,-0.0261265,-0.00456686,0.0261778,-0.0022597,0.0280253,-0.0132956,-0.00770217,0.00670163,0.00924353,0.0260745,-0.000237197,0.0104968,0.0100503,0.0291903,0.0236263,0.0285851,0.0319827,0.0199667,0.0347259,0.00632129,-0.0120392,0.020323,0.00768439,0.0172028,-0.0335026,0.0337178,-0.00817874,0.0251518,-0.0240638,0.0133128,-0.00353743,-0.0310582,-0.0332461,0.0284774,-0.0310482,-0.0174124,0.0343013,0.016025,0.0250929,-0.0224741,0.0235426,-0.0134596,-0.0121266,0.00735986,-0.0155101,0.0149862,-0.0327708,0.00122814,-0.0225592,-0.0313032,0.0090118,-0.00367024,0.0206631,0.018875,0.0099429,-0.030649,0.0177141,0.00889665,-0.0269893,-0.0333718,-0.030418,0.000106113,-0.00992705,-0.010248,-0.0116563,-0.0314611,-0.00234954,0.00147842,-0.0233006,-0.0290439,-0.0174797,-0.0111919,0.0267713,0.0221475,-0.0149551,0.0251062,0.0226559,0.0359713,-0.010479,0.00544989,-0.0159701,0.0310564,-0.0267665,0.0271403,-0.0296685,-0.031022,0.0168046,0.00472569,-0.00362735,0.0359967,-0.00421419,-0.0199984,-0.0245755,0.0195317,-0.00221637,0.0255051,0.0116424,0.0349337,-0.0155964,0.00178785,-0.032408,-0.0139294,0.0242344,0.0260857,0.0131003,0.00420242,0.0122363,0.00986643,0.0286945,-0.0301656,0.0118517,0.0314109,0.0352635,-0.0320991,0.0238642,-0.00112533,-0.00987787,0.0248975,-0.0155379,-0.00234917,0.00749904,-0.0114463,0.0244351,0.0258483,0.00163802,0.00813358,-0.0304442,-0.0299244,-0.00724398,0.00859955,0.00728613,-0.0218929,0.0278123,-0.0263321,0.00248523,0.0241133,-0.00956384,0.0269898,0.0112042,-0.0180108,-0.0275088,0.0176902,-0.00221116,0.00870507,0.0265741,0.02856,-0.0156564,0.0106069,0.0190129,0.00333661,-0.0329865,0.00759077,-0.00430092,-0.0222371,0.00323818,-0.0144583,0.0222681,-0.0280026,0.0203291,0.00269532,-3.28201e-05,0.0344751,-0.0144781,-0.0173285,0.00762262,-0.0167384,0.0164567,-0.0177107,-0.0251296,0.0105663,-0.019922,-0.0164255,-0.00973645,0.0100188,0.027687,-0.0114618,-0.0171145,-0.0307498,0.0131411,-0.000641871,0.00288281,0.0090151,-0.0270928,-0.0122121,-0.0184988,-0.0233037,-0.00373151,-0.0327928,0.00197182,0.0246043,0.0211513,0.0203784,0.000738462,-0.00626162,0.00814103,0.0252125,-0.0273531,0.0295548,0.0353468,-0.0223412,-0.0270633,0.0161555,0.0258505,0.0101411,0.00850473,0.0248151,-0.0158729,-0.00630547,0.0016383,0.0292604,0.000657168,0.0205932,-0.00945276,0.011355,0.0352194,0.00302091,-1.7964e-05,0.0351702,-0.0190306,-0.0288442,-0.000637772,-0.0296777,-0.0103746,-0.0266606
-0.0324595,-0.0285203,-0.000706591,-0.0253513,0.0258339,0.0303923,-0.0305015,0.0140904,-0.00735562,0.0282121,0.0322347,-0.00793064,0.02277,-0.0346329,0.0290813,0.0017681,-0.0109595,0.0240278,-0.0279551,-0.0238326,0.0191324,0.0150928,-0.00760963,-0.0293175,-0.0008334,-0.00496176,-0.00513464,-0.000962946,-0.0281604,-0.00534696,-0.00328307,0.0226031,0.0286967,0.014587,-0.00873129,0.0325808,-0.021251,-0.00805245,-0.022022,-0.0283421,0.0248618,0.0150058,-0.0256967,0.0119179,-0.00755788,-0.00876288,0.00317538,-0.0222432,0.036181,0.0255489,0.015671,0.014787,-0.0316311,0.0228149,0.0267416,-0.0127115,-0.0114265,0.0295774,0.00938744,0.00358681,0.0271725,0.0180985,0.0165093,-0.0263754,0.0127664,-0.017714,0.0186778,0.0121506,0.0140428,0.0313182,0.0215602,0.0190554,0.0335885,-0.0315366,0.0260193,0.0181517,0.0197979,0.0116418,0.000900389,0.0163042,-0.0173385,0.00177074,-0.0223368,-0.0172454,0.0275567,-0.000961353,-0.0280547,0.00127256,0.0320834,-0.0264764,-0.0181993,-0.00396945,-0.0181064,0.0162815,-0.0101276,0.0273049,-0.0216515,0.030637,-0.0337615,0.00794915,-0.0278476,0.0330184,0.00502978,-0.000962381,-0.0152906,-0.0166727,-0.0312786,0.0018218,0.00348798,0.0033397,-0.0314707,0.0117234,-0.00180892,0.0228862,0.0287003,-0.0190388,0.00841221,0.0231357,-0.0188797,-0.0232853,0.00607939,-0.00410753,-0.033901,0.00225616,0.0354986,0.00464386,0.0114651,0.0334728,-0.0221909,0.0164411,0.0270064,-0.0113162,0.00182237,0.0301356,-0.0133677,0.0256008,0.00126436,0.0236505,-0.0217868,-0.0275215,0.0363171,0.0191679,-0.0176642,0.0209539,0.00724213,-0.0328256,0.00025132,0.0150181,0.0221358,0.0354004,-0.00457324,-0.00495591,0.00679979,-0.00319125,-0.00294827,-0.0332254,-0.00515679,-0.0342487,0.016676,-0.01163,0.01673,0.00330484,-0.0293647,0.0153196,0.0154127,-0.0109167,0.0313565,-0.0341003,0.0130491,-0.01455,0.034426,0.014707,0.0114483,0.0112439,0.0212248,-0.0248687,0.0185604,-0.00895079,-0.00142862,0.00159482,0.0169468,0.0277795,-0.000121214,0.0170253,-0.0229883,0.0256499,0.0235601,-0.0114983,0.0015879,0.0141172,-0.00801529,-0.0289779,-0.00821127,0.0212931,-0.00167487,0.0218975,0.0132407,-0.0058247,-0.032164,-0.022282,0.0169588,-0.0197454,-0.00726846,0.0247107,-0.0265067,0.013789,0.0141823,0.0323667,0.0359968,0.0142294,-0.00298053,0.0170762,-0.0341725,-0.0305794,0.035925,0.0244468,0.00419608,-0.0312542,-0.016623,0.0318705,-0.0226003,-0.00228554,-0.00706207,-0.033474,0.0326167,0.0142884,-0.0138778,-0.029291,0.0291283,-0.0317229,-0.0196643,0.031303,0.0247033,0.0145591,-0.0196306,0.00491909,-0.0279034,0.00375422,-0.0146422,0.0116792,-0.0323259,0.0205228,-0.01931,-0.027797,-0.00327907,0.0120597,0.0199337,0.0115905,-0.0339653,0.0309899,-0.0329633,-0.0311196,0.00955536,-0.0296897,-0.0111415,0.0123817,-0.0119598,0.000465198,-0.0304924,0.0179545,-0.0152001,-0.0158358,-0.0171889,-0.0294591,0.0195387,-0.00104081,-0.000167819,0.0196947,-0.00650278,0.00461236,-0.00887981,0.00609924,-0.0132364,-0.00292737,-0.0236705,0.0135972,-0.0301438,0.0337969,-0.0296933,-0.00864526,0.0108111,-0.00541579,-0.0281619,-0.0312986,0.0352713,-0.0173342,-0.0241699,-0.0138389,-0.0177333,0.00390335,0.000578511,0.0331682,0.0270086,0.0246186,0.00350987,0.0274873,-0.0327338,0.015453,-0.0221693,-0.0189687,0.0145206,0.0106797,-0.0172905,0.0337572,-0.029276,0.00949798,0.00594145,3.37964e-05,-0.0143938,0.00891211,0.0194146,0.00603521,0.0267784,-0.0284976,0.0148828,-0.0261599,0.0336993,0.0329559,-0.0296469,0.0240081,-0.00522173,0.00959838,0.0199599,-0.0340798,-0.0306427,0.0276988,-0.0260334,-0.0297881,0.00555074,-0.00633992,0.0148722,0.00972649,0.017622,0.0209605,0.0125166,-0.00688898,0.0354186,-0.00145685,0.0143079,-0.00610103,-0.000195855,-0.0334585,-0.0126914,0.0151684,-0.00675012,0.00332369,0.0332824,-0.0102275,-0.00291172,0.0180363,-0.0252485,-0.00386181,-0.00726117,0.0270134,0.0162297,0.00730784,0.00138285,-0.0160566,-0.000228891,0.0013736,0.0219726,0.0275909,-0.00276392,0.0101259,-0.0239484,0.018058,0.0289902,-0.0101975,-0.0157913,0.00463078,0.0225085,-0.00826995,0.0152302,0.0147409,0.0357367,-0.0343831,0.0291303,0.00358732,-0.0198652,-0.0304558,0.0205266,0.0081028,0.0121283,-0.0155749,-0.0140355,0.00670727,-0.0225665,0.0350148,0.0290115,0.00846531,-0.0287446,0.0359431,0.00228473,0.0344913,0.0239404,-0.0163485,-0.0172728,-0.0236787,-0.0310086,-0.0176877,-0.0160633,0.00404956,0.0285006,0.0323847,-0.0262111,-0.0183137,-0.0203149,-0.0119657,-0.014319,-0.0137101,-0.0262853,-0.00912986,-0.0173487,0.0186132,-0.0204144,0.00475004,0.00053052,-0.00572834,-0.0342143,-0.0250496,-0.0299577,-0.0139126,0.0219547,0.0159844,0.0114936,0.0111654,-0.00534333,-0.000222868,-0.00345277,0.021481,0.0131748,-0.00741645,0.0320589,0.000117798,0.00710019,0.017772,0.0257577,0.00733937,0.023235,0.0360611,0.0288989,0.0181742,0.0123743,-0.0279429,0.00338611,0.0101795,-0.0273996,-0.00226745,0.0341318,-0.0156676,0.0117383,0.00991485,-0.00255323,0.00838249,-0.0221075,0.008494,-0.00183965,0.0214191,-0.0325825,0.0214982,0.0040075,0.00900394,-0.0167608,0.0325517,0.00648735,0.0121311,-0.0344647,0.0233911,0.0193111,0.0295547,-0.0155972,-0.00287636,-0.0130243,0.0264572,0.0151148,-0.00561727,0.0171461,-0.0223823,-0.00211271,-0.0144091,0.00700337,-0.0010421,-0.0288388,0.0151269,-0.00471371,0.00779938,-0.0313599,-0.00115821,0.0191512,-0.0208366,0.00960366,-0.00277588,0.0030208,0.0183208,-0.0186851,0.0198424,-0.00154063,-0.0264992,0.00212095,-0.0216607,-0.0299572,0.0321082,-0.00931609,-0.0172794,0.0159149,0.0216443,0.035023,0.0312186,0.0156411,0.0119869,-0.00265612,0.00128584,-0.00750598,0.017468,-0.0197259,0.0194047,0.0282659,-0.0133211,-0.000894014,0.0284601,0.00649396,0.0322081,-0.0340312,-0.00134606,0.0190381,-0.0236464,-0.0246112,0.0112494,0.0028234,-0.0133301,0.0300595,-0.0038304,0.0289722,0.0352205,-0.0206418,0.0314831,0.00700492,0.00975866,-0.0336272,-0.0103379,0.0144253,-0.003076,-0.00188797,0.00331444,0.0127429,-0.0157997,0.0222081,0.0216059,0.00793604,-0.00212027,0.0254992,0.00635898,0.0143378,0.023652,-0.0225789,0.0197864,-0.0271457,0.0239666,0.0257402,-0.00104732,-0.00630609,-0.0338109,0.00853425,-0.0241099,-0.0128344,-0.0200034,-0.021659,0.020396,-0.00460923,0.00344395,0.0022815,-0.00879624,-0.00784852,0.0136544,0.00763767,-0.0336199,-0.0348954,-0.014914,-0.0169496,0.0330394,0.0263665,0.0299816,0.00255928,0.00563666,-0.00410868,-0.0271363,0.0150622,0.0340692,0.0235067,0.0200991,-0.00591044,-0.00518538,0.0348495,0.0321188,0.031937,0.027917,0.0162943,0.031625,-0.00512041,-0.0195487,-0.0318619,0.0215056,0.01737,-0.00167441,-0.011543,-0.0216179,0.0317614,-0.0109389,-0.00235256,0.00139544,0.0236426,-0.0143051,0.0314917,-0.0182327,0.00543315,-0.0210012,0.0223955,-0.0126522,0.00425741,-0.0315688,0.0204287,-0.0157499,0.0356623,-0.00174616,0.020986,-0.000361845,-0.0323886,-0.00314441,0.0046573,0.00487277,0.0195006,-0.0226255,0.0266139,0.0167209,0.0222243,0.00720896,0.0319253,-0.031443,-0.0137407,-0.0340547,0.0307071,-0.00361079,-0.0017833,0.00303711,-0.00447541,-0.0246568,0.00967919,-0.0115596,-0.0263303,-0.0207934,0.0359849,0.0296487,-0.00699376,0.00111228,-0.0242242,-0.00502256,0.0123716,-0.00912606,0.00416141,-0.0052871,0.00164917,-0.0163399,0.0253723,-0.0316825,0.0195184,0.0215598,0.0084726,-0.0256912,0.0357185,0.0138983,-0.0338206,0.0070415,-0.0112665,-0.00134239,0.027797,-0.0037525,-0.0320455,-0.00220943,-0.0266774,0.021959,0.0125075,0.0150819,-0.0188785,-0.00441895,-0.0166413,0.00912718,-0.0125368,0.0358657,0.0313531,0.0145336,0.0115018,-0.000946459,0.0203251,-0.0194788,-0.0306392,0.00534185,0.0128681,0.00325136,0.00394664,0.00243582,-0.0207631,0.00525096,0.0138812,0.0211805,0.0238095,0.0234685,0.0351951,0.0220851,0.0172077,-0.0271439,0.0248224,-0.0263029,-0.0264368,-0.0164188,-0.0333876,-0.0221103,-0.028241,0.0159718,0.0249589,-0.00534736,0.0275758,-0.0112347,0.0132605,-0.0225618,-0.0236161,-0.00147297,0.0109454,-0.00398773,0.00855264,-0.024001,0.0119784,0.0228834,0.0186014,0.0200961,0.0333833,-0.0156587,0.010366,-0.0321776,-0.0287804,-0.0188358,-0.0329925,0.00743804,-0.0220278,-0.0231563,0.0268711,0.0218481,0.0204637,0.0170422,0.013382,-0.0300487,0.00687345,0.029373,0.00453419,0.0316539,-0.0031434,0.000362965,-0.0230008,0.0137017,-0.0330057,0.00435939,0.0167053,-0.0212517,0.0329541,0.0127733,0.0358417,-0.00289828,-0.0146384,0.0101398,0.0107617,0.00443816,-0.00527382,0.0221149,0.00476814,0.0255051,-0.00972357,0.0356561,0.00299483,0.00648192,-0.0341331,0.0186021,-0.00848877,0.0288326,-0.00148042,-0.0279207,-0.0084117,-0.00714905,0.017797,0.0101541,0.0182598,-0.00721492,-0.00180142,-0.0321521,-0.0134589,0.0191912,0.0108151,0.00752859,-0.026358,-0.00698379,0.0310378,0.006006
0.0284153,0.0194523,0.035496,-0.000160972,0.0132636,-0.0156276,0.0301994,-0.0175604,-0.0139439,-2.00204e-05,-0.00973029,0.0266354,-0.00881449,0.0118849,0.00348367,-0.0176009,0.033706,0.0211381,0.0128236,-0.032858,-0.0291643,0.00361143,0.034369,0.0204468,-0.0321047,0.0252257,0.0153831,0.0071734,0.0321108,-0.00534307,-0.000535352,-0.00503377,-0.0194736,0.0201973,0.000487678,0.00892306,-0.0221215,0.00772315,0.0238008,-0.0303053,-0.0189814,0.000270384,-0.0161684,-0.0336029,-0.0152108,0.00402614,-0.00212958,0.0295908,-0.0298654,-0.0353452,-0.00459911,-0.0329034,-0.00701698,-0.0286778,0.0123559,0.0285076,0.000623821,-0.0174821,0.031585,0.0306989,0.02177,-0.0191071,-0.0312571,0.0173977,-0.00492771,0.0182317,0.0243107,-0.0188227,0.0242599,-0.0214184,-0.0355703,0.0117948,-0.019038,0.0197174,-0.0160487,0.00737688,-0.00818462,-0.0208298,0.0149683,-0.0280469,0.000293605,0.0153511,-0.0340207,0.00277694,-0.0300005,0.00495366,0.03324,0.0321933,0.0089051,0.0248107,0.0257421,-0.0245837,0.031946,0.0213651,0.0309816,-0.00822105,0.00518267,-0.0232814,0.00124616,0.0291796,0.0330493,-0.0187332,0.0107333,0.0200529,0.0169378,0.0138312,0.00872663,-0.00629354,-0.032737,-0.0114402,0.0230042,0.0184069,-0.0107962,-0.0344565,0.00862781,0.0194738,-0.0187423,-0.0146318,0.00864445,0.0226866,0.0292171,-0.029683,0.00249473,-0.0070826,-0.00820934,0.0275535,-0.0242456,-0.0222645,-0.0117261,-0.00708823,0.00855116,0.0152309,-0.033729,-0.0285769,-0.0133761,0.0142233,-0.0262234,-0.0161183,0.0101804,0.00309995,-0.00623497,-0.0153659,-0.000170599,0.0264832,0.00816654,0.0199046,-0.0169212,0.00154737,0.0322718,0.032121,-0.0348294,0.00794228,-0.0228327,0.0294503,-0.00219098,-0.0202667,0.0105894,-0.0259054,-0.0180641,0.0174172,-0.0131126,-0.016795,0.0280821,0.00636404,0.0224426,-0.011144,0.0129075,-0.0215466,-0.0283065,0.0164638,-0.0172448,0.0333534,-0.0156387,0.0160068,-0.0276996,0.0204512,0.00998727,-0.0306954,-0.0203012,0.0223213,-0.0102069,0.00401654,-0.00394123,-0.0354186,-0.0314075,-0.0146843,0.0230229,0.0120465,-0.0178367,0.0228327,0.00364602,-0.0229617,0.0242373,-0.0342862,0.0156231,-0.0293322,0.033546,-0.003216,0.019155,-0.0096732,-0.0213702,-0.0152219,0.0236006,-0.0312029,0.0334593,-0.0192782,0.0352208,0.0191828,-0.0161416,-0.00533825,-0.0308814,0.00172278,0.0269376,0.0209703,0.0304482,-0.0183342,-0.0349806,-0.0110185,0.00318496,0.0202159,-0.0160574,-0.0181031,-0.0261157,-0.0342102,-0.0287826,-0.0187648,0.0335574,-0.0337855,-0.0212561,0.00985997,-0.00259668,0.0164034,0.0144025,-0.0180019,-0.00771106,0.0197366,-0.006465,-0.028592,-0.0184851,0.0132568,0.0222746,0.0341447,-0.0185294,0.0084778,-0.00763148,0.0095548,0.0104891,0.0126894,-0.0130545,-0.00710772,-0.0125614,0.0247298,-0.0339656,0.0155465,-0.00462203,0.0274233,0.00337143,0.0306682,0.0328379,0.000774901,0.0327305,0.0264877,0.00925516,-0.018649,0.010852,-0.00215641,0.00748375,-0.0121617,-0.00637418,0.0216327,0.0246136,-0.0110051,-0.0342548,0.0318287,0.0162823,0.0267101,0.0148147,-0.011543,-0.0306071,-0.000578051,-0.0292045,-0.000393244,-0.012261,-0.00470756,0.00769448,-0.00733585,-0.00856658,-0.024596,-0.0294688,-0.0123437,-0.0113487,0.028025,-0.00985107,0.0049177,-0.0120501,0.0158202,0.0104166,-0.0182224,-0.0245494,0.021963,0.00338985,0.016964,0.0131517,-0.027901,0.023907,-0.0243799,0.00896704,-0.00170079,-0.0347311,-0.0044859,-0.0260414,0.00561044,-0.022496,0.0140831,0.0290046,-0.0174383,-0.00673213,0.0104845,0.023062,0.0315602,0.0312874,-0.0048355,0.000699614,-0.00594577,-0.0107799,0.0201391,-0.00986084,-0.0326572,-0.00653665,0.0190465,-0.0154629,-0.0236909,0.0142232,0.0149944,-0.000537691,0.00345176,-0.00827763,0.0131012,-0.00261459,-0.00302047,0.00243875,0.0169128,0.00382167,-0.0209827,0.0148218,-0.0351971,-0.0105145,-0.0177878,-0.00451864,0.0107262,0.00029734,0.0232236,0.0123856,-0.00372734,0.0239021,0.00983194,-0.0180586,0.00228612,0.00339738,0.0226651,-0.0207778,-0.0148242,-0.0323621,0.0339598,-0.0336267,-0.0125551,0.0099419,-0.00976272,-0.0252266,0.0164339,-0.00183923,-0.0275055,0.0188615,-0.0112732,-0.0252771,0.0219769,0.0137621,0.0263827,-0.00563941,-0.0155999,-0.0269381,-0.010463,-0.0161231,0.0103024,-0.010181,-0.0261258,0.0227416,0.0263209,0.00047896,0.0329476,-0.0210781,-0.000768898,0.00128017,-0.00326743,-0.0177123,0.00205911,-0.0042834,0.0201916,0.0148088,0.0246932,0.0124935,-0.000977542,-0.0254561,-0.00738947,0.0083503,-0.0310451,0.0236422,0.0173635,0.00239893,-0.0236411,0.00385037,-0.00378625,0.00927199,-0.0190123,0.024828,0.00755083,0.0171951,0.0179,0.0260633,-0.0094352,0.0317009,-0.0171157,0.0130709,-0.0275639,0.00168612,-0.0246493,-0.0231556,-0.0173027,-0.0208718,-0.00420284,-0.00546763,0.0246152,0.00297317,-0.00139925,0.0350386,-0.0115966,0.00844151,0.0186568,0.0261785,0.0280327,-0.0130552,0.0186553,0.0335609,-0.0198409,0.0275684,-0.0248502,0.0209592,-0.0120158,0.0185879,0.00801785,-0.0209493,0.0229757,0.00494923,0.00406712,-0.00438349,-0.0290718,-0.0176146,0.0335094,0.013819,0.0238105,-0.0196955,-0.0354376,0.0131591,0.0235689,-0.0253897,-0.0159636,-0.014046,0.0087154,-0.0119779,-0.0221766,-0.0244486,-0.020491,0.0120942,0.0227265,0.0301347,0.00865159,0.003011,0.00790743,-0.015293,0.0291005,-0.0345842,0.00603912,-0.0109425,-0.0299301,-0.00654437,0.0317999,0.0180696,-0.00656865,0.0124958,0.0159575,-0.014338,-0.00657916,0.0146954,-0.0196068,-0.0122961,0.0158044,-0.0198336,-0.00070507,0.0350081,0.0202042,0.0172475,0.0242291,-0.0216377,-0.00902319,-0.0150244,-0.00649551,-0.0351002,-0.0127742,-0.0218559,-0.0106656,-0.00646155,0.0333215,0.0349162,0.0110272,-0.00309789,0.0111144,0.0284645,0.00947276,-0.00193469,-0.0132802,0.00128066,0.0344579,0.0236536,-0.0198237,-0.00120074,0.00164855,-0.0278128,0.00961366,0.00345313,0.0135841,0.0204986,0.0242639,0.00852307,0.00105637,-0.0272418,0.00981419,0.0159234,0.0070484,0.0281767,0.00876478,-0.00615865,-0.0018137,0.00622064,0.0319895,0.0304517,-0.00517677,-0.0233283,-0.0166982,0.0256004,-0.0267134,-0.0320321,-0.0155514,0.032032,0.00395809,0.0240458,0.00432871,0.0106817,-0.0145442,0.0095347,-0.0338771,-0.0163779,0.0279033,-0.0232891,0.0266174,-0.0103003,-0.0130026,0.00957711,-0.0077966,-0.027178,-0.0348504,-0.00449269,0.00126592,0.0319017,0.0154938,0.00585362,0.000787615,0.000720361,0.033355,-0.00105712,0.011129,0.020772,-0.0264248,-0.00214822,0.0244906,0.014268,-0.0195425,0.016116,-0.000420579,0.019285,0.00133601,-0.0181267,-0.0207586,-0.00856792,-0.0286524,-0.0344686,-0.0259802,0.00153129,0.0157512,0.021518,-0.0142524,0.00210929,-0.0198125,-0.0164197,-0.0108497,-0.0321087,-0.0239569,-0.011428,0.0336842,-0.0301984,0.0332357,-0.025349,0.0216261,0.00111022,0.0166301,-0.00382089,0.010168,0.0182701,0.0103571,0.0217288,-0.00683069,0.0282632,0.0229864,-0.00543409,-0.00606198,-0.014966,-0.0316941,-0.0330948,-0.00891868,-0.0357854,-0.00431356,-0.0291825,0.0246014,0.0116905,0.000880547,0.00465196,-0.0315681,0.0180305,0.0138003,0.0184518,0.0336521,0.0023407,-0.0156303,-0.0269325,-0.0072501,-0.0219724,0.0294536,0.0124847,-0.0251678,-0.0152443,0.00938747,-0.00158153,0.000738349,-0.0163514,-0.0110981,0.0116303,-0.0339731,0.0222595,-0.0215507,-0.014599,-0.0182373,-0.00415412,-0.0261392,-0.0182997,-0.00670337,-0.0220133,0.0251164,0.0323156,-0.00144156,-0.0163748,-0.00298883,0.0270498,-0.0218446,-0.0207158,-0.0135531,-0.0232631,-0.00585004,-0.0288395,0.0305876,-0.0210485,0.00275401,0.0091494,0.031255,0.0284993,-0.0284048,0.00891493,0.0321137,-0.0065947,-0.0169185,-0.0113825,0.00188226,0.011494,-0.0254787,0.0135842,-0.00564287,0.0329484,0.00143077,-0.0308049,-0.00626173,0.00552559,-0.0102425,0.0216974,0.0300824,-0.0254545,0.00191826,0.0152391,0.00267347,-0.0205397,-0.0293777,-0.0108923,-0.00190592,0.01592,0.0205836,-0.0347487,-0.0198776,0.0285407,0.0257022,0.00223792,0.00704679,-0.0136389,-0.0292087,-0.032758,0.0343662,0.0150397,-0.0281034,-0.00830056,-0.00692121,0.00688354,0.00744944,0.0203474,0.0235992,0.0281699,0.00415036,-0.00718145,-0.0260491,-0.00139342,-0.00180313,0.0310827,-0.0199783,-0.0262316,-0.026452,0.0206301,0.027882,0.0164823,-0.0260176,-0.0318986,-0.0316823,-0.0132877,0.0263136,-0.0332883,-0.0308733,0.0320005,-0.0193921,-0.023828,0.033408,0.00827137,-0.00629951,-0.0315069,0.0244506,0.0342038,-0.0305984,-0.0057736,0.00503488,-0.00199956,0.000571773,0.00563364,0.00881945,-0.0196406,0.0258801,-0.0233466,0.0075131,-0.019007,-0.0308707,0.0244677,-0.00865712,0.010188,0.0262681,-0.0325119,-0.00505681,0.0211817,0.0100506,-0.0271183,-0.0265229,0.0311961,-0.0160692,-0.0318425,0.00537895,-0.0299014,0.0144041,0.013235,0.0122196,0.0339587,0.00152546,-0.0320363,0.0143166,0.0244941,-0.0319167,-0.0172755,0.0278228,0.0218783,-0.0180162
-0.0240358,-0.00769918,0.00282405,0.0131218,0.0340018,-0.00927103,-0.00542377,-0.0313142,0.00393016,0.0363219,0.0217864,0.0216975,0.0201991,0.00945339,-0.0184759,-0.0174408,-0.0132404,0.0219177,-0.0192208,0.0335141,-0.000104385,-0.0110615,0.0327606,0.00459096,-0.0118475,0.0153766,-0.0213054,0.0197584,-0.019093,0.00569058,-0.0220644,-0.0182472,0.0159446,-0.0043,-0.00364404,0.0323985,0.0127093,-0.0184786,-0.00943227,-0.0259502,0.019755,-0.0134983,0.0200019,-0.030371,-0.0119724,0.0243316,-0.028735,0.00293885,-0.0233648,0.0146266,0.0267435,-0.0171276,0.0292156,-0.020476,-0.0291202,-0.0120304,-0.0160412,0.00446033,0.0303249,-0.0181986,-0.0092968,-0.0346311,0.0341583,0.0044543,0.0039489,0.0080817,0.036134,-0.0111064,-0.0197164,0.00798968,0.0169618,-0.000798929,0.0164833,-0.0224069,0.0317602,0.0176328,-0.0119414,0.0273879,0.0156271,0.00639957,0.00495621,0.0313512,0.0127662,-0.0269383,-0.00833943,0.0243143,-0.000631319,-0.0101165,0.0147924,-0.0226433,0.0281365,0.0289528,-0.0346208,-0.021669,0.0325173,-0.0251669,0.00714152,0.0142737,-0.00744268,0.0191138,0.0120039,-0.00864257,-0.0280634,0.00608159,0.00459919,-0.0249373,0.0277741,0.00719287,-0.0159035,0.0113693,0.0152372,0.0239739,0.0104746,-0.0124815,-0.0224224,0.000162481,0.00542509,0.0219754,-0.00390396,-0.0188005,-0.00193619,0.0253104,-0.0155199,0.0309954,0.00560198,-0.0152491,0.0198525,-0.0194722,0.0309611,0.0191117,0.020489,-0.0304676,0.0272042,0.0239537,-2.89607e-05,0.00658013,0.00673492,-0.00107592,-0.0300239,0.00172747,0.029721,0.000362787,0.0272045,-0.0334826,0.0257096,-0.0225747,0.0242746,0.0306788,-0.00897039,-0.010412,0.0170079,0.000213036,0.0186455,-0.027792,0.0234562,0.0197416,0.0122939,-0.0277119,0.0105297,-0.0257954,-0.0166522,-0.0162678,-0.00610196,-0.0154033,-0.00533632,-0.00133216,-0.0259631,-0.00347937,-0.0116429,0.0297262,-0.0198824,0.00323293,-0.00482705,-0.0079635,-0.00272392,0.0241012,-0.00283754,0.0227575,0.00894228,0.0035581,-0.0243805,0.00376673,-0.00720315,-0.0326084,6.27991e-05,0.00829024,0.029968,-0.00654012,-0.0116937,-0.0031987,-0.0193929,0.0157193,0.0090094,0.00603279,0.00494001,-0.0176121,0.0238072,0.0139169,0.0336694,0.0090252,-0.0207302,0.0295127,-0.00849844,-0.0151931,-0.0104466,-0.0189103,-0.0309581,0.00784537,0.0233705,-0.0231897,0.0251964,-0.0130193,0.0254314,-0.00937116,-0.00202482,-0.000678907,0.0356749,0.0149074,-0.00335547,0.008208,0.0292644,0.0127567,-0.0144001,0.0109589,-0.000143662,0.00022298,0.0114242,0.0231952,0.0229881,0.0260151,0.00464731,0.0146237,-0.0151164,0.00523675,0.0305345,-0.0196742,-0.0114851,-0.0283666,0.0218117,0.0133682,-0.0244689,-0.00388983,0.0159396,-0.0341197,-0.0305872,-0.00603183,-8.74298e-05,0.0102645,0.00706256,-0.0305033,-0.0341067,0.0127844,-0.0168588,0.0195538,0.021266,0.0148619,-0.0141407,0.00331869,-0.00991253,0.0110897,0.015767,-0.00529147,-0.00377861,0.0212861,-0.0118559,0.0109577,-0.0137271,-0.0137518,0.0360663,-0.016329,0.026976,-0.0243943,-0.0205301,-0.011981,-0.00865371,-0.00143111,-0.0224174,-0.0277157,0.0275814,-0.0233515,0.0107217,0.00971241,0.0137774,-0.0201538,-0.0173644,0.00506599,-0.0242233,-0.00720079,0.0193713,0.0144211,0.00206192,0.0221326,0.0138367,0.0129907,-0.027473,-0.032155,0.00467135,0.0165646,-0.0315334,0.026317,-0.0112932,-0.0104308,0.0158657,0.0314854,0.0269956,0.0311096,-0.0139437,0.00952652,-0.0128305,-0.0257492,0.00394392,0.0124472,0.0339086,0.0149808,0.0262414,0.0189111,-0.000816363,0.000883581,-0.0306039,-0.00484138,0.00577179,-0.0188545,0.00325446,0.0294536,0.00473999,-0.0243795,-0.00262405,0.0246321,0.0219011,0.00107958,0.00289683,0.00295853,-0.021999,-0.024154,-0.00591615,0.000787171,-0.00146659,0.0200398,0.0261448,0.00996799,0.0123032,-0.0253951,-0.0271408,-0.0225514,0.0191042,-0.0266827,0.0248531,0.0246038,-0.0137129,-0.0270715,0.00467781,0.0319749,0.0189944,-0.00429304,0.0284471,-0.0258812,-0.00653173,0.00946638,-0.0292029,-0.0119106,0.0285251,-0.0347354,0.0083018,0.0152739,-0.00914106,0.0052834,0.0111696,0.00036219,0.0343932,-0.0212803,0.0159578,0.0157371,-0.0151831,0.0139626,-0.0122258,0.0283523,-0.0280167,0.028174,-0.0109205,0.0078108,-0.0100947,-0.0223433,0.0044808,0.00477958,0.0204219,0.0242146,-0.0131902,-0.0019914,0.0309417,-0.010825,0.0288999,0.0194034,-0.0236021,-0.0105973,0.0334501,-0.0158894,0.0312034,0.00107321,0.0110121,-0.029987,0.0227135,-0.0178279,0.016838,-0.0279571,0.0249129,-0.0330682,-0.017832,-0.0220206,0.0332921,0.0214297,0.0233381,0.00140602,0.0106218,0.0205407,0.0203666,-0.0178255,0.00156667,0.00798528,0.0179856,-0.0093807,-0.00379675,-0.0185332,-0.0331834,0.0111297,0.0137635,0.00848296,0.0274683,-0.0215933,-0.00782277,-0.00370674,0.0205896,0.000328678,0.0130716,0.0313334,0.0185768,-0.0230163,-0.0316405,-0.00212748,0.00814087,0.00582666,-0.0157715,-0.0310132,-0.0154793,0.00140597,0.0251388,-0.0227849,0.0185159,0.00747413,-0.00188848,-0.00961021,-0.0279357,-0.0158585,0.0200951,0.0250628,-0.00733077,-0.0304003,-0.0130798,0.0157231,-0.0338433,-0.0167645,-0.0238657,0.0146645,-0.0297334,-0.00135184,0.0201811,0.0336191,0.035803,0.0247484,-0.0166471,0.0207447,0.034696,0.0250745,0.0145111,-0.00988455,-0.00687661,0.0144964,-0.0230004,0.0303769,-0.0149822,0.0103919,0.0343402,0.00879109,-0.00943324,0.029276,-0.0279007,-0.007498,-0.0257018,0.00746697,0.0173406,0.0242564,-0.0124034,0.00161401,-0.021599,0.0103845,-0.0277098,-0.031202,-0.0186347,-0.0291445,0.0201935,0.00974843,-0.032983,0.01375,0.0284949,0.0346664,-0.0230499,-0.000263157,0.0282231,0.0169182,-0.0191331,-0.0193628,-0.00794886,-0.0233778,-0.0234594,-0.00121626,0.00768345,0.0162455,-0.0341421,0.012034,0.00153038,-0.0272355,0.0268087,-0.00166721,0.0129556,0.00449347,0.0104886,-0.0257356,0.0287633,0.0257494,-0.0314851,0.0301226,0.0222346,-0.0169201,0.0263588,0.00431642,0.00267778,-0.00108748,-0.0163847,0.0193895,-0.0234148,0.016809,-0.0328433,0.0364172,-0.0325784,0.0288151,0.0285735,0.0108494,0.00108318,0.00875727,0.00421449,-0.0282144,-0.00447324,0.0239798,0.0170053,0.00847082,0.0116146,0.0352837,-0.0177451,0.0259402,0.0162285,0.0233744,-0.0167391,-0.0274991,-0.0143847,-0.0243179,0.00950563,-0.0154918,-0.016895,0.0232383,0.00649569,0.0324921,-0.00218701,-0.0152262,0.0194982,-0.02027,-0.00901333,-0.0270899,0.0150503,0.00868072,-0.00796295,0.0114573,0.0238534,0.01125,-0.024822,0.00697394,0.0252506,-0.0094927,0.00699118,0.00633548,0.0211733,-0.00591171,-0.0187621,-0.0293755,-0.0168374,0.0352979,-0.0233002,0.0229166,-0.00234242,0.0189284,-0.0190455,0.0297879,0.018907,0.000458866,0.0116655,-0.00665434,-0.0141459,-0.0286559,0.00527018,-0.00630125,0.0204117,-0.0284284,-0.0156846,0.0278784,0.0155891,0.0319093,0.0113715,0.0104075,-0.0263943,-0.0185392,-0.0300406,0.0301594,-0.0280145,0.0261485,-0.00812694,0.000994665,0.0186194,-0.0119668,0.00876121,0.00137503,-0.0271852,-0.0025662,-0.00907171,0.000374037,-0.0248923,0.0108517,-0.0328157,0.0254413,0.00880903,0.0262222,0.0327377,-0.0223387,-0.016254,-0.0321795,0.0344338,0.00111989,0.00577016,-0.0234255,0.00143272,0.0248505,0.0341141,-0.0230089,-0.0344169,-0.0166735,0.00438384,0.00169978,-0.00844181,0.00387593,0.00787091,0.0269045,-0.00599716,0.0317352,0.0312807,-0.0217977,0.0260664,-0.00948757,0.0294745,0.00882661,0.0191384,-0.0195047,-0.0188757,0.0292147,0.00665082,0.0188288,0.0237317,-0.0283551,-0.0063783,-0.0205943,-0.0203931,0.0355439,-0.0104795,0.013248,-0.026732,0.0294649,0.000980909,0.0205447,0.0171726,0.0232773,0.0150076,-0.00168255,0.00557757,-0.0206444,0.0169211,0.0200344,-0.0029777,0.0140424,-0.00133206,-0.00786199,0.00271816,0.0197155,-0.00361415,-0.0238594,-0.0302306,0.0183501,0.0311052,-0.00652261,-0.0119542,0.0223106,0.0251221,-0.0105352,-0.0185895,0.000659326,-0.0266606,-0.0334953,-0.0127999,-0.0313459,0.00360002,-0.0164633,-0.0294857,-0.0101418,0.024606,0.0360439,0.00208074,-0.0147147,-0.00276035,0.0272917,0.00426102,-0.0010373,-0.0289438,-0.00736037,0.0193021,-0.0307896,0.00712383,0.0324787,-0.00412772,0.0356797,-0.00974739,0.0104092,-0.00168796,-0.00457353,0.0286344,0.02644,0.0167092,0.0137991,0.0300614,-0.0117744,-0.000254424,0.0305519,-0.0225856,0.00554575,-0.0237668,-0.021928,0.00822206,-0.0112304,0.00261047,-0.0167491,0.0347012,0.0360907,0.0304747,0.0332514,-0.0284823,-0.0274905,0.028439,0.0316254,-0.00453277,-0.0056647,-0.016367,-0.0123859,0.0201818,0.0176573,0.00222122,0.0122604,0.035971,0.000791332,-0.0252228,0.0259172,-0.0168921,-0.0278645,0.0133148,0.0233187,0.0311199,-0.0104138,0.0263616,-0.00604728,-0.0179823,-0.00239781,-0.0159225,0.032033,0.0182715,0.00545614,-0.0294163,-0.0303214,0.00564958,0.00861194,0.00253437,-0.0112793,0.0115502,0.0106961,-0.014401,0.0329825,0.0108234,0.0306873
-0.00870483,0.0161545,-0.0082696,0.00788379,0.0104183,-0.0332488,0.0304401,0.000233959,-0.010337,-0.0118451,0.0161699,-0.00752076,-0.0344727,0.0180994,0.0053956,-0.0222764,0.0195802,-0.00234855,0.00377874,-0.0152904,0.0282009,0.0304859,0.0101265,0.0271116,-0.0350893,-0.00415834,-0.00239397,0.015072,-0.0163825,-0.0351335,-0.00955481,0.00388367,-0.0231072,-0.00128181,0.033818,0.00113487,-0.0280038,-0.0227342,-0.0343297,-0.0321645,0.025985,-0.00706901,0.0134868,-0.0166677,-0.026853,0.0255709,-0.00319798,-0.00558417,-0.0295878,-0.0266738,0.00323455,0.00390709,0.0187634,-0.0109092,-0.0175897,-0.0194742,0.00761106,-0.0356447,-0.00880004,0.0342866,-0.0314899,-0.0121018,0.029039,-0.0163726,0.0311859,-0.0108771,0.0309464,0.0116284,0.00186927,-0.00199705,-0.0191809,0.0254879,-0.00572077,-0.00689818,-0.0109622,0.0312719,-0.0179634,-0.0267872,0.0165435,-0.00891707,0.0289016,0.0220638,-0.0109744,-0.00229771,-0.0111065,0.00744075,0.0330025,0.01564,-0.00989662,-0.0133654,0.0151679,-0.0149778,0.00052476,-0.0296404,-0.0332274,-0.0110547,0.00715646,0.0156534,-0.00546642,-0.0019213,-0.0141158,-0.0199981,-0.00916059,-0.014488,0.0271683,-0.0328283,-0.0298973,0.00622686,0.028487,0.0197906,0.0240787,-0.0193457,-0.00847433,0.0106886,-0.0192764,0.0111887,-0.00318297,0.0334114,0.0111058,-0.0268541,0.0273039,-0.00950926,-0.0308264,-0.0103158,0.0201992,0.0177689,-0.0115992,-0.0179533,-0.0295735,0.0051443,-0.00615812,-0.0210417,0.0161029,0.00693315,-0.0130482,0.0196888,-0.0163592,0.012858,0.0304103,-0.0184271,0.00863185,0.00144023,-0.0298894,0.00474033,0.0235074,-0.0112001,-0.00459503,-0.00897004,0.0122612,-0.032326,0.02935,-0.00763507,0.020846,0.00988706,0.0293918,-0.0286595,0.00747887,-0.0279423,0.00513581,0.0208149,0.032533,0.0124759,0.0347588,0.0149768,-0.0356311,-0.0152745,-0.00880588,0.00858787,0.0118542,0.00338832,-0.0248876,0.00288399,0.000623857,0.0289935,-0.00643113,3.22194e-05,0.00394274,-0.0234776,0.0184602,-0.0324223,0.0293531,-0.0293891,-0.0176488,-0.0216714,0.0118855,-0.0100468,0.0132431,0.00759397,-0.0257396,-0.0172644,0.0206156,-0.0149111,-0.0230226,-0.0323562,0.0172966,-0.0143299,-0.00683591,-0.0314392,-0.0101048,0.0326815,-0.0314747,-0.0114161,-0.000173186,0.0141829,0.00490829,0.0267252,0.0173738,-0.00679171,-0.0330988,0.00297282,0.0111889,-0.0160004,-0.0326334,-0.0174896,0.0225469,0.0138273,-0.0121229,-0.00416568,-0.0197633,-0.000580861,-0.00942552,0.0249623,0.0081579,-0.0265489,0.0214153,0.0237132,0.00471288,-0.0182072,0.029944,-0.0304771,0.0165467,0.0143366,0.00850281,0.0101491,-0.00770563,-0.0129674,0.026636,-0.00905131,-0.0185145,-0.0269313,-0.0217832,-0.00789817,-0.00900138,0.0149523,-0.00511068,-0.0167761,0.00695669,0.0122079,-0.0201805,-0.0308368,-0.0281497,0.034748,-0.0231355,-0.0215344,0.0304679,0.0285079,-0.00015008,0.0257679,-0.0295433,0.0338037,0.00143608,0.00166179,-0.0107242,-0.0341767,0.0015426,0.034226,0.0257541,-0.0343688,0.0183874,0.00159645,0.00401825,0.0250946,0.0157956,0.0229323,-0.0145456,-0.0270597,0.0208091,0.0354761,-0.0124113,0.0170471,0.000349401,-0.00335269,-0.0307282,-0.0282137,0.0304928,-0.00487654,-0.0269299,0.0261577,-0.0108297,-0.0197729,-0.00899741,-0.0298425,0.00843767,0.0253147,-0.0274321,-0.0012329,-0.0307422,-0.0277597,0.0297943,0.0226441,-0.0151143,0.0205683,-0.00272403,0.0265001,0.00443361,-0.0192572,0.0292884,0.00666499,0.0200793,0.027618,-0.0300878,0.0037245,0.00378132,-0.0161367,0.0138868,0.020067,0.0197243,0.00387286,0.0111627,-0.0113798,0.0344384,0.010921,0.00629414,0.0138769,0.0337855,-0.0295521,-0.0244337,-0.00851917,0.00470466,-0.0205481,0.0145503,-0.00316467,0.000282753,0.00751919,-0.00173727,0.0112065,0.015566,0.0307008,-0.0208654,-0.00400592,0.0120502,0.0160207,-0.00489521,-0.0239048,-0.0260066,-0.0350205,0.000685117,0.0175732,0.0282641,0.0105742,0.0153307,0.0145858,0.00813932,-0.0208668,-0.0197283,-0.00246452,-0.00229582,-0.0208271,0.01029,-0.0215164,0.00126064,0.019546,0.00461807,0.00663076,-0.0312811,0.012948,-0.0340679,-0.014744,0.0108636,0.0278295,-0.0359063,0.00661892,0.0329503,0.015723,-0.0129015,-0.0339468,-0.032652,0.00843943,0.024578,-0.0338634,0.0125872,0.0314095,0.0115043,-0.0239749,-0.00798225,0.00461332,0.0284606,0.0339643,0.0100173,-0.0249128,0.0213348,0.0203379,0.0336967,-0.00905279,-0.0229312,-0.0207136,-0.00363604,-0.0123164,-0.0164707,0.0127362,-0.00676844,0.00312776,0.0264702,-0.00204962,-0.018814,0.0249753,0.0134041,-0.0320229,0.0194244,-0.0279656,0.0122075,-0.0169285,-0.0246418,-0.00615831,0.0349813,-0.0169209,0.011403,-0.0298607,0.00296471,0.00437732,0.0145747,-0.00943697,-0.0285731,0.014435,0.0188301,0.000432809,0.00415871,0.0287947,-0.0320616,-0.0301556,-0.00834282,0.0109709,-0.00150315,-0.027457,0.000633248,-0.0116917,-0.00656238,0.0170511,0.00161134,0.024687,0.0212438,-0.0179644,-0.0269653,-0.00125187,-0.0168487,-0.0134459,0.0046328,0.0318393,0.00512659,0.0286366,0.00856293,-0.00547103,-0.00125264,-0.00387403,0.00296023,0.0309101,0.00743999,0.000861624,0.0224169,0.0283356,-0.0310114,-0.00898123,0.0270205,-0.0256819,-0.00360238,0.0208838,-0.0207668,0.0116094,-0.0244392,0.0192773,0.0281979,-0.00542929,-0.0144349,0.0271032,0.0136523,-0.00968366,-0.01165,-0.0314395,-0.00111495,0.0138376,-0.0102116,0.0107468,0.0207891,0.0257231,-0.00495494,-0.0231228,-0.00144385,-0.00214776,-0.000959104,-0.0168123,-0.00454623,-0.0277475,-0.00142033,0.00780945,-0.0264058,-0.0324739,-0.00260108,0.0242396,0.00158164,0.020465,0.013508,0.0169489,0.00910306,-0.00113354,0.0316836,-0.017729,0.0232476,0.0117666,-0.0353751,-0.0254474,0.0215881,0.0297063,0.0347641,-0.0126251,0.0255507,-0.0262914,0.00760576,0.00752198,0.0182265,-0.0255616,-0.0231404,-0.00929013,0.0145472,0.0199263,0.0188043,-0.0146728,0.0304082,0.0329979,0.00367542,-0.0257869,0.0331259,-0.0148036,0.00342631,-0.0130764,-0.012724,0.00823532,0.000885223,0.0224987,-0.0277013,-0.0121121,0.0321998,0.0313972,0.0290886,-0.0293369,-0.0336638,0.0228361,0.0296403,-0.0185348,0.0328771,0.010154,0.00252188,-0.0144661,0.000945862,0.0333077,0.0315419,0.00271534,-0.00618871,0.00755394,0.0273792,-0.0322796,-0.0279868,0.030642,-0.0182605,0.0308567,0.0203224,-0.0284765,0.0133644,-0.0277257,0.00805612,-0.000153731,0.0285888,0.0137519,-0.00542293,-0.00798253,0.00194693,-0.0169786,-0.0355448,-0.0100404,-0.0260173,0.00850673,-0.0285623,-0.0171991,0.0346601,0.0195324,0.00720461,0.0218424,-0.00146589,-0.0210534,-0.0174437,0.00227917,-0.0196357,-0.0257704,-0.0167704,-0.0215929,0.0165156,0.0148811,-0.0261259,-0.00902989,-0.0248168,-0.0210313,-0.0166671,0.0181151,0.0185868,0.0319968,-0.003911,0.00261456,0.00911922,0.031065,0.0332321,-0.0291373,0.0285483,0.004012,0.00850431,0.00059375,-0.0194649,0.00309629,0.00515182,-0.0278639,-0.0236851,-0.00222365,0.00631989,0.0064215,-0.0330443,-0.0163291,0.0339494,0.01173,0.0246191,0.0295933,-0.026783,0.0298931,-0.0243083,-0.0170194,0.00567811,0.0113083,-0.0138654,-0.0180529,0.0036245,-0.032163,-0.0143456,-0.0263724,0.0257667,0.0275479,0.00141389,-0.010385,-0.00110941,-0.00767726,0.00358801,-0.0326084,-0.000953011,-0.0340787,-0.0168398,-0.0243075,-0.0315298,0.0329687,0.0236695,0.0328362,-0.0332741,0.0221707,0.0107514,0.0205996,-0.030686,0.0269916,0.0329519,0.0317935,0.0208319,0.0123873,0.0212939,-0.0149233,0.00745892,-0.0321312,0.026911,-0.0299242,-0.0129121,-0.0315315,0.0156703,0.021867,0.0282563,0.00242271,0.0151439,-0.00597929,0.0210632,-0.0181028,-0.00817739,-0.0143812,-0.0270607,-0.0070453,0.0310049,-0.0128252,-0.00602795,-0.0141143,0.0130202,-0.0176721,-0.0192495,-0.00442326,0.00947451,-0.0193371,-0.0359167,0.0252606,-0.00705209,0.024897,-0.0305359,-0.0187892,-0.0102372,0.00113282,-0.0116526,0.0289944,0.0309015,-0.017152,-0.0237007,0.0161894,0.00345536,-0.0231368,-0.00782938,-0.00121254,0.00317107,0.0333563,-0.0213061,-0.0341078,0.0290714,-0.0296267,-0.0282154,0.029477,0.00891316,-0.0129288,0.0110893,0.0327356,0.00716201,-0.0213016,0.0129513,-0.0295928,0.0227715,0.0217163,0.016796,0.023597,-0.0152836,0.024002,0.0131723,0.0170638,0.00230608,0.0166726,-0.0256608,-0.00214843,0.0156217,-0.00752689,-0.0215093,0.0270354,-0.00636281,-0.0159847,0.0132097,0.0264655,-0.0332383,-0.0220791,0.0277026,-0.0243394,0.0228604,-0.0135308,-0.0107332,0.0188566,0.0318387,-0.018687,-0.0154574,0.0109058,-0.0239907,0.0322885,0.0206212,0.0275958,-0.0227209,0.0239876,0.0164653,0.0151315,0.0181241,0.0337146,-0.0313887,0.0193592,-0.0337806,0.0173292,-0.022679,0.0203233,-0.0142358,0.018412,0.0241578,0.00312189,-0.0329392,-0.00620782,0.0106163,0.0270269,-0.0340479,0.012437,0.0114929,-0.00550969,0.00623987,0.030089,0.0232081,0.00182704,-0.0293275,-0.0177293,0.00128454,0.0245973,0.0346107,0.0224479
0.00636465,-0.0137572,-0.021461,-0.00185695,0.00497529,-0.0165792,0.015411,0.0314691,0.0248746,-0.028033,0.00473827,0.0258603,-0.0111514,0.0300912,0.03189,0.00965138,0.0287954,-0.0164941,0.0221537,0.025367,-0.033514,-6.60852e-05,0.0231447,0.0170457,0.0283415,-0.02772,-0.000358353,0.031238,0.00811118,-0.0138213,-0.0045712,0.0127082,0.0301285,0.018031,0.0282031,0.0178743,0.0193764,0.0214392,-0.0295099,0.00289823,-0.0339099,-0.00376586,0.00844237,-0.00557283,0.00726296,-0.0125603,-0.0192265,0.0218736,-0.0112282,0.0283668,0.00644262,-0.0036387,0.0216503,0.0306982,0.0299203,0.00128448,0.00705401,0.00769551,0.0209926,-0.0060164,-0.0133113,0.0337478,-0.0128518,-0.00889239,0.030661,0.0204137,-0.0160772,0.010741,-0.0199539,0.0355007,0.00961363,0.0157591,0.0355211,-0.0050265,-0.0221952,-0.00362447,-0.00128514,-0.00100346,-0.0204866,0.0322693,-0.0293751,0.0137078,0.011565,-0.0159363,0.0202088,0.0339111,0.0140536,0.00240999,0.023105,-0.0317137,0.00755241,-0.0131364,-0.0178772,0.0298355,-0.0345526,-0.00317318,0.0216997,-0.0181532,-0.0329822,0.0125651,-0.00145882,-0.0146626,-0.0123538,0.00895786,0.0187404,-0.00428652,-0.0177529,0.0306826,-0.0164431,0.0282365,-0.00438666,0.0338609,0.0180361,-0.00367099,-0.0264566,-0.0145122,0.00808037,-0.0277307,-0.00974286,-0.0345219,-0.0325507,0.0233222,0.0342154,-0.023055,0.0224261,-0.0238317,0.0221469,0.0346654,-0.0143586,-0.0331288,-0.026089,0.0315662,0.00985917,0.0303775,0.0352611,0.021204,-0.0124009,-0.00801845,0.01845,0.0177639,-0.0149295,0.0128909,-0.00436631,0.0345609,0.0118954,-0.0131797,-0.0118226,-0.000669214,0.0222811,-0.0132121,-0.0293717,0.013935,0.0281587,0.00496582,0.0100513,-0.00920004,0.026078,0.0349892,0.0235789,0.0116533,-0.0272535,-0.00431952,0.0158575,0.0178524,0.0204894,0.000377302,0.0331372,-0.0300649,-0.000670384,-0.0202178,-0.0267131,-0.0206315,-0.0122559,-0.0131,0.00462238,0.0275857,0.0155266,0.026374,0.0250414,0.00120769,0.00495814,0.0142476,-0.00282305,0.00967777,0.0300042,0.0145489,-0.0227726,-0.0280852,-0.00653305,-0.0280436,0.00534675,-0.0177124,0.00212893,0.0185485,0.0351277,-0.00485872,0.00201832,-0.0229386,-0.00207064,0.00717419,0.00965757,0.0102394,0.0262766,-0.0134432,-0.0205844,-0.0172684,-0.00381636,-0.0303547,0.00179693,0.00797825,0.0111799,-0.0169893,0.00732461,-0.0222495,-0.0219686,-0.010988,0.0271442,0.0202196,-0.0114663,0.0122814,0.0262964,-0.00606737,-0.0125893,-0.0255411,0.00577861,0.00899726,0.0147979,0.016535,-0.0229366,0.0107939,-0.01351,0.0222905,-0.00270421,-0.0156144,-0.0165133,0.0279391,0.0300581,0.0188667,0.0150211,-0.00155127,-0.000865385,0.0146787,-0.0167953,0.0311127,-0.00201892,-0.028194,0.0262694,-0.0249141,0.0270199,0.00329832,0.0299206,-0.0330995,0.00204118,0.0111114,0.0214927,0.000205112,0.0283201,0.00616307,-0.0309213,-0.0105117,0.00785144,0.0145897,0.00858117,-0.0190716,0.0108958,-8.19268e-05,0.0185123,0.035027,0.0265762,0.0233808,-0.00236431,-0.00806161,0.00824494,-0.0259155,0.0134474,-0.00594014,-0.0282089,0.000707519,-0.0272231,-0.00700501,0.0198869,0.00712492,-0.0203161,-0.00500204,0.0291689,0.0181107,0.0271386,-0.0198191,-0.0248425,0.0241796,0.0304016,0.0294712,0.00117869,-0.0136476,0.00768548,-0.0312047,0.0011863,-0.00648239,-0.0123085,-0.0207437,-0.024844,0.00148618,-0.0020489,0.0224533,0.0355198,-0.0253162,0.0228124,0.0318077,0.0161537,0.0111243,0.00412397,-0.00487105,0.0228308,-0.0315706,-0.0155492,-0.0336494,0.0356586,-0.0225935,-0.0300571,-0.0132687,-0.0346458,-0.0190703,0.0221749,0.0157068,0.00493742,-0.00930418,-0.000301489,-0.0164886,0.0222627,-0.0104942,0.0262555,0.0293816,-0.0134574,0.0353635,-0.01765,-0.0165445,0.0192172,0.00357557,0.0140744,0.0170868,-0.0270933,0.00272912,-0.0216265,-0.001848,-0.00861085,-0.0258291,0.0344731,-0.00754032,0.00637146,0.0228652,0.0341487,0.0355059,0.0105322,0.0194941,-0.0261854,-0.0135704,0.0362565,-0.0155705,-0.0335061,-0.00666632,-0.0332914,0.0123887,-0.0232976,-0.00255725,-0.0244534,0.0211987,-0.00231251,0.00737236,0.00247756,0.00585413,-0.0232507,0.0282546,0.0347765,-0.000227889,0.0130504,0.0119715,0.0120309,-0.0334744,-0.00709373,-0.0348344,0.0172095,0.0329927,-0.0108039,-0.0350036,-0.0107952,-0.0336456,0.0351217,0.0157731,0.0301674,-0.016754,0.029656,0.0086495,0.0186503,-0.00415432,-0.0221139,-0.0324002,-0.0281034,-0.0203045,-0.0102778,-0.00450506,0.00168769,-0.0279723,-0.00557704,0.015101,0.00472644,0.00577074,0.00583933,0.00118915,-0.0127635,-0.012891,0.0157461,0.00341015,0.00759278,0.0133912,-0.0275464,-0.0213634,-0.0261662,-0.019811,-0.0312887,-0.0163884,0.033968,-0.0324801,0.0281644,0.00556942,-0.0316319,-0.0149357,0.0243097,-0.0305073,0.0198798,-0.0177908,0.0202057,0.0147182,-0.0164025,0.0169583,0.00151575,-0.019201,-0.0116103,0.0318979,0.0115666,-0.0253207,-0.0253171,0.0118733,0.0231851,0.0093066,0.0128237,0.00370504,0.00842157,-0.00926124,0.00946699,-0.0301762,-0.0275557,-0.0222926,0.0122153,-0.0248824,-0.0325334,0.00291844,-0.00781464,0.00452225,0.0183813,-0.00119452,-0.0328367,-0.0194525,-0.00769737,-0.0276688,-0.00620119,0.00267578,-0.0143418,0.000803371,-0.0199491,0.0269043,0.0213893,-0.0253599,-0.0243449,0.033774,-0.00706775,0.00849962,-0.00716869,0.0200205,-0.0230242,0.0333679,-0.0179572,-0.0179198,-0.00323651,0.0247966,-0.0332234,0.0310819,0.0267566,-0.00714746,0.00304276,0.0087737,-0.0183758,0.0152985,-0.00531293,-0.0328223,-0.00898726,-0.00939727,0.0141273,0.0215403,0.00729733,0.0188978,-0.0194904,-0.0279159,-0.0327773,-0.0250882,0.0324893,0.034296,0.026376,-0.020155,0.00835979,-0.00440325,-0.0012039,0.00534832,-0.00164145,-0.00596421,0.0151171,0.0142964,0.024347,0.018508,0.0358973,-0.0157647,-0.0244275,0.00955139,0.0252438,-0.0203131,0.0121615,0.0263142,0.0171751,-0.0304722,0.0156647,-0.00907458,0.0351344,0.00365612,0.0307467,0.0212024,0.00688762,-0.00986225,-0.00574433,0.0340302,0.0310219,0.0132552,0.0141547,-0.0261386,-0.0185004,-0.00563134,-0.0227412,0.0107659,-0.00240502,-0.0263642,-0.0010297,0.0257458,0.0286036,0.0153863,-0.0310495,-0.00753871,0.0325866,0.00438543,-0.033704,0.00725819,0.011578,0.0310984,-0.0103447,0.0240435,-0.0289152,-0.0220925,0.0260163,0.0169697,0.034578,-0.0312294,-0.0142901,0.00243347,-0.0202456,0.00721635,0.0172104,-0.0303283,-0.0326305,-0.0191058,0.0185042,0.0234479,-0.034411,0.0353637,-0.0295571,-0.0140292,-0.0111757,-0.00575989,0.0125202,0.016815,-0.0171515,-0.0219881,0.0217532,-0.0319819,0.00991709,-0.0342785,0.0336363,0.0123237,0.0118292,-0.0265971,-0.0132809,0.00278503,0.0228713,0.0120424,0.0339449,0.0141665,-0.000333744,0.0155696,0.0261022,-0.0162916,0.00326908,-0.025422,-0.0206674,-0.00931724,-0.00818661,-0.00332701,0.0243319,-0.0122699,-0.0298887,0.0314705,0.00713963,0.0171315,-0.0305042,-0.02044,-0.0125951,9.94319e-05,0.0316369,-0.00521524,-0.0173585,0.00869965,0.00569095,-0.00425739,0.00106679,-0.022651,0.0100515,0.0314864,-0.00398716,0.018421,0.00634028,0.034734,0.0179196,-0.0129053,-0.0331612,0.0302594,0.000966284,-0.0332524,-0.0209329,0.0149258,-0.00701214,0.00224723,-0.032705,0.0111171,-0.00314013,0.0144193,0.00698125,0.0315758,-0.0154611,-0.00929715,-0.00774634,0.0138206,-0.00867467,0.0174117,-0.0291045,-0.0106397,0.00203021,-0.0147182,0.00471507,0.00483938,0.0342748,0.0061518,0.0348014,0.0241352,-0.0326121,0.00952705,0.0346682,-0.00196387,-0.00850195,0.0176502,0.0259248,-0.00864242,0.0205125,-0.0290888,0.00415172,0.00175385,0.00185146,-0.0138739,-0.00151883,0.0136677,-0.0105413,-0.0258446,-0.0109471,-0.0196525,-0.0129382,0.0156191,-0.0152179,-0.0207382,-0.00948523,-0.00211748,0.0317462,-0.0244584,0.0348957,0.0239411,-0.0145021,0.0128344,-0.025672,0.0353428,0.00661762,0.0121389,-0.0271715,-0.0130484,0.0306394,0.0201609,0.0206,0.00242753,-0.0279268,-0.0273197,-0.0329925,-0.0113974,-0.0251082,-0.020426,0.0313016,0.0146546,0.00493739,0.0153255,-0.0327909,0.0260471,0.000337811,0.0241095,-0.0316853,-0.0229892,0.0164217,-0.0288137,0.00757993,0.0261242,0.0281604,-0.010789,0.00754354,-0.0285398,-0.0335581,-0.0332625,-0.0327275,-0.030098,-0.0217445,0.0337901,-0.0043212,0.0192036,0.022375,-0.0319137,-0.0246433,0.0127281,-0.0261576,0.0144958,-0.0341404,-0.0256912,-0.00395404,-0.0308688,0.000498562,0.0350919,-0.0253042,0.029821,-0.014118,0.0334827,0.00781958,0.0067824,-0.023176,0.0132699,0.0206522,0.00698238,0.00510428,-0.0131603,0.0205426,-0.0211478,-0.00217919,-0.0112624,0.00639707,0.0193175,-0.0261963,-0.0340617,0.0148299,-0.0172425,0.0260703,-0.0334552,-0.00155224,-0.0319661,-0.00435771,0.0339699,0.0135739,0.01147,0.0141812,-0.0198365,0.00201003,0.0328824,-0.0244816,-0.0353443,0.00617651,0.0225769,-0.0343416,-0.00562618,-0.0181952,0.024882,0.0259882,0.0165814,0.0174339,-0.00786835
0.0108817,-0.0212368,-0.0325384,0.0300096,0.0352247,-0.00427053,-0.00821292,-0.0216305,0.0277751,0.0298152,-0.0160224,0.00927272,0.0276961,-0.0164325,-0.0120627,0.0174495,0.00716857,0.0365212,-0.0282756,-0.0264317,-0.0101446,-0.0068602,-0.00825265,0.0271521,-0.00353568,0.0101802,-0.0187605,0.0165781,0.0162969,0.0161846,-0.0338815,-0.00517711,0.0192467,-0.0181344,-0.00364079,0.00203834,0.0254343,-0.00890396,-0.00681223,-0.027606,-0.0249592,-0.0245369,0.0358215,-0.0295935,0.0246323,-0.0251385,-0.0325131,0.016557,0.00548908,-0.0223443,0.0231039,-0.0261161,-0.0155796,0.00192545,0.0263851,0.0058618,-0.0303128,0.0325709,-0.0287615,0.0205012,-0.00445475,0.00609828,-0.0328706,0.0331813,-0.00950607,-0.0201015,0.0236352,-0.0280276,0.0286976,-0.0276799,0.000471984,0.0361425,-0.00178172,-0.0214138,0.0337395,0.0123863,0.0331334,0.00978409,0.0170527,-0.0163074,-0.0170912,-0.00707453,-0.0237411,-0.000506204,-0.0230462,0.0340022,-0.0079351,0.0289712,0.00642364,-0.0118618,0.00145909,0.00937286,-0.00174408,0.00366278,0.0010817,0.00279507,-0.0277172,-0.00204989,0.0132229,0.0219365,-0.0243836,-0.0211729,-0.0310898,0.0190475,-0.0188797,0.00119765,0.0225225,-0.00766275,0.00553542,0.0168499,-0.00815972,-0.0121373,-0.00423014,0.0260041,0.0170862,0.00542337,0.0252901,0.0294692,-0.00323013,-0.0230177,0.0120064,0.0259214,0.0069996,0.00981051,-0.0288775,-0.0236979,0.0306911,-0.0324595,0.00568153,0.023237,-0.0228082,-0.026495,0.0198463,-0.0169865,0.0336985,0.0238822,0.00245758,-0.0227717,0.00487356,0.0213732,-0.0173606,0.0316044,-0.0304171,-0.0309832,0.0130439,-0.000264904,-0.00503553,0.000431991,-0.00588837,0.0365994,-0.00171649,0.0312755,0.0286114,-0.0203726,0.0268287,0.0103563,0.0316379,-0.0238971,-0.0277003,-0.0083979,0.0250148,0.00699397,-0.0287302,0.0289153,0.031254,-0.0322006,-0.0142004,0.0151516,0.0248262,0.011604,0.0099645,-0.00962725,-0.0313891,0.0232458,0.0177923,0.0289628,0.0173935,-0.00203195,0.000129219,0.0229901,0.0292772,-0.0282392,-0.00250593,0.0367876,0.00508414,-0.0237695,0.0023125,0.0221856,0.00161098,0.0280291,0.0303829,-0.0101392,0.0199088,0.019577,0.0208808,-0.0168234,-0.01139,0.0169307,-0.0113759,0.0293579,-0.0124472,0.00998887,-0.00738392,-0.0242787,-0.00651356,-0.0251014,0.0177843,-0.0223024,0.0277087,0.0324501,0.0348198,0.0297284,0.0212699,0.0204173,-0.029448,0.0311933,0.0261144,-0.0169091,0.0111163,0.0124331,0.0190456,-0.000953154,-0.0166918,0.0353016,-0.0118593,-0.0246402,-0.0335957,0.0169709,0.0199319,-0.0288072,0.0103186,-0.0213015,-0.00020069,0.024208,0.0111917,0.0358637,-0.00560869,-0.0298796,-0.0246876,-0.000650057,-0.0083931,-0.0313083,0.0330737,-0.0304414,-0.0181494,0.0225015,0.0364624,0.0162744,-0.0190137,0.0197514,-0.0113264,-0.0150755,0.00352855,0.0234552,0.0263856,0.0275696,0.0163314,0.0106892,0.00381039,0.00921285,-0.0327229,0.00950333,0.0289704,-0.0299803,0.0328024,-0.0181325,0.0285957,-0.018888,-0.0132307,-0.0117447,-0.01533,0.0148163,0.00691967,0.0117482,0.012749,0.0250329,-0.0278623,0.00698214,-0.0277088,-0.0299229,-0.0147042,0.024362,-0.0164263,-0.00978074,0.0346068,-0.0229116,-0.0172684,-0.000565731,0.00758096,-0.0220453,-0.0065662,0.0192545,0.0271887,0.0356225,-0.00193251,-0.0302393,0.0319475,0.0266773,-0.0335488,0.00426038,0.0144979,-0.0126219,-0.0268656,-0.014368,0.0355222,-0.0245168,-0.00226579,0.0259393,-0.0151485,0.0154314,0.0360463,0.0005047,0.00818888,-0.0138467,-0.0117159,0.0308443,-0.00854154,0.00212127,-0.031067,0.0154202,-0.0117844,-0.00615667,-0.0173851,0.0295845,0.0204645,-0.0295356,0.0217343,0.0342905,-0.0303125,0.0241435,0.0305334,-0.0303532,-0.0322483,0.0252659,0.0275177,0.0315465,0.0232451,-0.00249409,0.0101212,0.0358248,0.00997765,-0.0340122,0.0124268,0.00978495,0.0307027,0.0126335,-0.0181543,-0.0333525,0.0329586,-0.0239087,0.00168243,-0.0231824,0.000406099,-0.0217674,0.00375353,-0.0136343,0.0206577,-0.0171036,0.00419454,0.0289667,-0.0158247,0.0052546,0.0345753,0.00385529,-0.00125749,-0.0151763,-0.0237883,-0.0332229,0.0334524,-0.0089446,0.0104467,0.0133933,-0.0024668,0.0212979,-0.0288317,-0.0138581,-0.000793166,0.0339949,0.0320976,0.0275295,-0.00304043,0.00366696,-0.0220728,0.0280425,0.00897906,0.000908121,-0.0284053,0.0120403,-0.0313059,-0.0133108,-0.00695168,0.0124472,-0.0147617,0.0181216,0.019267,-0.00827451,0.00562495,0.0253688,0.0074885,-0.0250532,-0.00780497,0.0235553,-0.0193282,-0.0239419,0.0310511,-0.0140423,-0.012014,-0.0152275,0.013632,0.0176389,0.0038672,-0.00087138,0.0255397,0.0251614,0.0335727,-0.0114862,0.024329,-0.0155315,0.0206346,-0.0176223,0.0263661,0.0345204,-0.0227394,-0.0120145,0.0354768,-0.0248166,0.0199397,-0.0124864,-0.0327218,-0.0267011,-0.00820164,0.00386091,-0.011758,0.0204192,-0.00436249,0.0217133,0.0218303,-0.0258023,0.00258539,-0.0116239,0.00804441,-0.0227717,0.0337187,-0.0177766,-0.0199969,-0.0137534,0.0187323,-0.0189312,0.0260015,0.0365637,0.017084,0.0117652,-0.000655001,0.0308181,-0.0177865,-0.0158342,-0.016269,-0.0247523,0.0357081,-0.00247653,0.00634351,0.0203104,0.00321572,-0.0335424,0.00151528,0.0261472,-0.0338772,0.0112222,-0.030129,-0.0242503,-0.00732821,-0.00983355,-0.0300406,-0.0216547,0.0333423,-0.0153695,0.0113007,-0.00148155,0.000202424,0.010768,-0.029857,0.0235212,-0.0267731,0.0221669,-0.0268649,-0.0308968,-0.0312224,-0.0279299,-0.0146508,0.0138189,-0.0194144,-0.00899269,-0.0190617,0.0027841,0.00215656,-0.0141731,-0.0193184,0.0124211,0.022618,0.0215263,0.0253786,0.011377,-0.0102848,0.0139416,0.00385725,0.025096,0.0303656,0.0306259,0.0148652,-0.004815,0.021048,-0.02387,-0.00208511,-0.0235098,0.030532,-0.0191716,0.00804288,0.0369747,0.0110054,-0.0338586,0.0100368,-0.0325453,-0.0122447,-0.0026967,0.0179572,0.00305152,-0.0104545,0.0188294,0.0180573,0.000263067,0.031076,-0.0312531,0.0166194,0.00303708,0.0270971,0.0211644,0.00994124,0.0267259,-0.00785447,0.0253004,0.0140924,-0.0155667,-0.0291114,-0.00438375,-0.00798289,0.016147,-0.0187283,-0.0192706,-0.00279064,0.0114764,-0.00500134,-0.00722453,0.0305759,-0.00170327,0.0104819,0.00289233,0.0222344,0.00664429,0.0215476,-0.0205898,-0.0312922,0.00368437,-0.0235085,-0.0127323,0.034216,-0.0152122,-0.000407764,0.000660369,-0.0298951,-0.0176138,0.0173371,0.0222564,0.0110524,0.0177746,-0.0251601,0.0192762,0.0163876,0.0117234,0.0269864,0.0287046,-0.0282384,-0.0217004,0.026162,0.0109692,-0.00321057,-0.0114099,0.0189585,0.0309693,-0.0274578,-0.00654933,-0.0326713,0.0155086,-0.00589857,-0.0202276,0.0206944,0.00903046,-0.00981088,-0.024957,0.0275309,-0.010218,-0.00926161,-0.0309529,0.0304942,-0.0269775,-0.0232264,0.00142274,0.00293374,-0.031683,0.0242082,-0.00810812,-0.0331436,0.0276049,0.00237447,0.0340823,0.0342282,-0.0174522,-0.0286897,-0.00940278,-0.0208063,-0.0320665,-0.00357917,-0.00412568,0.0088231,-0.0308638,-0.0176377,0.00689208,0.034778,-0.0168751,-0.019239,-0.02444,-0.0333176,-0.022372,-0.0330788,-0.00248886,-0.0117789,0.0069531,-0.0189888,-0.0219401,0.0143507,-0.0254492,-0.0297231,0.0327747,-0.0195265,0.00100851,-0.00890042,-0.0188938,0.0281592,-0.00993447,0.019006,-0.0313479,0.0265531,-0.0247916,0.0146905,-0.00952356,0.0346498,0.00385098,0.0280361,-0.00141056,-0.0214003,-0.0112017,0.00358893,0.0255594,-0.0214515,0.0245152,0.0277789,0.0176288,-0.0242354,0.0318763,0.027494,0.00352416,0.0337002,0.00275594,-0.0304811,-0.0290306,0.0219355,0.00597466,-0.0322282,-0.030572,-0.0268061,-0.0314162,-0.0270552,0.00297885,0.0161554,0.00965418,0.0286616,0.0303359,-0.0326722,-0.0115184,0.028269,-0.00172277,-0.0327316,-0.00278586,-0.0302491,-0.0152906,0.0272701,0.021914,0.0140993,0.0218483,0.0138972,0.00787789,0.0137706,0.0339257,0.015644,0.00922972,-0.0245074,-0.0328323,0.0279654,0.0336285,0.00384155,0.00709541,0.0109044,-0.0146275,-0.0276457,0.00953225,0.0122023,0.0169612,0.0340662,-0.0334938,0.0274922,0.0340628,0.00498863,-0.0228655,-0.0315121,0.0185973,0.0329599,-0.0216208,-0.0239758,-0.0164288,0.00892163,0.0047436,-0.0212479,0.0284569,-0.0227308,-0.0334035,-0.0258229,0.00155535,-0.0334743,-0.0144487,0.0351229,0.0240955,-0.0249903,-0.0066146,-0.022788,0.0186298,0.00326611,-0.0305148,0.0328486,-0.0089157,0.00308063,-0.0187386,-0.0104699,0.031154,-0.0323746,-0.0103929,0.0229059,0.0175319,0.00647268,0.0359171,0.00798837,0.0111527,-0.01112,0.0263077,-0.023912,-0.020787,0.014989,-0.0271165,-0.0181352,0.0311845,-0.00249777,-0.00480337,-0.0247362,-0.0134536,-0.0215803,0.0251272,-0.000704505,-0.00829639,-0.0206242,-0.00880308,0.0359125,0.0273801,0.00243142,-0.0259676,0.0330442,-0.0305065,0.00458155,0.0138408,-0.0169828,-0.00685503,-0.0198009,0.00755565,-0.0306695,-0.0226424,0.00400291,-0.0109302,-0.0333184,-0.0314654,0.0116567,0.00173395,0.0339592,-0.0285378
