100,300
-0.0166065,0.00106583,0.0317112,-0.0320253,-0.0302625,-0.0196713,0.0457388,0.0299888,-0.0281738,0.00934447,-0.0130834,0.0295049,-0.0122628,0.0399155,0.0480724,-0.00462386,-0.0624046,-0.055327,-0.0347624,-0.0220294,-0.0126623,0.0220443,-0.0528864,-0.0511745,-0.0321251,0.0417169,0.00975392,0.029659,0.0300337,0.0254683,-0.0570297,0.0379409,-0.0497795,-0.034316,0.0400113,0.0196524,0.0374396,-0.00428121,-0.00260212,-0.0582796,0.0224279,0.0255508,-0.0377767,0.0439964,-0.0491169,-0.0585475,-0.049177,0.00393657,0.0355501,0.0360204,-0.0159439,0.00795714,0.022532,-0.0124708,-0.0404408,0.0453262,-0.0272844,-0.00349373,-0.0238126,-0.0485994,-0.0563327,-0.0522549,-0.00921366,-0.0142099,-0.0626415,-0.0579937,0.0296892,-0.0667293,0.0285712,-0.0233233,0.0337511,0.0073577,-0.0100579,-0.0251898,-0.0561065,0.0306027,-0.0420796,-0.0615128,-0.0341185,0.0414273,-0.0661666,-0.0543887,-0.00115375,0.0401532,0.026036,-0.00956824,-0.0544907,0.0253992,-0.0207884,0.00979022,0.038039,0.028148,-0.0673098,-0.0158543,0.025865,0.0339423,0.0479113,0.027061,-0.01982,-0.0210665,-0.0583774,0.0452847,-0.0613124,0.0325504,0.0277521,-0.0324998,0.0170544,0.034223,-0.0220458,0.0442726,-0.0506218,-0.0333755,-0.00520142,0.0397547,0.0466716,0.00885578,0.0379382,-0.0537296,-0.049814,0.0255028,0.00183779,0.0168023,-0.0309845,-0.0336311,-0.0468093,-0.0476327,-0.0579384,0.0434583,-0.00853977,0.0110247,0.0196747,0.0248107,-0.0167062,-0.0624849,-0.00105474,0.0332564,-0.0200757,0.00164323,-0.000578562,-0.00532929,-0.0384533,-0.0386935,-0.0339937,0.00923816,-0.00268109,0.00322884,-0.00838466,-0.00618957,-0.0632507,-0.0306789,0.00394819,0.0401451,-0.00812341,0.00307958,-0.0391825,-0.0342499,0.0347605,0.0443912,-0.0364161,-0.0432941,-0.00306137,-0.000803352,-0.0477414,0.0025618,-0.00414727,-0.059509,-0.0444424,-0.000641778,-0.00297213,0.00582132,0.0281794,-0.0630493,-0.0315584,0.0191088,0.0274348,-0.0456468,-0.047358,-0.0153663,-0.063937,-0.0249206,0.0269084,-0.0231982,-0.0352675,0.0102367,0.0135079,-0.0366409,-0.0280259,0.0298082,-0.0197219,-0.0297612,-0.00803405,-0.0597911,0.018408,0.0416016,-0.0275009,-0.0407927,0.0505195,0.0251429,-0.00654112,0.0311355,-0.00895449,0.026022,-0.0197234,0.0433905,0.0322391,-0.0643167,0.0172419,0.0263843,-0.0493384,0.027262,-0.0617621,-0.000881633,0.0335339,-0.0666856,-0.0634177,0.0386824,-0.0216226,0.0214729,-0.0498709,0.0360399,-0.0371851,-0.0446437,-0.0183611,0.0237343,0.023301,0.030633,-0.00183552,0.0156147,0.0251171,0.00866888,0.00257379,-0.0278821,-0.0209334,0.044194,-0.00620662,-0.0537292,0.00848728,-0.0104492,-0.0210385,-0.0511037,0.00096937,-0.0222042,-0.0411405,-0.0251606,-0.0396573,0.00459109,0.0230937,-0.0543638,-0.00867114,0.0327475,-0.00424554,-0.0558716,-0.0572362,-0.0251087,-0.0492912,0.0481341,0.0224088,-0.053731,-0.0346774,0.0392477,-0.0533087,0.00230021,-0.00773524,-0.0159652,-0.0467459,-0.0185504,-0.0238031,0.0437711,-0.029134,0.0238785,-0.060448,0.0307078,-0.0519136,-0.000488603,0.0147068,-0.0194332,0.00699816,-0.05298,-0.0132507,-0.0414845,0.048134,0.0305176,-0.0278537,0.0239687,0.0087044,-0.0307122,-0.0587324,-0.0330033,0.0422815,-0.0549378,-0.0433737,-0.0446963,0.0133188,-0.0321567,0.00183784,-0.0381972,-0.0128539,0.0181152,0.00714761,-0.0168464
-0.0411831,0.0326248,-0.0231524,-0.0189128,-0.0661421,-0.0472196,-0.0205621,-0.013458,-0.0251922,-0.0216493,0.0330416,-0.0494095,0.0121507,-0.027136,-0.014418,-0.0668878,0.0424949,-0.00689343,-0.0681888,-0.0202928,0.0467248,-0.0431132,-0.0176692,-0.0330607,0.0359048,-0.053784,-0.0380944,-0.0307197,-0.0395132,-0.0419904,0.0126808,0.0445304,-0.0332179,0.0185083,-0.0650588,-0.00560399,0.0141841,-0.0296223,-0.0694305,0.0221501,-0.0529994,-0.053918,-0.0299219,0.0426341,-0.0541954,-0.0131329,0.0445511,0.0282484,0.0365571,0.00487255,-0.0178279,0.0259321,-0.0521004,-0.0491441,-0.000942449,-0.0482473,-0.0114203,-0.0301833,-0.0659378,-0.0614531,0.0411625,-0.0684417,0.0194976,0.049063,-0.040205,0.0451228,0.030837,-0.0329534,0.00924937,-0.0518017,0.00315354,-0.0148105,-0.0283612,-0.0676664,-0.0186199,-0.00572856,-0.0509403,0.0198763,-0.0573118,-0.00142667,-0.0211698,-0.0309668,-0.0469646,0.0416104,-0.0613138,0.040734,0.0418334,0.0478245,-0.0609845,0.0147789,-0.0129858,-0.0465575,0.023651,-0.0361118,0.0175396,0.0205714,-0.0338907,0.0221223,-0.0584608,-0.033619,-0.0505248,0.0332201,-0.0422257,0.030167,-0.0214316,0.0312984,-0.0208686,0.00886465,-0.0542849,-0.0554622,0.0259862,-0.0314401,-0.0638557,-0.0055147,0.0155236,-0.0346038,0.0194926,-0.00272511,-0.0638768,0.0278503,-0.0209256,-0.0284181,0.0309383,-0.0264263,0.0177806,0.041618,0.0106956,-0.022157,-0.00513522,-0.0195112,-0.0231847,-0.0617541,-0.0675786,0.0123562,0.0401056,0.0168293,0.00910432,-0.00758256,-0.0401368,-0.048392,0.0358656,-0.0275687,-0.0310996,-0.0467306,-0.0396003,0.0282619,-0.0613662,-0.0361743,0.0374677,-0.00413462,-0.0372933,0.0341274,0.0189748,-0.0222009,0.0240046,-0.042537,0.0169022,-0.0646397,-0.0197647,-0.0453149,-0.0262443,-0.0640186,-0.027834,-0.0585682,-0.0606784,0.0142618,-0.0323007,-0.0230115,-0.0195297,-0.0236903,0.0139417,-0.0578205,-0.0239396,-0.0200842,0.048676,-0.0163289,-0.0382559,0.015817,-0.0120606,0.000289722,0.0469216,-0.0555273,-0.0498457,-0.00626249,0.0120541,-0.0516531,0.00994,-0.0494314,-0.0323184,-0.0122727,0.0276933,-0.00899001,-0.0598463,-0.0132831,0.0428116,0.000774187,-0.0133105,0.0187815,-0.0639223,0.0151676,-0.0276109,-0.0126217,-0.034451,-0.0149795,0.0186137,0.0267022,0.0384616,-0.02711,-0.0415787,0.0063732,0.0105706,0.0310836,0.0391867,0.0408283,0.0490766,0.0235886,0.0234013,0.034374,-0.0123756,0.0468273,0.0192947,-0.0630101,-0.0385955,-0.0633931,-0.050589,0.0285709,0.0152614,-0.0486774,-0.0169094,-0.0186527,-0.04494,-0.0389088,0.00422516,0.0440247,0.0433441,0.0409855,-0.0517163,-0.00739605,0.0420468,-0.0181195,0.00600105,-0.0497947,-0.0170117,-0.000644473,-0.0375854,-0.0126132,-0.0165568,0.0224506,0.0434372,0.0353107,-0.000758022,-0.0561586,0.00876664,-0.0149021,-0.0200027,0.0016944,-0.0106172,-0.0246078,-0.0412182,-0.0429594,-0.00868909,-0.0559317,0.0273336,-0.0638416,0.00218532,-0.0485468,-0.0465055,0.0159421,-0.0335598,0.0367239,-0.0244945,0.0149779,0.0153834,0.033532,-0.00780031,0.0113214,-0.00692577,0.0418653,-0.0278329,0.0158351,0.0335271,-0.0578013,-0.0479236,0.0216787,0.0368892,-0.00237618,-0.00464517,0.0352637,0.0514328,0.0428035,-0.0204904,-0.00682164,-0.0313431,0.0231541,0.00453097,-0.0332222,-0.0141214,0.0424042,0.0208159,0.0266972
-0.0363506,-0.0149555,-0.0620634,-0.00268477,-0.0668377,-0.0589707,-0.0356104,0.0263131,0.0149931,0.0269507,0.0279228,-0.0232565,0.017148,-0.0200606,0.0273614,0.0345545,-0.034961,0.0210471,-0.0697632,-0.018694,0.0186083,-0.00405568,0.0296251,-0.036106,0.0154163,-0.0210288,0.0139634,0.00750927,0.0140994,0.0416083,0.0160203,-0.0178361,0.00228905,0.0303006,-0.000491701,-0.0258116,-0.0529385,-0.0243131,0.0364331,0.0201953,0.0131065,-0.051719,-0.012718,0.00872302,0.0400577,-0.0660256,-0.0418046,0.0190829,-0.0036514,-0.0411065,0.0118129,0.00731409,-0.0330811,-0.0508317,0.0214239,-0.0297025,-0.025478,-0.0395157,-0.0297778,0.0113168,-0.0586772,0.0403708,0.0340784,0.00431061,-0.0595393,-0.00633596,0.0106369,-0.0659314,-0.06201,-0.0274534,-0.0396111,-0.0239241,-0.0303923,-0.0680529,-0.0459516,-0.00872931,-0.0135446,-0.025387,0.0243754,-0.0416707,0.0297268,-0.00793176,0.0117309,-0.0412504,0.0401002,-0.0382733,0.0371793,0.00212027,-0.00439528,-0.061609,0.00316526,-0.0143225,-0.0397103,-0.0357884,0.0259122,0.0213211,-0.0177906,0.0124384,-0.0223913,-0.0024804,0.01482,-0.0561976,0.0338178,-0.0422035,-0.0650139,-0.05545,0.0161776,0.00383166,-0.0240486,-0.0542018,-0.00333212,0.0384435,-0.0141238,-0.0595826,-0.0159846,-0.00577185,0.0110858,-0.0643444,-0.0317587,-0.0174645,-0.000654984,-0.0176772,-0.037624,0.00266952,-0.00802836,-0.0185214,-0.0101103,-0.0321176,-0.0156512,-0.0702062,0.00330841,0.0154084,-0.053835,-0.0609868,0.0196667,0.0267067,0.0307062,0.00848638,0.0410056,0.034309,-0.0283537,-0.0368853,-0.0372941,0.0281139,-0.0575594,-0.00251861,-0.0156443,0.00517977,-0.00960447,-0.0467459,-0.0165146,-0.030413,0.0396854,0.0210723,0.00521407,-0.0392678,-0.070801,0.0374903,-0.0174374,0.0261754,-0.0318721,0.0406121,-0.0369119,-0.0404133,-0.018978,0.0247566,0.00342157,0.00512281,-0.0624613,-0.0169243,-0.00425689,0.0364575,0.0212232,-0.0568943,-0.0156796,0.0169068,-0.0624411,-0.00938947,-0.0522427,-0.00929259,0.0323108,-0.0277247,0.045164,0.0279554,-0.0457666,-0.0163213,-0.0446308,0.0349627,0.0425737,0.0153732,-0.0292254,-0.0540213,0.000302477,0.0314934,0.0400374,-0.0267923,0.0157245,-0.0603449,0.0288757,-0.0653873,-0.00308205,-0.0678091,-0.0154774,0.0431558,0.0279952,-0.0116712,0.0130637,-1.15906e-06,-0.0185361,-0.0383258,-0.0143908,0.0209004,-0.00650111,0.0359788,0.0434235,-0.0690138,0.0086772,-0.0492794,0.0150827,-0.0450323,0.0356217,-0.00158362,-0.0449348,0.0304344,0.0152325,0.0185316,-0.0375485,-0.040324,0.00818713,-0.0217928,0.0134405,-0.0501458,-0.0344737,-0.0663201,0.0111743,0.0180514,0.00310531,-0.0347778,0.0377301,-0.0670468,0.000388172,0.0142189,-0.0156838,-0.018784,0.00502422,0.0159233,-0.0238313,0.0250134,0.0379164,-0.030709,-0.042945,0.000371504,0.0323366,0.0381726,0.0189913,-0.0156121,-0.0377624,0.0352577,0.0096511,-0.0371145,-0.029199,0.0437916,0.0230326,-0.0250014,0.0366218,0.0288775,0.0107351,-0.0234865,0.0325709,-0.00365804,-0.0522201,0.0437895,0.0335817,-0.0217398,0.0105854,-0.0248919,-0.0604387,0.0228541,-0.0502512,-0.0176841,0.0410199,-0.00642113,-0.0494595,0.0303446,-0.0251649,-0.0586871,-0.00146494,-0.0685604,-0.0649966,-0.0188026,-0.0560741,0.0215926,0.0313387,-0.024442,-0.057857,0.0170329,0.0296043,-0.000265841,-0.0233807,-0.0169647
-0.0395353,-0.0313987,0.0327326,-0.00160245,0.00136219,-0.0355187,-0.00796732,-0.0612436,-0.0404186,-0.0442798,-0.056316,-0.0202013,0.0275349,-0.00403492,0.0428692,0.0329431,0.0355249,-0.0602211,0.0149552,-0.0559023,-0.0403492,-0.0181557,0.00894876,0.030481,0.0299215,0.0402804,0.00125009,0.0342684,0.00433834,-0.0256431,0.02117,-0.0381585,-0.0196955,0.0402909,-0.0106219,-0.0371985,-0.00915966,-0.0449611,0.00111272,-0.0446011,-0.0268471,-0.0556522,0.0124232,0.0130455,0.0440428,-0.00193597,-0.0240568,-0.026482,-0.00910746,-0.0181372,-0.0682368,0.026885,0.0152451,-0.0566558,0.0279644,-0.0334643,0.0387662,0.0373557,-0.030669,-0.0221346,-0.0221975,-0.0520456,0.040159,0.0148066,-0.0124709,0.0235984,-0.0244222,-0.0022275,-0.0122237,0.00178886,-0.00755199,0.0396775,-0.00992358,-5.85685e-05,0.0118005,0.000884943,0.0059261,-0.0390461,-0.0494164,0.0132854,-0.04018,-0.0610563,-0.0042938,-0.0487007,-0.0270981,0.0328151,0.00648199,0.00888924,-0.0198136,0.0223028,-0.0595673,0.0220175,-0.0675281,-0.0418301,-0.0253323,-0.0120265,-0.0384957,-0.0491133,-0.0575951,-0.0520061,0.0322727,0.0179029,-0.0469359,0.00737768,-0.0604906,-0.0441263,0.0464723,0.0449976,0.0292749,0.0459557,-0.0561085,-0.0202102,0.00273086,-0.0604833,0.00422428,0.0167319,-0.0355041,-0.0509368,-0.00989322,-0.0130453,-0.00277537,0.0411573,0.0327889,-0.0206057,-0.00562653,-0.0357965,-0.0350358,-0.0195022,-0.0179034,-0.0624767,-6.11981e-05,0.00542497,-0.0163483,-0.0325758,-0.0137213,-0.0326769,-0.0582023,0.043185,-0.0505375,-0.0648565,-0.0451434,0.0307823,0.0472511,-0.0182625,-0.0153118,0.0393774,0.022188,0.00725114,-0.0339649,0.0288446,0.0273202,0.0231105,-0.00528249,-0.0648099,0.0101919,0.0077004,-0.0172707,0.0282254,-0.014053,-0.0214147,0.0286044,-0.00132489,-0.0287082,-0.0125968,0.0434588,0.0339468,0.0450156,-0.0681193,-0.0370447,-0.0290647,0.0170336,-0.0130716,-0.0340602,0.0139825,-0.0376821,0.0286426,0.0324068,-0.000271228,-0.0663166,-0.0543839,0.0407233,-0.0246523,-0.0652945,-0.029226,-0.0485619,-0.0662821,-0.0369356,0.0066646,-0.0579325,-0.0549903,-0.0233737,-0.0569301,0.0137251,0.023624,0.0289891,0.00793994,-0.0266491,0.0316487,-0.0622774,-0.0571526,0.0146013,0.0380465,0.0465342,-0.0115373,-0.0312142,0.0263128,-0.0434348,-0.0264185,-0.0142435,0.0411747,-0.0253902,-0.0459086,-0.0393903,0.0170863,-0.0243599,0.0277934,0.0149545,-0.00012946,-0.0617681,-0.02975,0.0334873,-0.0148867,0.00235334,0.0452325,-0.0449619,-0.0575899,-0.0244283,-0.00338192,0.0276859,-0.0616699,-0.0254723,-0.0322221,-0.0497947,-0.0238129,0.0136485,-0.0312473,-0.0135855,-0.0153014,0.0389633,-0.0132278,-0.0277798,-0.0296529,0.0123195,-0.0600845,-0.0678609,-0.0235743,0.0458124,0.00597423,0.000361018,-0.0617404,-0.0286955,0.00330999,-0.0347594,0.0299406,-0.0056717,-0.0572888,-0.0479057,0.0106932,-0.00469398,-0.0330687,0.0446109,0.0136745,-0.0100317,-0.062978,0.0407046,-0.0278856,0.0203432,0.0298168,0.00700213,-0.024316,-0.0653276,0.0326213,0.0107011,-0.0679742,-0.062642,-0.022135,-0.0010101,0.0359109,0.0321532,-0.0334204,-0.022477,-0.0358157,-0.0211859,-0.0655056,0.0412457,0.0394335,0.00580494,0.018932,-0.003655,-0.0534573,0.0298584,0.00267503,-0.00973258,0.00741885,0.0168058,-0.0442035,-0.0169547,0.047121,-0.0599317,0.0183189
-0.0360818,0.0467212,-0.0389522,-0.0565454,-0.0621853,-0.0373766,0.0228176,-0.00659463,9.9209e-05,-0.0325161,0.0174936,-0.054809,0.00704371,-0.0447131,-0.020218,0.00486569,-0.0177643,-0.0599084,0.0277258,-0.0499559,-0.0543106,0.0280475,0.00803115,-0.0647388,0.00260917,-0.0692343,-0.0215768,-0.00497983,-0.0549602,-0.0495293,-0.0578008,0.0183065,0.0432764,-0.000979806,-0.0473311,-0.00466446,-0.0686575,-0.0534715,-0.00243788,-0.040986,-0.0493264,-0.0517524,-0.0321678,0.0396924,0.0367139,-0.0294528,-0.0710776,-0.00251733,-0.036366,-0.0564737,0.0393926,-0.0273479,-0.0477214,-0.0396372,2.0159e-05,0.00959926,-0.0652896,0.0412531,0.021545,-0.0390769,0.0301194,0.00850315,-0.0481632,-0.0620516,-0.000207208,0.0365386,-0.0441055,-0.00433577,-0.0433883,0.041796,0.0360012,0.0421019,0.00419375,-0.0349288,0.0307291,0.0264832,-0.0611324,0.0126477,0.031048,-0.00626031,-0.0614743,-0.048223,-0.00198646,-0.0370894,-0.0363378,0.0153408,-0.0380495,-0.0350303,0.0424797,0.0164958,0.0214255,-0.042513,-0.0490552,-0.0362504,0.0260966,-0.000905737,-0.0548219,-0.041431,0.000555844,0.0338497,0.0112445,-0.0548569,-0.0410422,0.0214934,0.0424665,-0.0231244,-0.0595511,-0.0169749,-0.0682272,-0.0112477,-0.0224086,-0.0213857,-0.0609818,0.0363487,-0.0113259,-0.00699498,-0.0247627,0.0258841,0.0345133,-0.059579,-0.0538959,-0.00379119,-0.0120722,-0.0156904,-0.0235561,-0.0444438,0.0197042,-0.0119252,-0.0659705,0.0210857,0.025071,-0.0256318,-0.0552731,-0.0174697,0.00276959,-0.0201561,0.0313733,-0.0321347,0.0310742,0.0239177,0.0223794,-0.0519658,-0.0332494,-0.00719744,-0.0292764,0.0433657,-0.0603524,0.0254401,-0.0424808,0.0478142,-0.0668124,0.00174444,-0.0067688,0.0187875,0.00362162,-0.0676001,-0.0548873,0.0360923,0.0312376,-0.00479143,-0.0106044,0.042225,0.0319059,-0.0420086,0.0435301,0.0135217,0.044258,-0.00976106,-0.0264582,0.0148628,0.014689,-0.0647561,-0.0185365,-0.0355988,0.0324668,-0.0428737,0.00735442,-0.0669589,-0.0379656,-0.0371654,0.0285741,0.0184523,0.0184532,0.0164758,0.00251849,0.00593649,-0.028928,-0.0555304,-0.0226909,-0.00976981,0.0442469,0.00710451,0.0290542,-0.0207643,-0.0201683,-0.00608008,0.0394286,0.0486348,0.0286675,-0.0704006,-0.0276487,-0.0424065,0.0377765,0.0217792,0.0243503,0.00700594,-0.0610207,-0.00024329,-0.050039,-0.0318446,-0.0393769,0.0273786,0.0134393,0.0291904,0.0478104,0.026934,0.00389107,0.0332726,0.0110601,0.022962,-0.0569371,-0.0635651,-0.0100185,0.0163806,0.000466892,-0.0678446,0.0471481,-0.0337863,-0.00624461,0.000808426,0.0320268,0.00604514,-0.0301402,-0.0650024,0.0297663,0.0269456,-0.0609473,-0.0566419,-0.00249303,0.039641,-0.0327418,0.00609855,0.0224992,0.0169998,-0.0676337,0.00108024,0.0110002,0.0282998,-0.0279847,-0.0470495,0.0429198,-0.0129026,-0.00145649,0.0297827,0.0188887,-0.0131382,-0.0290679,0.00839335,0.0428339,-0.0660421,-0.0354443,-0.0216479,-0.0485102,0.0113768,0.0173681,-0.0237175,-0.0551358,0.0086104,0.0404235,0.00774036,-0.0150801,0.0441863,-0.0668825,-0.0243955,-0.0433964,0.0385268,0.0404519,0.0318739,0.0360332,0.0393899,-0.0365289,0.00534275,-0.00669562,-0.0165674,-0.00420914,-0.0324138,0.00465614,0.0400545,0.0376133,0.0120789,-0.0554556,-0.00906725,-0.0590318,0.00339697,-0.00364406,-0.0497633,0.0236862,0.00313048,0.00122064,-0.0672177
0.00766919,-0.0652011,-0.0475388,-0.017934,-0.00565626,0.0175723,0.032779,0.0202086,0.0145012,-0.0422768,0.00697556,-0.039878,-0.0497653,0.0310605,-0.0410632,0.0190516,-0.0213441,-0.0563226,-0.0467985,-0.0310447,-0.0409247,0.0259431,-0.0265525,0.0123378,-0.028833,-0.00642474,-0.027017,-0.0341538,0.0335303,-0.0599106,-0.0522025,0.0191186,-0.0269145,-0.0655226,0.0269696,-0.0258987,-0.0414775,0.0274251,0.0368145,0.0351062,-0.0654473,-0.0445831,-0.0282549,0.0182391,-0.0492308,0.00633299,-0.0265478,-0.0300175,-0.0284391,-0.0231467,-0.0445438,-0.0112161,-0.0556017,0.0426591,0.0109566,-0.0678122,-0.0677749,-0.0410619,0.0277634,-0.0133666,0.0187405,0.0129804,-0.0558576,0.00327544,-0.0242818,0.0051811,-0.0356248,0.0339589,-0.00176047,-0.00968555,-0.0684569,-0.066921,-0.0440029,-0.0159538,-0.0236452,-0.0621854,-0.0481472,-0.0170922,-0.0147652,-0.0406362,0.0433063,0.0168599,0.00876022,0.0408255,-0.0493153,0.0347451,-0.0524244,-0.0432725,0.0221285,-0.0642576,-0.0541456,-0.0127881,-0.0563867,-0.00258048,-0.0348709,-0.0605365,0.0353312,0.0266212,-0.0244756,-0.0336983,0.00214019,-0.0549666,0.0268557,-0.0269742,-0.067129,0.00797536,-0.00422529,-0.0429226,0.0408884,-0.0169337,0.0354284,-0.029719,0.0228729,-0.00744612,0.0253184,-0.0152796,-0.0355924,-0.0227931,-0.000643615,-0.0279258,-0.0402151,0.0213428,0.00969314,0.0169904,0.0385434,-0.0401764,-0.0438468,-0.0125057,-0.0606635,0.0067481,0.00844844,-0.0112816,-0.0649694,0.00820048,-0.0295371,-0.0226404,0.00784772,-0.0292964,-0.00518181,-0.0260881,-0.00461276,-0.0154207,-0.0560203,-0.00119797,-0.00332048,-0.0554413,-0.0177653,0.000499057,0.0374186,-0.0271787,-0.0542848,0.0307014,0.00928428,-0.00581594,0.0262655,0.0183483,0.00165289,-0.0555948,-0.0119105,0.0223441,0.023898,0.0317137,-0.0321551,-0.05149,-0.0199719,-0.00652773,-0.0529695,0.00338207,-0.0468649,-0.0413668,0.026009,-0.0209172,0.00897398,0.0433636,0.0392225,0.00755185,0.0419062,-0.0190876,-0.0263179,-0.0424017,0.0388978,-0.0378624,-0.0540406,0.0246662,-0.0140683,-0.00769815,0.00641147,0.0245807,-0.0150083,-0.0138954,0.040775,0.042156,0.0319198,-0.0325645,0.0266817,0.0278532,-0.0356502,-0.0115605,-0.0315846,-0.0275984,0.0261464,0.0424483,-0.0134954,0.0186782,-0.064013,-0.0689807,-0.0609722,-0.0626561,-0.058948,0.0221324,0.0307205,0.0228524,-0.023759,0.0267003,-0.0322617,-0.0126405,-0.0244304,0.035221,0.0366141,-0.00273359,-0.0639848,-0.0186934,-0.000391027,-0.0311247,-0.0312332,0.0283789,0.0319039,-0.0684782,0.0406341,-0.0132991,0.0418409,-0.0376198,-0.0406009,-0.0567744,0.0348806,-0.0551523,-0.0157909,-0.000421802,0.027122,0.0430921,-0.001062,-0.0293769,-0.0637651,-0.0603532,0.00936794,0.0405721,0.0061742,-0.0043587,0.0373793,-0.0266815,-0.0095186,0.0259508,0.0400833,-0.0104836,-0.0587256,0.0344099,0.0495135,0.0189669,-0.0197227,0.00380867,-0.047888,0.0117296,-0.0154629,0.0148096,-0.00427578,-0.0607653,0.0195311,-0.0151653,0.00293705,0.0336123,-0.0365683,-0.0151807,0.0451114,-0.0561882,0.0273315,-0.00409907,-0.0314719,-0.0686193,-0.0648557,-0.0153653,0.00660188,0.00159276,-0.0587287,-0.00324739,0.0381589,0.0263983,-0.0330579,-0.0252506,-0.0549204,-0.00266251,0.00207837,0.0415565,0.00253317,-0.0112257,-0.0393813,0.00685459,0.0286802,-0.0467292,-0.0701005,0.0436626
-0.0224932,0.00334713,0.00106772,-0.0424282,0.0161181,-0.0619689,-0.0220902,-0.0696376,0.0276447,-0.0512353,-0.00864864,-0.0202141,0.00102003,-6.36709e-05,-0.0695978,-0.0266106,-0.00283557,-0.00362368,0.0154349,0.0456108,-0.0268039,-0.0626312,-0.0641433,-0.0660062,-0.0185853,0.00658413,0.00341977,-0.0436774,0.0194891,-0.00353009,-0.00756053,0.0296581,0.00796969,0.00620845,-0.0226027,0.0377695,-0.0320018,-0.0487048,-0.0723996,-0.00455298,-0.0667879,0.0400354,0.0264534,-0.0626251,-0.037489,-0.00105823,0.0238338,-0.0667523,-0.0164563,-0.0497863,-0.0567241,0.0390501,-0.0189013,-0.00408375,0.0222602,0.0368976,-0.0616578,-0.0227595,0.0245496,-0.0583119,0.0157523,0.0408687,-0.0340057,-0.0569565,0.0465384,-0.0161398,0.0423755,0.0319434,-0.0104198,-0.04868,-0.0375143,0.0393839,0.00402583,0.00834005,0.0253097,-0.0222967,-0.0312011,0.00580742,0.0321198,0.0107822,-0.0261298,-0.0632939,-0.0129702,-0.0329,0.0231506,-0.0611367,0.0216182,-0.0408849,-0.0468446,-0.0567597,-0.0177768,0.00343576,-0.00614243,0.0248177,0.0211813,0.00470125,-0.00823174,0.0395556,-0.0218655,-0.0714645,-0.0228607,-0.0642802,-0.0528067,-0.0393919,-0.0681198,0.00936397,-0.00169692,0.0235446,-0.0389334,-0.019295,-0.028595,0.0252401,-0.00389285,-0.00902677,-0.0192494,0.0283193,-0.0198523,0.026176,-0.0542665,0.00226109,-0.00888183,-0.0278567,0.00934141,-0.0477403,0.0274334,0.0140687,-0.0312708,0.0216264,0.0332581,0.00237923,-0.00144972,0.0236898,-0.0547772,-0.0495599,0.0400793,-0.0573018,0.00736404,0.044796,0.0370083,0.00421921,0.0090491,0.00100412,-0.0330866,0.0315953,0.0336191,0.0453893,0.0112154,-0.0426404,0.00735169,-0.0221938,0.00724381,0.0203415,-0.0179038,-0.0450114,0.0117755,0.00531115,0.0307885,-0.03854,-0.0628436,-0.00249004,0.0157823,-0.0214216,-0.0100738,0.0256545,0.0196436,0.0227911,-0.0135732,-0.0447781,-0.0496965,0.0148023,-0.0456333,-0.0367414,0.0075234,0.00281734,-0.0183162,-0.0501899,0.0272052,0.0237721,-0.0147739,0.01493,0.00485263,-0.0445462,0.0219204,0.026156,-0.0233618,0.0117424,0.0378244,-0.0212742,-0.0389989,-0.0330062,-0.037492,-0.021515,-0.0589098,0.013078,0.00566129,-0.0710683,-0.0323022,0.0375879,-0.0116513,-0.0485844,0.010601,0.00532113,0.0452321,0.0221694,0.0242894,-0.0222165,0.037743,-0.0446701,-0.0502508,-0.0616748,-0.0262144,0.0219744,0.0222044,-0.0282325,0.0480569,-0.0127286,-0.0285622,0.0156705,-0.0665082,0.00462409,-0.000535391,0.022309,-0.0327108,-0.0647755,-0.0542954,-0.0060281,0.0328869,0.00217562,-0.0448538,-0.000132995,0.0168533,-0.0331734,-0.00882342,-0.031865,0.0124866,0.0185749,0.0291912,-0.0679047,-0.0343681,0.00677003,0.0188161,0.0079333,0.0258177,-0.0137696,-0.0555426,0.0157474,-0.0160867,0.00752443,-0.0358923,0.041419,-0.0119702,-0.014285,-0.0231012,-0.0333596,-0.0153168,0.0365077,-0.0501474,0.016178,0.0426871,0.036472,-0.0244481,-0.021244,-0.0175462,-0.0475694,0.0297294,0.0184965,-0.0199866,-0.0586663,0.036936,-0.0514708,-0.0318757,0.00615913,-0.0303546,0.00435394,-0.0170731,0.0351851,0.0056987,0.0202566,-0.060341,0.00110268,0.0190841,0.0235282,-0.0011505,-0.0100392,-0.049489,-0.0615936,0.0316609,-0.0527838,-0.00753012,0.0272934,0.037077,-0.0174324,-0.0147903,0.0289064,-0.0265693,0.0203419,-0.0304847,-0.0184878,-0.0361763,0.0376341
-0.0418028,-0.0205256,-0.0248363,-0.0325126,-0.0220249,0.00806282,-0.0575576,0.0286028,-0.00607011,-0.0647771,0.0464192,0.0117213,0.00945227,0.0309356,0.0305277,-0.0350867,0.013961,-0.0475426,-0.0216098,-0.0167132,-0.0370013,-0.0124745,0.0353863,-0.0499859,-0.0439954,0.0369322,0.0126373,-0.052571,-0.0300675,-0.0480788,0.00631601,-0.00837159,-0.0383456,0.00544291,0.0301991,-0.0234255,-0.0151056,0.000432532,-0.0617394,-0.0120947,-0.011763,0.0401162,-0.0392426,-0.0103317,-0.033971,0.00659202,0.00394846,0.0278707,-0.0693876,-0.0674543,0.0137163,-0.0538404,0.0336048,0.0119349,0.0218033,-0.0515058,-0.0610323,-0.0436569,0.036712,-0.0296371,-0.0293156,-0.0323557,-0.0421298,-0.00695283,0.0268809,0.0446532,0.0420163,-0.0449479,-0.0128786,-0.0643819,0.0411527,0.0150455,0.0415744,0.00183581,-0.0173446,0.0264173,-0.0319531,-0.0454673,0.0348192,-0.0416167,0.0147872,0.0233336,0.00465279,0.00478703,-0.0246802,-0.0381402,0.0362033,-0.0135638,0.0354925,-0.0605551,0.030614,-0.0180911,-0.0141262,0.0298447,-0.00670135,-0.00954836,-0.00223463,0.0238367,-0.0387413,-0.0716389,-0.0312013,-0.017991,-0.0321361,-0.017656,-0.0323607,0.00745244,-0.0382929,0.0200327,-0.0399525,0.00491751,0.0269271,-0.0629936,-0.0382686,-0.0287651,0.0379885,0.0368021,0.0197498,-0.0456802,-0.0425493,0.00314264,-0.0542809,-0.0534709,0.0465995,-0.0601108,-0.01222,0.0417308,-0.00543175,0.0200428,-0.0182063,-0.0217631,-0.0326559,0.00675348,0.013483,0.0182576,-0.0095738,0.00628178,-0.007041,0.0411339,-0.0466109,-0.0366258,-0.0617966,-0.0348609,-0.0428286,-0.00807269,0.0382863,0.0416803,0.0396929,-0.0120095,-0.0208483,0.0140654,0.0442463,0.0273978,-0.0118555,-0.0293945,0.0269602,-0.0236945,-0.0221481,-0.00131029,-0.000320563,-0.0580379,-0.053649,-0.0190557,-0.0647704,-0.0326484,-0.0405005,-0.0200207,0.0172007,-0.0392699,-0.00974796,0.0412076,-0.00388091,-0.0679311,-0.0525951,-0.0250917,-0.0641845,-0.0226155,0.0188531,0.000262447,0.0265482,0.0248151,-0.0163981,-0.0253507,0.0241002,-0.0123301,-0.0538015,0.0429038,0.00169623,0.0189264,0.0195856,0.000757334,-0.0493762,-0.0498421,-0.0106953,-0.0180827,0.0136579,-0.0528217,-0.0448612,-0.0213324,-0.0595942,0.023199,-0.0313207,-0.0189738,0.00073368,0.0432787,-0.00146089,-0.0032253,-0.0244915,-0.060642,-0.0620084,0.00834899,-0.0150341,0.0160312,-0.0494235,0.00113235,-0.0264594,0.0338924,0.015631,-0.0302014,-0.0225746,-0.0693986,0.00980421,-0.00557026,0.0259618,0.0438046,0.0431203,-0.0193422,-0.0421188,0.0283212,0.00868382,-0.0259809,0.0196115,0.0106029,0.0439927,0.0143759,0.0397348,-0.0115069,-0.0383857,-0.0348697,0.0188251,0.0320296,-0.0638523,0.0300016,-0.00840188,-0.0623077,0.00222735,-0.00961829,0.0178143,0.011856,-0.0276167,0.025943,0.00622161,-0.0590999,-0.0268053,0.00854673,0.0376248,0.0113472,-0.0526326,-0.00158971,0.0137324,0.00644129,-0.00375178,-0.0602401,-0.0451492,0.0389827,-0.0250946,-0.0326498,0.00121983,0.0171238,-0.0160826,-0.0202541,-0.0617583,0.0348145,-0.00248612,-0.00197476,-0.00705147,0.0428708,-0.0518729,-0.0319806,0.0260248,-0.0323323,-0.0355045,-0.0520047,0.00573072,0.000509392,-0.0120519,-0.0554611,-0.0100848,-0.00875529,0.0187478,-0.0405532,-0.0325283,-0.0601775,-0.0300923,-0.0647689,0.0422643,-0.0153442,0.0156028,-0.00800937,-0.0246797,-0.00160951
0.0067262,-0.00458653,0.0414845,0.0179602,0.000276119,-0.0191838,0.0429972,-0.0320702,-0.033014,-0.0372729,0.0434683,-0.0406793,-0.0595266,-0.0548966,-0.0246844,-0.0427826,0.0463568,-0.0389635,-0.0201936,0.0277588,-0.00703188,-0.00817206,-0.0107821,-0.0480438,-0.0348753,-0.0372991,0.033907,-0.0424758,0.00651986,0.0444372,0.0339228,0.0434152,0.0465862,0.0172247,-0.0616373,-0.0633139,-0.0668188,0.00370675,0.041713,0.0138584,-0.00287394,-0.0635656,-0.00148983,-0.0243528,0.0223341,-0.0112456,-0.0519869,-0.010184,-0.0355974,-0.0505358,0.0299027,-0.06077,0.0201403,-0.00868317,0.0034149,-0.0104559,-0.0610692,-0.0343424,0.0143366,-0.00631638,0.00594998,-0.022433,0.0468459,0.00555407,0.0385376,-0.0532122,0.0406378,0.0250258,0.0473328,-0.0430692,-0.00231971,-0.0330013,0.030326,-0.0510085,0.0442717,0.0346096,0.0251269,-0.00675736,-0.0209208,0.0138538,0.0133367,0.0118734,-0.0571047,-0.060775,0.00822797,-0.0133999,0.0169798,0.0134443,-0.000987173,-0.0536585,-0.0547723,0.0317852,0.0227225,-0.0649976,0.0045981,-0.00269348,-0.0418576,0.0195633,0.00561316,0.0288844,0.0330626,-0.00956796,0.0123891,-0.0402103,0.00678367,0.013352,0.00409301,0.0441093,0.032337,-0.0545597,-0.00714319,0.029542,-0.0233374,0.00239304,-0.0421927,0.017557,0.0311745,-0.014884,0.0143485,0.0345757,-0.00575558,-0.06174,-0.0105243,0.0241765,-0.0549518,-0.0457278,-0.0477366,0.0394318,-0.0486157,-0.0472195,-0.0547505,0.0383564,-0.00793026,0.00377695,-0.043749,-0.0489852,-0.0574149,-0.0595387,0.0376984,-0.0327347,0.00689695,-0.0433589,-0.0204139,0.0352664,-0.0097938,0.0332381,0.00260828,-0.0180772,0.0467553,-0.0355654,0.0226299,-0.0562302,-0.0202464,-0.00754804,0.0282152,0.0366747,0.0355122,-0.0600909,-0.000977193,-0.0236682,0.0201588,-0.0455025,-0.0448235,0.00841209,-0.030039,0.00100629,-0.0608976,-0.0136974,-0.0123785,-0.0145655,-0.0133173,-0.0416375,0.0410705,-0.0616944,0.0027908,-0.00381352,0.017516,0.0168793,-0.0298771,0.0280118,-0.0159774,-0.0167315,0.0144828,0.00940367,-0.0356049,-0.00306552,0.021495,-0.0335897,-0.0463117,0.031229,-0.0431802,0.00868839,-0.0113937,0.000710262,0.00508839,-0.0616603,0.0496936,0.0342684,-0.0261222,0.0450258,-0.0591308,-0.0207665,0.0467057,-0.0454985,-0.0317435,-0.0704888,-0.0471998,-0.0472101,-0.0148048,-0.0656065,-0.035228,-0.0111129,0.0226001,-0.0472294,-0.0529226,-0.0603291,0.0086219,0.0271022,-0.0589191,-0.017071,-0.0364011,-0.0185856,0.00589051,-0.0126223,-0.0648062,-0.0216349,0.00131829,0.00421901,0.00576959,-0.0418416,0.0384035,0.0167459,-0.0506449,0.0418308,0.000351514,-0.0417685,0.0329229,-0.00414947,-0.0365855,0.041054,0.0357095,0.024198,-0.0211325,-0.0306888,0.0351078,-0.0340372,-0.00605944,-0.0199505,-0.0149906,0.00808815,-0.0379698,-0.0160913,-0.0643527,0.00175588,-0.0596979,-0.0111712,-0.0115512,-0.0307377,-0.0254132,0.0358547,-0.0311005,-0.0359847,0.0375709,-0.056565,-0.0588003,0.0301716,0.0254327,-0.0143021,0.00418684,-0.00449717,-0.0642152,-0.0664657,0.020848,-0.024612,0.0146909,-0.0192161,0.0247053,-0.0433173,-0.00521242,-0.0619589,-0.0542097,0.0151519,0.00315529,0.0175735,-0.0558702,-0.00821597,-0.0538848,-0.0154576,-0.0382508,-0.0100718,-0.0446443,-0.032665,-0.0301981,0.0300494,0.00579332,0.0398193,-0.0059398,-0.0227757,0.0430077,0.00341254
-0.00772062,0.0176093,-0.0340054,-0.0454322,-0.0154379,0.0123869,0.0286219,-0.00655593,-0.00277373,-0.00855672,-0.0580615,-0.018623,-0.0188661,-0.05825,-0.0519252,-0.0516534,-0.0585311,0.0314581,0.0100406,-0.0221402,-0.0263596,-0.0266583,0.0451133,0.0110114,0.0382669,-0.0531179,2.90434e-05,-0.0267461,-0.0415476,0.0479865,0.00173447,-0.0315132,-0.00372094,0.0426954,0.000449696,0.0238958,-0.0248594,-0.0185698,0.0409162,-0.0544773,0.0426024,0.0136649,0.025782,-0.056104,-0.0311562,-0.0130916,0.0365887,-0.0100634,-0.0594667,0.02593,-0.00277594,-0.0411902,-0.0676688,0.0264999,-0.0385759,0.0357446,0.0116555,0.0318695,-0.0245184,0.0340278,-0.0406189,0.00952275,-0.056102,-0.0473378,0.0200689,-0.0491406,0.0395001,0.0416281,0.0183246,-0.0511978,-0.0422051,-0.0583109,0.0144626,0.000255964,-0.0370484,-0.0257639,0.0147233,0.0282929,-0.0379687,-0.0652718,-0.0419282,-0.00195899,0.00268397,0.014113,-0.0517676,-0.0640555,0.00577607,-0.0398307,0.0221846,-0.0202954,-0.0444925,-0.0623197,0.0435658,-0.0159301,-0.012592,0.0457482,0.0204953,0.00945999,-0.0400792,0.0301772,-0.0522064,0.0472416,0.022277,0.029224,-0.0680804,0.0451903,0.019805,0.0379634,0.0437893,-0.0647724,-0.0580746,-0.00183343,-0.0641606,-0.00472338,0.0263305,0.00683347,-0.001887,-0.0669342,-0.000447519,-0.0475209,-0.0158581,0.0222047,-0.0149479,-0.030437,-0.0549833,-0.0468249,0.0182669,-0.0453213,-0.0341332,-0.0622404,0.0161892,-0.0470481,-0.0238576,0.0441426,-0.0368225,-0.0471545,0.0336015,-0.0469523,-0.0375875,0.00117954,-0.0406846,-0.0310471,0.00330254,0.0481638,0.0499594,-0.0451162,-0.0586708,-0.0534332,-0.0623389,0.0365814,-0.0510189,0.00701791,0.010456,-0.011001,-0.0391411,-0.0459991,-0.0595687,0.0401816,0.0444373,-0.0552352,-0.0270314,-0.0428356,-0.028439,0.0413742,-0.0350015,0.0105718,-0.0587818,0.00776284,0.0317189,0.0461286,-0.0374104,0.0342906,-0.0309142,-0.0534301,0.0443471,-0.0179532,0.0292085,-0.0196544,0.0240382,-0.0450798,-0.0286185,-0.0157182,-0.0177545,-0.0463646,0.00767001,0.0233573,0.0226411,0.0147129,-0.0416299,0.0449807,0.0160715,-0.0265124,-0.0165226,0.0258824,-0.0563035,0.0148819,-0.0577484,-0.0149948,-0.00376057,0.00122669,0.0326413,0.0288035,0.0251848,-0.0362369,-0.0605795,-0.0146897,0.00904148,-0.04924,0.0377249,-0.0203417,0.033012,0.0385668,-0.0626691,0.0459089,0.0046752,-0.0645751,-0.0176921,0.0159008,0.0448086,0.038284,-0.0369136,0.0345187,0.00658724,0.00459127,-0.0593138,0.0232484,0.0407666,-0.00791962,0.0282285,0.0323461,0.0275888,-0.0256793,0.0132713,-0.0236952,-0.025621,0.0214601,0.00673065,-0.0118982,-0.0503959,0.0434758,-0.0409794,-0.0454358,-0.0441807,0.0245067,0.00293414,0.0466278,0.0261216,0.0449584,0.00303052,-0.0432356,0.0149674,-0.0172365,0.0224664,0.0165211,-0.0475364,0.000228008,-0.0522719,0.0297437,-0.0219479,-0.0541234,-0.0511266,0.0403972,0.0196579,-0.0317702,0.0046049,0.0301353,-0.0329016,0.0391363,0.0223714,-0.00599055,-0.0120468,-0.00435572,0.00630331,-0.032426,0.0493016,-0.0546508,-0.00923093,-0.0653875,-0.0556745,-0.05665,-0.0510377,-0.0685473,-0.0585105,-0.0614105,0.00391881,-0.0566744,-0.0346886,-0.0190202,-0.0406874,0.0228308,-0.0335805,0.0264037,0.0140087,0.0237766,-0.0618941,-0.00446416,0.0185624,-0.0643678,-0.0472173,-0.05847
0.0259993,-0.0563915,0.00714049,-0.0640288,-0.0155417,0.00119524,0.0183081,-0.0533944,-0.0567029,0.0265021,-0.0131271,-0.0379118,0.0452248,0.0145568,-0.0390786,-0.0523018,0.0389046,-0.00304836,-0.0530701,0.0344062,-0.0194932,0.0397222,0.0226481,0.0199346,-0.0478556,0.0444593,0.0486377,0.0409656,-0.0298957,0.0441479,0.00732403,0.0411197,0.0214353,0.00501098,-0.0395293,0.00362242,0.0360349,-0.0233638,-0.0391592,0.0100224,-0.0501016,0.0322123,0.0447648,0.0355182,0.0251158,0.032328,-0.0425865,-0.0506178,-0.0229427,-0.065179,-0.0572143,-0.0609199,-0.0303418,-0.0351037,0.0129842,-0.00233347,-0.00291115,-0.00463754,-0.0615678,0.0180606,-0.0664612,-0.0634418,0.0491202,-0.0527435,-0.0440649,-0.0429596,0.00209224,0.0155798,-0.0471885,-0.0334849,-0.0129685,-0.0166463,0.00647135,-0.00353956,-0.0605733,-0.020275,0.00738612,0.00114441,-0.0468199,0.00737965,0.00233837,0.0218085,-0.0415398,0.0424788,0.023504,-0.00952586,-0.0511092,-0.0345932,0.0267253,-0.00887541,0.0333554,-0.00586076,-0.0667318,-0.0551393,-0.0364062,-0.00160779,-0.0523546,-0.0360282,0.0259825,-0.0574142,-0.0268878,0.036878,-0.0101567,0.0130793,0.0298362,0.0465882,0.0432479,-0.0560267,-0.0065352,-0.0270952,0.0453623,-0.0122274,-0.0140883,-0.0245796,-0.0648731,0.0173157,-0.0346177,0.0266577,0.0221706,-0.067819,-0.0652562,-0.0447329,0.00782056,0.0391378,-0.0244893,0.0123096,0.0305843,-0.00124616,-0.0203434,0.00918101,-0.0562491,-0.0662873,0.00582483,-0.01069,-0.0239629,-0.0308622,-0.0410284,-0.00916352,0.022815,0.0141255,0.0155453,-0.0250212,-0.016448,0.038788,-0.0313173,-0.0294446,-0.0388718,0.0388169,-0.0579997,0.0219729,-0.00799662,-0.0309347,0.0276339,0.0176125,-0.0409718,0.0337649,-0.0503338,-0.00901491,-0.032034,-0.0515908,-0.0253309,0.0189788,0.0317932,0.00601754,0.00772882,-0.0551261,0.0330047,-0.00558516,0.0339589,-0.0420639,-0.0557525,-0.0355335,-0.0507853,0.0467619,-0.0232815,0.0387884,-0.0478077,0.0246113,-0.0326072,-0.0291307,-0.00686145,-0.0115325,-0.0432539,0.0107388,-0.0321596,-0.0520513,-0.0178584,0.00891853,-0.0128529,0.0415208,-0.0228914,-0.022296,-0.053107,0.0411006,0.0308575,0.000603673,0.00897698,0.019315,0.0138586,-0.00644043,0.0371978,-0.0531069,0.00721189,-0.0149081,-0.0137222,-0.0525065,-0.0424365,0.0399018,-0.0131217,-0.030058,0.0419283,-0.0579097,-0.0277629,0.031366,0.0430083,-0.058761,-0.0239045,-0.0225851,-0.0333954,-0.0434827,-0.0190271,-0.00148849,-0.064164,-0.0589009,-0.036507,0.0184615,8.49132e-05,0.0383168,-0.0164644,0.0316544,-0.0614352,0.0331439,-0.0384082,-0.051667,-0.0554766,-0.048964,-0.0571971,0.00399677,0.0474143,-0.0301106,-0.0286599,-0.0569008,0.0145812,-0.0336277,-0.00425043,0.0461164,-0.009569,0.0391459,-0.0597492,-0.0376906,0.0487808,-0.0189172,-0.0210787,-0.0170384,-0.0478235,0.00574256,-0.0178643,-0.00374281,0.0234632,0.0106652,0.0346492,0.0226041,0.0167543,-0.0222912,-0.0259926,-0.0399335,-0.0449352,-0.03242,-0.0085026,0.0123039,0.0274973,-0.0593742,-0.0249791,-0.0187781,-0.0193894,0.0222734,0.00872787,-0.0670659,-0.0433117,-0.0154725,-0.0415664,-0.0457688,-0.0607062,0.0428421,-0.0562796,-0.0307461,-0.0653822,0.0309806,-0.012998,-0.0376647,0.0153716,-0.0169137,-0.0283585,0.00609047,0.00116741,-0.0154481,-0.00828123,0.036782,0.0443606,-0.0123852
0.0102638,0.0378392,-0.0267757,-0.0384764,0.00653865,-0.0039677,0.0181075,0.0376052,-0.0147434,-0.0462882,0.00500987,0.0222176,-0.0217996,-0.0441027,-0.0189306,-0.0136153,0.0312086,-0.0263496,0.0210796,0.0413706,0.0359809,0.0268176,0.0257941,-0.0422607,-0.0386541,-0.0483581,0.0124318,-0.00630186,-0.0407506,-0.0493134,0.0302709,-0.0523482,-0.052368,-0.00203767,0.0452836,-0.0589183,-0.0327337,-0.0183702,0.00206424,-0.00926262,0.0347014,-0.00673079,-0.0224173,-0.0457066,-0.0063966,-0.0647973,0.0222139,0.0357779,-0.0403912,-0.0446411,-0.055554,-0.0375304,-0.0527484,0.00847691,-0.0445853,-0.0119525,-0.0614503,-0.0601916,0.0160259,0.034103,0.0437675,-0.00465328,-0.0550376,-0.057639,-0.0381429,-0.00733126,-0.0531293,0.0275204,-0.0227493,-0.0371143,-0.0325634,-0.0565148,-0.0517469,-0.00873403,-0.00702854,-0.0316452,-0.00536448,-0.0535978,0.039715,-0.0187909,-0.0261792,0.0264096,0.000950629,0.0378177,-0.0142598,0.0464834,-0.0451699,0.0114969,0.0451486,-0.0381125,-0.0427596,0.0073743,0.0229105,-0.0604557,0.0379615,-0.0433081,0.0423938,0.0277556,-0.00145555,-0.0372717,-0.0533189,-0.0349743,0.00950518,-0.0206602,0.0353529,-0.0307208,-0.0223755,-0.0171448,0.0391559,-0.0299572,-0.0411637,-0.021362,-0.0214088,-0.0490419,-0.050608,-0.0485206,-0.0166181,-0.0563815,0.0249883,-0.00816449,0.0198056,-0.0617951,0.0244239,-0.0653727,0.0320653,-0.0215458,0.0117492,0.0241515,0.00300342,-0.0481028,-0.0137247,0.0446143,0.010761,-0.000114552,-0.0304924,-0.056916,-0.0276552,0.0212787,-0.0609168,-0.00641376,0.0182375,0.0162678,-0.0210624,0.01158,0.0426273,0.0459001,0.0471331,-0.026548,5.39791e-05,0.00242042,-0.0300658,-0.00449314,-0.0092015,0.0451502,-0.00198227,-0.041633,0.0294242,-0.0024998,0.0224886,-0.00575532,0.0470785,-7.38444e-05,0.0325934,0.0299605,-0.0394741,0.00339154,0.0263716,0.0434333,0.0168066,0.00673434,0.00819401,0.0305367,-0.0197558,-0.0568546,-0.0102024,-0.0322684,-0.0210307,-0.0539221,-0.00623874,-0.0583686,-0.0376772,-0.0287783,0.0362427,0.00913376,-0.0308535,-0.0212801,-0.0166936,-0.0149887,-0.047562,0.0234332,0.0375091,-0.0533183,0.00710623,-0.0247006,-0.060741,-0.0635233,0.0330356,0.0434162,-0.0615249,0.0252423,-0.0523475,-0.050167,-0.062853,-0.0333719,-0.00825618,-0.0162835,-0.0200487,-0.0246133,-0.00705687,0.0395013,-0.0396114,-0.00224001,-0.0328305,-0.0120129,-0.0610878,-0.0517201,-0.00474604,-0.0613784,-0.054645,-0.00985158,-0.0201133,-0.0224076,0.000557221,-0.0161944,0.00478216,0.0327518,0.0329803,-0.0651708,0.0128862,0.0388209,0.036773,0.0292237,0.0213811,-0.0608942,-0.0636583,-0.0219254,-0.0514025,0.0240237,7.45638e-05,0.0400915,-0.0308255,-0.0389558,-0.0251269,-0.0325142,-0.0308926,0.0163913,-0.00101698,-0.0290616,-0.0263218,0.0177827,-0.00539641,-0.0588064,-0.0466142,-0.0253812,0.00798028,0.0147676,-0.0621304,-0.027987,0.0431266,-0.0644498,-0.02972,-0.0277684,-0.0181885,0.00757652,0.0211473,-0.0600171,-0.047108,-0.00775769,-0.00417503,-0.032859,-0.0441367,0.0110278,-0.0123323,0.031968,-0.0263655,0.00389081,0.0117379,-0.0648987,0.0126037,0.020628,-0.00787844,0.00100137,-0.0193578,0.0191167,-0.00957802,-0.00921233,-0.059498,-0.0542998,-0.0259057,0.00304393,0.019271,0.00979719,0.0326847,0.015398,-0.00261873,-0.0641649,0.0418763,-0.0586172,0.0084807,-0.0192623
-0.0471786,0.0203463,-0.0272589,-0.0515352,0.0213393,0.00364772,-0.0145731,0.0223216,0.0254516,-0.022234,-0.0166841,-0.0256289,-0.00862938,0.0149157,-0.0564406,0.0393311,-0.0413511,0.00365383,0.0428604,-0.0414574,-0.0530091,-0.044656,-0.0323175,0.0278732,-0.0206035,0.0279141,-0.0554256,-0.01135,-0.041789,-0.0373588,-0.0117359,-0.0266481,0.0134422,-0.0639766,-0.0508612,0.0443682,-0.0428033,0.0206323,0.0440865,-0.0246129,-0.0557796,0.0336429,-0.0397646,0.0404074,-0.0386411,-0.0167914,-0.0271608,0.0152637,-0.0541504,-0.0292461,-0.0172864,-0.0184228,0.031217,-0.00145249,0.0269874,-0.0451901,0.0406271,0.00623864,-0.0195562,-0.0566732,-0.0072127,-0.0439969,0.0198671,-0.023013,0.0333621,-0.0484234,0.00093538,-0.0637038,-0.00187656,-0.0351013,0.0142122,-0.0289898,-0.0379009,0.0199795,-0.0530609,0.0210305,-0.0219933,-0.00527606,0.043157,-0.0675354,-0.00766235,0.0181252,-0.000503499,-0.00224695,0.0351427,-0.00399242,0.00121739,0.0381796,0.0195123,-0.041897,0.0275866,-0.0590035,-0.046065,-0.0369049,0.04379,0.00840263,-0.0654404,-0.0525088,-0.00254049,-0.00138943,-0.00191501,-0.064304,-0.028487,0.040813,0.000235061,-0.0518975,0.0369877,-0.026221,0.00118723,0.0461376,-0.0266872,-0.0402681,0.0427027,0.00470342,-0.0446255,-0.0398333,-0.0295204,-0.060449,0.0477647,-0.00650113,-0.0537441,0.0154184,-0.0270235,-0.0514124,0.0263173,0.0390404,-0.036838,-0.0134539,-0.0173619,-0.0265595,0.0230103,0.0471702,0.02338,0.00658525,0.0428388,0.0401735,0.0274853,-0.0566469,-0.0078,0.0459174,-0.0557397,-0.0369231,-0.0569542,-0.0533345,-0.0149451,0.0332821,-0.00842213,-0.00924943,-0.0550991,-0.0477745,-0.0216528,-0.0479993,0.0281752,-0.0120153,0.0321364,-0.0285009,-0.0439016,0.0362107,0.0119231,-0.0329752,0.0140231,-0.0236411,0.020765,0.0290169,-0.0457208,0.000272042,0.0258865,-0.0432442,-0.0393549,0.00921532,0.0306345,-0.0105727,-0.0202142,-0.0114708,0.00145941,-0.0357775,-0.0569189,0.0172058,-0.0345676,0.00494235,-0.0602324,-0.0602734,-0.0104442,0.0332964,0.024402,0.0115746,-0.000564552,-0.016139,0.0263884,-0.060701,0.00544486,-0.0547105,0.0269815,-0.020091,-0.0470159,-0.0505252,-0.0449846,0.00900753,-0.0526161,0.031375,-0.0354437,-0.0450087,-0.0426932,0.00347254,-0.0571674,-0.0167666,-0.0205845,0.0168338,-0.0399603,0.0122213,-0.0422727,-0.00379831,-0.0571208,0.037438,-0.00170735,-0.0567591,0.0197429,-0.038315,0.0174407,0.00240694,-0.0200202,0.00470789,-0.0455031,-0.0647051,-0.00939152,-0.00927558,-0.0313965,0.00936171,0.0437208,-0.0600032,0.0464269,0.0196267,0.0320807,-0.000408102,-0.0192096,-0.050743,-0.0064645,-0.0304135,-0.0516792,0.0177111,0.0111077,0.00143691,0.0431764,-0.0212538,0.0158255,0.0253052,-0.0329188,-0.0435996,-0.0526656,0.030706,-0.0025938,0.0450876,0.0359169,-0.019995,-0.0015482,-0.0253824,0.0390562,0.00435917,-0.0217829,-0.00554599,-0.0430721,0.0135651,0.033005,-0.0165122,0.0418939,-0.0601418,-0.0609342,0.0160908,-0.0593872,-0.0222483,-0.0387082,0.0404228,-0.0188903,-0.0577722,-0.00972216,-0.0119449,0.0272478,-0.0359391,0.0266765,0.020321,-0.0574893,-0.0419324,-0.0564858,-0.0471634,-0.0124842,0.00221918,-0.0427277,-0.00210181,-0.00169619,0.0232343,0.032096,-0.019904,-0.0551371,-0.00126627,-0.052345,0.0170929,-0.0305912,0.00173891,0.0129254,0.00646778
-0.0642447,-0.00193608,-0.00274715,0.0389612,0.0349641,-0.0576907,0.0110717,0.0266079,-0.0365951,-0.000481383,-0.00931769,0.0372708,-0.00512581,-0.0618746,0.00167066,-0.0568656,0.0503561,-0.0444094,0.0216858,-0.0467041,0.0224334,0.027636,0.0291401,-0.0620879,0.000566807,0.00921723,-0.00903413,-0.0416792,-0.0499664,-0.00258661,-0.0623131,-0.0417452,0.0443771,0.0484566,-0.00255125,-0.0544751,-0.019922,0.000179548,-0.0060168,0.0478245,0.0368335,-0.0348291,-0.0277728,0.0233094,0.0169197,-0.0444907,0.0301935,-0.0564247,-0.0457983,0.030771,0.0495109,-0.0213478,0.0477267,-0.01403,-0.0288074,-0.0539876,-0.060309,-0.0256206,0.00479067,-0.0142292,-0.050855,0.000902297,-0.0445298,-0.0602826,-0.0527973,-0.0203625,-0.0116642,0.0415877,0.0468214,-0.0371321,-0.0343527,-0.0645942,-0.0554029,-0.0423623,-0.0574092,0.0376564,0.0183861,-0.0142575,-0.0272859,-0.0302868,-0.0582151,-0.0495826,-0.00205151,-0.0626728,0.0031043,-0.0155199,-0.0402769,0.0373592,0.0287022,0.0285511,-0.028784,-0.0386398,0.0482057,0.0381246,0.0340766,-0.0224977,-0.0179637,0.0260921,-0.0128814,-0.0240005,-0.0428998,-0.0317263,-0.0533901,-0.050316,0.00101633,-0.0305188,-0.0477531,0.0400377,0.0465944,-0.0128075,0.00930906,0.0298779,0.0189843,-0.0549442,0.0428678,0.028094,-0.0237602,0.0340422,-0.0484968,0.00869633,-0.00340958,-0.0302789,-0.052232,0.0247423,-0.0381452,0.0456651,-0.0363363,-0.0374344,0.0230259,-0.0348648,-0.0595035,0.0439224,0.0380682,-0.00530024,0.0219242,0.0394251,0.0275382,0.000934133,0.0353041,-0.0547279,0.0308873,0.0492441,-0.0311397,0.00329755,0.0138271,-0.0323517,0.037918,0.0413363,-0.0459775,-0.056189,-0.0573248,0.0238981,-0.0162516,0.0123157,-0.0223691,0.0281161,0.0417801,0.0174447,0.037275,-0.0261934,-0.0512334,0.00188307,-0.0299402,-0.0315721,0.0221222,0.00972589,-0.0215509,-0.0322458,-0.0531254,0.00835699,-0.0401593,0.040525,0.0152699,-0.055837,-0.0136618,0.0297412,-0.00518966,-0.0471527,-0.0335398,-0.024446,0.00479172,-0.0218262,-0.0252688,0.0428662,-0.0619083,-0.038163,-0.0220354,-0.0450255,0.0306106,-0.00243283,-0.0217603,0.0430178,0.0364312,0.00586619,0.0168584,0.0234871,0.0153889,-0.0532569,-0.0104746,-0.0638547,0.0497988,0.0500028,-0.0176869,0.00592875,0.0353726,-0.0504789,-0.0236803,0.0389351,-0.0481907,-0.049206,0.000270873,0.0150054,0.0270634,-0.0433136,-0.0454379,0.030262,-0.0191071,0.0406532,-0.0299276,-0.00645255,-0.04817,-0.0144761,0.0178469,0.0206313,-0.0508173,-0.0240764,-0.0363483,0.0322704,-0.0547098,-0.0511106,-0.0485634,-0.0154526,-0.0402412,-0.0132295,-0.0582285,-0.0439291,-0.0500437,-0.00503551,-0.0372242,-0.058667,-0.0254273,-0.0625248,0.0298526,0.0411492,-0.0247616,0.000619472,-0.0597576,-0.0280712,0.00994074,-0.00807708,-0.0589798,0.0212455,0.0342058,-0.0216109,-0.0310333,-0.0240551,-0.0595234,-0.0624633,0.0138117,-0.0383885,0.0147837,-0.0612626,0.0264293,0.0400428,-0.017814,-0.0452452,-0.0622497,-0.0454985,-0.0144484,0.0310594,-0.045376,0.0426669,-0.00749951,-0.0353793,-0.0150909,-0.059782,-0.0257593,-0.0571885,0.0309283,-0.00609859,0.0103319,-0.0146334,-0.0404813,-0.0178726,-0.0353778,0.046633,-0.0617856,-0.0490161,0.0183683,-0.0174784,0.0175224,-0.0209938,0.0132688,-0.0462206,-0.0515781,0.0222237,-0.0178213,-0.0115766,-0.0589737,-0.0488253
-0.0232194,-0.0539909,0.0353659,-0.0104737,-0.0494827,-0.0237753,0.00858388,-0.0274762,-0.0300435,-0.00938757,-0.0264286,0.0153805,0.0140959,-0.00464257,0.0320782,-0.00958394,-0.00804102,0.0285221,0.0203524,-0.0592559,0.0293364,-0.00125155,-0.0189381,-0.00811673,0.0397613,0.0284093,-0.038755,-0.0285981,0.0128903,-0.00791612,0.0436508,0.0361699,0.0396265,0.0278989,0.0221938,-0.0488432,-0.0159562,-0.0578942,-0.050381,-0.014078,0.00896142,-0.047027,0.0343082,-0.0400031,-0.0146672,-0.0597346,-0.0260587,-0.0646642,0.0328917,0.0416616,0.0408795,-0.0287162,-0.0124462,0.0209829,0.0117559,-0.0448271,-0.0285182,0.00515928,0.0350551,-0.0610132,-0.0356093,-0.0499993,-0.054263,0.0147328,0.00228759,0.0460551,0.0468459,-0.0476303,-0.0380275,-0.0565391,-0.0132047,0.0447345,-0.0333435,-0.0138025,-0.0232721,0.0148823,-0.0429098,-0.016432,-0.0573199,-0.0631096,-0.051389,0.0383784,-0.000654699,0.034732,-0.0408804,-0.000723344,-0.0443405,-0.0589494,-0.0259709,-0.0339235,0.00138667,0.00625988,-0.0125982,0.0243095,-0.0557321,-0.00150176,0.0167474,0.0423747,-0.0278448,-0.0231854,0.027185,-0.0158431,0.0346374,0.0147074,0.00781195,-0.0438291,0.0123544,-0.0552262,-0.00684472,0.010639,0.00129223,0.0340078,-0.0536609,0.0340144,-0.0248016,-0.0494979,-0.0420989,0.0356846,-0.0581761,0.0308522,0.0373035,0.0234922,-0.00513959,0.0424984,0.0113376,0.00990895,-0.00340475,-0.0681765,-0.0637976,0.0257478,0.0491067,-0.0601631,-0.0413446,-0.0154169,-0.0127113,-0.0120189,-0.0070726,-0.0169313,-0.0528454,-0.020914,0.0112666,0.0165123,0.0415532,0.0157329,0.0260894,-0.0109724,0.0124739,-0.0502038,0.0465692,-0.0348145,-0.0531799,-0.031233,-0.00502126,-0.00753988,-0.00699287,0.0182837,-0.0417966,0.0185022,-0.0698155,-0.00667608,0.0398409,0.0231074,-0.062946,0.0283175,-0.0532531,0.0123862,-0.0234613,0.0189983,0.0287616,-0.065104,0.0242699,-0.0345512,-0.0385013,0.0109552,-0.0430219,-0.024747,0.019397,-0.0413334,-0.0415194,-0.0169694,-0.0592582,-0.0313697,0.0380473,-0.00405785,-0.0624731,-0.00461152,0.00450055,-0.053817,-0.0518032,-0.00144922,-0.0272506,0.0168955,0.0405099,0.0351758,0.0444597,-0.0274462,0.0321728,0.00141774,-0.0601853,-0.0229016,0.00668549,-0.00393133,-0.0243973,-0.0299196,-0.0199678,0.0447431,-0.0500237,0.0229042,0.0328033,-0.0442647,-0.0134406,-0.0271948,0.0417256,-0.0609951,-0.0656191,-0.0277335,0.00341049,-0.0438099,-0.0623537,-0.0302108,-0.0152364,-0.0220002,-0.013026,-0.0124126,-0.0550499,-0.000396427,-0.0589923,-0.0290752,-0.0562073,0.0421453,-0.0651516,-0.0398256,0.0369484,-0.0006684,-0.0648461,-0.0302166,0.0449737,0.03002,-0.0498614,-0.0119003,0.000570961,0.0183266,0.0289873,0.0120803,-0.0180647,0.0339625,-0.0574396,-0.0232772,-0.0382977,-0.00761516,-0.0568036,-0.036932,0.0211722,-0.0440273,-0.0397113,-0.0552928,0.0206258,-0.0530535,0.0108625,0.017788,-0.0130101,0.0119615,0.00797943,0.00559076,0.000240835,-0.0102069,-0.00707241,0.0248097,0.0487388,-0.0514474,-0.0530325,0.0263596,-0.0217599,0.0271525,-0.0364124,-0.0185187,-0.0364469,0.0385057,-0.0571964,-0.0573888,0.0467529,-0.0447432,-0.0281437,0.0354929,-0.0252474,0.0063231,-0.00545128,-0.014838,0.0210837,-0.00899836,-0.000956921,-0.0437526,-0.010208,-0.0483198,-0.0259603,-0.0464101,0.0304888,-0.0337128,0.0252134,-0.0174337
-0.0179866,0.00606503,0.0399099,-0.0292684,-0.0477935,0.0306321,-0.0591497,-0.0489806,-0.0279044,0.0251326,0.0241096,-0.0128247,0.0160214,-0.0270042,-0.058537,0.00195781,0.00118471,-0.0288287,-0.0270119,0.0035095,-0.0311005,-0.0224636,-0.000647534,-0.0261678,0.0287217,-0.0472599,0.0312269,-0.0531434,-0.0529183,0.0331781,0.00653763,0.027252,-0.0339964,-0.0173748,-0.0621182,-0.0627912,-0.00838223,-0.052285,0.0208341,-0.0198028,-0.0112454,0.0239218,0.0348465,0.0376362,-0.0357596,-0.00204147,-0.00123781,0.000407999,0.00357249,-0.0189912,0.0117117,-0.0651746,-0.0193257,-0.0636601,0.0159379,-0.0232839,0.0209323,-0.00521947,-0.0679354,0.0451069,-0.0298408,0.00518822,-0.0650289,-0.0599065,-0.0253212,0.0053645,0.0091114,0.0212902,0.0038929,-0.0282604,-0.00233536,-0.0403309,0.0171768,-0.0686412,0.0196635,0.039916,0.0242488,0.0138989,-0.0521199,-0.0121509,-0.0308643,0.00972561,0.0121672,0.0279205,-0.00642832,-0.0587096,-0.0215524,0.0376409,-0.0338736,0.0164236,-0.0250746,-0.0187883,-0.0356023,-0.018756,-0.0264987,-0.0628688,-0.0369081,0.0379998,0.0315728,0.0289884,-0.0325958,-0.0675391,-0.00583228,-0.0184695,0.0176295,-0.0511132,0.00275447,-0.0390172,-0.00637631,-0.0242395,-0.0465002,-0.0558232,0.0276026,0.0319376,0.013571,0.0189386,0.0361663,-0.0390318,-0.00704165,-0.0529397,-0.0273246,-0.0338483,-0.0117578,0.0250738,-0.0400666,-0.0590856,-0.0332331,-0.0342833,0.0100686,-0.0441806,-0.0136799,0.00179491,0.040285,-0.0256196,0.0259022,-0.0156037,0.0254215,0.0376939,0.00181765,0.020473,-0.0587203,-0.0454042,0.0108667,0.0341467,0.0229603,0.00943709,0.0373123,0.00781518,-0.00364241,0.024347,-0.0271355,-0.0112013,0.0255137,-0.0019788,-0.047135,0.0401775,0.0155183,-0.0565635,-0.0445386,-0.0123749,-0.0222432,0.0240247,0.0125715,0.00336013,0.0320738,0.0172139,-0.0455923,-0.0187923,-0.0501262,-0.0360914,-0.0422624,-0.0605404,0.0187793,-0.0372986,-0.0121629,0.00318067,-0.0687793,-0.0236337,-0.0481485,0.0435183,-0.057746,0.0238854,-0.0152565,0.0413114,-0.0265695,-0.00255848,0.0292685,-0.00984265,-0.0647242,-0.0395858,0.0396494,0.000878346,0.00489983,-0.0622005,-0.0546645,0.00530875,0.0314464,-0.0579797,-0.00577504,0.0369473,0.0134442,-0.00887687,0.0208397,-0.0394975,0.022622,0.0191014,-0.0421259,-0.044952,-0.00340393,-0.0335255,0.0066507,-0.0148475,0.0387335,0.0188178,-0.0472745,0.0430087,-0.0465483,-0.0334588,-0.0645851,-0.0148849,-0.0417853,0.0151959,-0.0185746,-0.0332914,-0.0305918,0.0179545,-0.00890119,-0.0619278,-0.0215126,0.012961,0.0407616,-0.0672699,-0.0109756,-0.0407814,0.0333629,0.0413984,-0.0664278,-0.0386138,-0.0630719,0.0168017,0.0249949,-0.0629405,-0.0432592,-0.0147635,0.00735865,-0.0454918,0.0346284,-0.0289888,-0.0295418,-0.0440276,0.030815,-0.0435484,0.0140818,0.0126835,-0.0566564,0.0335921,-0.0410277,-0.0553105,-0.0237773,-0.0296448,0.0404095,-0.0527639,0.00757842,-0.0335461,0.0219332,0.0440103,0.0397387,-0.0421917,0.0258665,0.0209591,-0.0098015,-0.00815493,0.0243397,-0.0591044,-0.0425955,0.0441824,-0.0527105,-0.0408491,-0.00108643,-0.0210541,0.0243409,-0.0708876,0.0165369,0.029827,0.0416786,-0.00569571,-0.0685283,-0.00587714,0.015861,-0.0305259,0.00450816,-0.0118002,-0.0381593,-0.0126597,0.0436751,0.0219239,-0.0108076,-0.0290572,0.00533917,-0.0373263
-0.0250087,0.0225485,-0.0210666,0.0270388,-0.00677103,-0.00389613,0.0192899,-0.0125572,-0.0521496,0.0317103,-0.0537163,0.0279674,0.041948,-0.0435918,0.0236008,-0.000467066,-0.0395722,0.00754239,-0.00769461,-0.0482743,-0.0140344,0.0476,0.00869085,0.0328058,-0.00641387,0.0404599,0.024081,-0.0145319,-0.018622,-0.0601079,-0.0480415,-0.0392936,-0.000143839,-0.0079279,0.0184652,-0.0148656,-0.0265406,-0.0109968,0.0433132,0.00441,-0.0635397,-0.0100305,-0.0398557,-0.00646636,-0.0230762,0.00482407,-0.0653545,0.0215409,0.011981,-0.00225387,-0.0189983,0.0283631,0.00420535,-0.0407289,-0.00332986,-0.00165227,-0.0546938,-0.0543456,-0.0565186,-0.0150481,-0.0592263,-0.0156376,0.0477564,0.0245169,0.0211581,-0.0521171,-0.00227448,0.0121206,-0.0556584,-0.0217216,-0.00318316,0.0250987,0.0181591,-0.0116093,0.0139562,0.0405624,-0.0236496,-0.0126902,-0.0496011,0.024538,0.0359287,0.00765767,-0.0156601,-0.018537,0.00785704,0.0404675,0.034637,-0.0591882,-0.0479627,-0.0484087,-0.031653,0.0189151,-0.0408465,0.0318886,0.0121017,-0.022057,-0.0411947,0.000829169,-0.0129592,-0.064425,-0.0689926,0.0271668,-0.0240891,-0.0597319,-0.0275281,-0.0430963,-0.0421673,-0.037106,0.0234366,-0.0169608,0.00883537,-0.0296282,-0.0475135,-0.0292025,0.0386786,-0.023861,0.0425679,-0.0394218,0.0356773,-0.0340882,0.0133901,-0.016092,-0.00724812,0.00064904,0.0291419,-0.0350074,0.0354111,-0.0353607,0.019524,-0.0377918,0.0299702,-0.0233259,-0.0544443,0.0283515,-0.0399483,0.0387543,-0.0497091,0.0430692,-0.03041,0.0125424,-0.0671806,0.00231835,0.026457,-0.0627639,0.0495536,-0.00175201,0.0437491,-0.0443269,0.00605232,0.0212706,-0.0488239,-0.0439289,-0.0275296,-0.0097463,0.0198122,0.042295,-0.0644113,0.0154788,-0.0203132,-0.00110547,-0.0599953,-0.00800555,0.0294865,-0.025359,-0.0442879,-0.0488848,-0.0218469,-0.0128432,0.045103,-0.0226315,-0.0296104,0.0405397,0.0328389,-0.0444604,0.0290337,-0.0422193,0.0242457,0.00688972,-0.0670253,-0.00409003,-0.0639532,0.0162437,0.0314441,0.00267055,-0.0200412,0.0219096,0.0398605,-0.00871358,-0.051221,0.00931865,0.0122358,0.0200939,-0.0656058,0.0120047,-0.0416224,-0.0597741,0.0219374,-0.0254633,-0.0179357,-0.0424476,-0.0569612,-0.0395803,0.0396672,-0.0575862,-0.0296404,0.0303623,-0.0433094,-0.0192007,-0.0587171,0.0413443,0.00725889,-0.0216326,9.35368e-05,-0.00266599,-0.0555225,0.0336343,-0.00978864,-0.0324889,0.0146343,0.0363803,-0.0284729,-0.0186183,0.0453439,-0.0412309,-0.0570539,-0.0463618,0.015588,-0.0140273,-0.02568,-0.00590704,0.0225628,-0.0175547,-0.0510039,-0.050226,-0.0278948,-0.00979317,-0.036707,0.00567077,0.0426463,-0.0210933,0.0461463,-0.00134657,-0.0588168,0.0386625,-0.0302804,0.0137132,-4.71854e-05,0.0288399,0.00307031,-0.00844074,-0.0302676,-0.0226694,-0.0138328,-0.0512001,0.00729308,0.00540087,-0.0128013,-0.0225498,0.0245985,0.0352325,0.00416302,-0.0609662,-0.00762582,0.00872396,0.0408565,-0.0653777,-0.0575742,0.0106303,0.0399171,0.00447868,-0.00344628,0.00528256,-0.0456183,-0.0122256,0.0198518,-0.0333948,0.0259382,0.0230713,0.0116396,-0.0149079,0.00447042,-0.0437638,-0.0101093,-0.00389678,0.0141696,-0.0494674,-0.0120173,-0.0569693,-0.00606952,-0.0462245,0.0409582,-0.0505391,-0.0337735,-0.0100212,-0.0427857,0.0263769,-0.0473405,0.0151849,-0.0259175,0.042093
-0.0512984,-0.0300278,0.0321014,-0.0600009,-0.0327812,0.0024387,0.00741408,0.0331777,-0.0131652,0.0319916,0.0306396,-0.0127728,0.0043455,-0.00950755,-0.0178299,-0.0302382,-0.0162326,-0.011846,-0.020513,-0.0615311,0.0111493,-0.0452534,0.0489328,0.0166448,-0.0328084,0.00553482,0.0312468,-0.0593029,0.038254,0.0390397,-0.0351012,0.0433322,0.0424249,0.0179738,0.0418897,0.00319378,0.028897,-0.0273683,-0.0654374,0.0156994,0.0300798,-0.0574588,-0.0443345,0.00403368,-0.0438844,-0.053593,0.0416466,0.00268561,-0.0649515,-0.0543802,-0.0674392,-0.0586267,-0.049479,-0.00525359,-0.0424317,-0.0494614,-0.0530601,-0.0128881,-0.0435883,-0.0162962,-0.0469691,-0.0443453,-0.0156723,-0.0211514,0.0224002,-0.0430876,0.00574649,-0.0467746,-0.0651908,0.0394382,0.00983565,-0.0422816,-0.0536479,-0.0438123,0.00979779,-0.0499053,-0.0360922,-0.0628587,-0.0598475,-0.0157709,-0.0376753,-0.0396974,0.0097339,-0.0234105,-0.00796699,0.0420175,-0.0323219,-0.058848,0.0212818,0.00240912,-0.0542489,-0.0213979,-0.0591791,0.0248136,-0.0299712,0.0417563,0.00528211,-0.032002,0.037306,0.0383091,-0.0594063,0.0354594,-0.0517591,-0.00587558,-0.0210232,-0.00179666,-0.00417267,-0.0581816,0.0250498,-0.0284232,-0.0460817,0.0231212,-0.0321621,0.013664,-0.0087412,-0.0394367,-0.0500197,0.0362963,-0.00345475,0.0075276,-0.00706375,0.0335005,0.00553149,0.0464938,-0.00345913,-0.0564529,0.01245,-0.0521495,0.0121719,-0.0460106,-0.0435528,-0.0432675,0.0319278,-0.065686,-0.0337177,0.0458387,-0.0620077,0.0208327,-0.0292677,0.0345978,0.03263,-0.0397212,0.0199146,-0.0313364,0.00870991,0.0357594,-0.00662514,-0.0387267,-0.000154336,-0.0233479,0.0411601,-0.0172698,-0.00463373,0.0484156,-0.0369654,-0.00411741,0.0268903,-0.058049,-0.00979627,-0.0117311,-0.0332755,0.0431812,-0.0489697,-0.0394258,-0.0589236,-0.0518791,-0.000184162,-0.0175469,0.0495412,-0.0337968,-0.0230676,-0.00267045,-0.0206186,0.0261607,-0.00658765,-0.00025614,0.00912364,0.0283707,-0.0362325,0.00610109,-0.0353268,-0.0599399,0.0407411,-0.00950581,-0.00698147,-0.0450812,-0.00174618,0.0238848,-0.0297292,-0.0362679,-0.0183359,0.0350544,0.0360406,0.00674818,0.0113033,0.0253792,-0.00759302,-0.0380275,0.0300757,-0.0192117,-0.0383014,-0.0314506,-0.00624937,0.0407639,0.0316455,-0.0458399,-0.0328246,0.0104832,0.0142017,-0.0323945,0.0345776,-0.00366513,-0.0411344,-0.0646683,0.0469814,0.0427557,-0.0426311,0.020558,-0.0421528,0.0178102,0.0455044,-0.0227545,-0.0454313,-0.01935,0.0486683,-0.0172723,-0.0226493,-0.0238907,-0.00371599,-0.00979454,0.0346802,0.00704987,-0.0610075,0.00746007,-0.0171275,0.003489,-0.0182535,-0.0572291,0.0262443,-0.0126778,0.00374365,-0.042211,-0.0411005,-0.0291024,0.0222383,-0.035836,0.0465552,0.0152627,-0.0352678,0.0033064,0.0228522,0.00969623,0.0187785,0.0181889,0.0141576,-0.00995777,0.0376927,-0.00591166,0.00201793,-0.0150905,-0.0282496,-0.0667837,-0.0342339,-0.0133073,0.0489685,-0.0442663,0.024854,0.0206911,0.00392278,-0.0207642,-0.064353,-0.017876,-0.0295936,-0.053057,0.025874,-0.0327542,0.0255108,-0.0162925,0.048711,0.0263785,-0.0220867,-0.0120951,0.0293489,0.0311086,0.0066622,0.00694811,-0.00504865,-0.0178833,0.0130769,-0.0265021,0.0390581,-0.0626378,0.00145712,-0.0101594,-0.0475616,-0.0305465,0.0352533,-0.0619185,0.0214114,-0.0107599
-0.00615,-0.0209592,0.0452911,-0.00406084,-0.00538309,-0.0605948,-0.0603,-0.0603597,-0.0553386,0.0257856,0.0389189,-0.000184782,0.03632,-0.0517587,0.0325398,-0.057254,0.0382602,0.0294695,-0.0335168,-0.0154277,-0.00878159,-0.0127015,-0.0148076,-0.0462547,-0.031648,0.0399532,0.0423973,-0.0485827,-0.0300379,-0.0106926,-0.0601214,0.0450915,0.00638363,-0.0360289,-0.0572301,-0.0573412,0.0443731,0.0330131,0.00698956,0.0157104,-0.0209907,0.010227,-0.0198331,-0.0251,-0.0377206,-0.0438843,-0.046844,-0.0558174,0.0104198,0.0137778,-0.0153092,-0.0143444,-0.0259068,-0.0352673,-0.0388617,0.00678194,0.0168535,-0.0489741,-0.00955506,0.0432847,0.0379894,-0.0119571,-0.0100641,0.0148752,-0.0370738,0.0190204,0.0226167,-0.048988,0.0245949,-0.0239101,-0.0255737,-0.0258218,0.0312774,0.037929,-0.0252886,-0.0477844,0.0492434,0.00250377,0.0235862,-0.0444178,-0.00449242,0.00802402,-0.00847552,0.000187858,0.00399757,0.0197201,-0.0270169,-0.0452065,0.0341279,0.037302,-0.0626533,-0.0112439,-0.0332043,-0.0574186,0.0388631,-0.0154525,-0.0566385,0.00211441,-0.0200259,-0.0392844,-0.0617252,-0.0643179,0.0250421,0.0316983,-0.00421309,0.0476022,-0.0141692,-0.00281822,-0.0430608,0.00248172,0.0164818,-0.0649249,0.0164648,-0.000496189,-0.0445142,-0.0296858,-0.0510381,-0.0478909,-0.0479657,-0.0185177,0.0227903,0.0444588,0.045105,0.00999884,-0.0593904,-0.0305941,0.035408,0.015515,0.0147189,0.01233,-0.0585074,-0.00840914,-0.0303547,-0.0654132,0.0363311,-0.0259968,0.0400416,-0.0321154,-0.0273924,-0.0406174,-0.0434502,0.00818601,-0.0497456,-0.034762,0.00116477,0.0463712,-0.067545,-0.00492676,0.00493895,0.00665528,-0.00333805,0.0484538,-0.0411521,0.00444353,0.0153136,0.026532,-0.0582594,0.0137494,0.0226546,-0.00684936,-0.0416447,0.0124461,-0.0339076,0.0466879,-0.0177683,0.0210626,-0.0169818,0.00103394,0.0421832,0.0163233,-0.0106185,0.0350418,0.0183419,-0.037835,0.00804506,-0.0201336,0.0130287,0.0111386,-0.0550883,0.0111309,0.0272443,-0.0235231,0.0406511,-0.0199724,-0.000738275,-0.0410106,-0.0237813,-0.0270896,-0.0658654,0.0108789,-0.0466473,0.00871572,0.0408582,0.00171988,0.0181605,-0.00229747,-0.0423759,0.0329707,-0.0635275,-0.0382085,-0.0599606,-0.0387581,0.0225879,0.0198806,-0.0114154,0.00387077,-0.0534638,-0.0404039,-0.0391174,-0.00365612,-0.00127486,0.0432831,-0.0338908,-0.0551524,0.0226247,-0.00700849,-0.0212139,0.0145116,0.00858577,-0.0419065,-0.0121487,-0.0185853,-0.0349362,-0.0251163,-0.0575083,-0.020133,-0.00469787,-0.0139953,-0.0274653,-0.017852,-0.06703,0.0347521,0.0388184,0.0207077,-0.00380726,0.0276691,0.0360906,-0.0564403,0.0258857,0.0409144,0.0478386,-0.013234,-0.0370653,-0.024635,-0.0546205,0.00624152,0.0248401,0.00109874,0.0365387,-0.0376505,-0.0359522,0.0483116,-0.0430851,-0.0381529,0.0133778,0.0285009,0.0471828,0.0325277,0.0321827,-0.058232,-0.0383547,-0.00952387,-0.0287082,0.00187835,-0.0297554,-0.0226828,-0.0549509,-0.0323531,-0.0427767,-0.0561975,-0.0235934,-0.0522095,0.0340607,0.0346785,0.0452466,-0.0388486,-0.0591987,-0.0642367,0.0414624,0.0339008,-0.0554287,-0.0458211,0.00450958,0.0459407,0.0221133,-0.0351757,-0.0277053,-0.00917767,0.00340773,0.0495256,-0.0498268,-0.0694915,0.00246554,-0.0502468,0.0209635,-0.0539869,-0.0214506,0.0469961,0.0155934,-0.0435126
-0.0357887,-0.0440796,0.0319489,0.0201261,-0.0627949,-0.045697,-0.0265809,-0.0472847,-0.0235039,-0.0412045,-0.0425607,-0.0191941,-0.0526184,-0.0484072,-0.0397216,-0.00818645,-0.0103478,-0.0230348,-0.0550756,-0.0441603,-0.0143412,0.0317561,-0.0648627,-0.0668141,-0.0613522,-0.0318667,0.0459199,0.00763265,0.0427065,0.0104314,-0.0110763,-0.0619745,0.0360932,-0.0364715,-0.0247292,0.0191912,-0.00128223,0.00798691,0.0345372,0.0121708,0.0347825,-0.0478988,-0.0371258,-0.034275,-0.0300466,-0.0180005,-0.0389577,-0.0292192,-0.0146771,0.0375584,-0.0593593,0.00336109,-0.0285522,0.0205847,-0.0232932,-0.0144141,-0.022676,-0.00368001,-0.0433873,-0.00586947,0.0300827,0.0175717,0.0508942,0.014794,-0.0270342,-0.0128812,0.0217486,0.0248047,-0.0661072,0.0416486,-0.034504,-0.00499412,-0.0507818,0.0269339,-0.0451767,-0.0280188,0.000546906,-0.0598109,0.0385428,-0.0623049,0.0025597,-0.0456763,0.00662333,0.00788711,-0.0606899,0.0258207,0.0334568,-0.0229564,0.00679617,-0.0343725,-0.0454132,-0.0141397,0.00937498,0.0224749,-0.00901563,0.0460146,-0.0609058,0.0493929,0.0425751,0.00452783,0.0399423,0.0178128,-0.0267329,-0.0205822,0.00719261,0.0487246,0.0125353,0.0119598,-0.0666913,-0.0108002,-0.0621321,0.00433181,-0.00489446,-0.0118687,0.0462377,0.0210913,0.0109063,0.0438244,0.0243331,0.0123947,-0.0607378,-0.0178111,0.00652493,-0.0066993,0.0211539,0.0326617,-0.0664028,0.0152202,-0.0263226,0.0338098,0.042171,-0.0158294,-0.0231574,0.0213531,-0.010812,0.0316049,-0.013449,-0.0458465,0.0475982,0.0390809,-0.000361826,0.0355015,0.0142763,-0.0623289,-0.0516865,0.0460497,-0.0450155,-0.0577803,0.00736842,-0.0499095,0.0375704,-0.00727948,-0.0581382,-0.0316484,-0.0594437,0.0408574,0.0211971,-0.0125487,0.0352541,0.031211,-0.0149384,0.0301227,-0.0584158,0.00813977,0.0448167,-0.0354209,0.00959147,-0.0196088,0.0171761,-0.020001,0.0419983,0.0208025,-0.0317582,0.029644,-0.0501036,-0.0587629,-0.0326935,0.00786354,-0.0151153,0.037268,0.0161376,-0.0329423,-0.0314182,0.045636,-0.0241561,-0.000808981,-0.00768165,-0.0655995,-0.0271724,-0.0278131,0.0361919,-0.0101395,0.0172235,-0.0274018,0.0382585,-0.0538033,-0.0361855,-0.00910526,0.0211701,-0.0656274,-0.0615975,0.00382538,-0.048997,-0.0390296,0.0458939,-0.0258915,-0.0296977,-0.0607521,-0.0501933,-0.048337,-0.0416866,-0.0257048,0.0075459,0.0317952,-0.0636228,-0.00466682,-0.00537986,0.00450557,-0.0175947,-0.00984753,-0.0248984,0.0421377,0.000240242,-0.000288148,0.0395612,-0.0060889,-0.0308614,0.0409901,-0.0588313,0.0496524,0.0164124,-0.0650107,-0.00882457,0.0221975,-0.0344171,-0.0454933,-0.000343793,0.0270538,0.0168814,-0.0449817,0.0475825,-0.00701989,0.0342667,-0.0557325,-0.00361761,-0.0193163,-0.042965,0.0137932,0.0466186,-0.069199,-0.0408345,-0.0569646,0.0171642,0.0331169,-0.0645702,-0.0165868,-0.0054759,-0.0227289,0.00862536,-0.0283417,-0.0179347,-0.042601,0.0340678,0.0221629,-0.0164638,-0.032003,-0.0157949,0.00320807,-0.021436,0.0192466,0.0239372,-0.00415879,-0.0200322,0.00839174,-0.0484449,0.009821,-0.0617917,-0.0248991,0.0352843,0.00868012,-0.0386548,0.0432729,-0.0144602,-0.0271619,-0.0446542,-0.0475578,-0.0251785,-0.010676,-0.0128835,0.0338298,-0.0639112,-0.0616016,0.0469838,-0.0356656,-0.0215821,-0.0232852,0.0201836,-0.0585891,-0.0136286,0.0260603
-0.0149169,-0.0179776,-0.0529976,-0.0391188,-0.0575825,-0.0320754,0.0311303,-0.0145124,-0.029825,-0.0509191,0.0330844,0.0404107,-0.0261784,0.0480087,-0.0124547,0.024796,0.0178676,-0.0618658,0.00837743,0.0279813,0.0247863,0.0387183,0.0103849,-0.0356211,0.00344555,0.00265137,0.0222888,-0.0383684,-0.0554797,0.0337888,0.00778859,-0.0229097,-0.0120765,-0.0595371,0.0467801,-0.0358528,-0.0562102,-0.000856527,0.0015241,0.0301084,0.0176112,-0.0261429,0.00164577,-0.0592903,0.00465203,-0.0129199,-0.0118479,0.00597649,0.00673154,-0.0280337,-0.040025,-0.0201868,-0.00773255,-0.0638985,0.0200573,-0.014114,-0.0660014,0.00556199,-0.0454624,-0.0160715,0.0306438,-0.0353904,0.0427452,0.0153226,0.0360029,0.0201456,0.0359908,-0.0592154,-0.0413246,-0.0132572,-0.0183642,-0.0543384,0.0238708,-0.0207941,-0.0107684,0.0342628,0.0324655,-0.00331246,0.0412819,-0.0320024,-0.00512088,-0.00486666,0.00461157,-0.029205,-0.000384553,0.015352,0.036634,0.0130286,-0.0542457,-0.0466874,0.0266968,-0.0529576,-0.000347467,0.00094669,-0.0613384,0.0465098,-0.0609471,-0.0154957,-0.0219611,0.0011429,0.0139654,0.0280141,0.0238563,0.00934604,-0.0329943,0.00878212,0.0166312,-0.0505498,0.0408963,-0.00181786,-0.0180516,-0.0407514,-0.045974,-0.0235161,-0.053742,-0.0476997,0.00353175,0.022574,-0.0318493,-0.0244764,-0.0138784,0.0181325,0.022001,0.0170399,-0.027845,-0.0563303,0.0101666,-0.0060641,-0.024763,-0.0307345,-0.0628148,0.0192463,-0.0101602,0.0260103,0.0109659,0.00882668,0.00852265,0.019942,-0.0623449,-0.0552376,-0.0539454,0.0137933,0.0309892,0.0114382,-0.0157083,0.0213042,-0.0326921,0.0316073,-0.0582087,-0.02279,-0.0060254,-0.00739668,-0.0403662,-0.0600467,0.0413634,-0.040186,0.00419499,-0.0355986,-0.00256841,0.0412732,-0.0609751,-0.0314218,0.025089,-0.0115998,0.0352249,-0.0227775,0.0232116,0.00513871,-0.0353013,-0.0390322,-0.0296936,-0.00755078,-0.0346021,0.00753191,0.0458681,0.0294939,-0.0472321,0.0280789,-0.0298866,0.0463888,0.0273791,-0.0202483,-0.0559739,-0.0335121,0.031752,0.013079,-0.0141946,-0.0440896,-0.0372387,-0.020707,0.0394096,0.0380368,0.0230225,0.0235723,-0.000572925,0.00352263,0.0196255,-0.00108446,-0.0537089,0.0350139,0.0245288,0.00854809,-0.0418337,0.0331798,-0.0631473,-0.0338721,-0.0222208,0.0169213,-0.0336931,-0.0635934,-0.0486061,-0.029711,-0.0543699,-0.0542361,-0.0397391,-0.0396453,-0.0567284,-0.0565827,0.0242024,-0.0597767,-0.0158297,-0.0635282,0.0497399,-0.0129501,0.0459331,-0.00424036,-0.0259417,-0.019317,-0.0512751,0.0291073,-0.00198249,-0.0373836,0.032635,-0.00275774,0.0471113,0.0392803,-0.0620717,-0.0660357,-0.0394358,0.00977947,-0.00263277,-0.0579661,0.0500023,-0.0255781,-0.0266277,0.0314839,0.0191094,0.010225,0.0117963,-0.064536,-0.0632946,-0.0649278,0.00294075,0.0313804,-0.0637982,-0.0494662,0.0354613,-0.0444216,-0.0121529,-0.043433,0.0129643,0.00016075,0.000906666,-0.0195922,-0.00792101,0.0201647,-0.0136037,0.0285396,-0.00122596,-0.0414461,-0.0346264,-0.0554091,-0.0268218,0.029923,0.00506761,-0.0462178,-0.0119545,-0.00329058,-0.0611357,0.0467037,0.0408782,0.0389457,-0.0281113,-0.0475425,-0.0659321,0.0310454,0.0452715,0.0103468,-0.00275393,-0.0618418,0.0138999,-0.0317954,-0.00874504,-0.050322,0.0421477,0.0386246,0.0204948,0.00598821,0.0382239,0.00779735
-0.0514885,-0.0293956,-0.0147154,-0.0445881,0.0232285,0.0199939,0.0140319,0.0425178,0.028995,0.0437797,0.0365663,0.00199252,-0.0497993,-0.023009,-0.0284052,0.0249429,-0.00951535,-0.0625622,-0.0127373,-0.0603241,0.0268016,-0.023578,-0.0616756,-0.0578902,0.00300207,0.0349093,0.0488094,-0.0555712,-0.0400426,-0.0613245,-0.00656772,-0.0457106,0.0167861,-0.0266719,0.0475334,-0.0374485,-0.0431141,-0.0024958,-0.0688709,-0.0296068,0.0311783,-0.0401194,-0.0406549,0.0460761,-0.0117569,-0.0546163,-0.030937,0.017003,-0.0112603,-0.0440921,-0.0391372,0.00378419,0.00673554,-0.0402803,-0.0241368,0.0416713,0.00865714,-0.0528592,0.0190356,-0.0452667,-0.00307623,0.00662057,0.016932,0.000536333,0.0178048,-0.0554866,-0.0645871,-0.060006,-0.0180484,0.0220688,-0.0484843,0.0167812,0.0143287,0.0242877,0.0408872,-0.0597059,0.0365731,-0.0196558,0.0460198,-0.0458169,-0.0283196,0.00402501,0.0245764,0.0110054,0.0172246,-0.0589765,0.0276914,-0.056531,-0.00758416,-0.0568487,0.0171206,0.025156,-0.0422153,0.0337104,0.0407948,-0.0504175,-0.023244,0.0238724,-0.038709,0.019562,-0.0190691,0.0264041,-0.0323011,-0.0582437,-0.0449477,-0.0453048,0.00627601,0.0133882,-0.0566763,0.0331533,-0.0554261,0.00323873,-0.000271757,0.00325317,0.00845008,-0.064759,-0.0591869,-0.0707352,-0.00538377,-0.0441385,0.0232021,-0.0530888,0.0230798,0.0361838,-0.0472362,0.0454929,-0.00587316,-0.0623058,-0.00311366,-0.0645614,-0.0385128,0.0202848,0.0287036,-0.0295826,-0.0657526,0.018273,-0.0665061,-0.0430289,0.0310621,-0.0436046,-0.0481083,-0.0192663,0.0203723,-0.0284573,0.0274342,0.00149368,-0.0175162,0.0281143,0.042937,-0.023287,0.0120919,-0.0141062,-0.0538033,-0.040539,-0.0435611,-0.00699568,-0.0085942,0.00301952,-0.0418122,-0.0530927,-0.0302476,-0.00912381,0.039042,0.0457068,0.0265871,0.0352142,0.0237698,0.0247691,0.0262298,-0.0494365,-0.0357159,-0.0221586,0.0448563,-0.0246443,-0.0285725,-0.0170673,-0.0106269,0.00260394,-0.0180834,0.0089913,0.0442939,0.01636,-0.00598404,0.0181896,-0.0166365,-0.0410873,-0.0237318,-0.0630379,0.0450971,-0.0472862,0.0152098,0.00377445,-0.0448209,-0.015765,0.0116523,-0.0288348,0.0155149,-0.0520431,-0.0471622,-0.0344031,0.014585,-0.0164663,-0.0294411,-0.0140079,-0.00827644,-0.0480211,0.0181153,-0.0078099,-0.011746,-0.0117577,-0.0135877,0.0136759,-0.0308892,-0.0373589,0.0055899,0.000532351,0.0397958,0.0390504,0.0242258,0.0277469,-0.00927645,-0.0671247,-0.040469,-0.00696718,0.0134502,-0.060363,-0.00356001,-0.0258989,0.0346485,-0.0604976,-0.0641058,0.0391,0.00829046,-0.0154351,-0.0169103,-0.0384004,0.00131159,-0.0103211,0.0401346,0.045109,-0.0539041,0.0416939,0.00366748,0.0251861,-0.0552562,0.0461943,0.0346637,0.0480923,-0.0587311,0.0203803,-0.0164288,0.0328923,-0.0659715,0.0318793,-0.0367676,0.0110998,-0.0122116,0.00563841,-0.0252595,-0.0192888,-0.0144584,0.0161692,-0.059357,-0.0387115,-0.0322383,-0.0381936,0.0331276,-0.0211705,-0.0500864,-0.019335,0.00598482,0.0219066,-0.0483795,-0.0565164,0.0410453,0.0319039,-0.00516061,-0.0111102,-0.061275,0.0167824,0.0333202,0.0198822,0.00900816,-0.0372547,-0.050627,-0.0297781,0.0448677,5.27105e-05,-0.0427892,0.00971906,0.00172915,-0.0443311,-0.00431781,0.0375587,-0.0410012,0.0270787,0.0240445,0.0265696,0.0144418,0.0188709
0.0184311,0.0166422,-0.0597373,-0.00381879,0.0416643,0.0230498,-0.0664456,-0.0613929,0.0127053,-0.0335805,-0.0394554,0.0123851,-0.0350846,0.0231401,0.0313331,0.0316755,0.00743873,-0.0324811,0.00825131,-0.0334989,-0.0531568,-0.0100251,0.00757903,0.0154204,0.0317641,-0.0323316,-0.0552262,0.0321402,-0.0566524,0.0149825,-0.0176538,-0.0617682,0.0197503,-0.0157757,-0.0523214,0.0224657,0.0117866,0.0356504,0.0127429,-0.0194573,-0.0156148,-0.0122232,0.00850968,-0.0440619,0.00965816,-0.035581,-0.00987692,0.00061909,0.0196144,-0.0407231,0.00770451,-0.0310208,-0.061204,0.00703408,0.0208634,-0.049441,0.0404834,-0.0642388,0.0307604,-0.0289028,0.0369577,-0.0703841,0.0320234,0.0362854,-0.0571962,0.0128027,0.0166816,-0.0225969,0.0393757,-0.0383794,0.0137292,-0.00107459,0.0439634,-0.0649813,-0.0353161,0.00147031,-0.0552323,0.0420477,-0.0600609,0.033836,-0.0609079,-0.0411583,0.0127769,0.0431857,-0.0384365,-0.042441,0.0320782,0.0144318,-0.0533886,0.00661304,-0.00461359,0.0344849,-0.0480548,-0.0327994,-0.0202091,-0.0634909,0.0423599,-0.051845,0.0432763,-0.0197645,-0.0304187,-0.0442271,0.00255602,-0.00669857,0.00315901,0.0450332,-0.0390971,-0.0470678,0.0334662,-0.0517962,0.0377213,-0.0606037,-0.0187437,-0.0554018,-0.035152,0.0250423,-0.0350228,-0.0248841,0.0196823,-0.0384975,-0.0088369,-0.0615032,0.0149463,0.039731,0.0320137,-0.0126095,0.0410045,-0.0670563,-0.0490503,-0.0660012,0.0377258,-0.0419922,-0.0229155,0.0351339,0.0295334,0.0435882,0.0266388,-0.0479519,0.0352601,0.0231493,-0.0559239,0.0310967,-0.032279,0.0225913,0.0382349,-0.0479487,0.0220301,0.0277377,0.0242205,-0.0581914,-0.0643335,-0.0235612,0.0262326,-0.064844,-0.0296986,0.0245973,0.0197428,-0.0249983,-0.00605534,-0.0241532,-0.0079159,0.0329441,-0.05042,0.00777852,-0.0423321,0.0116622,-0.0541533,-0.0310806,0.03114,-0.0108172,0.0220939,0.00670892,-0.0122041,0.00739704,0.0329754,-0.00504039,-0.0613036,0.0363501,0.0171747,-0.0327916,-0.0394714,-0.0607264,-0.061611,0.0205399,-0.055222,-0.0327265,0.0445536,-0.0254056,0.0153982,-0.0219984,0.0322876,-0.0428429,-0.0494748,-0.0633789,-0.00652833,-0.0459917,0.0126164,-0.0121862,-0.0036272,-0.035735,0.0274643,0.00651158,0.019188,-0.0504275,-0.0106754,-0.0666064,-0.0457758,-0.0671055,0.0169665,0.00037563,-0.060443,-0.0495013,-0.00241849,-0.0578145,-0.0207588,-0.0396323,-0.00392964,-0.00726852,0.00200735,-0.0189893,-0.000553977,0.0365082,0.00799969,-0.0230488,-0.0556567,0.0276757,-0.0248249,-0.00042677,-0.0320946,-0.0494529,-0.0124784,-0.00848412,-0.0118357,0.00594926,-0.0386151,0.034052,-0.0172139,-0.054261,0.0144538,0.0383684,-0.0271307,-0.0193137,-0.000656698,0.0119146,-0.0359994,0.00860058,-0.00102617,0.0327037,-0.04049,0.0443424,0.0210725,0.0084428,-0.0549847,-0.0660187,-0.0709841,0.0280147,0.0363809,-0.0279806,-0.019132,0.00379483,-0.0656024,0.0395916,-0.029617,-0.00461789,-0.0181295,-0.0596533,-0.0253528,0.00249705,0.0259536,-0.0031079,-0.0356706,-0.0340252,0.0420356,-0.000268101,0.0474024,-0.0322538,0.0467149,-0.0386745,0.00653011,0.0418486,-0.00206196,-0.00382944,-0.0272305,-0.0482068,0.00268306,0.0162544,-0.0299947,0.026462,0.00642796,-0.0491204,0.00725306,0.0184879,-0.0624967,0.0298002,-0.00964261,0.0431844,0.0348233,0.0440651,-0.0506434,-0.0145513
-0.0246517,-0.0531836,0.0383899,-0.0508927,-0.0545967,-0.0597515,-0.00922856,-0.0150113,-0.0484191,0.0246645,-0.0574745,-0.0032737,-0.00700617,-0.0214026,-0.0142513,0.044692,0.000314982,0.00856951,-0.029941,-0.0392726,0.00982915,0.0063604,-0.00301285,-0.0631721,-0.0280837,-0.0444503,0.0464237,-0.0390865,-0.0458083,0.0441363,-0.025126,-0.0458922,0.0317899,0.0264271,-0.0347239,-0.0643544,-0.044412,-0.0276111,-0.0254729,0.00494051,0.0317353,0.0119848,-0.0393709,-0.020192,0.00573474,0.0279774,0.0133762,-0.0399455,-0.0483891,-0.0400555,0.00373919,0.0194054,0.0028807,0.0148363,-0.0291267,0.0297187,-0.0369661,0.00277182,-0.0221113,0.0194855,0.0338312,-0.0330262,0.0442034,-0.0441395,0.00940909,0.0336114,-0.050483,0.021715,-0.0397618,0.0223128,-0.058458,0.043376,-0.0338868,-0.0181917,0.0017041,0.023008,0.0445533,0.0125072,-0.00944571,0.022299,0.0463668,-0.064125,0.0108593,-0.0671959,-0.0253902,0.000149014,0.0354278,0.0253798,0.00558926,-0.0203421,0.0411435,0.0329154,-0.0533182,0.0134657,-0.0227277,0.0115839,0.0136749,0.0211546,-0.050985,-0.0162117,0.0419276,0.00764287,0.0341934,-0.0410017,0.0292605,0.0374581,-0.0153388,0.0162149,0.024096,0.0420117,-0.0356557,-0.00694236,-0.0402547,-0.02623,-0.00197728,-0.00310493,0.0064244,-0.0683838,-0.000336112,-0.0100221,-0.000419069,0.0413709,-0.000100083,0.0109469,-0.0444394,-0.0426637,-0.0263717,-0.00920633,-0.00314839,0.00922249,0.034501,-0.0491688,-0.0161191,0.0152343,-0.0633055,-0.0212473,-0.00048926,-0.0489687,-0.0278503,-0.0318,0.00669012,-0.0300997,-0.0161782,-0.00378287,0.00239965,-0.0483817,-0.00727581,0.0131301,0.0468251,0.0244544,-0.0665599,0.0435385,-0.022954,0.0133727,-0.00985432,0.0376657,0.00433595,-0.0138124,0.022651,-0.046981,-0.00336055,-0.025431,0.0272523,0.00938183,0.0180625,-0.0411236,-0.0412577,-0.0176584,-0.0228428,0.00252519,-0.0474384,0.00349102,-0.0606368,-0.0584132,0.0167675,-0.0230279,-0.0357898,-0.0276208,-0.00790214,0.0390926,0.041046,0.0288534,-0.0350591,-0.0614913,0.00492241,0.0364765,-0.0566478,-0.0482988,0.0441621,-0.00932549,0.0190462,-0.00907016,-0.0332902,0.0151975,-0.0181343,-0.0638032,0.0332457,0.0312357,-0.0171021,0.0140232,-0.0342188,0.0272133,0.0289528,-0.0633944,-0.0557401,-0.0628762,-0.0668489,-0.0143144,-0.0461582,-0.0384216,0.0275604,0.0163226,0.00716813,0.0127855,-0.0413253,0.0244279,-0.0469743,-0.0413666,0.0259774,0.0187464,-0.0643553,-0.0137716,-0.0462515,-0.049074,-0.00950459,0.0253811,-0.0330255,-0.023733,-0.0421687,-0.0642879,-0.00674051,-0.00680172,0.0113094,0.0426673,-0.0628141,-0.0323817,0.0426542,-0.0434974,0.0146154,-0.0135882,0.029859,-0.0516143,0.0392125,0.0132919,0.00797989,-0.0410457,0.0124088,0.0368885,0.00544,-0.00370475,-0.041666,-0.043219,-0.0405989,-0.017146,0.000346119,-0.0580375,-0.0411755,0.010861,-0.0152909,-0.00464294,-0.0575458,-0.0595175,0.00175101,-0.0618949,0.0272994,-0.0580121,-0.0088883,-0.0333586,0.0143998,-0.0239318,-0.0603706,0.0334678,0.0100546,-0.0416978,-0.0441333,-0.0147583,-0.0106926,0.0194744,-0.00245044,-0.060514,-0.00217908,-0.023439,0.0400195,0.0107619,0.0133568,-0.0276781,0.0358096,0.0231783,0.0477123,-0.0448777,-0.0564343,0.019694,-0.0299555,-0.00115714,0.00809686,-0.0130337,0.0311477,-0.0440848,-0.0582077,0.0435202
-0.00117815,0.00846316,-0.022681,-0.0167452,0.0377108,0.0134835,0.000311745,-0.0135825,0.0108402,-0.0208602,0.0351358,-0.00346362,0.00230037,0.027659,-0.014134,0.0135142,-0.0604713,0.0183185,-0.00743363,-0.0270048,-0.0239385,0.0178335,0.0116426,0.0276965,0.0445281,-0.010471,0.00444436,-0.0529272,0.0187248,0.0242445,-0.00105831,0.0194248,0.000506309,-0.0541441,-0.0235957,0.0455545,-0.0119825,-0.0380809,-0.0124353,0.0293416,0.0420635,-0.0192193,-0.0311627,0.0101021,0.0386343,-0.00169782,-0.00823666,-0.00819711,-0.050827,-0.0679225,0.0116092,-0.0420582,-0.0641386,-0.0648581,-0.0630077,-0.0267857,-0.0214315,0.0203954,0.0430179,-0.0640861,-0.0465726,-0.00214384,-0.0400476,-0.0631095,-0.0515162,0.026567,-0.00963119,-0.0245381,-0.046015,-0.0630674,-0.0138747,0.0170108,-0.00192598,-0.0684789,0.0315962,-0.0373283,0.0241736,-0.0551662,0.03201,-0.0146759,-0.0514644,0.0340952,-0.0669485,0.0249403,-0.0216451,-0.0444527,0.0425669,-0.0637048,-0.012752,0.0457578,-0.00701826,-0.0317281,-0.0137332,0.0231901,0.0176563,-0.00825301,-0.032935,-0.039602,0.00503569,0.00576252,-0.00157053,0.026487,0.00899404,-0.00113938,0.0345547,0.0478099,-0.0311166,-0.00460527,-0.0684417,0.0407785,0.0118635,-0.034985,-0.0578468,0.0244591,-0.0158479,-0.0511096,0.0322704,-0.0387621,0.0239122,-0.064499,-0.031457,-0.00981455,-0.0507653,0.0397795,-0.025522,0.00301789,0.0248398,-0.023764,0.0393598,-0.017462,0.024036,0.0129473,-0.0524627,-0.0284396,0.0316221,0.0145081,0.0132264,0.0456092,-0.0619875,-0.0618479,-0.0551958,0.0422462,0.00736,-0.0542814,0.0168351,0.00767959,0.0392047,-0.0680204,-0.0207313,-0.00806763,0.0074875,-0.0494565,0.0161831,-0.0335869,0.0440662,-0.0633411,-0.0526947,-0.0673376,-0.0165708,0.00188082,-0.00941966,0.0077424,-0.0244614,-0.0412426,-0.0182335,-0.00381561,0.0422149,0.0011205,-0.00555975,-0.0513397,-0.0182153,-0.00534273,0.0226047,-0.048208,-0.0308226,0.0133054,-0.0271086,-0.0473951,-0.0651555,0.0165376,-0.0133431,0.0334149,0.0158441,0.0327498,-0.0398781,-0.0239936,-0.0547533,0.0226444,0.0328445,-0.0539538,-0.03761,-0.02693,-0.0391987,-0.0319594,0.0359571,0.00798454,-0.0444264,0.0401712,-0.0679542,-0.0113114,-0.026931,0.0423295,-0.0524513,0.0302181,-0.0081652,-0.0275415,-0.00863378,0.0370198,-0.00313701,0.0355501,-0.0661553,-0.0607583,0.00177345,0.022755,-0.0120478,0.0200533,0.0378443,-0.0236953,-0.00767957,-0.0399655,0.0272914,-0.0228066,-0.0056421,-0.0496026,-0.00759458,0.0388283,-0.0384591,-0.0325345,-0.0525782,-0.045431,-0.0427132,-0.00360484,-0.0614738,-0.0207187,-0.0565944,0.00421257,0.0439458,0.0443431,0.014715,0.0380066,-0.0636621,0.0376788,-0.0368045,0.0405747,-0.0177596,-0.00876428,-0.0550142,-0.0174889,-0.00405763,-0.0332068,-0.0464627,0.0247848,0.00980988,-0.0538864,-0.0179682,-0.0149656,0.0204384,-0.0613125,-0.0352739,-0.0426358,-0.0310584,-0.0641912,0.00681268,-0.010114,-0.0214937,0.0284012,-0.0166917,0.0455621,-0.0649213,-0.0415294,-0.0288928,0.00555969,-0.0475675,0.0213912,-0.0475957,0.0306326,0.029997,-0.0375696,0.0324588,0.0135467,-0.0586922,-0.0562218,0.00543948,-0.0238249,-0.0250701,-0.0197911,-0.00881078,0.0289143,-0.0553561,0.0473768,0.00832877,-0.0208323,-0.0188693,-0.0486887,-0.0316569,-0.0511876,-0.0125465,0.0197064,-0.0539791,0.037677
-0.0486003,0.00643866,0.0379661,-0.00255489,0.0133314,0.0358489,-0.0458717,-0.0214982,0.0149075,-0.00681373,-0.00358454,0.0354305,0.00294134,-0.0621888,0.0251572,-0.066388,0.0126179,-0.00397781,-0.0237948,-0.0268176,0.0359753,-0.0541747,-0.0053205,-0.00725603,0.0304219,-0.0657105,-0.0485169,0.0294142,-0.0164425,0.0335265,0.0127296,-0.0641562,0.0223584,0.0382738,0.00378014,-0.0341034,-0.0258127,-0.0480834,-0.0535135,0.0384994,-0.00650058,0.0274696,0.0042279,0.0330386,-0.0333349,-0.0302779,-0.0546417,-0.0473222,0.0277008,-0.0338763,0.0359622,0.00669968,-0.00610445,-0.0103735,-0.0273568,-0.0248881,0.0341925,0.0131279,0.0260464,0.0151907,0.0142283,-0.0276177,-0.0272656,0.0262936,0.00495151,0.0272789,-0.00315899,0.00138052,-0.0107072,-0.0423161,-0.0513356,0.0360932,0.0329902,0.0275465,-0.0341381,-0.0297777,0.0431019,-0.0574468,-0.0326407,0.0038655,0.0361515,-0.0505458,-0.0494047,0.0177011,-0.0580453,-0.0683123,-0.0203819,0.0137138,-0.0274367,0.00344266,-0.0169539,-0.0376599,-0.00901644,-0.0599346,-0.0264126,0.0438888,-0.0438293,-0.0176893,-0.0272479,-0.0637776,-0.00369974,-0.0163602,-0.0700208,-0.0209221,-0.0611241,-0.0530821,-0.0366078,0.035053,0.0393051,0.034272,-0.0220929,0.0356321,0.00346003,0.0122963,0.0100631,0.00757766,-0.0515229,-0.0706091,0.0137036,-0.0176717,0.0433887,0.00144201,0.0146223,0.0282704,-0.019699,0.0376101,-0.055065,-0.0101751,-0.00757584,-0.0538626,0.0282888,0.0307882,0.0308579,0.0218299,0.0290246,-0.043178,0.0463086,-0.0617084,0.0385951,-0.0635771,0.035939,-0.0582794,-0.0478755,-0.0237361,-0.0556907,0.027169,0.0308748,-0.0193766,0.00381447,-0.039273,-0.00233159,0.0475752,-0.0384454,-0.0365732,-0.0244127,-0.0527893,0.019288,-0.0344391,-0.0450266,0.00907716,0.0344622,0.0387631,0.0104648,-0.0414469,-0.00100403,0.0172492,0.0111374,-0.0649091,0.0186945,-0.0303794,0.0086716,-0.0666902,0.0290532,-0.0178525,-0.00546088,-0.0704088,0.00252997,-0.0636417,0.0454759,-0.000386788,-0.0180285,0.00989861,0.0329889,-0.0457942,0.0239871,0.0385087,-0.00938392,-0.0678409,-0.0172151,-0.0171846,0.0175263,0.0197033,0.00124049,0.0392886,-0.0193971,-0.0587069,-0.0168749,0.0434962,-0.0594177,0.00241555,-0.060861,0.0285295,-0.0110049,0.0069303,-0.0631509,0.000747658,0.00679765,-0.0213453,-0.0558649,0.0100901,-0.0506129,-0.0395184,0.0342046,0.0405139,-0.0263809,-0.0679278,-0.0265308,-0.0652733,-0.0431436,-0.0210931,-0.0109289,-0.0636879,0.0192031,-0.0100823,-0.0564681,-0.0119604,-0.0139809,-0.00693813,-0.0273165,-0.0304952,-0.0154804,0.0349159,-0.0512104,0.019613,0.0152419,-0.0591139,-0.0394667,0.0145753,-0.00208061,-0.0610305,-0.0623824,0.0225871,-0.0266033,0.00435957,0.0361615,-0.0195063,0.0107821,0.0179209,0.00445966,-0.0581183,-0.0503121,-0.00644468,0.0399911,-0.0648083,0.0401892,0.0309112,0.040005,-0.0202299,0.0238878,-0.0117993,0.00246418,-0.0343224,0.0149492,-0.0208933,-0.0190973,-0.0304627,0.0208021,-0.0566754,-0.0373498,-0.03686,-0.062488,0.0146712,0.00292307,-0.0404891,-0.0239632,-0.0681285,-0.0526304,-0.0299801,-0.024363,0.0455635,-0.0540817,0.0160428,0.0232557,-0.00721335,0.0271308,-0.0115045,-0.0502923,-0.0436042,0.0506082,-0.0659603,0.0413504,-0.0353761,-0.0488263,-0.0176557,-0.0182954,-0.0424926,0.0473511,0.00236689,-0.0189711,0.0396911
0.000570494,0.0471555,-0.0140386,-0.0641588,-0.0166877,0.0126083,-0.0469232,0.0097127,-0.0185142,0.016593,-0.0401347,-0.0461186,-0.0391251,0.0367077,-0.00973286,0.0360237,0.0189276,-0.0218292,-0.012802,0.00171392,-0.00925532,-0.00171244,0.0379261,-0.0102539,-0.0377381,0.00999622,0.0423786,0.0191462,0.0306448,-0.00968569,0.00977132,0.0146993,-0.00177561,-0.0228655,-0.043189,-0.0323202,-0.0411926,-0.0329206,0.0416124,0.0426703,0.0383906,0.0346593,-0.0307901,-0.0267238,-0.0145413,0.0102759,-0.0629355,-0.0143924,-0.0143263,-0.0155666,-0.0528921,-0.044434,-0.04338,-0.0327604,-0.0116212,-0.00610961,-0.0678813,-0.0239152,0.0086014,-0.0332406,-0.0632732,-0.0653872,-0.0296678,0.0292983,-0.000989881,0.0381551,-0.0642887,-0.0345919,0.0294796,0.0299594,-0.0405182,0.0121013,-0.0234531,-0.0510412,-0.0307181,-0.00299818,-0.0576586,0.0342134,0.0345511,-0.0487523,-0.00387429,-0.044912,0.0422788,0.0151161,-0.0445286,-0.063111,0.0348344,-0.0241607,-0.04081,0.0124177,-0.0584472,-0.0353541,-0.0299126,-0.000876224,0.0198575,-0.00710932,-0.038867,0.00209587,-0.00462429,0.00854908,0.00228519,-0.0658163,-0.0325763,0.000869176,-0.0472898,-0.0500256,-0.011781,-0.0297605,0.0231939,0.047376,-0.0522375,-0.0210221,0.0201246,-0.0399856,0.0319039,-0.065411,-0.0271354,0.0200404,0.0229067,0.0161626,0.0245762,0.016048,-0.0481928,-0.0666525,-0.0436769,-0.0504398,0.00936831,-0.0508564,0.0318883,-0.00265084,0.0085252,-0.0272408,0.0176984,-0.0639384,-0.00388034,0.0251791,-0.0578075,-0.0397289,-0.0260416,0.0181869,0.0306776,-0.0423748,0.0446287,-0.0212124,0.0043174,-0.0274114,-0.0676415,0.0130879,0.0102319,-0.0417858,-0.0409112,-0.00353806,-0.0108837,0.0348836,-0.0214367,0.00510397,0.0212756,0.00586975,-0.00269185,-0.00263235,0.016259,-0.00901522,-0.0324794,-0.0348299,0.0107198,-0.0276355,-0.0223458,-0.0145065,0.0206865,0.0232705,-0.0260373,-0.0562129,0.0192539,-0.0143383,0.0377941,-0.0458791,-0.0447285,0.00531416,0.0266304,0.0039644,0.0397535,0.0370384,-0.0509098,0.0191612,-0.0428065,-0.0525624,-0.0631023,0.00351372,0.00893087,-0.0532886,-0.0328641,0.00981412,-0.0597966,-0.044992,-0.0619609,-0.0591585,0.0183113,-0.0409167,-0.0420829,-0.0295992,0.00655521,0.0331682,-0.014468,-0.0128949,-0.0019391,0.0210981,-0.0257946,0.0245323,0.0271679,-0.0670669,-0.016319,-0.00955814,-0.0465598,0.0443072,0.0182359,-0.03661,-0.0352194,-0.0450685,-0.0583995,-0.0359249,0.0284915,-0.0541492,0.0278784,-0.0620679,-0.0417577,-0.0148898,-0.0426068,0.0134564,-0.064214,0.0309799,0.0478994,-0.00251037,0.0425646,-0.0384173,-0.053795,-0.051732,0.00489975,-0.0137167,0.0287737,-0.0513921,-0.0476396,-0.049985,0.00324156,-0.0178178,0.00688147,-0.0269214,-0.0441149,0.0219473,0.0405024,-0.0129921,-0.0582215,0.0380289,0.03867,0.0332399,0.00962413,-0.0368343,0.0325712,0.000343562,0.00446224,0.0386785,0.0442472,0.00482213,-0.0401794,-0.0433869,0.0396592,0.0461671,-0.00447752,0.0410961,0.0286709,0.0281816,0.0414083,0.0410068,-0.0346575,-0.0258178,-0.040769,0.0194004,-0.059421,0.00558169,0.00604062,-0.0576313,-0.0147887,-0.0293251,0.0149067,0.0444745,-0.0360428,-0.042364,0.0398307,-0.0207913,0.0260843,0.00445022,0.00812359,-0.0169967,-0.0580119,0.0428889,-0.0227311,0.0352514,-0.0510499,0.0152068,0.00517776,0.00749199
-0.0485283,-0.0153837,-0.0412232,-0.0143667,-0.0299605,0.00353274,0.027993,0.0157334,-0.00733171,-0.0277933,-0.0369651,-0.0258858,-0.021507,-0.0285336,-0.0674535,0.0256035,-0.0490873,-0.0509298,0.00501038,-0.0199602,0.0425945,0.0383353,-0.0369936,-0.0146512,-0.0365601,-0.0185426,0.0437638,-0.0349023,-0.0575741,0.0354032,0.0104042,0.0041993,-0.0504497,-0.00256134,0.00394465,-0.0546998,-0.0372311,-0.0526065,-0.0289737,-0.00635422,-0.0396396,-0.00653977,0.0484392,-0.0604184,-0.0300024,0.0166316,0.0320418,0.0366806,-0.0329855,0.0467615,0.00377064,-0.0261285,-0.0119011,-0.0495801,0.0435546,-0.0161315,-0.0151233,-0.0485368,-0.0237682,-0.0633636,-0.0264214,0.0134929,-0.0161091,-0.0539452,-0.0528609,-0.0298733,0.0135556,0.0409667,0.0086567,-0.0189249,0.0438043,0.0337358,0.0208823,0.0204702,-0.0485133,-0.0159037,-0.038585,-0.0434172,-0.0396421,0.0226681,-0.0591523,-8.48084e-05,-0.0196259,-0.0670434,-0.0122696,-0.0416027,0.0494957,-0.0646415,0.00313726,-0.0117684,-0.0653702,0.0307262,-0.0330857,-0.0565004,0.0327211,0.0239644,-0.0630638,-0.0506061,0.0462811,-0.017155,0.0425835,-0.0607723,0.0440277,0.00646129,0.00581985,-0.0288314,0.00870884,-0.0217539,-0.0070619,-0.0470652,-0.0646832,-0.0402506,0.01362,0.044229,-0.0311516,-0.0242084,-0.0462023,-0.0347687,0.0444266,-0.0275126,-0.00872034,0.0391834,0.0485557,-0.00616114,-0.0269817,0.00451095,0.0314208,0.0237497,0.0115467,-0.0573426,0.0163801,0.0382116,-0.0271487,-0.0471466,-0.0282778,-0.0494406,-0.0523896,0.0206505,0.0480154,0.0368866,-0.0196361,-0.0432807,-0.0190922,-0.0350489,0.00987975,0.0159837,-0.0660754,-0.0595277,-0.0423516,0.0480229,-0.0042098,-0.00831814,0.00540117,-0.00424096,0.0083487,0.0305489,-0.0285156,0.0226542,-0.0283845,-0.047094,-0.0128339,-0.0393608,0.0189866,-0.0493056,-0.0341645,-0.0583378,0.0449473,0.0328871,0.00566571,-0.0331307,0.0462089,-0.0162098,0.0212237,0.0432203,-0.0496942,-0.023092,0.0230385,0.0488249,0.0365437,-0.050591,-0.0515433,-0.026735,0.0476876,0.00920126,-0.0410718,-0.0093937,-0.0224872,-0.0465781,0.0154784,-0.00536858,0.0126632,0.00408548,-0.0339408,-0.0265135,-0.0586905,-0.00473699,0.041036,-0.0582787,-0.0424579,0.0399502,0.0099985,-0.0582288,0.0454335,-0.00652268,-0.0439218,0.0141976,0.0147682,-0.0164069,-0.0172464,-0.0387903,-0.032891,-0.0326324,0.00387544,0.0221141,-0.0159087,-0.0291715,-0.0479975,-0.0515465,0.0166584,0.024895,-0.0545392,-0.0525962,0.00283547,-0.0231184,-0.0643747,-0.0513092,-0.00940035,-0.00978553,0.0241485,-0.0188333,0.014136,0.0222302,-0.0555672,-0.0167851,-0.0194413,0.0473478,0.0271092,-0.0625428,-0.063744,-0.00932334,-0.0568917,0.0390802,0.0435501,0.0293692,0.00980829,-0.00458652,-0.0210841,0.0223528,-0.0566199,0.0389473,-0.0344867,-0.0334977,-0.00552878,-0.0490996,0.0264323,-0.00194745,-0.017869,0.043617,0.007281,-0.0613945,-0.0575717,0.0427269,0.0099378,-0.0132241,-0.0259646,-0.0320608,-0.0129728,-0.0217192,-0.0272536,0.0430435,-0.0136654,-0.0450142,-0.0424837,0.0165075,0.0407327,-0.0313068,0.0210394,0.0394474,0.0378488,-0.0603664,-0.00252131,-0.021244,0.0275041,-0.0409736,0.0253531,0.0382812,-0.0607002,-0.015198,-0.0462575,0.0109872,-0.00779908,0.0242094,-0.00545717,0.045781,0.0273821,0.0141713,0.018564,-0.0620474,0.0150155,-0.0493697
-0.00521052,0.00313542,-0.0176803,-0.0238786,0.0373041,-0.0529358,-0.0475031,0.0387041,-0.0232675,0.0391866,-0.0252559,-0.005442,-0.0167667,-0.00308527,0.0161483,-0.0395953,0.0100409,-0.001962,-0.0140412,0.0106611,-0.00564682,0.0255693,0.0106693,-0.0233713,0.0201033,-0.0237662,-0.00637965,0.0183031,0.0205414,-0.00317634,-0.0148664,-0.0119841,0.0171017,0.0436264,-0.041303,-0.037975,0.00429054,-0.0412116,-0.0674974,-0.0565268,0.00415502,-0.0144835,0.0115613,-0.0203045,-0.00941688,0.0328382,-0.0505538,-0.00390132,-0.0661155,-0.049791,-0.0377138,-0.0256791,0.0285258,-0.0201363,-0.0571023,0.0193954,-0.014804,-0.0471071,0.0102167,-0.00716194,-0.0635208,-0.0209781,-0.0436218,-0.0301135,-0.0558738,0.019044,-0.0526091,0.0187849,0.0205505,0.028685,-0.0347475,0.0434739,-0.0473491,0.00280242,-0.030907,-0.056137,-0.0376025,-0.0102976,-0.0109723,0.0232973,-0.0549892,-0.0601869,-0.0430595,-0.0595591,0.0327412,0.048189,-0.00137194,0.0222864,-0.0273051,-0.0395103,-0.00523393,-0.0382962,-0.0265872,-0.0400271,-0.0390888,-0.0074927,-0.0650971,-0.0292345,0.0147352,0.0443193,0.0212989,-0.0380832,-0.058054,0.0292467,-0.0160503,0.0219318,-0.0334967,0.0190446,-0.0175821,-0.0349946,0.0428241,-0.0448166,0.0165249,-0.0484027,-0.0483581,0.0263354,-0.0547686,-0.0294215,-0.0225666,0.0190709,-0.0105461,-0.00288488,-0.000789495,-0.0177543,-0.0642761,-0.0379094,-0.0314228,-0.0277099,-0.00297648,-0.0482877,-0.0503506,-0.0584135,0.0150659,-0.00274281,0.0124321,0.0260455,-0.0267598,-0.00625083,0.00261685,-0.0620529,-0.0213941,-0.0415675,0.0347777,-0.0083051,0.00566743,0.0212141,0.0251599,0.00734024,-0.0241921,0.0188882,-0.0100942,0.0350858,-0.0148928,0.00977428,0.0183094,-0.0647831,-0.0032867,-0.0264503,-0.0422928,-0.0443247,0.0112869,-0.0265527,-0.00431345,-0.0556469,-0.063438,-0.0392241,0.0474356,0.0336387,-0.0594331,-0.00998872,-0.00327508,-0.00684222,0.0256482,-0.0272219,0.0445764,0.0107888,0.0233651,-0.0641958,0.0299269,0.0254963,-0.0621966,-0.0628516,0.046592,-0.0129885,0.00185873,-0.0468707,-0.0147524,-0.0531449,-0.0400197,0.0142595,-0.0230605,-0.00598181,-0.00207455,-0.0250621,-0.0124134,0.0231473,0.0360856,-0.0345832,0.0169346,0.0450303,-0.0489417,0.0142435,0.00499304,-0.0208538,0.00686866,-0.0171437,-0.0675517,-0.0259328,-0.0157776,-0.0411221,-0.0607006,-0.0455872,-0.0460794,-0.00905952,-0.037255,-0.0240082,0.0328866,0.0295196,-0.0162109,0.00585373,0.0401163,0.0130621,-0.0215921,0.0182815,-0.0404382,-0.00684068,-0.0231536,0.0258558,0.0207427,-0.01037,-0.0189939,-0.0261125,0.0333687,0.00766727,-0.061387,-0.0441753,-0.0236564,0.00652852,-0.0600618,-0.0652551,-0.0469932,0.0272405,-0.00167725,0.00135149,-0.0572729,-0.0235968,0.0341393,-0.0211468,-0.0156596,-0.0628812,-0.0609243,-0.0365656,-0.0549472,0.00980137,-0.0633775,-0.0597929,0.028149,-0.0206399,0.00680458,-0.0393284,0.0265806,0.0147425,0.035754,0.0484859,0.0412318,0.0010963,0.0231388,-0.0422152,0.0166482,0.0487423,0.0372461,-0.00310973,0.0101844,0.00688318,-0.0367393,-0.0269331,-0.00419974,0.00987722,-0.0322361,-0.0504571,-0.010177,0.0422592,0.049292,-0.0169079,-0.0540997,-0.0306515,0.0192812,-0.0108245,-0.0561171,0.013285,0.010059,-0.0422903,-0.00746967,0.0487487,-0.0298253,0.0136865,0.00573435,0.0213449,0.0341413,-0.0382868
-0.0143252,-0.0149077,-0.000694903,0.000258145,0.013874,-0.0225501,0.0494105,-0.0273967,-0.0175262,0.025704,0.0230527,0.0261812,-0.00774138,-0.00905961,0.0314218,-0.0438413,-0.0602599,-0.00767539,-0.0365675,-0.0204198,-0.0253828,-0.00015487,-0.0377216,-0.0128871,0.0436146,0.0405492,-0.0301427,-0.0380786,0.0253268,-0.0412918,0.0192005,-0.0188412,-0.0410551,-0.00790807,-0.0371691,-0.0551527,-0.0216639,-0.0165772,-0.0327625,0.0159633,0.0243906,0.0376133,0.000496489,0.0311687,0.00302987,-0.0404237,0.0456881,-0.0134694,-0.0452526,-0.0400146,-0.0216741,0.0194037,-0.0560293,-0.0546954,0.0134886,-0.0111533,-0.0233206,-0.0531361,0.0307737,-0.0298279,-0.0563739,0.0207423,0.00232964,0.0389309,0.00864848,0.0398286,0.0114786,-0.0680972,-0.00996716,-0.0328836,-0.0110257,-0.0527697,-0.0426196,-0.0335306,-0.0297684,0.0341505,0.0467065,-0.0402936,0.030275,-0.0157595,-0.0297883,0.042628,-0.0249116,-0.028148,-0.0608415,0.0120463,-0.0428919,0.0122127,-0.0356009,0.0218762,0.0208808,-0.0600951,-0.0196469,0.00713479,-0.00640955,-0.0331444,-0.0312344,0.0355625,0.0335395,-0.00309971,-0.0435889,-0.0575549,0.0284001,-0.0323045,-0.0275772,-0.00988978,-0.00172328,-0.015884,0.0287605,0.0383449,0.0343772,0.0125956,0.0127358,0.0141188,-0.00273296,-0.0693163,0.0013059,-0.0494627,0.0188043,0.0247917,0.0246754,0.0233097,0.0120152,-0.0108648,0.00851059,0.0433582,-0.0649011,0.0358675,0.00545178,-0.031041,0.00798531,-0.0320126,-0.0294551,-0.0390946,-0.0109374,0.0098352,0.0462419,-0.0569867,0.0314945,0.00388178,-0.0577698,-0.0451734,-0.0626467,-0.0611624,-0.0475883,-0.056442,-0.0240669,-0.0424161,-0.0302935,-0.0310836,-0.0321105,0.00526707,0.000948716,-0.0327914,0.0273394,-0.0323431,-0.00751859,-0.0637915,-0.0285217,0.0305369,-0.0485844,-0.00430352,-0.0384154,0.0446005,0.0445072,-0.0529486,-0.0131982,-0.0383817,-0.0467101,-0.0534562,-0.0424898,0.0346687,-0.0258508,0.0221374,0.0370278,0.0430165,0.018437,0.00363567,-0.0347742,-0.0398465,0.00269241,-0.00781341,0.00015288,-0.0595401,-0.0495884,-0.0201441,0.029789,-0.0115671,0.0255412,-0.0126763,0.0430665,0.0414177,-0.0565431,-0.0123365,0.000650653,-0.0320486,-0.0569009,-0.0634019,0.0108745,0.0356644,0.0261942,0.0187782,-0.00461129,-0.0395532,-0.0265502,-0.0167463,-0.0118383,-0.00704082,0.0415505,-0.0218573,0.0380619,-0.0250486,0.0479967,-0.0511944,-0.00110085,0.0309028,0.019905,-0.0272853,0.00156898,-0.0647511,-0.00302386,-0.0299498,-0.065304,-0.0530563,-0.00839023,0.0464656,-0.00872193,-0.00267518,0.0302614,0.0281047,-0.0100915,-0.0545253,-0.0422169,-0.0168577,0.000622973,0.00607034,0.0364673,0.0422975,0.0144169,-0.00215159,-0.0308851,0.0232518,-0.00131143,0.0173111,-0.00505075,-0.0456568,-0.0656296,0.0229842,-0.0483682,-0.0377205,0.0407123,0.0159602,0.0416471,-0.0247722,-0.0119671,0.00805911,-0.0467396,-0.000393302,0.0110058,-0.0428098,0.0286042,-0.0425721,-0.0475943,-0.0375811,-0.0346952,-0.0439543,-0.0583129,-0.0347336,-0.0583247,0.012721,-0.0339553,-0.0355877,0.0348995,0.00608951,0.0246373,0.0335504,-0.0312208,-0.0375304,-0.0295739,0.0202349,0.0302779,0.0380817,-0.0629997,-0.0280651,0.0237007,-0.0198264,-0.0140943,0.038481,0.0401857,-0.0393205,0.025446,-0.01772,-0.0101248,0.0393425,-0.0504943,-0.00458508,-0.0623373,-0.000337855,-0.0403373,-0.00492081
0.03981,0.00880664,0.024678,0.0273628,-0.0286465,0.0400724,-0.00555506,0.0340946,-0.0557139,0.0344633,-0.0515237,-0.00514584,0.0288519,-0.00190351,0.0323258,-0.0627771,-0.0255981,0.00787639,0.0232258,-0.0310314,0.00725555,0.00895968,0.0193704,-0.0335562,-0.0216536,-0.0605948,-0.0450269,0.0265311,0.00198568,-0.0456911,0.00946966,-0.0349994,-0.0694367,-0.0362325,0.00615874,-0.0266316,-0.0656065,0.0192881,-0.0607462,0.0146612,-0.0134148,-0.0221019,-0.0309824,-0.0172083,-0.064416,-0.00633054,-0.044872,-0.0172872,0.0244749,-0.0611922,-0.0148563,0.00442804,-0.0161506,-0.0354523,-0.0257021,-0.0358094,0.0358043,0.0325951,0.024433,-0.0578467,-0.0466849,0.0385324,0.0389914,-0.00800682,0.0215968,0.0142301,-0.0367371,0.00562362,-0.0379301,0.00319291,-0.00045975,-0.043732,0.00720829,-0.0238362,-0.0432591,-0.0153548,-0.0342814,-0.0108265,-0.0519409,-0.0474239,-0.0539594,-0.00280412,0.0446429,-0.00865107,-0.04043,-0.00653857,0.0185426,0.0300849,0.0396417,0.0418054,0.0111069,-0.0480972,0.00694571,-0.0561374,-0.0143229,0.0346759,-0.00403326,-0.0349933,-0.0126738,-0.0262027,-0.0705167,0.00185277,-0.00687595,-0.0220566,-0.0395703,-0.055817,-0.0175436,-0.0554974,0.0415228,-0.0390517,-0.0067509,-0.06002,-0.0721201,-0.0548204,0.0327655,-0.0346158,-0.0234746,-0.00109478,-0.0362733,-0.00829271,0.0406985,-0.0203539,-0.00181065,-0.00515638,0.00409133,0.0387043,0.0388266,-0.0017461,-0.0162788,-0.00867488,-0.0475493,0.0162394,-0.0220435,0.00803657,-0.0402553,-0.00834089,-0.0587926,0.0245725,-0.0570997,0.0100679,0.0385087,0.0447078,-0.0207733,0.0328292,0.00408702,0.00925965,0.0089493,-0.0677412,0.00318046,-0.0380537,-0.012115,-0.0339624,-0.0535668,-0.0139233,-0.0635966,0.00805921,-0.0574207,0.0250154,-0.0452181,0.018807,-0.0229403,0.0356701,0.048002,-0.0107074,-0.0260259,-0.00420222,-0.0167264,0.041059,0.034838,0.0363959,-0.0307505,-0.0232639,0.00975096,-0.0120832,0.0448415,-0.00597447,0.000146062,-0.05705,-0.0505168,0.00213397,-0.0531897,-0.0237666,0.00485838,0.0416853,-0.0469066,-0.00877861,-0.0105907,0.0154568,-0.0465186,-0.0650203,-0.0199911,0.0139293,-0.0633167,-0.0616749,-0.0515341,-0.0442603,0.0406872,0.0460989,0.0241077,0.0222949,0.017163,-0.0509185,-0.0133752,-0.0203652,0.043978,-0.0436547,0.0401515,-0.0636665,-0.069059,0.0465282,0.0165061,0.04132,-0.0327531,0.0200388,0.0157806,-0.0338473,0.0394295,-0.0328738,-0.0170066,0.0438709,-0.0403864,-0.029078,-0.0093758,-0.0206147,-0.0318684,0.000248128,0.012807,-0.0232579,-0.0111913,-0.0219196,0.0294281,0.0333031,-0.0134288,0.0259254,0.0394149,0.00646108,-0.0460407,0.0193092,0.0251056,0.00751078,-0.0342466,0.00450738,0.0164674,0.00691677,0.00398311,-0.0393822,-0.0194882,-0.00618426,-0.0530948,0.0408649,0.0246077,0.00819388,-0.0461585,0.0401872,0.0144579,0.00735846,0.0369247,-0.0383273,-0.060762,0.0165298,-0.0320541,-0.0653074,-0.0587148,0.018552,-0.000209501,0.0254715,-0.0690819,-0.0109794,-0.0461735,-0.00140854,-0.050401,-0.0365843,-0.00984668,0.0216141,0.018293,-0.0648886,0.0246815,-0.0684935,-0.00456645,0.0217488,-0.053649,0.0277885,-0.00104236,-0.0397661,0.0232484,-0.0430245,-0.0236411,-0.041885,0.00384045,0.0310528,-0.0196383,-0.0675484,0.0161068,-0.0592551,0.0174475,-0.0187662,0.00762377,0.0398985,0.0262871,-0.0670493
