300,800
0.0880831,0.0568874,-0.00535528,-0.0917298,-0.0501199,0.0205537,0.0284792,-0.0762519,0.0959932,0.00639849,0.059987,-0.0212616,0.0795736,0.0757201,0.034812,-0.018832,0.0304513,0.0894108,0.0672198,-0.0397613,0.012504,0.0028952,-0.0808359,-0.0449479,0.0647282,-0.0834275,-0.0186442,0.0684722,0.0542792,0.0202089,0.0260141,-0.0503043,0.0847349,-0.00391582,0.0199012,-0.0513341,-0.0448504,-0.0837296,-0.0314699,0.0685686,-0.0622716,0.0315672,0.0821498,-0.0481099,0.018832,0.0291712,-0.0100676,0.016474,-0.0356413,0.00788689,0.0033012,-0.0244038,0.0689909,-0.0206721,0.0307698,0.0362779,0.0841379,0.0667935,-0.0195362,0.0349093,-0.0130217,-0.0531842,-0.0847707,0.018179,0.0605075,0.0575392,-0.0278475,-0.0528977,-0.0394047,0.0566386,0.0979305,-0.0702595,-0.059118,-0.0513606,0.0532793,0.0873069,-0.0207056,-0.0329521,-0.0844136,0.0052943,0.0776556,0.0352866,-0.0499788,-0.0556538,-0.0873162,-0.0741314,0.0622867,0.0953686,0.0380872,0.0500691,0.0483618,0.0504575,0.0398303,-0.0755997,-0.0681574,-0.0753687,0.0501532,0.00483346,0.0153451,0.0697592,0.00649885,0.00275353,-0.0270668,-0.0526136,-0.00736879,0.0556142,-0.0818567,-0.020727,0.00513668,-0.061295,-0.0664895,0.057513,0.0250436,0.0709823,-0.051207,-0.00465385,-0.0810142,0.0294519,0.0325154,0.0782402,0.0247359,-0.0322618,0.0243692,0.0516457,0.00180253,0.0108127,0.000589705,0.0274449,0.000847933,-0.0773608,-0.0194792,-0.0728752,0.0407093,-0.00120055,0.00686453,-0.0388558,0.101651,-0.048462,0.0359943,-0.0705174,0.0597975,0.0604271,-0.0506252,-0.0551782,-0.0593003,-0.0341999,0.0344688,-0.0594447,0.0158488,-0.0177563,0.0402424,0.0386964,0.0780025,-0.0298983,0.0743769,1.11948e-05,0.00247155,-0.050451,-0.00263076,0.0340429,-0.00638751,-0.0599375,-0.0694791,0.0185028,0.0816391,-0.0194274,0.0651942,-0.0786606,0.0334592,0.0690642,0.0551894,0.0629781,0.0340308,0.0162982,-0.0444824,0.0758037,0.0601105,-0.0643764,-0.0873643,-0.0132641,-0.0181429,-0.0901656,-0.0802419,0.0858728,-0.0642961,-0.0694262,0.0381965,-0.0710497,-0.0522173,0.000457065,-0.06111,-0.0855081,-0.0753898,-0.0652211,-0.0550717,0.0150226,0.0696611,-0.0068159,0.0769156,-0.0548136,0.00660367,0.0177455,0.00292621,-0.0091929,-0.0194798,-0.0289982,-0.0654701,0.0467572,-0.0303277,-0.0581367,0.00867491,0.0094959,0.0605625,-0.0268024,-0.0899909,0.0509373,-0.0295996,-0.0594052,-0.00849453,-0.00732316,0.0382693,-0.0523991,-0.0424872,-0.000713451,-0.0195349,-0.0168741,0.00707742,-0.0420913,-0.0742121,0.00359805,0.0432774,-0.0763826,-0.0461868,0.0097518,-0.00853857,-0.0585408,-0.00895991,-0.0188824,-0.0167486,-0.0210273,0.0288597,0.0628679,0.0849382,0.0702993,-0.0728156,0.0637238,0.0770601,0.021718,0.0569352,-0.0506626,0.0110677,-0.0421579,0.0540953,-0.0576091,-0.0433606,-0.0296254,-0.0921466,0.0826099,0.0177794,0.0459936,-0.0138473,0.0086177,-0.0251372,-0.000695389,-0.0165308,0.0781801,-0.0270345,-0.0712507,-0.0822947,0.0104912,-0.062875,0.0554364,0.00173374,0.0527141,-0.059523,0.0209852,0.0369175,-0.0337804,0.0315676,-0.0126271,-0.00241357,-0.0424916,0.077564,0.0563787,-0.0381883,0.0457117,0.0888865,0.0142063,-0.0626784,8.73077e-05,-0.00190438,-0.0923333,0.0435111,0.0372185,0.0132401,-0.0140482,-0.0564061,0.0629444,-0.0643593,0.039877,-0.0810409,0.0670827,0.0652117,-0.000544762,-0.0145504,-0.0777052,-0.0420252,0.0787961,0.0289845,0.0913731,0.0415765,-0.0244694,0.0842196,0.0401147,-0.0745457,0.0474081,0.00521419,0.072819,-0.025372,-0.0538794,0.0463651,-0.091514,-0.0277553,-0.0621977,0.0703945,0.0267904,0.0461549,-0.0138076,0.05223,-0.0339166,-0.0875783,-0.0444154,0.031005,0.0675392,0.0767332,0.0819062,0.0122217,-0.0126373,0.0901648,0.0668188,0.0209855,-0.0811767,-0.0445017,-0.0296047,-0.0428018,0.0052315,-0.0564268,-0.0257282,-0.0651079,0.0450595,0.0421157,-0.00330764,-0.00644194,-0.0321349,0.0666772,0.0177766,0.0499967,0.0565156,0.109265,0.0645867,-0.0159673,-0.03111,0.0128281,-0.0772438,-0.0965634,-0.0709979,0.0756475,0.00167465,-0.0757891,-0.00506868,-0.000853622,-0.0437094,-0.0813804,0.0480096,0.0411635,0.0589111,0.0632305,-0.0620036,-0.0259309,0.0411888,-0.0842693,-0.0835126,-0.0100472,-0.0735156,0.0741331,-0.0358986,0.00990179,-0.0495694,0.00489814,-0.0105875,0.0407028,-0.0573057,-0.0832603,0.0419648,-0.000810855,0.0607264,-0.00942725,0.0590901,-0.038168,-0.0680037,-0.00901972,0.0492265,0.0811404,-0.0124631,-0.00534781,0.0507701,-0.00421612,0.0655966,0.0139855,-0.0194594,0.051492,-0.0469109,0.0170323,-0.0285172,-0.0792222,0.023398,0.0405593,-0.0708507,-0.0373639,0.0290875,-0.0183205,0.0545385,0.0727385,0.0151514,-0.0450498,-0.0244974,0.0636058,-0.00352939,-0.0179979,-0.0319175,0.0150877,-0.0383165,0.0631648,-0.0281754,0.0254465,-0.0699721,0.0798843,0.0645783,-0.0894703,0.0936597,0.0287421,-0.0737202,0.0662368,-0.0501854,0.0439874,-0.0566757,-0.0823437,-0.0570363,0.0296363,0.0743245,0.0859613,0.00661047,0.0501158,0.00584431,0.0273956,-0.0159177,-0.0256281,0.0275153,-0.0115386,0.0702546,-0.0263298,0.00119958,0.089123,0.0276107,0.0172702,0.0658259,0.0635804,-0.0657309,0.0802732,0.00550701,0.081639,-0.0286993,0.0223637,0.0580294,0.0844823,0.0442914,0.0600387,0.0338583,-0.0791557,-0.0117574,0.0655897,-0.078771,0.0492769,0.016373,-0.0719325,0.019109,0.0746617,0.0695895,-0.0493145,0.0777133,0.0505514,-0.0564591,-0.0189231,-0.0415931,-0.00475605,-0.0475079,0.0298822,-0.0239553,0.0626015,-0.061211,-0.00451729,-0.00558225,-0.0396321,-0.00166106,0.0575581,-0.0528545,0.00832978,0.0550089,-0.0546612,0.00762366,0.0484344,-0.0405397,-0.0434991,0.0751299,-0.042482,0.0321962,-0.0186683,-0.0835296,-0.0138108,0.0966154,-0.0036431,0.0166742,0.000262616,0.0449396,-0.0635923,0.0737903,0.0533622,0.0792688,-0.0410533,0.0233341,0.0557045,0.083917,0.0155026,0.0787778,0.0563166,0.07467,0.0491135,0.0437122,0.0187066,-0.0414015,0.0470599,0.0202061,-0.0128055,0.0635368,0.087558,-0.0355984,0.0198708,0.0575906,-0.0307628,0.0246536,-0.0176864,-0.0208889,-0.0395544,0.0751727,0.0583435,-0.0339997,-0.00203147,-0.0127061,0.0110618,-0.024285,0.0296136,0.0271031,-0.0885792,-0.0077521,-0.0215385,0.0594273,0.0577315,0.0674489,0.0178186,-0.00586113,0.0264338,0.0235333,0.00669043,-0.060545,-0.0083864,-0.029332,0.0767518,0.0570626,-0.0560592,0.0537254,-0.023149,0.0211633,0.01256,0.0780459,0.0904684,-0.0438956,0.0536507,-0.0403722,-0.0171281,0.0239406,-0.0139291,0.032292,0.0630556,0.0198888,-0.0378475,-0.0608923,0.0803836,0.0179074,0.0600792,-0.00543451,0.0802716,0.048617,0.0509238,0.0159651,-0.0764974,-0.05677,0.0680253,-0.0690456,0.0715521,0.0642669,-0.0588126,0.0586806,0.0263195,0.0169835,0.0321215,-0.0854711,-0.0891313,0.0344295,0.0138375,-0.0709161,-0.053624,0.0786881,0.0745789,0.0333095,0.064193,-0.00852372,0.00726542,-0.00933842,0.074439,-0.0617678,0.0639265,0.0545615,-0.0439093,0.0115157,0.0865314,-0.0588446,-0.0599965,0.00214346,0.0646645,0.0147766,0.00849969,0.00118677,-0.0720767,0.0385535,-0.054036,0.0402851,-0.00407253,-0.0330477,0.0343673,-0.0274523,0.0490981,0.0122517,0.0466953,-0.0335151,0.0481219,0.0503105,-0.0745296,0.000126612,-0.0190859,0.0525182,0.0280858,0.0029934,-0.0761729,-0.0878718,0.084659,-0.000723427,-0.0518554,-0.0639482,-0.0496928,0.0590195,-0.0085334,0.0455567,0.0888576,0.0466349,0.00713038,0.0503392,0.00633176,0.0130059,-0.0218431,0.0243771,-0.0776975,0.0682592,-0.0555968,-0.0145474,0.0639692,-0.0432215,-0.0182084,-0.00315197,0.0641048,-0.0387734,0.0122845,0.00572581,-0.0428052,-0.0332142,-0.0325675,-0.0738038,-0.0189605,-0.0576621,0.0623371,0.0673354,-0.0756851,-0.00636672,0.065966,-0.0305393,0.0563815,0.0408495,-0.0601208,-0.0951788,-0.0835095,0.0759092,-0.0223953,-0.000647429,0.0498913,-0.0361792,0.0323354,-0.049153,0.0502989,0.0633083,0.0202632,0.0672549,-0.0729338,-0.0152927,0.0493357,-0.0419647,-0.0436685,-0.0203749,0.0473641,0.0104155,0.0231894,-0.0836972,0.00257115,-0.0794722,-0.0587063,0.0304569,-0.0706519,-0.041639,-0.0419057,-0.0837867,-0.0492417,0.0368303,0.0024244,0.0160086,-0.0297639,0.0245643,0.084038,0.0407369,-0.0204604,0.0571716,0.056726,-0.0209771,0.0767198,-0.00290811,-0.0814608,-0.0553076,0.0734719,-0.0078407,0.0517421,0.0401009,-0.081802,-0.0227508,0.0210156,0.0182844,-0.00316235,0.00202879,-0.0382456,-0.000675845,-0.0242329,-0.0183318,0.0635825,-0.0707218,-0.0788285,0.0460032,0.0166548,0.0130436,0.0486926,0.0644158,0.041475,0.0156028,0.034187,-0.0347279,0.0518996,0.0823296,0.0719602,0.0739037,-0.0727135,-0.0486647,0.0599201,-0.0672168,0.0593193,-0.0352611,0.0214143,-0.0743392,-0.0621793,0.0165288,0.00336591,-0.0395039,0.0362407,0.043727,0.0809107,0.0464874
0.0101577,-0.0185763,0.0801252,-0.0442477,0.00277758,-0.0590292,-0.0537453,0.0451236,0.00133227,0.0623906,-0.0245789,-0.0455879,0.00685043,-0.015863,0.0298098,0.0798479,0.0495879,-0.0227435,0.0405601,0.0819799,-0.014255,-0.0134729,-0.03801,0.00746285,-0.0305078,0.0124042,0.0575915,0.020728,0.0369765,-0.0132687,-0.0397783,-0.0147078,0.0574499,-0.0774286,-0.0663578,-0.0683014,0.0876271,-0.0706283,0.0154456,-0.0228969,0.060931,0.0815891,0.0219216,-0.0334205,-0.0475183,-0.0651584,0.00568702,-0.0439979,0.073261,0.07663,-0.00762165,-0.0740541,-0.0643446,-0.0210025,0.078774,0.0189157,-0.024253,-0.0267251,-0.0174412,0.0662825,-0.050095,-0.05608,0.0149869,0.0796014,-0.0133151,-0.0194369,0.0680351,0.0149138,0.0424498,-0.00393676,0.0991535,-0.0565228,-0.056447,0.0344767,-0.0547812,-0.0416753,0.0359207,-0.0416289,0.0203507,-0.026541,-0.0368907,-0.053819,7.95669e-05,-0.0597916,0.0475928,-0.0471847,-0.0800471,0.0437666,0.0142488,0.0904687,-0.0824533,0.0130999,-0.0117799,-0.0706708,0.0606783,-0.0306707,-0.0500528,0.0194472,0.0806153,-0.0798278,-0.0187666,0.0107564,-0.0712868,-0.0749238,-0.0233122,-0.0211267,0.0765313,-0.0300496,0.0679075,-0.0294951,0.0337309,-0.0641024,-0.0728608,-0.0357281,-0.0806669,0.0819171,-0.0882075,0.0543751,0.0148949,-0.00560472,0.0561852,0.0272242,0.0669551,-0.039481,-0.00412561,-0.020414,-0.0358904,-0.0667463,-0.0189855,-0.0703208,-0.0577035,-0.0411244,0.014316,-0.017849,0.0288693,0.0154505,0.0405991,-0.0752841,0.0607273,-0.0146369,-0.0135798,0.0291784,-0.00766266,-0.00677713,-0.000592025,0.0412521,0.06837,0.0177248,-0.0612194,-0.03102,0.0154533,0.0266209,0.0434856,-0.0107082,0.033681,-0.00852981,0.0381278,-0.00964074,-0.0606094,0.0545,0.0280527,-0.043207,0.0465686,0.0270451,0.00624684,0.0739553,-0.0793003,0.0299304,-0.0872841,0.0204426,0.041311,0.0263478,-0.00605294,-0.0578967,0.00248813,-0.0187554,-0.0795826,0.0615214,-0.0183323,0.00888997,0.0740579,-0.0543998,-0.0247021,0.0742966,-0.0379053,0.00163442,0.0686306,-0.0541129,-0.0494815,0.0306701,0.021002,0.0218298,0.0800893,0.0366497,0.0098851,0.0466479,-0.0378268,0.0699055,0.0710134,-0.0698724,-0.0716339,0.0877792,0.0614687,0.0462076,0.0480978,-0.0460409,-0.0309609,0.0502367,-0.0391622,-0.064751,-0.0304094,-0.0612682,0.0173094,-0.0810809,0.00632651,-0.0557944,0.00307311,-0.041617,-0.044229,-0.0419824,-0.0236451,-0.0370003,0.0603145,-0.0516528,-0.0742297,0.0242139,-0.0592724,0.0108692,-0.0542921,0.053766,-0.0683852,0.0181106,0.0824821,0.0722425,-0.0342299,0.0815447,-0.0844828,0.00655137,-0.00590679,0.0338313,0.0137535,0.0488242,0.05536,0.00208017,-0.0685891,-0.0395566,0.0258348,-0.0431803,-0.0263557,-0.0471352,-0.0581659,0.0559445,-0.0539066,0.0186225,0.0117298,-0.00116826,0.00134289,0.0730453,0.0727573,0.0263752,-0.0409987,0.00371333,0.0674347,-0.046207,0.00604113,-0.0466457,0.0446748,-0.0655949,0.0365156,0.0788912,-0.00624141,-0.0349317,0.0188009,0.0440982,0.0113667,-0.0127483,-0.00109671,-0.0778531,0.0597657,-0.0372739,0.0712072,0.0331511,-0.00856004,0.0202431,-0.00568829,-0.0317138,-0.0114767,-0.0174579,0.0786247,0.0821082,0.0492566,0.0466525,0.0753268,0.0844289,-0.0268483,0.0777268,-0.0115566,0.0592752,-0.0447121,0.0808798,-0.0513107,-0.058469,-0.0404005,-0.0907952,-0.0185739,-0.0771073,-0.00208299,-0.0403992,0.0186623,-0.0623839,-0.0790804,-0.0749224,0.0580512,0.0260673,-0.0755404,-0.0271364,-0.0186686,-0.0381275,-0.0124397,-0.00366571,-0.0574828,0.00584838,0.0115626,0.0719356,0.0332454,-0.0121284,-0.0521297,-0.0545141,0.0707584,0.0449931,0.013075,-0.0657403,0.061424,0.0409134,0.0855649,-0.0618568,0.0282867,0.00939954,-0.0568311,-0.0139509,-0.0159231,-0.0698758,0.0238627,-0.033648,0.0594387,-0.0180602,-0.0422148,0.0719892,0.0191712,-0.0847449,0.058524,-0.0301063,0.0310035,0.0388962,-0.028021,-0.036295,-0.063551,-0.075149,0.0909636,-0.0271455,0.0483501,-0.0421538,-0.0285576,-0.0495042,-0.0804874,0.068405,-0.0463466,0.00180884,0.0203402,0.0972248,0.0865798,0.0275156,-0.0127413,-0.0331189,0.0779601,0.0358479,-0.0409535,0.0125106,-0.0782397,-0.0800645,0.0142778,0.0560156,-0.0879701,0.0530135,-0.0344465,-0.00703099,-0.038044,0.0405921,0.0177023,-0.0083729,0.0325014,-0.0827806,-0.0303061,-0.0710781,0.0798283,0.0724945,-0.0457201,-0.0563862,-0.0235912,-0.040145,0.0729434,0.0624804,-0.0766222,-0.0252623,-0.0283807,-0.00890675,0.0297882,0.0462101,-0.0531098,0.0215504,0.0170621,0.063871,-0.0394599,0.0113766,0.0452106,0.0635739,-0.0475788,0.0840479,-0.00969021,0.0466321,-0.0763345,0.0475269,0.0330304,-0.0670563,0.0285857,0.0835005,-0.0118047,-0.0750801,0.041138,-0.0692811,-0.0558559,0.0707097,-0.0664904,0.0909075,-0.0582244,0.0771394,-0.0166257,-0.0458551,0.0222089,-0.0560465,0.0785553,-0.00557833,-0.0198407,0.0490267,0.0592767,0.0109203,0.0330632,0.0905619,0.078562,0.0340548,0.0334304,-0.0639461,0.0256479,0.0386717,-0.0125226,-0.0105486,0.0273627,0.0171227,0.0285401,0.0151204,0.0383566,0.0149071,0.0167377,0.0483927,0.0399388,-0.0205531,-0.0254949,0.0882809,-0.0219666,0.00262403,0.062557,-0.00540358,0.0216547,-0.0386522,-0.0126263,-0.0746213,-0.00450713,-0.00197545,-0.018095,0.0116307,0.077375,-0.00769494,-0.000928473,-0.0291595,-0.059587,-0.00398328,0.000143049,-0.0178157,-0.0672659,0.0233142,0.0490856,0.0852849,0.015858,-0.0124724,0.0807022,0.0500413,-0.00835043,0.0932653,-0.0577699,-0.0342626,0.0337405,0.0681258,0.0723416,0.0692978,0.0437445,0.0594551,-0.0624555,-0.100897,-0.0803106,-0.0164648,-0.0331309,-0.0157402,-0.0779563,0.0830827,0.00704345,-0.0717373,0.0943559,0.0859626,0.0451457,-0.0650804,-0.0400393,-0.0713581,0.0531815,0.0224447,-0.0498045,0.0249062,-0.0432338,0.00968455,-0.0800374,0.0174552,-0.000985076,-0.0885341,-0.0576109,-0.0118161,-0.0656789,0.0878996,0.0272741,-0.070273,0.0325,0.0476017,0.0744231,-0.0692598,-0.0583763,-0.0452404,0.0413097,-0.0462652,0.0609031,0.0533876,0.0608952,0.0602095,0.0689208,0.052881,0.0110538,0.013299,0.0736092,0.0305335,-0.0513684,0.0740854,-0.0603068,0.0517199,0.022061,0.0581687,-0.0243943,0.00429073,-0.00563125,0.0493907,0.0421181,0.0137862,0.0835053,0.0291104,-0.0252554,-0.0794233,-0.0474715,-0.0574531,0.0786964,-0.0743748,-0.0253613,-0.0149096,0.0821037,-0.0374982,-0.0531059,0.0145093,-0.0432556,-0.0566521,0.0467471,0.0211526,-0.069722,0.0491009,-0.055389,0.00209851,0.0352947,0.0091356,-0.0825377,-0.0677377,-0.0694206,0.0413324,0.0139794,0.0725973,-0.0705418,0.0332566,0.0336935,-0.055664,-0.0343988,-0.0358487,-0.0497843,0.0686486,-0.044053,0.0585237,-0.00656489,0.0101673,0.0221832,0.00856915,-0.0586329,-0.00243818,-0.0718325,-0.0153007,0.0265684,0.0236629,-0.069453,0.0194625,-0.0120436,0.0497415,0.0606568,0.00438326,0.051941,-0.00207519,0.0417838,-0.0314127,-0.00899027,0.00441462,-0.0714338,-0.0665372,-0.00281908,0.056641,0.077595,0.0306796,-0.062696,0.0582516,0.0589152,0.0731502,-0.0645187,0.0493675,-0.056636,0.0205697,0.0190113,0.0730832,0.0836088,-0.0031331,0.0203183,0.0593169,-0.0603525,-0.019621,0.0375736,0.073429,-0.0395684,0.0769285,-0.0126253,-0.00864007,-0.0846589,-0.0506525,-0.043832,0.00694106,0.00899153,0.0579342,-0.0153838,-0.0723403,-0.0330827,0.0506123,0.0935924,-0.0711477,0.0102346,0.0740476,-0.0751181,0.00519099,0.0163999,0.00264038,-0.0624374,-0.0818146,0.0851663,0.0528298,0.0468369,0.00530522,0.0588645,0.0276106,-0.0508198,0.054432,0.0290797,0.0259795,-0.023382,-0.0354956,0.0438323,0.0786248,0.000192016,-0.0413681,-0.0352394,0.0454791,-0.0281191,-0.0603329,-0.0575859,-0.0877987,-0.0345965,0.0602084,0.0864447,-0.0222758,-0.0243108,0.0104549,0.0498957,-0.0604909,-0.067574,0.0509986,0.0615346,0.0327059,0.0419093,-0.00105418,0.0416618,-0.0556144,-0.0183009,-0.0599848,0.0252857,0.0764558,0.0240384,-0.0505022,-0.0659738,-0.00638913,0.08587,0.0112148,0.0618495,0.0432541,0.0619495,0.0475781,0.0932416,0.0448166,0.0651504,0.0478513,0.0130829,-0.0429306,-0.0470999,0.0415405,0.0798664,-0.0580573,0.0368565,0.00320157,-0.0173217,-0.0712696,0.0756155,0.0340246,0.0222762,0.0908712,-0.0709491,0.0118709,0.0780874,-0.044396,-0.0384979,0.0359201,-0.00733546,-0.0337897,-0.0812384,-0.0600346,0.0686522,0.0612767,0.00648899,-0.0330562,-0.0520714,-0.0705941,-0.0057581,-0.0589919,0.0497442,0.00407488,0.00249858,-0.0179169,0.0795268,-0.0707017,-0.0598181,-0.0527576,-0.0864581,-0.00325421,-0.0757701,0.0465224,-0.034557,-0.004346,0.0772496,0.0697544,0.0204944,-0.0168147,-0.0434648,-0.00624955,-0.00748603,-0.0679257,-0.0260268,-0.0718549,0.039429,-0.0216773,0.0723443,-0.0469488,-0.0909456,0.0831292,-0.00306297,0.0695076,0.0182505,-0.0749898
0.0788655,0.0332995,-0.0173153,0.0401694,0.0489407,0.0616282,-0.0272313,0.043223,0.000555611,-0.0548571,0.0590616,0.042883,-0.0568567,0.0667869,-0.0204151,0.00818842,0.050878,-0.00906274,-0.0650408,-0.0806184,-0.0229066,-0.0298377,-0.076814,0.00959418,0.0307057,0.0440115,0.0262798,-0.0481092,0.0727309,0.0265502,-0.0344022,0.0674332,-0.0468902,0.0373779,0.068582,0.0261748,0.0752141,0.0147603,-0.021389,0.0769771,0.0805057,-0.0993335,-0.0345594,0.049857,0.0748716,0.0853361,0.0257125,0.0438461,0.0170046,-0.00330143,-0.042865,0.00158446,0.0432507,0.00416701,-0.0706843,-0.07555,0.0276828,0.0275503,0.0784068,-0.0491402,-0.0521931,0.079299,0.0935404,0.0526555,0.0169071,-0.00384966,0.0618082,0.0101814,0.0630212,0.0760347,0.0587758,-0.00197588,0.0115699,-0.0437361,0.0725798,-0.0273572,-0.0694915,-0.038978,-0.0563441,0.0520012,0.0602845,0.0357346,-0.00101065,0.1042,0.0115985,-0.0394461,0.051819,-0.0348953,-0.0399115,0.0775913,-0.0150777,0.00243858,0.0507904,0.0240467,-0.0109254,0.0133168,0.00618092,0.0862872,0.0804406,0.0564356,-0.0142178,-0.0209743,-0.0307613,0.0750673,0.0320945,0.0611477,-0.081518,-0.0458654,-0.0598439,-0.0047698,-0.0424052,-0.0778453,-0.0512837,-0.0459941,-0.0408059,0.0214487,0.0346277,0.0574197,0.0646922,-0.00376947,-0.0189944,-0.0745013,-0.00957479,-0.0489601,0.00309313,-0.0968747,-0.0689338,-0.0112267,-0.0448782,-0.0570276,0.0584169,0.0504331,-0.0832934,0.0355172,-0.0224065,-0.0296259,0.0631072,-0.0739379,0.065555,-0.0158723,0.0719141,-0.0303474,-0.00281958,0.0648188,0.078396,-0.022117,-0.0472424,-0.0567099,0.0429343,0.00295797,-0.0453636,-0.00305298,0.0126853,-0.0155097,0.0115402,0.0271749,0.0605016,0.0240927,-0.0208542,-0.0330734,0.0147058,-0.0393504,-0.0376963,0.0546934,0.0132105,0.0534571,0.0330881,0.0394756,-0.0816443,-0.0402554,-0.0377533,0.0295615,0.0313753,-0.0602736,0.0515854,0.0357607,-0.0168234,-0.0527745,0.0374868,0.0305248,0.0489829,-0.00343684,-0.052738,0.0371479,-0.0794213,0.0189781,0.0700438,-0.00152567,-0.0366226,-0.0413241,0.0571875,0.0777335,0.0393781,0.0498667,-0.0279561,0.008583,-0.011469,0.0296647,-0.0583673,0.00795466,0.0170208,-0.0408931,0.0512345,0.0865804,0.0736774,-0.0412285,-0.0610503,-0.0120868,-0.00216913,-0.0428738,-0.0763443,-0.0174299,-0.043381,0.0396367,-0.0165613,-0.00210533,-0.0952277,-0.0754632,-0.0563862,0.0357436,-0.0764294,-0.0625306,-0.0495792,-0.00450933,0.00871885,-0.0624338,0.00510524,-0.0644171,0.00536724,0.0658202,0.0286814,0.0499278,0.0354609,-0.0776419,0.0331772,0.0375331,-0.0327835,0.0872233,-0.0673871,0.0788433,-0.0702709,0.0153607,-0.0130862,0.00959462,-0.0728191,-0.0906293,0.0149966,0.0291638,-0.0562045,-0.0235407,0.107378,0.041075,-0.0277922,-0.0796598,-0.0598952,-0.0615674,-0.0695344,-0.0289581,-0.054444,-0.0173581,-0.0313731,-0.0621934,0.045691,0.0645117,0.0244022,0.0252539,0.0101002,-0.0534481,0.0559437,-0.0155509,0.0269706,0.0124207,-0.0628346,0.0533734,-0.0870931,-0.0910777,0.0327009,0.0829098,-0.0172931,0.0718031,-0.00702714,0.0353537,-0.0261664,-0.0459312,-0.0415616,0.0406181,-0.0189857,0.0960585,0.0483712,-0.0504754,0.0108435,0.0663535,-0.0639705,-0.0753936,0.0273264,0.00717246,0.0419548,-0.0101233,0.0545826,0.0474419,0.011612,0.000477118,0.0697995,-0.0277464,0.0217261,0.00670063,-0.052877,0.0503653,0.0630989,-0.0509491,-0.0497242,0.0335873,0.0808127,0.00059522,-0.0123718,-0.0639921,0.00452125,0.0028646,0.0381045,-0.0937316,0.0300405,0.0856694,0.0339693,-0.0109255,0.0250535,0.0377716,-0.0348092,-0.0129241,-0.00276259,0.0536445,-0.0438954,-0.0055051,0.0156084,0.0571355,0.0244642,-0.0721132,-0.00731513,-0.033199,-0.0731791,-0.0860941,-0.068602,0.0360715,-0.0302552,0.0141752,0.015987,-0.0162571,-0.0244341,0.0632655,0.0606767,-0.0323838,0.0602384,-0.0188554,-0.04115,-0.0330199,8.76602e-05,-0.0141293,0.0539661,0.0074093,-0.00155388,0.00544658,0.0732739,-0.0300235,-0.0811143,-0.0415617,0.0924001,0.0400576,0.0646785,-0.0255123,0.0554244,-0.0697137,-0.0806694,-0.0247846,-0.0489232,-0.00654542,0.00876158,0.0104786,-0.0391013,-0.0478445,0.0353038,0.0129954,0.0396289,-0.0327917,0.0689253,0.0506919,-0.0295998,0.041989,0.011002,0.0701087,0.0277953,0.0426838,-0.074304,0.0372253,0.00115011,-0.0205985,0.0715415,-0.050185,0.0621428,-0.0294533,-0.0703812,0.0570283,-0.0565281,0.00749591,0.0673323,-0.00910336,0.0723413,0.0631651,0.0445756,-0.0576648,0.0542594,0.000766325,0.0654036,-0.0782645,0.0574379,-0.0357577,0.0168391,-0.015761,-0.0684766,0.0619855,0.0626822,0.0155299,0.025081,0.0485795,-0.0272336,-0.0596338,0.0134735,0.0489621,0.0906304,0.076192,0.0577575,0.0761027,0.0497957,-0.0063588,-0.000925183,-0.0476825,-0.0383859,-0.00845918,-0.0204424,-0.0336081,0.0276562,0.0397249,-0.0516328,0.0533785,-0.00280584,0.0102596,-0.0677498,0.0150933,-0.0625582,0.0431643,-0.0361367,0.00030835,0.0410939,0.0203503,0.0424147,0.0470506,-0.0372445,0.00230078,0.0669697,-0.0641274,0.0529955,0.0595911,-0.0340613,-0.0429003,0.0816538,0.0227381,0.0152796,0.0262232,0.0173657,0.0314973,-0.0871309,-0.00350693,0.00624407,0.00661338,0.00999025,0.0638709,-0.0434736,-0.00627526,0.0756302,-0.0719847,-0.0264759,-0.0767406,0.0335358,0.0635324,0.0790746,-0.0310452,-0.0710648,0.00717966,0.0462882,-0.0753087,-0.00237249,0.0681877,-0.0876441,-0.012084,-0.0484729,-0.00756705,-0.0827825,-0.0671874,0.0857695,-0.0658581,-0.0509937,0.0461424,0.0833644,-0.0522239,-0.0202105,-0.082847,-0.0193787,-0.012416,0.0774103,-0.0178896,-0.0222775,-0.0798441,0.0222305,-0.00202782,0.0713378,0.0374871,0.0361099,0.0200817,-0.013196,0.0296493,0.00462503,0.0843118,-0.0164323,0.0391627,-0.0567377,-0.045038,-0.0652823,-0.0566212,0.0640368,0.0580636,0.0364176,-0.00883935,0.0637483,0.0113097,0.0584216,0.0270991,0.0446723,0.0711881,-0.0777483,-0.0397551,-0.0557319,-0.076584,0.0103348,0.0710884,0.0181818,0.080205,-0.0697489,-0.0695581,-0.0585251,-0.0145007,-0.00283918,0.010733,0.0260176,-0.0734704,-0.000491932,-0.0510487,-0.0553637,0.0445665,0.0558009,0.0427767,-0.0671879,0.0767266,0.0606996,-0.0763144,0.0376545,-0.0823398,-0.0488206,0.0173159,0.0655944,-0.0197278,0.0743217,-0.0764806,-0.0627806,-0.04133,-0.00527517,0.0807469,-0.0509826,0.0129863,-0.0473581,0.0789138,0.062556,0.0102502,-0.0521892,0.00318949,-0.0544297,0.0524992,-0.0873474,-0.0645602,0.0288382,-0.0307955,0.0330283,0.00112481,-0.0214429,-0.0815827,0.0621506,0.0839177,0.0628206,0.00482612,0.0321774,0.0227883,0.0534659,-0.0745487,0.0329041,-0.0467411,-0.0198285,-0.0162895,0.0680103,-0.0522422,0.0660531,-0.063614,0.00803811,-0.0513734,-0.0462896,0.0270257,0.0298255,-0.00470444,0.0314948,-0.0119633,-0.0115819,0.0453233,0.0616144,0.0155315,0.0473568,0.0603209,-0.0544266,0.0942236,0.0371659,0.0761027,-0.0158311,0.0821464,0.00901214,-0.0624113,0.0123982,-0.0868416,0.0403807,-0.0221687,0.00169646,0.0149059,-0.00124062,-0.0357669,-0.0181376,0.053678,-0.0221581,-0.0450153,0.0251965,-0.0258064,0.0761381,-0.0169281,0.0594235,-0.0417563,0.0217711,-0.0215258,-0.0563745,0.0569949,-0.0787976,-0.0641612,-0.0546711,-0.0715225,0.0236021,-0.08219,-0.00827315,0.0622047,-0.0463819,0.0653669,0.0720029,0.0369623,0.0835101,0.00493898,0.0383198,0.00815817,-0.0155792,-0.0357256,0.0644452,0.030353,-0.0134758,0.0514853,-0.00964445,-0.074519,0.0213292,0.0762268,0.0682281,-0.026116,0.00994215,-0.0231273,0.063025,0.0804479,0.0493357,-0.0685599,0.0944638,-0.0764693,-0.0310146,0.0163078,0.0346081,-0.0324215,-0.00962647,-0.0284116,-0.0857094,0.0637694,0.0279731,-0.030607,-0.0409846,-0.0785877,0.0155298,-0.0499945,0.0473271,-0.0463133,-0.0329971,0.0149022,-0.0518316,0.0583153,0.010652,0.0479684,-0.00608326,0.031556,-0.0796097,-0.00750975,0.0165072,0.00200632,0.0546003,-0.0844087,0.0826532,-0.0525512,-0.0679387,0.0460196,0.0497297,-0.0373239,0.076731,-0.0060658,-0.0794436,0.0390541,0.0788723,0.0360512,0.0525281,0.0796425,0.079457,0.0239624,0.0307078,0.0327081,0.088647,-0.066718,0.00801435,0.0441725,0.057833,-0.0835233,0.0447818,-0.0135036,0.0186104,0.0553604,-0.0758832,0.0269123,0.033223,0.00758252,0.0772528,-0.0678442,-0.0295132,0.0540492,-0.0478383,0.0564275,0.0885107,-0.0707525,0.00433903,-0.0100769,0.00382022,0.0631177,-0.0901293,-0.0646121,0.0032383,-0.0349967,0.077887,-0.0146387,0.0558971,0.0679737,0.0356302,-0.0432802,-0.00344975,-0.0450391,0.00493694,0.0491627,0.058484,0.0289671,-0.0384814,0.0130552,0.0193621,-0.0570255,-0.00898321,0.0895974,0.0118553,-0.0579288,-0.00152504,0.0994991,-0.0127284,-0.0394123,0.0460285,0.00920932,-0.076573,0.0565733,-0.0110123,0.0293866,0.078762,-0.0704885,0.0720813,-0.0631831
-0.0709415,-0.0153302,0.00654966,0.0612105,-0.0662801,-0.0519263,-0.0360446,0.0576948,-0.0250132,0.00866504,0.019485,0.0330977,0.00750505,-0.0279931,0.070503,0.025644,0.0539079,0.0670043,-0.0132472,-0.0639668,0.0889283,0.0362601,0.0336659,-0.0509334,-0.0307868,-0.0731547,0.0271436,-0.00378712,-0.057586,0.0644851,0.029147,-0.0305188,0.0340549,-0.0156241,0.08255,-0.00129676,-0.03019,-0.0349658,-0.0579607,0.0126881,0.0692078,0.0075947,-0.030548,-0.0326173,-0.0281115,0.00494397,-0.0106793,-0.0711618,-0.0256675,0.0186458,-0.0481398,0.0111269,0.0289361,-0.0306555,0.0692796,0.0258752,0.00530033,0.00450247,0.0731023,-0.00246665,0.00075952,-0.0481903,-0.0344247,0.0439308,-0.069603,-0.0545778,-0.00881696,-0.0600668,0.00994677,-0.0232314,-0.0231192,0.0775013,0.0133492,-0.0372854,0.029351,-0.0823471,-0.0034076,0.0320314,0.0858121,-0.023284,-0.0751323,-0.0350687,0.0336783,-0.0194042,0.0191518,0.0576173,0.0380245,-0.0761548,-0.0623981,-0.00190613,-0.0761062,0.0507193,-0.00291954,-0.0391314,0.062441,0.0280955,0.00314442,0.0133497,-0.069599,-0.0213612,0.0594546,-0.0702501,-0.0143262,-0.0196717,-0.0115231,-0.0298019,-0.0700545,0.0847855,-0.0745163,-0.0393929,0.0843941,-0.0699225,0.0329784,-0.0747994,0.0178654,-0.072542,0.0722196,0.0247861,-0.0842713,0.0463185,0.0342004,0.0207482,-0.0414593,0.0597222,0.0316814,-0.093343,-0.070756,-0.00958387,0.0231928,0.0449082,0.0135842,-0.0533063,-0.0429282,0.0175677,-0.0474759,0.063645,0.0581262,0.0158996,0.0695023,0.0207727,-0.0639177,0.0559707,-0.00872102,0.0555764,0.053542,0.0916781,0.0471592,-0.0492353,0.0463256,-0.0427304,-0.0748053,-0.0120344,0.0547824,-0.0159348,0.00940642,-0.0416804,-0.0852609,-0.0730291,0.0752882,-0.082021,0.0261375,0.0159044,0.0166634,-0.046294,0.0456926,0.0532813,0.0195455,0.0593774,-0.044625,0.0711542,0.0377041,-0.0553375,0.0558527,0.0698117,0.0352796,-0.0362999,-0.045511,-0.0305794,0.0457013,0.0183602,0.0343467,0.0440905,0.0140329,-0.00551131,-0.0278348,-0.0611379,-0.0598515,-0.0271115,0.0871652,-0.0135915,-0.0273411,0.0613989,0.00335029,-0.0603395,0.063128,-0.0161208,0.0247804,0.0916397,-0.0570618,-0.0645452,0.00832538,0.0328642,0.0677462,0.0379311,-0.0249454,-0.0552584,-0.0563412,-0.0257326,0.00235431,-0.00290208,0.051564,-0.0307748,0.0469381,-0.0304427,-0.0280617,-0.0781024,-0.0498813,0.0160747,0.00887471,0.0402171,-0.0364493,0.083611,0.0670075,0.0261907,0.0328966,0.0879393,0.0805687,-0.0823537,0.0775229,0.0725766,-0.0873169,0.0420025,-0.0212916,0.0456153,-0.00529744,-0.00190679,-0.0673807,0.0161896,0.0517118,-0.0290388,5.17106e-05,0.0485293,-0.0313716,-0.0468253,0.032835,-0.0138963,-0.0552011,0.0650917,-0.0553,-0.0441703,0.0493833,-0.0413223,0.0497554,0.0390046,0.0222596,-0.0198714,0.0775271,-0.0422933,-0.0659727,0.0944664,-0.0504044,0.0808281,0.058331,0.0322903,0.0368207,0.0490275,0.0332349,-0.0334999,-0.00979962,0.0533494,0.0791304,-0.0841472,-0.00497284,0.0670701,-0.0865763,-0.0744613,-0.0438326,0.0238034,-0.0703577,0.0832069,-0.000674445,-0.0325739,-0.0163857,0.0165497,0.0832105,-0.0561097,0.031541,-0.00551593,0.0137617,0.034422,-0.00603098,0.0388317,-0.0345594,0.0564117,-0.00238645,0.0711242,0.0395351,0.0500339,-0.0441797,0.0689289,0.0497823,0.0775076,0.0463888,0.0854522,0.0387935,-0.0192155,-0.0666761,-0.0767449,0.0575709,0.0607643,-0.0317259,0.038573,0.0410857,0.0607542,0.0810359,-0.0838406,0.0148584,0.0014733,0.0528672,0.0534409,-0.0426052,0.0591665,0.0333101,0.0670666,-0.00390888,-0.0591085,-0.024821,-0.0303423,0.0512371,0.0445132,-0.0564647,0.00600899,0.0773218,0.0472833,0.0164635,-0.00238545,-0.0152648,-0.0170057,-0.0266346,-0.0111555,0.0726335,0.0204439,-0.0490755,0.0775137,-0.0827358,0.0833682,0.0711284,-0.05563,-0.0736342,-0.0120707,-0.0334381,-0.0118471,0.0663644,0.0409749,-0.0780891,-0.00968253,0.0363368,0.0101205,0.0105687,-0.0551103,0.0242872,0.0741319,-0.0638162,0.0865069,0.0317074,-0.0245496,-0.030576,0.0715438,0.0771138,0.0691398,-0.0707685,0.00793042,0.0305487,-0.0239513,-0.0452632,0.0636893,-0.0294761,0.0783994,0.0129785,0.0603274,-0.0570568,-0.0155157,0.062449,0.00842608,-0.0293503,0.0717821,-0.0267383,0.0355349,0.0587222,-0.0379691,-0.0293545,0.0106926,-0.0169075,-0.0221799,-0.0440793,-0.0739197,-0.0612181,0.0698815,-0.0703136,-0.0402354,0.0519289,-0.0356606,0.0747217,-0.0675059,0.0410388,0.04117,0.0390061,-0.0293466,0.00244635,0.083615,-0.0418928,0.0534766,-0.0641835,-0.0779325,0.067689,-0.0407267,0.00279654,0.0596437,-0.0129402,-0.0312235,-0.00683998,-0.0467896,-0.0670525,0.0179189,0.0522362,-0.0302331,0.0034015,0.000575981,-0.0937281,-0.0597734,0.0217506,-0.021756,-0.0294702,0.0421266,0.00534198,-0.0432928,0.0835246,-0.0458313,0.105726,-0.0721461,-0.00739176,0.0818652,-0.0629105,0.0663559,-0.0901975,-0.010537,0.0214854,0.00334086,0.014861,0.028487,-0.0768567,0.0867346,0.0520547,-0.0406864,-0.0315846,-0.0187184,0.061153,-0.0483721,0.0863438,0.00194429,-0.0455852,0.0927231,-0.0990506,-0.00898153,0.0153923,-0.00735113,0.0024712,-0.0548055,0.0389698,0.0286836,-0.0211406,0.0383735,-0.0484763,0.0467627,-0.0455671,0.0571134,0.0608915,-0.0660865,0.0333631,-0.0344605,0.0437167,-0.0557305,0.0319857,-0.0501515,0.0541027,-0.0849358,0.0186817,-0.0460965,0.0668726,-0.0210771,-0.00717494,-0.0343485,0.000758208,0.0420498,0.0749987,0.0786002,0.0123336,0.0224086,0.07937,-0.050402,0.0898652,0.0536598,0.000620466,-0.0152754,0.0597523,0.0276261,-0.0118497,-0.0408421,0.0561828,-0.00282372,-0.0393771,-0.00592897,0.0733865,0.0738169,0.0572413,0.0463478,-0.0114783,-0.0543641,0.079638,0.0230802,-0.0563662,-0.0868591,-0.016634,0.0297544,-0.0468493,0.0565025,0.00249095,0.00534214,-0.0559595,-0.00122691,-0.00190322,-0.0723241,-0.0819388,-0.0824487,-0.0571938,-0.046997,0.0378044,-0.058736,0.0817874,-0.0741103,0.0637726,0.0348767,-0.0707117,0.0377106,0.0754195,0.0425704,-0.00382769,-0.0460605,-0.000297622,0.0692133,0.0687709,-0.0314641,0.0347691,0.0579843,0.0405441,0.0463179,-0.0348894,0.0341761,-0.0258989,-0.052431,0.0599641,-0.0494765,-0.0666886,0.0877001,-0.0629294,-0.00500051,-0.0660072,0.0851315,-0.0838682,0.0171321,-0.0142625,-0.0775894,-0.0327941,0.00970048,-0.0670773,-0.0205987,0.0415154,0.0558226,0.0516426,-0.0679836,-0.0674527,-0.0542101,-0.0791998,-0.0787957,-0.057074,-0.0415187,0.0324837,-0.0824471,0.0217228,-0.0162424,-0.031059,-0.056657,0.0359479,0.0199132,-0.0695706,0.0200879,-0.0361106,-0.0500719,0.031408,0.0648776,-0.0245939,-0.0782616,-0.0324351,-0.044869,-0.00492884,0.0593562,-0.0564774,0.0193481,0.00472519,-0.0457558,-0.0186393,0.0326048,-0.0721808,0.00129166,0.0531251,0.059471,-0.0144714,-0.00130678,0.087762,-0.0151416,-0.00111968,0.0465002,0.0552636,-0.0558734,0.0353787,0.0777488,0.0789821,0.0818639,0.0706388,0.0102488,0.0239311,-0.0312265,0.0634578,0.0704738,0.076343,0.00222699,-0.00940142,0.0387803,0.0458385,-0.0147691,-0.0252032,-0.0669424,0.0433832,-0.0817441,-0.00732723,0.0260182,0.0563321,-0.0379887,0.0542595,-0.0334972,-0.0639791,-0.00252536,-0.0514618,-0.027672,0.0597082,0.0659537,-0.0927724,-0.0563725,0.0271515,0.07448,0.0775501,-0.0183251,0.0340242,-0.0543287,-0.0486147,0.0400272,-0.083022,0.0919934,0.00995327,0.0478436,0.0853166,-0.00922614,-0.0445833,0.0646828,0.0266969,0.00794858,-0.0729723,0.000941819,-0.0211958,0.0316475,-0.0306969,0.0189655,-0.0191561,0.0460597,0.0146981,-0.0491418,0.086016,0.0902307,0.0363431,-0.0510271,0.0293669,0.08722,0.0330217,0.0697929,0.0187911,0.0633726,0.0337296,-0.00909782,0.0509633,0.0215431,-0.0206136,0.000612072,0.0886913,-0.0272813,-0.0439604,-0.0688277,0.044454,0.0326178,0.00719742,0.047869,-0.0422738,-0.0344547,-0.0568935,0.0624639,0.0340009,-0.0573838,-0.0646216,-0.0722437,-0.0416427,-0.0806662,0.0779772,-0.0433448,0.00961894,-0.0953144,0.041752,-0.0403747,0.0342388,-0.0268224,-0.0286414,0.0835091,-0.0124492,0.0666912,-0.0733144,-0.0297663,0.00473716,0.0480725,0.0648243,0.0183705,-0.0316715,0.0712285,-0.0389328,0.0245486,0.0347951,0.0046681,-0.0624099,0.0631699,-0.013332,-0.0411703,-0.0217124,0.0367852,-0.0562199,0.0363249,-0.0327156,-0.0240614,-0.0661248,-0.0715684,0.0550026,0.0152426,0.0616832,0.0291995,0.0517793,0.00883607,0.082937,0.00679324,0.0699856,-0.0215842,-0.0774017,-0.0323263,0.0295656,-0.0756826,-0.0377028,-0.0805355,-0.0567645,0.0630026,0.0245322,0.0487214,0.0391778,0.0741634,-0.0795619,0.0569121,-0.065525,-0.0149881,-0.0432811,0.0551301,0.00679433,0.0226079,0.0619072,0.0729988,-0.0553554,-0.054499,0.0895043,0.0279882,-0.0325595,0.00792395,-0.0333983,-0.00653895,0.0821647,0.0119747,-0.0470914,0.067101
0.0883246,-0.0631613,-0.0717657,-0.0597858,-0.0265947,-0.076479,-0.021619,-0.0100275,0.0148082,-0.0689131,-0.0315834,-0.0815837,-0.0219059,0.0593835,-0.0763228,0.0264095,0.0577351,-0.0218234,0.0888656,-0.0854592,0.0358079,-0.0161983,-0.00885601,-0.0119494,0.0334159,-0.0730823,-0.0358298,-0.0824688,-0.0261002,0.018801,-0.0654647,0.0816908,0.030722,-0.0799775,-0.0319917,0.0808129,-0.082382,0.00256317,0.0558619,0.0680937,0.0744444,-0.0234791,0.0618083,-0.0464471,0.0878501,-0.0216788,-0.0152064,0.0449661,8.18291e-05,0.0747548,0.00832372,-0.0785208,-0.0497499,0.0783405,0.0572685,0.000468392,-0.0542799,0.0605905,-0.000580882,-0.0826674,0.0625041,0.0261039,-0.0386458,-0.0151406,0.0624328,-0.011262,0.00888565,0.0632146,0.0399149,0.0731318,-0.0123772,0.0488421,0.0818764,-0.0768954,-0.00914824,0.0402446,0.0644369,0.0198422,0.0112428,-0.0809266,-0.0331547,0.00724941,0.0607082,0.0916446,0.0421729,0.0828081,0.0466375,-0.014638,-0.0733266,-0.025493,-0.0717359,-0.0466733,0.0586611,0.0299094,0.0462812,0.0545908,0.0511627,0.0165495,0.0463325,-0.0050922,-0.00117622,0.0516565,0.066468,0.0721045,-0.082819,-0.00187352,-0.0101534,-0.00324908,-0.0768098,-0.0464175,0.00363048,0.0606029,-0.0593878,-0.0700518,0.0868684,-0.0122239,-0.0468303,-0.053184,-0.0138349,-0.0138852,0.0346033,-0.0555319,0.0785275,0.0511492,-0.0342872,-0.0103258,-0.0819573,-0.021347,0.0270858,0.00652309,-0.0685488,-0.0229733,-0.0265544,-0.0489476,-0.0357842,0.0600066,0.0712771,-0.0454297,0.0405242,0.0702597,0.0584774,-0.0471813,0.0779563,-0.0220047,0.0152694,0.00191156,0.0818713,0.0624769,0.0499297,0.0621042,-0.084931,0.0298376,0.0517608,0.0153058,-0.058973,-0.0468419,0.0828871,-0.00892405,0.0185019,0.0652278,-0.0411354,-0.0656845,-0.0499936,0.0178307,0.0443671,-0.0772251,-0.0696825,-0.059929,-0.0418003,-0.014617,-0.00970402,-0.0263522,-0.00969819,0.0268368,0.0664511,-0.0143724,-0.0475077,0.0298859,-0.0151625,-0.0687754,0.0394204,0.01415,-0.0647487,-0.000205374,0.0772173,-0.00427111,0.0463071,-0.0601582,-0.0713722,-0.00131032,-0.0158658,-0.0786005,0.0900298,0.0703741,-0.016482,0.064001,-0.0634845,0.0816785,-0.0665423,-0.0798574,-0.0407497,0.00648246,0.0205571,-0.0218887,-0.0283181,-0.0220777,0.0285095,-0.00210183,0.00935959,-0.0862528,0.0613664,0.0251826,-0.0662828,0.0415271,-0.0718452,-0.0825503,0.0548506,-0.0781427,-0.00199936,-0.00986124,-0.0557056,-0.0657582,0.0294921,0.0436214,-0.0745449,-0.0688502,0.0376058,-0.0514868,-0.0682359,0.0591825,-0.0693457,0.0664708,0.0866929,-0.0349627,0.0246449,0.0774408,-0.0416112,0.020526,0.0679138,-0.0153789,-0.0118696,-0.0624987,0.0793881,0.0218618,-0.0415134,-0.0198622,-0.0630974,-0.0377527,0.00212964,-0.0604787,-0.0400839,-0.0839229,0.0710354,-0.0535596,-0.0639639,-0.0220332,-0.0364126,-0.076412,0.0356056,0.06052,-0.0675181,-0.0328663,0.0536425,-0.0319454,-0.0536341,0.0596265,-0.0408915,-0.0176338,-0.0500967,-0.0438657,-0.062711,0.0881653,0.0904107,-0.0465015,-0.002851,0.0585581,0.0322691,0.0180096,0.0666421,-0.0711758,0.012334,0.0744074,-0.00939585,-0.0100276,0.0594046,0.0209889,0.00218916,0.0767591,0.0113524,0.0165569,0.00772562,0.0421961,0.0496748,-0.0275864,0.0101808,-0.00137402,-0.000595772,-0.00489114,-0.0770406,0.0869285,0.0669936,-0.00900108,0.00683064,0.0698936,-0.0575428,0.0297613,-0.0605297,-0.0748247,0.0686358,-0.0044121,-0.0411864,0.0799522,-0.0523416,-0.0793034,-0.0281322,0.0774932,0.0394266,0.000165124,0.0603095,0.0527267,0.0245828,-0.0874349,0.0529317,0.0419359,-0.0586107,-0.0617236,0.0665386,-0.00591138,0.0705246,-0.0291702,0.0754604,-0.0413537,-0.049656,-0.0242091,-0.0392754,-0.0585685,-0.0307089,0.0498263,0.0503922,-0.0418833,0.00516908,-0.0233126,0.0796465,0.075081,0.0668394,-0.0195789,-0.000548391,-0.0524781,0.0481547,-0.0767517,0.0616413,0.0746048,0.0319662,0.0208066,0.0246625,0.0306493,0.0812585,0.000612832,0.0507047,-0.053208,0.020702,0.00101331,0.0486547,0.0699884,-0.0563376,-0.00754193,-0.00201966,-0.0648616,-0.0849808,-0.0104619,-0.00577143,0.0364994,-0.0816188,-0.0862515,-0.0370762,0.0177033,-0.0468135,0.0578514,0.0643274,-0.0814074,-0.0514653,0.0517642,-0.0180916,-0.0474115,0.00497028,0.0133545,-0.0351772,0.0521362,0.0758746,0.0225701,0.0283193,-0.0214606,-0.074631,-0.0659051,0.0702259,-0.0357048,-0.0777187,-0.0504333,0.0622251,0.0805512,-0.0185389,-0.041959,0.0114163,0.074829,0.0799557,0.0581372,0.0556542,0.0485056,0.0296535,0.0769977,-0.0759931,0.00309359,0.0556387,0.0634475,0.049002,0.0717007,0.0403513,0.0657193,-0.0772454,0.081288,0.00584052,0.015117,0.0308467,0.022232,-0.0142436,-0.0201152,-0.0780216,-0.0643635,-0.0484188,-0.0800838,0.0195929,0.0163248,0.0383323,-0.0616262,-0.0424597,0.0207919,-0.0435123,-0.052385,0.0196689,0.0363354,0.0597569,0.0441846,-0.0354209,-0.0101466,0.0643005,0.0811331,0.0508647,-0.072798,0.0817799,0.0172441,0.041069,0.0149454,-0.00683639,-0.0462771,-0.040138,-0.0127456,0.0615447,-0.0131844,-0.0812445,0.07913,0.0311635,0.0283141,0.0233626,0.0165992,0.0616701,0.0103151,0.0867589,-0.0130383,-0.0230199,-0.0569241,0.0422264,0.0132714,-0.033546,-0.0115089,0.075966,-0.071917,-0.0687114,0.0258311,0.0678899,0.0745919,0.0122083,-0.01188,-0.0209423,-0.057384,0.0525096,0.0541648,0.0354915,-0.068281,-0.070442,-0.0450145,0.00600355,-0.0715748,-0.0283369,0.0537371,-0.0254608,0.0194982,-0.0332093,0.0101362,-0.0371531,-0.0602489,0.0794024,0.072056,0.0746914,-0.00922286,0.0225945,0.0406888,0.00265393,-0.00432632,-0.0069563,0.0679276,-0.0120671,-0.0357422,0.0772427,0.0841354,-0.0516928,-0.04339,0.0327682,0.0223441,-0.0365002,-0.0720772,0.0479416,-0.0188886,-0.0444096,0.0833037,-0.0602206,-0.0510668,-0.00446681,0.077216,-0.0371623,0.0537361,-0.0436294,0.0296843,-0.0504618,0.00914774,-0.0479066,-0.0228818,0.0419134,-0.0644719,-0.00904288,-0.0375473,0.0347912,-0.084389,-0.0800854,-0.0708255,-0.0507625,0.00690608,-0.00134142,-0.0544461,0.0704896,0.0442218,0.0330204,0.00153501,0.000559451,-0.00293368,0.036002,-0.0772953,-0.086003,-0.00682677,0.00445164,0.0330072,-0.0843539,0.0640015,0.0402094,0.00320875,-0.0327863,-0.020396,0.0186195,-0.0446518,-0.0817029,0.0644263,0.0305575,0.0654509,0.0220479,-0.059847,0.0669187,0.0320012,0.0671423,0.0579796,0.0262459,0.0521625,0.0613449,-0.00471612,0.03735,0.0541648,-0.0761295,-0.0506505,0.00524906,0.0643877,-0.0625714,0.0888535,0.0664525,0.0535228,0.0367429,0.00852444,0.0116562,-0.0297603,0.0505539,-0.0384004,0.0844413,-0.0740351,-0.039872,0.024586,-0.00454666,0.0548525,-0.0396865,0.0698937,-0.0297391,0.0152079,0.016044,0.00760626,0.0457184,-0.00685471,0.0534193,0.0312393,-0.037492,-0.0146192,0.0457343,0.0328488,0.08057,0.0678182,-0.0120428,0.0793899,-0.0768212,0.0453368,-0.0618288,-0.0564309,-0.0624037,-0.0048602,-0.0354395,-0.0772362,-0.0679161,-0.0441677,0.056036,-0.00088418,0.0361797,-0.00738321,-0.0249203,0.0841793,0.041538,-0.0202069,0.0310475,-0.0730298,-0.050423,-0.0773698,0.0280243,-0.0589042,0.0153219,-0.0375957,0.0876041,0.076388,-0.0608995,-0.0363994,0.0700146,-0.0299547,-0.0803151,0.0549074,-0.0595488,0.0275479,-0.0300348,0.0629616,-0.0594368,0.00498884,-0.0174517,-0.0369511,-0.0676483,0.032197,0.00868482,0.0543721,-0.0661035,-0.0432094,0.0113144,-0.0611977,0.0506206,-0.0838936,0.0183147,-0.00100166,0.0403396,0.0543675,0.0553274,-0.0777179,-0.038631,0.0257517,0.0618967,0.0582511,0.0593468,0.0244083,0.0453735,0.0362238,-0.0667001,-0.00130005,-0.0487193,0.0543059,0.0115273,-0.0705746,0.0798852,0.0159379,-0.0690291,-0.0331536,0.0496588,0.0188619,0.011273,0.0788845,0.0713561,0.0200716,0.00600273,0.0482448,-0.0246092,0.0767383,-0.0744666,0.0823938,-0.0769469,0.0381611,-0.0184227,0.0846018,0.0572487,-0.0217985,0.0272663,0.0634359,0.0882695,-0.037675,0.0725089,0.0743193,-0.089189,0.00404063,-0.023067,-0.0235816,-0.0498666,-0.0190162,-0.0265541,-0.0185589,-0.0705278,-0.0669882,-0.0434369,-0.0484997,0.0832189,0.0688864,-0.0653467,-0.0713098,-0.0741811,0.0232318,-0.0750882,0.0720742,0.0122811,-0.0304537,-0.0497587,-0.0626379,-0.0140255,0.0948846,0.0517935,0.064916,0.00110698,0.0544171,0.0623449,0.0274732,0.0535487,-0.0313352,0.06738,0.085532,0.0740807,-0.051708,-0.0672224,-0.0123019,-0.0835441,-0.0803236,-0.0161302,-0.0787238,-0.0464484,-0.0567651,-0.0603593,-0.0455874,0.0143795,-0.0307282,0.0457272,-0.0861421,0.0238559,0.0540487,-0.0484342,-0.0223836,0.027024,0.0837254,0.0635508,0.0265678,0.0863046,0.0124121,-0.053996,0.0578081,-0.0760407,-0.0787041,0.0419772,-0.0501593,0.0201541,-0.0797323,0.0146516,0.0482608,0.0707258,0.0108941,0.0678209,-0.0407645,0.00276446,0.0465905
-0.0572584,-0.00129362,-0.00743773,0.058136,0.0432555,-0.0778926,-0.0360902,0.0162501,0.0380523,0.0202883,-0.0826105,0.0642405,0.0519623,0.0276522,-0.0206831,-0.0257382,0.0181354,-0.0555183,0.0562871,0.0210805,0.0289892,0.0692715,0.0121043,-0.0829099,0.0482516,0.0766867,0.016862,-0.0298732,-0.00583384,-0.0549545,0.0358324,0.0736725,0.0848363,-0.0769009,-0.080608,-0.0300172,0.052737,0.0446231,-0.0374484,-0.00523398,-0.0254832,0.0631931,-0.0499112,0.0836553,-0.0577289,-0.0413284,-0.0255123,0.0654218,-0.0625082,-0.047623,0.00112965,0.0730014,-0.0718276,0.043952,0.0538513,-0.0194206,0.00239984,0.031988,-0.0199061,-0.0567175,0.0538353,0.0843305,0.000130553,-0.0381582,-0.0732803,0.0446895,-0.0634126,-0.045223,0.0371588,-0.0265988,0.0615473,-0.0631585,-0.00126054,0.047316,-0.0333214,0.0520009,-0.0403331,0.0496836,-0.0871668,0.0644537,-0.0705534,-0.00784045,-0.0491426,-0.00593684,0.0661239,0.007596,-0.0718578,-0.00252929,-0.0482404,-0.00967687,-0.00257851,0.0100098,-0.0852646,0.0416442,0.0565663,0.0211541,0.0718305,-0.0733418,0.0199613,-0.0737277,-0.0431206,0.0648501,0.0285331,-0.0819209,-0.0832957,-0.0252099,-0.0869671,0.068446,0.0773731,0.0699887,-0.0394579,-0.0394839,0.061424,-0.0679561,-0.0608477,0.0314491,0.0167564,0.0184664,-0.0307242,0.0201358,0.0294518,0.080206,0.0781258,0.0167363,0.0678949,0.0542202,0.0539539,0.021052,0.0181953,0.000548556,-0.0393752,0.0833584,0.080924,0.0330366,0.043205,0.0638969,0.0548486,0.0403986,-0.0766274,0.00916726,0.0663081,0.0104588,-0.0293724,0.0662265,0.0848916,-0.0301916,-0.0842349,-0.0864074,0.0494665,0.0128375,-0.0229826,0.0464903,0.044356,-0.0386638,-0.0530017,0.0316156,-0.00043801,-0.00723311,-0.0156428,-0.00917912,0.0513177,-0.0517267,0.0791523,-0.0191847,0.00374451,-0.0425312,-0.0721413,0.0792915,-0.0834935,0.0623711,0.0538102,-0.0379446,0.0655351,-0.0399777,-0.0881724,-0.0192852,-0.0773116,0.0514201,-0.0278015,-0.0338491,0.0144484,-0.0555688,0.0236498,0.0351194,0.0183327,-0.0323521,-0.0545777,-0.0154793,0.0100725,0.0539012,0.0735351,-0.0440422,0.0577992,-0.0051308,-0.00767286,0.00850594,0.0735654,0.076345,-0.032898,-0.0230961,0.0381065,0.0754505,0.0273038,0.0672163,0.0518705,0.069132,-0.0576005,-0.0107947,0.0470425,-0.080275,-0.0809617,-0.0824826,0.08332,-0.0666494,0.0214475,-0.00476508,0.0146357,-0.0635865,0.0523967,-0.0694632,0.0617395,0.08068,-0.0309951,-0.0577225,-0.015849,0.0184212,-0.012099,-0.000519511,0.0778902,-0.0357343,-0.0739173,0.008245,0.0494431,-0.0798119,0.0479234,-0.0106694,-0.029406,0.0202672,-0.022913,0.0134717,0.0252793,-0.0440782,0.0280914,0.046688,-0.0758142,-0.0676556,0.01414,-0.0298037,0.078143,-0.00136365,0.0647585,0.0154901,-0.0758318,-0.0684316,-0.0868051,0.0775063,-0.000396147,0.0728595,-0.0800197,0.0725474,0.0136708,-0.0331259,0.0652802,0.00562164,-0.0604326,-0.0626618,0.0410403,0.0578054,-0.0635672,0.0147002,-0.0828867,0.0714592,-0.0363725,-0.0634085,0.0541251,-0.0500887,-0.000380623,0.0469422,0.0177298,0.0782569,0.0772907,0.0632181,-0.0450663,-0.00207161,0.00918334,-0.0183137,0.0757311,-0.047678,0.0352357,0.0437313,0.0788397,0.0340047,0.0785514,0.0633506,-0.0835793,0.043081,0.0290075,0.00905362,-0.0355828,0.0552308,-0.0564135,0.0263982,0.0635222,-0.00943797,0.0707,0.03584,0.0509475,0.0669719,-0.0725635,0.0199705,-0.0772731,-0.0782404,-0.0167211,0.0593154,-0.0534347,-0.0646483,0.0620244,-0.0102764,-0.0744116,-0.0829189,-0.0266518,-0.0620694,0.0602675,-0.0417999,0.0359362,0.053867,-0.0336293,0.0573053,-0.0668347,0.0719685,-0.0155482,0.0542506,0.0123386,0.0327136,0.0806132,0.0204398,0.00407096,-0.00331937,-0.0360325,-0.00857664,-0.0610675,-0.0582434,-0.0475395,-0.0667067,-0.00133493,0.0174383,0.0563118,-0.0163776,0.0397153,0.0136265,-0.0600309,0.0637417,0.000256665,0.000929055,0.0591369,0.0286914,0.037103,0.0544321,0.0726142,0.0374016,0.0122541,-0.0693224,-0.048236,-0.0451827,-0.0148446,-0.0140411,0.0414889,-0.0581463,0.0129694,0.00525082,-0.0666696,-0.0598022,-0.0835941,0.0791823,0.0559891,-0.0736909,0.0273403,0.0539227,0.0522968,-0.0409189,-0.0527277,0.0213015,0.0364861,-0.00124677,0.0697594,-0.076005,-0.0167475,-0.0596997,0.00134774,0.0574783,-0.0274947,-0.0102735,-0.0584387,-0.0648548,0.0453119,0.00307508,0.0255199,-0.0144266,0.0376629,0.0521827,0.0707388,-0.0698569,-0.0260046,-0.0684829,-0.0746679,0.0172279,0.00344976,0.0654127,0.0020511,-0.0387662,-0.0225541,-0.0635484,-0.087465,-0.0587694,0.0388776,-0.0805916,0.0232037,-0.0399544,0.0742823,-0.0382957,0.0425434,-0.0624453,-0.0249143,0.0358705,-0.0243336,0.0530878,0.0715987,-0.0595358,-0.0890956,0.0789491,0.0883553,0.0204672,0.0708865,-0.0349153,-0.0479906,0.0225994,-0.0762866,-0.0479761,-0.0732406,0.0908265,0.00124388,-0.0129942,0.0635869,-0.0862538,-0.0183963,0.0865744,-0.0789384,-0.0328433,-0.00164785,-0.0473428,0.0359856,0.0688611,-0.00731345,0.00893321,-0.0431759,-0.030933,0.0543437,0.0803664,0.0502053,0.0114107,-0.078542,0.00827492,0.0488507,-0.0327093,0.029193,0.01388,0.0373859,0.0720359,-0.0886436,0.0662067,-0.0134147,-0.026393,0.0385034,0.0718113,-0.081725,0.0806932,0.0160412,-0.0023286,-0.0591619,-0.0847339,0.0653634,-0.0913852,0.0761031,-0.02248,-0.056836,-0.0131787,0.0509587,0.0640593,-0.0441807,-0.00983165,-0.0164422,0.0457161,-0.0508341,-0.070017,0.0152181,0.0848862,-0.0239417,0.0472577,-0.0707535,0.0117456,0.024289,0.0210749,0.0447043,0.0521371,-0.017905,-0.0417929,-0.0347187,-0.0964741,0.0190208,0.053412,0.0574862,0.0196389,0.0506689,0.0554306,-0.0763116,0.0790584,-0.0281402,-0.0348489,0.0600937,0.0186829,-0.0801226,0.0780392,0.0610151,-0.00662797,0.0506072,-0.0407214,-0.0140119,0.0630912,-0.0754117,0.0499844,-0.0346042,-0.0319804,-0.0461282,-0.0172574,0.0460672,-0.0289298,0.00270458,0.0308963,-0.0882774,0.0243687,0.00351716,-0.0704729,0.0752647,0.0716662,0.0313546,0.00265651,-0.0745397,0.0326301,-0.00154524,0.0665418,-0.0666369,-0.0702812,0.0230708,-0.023269,0.0605148,-0.0836729,0.00889108,-0.0854486,-0.0828072,-0.0770836,0.0720559,0.0892098,0.0493261,0.0112306,0.0614048,-0.0247043,0.0805459,-0.0432853,-0.0502119,-0.0677657,-0.0397471,-0.0618028,-0.0832828,-0.0659845,-0.0828338,0.0235708,0.0759184,0.00333159,0.0746647,-0.0731872,0.0167022,-0.0675757,-0.0155687,0.0716119,-0.0668908,0.00865867,-0.0460872,0.0502535,-0.023636,-0.00539181,0.0572903,0.0363694,0.0449266,0.0799602,0.0717615,0.022854,-0.073157,-0.0428063,0.0502008,-0.00183224,-0.0757496,0.0808734,0.0797119,-0.0697263,0.0313143,-0.0349112,-0.0111299,-0.0702687,0.0739265,-0.0420985,0.0290948,0.0275064,-0.0422466,0.0175154,-0.0491694,0.0617797,-0.0258953,-0.0379979,-0.0532,-0.0861307,0.0581559,0.0225551,-0.0529207,-0.0424361,0.0695736,-0.0266416,-0.0251219,0.0317326,-0.0273408,-0.00388058,0.0690872,0.0515858,-0.0304709,0.0339707,0.0574343,-0.067057,0.0313654,-0.00037243,0.0107057,-0.0114511,0.0828676,0.0313373,-0.0684496,-0.0383123,0.0695946,-0.0754322,0.051579,-0.0435885,0.011622,-0.0745617,0.052942,-0.0779128,-0.0239015,0.0142075,-0.016891,0.0269361,0.00257529,0.0044596,0.0790782,-0.0148397,-0.0405087,0.0526109,-0.0885023,0.0758706,0.0486174,-0.0358076,0.00788594,0.0299333,-0.0665001,0.0345037,0.0282039,-0.0732061,-0.0620312,-0.00244212,0.0319721,0.0368078,-0.021227,0.0345078,-0.0363494,0.0541031,-0.0283334,0.0418413,0.0498909,-0.0821737,-0.0392135,0.0482028,0.0700711,0.0469115,0.0774535,0.0357489,0.0739913,-0.0413803,0.0800997,-0.0152447,0.0763967,0.00108163,0.0475197,-0.040422,0.0299605,0.0382837,0.0389178,0.021398,0.0652331,0.00349472,-0.0847379,-0.0493539,0.0659213,-0.0393999,-0.0667294,0.0303631,-0.00249505,-0.0249867,-0.0128685,0.0714347,-0.0632121,-0.0260888,0.0455278,-0.0811178,0.0647877,0.0559661,-0.042335,0.0710067,0.0701739,0.0226082,0.00276904,-0.0313919,0.0606926,-0.00490596,0.0261798,-0.00865414,-0.040665,0.0189553,0.0643987,0.0275086,-0.00671715,-0.071638,-0.0702977,-0.0864422,0.00437303,0.0394846,0.00291382,0.013122,0.013582,-0.00719227,0.0602265,-0.0865471,-0.0461506,0.0354281,-0.0427974,-0.0619375,0.0817513,0.00764257,0.078492,-0.0806569,-0.0754238,-0.030806,-0.00559254,0.0272638,0.0701001,0.0464895,0.0444722,0.0142265,0.0109575,0.0357284,0.0779965,-0.0634665,-0.0340584,0.00603356,-0.083717,-0.0518234,-0.087259,-0.000101865,0.0816682,-0.022985,-0.00742018,-0.0500409,-0.00961932,0.0598418,-0.0399267,0.0307379,-0.0335248,0.0152248,-0.00567264,-0.0785244,0.0414981,-0.0147394,-0.0636973,0.0755102,-0.013059,0.0252777,0.0816035,-0.0241466,0.0303668,-0.0844767,0.0108882,-0.0155204,0.0853944,0.00157021,-0.0247974,-0.0354135
-0.0377784,0.00887211,-0.0423322,0.0402665,-0.0333993,0.0588795,0.0832489,-0.051188,-0.0400258,0.0698465,-0.0157021,-0.0509343,-0.0300518,-0.0143625,0.0752348,-0.0149472,0.0438352,0.0467805,0.0694576,0.0468729,0.0421271,-0.0612359,0.000552626,-0.0325007,0.0334134,0.0445044,0.0110984,0.0635395,-0.0153652,-0.0375603,0.0380808,0.0293405,0.0361864,-0.0817233,-0.0366161,-0.0568856,-0.0552066,0.017922,-0.0582802,0.0631874,-0.0667868,0.0841866,0.0698561,-0.067075,0.00291075,-0.0368972,-0.0599896,0.0412553,-0.000636066,-0.0449009,-0.0095718,-0.0733072,0.0259369,-0.00400469,0.0701813,-0.0718111,0.0121604,-0.0133378,0.0751913,-0.0304417,-0.03414,-0.0227954,-0.0112505,-0.0728039,0.0694947,0.0589812,-0.00736655,0.00686809,0.0254482,-0.0600131,0.0453202,0.0376661,0.079493,0.0433199,0.0491474,0.00482325,0.0477346,-0.0275484,0.0630288,0.0865993,-0.0734224,0.011863,0.0701837,0.0482537,-0.0457166,-0.0851654,-0.0457053,-0.00313167,0.078043,-0.0324361,-0.0662703,-0.077559,0.0793179,-0.0581807,-0.0797777,-0.0851193,0.0624655,0.0516724,0.0628397,-0.076855,0.0247383,-0.0838235,-0.0433915,-0.0523513,0.00689275,-0.0778172,-0.00992065,0.0806878,0.0631845,-0.0809306,0.0811402,-0.055326,0.0138007,-0.0827268,-0.044114,0.035835,-0.0801625,-0.0607027,-0.0269666,0.0714446,-0.076595,-0.0321592,0.00857816,0.0589119,-0.0186049,0.0331576,-0.0150626,0.0192287,-0.00989749,-0.0834086,0.0660345,0.0415818,-0.0073498,-0.0185334,-0.0286855,-0.0860374,-0.0724474,-0.0047695,-0.0579599,-0.0594327,-0.0514828,0.0314272,-0.0122017,-0.0137975,0.0330815,-0.0564873,-0.0379195,0.0274482,-0.021162,-0.0559321,-0.028633,-0.00158894,0.0369481,-0.0460481,0.0514397,-0.0700538,0.0116848,0.0638426,-0.0374877,-0.0303084,-0.0393371,-0.043797,-0.0463113,0.0721561,0.0852841,-0.0464391,-0.0320786,0.0295339,0.00372742,-0.0161211,0.0325281,-0.00204981,0.0542913,0.074768,-0.01673,-0.00243525,0.050789,-0.0509461,0.0753502,-0.0764532,0.0206396,-0.0417774,0.0465319,-0.0463966,0.00351686,-0.078309,-0.0792515,-0.00419567,-0.0565271,-0.0215284,-0.0635056,0.0283909,-0.00909756,-0.0204993,-0.0844649,0.0644693,0.0139171,0.057317,0.0674895,0.0742115,-0.0390944,0.0469943,-0.0354134,-0.070991,-0.0636328,-0.0355073,-0.0483499,0.0296861,0.0410135,-0.0184516,0.042572,-0.0173685,0.020357,0.0604175,0.0809579,0.00147677,-0.0370099,0.0347109,-0.0372285,-0.0652333,-0.0131419,0.00238659,-0.0632723,-0.0646591,-0.0269181,-0.0500663,-0.051169,0.00142717,0.0516748,0.0585899,-0.0726294,-0.0697843,0.0499865,-0.0807192,0.0852785,-0.0665779,-0.0139221,0.0368934,-0.0609505,-0.0246485,-0.0376429,-0.0210951,0.00169951,-0.015728,0.022498,0.0643325,0.0852566,0.0155757,-0.0187396,-0.00982163,-0.0482722,-0.0712008,-0.0595891,-0.0185956,-0.0427969,0.0169367,-0.0564337,-0.0572518,-0.0284783,-0.0810701,-0.073739,-0.00153585,0.0138454,0.0813182,0.0371288,-0.00560178,0.0541829,0.0380334,0.00108857,0.0499164,0.0796259,-0.0312146,-0.0256916,-0.0502856,0.0642199,-0.0309342,0.0563781,-0.0463311,-0.0165496,0.0559983,-0.00925956,0.0769302,0.0167546,0.0601316,0.00904842,0.0169148,0.00393308,0.0365248,0.0386671,-0.0409299,0.0795935,-0.00813624,0.0297628,-0.0336508,0.0589681,-0.0104622,-0.0591515,-0.0222919,-0.020421,-0.0523512,-0.0751464,-0.0634007,0.029709,-0.0640547,0.0226825,-0.0422155,-0.0391763,-0.0832515,0.0240999,-0.0107449,0.02057,0.0156481,0.0135872,0.0771522,-0.0138961,0.00514921,0.00779938,0.0314033,0.0693492,-0.0459312,0.0446144,-0.0745834,-0.0673069,-0.0712021,-0.0537785,0.0592987,-0.0279194,-0.0472517,-0.0717224,0.0336465,-0.0574578,0.00227869,-0.064674,-0.0605937,-0.0113136,-0.0556312,0.0237513,0.00963607,0.0313444,-0.0698449,0.0646786,-0.0258796,0.0103685,-0.00600362,0.0764608,0.0626365,-0.0815929,0.057738,-0.0829839,0.0835942,-0.0132678,0.0139648,0.00627203,0.0546482,-0.0839248,-0.0549766,0.00104715,0.0605617,0.0603868,0.0390763,-0.0617178,0.0386407,0.0308334,-0.0770346,0.0700449,-0.00476549,-0.0394875,0.00116205,0.0825218,-0.0363171,-0.0186037,-0.0389597,0.00874225,0.0166859,0.0282653,-0.0220664,0.0686829,-0.0167563,-0.0555843,0.0212,0.065421,0.0241185,-0.0774373,-0.0190353,0.0110942,-0.076568,-0.0217528,-0.0384928,0.0526158,0.0685245,0.0587726,0.0719209,-0.0278819,-0.0615573,-0.0481456,0.00365014,-0.0317952,-0.0787703,-0.0335863,-0.0233042,0.0526893,0.0431546,-0.0456473,-0.0630501,-0.0582022,-0.017339,-0.0499046,0.0129237,-0.00165796,-0.0114642,-0.00139145,-0.066427,0.00850446,-0.00186519,0.0840975,-0.0643019,-0.0727564,0.0531083,-0.0461766,-0.0773813,0.00155334,-0.00799849,-0.0278765,-0.0460116,-0.0500031,-0.0456516,-0.0229223,0.0811356,-0.0454085,-0.0237095,0.0408189,0.0603481,-0.0219794,0.032918,-0.00241766,-0.0184478,-0.0327421,-0.0704706,-0.0545206,0.0126986,0.0845584,0.0158175,0.0435261,0.0785193,0.0547608,-0.0533038,0.0690439,-0.0405586,-0.0439261,0.0709076,0.0509183,-0.0383011,0.0273886,0.0293019,0.0685958,0.0554445,0.0190242,-0.029199,0.0774115,-0.0703868,0.0736723,-0.081436,0.00746627,-0.061249,-0.0764064,0.0320368,0.0437381,0.049303,0.0596425,-0.0642293,-0.0807628,-0.0539709,-0.0248646,-0.0252821,-0.016852,0.023051,-0.0571254,-0.0343598,-0.0682355,-0.075511,0.0495554,-0.012861,0.0777732,0.0677113,-0.0695316,-0.0675929,-0.0433277,-0.0346656,-0.00985069,-0.0292845,-0.0192593,0.04031,-0.029024,-0.0603307,0.0496369,-0.0765068,-0.0741922,-0.0448497,-0.0356817,0.022603,0.0339563,0.0447324,-0.0535458,-0.0351773,0.0241155,0.0229008,-0.0445012,0.00352002,0.0648345,-0.0739001,-0.073269,-0.0673791,0.0240442,-0.00544497,0.0746364,0.0360065,0.0578613,-0.000920371,0.0142702,-0.00090448,0.00327968,0.051568,-0.0646314,-0.0737493,0.0850405,0.0579772,-0.054786,0.0285226,0.0578756,0.0260146,-0.0117292,-0.0358328,-0.0413166,0.0318107,0.0549194,0.075858,-0.0509593,0.0039754,0.0562209,-0.0640194,-0.0560935,0.0653502,0.0848651,0.0833373,-0.00366513,-0.0104997,0.0716358,0.0132207,-0.0761889,0.00836068,0.00143097,0.0654839,-0.0229059,-0.0634959,0.0401622,-0.0733084,0.0418995,-0.0546786,-0.0301925,-0.0471789,-0.0597692,-0.0810184,0.0411156,0.0475597,-0.0106519,-0.00426279,0.0787272,-0.00352935,0.024146,-0.0496481,-0.000620173,0.0162727,-0.01027,0.0332075,0.0630499,0.00925179,-0.0207803,-0.0761125,0.0402939,-0.0756384,0.00750115,0.0686711,0.0744861,-0.0321149,0.00403219,-0.012456,0.082021,0.0863718,0.0211451,0.0585546,-0.0361709,0.0529765,0.0417378,0.0744413,0.00630192,0.0568268,-0.0392672,-0.0232147,-0.00221578,-0.0506088,0.076736,0.00349855,0.0391071,-0.0242614,-0.0712359,0.0668387,-0.0226026,-0.0333753,-0.0247197,-0.0253769,0.028059,0.0206148,-0.0106622,-0.0138173,0.0235686,-0.0119241,0.0412864,-0.0216001,-0.00160943,-0.00032619,0.0136505,-0.0748811,-0.0403379,-0.061937,0.0557413,-0.0432143,0.0248133,-0.0569483,-0.0162884,0.0577343,0.0544874,-0.0812907,0.0631228,-0.0100704,-0.0858311,-0.0142151,-0.0805456,-0.0383169,-0.0198707,0.0070076,-0.0721225,0.0310548,-0.0108519,0.0855226,0.0563954,-0.0531837,0.0477465,-0.0150035,0.0143063,0.0530321,0.0698443,0.0739444,0.0613145,0.00234704,-0.0115564,0.0448213,-0.039253,0.0609987,-0.0650154,0.0401668,0.0862316,0.00912224,-0.00289952,0.0312615,-0.0166635,0.0447633,0.0405391,-0.0505003,-0.0093439,0.0670062,0.0843403,0.0851823,-0.0213206,-0.0425121,0.0751042,-0.020791,-0.0808389,0.0288391,0.0317465,0.0386805,0.0112791,0.0358067,-0.0521254,-0.0137537,-0.0839702,0.0643895,0.0677102,-0.0692819,-0.0123112,-0.0587409,0.0336566,0.076497,0.0225737,0.0337396,0.0450941,0.0722076,0.00435158,0.0720157,0.000293641,0.0422702,-0.054512,0.0252003,0.0157609,0.080634,0.0485981,0.0297842,0.0274375,-0.0594012,0.0741227,-0.0568509,-0.0629048,0.0185365,0.0421635,0.0635074,-0.030927,-0.0171227,-0.0393949,-0.065662,0.0329494,-0.039829,0.00987152,0.0125267,-0.0395351,-0.000459552,0.0189841,0.0233,-0.0180897,0.0121469,-0.0735181,0.0650774,0.0741012,0.0515665,0.0245575,0.0541236,0.0227075,0.0186595,0.0695647,-0.0552203,-0.04976,-0.00313317,-0.0812082,0.0765825,-0.0775187,0.0305529,-0.030189,-0.0573792,-0.0727496,-0.05625,0.0188487,0.0593513,0.0177141,-0.0807025,0.0417707,-0.071024,-0.0644695,0.0322649,0.0626061,0.0567452,-0.02243,0.0740874,-0.0412945,-0.0660653,0.0853294,0.0527391,0.0609311,-0.0825575,-0.0566641,-0.0339358,-0.0759833,-0.019211,0.0103765,0.0354005,-0.0184372,0.0554486,0.0374872,-0.0360196,-0.0620222,-0.0488883,0.0611814,0.0422471,0.0839281,0.0354949,-0.0708309,-0.0550233,-0.010935,-0.00853619,-0.0746385,0.0484796,-0.02542,0.0664202,0.0485572,0.0191994,-0.0672761,0.0851235,0.0612818,0.0112844,-0.0649344,0.0707998,-0.0281711,-0.0714921
0.0456417,0.081533,-0.023537,-0.0351179,-0.00936521,0.000469254,-0.0216222,0.0331299,0.0319828,0.0371244,0.0994129,-0.0484217,0.0563435,-0.0776776,0.0665529,0.0493198,-0.0356465,0.0218569,0.015419,0.0504968,-0.0648938,-0.0703888,0.0161792,-0.0145435,-0.009597,0.0509257,0.0581415,-0.00727215,-0.00297475,-0.0202718,-0.001023,-0.038585,0.0738546,0.0726661,0.021231,-0.0673241,0.0839337,-0.0140149,-0.0339983,-0.0514243,-0.0528192,-0.0413927,0.0599191,0.0572171,0.0611271,0.0193476,-0.0365305,-0.0471403,0.0596831,0.0134249,0.0589044,0.0214215,-0.0444074,-0.0706198,0.0342275,-0.0425585,0.0720382,0.0692895,0.0746387,-0.0434709,-0.0495554,0.0376362,0.08836,-0.0608029,-0.0730472,0.0495868,0.00258848,0.0270767,0.0763104,0.091188,-0.0966289,-0.0562464,-0.0670683,-0.00532154,0.0463627,-0.0311135,-0.0547434,-0.0635233,0.0274714,0.0516829,0.00110029,-0.0462517,0.00962123,-0.0177552,0.0497451,0.0652661,0.0624491,0.00755074,0.0667381,0.0117025,0.0652076,0.0775767,-0.0203615,-0.0238276,0.0041169,-0.0192889,-0.0144102,-0.0157521,0.0415705,0.0341936,0.0462151,0.010985,0.00338763,-0.0475959,0.0351882,0.0854883,0.00907519,-0.0407403,-0.0558396,-0.0250216,-0.0473364,-0.0665412,0.0144358,-0.0167542,-0.0228719,-0.0409627,0.0460533,0.0136222,-0.0310693,0.0617462,-0.00504064,0.021194,0.00683214,0.0150528,0.0598436,-0.0453617,-0.0300901,-0.0272447,-0.0506812,-0.0229666,0.024086,-0.0381039,0.00800192,-0.0316922,-0.0730739,-0.00409051,-0.0270877,0.0193001,0.00624911,0.0820566,-0.00363199,-0.0729363,0.037375,-0.0902445,-0.0663417,-0.0133367,0.0114765,-0.0182469,-0.0279765,0.0647733,0.00934081,-0.029982,-0.0793635,0.0553285,-0.0446439,0.0605154,0.0527372,-0.0564131,0.06448,-0.0616405,-0.0582009,-0.0785083,0.0661713,-0.0671485,-0.0370003,-0.075006,0.0012713,-0.0688005,0.0191841,0.0319022,-0.0467194,0.061894,-0.0206311,-0.0738126,-0.0495505,-0.036051,0.011815,-0.0306683,0.0150736,0.0149853,0.0410671,-0.0764446,0.0902141,-0.00245868,-0.0184531,-0.0104553,0.0722532,0.0565162,-0.0197873,-0.0603499,0.0259617,0.0889277,-0.0446804,-0.0856972,0.0620774,0.0616452,-0.0439052,0.0353402,-0.0619199,0.0778676,0.0290394,-0.0166023,-0.00835905,-0.0756691,0.0465935,0.0637419,0.0620656,-0.0332107,0.0777964,-0.0130665,-0.0567848,-0.0671516,-0.0336366,-0.0290776,0.0381168,0.0361416,-0.0210517,-0.0890573,-0.0502235,-0.0792183,-0.027954,0.0411893,0.0633865,0.0273312,-0.0683083,-0.00323221,0.0312884,-0.0733852,0.086176,0.0314751,-0.00251615,0.0490206,-0.0782301,-0.017568,-0.00262352,-0.0531794,-0.0761871,0.0421913,0.0354561,0.00471131,-0.0760048,0.0402016,-0.0272217,-0.0459596,0.0367062,0.00477068,0.0421839,0.00885149,0.0215277,0.056821,-0.0316721,-0.0461624,-0.0517526,0.0767677,0.0762417,0.0615316,0.00495847,0.036412,0.0700557,0.0336407,-0.0231067,-0.0675669,-0.0329336,-0.0769488,0.0782671,0.0231759,0.0289226,0.00553152,-0.045109,-0.0568523,0.0498555,-0.0222323,0.0676479,0.0127882,-0.0331269,-0.0272516,0.0303164,-0.0308361,0.0844742,0.0533794,-0.0471258,-0.00671019,-0.0217328,-0.0530067,-0.0833702,0.0769797,0.0243236,-0.0425384,-0.0475193,0.0991685,-0.0515275,0.0189819,0.0653315,-0.0321312,0.0844478,-0.0226697,0.0349444,0.0640657,0.013589,0.0349153,0.0556408,0.0591175,-0.069161,-0.0834302,-0.0272592,-0.0729769,0.0760162,0.0490629,0.0641629,-0.00308124,0.0274479,0.00338794,0.0159509,-0.0153726,0.0192129,0.0314389,-0.0323575,-0.0398431,0.0720225,0.02593,-0.0267917,-0.066686,0.0561887,0.0135751,0.0208945,-0.034155,0.0459469,0.0251758,-0.0477177,0.0655204,0.0577561,-0.0174249,0.0767624,0.0669916,0.0433831,-0.0679138,-0.00885082,-0.0695894,0.00491754,-0.0718797,0.0200981,-0.079933,-0.0905518,0.0779214,-0.0159258,0.0822701,0.0845814,-0.0609535,-0.0653705,0.0618162,-0.0339529,-0.0732714,0.0943998,0.0150986,-0.0199496,0.0268048,0.0720107,0.0209958,-0.0894038,0.0453494,-0.01637,-0.0579883,-0.0199882,-0.0493858,0.0894813,0.0466926,0.00272159,-0.0403973,0.0822796,-0.049981,0.053159,-0.0597424,0.0872756,0.0710927,-0.00635926,0.0237292,-0.0718015,0.0714724,0.0617555,-0.00930726,-0.0242274,0.018278,0.0953525,-0.0413116,-0.0645949,0.02874,0.0865513,0.0345552,0.0114564,-0.0449638,0.0320484,-0.0669558,-0.0161689,0.0438282,-0.0215711,-0.0157512,0.0830507,0.0218165,-0.0185862,-0.0495098,0.021058,-0.0332772,0.0561015,-0.0153977,0.0576336,0.0281174,0.0836207,0.0273508,-0.0187965,-0.0749684,0.0444725,0.0239565,0.0854188,-0.0449065,0.0145535,-0.0921121,-0.0618143,0.00609696,0.0660432,0.00215824,0.0995121,-0.0483472,0.00918699,-0.0572602,-0.0218657,-0.0162418,0.0115369,0.051438,-0.0209611,-0.00365988,0.00352935,-0.0434427,0.0351807,-0.0471364,-0.0468729,-0.0209154,-0.0498362,0.0264276,-0.0471634,-0.0442102,-0.0407624,0.0458054,0.0558024,0.0197247,0.0735541,0.025861,-0.069856,-0.00248566,0.0195206,0.0398097,-0.0340001,0.0709212,-0.0684937,0.0388693,-0.0131795,-0.0529945,0.0715712,-0.00851845,-0.053511,0.0337679,-0.0773839,0.0488611,0.0259466,0.0860204,0.040161,-0.0899461,-0.0770018,-0.0613884,0.0558553,-0.0461084,-0.0458971,0.0111634,0.0102579,-0.0305888,-0.0176809,-0.00631277,-0.0338851,-0.0757057,0.0294237,-0.0718379,-0.00436228,0.0330097,0.0925974,0.0608535,-0.0692748,0.085072,-0.0480022,0.0349041,-0.0597044,0.0365524,-0.0454425,-0.0840759,0.0337267,-0.0414417,-0.0109869,-0.0317133,0.0251697,-0.0268971,0.0260322,0.0336582,-0.000436022,0.0939234,0.079549,0.0797795,-0.0396173,-0.0411873,0.0361281,0.0509172,0.0416352,-0.0757849,-0.00746458,0.0261231,-0.0117238,-0.0557657,0.0304091,0.0131198,0.0803983,-0.0161755,-0.0461276,0.0199123,-0.0898573,-0.0644728,-0.0402518,0.0250645,0.0639564,0.00593176,0.00158091,0.0392987,0.0820723,-0.0230832,0.0229106,-0.0598488,0.0317392,0.056128,0.0147822,-0.0199515,0.00535708,0.0799067,-0.0581754,-0.0218873,-0.00549849,0.0260656,-0.00349154,-0.0853364,0.0603231,0.0648798,0.0555526,0.0548704,-0.0692804,-0.0295317,-0.0272891,-0.0758296,0.0244044,0.0144279,-0.0131468,0.00247401,0.0285023,0.0875145,0.0520825,-0.0351973,-0.0522799,-0.0155509,-0.0693105,0.0320536,-0.0127269,-0.0826235,-0.0358869,-0.0287925,0.0847422,-0.0809518,0.0813911,0.047123,-0.0536922,0.0298587,-0.020723,-0.0511139,-0.0684227,-0.0733879,0.0360313,-0.0438883,0.0299346,-0.0200061,0.035855,-0.0611412,-0.0227512,-0.0719204,-0.0871129,0.00214265,0.0108081,-0.0583969,0.00894669,0.0177044,-0.0291028,0.0415281,0.0333511,0.0755564,-0.0503063,0.0287985,0.0665258,0.0149858,0.0428438,0.0669539,0.0409936,-0.07189,0.0331968,0.00240308,0.0485339,0.0258347,0.0770444,-0.00556,-0.00824626,0.0302867,-0.0704398,0.0529122,-0.00260531,0.0501458,0.0110926,-0.0129352,0.000693446,-0.0607578,0.0648218,0.0608943,0.075638,-0.0492343,-0.0329003,0.0698695,-0.0778196,-0.0271502,0.0616466,0.0869422,-0.0760464,0.0541942,-0.0194655,-0.022354,-0.0441323,0.0770403,-0.0299211,-0.0594887,-0.0809551,0.0699106,-0.0214404,0.0162809,0.0505382,0.00491268,-0.0190036,0.0167229,-0.0347098,-0.0457353,-0.0355037,-0.0161324,0.0313119,0.0402579,0.068292,0.0375715,-0.0699281,-0.0807926,-0.00345543,0.0350887,-0.0210004,0.0484563,-0.0355416,0.0262352,0.0672801,0.0946408,-0.0439164,0.0235103,0.0722452,-0.0033817,-0.0948947,0.0580763,0.0136283,0.0375496,-0.0794564,-0.0717316,0.0933657,-0.075818,-0.0792297,-0.067787,0.068776,0.0361058,0.0354761,-0.0172217,-0.0597876,0.0499193,-0.0307618,-0.00117596,-0.061226,0.081528,0.0229053,0.0229836,0.0367483,0.0116857,0.0491231,0.0852765,0.0243523,-0.00428368,-0.00656718,-0.0287906,0.0680814,0.0140271,-0.0571201,-0.0264958,-0.0758716,-0.0232767,-0.00524378,-0.0764076,0.0255242,0.0672426,-0.0732251,-0.00056312,-0.0307462,0.0562427,-0.0493202,0.0256734,-0.0851327,-0.0311507,-0.0287116,-0.00640943,0.0422566,-0.0347849,0.00809827,-0.0638073,-0.02012,-0.0630053,0.0140239,0.0604124,-0.0233036,0.0742646,-0.0865088,0.0588629,0.0745137,-0.0842103,0.005374,-0.079917,0.0616168,-0.0401708,0.00738306,-0.00284039,-0.0743277,-0.045137,-0.0795973,0.00557993,0.0123632,0.0201444,0.0827193,-0.0903498,-0.0840546,0.0798949,-0.00629944,-0.0291853,0.00141287,0.0361475,0.0273639,-0.0172056,0.000835329,-0.0252603,0.0694115,-0.0301871,-0.0176281,0.0369416,0.0646202,0.0665499,-0.0642875,-0.00237104,0.0227828,-0.0286439,0.0339868,-0.0541526,-0.0237146,-0.0227722,0.0556429,0.0510919,0.0719317,0.0849035,0.0747682,0.0845088,0.0840695,0.0383233,0.057871,-0.0137022,-0.0581884,-0.0136618,-0.000767009,-0.0235115,-0.02704,-0.0765943,0.00945779,-0.0564308,-0.0557167,-0.0809576,0.0798118,0.072424,0.0579136,-0.086402,0.0842267,-0.0107205,-0.0370193,-0.0220735,0.018103,0.0232924
-0.00946818,0.0180823,0.0214334,-0.0770331,-0.0532616,-0.0664498,-0.0626561,-0.0610875,-0.0845499,0.0115524,0.0162838,0.0603049,0.0581968,-0.0749818,-0.0323821,0.0633688,-0.0813103,-0.0170456,0.0646659,-0.0372321,-0.0111821,0.05413,-0.0488144,-0.0739297,0.0177835,0.0548991,-0.0502579,-0.00634304,-0.0469592,0.081475,-0.0763452,0.0820976,0.00534089,0.0216589,0.0345208,-0.0747853,-0.0505167,-0.0612676,-0.0455736,-0.056816,0.0277992,0.00454613,0.055676,-0.0760591,-0.0474136,0.0272832,0.0214002,0.0578056,-0.0726139,-0.0295027,-0.0555143,0.00804963,-0.0794738,-0.0745828,0.0658399,0.0190073,-0.0411415,-0.0345751,-0.0626268,-0.0540021,0.0458786,0.0850135,0.0769478,0.0602904,0.0817349,-0.0147242,0.0617946,0.0286789,-0.055591,-0.048735,-0.0410714,0.0489591,-0.0778169,0.0405339,-0.0731973,0.0129304,0.0486556,-0.0583971,0.0317314,0.00846488,0.0737245,-0.0283275,-0.0813338,0.0389577,-0.0839027,0.0279569,-0.0644275,0.000495498,0.0742337,-0.0542971,-0.00290221,0.0508186,-0.0814513,0.044379,0.0250293,-0.0346213,0.0480974,-0.0138793,0.0115491,-0.0694288,0.0850466,0.0247375,-0.0694717,-0.0590691,-0.0815922,0.070614,0.00449278,-0.0676108,-0.048597,0.0598557,-0.052221,-0.0116037,-0.0226468,0.0461719,0.0548164,0.0215113,-0.0252914,0.0583348,-0.0650942,-0.0138283,-0.0542064,0.0236636,-0.00385875,0.0270062,-0.064953,0.030694,-0.00642267,0.0728442,-0.0357611,7.57316e-05,-0.0517935,-0.0784773,-0.0518685,-0.0606118,0.0314034,0.000744328,-0.0826204,-0.0611443,0.0733127,-0.0713028,0.0478751,0.0333638,0.025767,0.0770036,-0.00906925,-0.0686696,0.0557155,-0.052309,-0.012189,0.0101752,-0.073048,0.0179005,-0.0255321,-0.0543481,0.0317009,0.0212854,-0.0114384,-0.014137,-0.0703995,-0.0432846,-0.0650052,-0.0128254,0.0271398,-0.0144432,0.0202195,-0.084087,0.00750081,0.0256297,-0.0220608,-0.00586428,-0.0109679,0.0748096,-0.0140649,-0.0470516,0.0513625,0.0547347,-0.0103021,0.0641169,0.0160636,0.0327647,-0.0208958,0.0547254,-0.0706346,-0.0144413,-0.0355971,-0.0242822,-0.0726995,-0.0694666,-0.0793486,-0.0648286,-0.0321747,-0.0819598,-0.0541609,-0.0887646,0.0423688,-0.0372058,0.0766013,0.0189195,0.0815041,0.0080087,0.00130292,-0.0795927,0.0725811,0.0116884,-0.042355,0.0176418,0.0294999,-0.0565291,-0.0218378,0.0299507,-0.035825,0.0543223,0.0131582,-0.0107058,-0.042818,-0.0386388,-0.0740605,0.0285118,0.047585,0.0225012,-0.0131858,0.0053256,-0.0578307,-0.0227098,0.0695906,-0.0546883,-0.0342406,-0.0217435,0.0482757,0.0427853,0.0835645,-0.0409687,-0.0445729,0.0480082,-0.0804231,0.0715555,0.030496,-0.0849634,-0.0660392,0.0326432,-0.0751374,0.0354878,0.0627656,0.00436146,0.0582434,-0.027761,-0.0596642,-0.0129353,0.00645792,-0.0420443,-0.0558032,-0.0459923,0.0160149,0.0158641,-0.0364992,-0.0192739,0.0311533,-0.0113735,-0.0281076,0.0152418,-0.013155,-0.0368713,0.0713178,0.075476,0.0354194,0.0127126,0.000297403,-0.0844702,-0.0614312,0.0472133,0.0479405,-0.0570864,-0.0784107,-0.0815485,-0.046599,-0.0416667,-0.052947,0.055513,0.040495,0.0474178,0.0352209,0.00180029,0.00929323,-0.0717312,0.076497,-0.0612295,-0.0502241,-0.0342294,0.0241029,-0.00526341,-0.00775097,0.0733169,0.00022699,0.00304124,-0.0202403,-0.0216395,0.0236138,0.0182035,0.0379173,-0.0197958,-0.072075,-0.0473283,0.00345332,-0.0173449,-0.0734855,0.072362,0.0294484,0.0217702,0.0812954,-0.00533332,0.0136081,-0.0780603,-0.0846091,0.0105759,0.0350356,0.0613478,0.0033303,-0.0181064,-0.0276923,-0.0477322,-0.0690504,0.0416611,-0.00746516,-0.043125,-0.0771859,0.0289659,0.0849119,0.0726203,0.0730637,0.0127648,0.0144732,-0.0290218,-0.0567772,0.00470077,0.05656,0.0173508,-0.0423938,-0.0827961,-0.0753481,0.0467822,0.0719918,-0.0447784,0.0390879,0.0113256,0.0648322,-0.0541296,-0.0628743,0.0695173,0.0253995,-0.0389304,-0.0793213,-0.0718153,-0.0612417,-0.0627585,-0.00457991,0.0839475,-0.0428633,-0.0141031,0.0525552,-0.0392243,0.012943,-0.0227237,0.065268,-0.048941,-0.000664271,0.0401429,-0.0576014,0.0433811,-0.00328893,0.00275257,0.00521675,0.0105569,-0.0545559,-0.0176169,0.0247634,0.00520058,-0.000647602,-0.00725565,0.0250651,-0.0118701,0.0432878,-0.0355585,-0.0522485,-0.0256338,0.0352782,-0.0144923,0.0501902,-0.0357652,0.00807515,-0.0539314,-0.0166395,0.0152472,0.0486138,-0.00651456,-0.030026,0.0262628,0.0651645,-0.0393994,-0.0536044,-0.0315579,0.0827555,-0.0501791,0.081897,-0.06047,0.0318511,-0.0206497,0.0262284,0.0559474,0.0511303,-0.0846052,0.00378009,0.0465238,-0.061573,-0.0017386,-0.0025494,-0.045866,-0.0128523,-0.0400519,0.0591321,-0.00331715,-0.0221395,0.0216004,-0.00648307,0.0288439,-0.0614058,-0.0318146,-0.0577857,0.00119844,0.0291111,-0.0848854,0.0689074,-0.00157618,0.0573877,0.0729735,0.026522,-0.0271815,-0.0256402,-0.017049,-0.019462,0.0527809,-0.0762445,0.0668215,-0.0423724,-0.00388688,-0.0606766,-0.00108836,-0.0124915,0.0197443,-0.0488975,0.00215341,-0.0167957,-0.0148945,-0.0253928,-0.0416965,0.0138223,-0.0533705,0.0203699,0.0674517,0.0732439,0.0559137,0.037858,0.00516317,0.0576356,0.0422004,-0.0800595,-0.0720865,0.0496738,-0.0643728,-0.080752,-0.0605338,-0.000655055,0.000217631,0.0261167,-0.0666312,-0.0846973,-0.0637013,0.0357214,-0.0536267,-0.0119439,-0.0699229,0.0478062,-0.0588258,-0.0736319,0.0370632,0.0464191,-0.0454815,-0.0418747,0.005486,-0.0175178,-0.0775346,-0.0185001,-0.0174934,-0.0588354,-0.0509384,0.0194769,0.0537036,0.00656252,0.0653972,0.0231443,0.0774932,-0.017486,-0.0744597,-0.0182379,-0.0572254,-0.0248915,-0.0833905,0.0498192,-0.0576395,0.0451487,0.042088,-0.0561105,0.0830682,0.0518204,0.0734035,0.0341709,0.0178723,0.0528778,0.048191,-0.0859057,-0.000364666,0.0677178,-0.0833342,0.000174257,-0.0695469,-0.00725723,0.0831851,0.0391994,0.0432459,0.0688237,-0.075275,0.042299,-0.0154521,0.0756532,0.0783716,0.0484506,-0.0101809,0.0688581,-0.0804104,0.0650182,-0.0703906,0.0178184,-0.0352446,0.000568571,-0.0271408,0.00459853,-0.0485271,-0.0154263,-0.0724025,0.0756319,0.0530079,-0.0600972,0.0626952,-0.0802048,-0.00408571,0.0130677,0.0464154,-0.0605228,0.0844308,0.0726511,-0.0760722,-0.0203766,-0.0588584,-0.0607817,0.058384,-0.0778689,0.0706054,0.0159726,0.0401303,-0.029458,0.0327444,0.0454547,-0.0727126,0.0481448,0.0331021,0.0417984,-0.0816196,0.0628549,0.0307044,0.0800437,-0.0756545,0.00225686,0.00650146,0.0822699,-0.0465344,0.0328073,-0.0470836,-0.0101383,-0.0404463,0.0157418,-0.0805644,0.0442279,-0.0515981,0.0489544,0.0289812,0.0440821,-0.0690278,-0.0672016,-0.0849984,0.068376,0.0686045,0.0151368,0.080048,-0.0407318,-0.0506872,-0.0118257,-0.00951013,-0.0260899,-0.0111731,-0.0426608,-0.0729337,0.00988776,-0.0315168,0.0496778,-0.0756345,0.0146301,0.0220518,-0.0809265,0.0482315,-0.0252678,-0.0849385,0.00152434,0.000702319,0.0236927,-0.0530453,0.0371665,0.0553091,0.0382671,0.0447167,-0.0401518,0.0795202,-0.0673811,0.0599523,0.0160061,-0.00267719,-0.0350913,0.0207504,-0.0275701,0.0494203,-0.0777962,0.0613107,0.0242261,0.06354,0.0311511,-0.0123391,0.00557977,-0.0485598,-0.0482265,-0.0136625,0.0375983,-0.0381761,0.0268755,-0.0146745,-0.0863097,-0.0847326,0.0222541,-0.0344061,-0.0836931,-0.0327607,-0.0113117,0.0756247,-0.0501469,0.0155673,-0.0219988,0.0254994,0.0644272,-0.0767811,0.0512491,-0.0878025,-0.0522596,-0.0570701,-0.0480098,0.00279676,0.033388,0.0531247,-0.0454326,0.01,0.0815707,0.0139713,0.039103,-0.0573246,0.0220905,0.00254216,0.0478948,-0.0107682,0.0540308,-0.0392967,-0.0213179,0.0595103,-0.0271031,-0.0620197,0.0463896,-0.0471353,0.0548789,-0.0212215,0.0131265,0.0760425,-0.0324386,-0.0533703,0.079858,0.0757723,-0.0369512,-0.0423209,0.0586869,-0.0455303,-0.0343109,0.00748995,-0.0471066,0.0531064,0.0017205,-0.0186098,0.0606662,-0.000272629,0.0800953,0.0744789,0.0473251,-0.0833501,0.073691,0.00763456,0.0526957,-0.0584133,-0.0381223,-0.0446488,-0.0266871,0.00432861,-0.0492078,0.0457362,0.00121484,-0.0404052,0.00472425,0.0553481,-0.03258,-0.0602057,0.0710286,-0.0261733,-0.0616799,-0.0511026,0.0633108,0.0597736,0.0236264,0.0371456,-0.0372284,-0.021302,0.0738891,0.0421259,0.0170553,0.0851717,0.0534315,0.0198533,-0.0184948,-0.0385121,0.0544804,-0.00684678,0.0462766,-0.0671033,-0.0724097,-0.0203594,0.0339473,0.0584814,-0.0381284,0.0660012,-0.0352642,0.0744473,-0.0769059,-0.0480712,-0.0871852,-0.0114303,-0.0669315,0.0224722,-0.023599,0.0646365,-0.0494822,-0.00499638,-0.0181374,-0.00669611,-0.0477694,-0.034383,0.0143758,0.0782251,0.0552802,-0.080907,-0.0813048,0.0635073,-0.0330548,-0.0434135,0.0794602,-0.0205752,0.0550973,0.0383536,-0.0285856,0.0670342,-0.0535147,-0.0352811,0.0186638,-0.0398232,0.0730143,0.0826591,0.0497647,-0.0439251,0.0242658,-0.0336446
-0.0493839,0.00931296,-0.0778938,0.0700215,-0.0390145,0.0858739,0.0455741,-0.0754482,-0.0281519,0.0455262,0.00945128,-0.0720347,-0.0617248,-0.0819445,0.0468112,0.00887854,-0.0317245,-0.0425152,-0.0155315,0.0447741,0.0196933,-0.0687908,0.0374724,0.0614094,0.0842738,-0.000802777,-0.055192,0.0220155,-0.0133456,0.0461781,0.0846406,0.00418389,-0.0776515,-0.0586133,0.0196284,0.0663619,-0.00601798,-0.00699471,0.029454,0.0075924,0.00875415,0.0477816,-0.0424532,-0.0747802,0.0185004,-0.055538,0.00555947,0.0695606,-0.0639773,-0.0118125,-0.010286,-0.0605731,-0.0188622,0.032622,-0.0040723,0.0695835,0.0218655,0.0475595,-0.0242239,-0.0186773,0.0502185,-0.0784553,-0.0346015,0.0531361,0.00795737,-0.0816474,-0.0666217,-0.0435578,0.0446116,0.0743627,0.00757526,0.047254,-0.0547615,0.0032026,-0.0231353,0.0269692,-0.0794414,0.0230211,-0.0770664,0.0155364,0.059483,0.0299607,-0.0318693,0.0299719,0.0139855,0.0520706,0.0183046,0.0185236,0.0479662,0.0527542,-0.0162899,0.0582124,0.0647034,-0.0747265,0.00311758,-0.0061303,0.00571314,0.0315464,0.0514534,-0.0591618,-0.0467688,-0.0132766,-0.0283854,-0.0754755,-0.0750869,-0.0207456,-0.0144195,-0.0723811,-0.0474424,-0.0737065,0.0509786,-0.0566645,0.0300428,-0.0856974,-0.00929742,0.0279278,0.0713357,0.0771876,-0.0258426,-0.060632,-0.0490098,-0.0658535,0.0150412,-0.0669363,-0.0665563,0.0776937,-0.0148056,-0.0913751,0.0530686,0.077223,-0.0365058,0.0528457,0.019521,-0.0136825,-0.00694649,-0.0668142,0.0201828,0.0438515,0.0169421,0.0763276,-0.0497132,0.0268808,0.0161135,0.0195145,0.0368551,0.0915569,-0.0414727,-0.0484425,0.00200074,0.0562831,-0.0274436,0.0710565,0.0784667,0.0789725,0.0349574,-0.0878642,-0.0460212,0.0161062,-0.0465063,-0.0154066,-0.052726,0.0242449,0.0585009,0.0380669,0.0894848,-0.0123582,0.0217006,0.0694849,0.040054,0.0663673,-0.063143,0.0498045,0.0490276,0.06343,0.0305602,-0.0258026,-0.0862306,0.0481956,-0.0155844,-0.0937121,0.0437212,0.0366726,0.0596982,0.0242141,-0.004048,-0.0688608,0.00948709,-0.0507799,0.0386646,0.0324475,-0.0153698,-0.0459432,-0.0548539,0.0565815,0.00777716,0.0134478,0.0494472,-0.0575684,0.00344339,-0.0542265,0.0298955,-0.0729593,0.00609746,0.0645952,0.0155088,-0.0608265,-0.0543107,0.0680549,-0.0184258,-0.0502069,0.0799242,0.0690008,-0.063559,-0.0782944,-0.0687719,-0.0666154,-0.0688802,0.0542069,-0.0473953,0.0239252,-0.0593703,0.0774009,0.0717699,0.0424788,-0.00525745,-0.0131971,0.0543346,-0.0468716,-0.0556135,0.0884562,0.0838658,-0.00241839,-0.0786766,0.0593086,0.0449953,0.0469775,0.00288212,-0.0612004,-0.077134,0.0851131,-0.0945041,0.0102237,0.0755033,0.0628563,0.0344456,0.0923682,-0.0867879,0.0626579,0.0822348,-0.0566231,0.013992,0.06759,0.0754114,-0.0433955,-0.0731572,-0.0684542,0.0267231,-0.0159272,0.0579352,-0.0350568,0.00690481,0.0402941,0.00182198,-0.0366716,-0.0583603,0.0182701,0.0353931,0.0409085,0.0686755,0.0648745,-0.0460155,0.0171272,0.0265016,-0.0843421,0.0266774,0.0153046,0.0262977,0.0707013,-0.0606341,-0.0691357,0.0150842,0.0631438,-0.015923,0.0391302,0.0878396,0.000263877,0.076344,-0.0754075,0.0441857,-0.0582402,-0.0615755,0.0323592,-0.0312163,0.0724838,0.0542186,-0.0482917,-0.0654563,-0.0649239,-0.006488,-0.0593254,0.0287812,0.0478798,0.0335881,-0.0696101,0.0633487,0.0027798,-0.0557209,-0.0171176,-0.0204594,-0.0581867,-0.0791389,-0.00642243,0.00469651,0.00784517,-0.00688601,-0.0355355,0.0764648,-0.0288705,-0.0550332,-0.0276649,0.0209155,0.0271907,0.0117223,-0.0104569,-0.0186165,0.0260386,-0.0433093,-0.0580302,-0.046684,0.0253769,-0.0783742,0.0074401,0.0625617,-0.0384731,-0.078938,-0.0113265,-0.0359542,0.0868041,0.091444,0.0738569,0.0257535,-0.0645891,-0.0136475,-0.076161,-0.0194779,-0.00258792,0.0453633,-0.0557197,-0.0599271,-0.0705153,-0.022117,0.0600059,-0.0395355,-0.0207821,-0.0693961,0.0549786,0.00312484,0.0871857,-0.0528399,-0.00248886,-0.0246197,0.082934,0.0455294,-0.0300535,-0.0520817,0.0217087,0.0486749,-0.0405081,-0.0478741,0.0786523,-0.0248322,-0.0592367,0.0204905,-0.0705119,0.0730284,-0.0540903,-0.0566691,0.0997217,0.0742257,-0.00491027,-0.0773916,0.0445581,-0.0403619,-0.0466694,0.0180899,0.0292063,-0.048863,-0.0373027,0.0657033,-0.0866552,-0.0540879,-0.0109346,-0.0218449,-0.00591753,0.0707759,0.0733655,0.0679573,-0.06321,-0.0557064,-0.0399547,0.0265846,0.078114,-0.0565264,0.0731255,-0.0921967,0.0854154,0.0320182,-0.0649093,0.0187432,0.00167561,0.0644669,-0.00275784,0.0213903,-0.0137446,0.0930191,0.0691072,-0.0705129,-0.0649426,0.0485003,0.0803183,-0.084594,0.0480756,-0.0143364,-0.0291889,0.0727047,0.0270443,0.0853834,-0.0406649,0.0750688,0.0488579,-0.025763,0.00270153,0.00495055,-0.00122869,-0.0780715,-0.0311172,-0.0496419,0.0312653,0.0420118,0.036984,0.0656511,-0.0468762,0.0158455,-0.0237976,0.0267303,0.00787495,-0.0322358,-0.03789,0.0479186,-0.053859,-0.0723343,0.0699629,0.01776,0.0809732,0.0119392,-0.0257292,-0.0680256,0.081461,-0.0097016,0.0022808,0.068837,-0.00955607,-0.0262955,0.0823963,-0.0462207,-0.0510772,-0.0706824,-0.0544349,0.0588323,0.034931,0.0538269,0.000313423,0.00283355,0.0254838,-0.0844739,-0.0681022,0.0289967,0.0477901,0.000496957,0.0721648,0.0161507,-0.0103241,0.0301382,0.0434143,-0.0547284,0.0607836,0.0205863,-0.0640922,-0.0786943,0.0367759,0.0702266,-0.0464534,0.0395283,0.084338,-0.0277696,-0.0249798,-0.00342805,0.0783131,0.0315826,-0.00547686,0.077263,0.01621,0.0772849,0.0728354,0.018906,-0.0197093,-0.0744288,-0.0107912,-0.0431542,-0.0735207,-0.0735507,0.0708305,0.0275081,-0.0741968,-0.0799591,-0.043291,-0.0482191,0.0755739,-0.0447635,0.0398872,0.0887524,-0.0499661,0.0124567,-0.0543025,0.0434937,-0.0111872,0.0849463,-0.0255936,0.0724198,0.00805495,0.0660128,-0.00601128,0.0432098,0.00966313,-0.00296215,-0.0238393,0.00054957,0.000791181,-0.0823773,-0.0309525,0.000185807,-0.092105,-0.0560384,-0.0422515,-0.0608759,0.00500508,-0.0727063,-0.0013075,-0.0162171,-0.0566446,0.052538,0.0663415,-0.00206417,0.0820507,0.0764298,0.0828764,0.065711,0.0285858,-0.016216,-0.0567393,0.0574344,0.0681331,-0.0843357,0.0845562,-0.0290766,-0.0761418,0.0334961,0.0760218,0.083924,-0.0514368,0.0416472,0.07143,0.00149126,0.0237004,-0.0180076,-0.0494247,0.0164098,-0.0353389,0.0450007,-0.0548027,0.0708125,-0.0177077,-0.0499248,-0.0234131,-0.00672601,0.0303137,0.037887,-0.00454513,0.0290528,-0.0482739,0.0891626,-0.0569625,-0.00471425,0.0525966,-0.020739,0.0617851,1.76586e-05,0.0841703,-0.0572545,-0.0850737,-0.0672104,0.00435794,-0.0328608,-0.0428778,-0.0104317,0.0740498,-0.0480278,0.0343912,0.0683783,-0.0461737,0.0778163,0.0666391,-0.0646269,0.0217956,0.0661492,-0.0619294,-0.0583863,0.0180357,0.0138256,0.019901,0.0331742,0.063613,-0.0780148,-0.00803441,-0.0215391,0.0294758,-0.0472094,0.0522157,-0.0659581,0.0272953,-0.0279443,0.0120956,-0.00654303,0.0308538,0.0816197,-0.0480588,-0.0405187,-0.0111488,0.0719325,-0.0313438,0.0279483,0.0427818,0.0791796,-0.0804644,-0.0770122,0.0444133,-0.00602052,0.0236434,0.0328625,-0.0485554,-0.00687177,-0.0817907,0.0447137,-0.0289659,-0.0415387,-0.0707281,-0.0141098,-0.0288842,-0.0132705,0.025857,1.68376e-05,-0.0486637,0.054124,0.0173725,-0.0117546,0.000283124,-0.0677103,0.09193,0.0203162,-0.081084,-0.0251033,-0.0577225,0.0839307,-0.032414,0.0818113,-0.0567675,-0.0270893,0.0247776,0.00318093,0.0440761,0.0566704,-0.0304398,0.00733326,-0.0262998,0.000185453,0.0599273,0.00506437,0.0704349,-0.0269791,-0.0361493,-0.0634835,-0.0731301,-0.0725647,0.0543057,-0.00910904,0.00835836,-0.00833416,-0.0677877,0.00455327,-0.0804888,-0.030904,-0.0847379,0.0451987,-0.062687,0.0566017,0.0861109,0.0217784,-0.00677377,-0.00757237,0.0263841,0.0426612,0.00769802,0.0551135,-0.0579365,-0.0770352,0.046449,-0.0476993,0.0349209,-0.0763332,-0.0546212,-0.0147438,0.0210851,-0.0776228,0.0889083,0.0816015,-0.082313,0.082899,-0.0617208,-0.05542,-0.0779925,-0.0654725,0.0651332,-0.0647514,-0.054205,0.0508977,-0.0121424,-0.0441014,-0.048212,-0.052684,7.30527e-05,-0.0414342,0.00369378,0.0738922,0.00380905,-0.076326,0.045709,0.0486496,-0.0730344,-0.00551918,-0.0475335,-0.0567388,-0.0426473,-0.0575902,-0.0112037,-0.0818081,0.0525371,0.047167,0.0180689,0.0703505,-0.0542284,-0.00417827,0.083853,-0.0795015,-0.0341565,-0.0265155,-0.0442337,0.0696522,0.0121766,0.0422864,0.0373094,-0.00195957,-0.0017509,0.0135707,-0.0563355,-0.0104908,-0.0696314,-0.0551099,0.0559092,0.0273048,0.0303109,-0.0375646,-0.0563765,0.0285692,-0.0431066,0.0751935,-0.0780158,-0.081953,0.0350709,0.00488124,0.0255583,-0.0749608,-0.0879858,-0.0102971,0.0239416,-0.0615979,-0.0406579,0.0264154,-0.0100279,-0.0598887,-0.0823483
-0.0326226,-0.0381395,-0.0419262,0.0659596,0.00620386,0.0553218,-0.020182,-0.0695333,0.0248294,0.0218919,0.0925184,-0.0385284,-0.0321819,0.0636966,-0.0294255,0.0888847,-0.0231252,0.0632621,0.0409403,0.0272972,0.0326373,-0.0647162,-0.0783088,0.06134,0.0549878,-0.0178398,0.0530163,0.0147827,-0.0724074,-0.0263423,-0.00917899,-0.0112217,-0.0547174,-0.00398806,-0.0606128,-0.0521958,0.0695382,0.00317511,-0.0159785,0.08338,0.0197759,-0.0435946,0.0839302,-0.078755,0.0504741,-0.0199405,0.0481403,0.0526735,-0.0216058,0.0217335,-0.0514437,-0.0361563,0.0497272,-0.0383241,-0.0658628,0.0640338,-0.0502712,0.0632695,0.0503699,0.065517,0.00670216,0.0802798,0.00220917,0.010597,0.00492107,0.0242927,0.0642021,-0.0821109,-0.0563832,0.0497464,0.0110326,0.0419035,0.0113387,0.0740629,-0.0585322,0.0698735,-0.0466092,-0.0032902,-0.0257386,-0.0375399,-0.0413065,-0.0645921,0.0681161,-0.0691518,0.0112817,-0.0499397,0.0583059,0.0474373,-0.0695949,0.0404806,0.00680194,0.0495179,-0.0299666,-0.034552,-0.00605074,0.0761075,-0.0144231,-0.00710068,0.0125111,-0.0447835,0.0845372,-0.0371089,0.0565433,-0.036113,-0.00988495,0.0830192,-0.0505017,0.0900192,0.000747493,-0.0630129,0.0195377,0.0544875,-0.0795795,0.0145402,0.0389141,-0.0834942,0.0743706,0.0791702,-0.0280617,0.0541026,-0.019803,-0.0445353,-0.0882227,-0.0511871,0.0177656,-0.0433784,0.072065,0.0265048,0.0178816,-0.0116749,-0.0574238,-0.0781354,0.0793402,-0.0508116,0.0776385,0.074258,-0.0117816,-0.0216372,0.0770509,-0.0303392,-0.0657007,-0.0330711,0.0338685,-0.0722468,0.0984403,-0.0807867,0.0470018,-0.00873223,0.0477484,-0.031091,-0.0602372,-0.0372905,-0.0858855,-0.0480503,-0.059639,0.0825351,0.0920317,0.0779739,-0.0815361,-0.087341,0.0795673,0.0713515,-0.0508877,-0.0842832,0.00926063,0.0708845,0.0176584,-0.0260426,-0.00134413,0.0774824,-0.0521977,0.00865464,0.0709259,0.0508498,0.0167603,-0.0360568,-0.0705799,0.0621725,-0.0163076,-0.0188128,0.05319,0.0553337,0.0642557,0.0353563,-0.0690707,-0.0317799,0.0416388,-0.000437745,0.0779842,-0.0423761,0.0463995,-0.0359802,-0.0634111,-0.0100068,0.00331346,0.0175744,-0.0114019,-0.0256686,-0.0579979,0.0683466,-0.0168638,0.0582249,-0.0583573,0.0199834,-0.0315761,0.0154869,-0.0126152,-0.0614551,-0.0754909,-0.00194803,-0.0903096,0.00967629,-0.0295025,-0.0467223,0.0478636,0.00706339,-0.053279,0.0549276,0.0688577,-0.070474,0.00865433,0.0540096,0.0561552,0.0172557,-0.0848912,-0.0346771,-0.0476351,-0.0282969,-0.00914528,0.02556,0.0171143,-0.0520093,-0.0542686,-0.0771049,0.0567189,-0.0792297,0.0399888,0.0151129,-0.0055517,0.00459246,0.0164356,0.00378377,0.0301648,0.0196827,-0.00811695,0.0300858,-0.0672708,-0.0421811,0.00647941,-0.0299721,-0.0452583,0.0239829,-0.0689523,-0.0887227,0.0731951,-0.0820424,-0.0756216,-0.0341136,0.0573015,-0.0481028,-0.0657762,0.00989312,-0.0324203,-0.0175732,-0.00572303,-0.0141122,-0.0571632,-0.000942047,0.0103078,0.00183061,0.0670252,-0.082411,-0.0810235,-0.0250975,-0.00300208,0.0460472,-0.0515349,0.045256,0.0374205,-0.079614,-0.0589476,0.0198893,0.0741035,-0.0373844,0.0263295,0.0888271,-0.0251127,0.0717691,-0.00336258,0.0383515,-0.0830483,-0.0641595,-0.0326981,0.0583893,0.0816427,-0.035504,0.0628094,-0.0545132,-0.0305263,-0.0788168,0.0511571,-0.0579327,-0.0289326,0.0717674,0.0389523,-0.0203442,-0.0145697,0.00250521,0.0294021,-0.0619668,0.00885615,-0.0263286,0.0492712,-0.0293918,-0.030189,-0.0306091,0.0138406,-0.0467172,0.0042246,0.0320287,0.0537548,0.0419106,-0.0248498,0.0663963,-0.0389689,0.0567417,0.0778507,-0.0172496,0.0253168,0.0606161,-0.0440351,0.0903852,-0.0138906,-0.0589799,0.0698676,0.0300063,-0.0742791,-0.0448474,0.0251705,0.0104201,-0.00567625,0.079713,0.0759072,-0.0512,0.035854,-0.00742636,-0.00207622,0.0650191,-0.0103203,0.0776395,0.00391218,0.0725209,-0.0705459,0.034208,0.0467513,0.0829918,-0.0389323,0.0673295,-0.00708533,-0.0782345,-0.0625268,0.0980722,-0.0285301,-0.0377788,-0.000474362,0.0670271,-0.0565868,0.0299063,-0.0623609,0.0169249,-0.0717947,-0.02854,0.0344667,0.0368971,-0.0122952,-0.0611459,0.0621163,0.00212809,0.021644,0.0575418,-0.0749241,-0.0114912,-0.0138442,-0.0629037,0.0682413,-0.0358096,-0.00304622,-0.00514685,0.0753982,0.0941545,-0.013492,-0.0491319,0.0953773,0.0329062,-0.0169812,-0.0517282,0.0639762,-0.0735687,-0.0259419,-0.0479194,-0.0537955,-0.0458884,0.0349898,-0.0424193,0.109862,0.0684725,0.0454028,0.0675272,0.00637419,-0.0616971,-0.0425307,0.0682233,0.0574514,-0.00659132,0.0201178,0.0594015,0.0535552,-0.0767182,-0.0219642,-0.0696423,0.0750351,0.0669772,0.0608407,0.0584419,0.0559194,-0.0755906,-0.0765049,0.0834129,0.041976,-0.0728213,0.0150667,0.0700138,0.0351952,-0.0252926,0.0743608,0.0498703,-0.0684223,0.0172212,0.0127779,0.0863943,0.0578858,0.0793922,-0.0662951,0.0972982,0.0214208,0.03411,0.0365604,0.0188734,0.0798829,-0.0745683,-0.0701102,-0.0777983,0.0524308,0.0397818,0.0373838,-0.0551906,0.0240038,0.0136547,0.0256492,-0.0720152,0.0717327,0.0765071,0.0871717,-0.0751508,-0.0879453,0.0724578,0.0270925,0.0680989,0.0502142,-0.0826989,-0.0131123,-0.0664049,0.0296507,0.0841691,-0.0469135,0.0339076,0.00270581,0.0797069,0.0740746,0.0248842,-0.0235459,-0.00446887,0.0166176,-0.0685079,0.0158114,0.0716454,0.00720641,-0.0109625,-0.0502823,-0.0882397,0.0406758,-0.00621414,0.0878314,0.0876298,0.0776186,0.0554451,-0.0764088,0.0287481,-0.0200316,-0.0138094,-0.0692818,0.0667539,0.0201695,-0.00868141,-0.0417048,0.0352196,-0.0387424,0.0138822,-0.0447897,0.00189543,-0.0720418,-0.00594525,0.0253244,0.00475667,0.0151403,-0.0155497,-0.0181195,0.0596411,0.00397507,0.00513954,0.0667302,0.0101328,0.0617396,-0.00943684,0.0721969,0.00801499,0.0430513,0.0268703,-0.0772012,-0.00834833,-0.084285,-0.0306972,-0.0168244,-0.0244102,0.0553752,-0.0631914,-0.00135756,-0.0522095,0.00649084,0.0373042,0.0227808,0.0645476,-0.0601509,-0.0486938,0.0337248,-0.0439183,-0.0461265,-0.0763431,-0.0128692,0.058122,-0.00322906,-0.0230277,0.0255462,-0.0297345,0.0141162,0.0694932,0.0500005,0.028932,0.0240101,0.0419392,-0.0759565,-0.0531154,0.00328523,0.0191272,-0.052636,0.0755136,0.0395442,0.028102,-0.00352685,0.0489628,-0.053714,0.00663414,0.0607574,-0.06174,-0.0593533,-0.0457445,0.0220033,0.0330605,-0.0666434,-0.0449029,-0.051115,0.0853235,-0.0350929,-0.0154455,-0.0454986,0.0709887,0.0150907,-0.0152515,0.0179224,0.0479443,-0.0628356,-0.0332417,0.00183156,0.105668,0.0161661,0.00492711,0.0284782,0.070972,0.00999705,0.00112862,-0.0356473,0.0789938,-0.0740175,-0.0754435,-0.0592992,0.00467361,-0.0359254,-0.0112828,-0.0266421,0.06187,-0.0288828,0.0197803,0.0760123,-0.0513561,0.0794577,-0.0354642,0.0622672,-0.0220599,-0.0190794,0.0211733,0.0334319,-0.0261744,-0.0246252,-0.010313,-0.00957899,-0.0197251,0.0726796,0.0636749,0.00705844,0.0499894,0.0730623,-0.0151955,0.075769,0.0435445,0.0859913,-0.0880587,0.0838027,-0.0441514,0.0215019,0.0770789,-0.019304,0.00350781,-0.0313966,0.0759891,-0.0392186,-0.0378245,-0.067775,-0.0299908,-0.0244593,0.00861775,0.0635288,0.0186453,-0.0156365,-0.0100022,0.0381948,-0.0658364,-0.0728467,-0.0831804,-0.0314454,0.0774638,0.0910092,0.0590331,0.0427017,-0.0591126,0.0287304,-0.0173433,0.0805645,-0.0494613,-0.0833276,0.0645783,0.0594831,0.00331107,-0.0497078,0.0324546,0.0149576,0.0573115,-0.0251332,0.0383809,0.0148577,0.0500922,-0.0552946,0.0485321,0.0601751,0.0110457,-0.0879198,0.0756472,-0.0206945,-0.0754004,0.0447619,0.0810362,0.0670952,-0.00507334,-0.0850503,0.0129958,0.0593278,0.0912917,-0.0219914,-0.0784945,0.074093,0.0938547,0.00720125,-0.0494246,0.0353969,0.0479868,0.0324635,-0.054386,-0.0568656,-0.0304108,0.0653776,-0.0755889,-0.0401823,-0.0610461,-0.0697444,0.0939632,-0.0187965,-0.0803148,-0.0420968,-0.0366059,0.0194518,0.0488729,0.0305143,0.0530338,0.0496399,0.0312997,-0.0392529,0.0255699,0.0474504,-0.0542791,-0.0549697,-0.00650217,0.0204899,0.0332135,0.0651034,-0.0685669,-0.0672817,-0.00224998,0.0216312,0.0496455,-0.0168928,0.0339948,0.0791196,0.0489305,0.0514421,-0.0882739,0.084103,-0.0767959,0.0713592,0.0170283,-0.0256669,-0.0722222,0.0213124,-0.0165126,0.0132238,0.0669553,0.0351287,-0.0793944,-0.0454137,0.0360295,-0.0319758,0.0282544,-8.58705e-05,-0.0550685,-0.0252945,0.0606274,0.0682723,0.0126195,-0.0112698,0.0180959,0.0690014,0.0500172,-0.0570263,0.0690512,0.0603322,-0.0662832,-0.0251874,-0.0696277,0.056354,0.0468932,-0.0487763,0.0772681,-0.00826437,0.00569705,-0.0132517,-0.0580606,-0.0439553,-0.0554836,-0.0501389,0.0617722,-0.0213913,0.0691199,-0.00155002,-0.0185038,-0.0505685,0.0168442,-0.0713556,-0.0817123,0.00470324,-0.0351604,0.0120627,0.0398589
