300,800
0.0892559,0.0552818,-0.00573432,-0.0919252,-0.0518623,0.0204354,0.0280894,-0.0765077,0.0954838,0.00629574,0.057245,-0.0218379,0.0778545,0.0774947,0.0341114,-0.0178768,0.030563,0.0896229,0.0671926,-0.0411921,0.012283,0.00223244,-0.0808701,-0.0451004,0.0650563,-0.0827075,-0.0183861,0.0703774,0.0543605,0.0210326,0.0260128,-0.0503604,0.0853048,-0.00513253,0.0195225,-0.0516186,-0.0463591,-0.0848199,-0.0327426,0.0697503,-0.0638633,0.0318958,0.0827942,-0.0485411,0.0180059,0.0305405,-0.00893463,0.0167649,-0.0348223,0.00707757,0.00332091,-0.0260907,0.0670025,-0.0217402,0.0321072,0.0373018,0.0839338,0.0654532,-0.0222803,0.0333246,-0.0114005,-0.0540865,-0.086136,0.0183117,0.0604704,0.0572553,-0.0257708,-0.0524021,-0.0402142,0.0547199,0.0999695,-0.069704,-0.0586226,-0.0524414,0.0553783,0.0891041,-0.0205002,-0.0335028,-0.0844458,0.00632331,0.0772799,0.0369709,-0.0518364,-0.0570385,-0.0867917,-0.0761827,0.0622069,0.099049,0.0388047,0.0498319,0.0468726,0.0507904,0.0391444,-0.0763384,-0.0688119,-0.076369,0.0484344,0.00335867,0.0148639,0.0688727,0.00741021,0.00330165,-0.0272466,-0.0525227,-0.00986079,0.0535305,-0.0811695,-0.0195471,0.00537548,-0.0623059,-0.0664193,0.0561825,0.0230904,0.0708469,-0.0514817,-0.00315805,-0.0826573,0.0283263,0.0337856,0.0791331,0.0237209,-0.031339,0.0261948,0.0525338,0.00313097,0.0126341,0.00294101,0.0257486,-0.00061477,-0.0785546,-0.0195035,-0.073808,0.0408521,-0.00131025,0.00597925,-0.0412553,0.102331,-0.0467413,0.0345032,-0.0693374,0.0619373,0.0623231,-0.0509838,-0.055284,-0.0612314,-0.0369529,0.0347864,-0.0589457,0.0162483,-0.0186849,0.0410432,0.0369183,0.0787257,-0.0330979,0.0739019,-0.000844616,0.00224805,-0.0513637,-0.00406551,0.0347607,-0.00650468,-0.0576915,-0.0701313,0.0187151,0.080965,-0.0187479,0.0636587,-0.0778499,0.0328721,0.0705808,0.0558538,0.0634706,0.0336484,0.0165387,-0.0434642,0.0745428,0.0611823,-0.0643283,-0.088718,-0.0151821,-0.0171064,-0.0914698,-0.0804898,0.084959,-0.0643819,-0.0694127,0.0354097,-0.0698083,-0.053379,-0.000178325,-0.0611566,-0.0845869,-0.075027,-0.0665684,-0.0557972,0.0137917,0.0697227,-0.00765285,0.0789413,-0.0563646,0.00630104,0.0170834,0.00265274,-0.00979636,-0.0220421,-0.0302297,-0.0691986,0.0458904,-0.0320738,-0.0585014,0.00972444,0.0106689,0.059119,-0.0269152,-0.092159,0.0512124,-0.0313603,-0.0578706,-0.00716939,-0.00758089,0.0391193,-0.0523534,-0.0437652,0.00152338,-0.0174441,-0.0166336,0.00783931,-0.0420069,-0.0738035,0.00435834,0.04222,-0.0759189,-0.0453255,0.00946752,-0.00778534,-0.0588818,-0.00847631,-0.020699,-0.017018,-0.0210906,0.0278409,0.0632079,0.0848705,0.071149,-0.0731369,0.0652218,0.0762316,0.0207685,0.0569098,-0.0504546,0.00922157,-0.0440338,0.0542289,-0.0571609,-0.0420997,-0.0308861,-0.0924687,0.0831784,0.0189588,0.044033,-0.0146418,0.0111466,-0.026574,-0.00048204,-0.0173374,0.0788251,-0.03078,-0.071265,-0.0833775,0.0136304,-0.0634351,0.0557121,0.00182471,0.0528288,-0.0577739,0.0218534,0.0358656,-0.0351959,0.0306125,-0.0123388,-0.00164357,-0.040615,0.0805332,0.0572265,-0.0390485,0.0435117,0.089228,0.00906075,-0.0627614,-0.0018978,-0.000971106,-0.0935293,0.0434651,0.0359433,0.0122072,-0.012382,-0.0550134,0.0632894,-0.0649546,0.0367158,-0.0845969,0.0679977,0.0658296,-0.0022234,-0.0146553,-0.0743065,-0.0418887,0.0787562,0.0290665,0.0922635,0.0410923,-0.0252899,0.0845865,0.0397356,-0.0772585,0.0470122,0.00664719,0.0729955,-0.0274011,-0.0506486,0.0447758,-0.0923652,-0.0267106,-0.061865,0.0703296,0.0268437,0.0473778,-0.0125379,0.0530319,-0.0339989,-0.088176,-0.0458971,0.0304026,0.0667192,0.0767919,0.0794749,0.0121242,-0.0132349,0.0909521,0.0681665,0.0220023,-0.0824123,-0.0440867,-0.0292765,-0.0428896,0.00428228,-0.0565732,-0.0280641,-0.0675219,0.0434702,0.0429247,-0.00372205,-0.00700373,-0.0318149,0.0662573,0.0184782,0.0526038,0.0546887,0.111483,0.0645718,-0.0155571,-0.0302172,0.0121149,-0.0775779,-0.0975682,-0.0706286,0.0760957,0.000317752,-0.0770548,-0.00650083,0.000174914,-0.0430735,-0.0815011,0.0478365,0.0407805,0.0592374,0.0635261,-0.0613725,-0.0255509,0.0374901,-0.086661,-0.084431,-0.0102111,-0.0747557,0.0744251,-0.0347196,0.0132548,-0.0500486,0.00458898,-0.0122227,0.0414582,-0.0583088,-0.085268,0.0414346,-0.00195255,0.0599725,-0.00999182,0.058826,-0.0381001,-0.0696015,-0.00843961,0.0490542,0.0809546,-0.0136671,-0.0039109,0.0488435,-0.00434257,0.0669254,0.0125637,-0.0185011,0.0506859,-0.0478588,0.0161112,-0.0291761,-0.0784461,0.025475,0.0396512,-0.0709541,-0.0384896,0.0286319,-0.0187055,0.0529476,0.0707823,0.0148106,-0.0460223,-0.0248194,0.0653701,-0.00412404,-0.0202275,-0.0310798,0.0143129,-0.0410685,0.0638443,-0.0275202,0.0240712,-0.0694799,0.0821797,0.0656819,-0.0916485,0.0932825,0.0256921,-0.0737548,0.0661727,-0.0525971,0.0439386,-0.0562541,-0.083854,-0.0563838,0.0299233,0.0745384,0.0864243,0.00561765,0.0469357,0.00575311,0.027193,-0.0161803,-0.0250526,0.0275669,-0.0115292,0.0689867,-0.0236798,-0.00111595,0.0882486,0.026269,0.0187213,0.0649508,0.0639391,-0.065581,0.0814139,0.00496666,0.0833913,-0.0293299,0.0231562,0.0561355,0.0835283,0.0444045,0.0604338,0.0349133,-0.0809652,-0.0136539,0.0641171,-0.0801139,0.0496093,0.0132932,-0.0728661,0.0177636,0.0745892,0.0724925,-0.0492574,0.0776291,0.0529446,-0.05721,-0.0185366,-0.0424025,-0.00347796,-0.0453659,0.0291127,-0.0236104,0.0628728,-0.0600112,-0.0069551,-0.00347904,-0.0413689,-0.000593353,0.0581278,-0.0511853,0.0069032,0.0540922,-0.053904,0.00874387,0.0488429,-0.0404849,-0.0436334,0.0752975,-0.0443442,0.0309264,-0.0169882,-0.0829648,-0.0140848,0.0971021,-0.00619762,0.0168224,0.000364354,0.0422585,-0.0631007,0.0728319,0.0534178,0.0783565,-0.0423188,0.0229403,0.056514,0.0845391,0.0147569,0.0771396,0.0567097,0.0748959,0.0461284,0.0439158,0.018875,-0.0413389,0.0470294,0.0214321,-0.0130953,0.0641878,0.089999,-0.035595,0.0197491,0.0564908,-0.0316645,0.0270475,-0.0184928,-0.020268,-0.0405313,0.075631,0.0585911,-0.0336421,-0.00149908,-0.0120559,0.0105688,-0.0242481,0.0293035,0.0242534,-0.0886669,-0.00730126,-0.0246604,0.0593952,0.0573591,0.0665173,0.0177859,-0.00276324,0.0262508,0.0261893,0.0042974,-0.0614109,-0.00803347,-0.0315158,0.0741799,0.0572483,-0.0575391,0.049,-0.0241587,0.0206025,0.0115477,0.0793091,0.0914833,-0.0467824,0.0539071,-0.0408162,-0.0167493,0.0243798,-0.0147956,0.0334168,0.0643236,0.0178343,-0.0390586,-0.0576626,0.0790839,0.0185826,0.060018,-0.00546671,0.0769161,0.0482291,0.0495373,0.0159367,-0.0730935,-0.0563207,0.0655501,-0.0683588,0.0710699,0.0658484,-0.0600365,0.0579983,0.0268475,0.0174607,0.0310288,-0.0866916,-0.0899983,0.0346216,0.0147837,-0.0712388,-0.0550264,0.0788727,0.0754318,0.0332358,0.064604,-0.00672697,0.00770998,-0.00973838,0.0728531,-0.0608779,0.0646927,0.0537196,-0.0439999,0.010468,0.0849472,-0.0615866,-0.0612779,0.00261945,0.0654179,0.0145734,0.0102328,0.00494334,-0.071721,0.0390792,-0.0537541,0.0400863,-0.00489658,-0.0356517,0.0341056,-0.0273834,0.0500696,0.012532,0.0463144,-0.0337425,0.0503842,0.0511254,-0.0738153,0.00139963,-0.0228837,0.0523761,0.0274639,0.001054,-0.0752204,-0.0885428,0.0844716,-0.00549026,-0.0513936,-0.0655864,-0.0513754,0.0591521,-0.00802229,0.0462239,0.0915578,0.0468959,0.00670632,0.0512664,0.00489253,0.0119037,-0.0230656,0.0231641,-0.0802428,0.0681741,-0.0602555,-0.0148064,0.0635604,-0.0433288,-0.0183074,-0.00186221,0.0629274,-0.0387333,0.0117712,0.00573746,-0.0439989,-0.0318691,-0.0326265,-0.0754298,-0.0176257,-0.0594673,0.0631747,0.066771,-0.0756895,-0.0068999,0.064129,-0.0291621,0.0559807,0.0408413,-0.059342,-0.0962471,-0.0841593,0.0770348,-0.0222362,-0.00180007,0.0497796,-0.0361977,0.0339054,-0.0473927,0.050047,0.0643507,0.0196756,0.0671437,-0.0731467,-0.0148609,0.0464153,-0.0417407,-0.0428945,-0.0204465,0.0481862,0.013267,0.0219611,-0.0850522,0.00208923,-0.0799052,-0.0583976,0.0312609,-0.0715668,-0.0428437,-0.0417441,-0.0845201,-0.0498711,0.0376133,0.00228915,0.0174754,-0.032128,0.0251373,0.0838731,0.0401897,-0.0188978,0.0576398,0.0565376,-0.0231491,0.0769622,-0.00411571,-0.0851822,-0.0588767,0.0750472,-0.00799984,0.05213,0.0368575,-0.0825415,-0.023388,0.0178655,0.0170357,-0.0033994,0.00210411,-0.0396019,-0.00412544,-0.0239102,-0.0167406,0.0623358,-0.070139,-0.0778655,0.0463204,0.0172579,0.0117621,0.0497634,0.0639682,0.0403558,0.0161968,0.03464,-0.0352052,0.0530287,0.0839137,0.0712622,0.0741527,-0.0709848,-0.0488867,0.0599647,-0.0695448,0.0588972,-0.0355153,0.0205989,-0.0756659,-0.0616884,0.0156849,0.00396602,-0.0409546,0.0359056,0.0435754,0.0808005,0.0459013
0.0098254,-0.0183553,0.0816855,-0.0457581,0.00213566,-0.0589304,-0.0514318,0.0452733,0.00250746,0.0622933,-0.0237942,-0.0466663,0.00653578,-0.0150195,0.0292366,0.0795272,0.0497771,-0.0233446,0.041341,0.083065,-0.0135395,-0.0140465,-0.0380041,0.00742877,-0.0305334,0.013099,0.0571669,0.0218042,0.0371613,-0.0128119,-0.0398293,-0.0157701,0.0574498,-0.0778531,-0.0673206,-0.0682307,0.0869361,-0.0715526,0.0149216,-0.0213905,0.0601442,0.0833224,0.024184,-0.0328514,-0.0479752,-0.0661775,0.00582744,-0.0436391,0.0732813,0.0770829,-0.00767634,-0.0748508,-0.0654089,-0.0202279,0.0780989,0.0185713,-0.0247562,-0.0277959,-0.0191986,0.0655486,-0.0497479,-0.0567084,0.014971,0.0797708,-0.015041,-0.0191939,0.0665371,0.0138464,0.0423422,-0.00479343,0.100022,-0.0576247,-0.0560339,0.0350238,-0.0540398,-0.0423453,0.0357277,-0.0429555,0.0190671,-0.030159,-0.0365498,-0.0534648,8.4893e-05,-0.058311,0.0497884,-0.0457849,-0.0800664,0.0475685,0.0151242,0.0912038,-0.0835468,0.0137918,-0.0113168,-0.0702897,0.0597752,-0.0314045,-0.0498616,0.0222138,0.0802199,-0.0801862,-0.0180132,0.0113958,-0.0694401,-0.0741506,-0.025407,-0.0217137,0.075394,-0.030251,0.0673036,-0.0301298,0.0349377,-0.0658394,-0.0732495,-0.0327591,-0.0825431,0.0819072,-0.0899812,0.054148,0.0165363,-0.00561444,0.0546222,0.0267082,0.0677985,-0.0400397,-0.00348758,-0.018697,-0.0345482,-0.0674721,-0.0192649,-0.0726866,-0.0575032,-0.0410805,0.0146337,-0.0176995,0.0280711,0.0168404,0.0384654,-0.0750775,0.0597833,-0.0148932,-0.0126544,0.0279848,-0.00802248,-0.00516238,6.07262e-05,0.041257,0.0673605,0.0173914,-0.0599832,-0.0317697,0.0143161,0.0272764,0.0438035,-0.0112805,0.0335117,-0.00910206,0.0387732,-0.00918638,-0.0601248,0.0553782,0.0280363,-0.0429711,0.0467159,0.0274952,0.00691569,0.0731853,-0.0795998,0.0304081,-0.0873864,0.0203901,0.0411841,0.025383,-0.00686427,-0.057991,0.00158753,-0.0181682,-0.0805282,0.0617212,-0.0186387,0.0103009,0.0731027,-0.0554089,-0.0251927,0.0741312,-0.0380236,0.00153787,0.0706189,-0.0525918,-0.0496017,0.0309488,0.022904,0.0209513,0.0796048,0.0371057,0.0103308,0.0461649,-0.038806,0.0701871,0.070572,-0.0713435,-0.0721548,0.0878326,0.0616978,0.0446107,0.04743,-0.0476416,-0.029651,0.0502498,-0.0403731,-0.0645588,-0.0309515,-0.0613619,0.0184512,-0.0813691,0.00672436,-0.0558429,0.00202475,-0.0421226,-0.0454917,-0.0425374,-0.0231286,-0.0373566,0.059809,-0.0512804,-0.0738624,0.0266204,-0.0598701,0.0108794,-0.0544086,0.0541572,-0.0700327,0.0171963,0.0819622,0.0722198,-0.0347454,0.0814843,-0.084417,0.0052715,-0.00588149,0.0329861,0.0120289,0.0487932,0.0579236,0.00174536,-0.0690325,-0.0395939,0.0252748,-0.0425224,-0.0263623,-0.0484559,-0.0584613,0.0572838,-0.053957,0.0177165,0.0118449,-0.000799713,-0.00141644,0.0713527,0.072352,0.0255839,-0.0408123,0.00261222,0.0684166,-0.0473092,0.00638286,-0.0467316,0.0450059,-0.0665593,0.0347112,0.0785401,-0.00682285,-0.0375034,0.0202682,0.0460361,0.0102196,-0.012841,-0.0014765,-0.078857,0.0600692,-0.0373635,0.0734697,0.0348502,-0.00697503,0.0188993,-0.00637607,-0.0324525,-0.0127877,-0.0176785,0.0800981,0.0809585,0.0502902,0.0473892,0.0752155,0.0856497,-0.0286745,0.0799617,-0.01241,0.0595752,-0.0454312,0.08011,-0.0551787,-0.0576455,-0.0412143,-0.0929166,-0.0181706,-0.0783512,-0.00444375,-0.0415314,0.0189424,-0.0633917,-0.0794318,-0.0755348,0.0581877,0.0284009,-0.0754192,-0.0292076,-0.0188936,-0.0386196,-0.0125086,-0.00367129,-0.058296,0.00624902,0.0110008,0.0717709,0.0326551,-0.0108022,-0.0528868,-0.0552132,0.0717484,0.0464677,0.0128478,-0.0678954,0.0611266,0.0390214,0.0858869,-0.062082,0.0287253,0.00948984,-0.0554503,-0.0150255,-0.0168924,-0.0697596,0.024177,-0.0332439,0.059009,-0.0189436,-0.042589,0.0719314,0.0183706,-0.0844137,0.0590882,-0.0297776,0.0311025,0.0361687,-0.0287343,-0.0367337,-0.0635124,-0.0764465,0.0909979,-0.0250033,0.0478801,-0.0427434,-0.0278394,-0.0504555,-0.0801649,0.0673496,-0.0461777,0.00313084,0.0197773,0.0984734,0.0878311,0.0273776,-0.0127836,-0.036235,0.0782502,0.0357618,-0.0411355,0.0125845,-0.0786845,-0.0821114,0.0138877,0.0578224,-0.0900208,0.0525713,-0.0342254,-0.00893776,-0.0370562,0.0391751,0.0174566,-0.00836163,0.0329583,-0.0820859,-0.0304923,-0.0708704,0.079503,0.0734452,-0.0453747,-0.0566737,-0.0238812,-0.0405774,0.0725818,0.0609022,-0.0774284,-0.0275512,-0.025336,-0.00744173,0.0299759,0.0470664,-0.0524908,0.0214147,0.014825,0.0628703,-0.0422119,0.0106255,0.0452532,0.0656113,-0.048717,0.0829042,-0.00880572,0.0486754,-0.0769038,0.0471304,0.0318459,-0.0669994,0.0265203,0.0841335,-0.0113881,-0.075372,0.0390372,-0.0694619,-0.0553309,0.0708953,-0.0664533,0.0913288,-0.060561,0.0788953,-0.0152041,-0.045384,0.0211078,-0.0582483,0.0750323,-0.00582311,-0.0189495,0.0487751,0.0609177,0.0107268,0.0326637,0.0917393,0.0780238,0.0327136,0.035589,-0.0647967,0.0247099,0.0380621,-0.013484,-0.0104993,0.0278417,0.0150261,0.0274991,0.015746,0.0386646,0.0151369,0.0175356,0.0476732,0.0421032,-0.0191223,-0.0285775,0.0903298,-0.0223281,0.0010761,0.0641382,-0.00415268,0.0211489,-0.0398812,-0.0135039,-0.0736898,-0.00434843,-0.00117494,-0.0188879,0.0102939,0.0755436,-0.00828368,-0.00179397,-0.0297528,-0.0607319,-0.00559866,1.53493e-05,-0.0173866,-0.0657644,0.0218418,0.0481594,0.0865849,0.0159133,-0.0122991,0.0793324,0.0515488,-0.00892543,0.0941325,-0.058222,-0.03101,0.0312357,0.0670585,0.0732599,0.068879,0.0438262,0.0612047,-0.0643076,-0.105003,-0.0791041,-0.0177177,-0.0330075,-0.0158695,-0.0768447,0.0832623,0.00440801,-0.0723452,0.095859,0.0860533,0.0451946,-0.0641153,-0.0396992,-0.0713219,0.0542457,0.0232765,-0.0496693,0.0251871,-0.0445744,0.00972681,-0.0807284,0.0171781,-0.00111085,-0.089162,-0.0579355,-0.0119481,-0.0657166,0.0875516,0.0274959,-0.069904,0.0303574,0.0475054,0.075743,-0.0665934,-0.0588218,-0.0457655,0.0422196,-0.0467226,0.0613768,0.0530934,0.0603182,0.062923,0.0670347,0.0516643,0.0125435,0.013237,0.0755979,0.031297,-0.0495628,0.0750167,-0.0614456,0.0516795,0.0198889,0.0552616,-0.0253206,0.00235285,-0.007547,0.049743,0.0414984,0.0149527,0.0835164,0.0293255,-0.0256181,-0.0808033,-0.0479449,-0.0573787,0.0791366,-0.0760698,-0.0257472,-0.0147421,0.0833702,-0.0373882,-0.0540445,0.0130109,-0.042167,-0.056964,0.0467883,0.0214727,-0.0693575,0.0485109,-0.054926,0.00296809,0.0355117,0.00838655,-0.0839778,-0.0685589,-0.0688703,0.0411608,0.0109408,0.0704369,-0.0702127,0.0333378,0.0340563,-0.0538021,-0.0348505,-0.0366139,-0.0487308,0.0680434,-0.042853,0.0597164,-0.0052646,0.00821633,0.0225297,0.00768934,-0.0585475,-0.00372058,-0.0716238,-0.0157207,0.0277135,0.0244844,-0.0687438,0.0185136,-0.0117731,0.0486756,0.0608314,0.00526292,0.0530026,-0.0022531,0.0417198,-0.0312541,-0.00787584,0.00386558,-0.0721877,-0.0675479,-0.00186313,0.0559796,0.0749722,0.0292012,-0.0644225,0.057986,0.0595202,0.0721024,-0.0652886,0.0488838,-0.0563161,0.0204314,0.0205277,0.0718385,0.0824677,-0.00558928,0.0220489,0.058359,-0.0627234,-0.0196564,0.0388059,0.0752482,-0.0388884,0.0778206,-0.0115513,-0.00870738,-0.0859055,-0.0496377,-0.043757,0.00665064,0.009146,0.0580538,-0.0165043,-0.0724844,-0.0317257,0.0492648,0.0953514,-0.0700449,0.009536,0.0736166,-0.0753452,0.00441697,0.0165687,0.00281233,-0.0603131,-0.0824728,0.0845287,0.0541835,0.047737,0.00511378,0.05821,0.0287489,-0.0512428,0.0542523,0.0280363,0.0256634,-0.0241404,-0.035447,0.0452943,0.0784307,-0.00056641,-0.0419783,-0.0353899,0.0439192,-0.0288118,-0.0624648,-0.0577109,-0.0893204,-0.0336141,0.0580847,0.0854255,-0.0209474,-0.0240939,0.0102706,0.0516815,-0.0602451,-0.0691776,0.0516333,0.0596808,0.0318807,0.0418591,0.0013078,0.0414124,-0.0551571,-0.0199317,-0.0607971,0.0255288,0.0777536,0.0237419,-0.0511636,-0.0686839,-0.00836021,0.0879752,0.0110559,0.0602617,0.0466375,0.0608086,0.0489098,0.093992,0.0475891,0.0652137,0.0483117,0.0129605,-0.0441708,-0.0460701,0.0408773,0.0812639,-0.059225,0.0370568,0.00174673,-0.0194739,-0.0697122,0.0756348,0.0318793,0.0214376,0.0905941,-0.0712762,0.0100128,0.0783093,-0.0467973,-0.0391844,0.0303429,-0.00511511,-0.0353882,-0.0797715,-0.059638,0.0687474,0.0608654,0.00718563,-0.0327792,-0.0538028,-0.0671089,-0.00591133,-0.0624942,0.0479446,0.00301736,0.00276613,-0.0166481,0.0792766,-0.071514,-0.0599496,-0.0535779,-0.0862295,-0.00471246,-0.0762796,0.0449718,-0.0348253,-0.00391069,0.0793449,0.0736215,0.0209156,-0.014941,-0.0426532,-0.00772656,-0.00622653,-0.0683533,-0.0241845,-0.0711746,0.0403719,-0.0204646,0.0726209,-0.0447918,-0.091743,0.0839059,-0.0032651,0.0691243,0.0192395,-0.0747787
0.0802652,0.0342426,-0.0156466,0.0406019,0.0518477,0.0621175,-0.0276321,0.043518,0.00145646,-0.0545898,0.062271,0.0424313,-0.0549322,0.0666416,-0.0197665,0.00699029,0.0517716,-0.0090777,-0.0637878,-0.0798398,-0.0228418,-0.0294131,-0.0770468,0.00956737,0.0295118,0.0443564,0.0272483,-0.0473206,0.0730156,0.0260397,-0.0342274,0.0674557,-0.0474394,0.0364689,0.0680383,0.0261863,0.0760772,0.0140682,-0.0206546,0.0770565,0.0808848,-0.0984582,-0.033599,0.0505866,0.0773491,0.0841775,0.0243788,0.0436069,0.0178572,-0.00163587,-0.0428126,0.00157693,0.0441651,0.00631369,-0.0698925,-0.0750766,0.0276267,0.0258486,0.0795493,-0.0494492,-0.0520805,0.0786464,0.0955827,0.0524004,0.0147782,-0.00357473,0.0610903,0.00944796,0.0638536,0.0765052,0.0573142,-0.00238304,0.011217,-0.0425851,0.0742006,-0.0274418,-0.0699859,-0.0395968,-0.0551176,0.0491312,0.0607404,0.0355547,0.00112213,0.108006,0.0123085,-0.0366318,0.051707,-0.0355867,-0.0403815,0.0780284,-0.0164605,0.00252062,0.0508798,0.0250744,-0.0127508,0.0133833,0.0067583,0.0895984,0.0801134,0.0569323,-0.0110925,-0.019038,-0.0305353,0.0754097,0.0338022,0.0607884,-0.0833316,-0.0467222,-0.0606482,-0.00411807,-0.0425522,-0.0773038,-0.0498744,-0.043829,-0.0418782,0.0233538,0.0361179,0.059456,0.0660558,-0.00369879,-0.0189326,-0.0740322,-0.00875545,-0.0492596,0.00237828,-0.0940503,-0.0698121,-0.0109621,-0.0441479,-0.0578727,0.0575519,0.0501973,-0.082841,0.0355444,-0.0228331,-0.0274618,0.0621528,-0.0756766,0.0668447,-0.0175949,0.0710501,-0.030505,-0.00245956,0.0674936,0.0797667,-0.019407,-0.0485914,-0.0577955,0.0436465,0.00370059,-0.0465364,-0.00113297,0.0121798,-0.0131472,0.0124785,0.0272393,0.0614683,0.0245444,-0.0205894,-0.031998,0.0142633,-0.0403039,-0.0363883,0.0555114,0.0129074,0.0511965,0.0337972,0.042201,-0.078134,-0.0391867,-0.0380034,0.0291044,0.0309837,-0.0596863,0.0506188,0.0389461,-0.0186994,-0.0525387,0.0385873,0.0322592,0.047809,-0.00337469,-0.0537268,0.0363095,-0.079814,0.0191771,0.0721837,-0.00229665,-0.0365699,-0.0411834,0.0579704,0.0782513,0.0399753,0.0528706,-0.0257446,0.0101425,-0.0135805,0.0306456,-0.0601659,0.0091041,0.0161379,-0.0419472,0.0521025,0.0853955,0.0775582,-0.040143,-0.0573861,-0.00969605,-0.000568775,-0.0423992,-0.0759218,-0.0193905,-0.042041,0.0397445,-0.0143326,-0.00222265,-0.0944737,-0.0756684,-0.0542162,0.0353482,-0.0763249,-0.0614737,-0.0502215,-0.00398302,0.00728001,-0.0615029,0.00633293,-0.0644491,0.00636897,0.0641928,0.030193,0.049282,0.0345212,-0.0746815,0.0332642,0.0379837,-0.0326441,0.0892811,-0.0664057,0.0790044,-0.0691464,0.0154578,-0.0108859,0.0105605,-0.0701394,-0.0929283,0.015974,0.030241,-0.0561895,-0.0223808,0.110767,0.0412772,-0.0271228,-0.0798931,-0.0612287,-0.060743,-0.0692723,-0.0301628,-0.056175,-0.0168013,-0.0307577,-0.0624222,0.0475833,0.0646176,0.0256475,0.0250829,0.0123381,-0.0532981,0.0554102,-0.0173195,0.0280446,0.0125296,-0.0620144,0.05253,-0.0882087,-0.0914812,0.0340046,0.0836067,-0.0154075,0.0713281,-0.00695467,0.0343912,-0.0259662,-0.0501823,-0.0418893,0.044329,-0.017692,0.0990689,0.0488272,-0.0491241,0.0113802,0.0687683,-0.0643479,-0.0745082,0.0279899,0.00780166,0.0401491,-0.0103854,0.0560371,0.0511231,0.0131803,0.000627366,0.0696823,-0.0274336,0.0214553,0.00483003,-0.0540417,0.0494789,0.0628106,-0.0518164,-0.0494493,0.0334474,0.0807092,0.00188431,-0.00944512,-0.064288,0.00280357,0.0027347,0.0398111,-0.0964888,0.0316895,0.0849056,0.0336541,-0.0112417,0.0246933,0.0380121,-0.0358332,-0.0131411,-0.00190953,0.0561706,-0.0428425,-0.00508044,0.0165489,0.057221,0.0245189,-0.0681521,-0.0065409,-0.0320235,-0.0743944,-0.087922,-0.0692901,0.0368519,-0.0304805,0.0141755,0.0162352,-0.0126952,-0.0246616,0.0652409,0.0625918,-0.0304437,0.0599921,-0.0178214,-0.0401845,-0.0329581,0.000969789,-0.0145774,0.0523088,0.00890436,-0.00298391,0.00538927,0.0742943,-0.0323659,-0.0812459,-0.0420075,0.0931837,0.0384959,0.0646909,-0.0247319,0.0557541,-0.0685857,-0.0804799,-0.0248346,-0.0491177,-0.00772575,0.00871454,0.0105807,-0.0387295,-0.0497125,0.0349668,0.0146116,0.0431175,-0.0321365,0.068724,0.0519314,-0.0296035,0.0402544,0.00978142,0.0707577,0.0276594,0.0450548,-0.0738296,0.0375662,0.0010182,-0.0196926,0.0715353,-0.048653,0.0638068,-0.0293427,-0.0695714,0.0576514,-0.0565904,0.0079228,0.0679721,-0.00862959,0.0741295,0.0647651,0.0448653,-0.0563575,0.0525407,0.000269741,0.0655311,-0.0778418,0.0579994,-0.0349578,0.0167485,-0.0142127,-0.0695854,0.0618183,0.0641607,0.0184133,0.0252206,0.0518221,-0.0251283,-0.0594124,0.0155348,0.0497059,0.0900002,0.0775707,0.0580555,0.0758207,0.051369,-0.00337731,-0.00114773,-0.0486317,-0.038192,-0.00663851,-0.0192895,-0.0343436,0.0309824,0.0394819,-0.0508922,0.0533402,-0.00134984,0.0139813,-0.068302,0.0141037,-0.0625883,0.0429724,-0.0348472,0.000344,0.0410109,0.019611,0.0439148,0.0471093,-0.0385158,0.00239876,0.0688444,-0.0631416,0.05217,0.0606953,-0.0349205,-0.0413024,0.0842119,0.0236669,0.014336,0.0272609,0.0171662,0.0306827,-0.087906,-0.00381735,0.00656289,0.00777387,0.00956078,0.06589,-0.0421271,-0.00417345,0.0759842,-0.0740444,-0.0232217,-0.0751005,0.0338772,0.0633085,0.0791394,-0.0291007,-0.0696347,0.0086416,0.0464885,-0.0774821,-0.00130068,0.068793,-0.0885853,-0.00944155,-0.0486141,-0.00875898,-0.0831913,-0.0668241,0.0872818,-0.0645278,-0.0513061,0.0472466,0.0852269,-0.0539644,-0.0185378,-0.0837439,-0.0197298,-0.0121632,0.0801196,-0.0211564,-0.0221731,-0.0804062,0.0224128,-0.00280558,0.0710864,0.0376457,0.0375639,0.0192021,-0.0129853,0.0289043,0.00489927,0.0836013,-0.0130597,0.0400962,-0.0553085,-0.042001,-0.0657461,-0.0568568,0.0623245,0.0586504,0.035264,-0.00866371,0.0630463,0.0121578,0.0590001,0.0277013,0.0441846,0.0714918,-0.0752935,-0.039642,-0.0577478,-0.076543,0.0104494,0.0707125,0.0180593,0.0793258,-0.0700118,-0.0683455,-0.0584511,-0.0123992,-0.00295508,0.0109955,0.0246244,-0.0742201,0.000948678,-0.0509326,-0.0541978,0.0453416,0.0554703,0.0433042,-0.0678632,0.076697,0.0611605,-0.0744752,0.0362612,-0.0821704,-0.0468792,0.0183682,0.0650066,-0.0184399,0.0743453,-0.0771893,-0.0627937,-0.0438771,-0.0045115,0.0807896,-0.0504261,0.0160778,-0.0460138,0.0798762,0.0658093,0.0133324,-0.0515251,0.00088938,-0.0531696,0.0530224,-0.0875706,-0.0616681,0.0286732,-0.0310099,0.0334112,0.00190022,-0.0213309,-0.083055,0.0606531,0.0858135,0.064572,0.00196761,0.0319936,0.0206098,0.0547449,-0.0744954,0.0346089,-0.0479253,-0.0185438,-0.0168562,0.0672813,-0.0515194,0.0680277,-0.0634509,0.010155,-0.0547414,-0.044294,0.029192,0.0311123,-0.0061,0.0337069,-0.0105872,-0.00993647,0.0479834,0.0603574,0.0139041,0.0476009,0.0598075,-0.0552373,0.0950562,0.0362606,0.0762338,-0.0170151,0.0835042,0.0127404,-0.0630943,0.0117623,-0.0876429,0.0413946,-0.0208964,0.000580184,0.017036,0.000230643,-0.0359629,-0.0187963,0.0533376,-0.0237768,-0.0466829,0.0253585,-0.0265822,0.0767706,-0.0175767,0.0597957,-0.0406978,0.0227737,-0.0208583,-0.0578829,0.0571893,-0.0776105,-0.0616978,-0.0566574,-0.0730724,0.023274,-0.0832318,-0.00373857,0.0625421,-0.0458987,0.0676722,0.0711485,0.0386443,0.0828227,0.011234,0.0368364,0.0104283,-0.0139461,-0.0338014,0.0650441,0.029454,-0.0161414,0.052346,-0.00896149,-0.0744109,0.023458,0.0783722,0.0687764,-0.023865,0.0116481,-0.0222676,0.0660888,0.0809474,0.0509722,-0.0681528,0.0953131,-0.0753623,-0.0310403,0.0164196,0.0355905,-0.0327484,-0.00846095,-0.0287821,-0.0857198,0.0665266,0.0280392,-0.0293458,-0.0418293,-0.0780463,0.0164167,-0.0495985,0.0487242,-0.0465114,-0.033238,0.0138411,-0.0507876,0.0591392,0.0122433,0.0473082,-0.00754775,0.031423,-0.0795523,-0.00636052,0.015419,0.00176749,0.054375,-0.0850467,0.0833365,-0.0517909,-0.0682089,0.0471475,0.0500773,-0.0398301,0.0778301,-0.00591277,-0.0821005,0.0396668,0.0795908,0.0384041,0.0542593,0.0802327,0.0794167,0.0247089,0.031644,0.0336274,0.0891763,-0.0655027,0.00856325,0.043514,0.0580767,-0.084784,0.0450615,-0.0124169,0.018771,0.055,-0.0772049,0.0262672,0.0337226,0.00851356,0.0758287,-0.069748,-0.025987,0.0552344,-0.0488815,0.0552081,0.0907249,-0.0662732,0.00413517,-0.00973846,0.00678826,0.0651608,-0.0893495,-0.0635689,0.00445965,-0.0323363,0.078444,-0.0169628,0.0611032,0.0677606,0.0341654,-0.0442608,-0.0037237,-0.0431799,0.00455611,0.0489197,0.0589431,0.0274498,-0.0399286,0.0135796,0.020575,-0.0555317,-0.00865259,0.0913474,0.0123414,-0.0599821,-0.000268979,0.103331,-0.00977516,-0.0375442,0.0483254,0.0122893,-0.0766473,0.057028,-0.0120605,0.0312706,0.0786458,-0.0710794,0.074225,-0.0625436
-0.070552,-0.0141066,0.007919,0.0604607,-0.0658095,-0.0512567,-0.0384962,0.0577586,-0.0229603,0.00858142,0.0190961,0.0335513,0.00744877,-0.0297062,0.071093,0.0253878,0.0539535,0.066584,-0.0142506,-0.0633346,0.0905846,0.0365901,0.0342063,-0.0508383,-0.0287691,-0.0727586,0.0262229,-0.00578884,-0.058806,0.0651439,0.0290981,-0.0302074,0.0326047,-0.0171765,0.0821402,-0.000747184,-0.0303266,-0.0354113,-0.0559361,0.0132007,0.069971,0.00642023,-0.0293057,-0.0321811,-0.0302205,0.0034297,-0.0125237,-0.0712461,-0.027901,0.0198772,-0.0481853,0.00944089,0.02918,-0.0298966,0.0701364,0.0264828,0.00666254,0.00453892,0.0720301,-0.00230567,0.000509576,-0.0478106,-0.0344546,0.0440597,-0.0708717,-0.0548451,-0.0112982,-0.0602614,0.0104264,-0.0236542,-0.0209946,0.0767519,0.0135959,-0.0341138,0.0293864,-0.0844058,-0.00347569,0.0316589,0.0854972,-0.023619,-0.0750899,-0.0360924,0.034731,-0.0178584,0.0199,0.0590783,0.0381208,-0.0791849,-0.0612221,-0.00165845,-0.0747323,0.0513327,-0.00246938,-0.039513,0.0634901,0.029,0.00508475,0.0124087,-0.0687943,-0.0207836,0.0593043,-0.0696521,-0.0138596,-0.0199176,-0.0115566,-0.0307039,-0.0730977,0.0837889,-0.0757229,-0.04073,0.0845586,-0.0693564,0.0338374,-0.0746867,0.0191932,-0.073817,0.0719736,0.0236525,-0.0839377,0.0473326,0.0353269,0.0193754,-0.0420433,0.0588275,0.0310797,-0.0952566,-0.0718177,-0.00785509,0.0242074,0.0452405,0.0142753,-0.0522397,-0.0419272,0.0177136,-0.0466533,0.0646297,0.0579934,0.0169734,0.0699958,0.0212878,-0.063608,0.055657,-0.00935344,0.056086,0.0561046,0.0939195,0.0486527,-0.0494327,0.0450921,-0.0415753,-0.0748465,-0.010394,0.0561428,-0.015088,0.00995843,-0.042431,-0.0849772,-0.0716039,0.076188,-0.0824939,0.0263537,0.0147751,0.0177304,-0.0448464,0.0459514,0.0560251,0.0203169,0.0606946,-0.0440147,0.0692366,0.0379814,-0.056312,0.0559626,0.0714989,0.0343037,-0.0367876,-0.0466425,-0.030642,0.0470161,0.0192384,0.0334571,0.0418075,0.0132977,-0.00576261,-0.0274114,-0.0610651,-0.058389,-0.0276967,0.08674,-0.0130433,-0.0262997,0.062264,0.00214714,-0.0610979,0.0642937,-0.0166521,0.0230264,0.0935431,-0.0570084,-0.0631804,0.00955881,0.0351164,0.0683928,0.0392996,-0.0238157,-0.0554345,-0.056402,-0.0258527,0.00166596,-0.00382325,0.0490534,-0.0329108,0.0491914,-0.031216,-0.0252676,-0.0780908,-0.0490639,0.0164635,0.00848959,0.0398998,-0.036498,0.0833951,0.0683702,0.0247942,0.0324096,0.088781,0.0813308,-0.0822162,0.0778827,0.0722916,-0.0882442,0.0420889,-0.0222792,0.0461544,-0.00618727,-0.0014925,-0.0665106,0.0158905,0.0523281,-0.0296494,0.00174317,0.0488124,-0.031463,-0.0457358,0.0314662,-0.0131109,-0.0543192,0.0659212,-0.0552715,-0.0447003,0.0505435,-0.03916,0.0494837,0.0385726,0.0220797,-0.0193488,0.07569,-0.0422888,-0.0673782,0.0946233,-0.0496431,0.0801873,0.0590027,0.0336541,0.03694,0.0482687,0.0336098,-0.0340706,-0.0108883,0.0517984,0.0814781,-0.0841687,-0.0058422,0.0677522,-0.0872955,-0.0764028,-0.0428763,0.0242799,-0.0710961,0.08428,7.2068e-05,-0.0329134,-0.0165321,0.0176144,0.0841793,-0.0592468,0.0294154,-0.00449014,0.0131225,0.036537,-0.00635795,0.039881,-0.034454,0.0580586,-0.00135575,0.0714592,0.0392337,0.0500032,-0.0429258,0.0692433,0.0507162,0.0765895,0.0468403,0.0862117,0.0401851,-0.0187062,-0.0670389,-0.0764275,0.0560508,0.0612219,-0.0316192,0.0396862,0.0409725,0.0630977,0.084759,-0.0835844,0.0112503,0.00114114,0.0549223,0.0526158,-0.0406906,0.0596742,0.0322411,0.0666591,-0.0036207,-0.0593076,-0.0250232,-0.0307523,0.0514343,0.0462088,-0.0586521,0.00671211,0.0780928,0.0463188,0.0166158,-0.00186391,-0.0151891,-0.0167089,-0.027892,-0.0114752,0.0724566,0.0216382,-0.0510639,0.0776227,-0.0833245,0.0850026,0.0720836,-0.0528506,-0.0721476,-0.012327,-0.0336064,-0.0114933,0.0671277,0.0391982,-0.0781957,-0.0103005,0.0361017,0.011753,0.00886086,-0.0547082,0.0244386,0.075476,-0.0625196,0.0850879,0.0318142,-0.0238551,-0.0307397,0.0722035,0.0771587,0.069484,-0.0714324,0.0073658,0.0325979,-0.0254441,-0.043766,0.0637946,-0.0288398,0.0781338,0.0132248,0.0613213,-0.0553899,-0.012657,0.0633844,0.00897367,-0.0301747,0.0720009,-0.0295729,0.0334246,0.0597411,-0.0371138,-0.030124,0.0109314,-0.0159374,-0.0209197,-0.0436125,-0.0733564,-0.0604476,0.0691263,-0.0706632,-0.040013,0.0525334,-0.0365482,0.0742152,-0.06916,0.0412844,0.0434701,0.0391305,-0.0298842,0.00424958,0.0824747,-0.042255,0.0545005,-0.0633098,-0.0786744,0.0676938,-0.0414585,0.00297816,0.0591206,-0.0129647,-0.0319835,-0.00551846,-0.0488328,-0.0669832,0.0179976,0.0514838,-0.0326072,0.00237396,-0.00074017,-0.0938216,-0.0594394,0.0214417,-0.0230193,-0.0303382,0.0428073,0.00591069,-0.0410459,0.0836642,-0.0464376,0.105429,-0.0739427,-0.00484106,0.0821563,-0.062018,0.0660767,-0.0898244,-0.0100315,0.0222427,0.00335869,0.0154386,0.026941,-0.0765277,0.0873914,0.0525053,-0.0416198,-0.0319743,-0.0181576,0.0595104,-0.0476221,0.0857056,0.00309583,-0.04664,0.0942707,-0.0984923,-0.00845998,0.0144952,-0.00777907,0.000284218,-0.0542348,0.0378944,0.0294376,-0.0193549,0.0405339,-0.049059,0.0483348,-0.0459659,0.0553587,0.0609723,-0.0634881,0.0339737,-0.0337761,0.0449479,-0.0539014,0.0311161,-0.0495585,0.0544537,-0.0849819,0.0188321,-0.0484134,0.0687963,-0.0207431,-0.00838352,-0.0345786,0.000443287,0.0429035,0.0744373,0.07849,0.0132977,0.0222462,0.0792295,-0.0482033,0.0885858,0.0539993,0.0027228,-0.0165707,0.0590139,0.0286543,-0.0131251,-0.042539,0.0563779,-0.00320867,-0.0391581,-0.00486267,0.0746075,0.0737778,0.0564234,0.0463866,-0.0110997,-0.0542831,0.0801721,0.0221558,-0.0566994,-0.0871485,-0.0161351,0.0301895,-0.0488111,0.0570973,0.0036958,0.00837873,-0.0554965,-0.000785548,-0.00216929,-0.0753813,-0.0828022,-0.0819679,-0.0573236,-0.0474219,0.0386511,-0.0589666,0.0826053,-0.0742605,0.0638356,0.0351808,-0.0708076,0.0377351,0.074994,0.0435834,-0.00370258,-0.0440715,0.000332293,0.0681948,0.067685,-0.0315542,0.0361568,0.0572428,0.0400469,0.0472562,-0.0356304,0.0331689,-0.0260556,-0.0524802,0.0601538,-0.0483266,-0.0679125,0.0877266,-0.0600799,-0.00624187,-0.06475,0.0861469,-0.0835324,0.0148491,-0.0140665,-0.0796023,-0.0303461,0.0089422,-0.066729,-0.0203832,0.0425001,0.0557031,0.0522174,-0.0668573,-0.0675177,-0.0561908,-0.0797744,-0.078841,-0.0570966,-0.0418887,0.0332731,-0.0820485,0.0217215,-0.0158524,-0.0310993,-0.0576322,0.0340472,0.0212265,-0.0701659,0.0200805,-0.0371142,-0.0516239,0.0316799,0.0651817,-0.0225125,-0.0772715,-0.030565,-0.0452366,-0.00787452,0.0567376,-0.0583532,0.0191567,0.00615986,-0.0474457,-0.0190856,0.0338973,-0.0722911,-0.000624688,0.0525426,0.0594635,-0.0134608,-0.00220299,0.0876888,-0.0153966,-0.0002668,0.0461252,0.0565802,-0.0542687,0.0372288,0.076664,0.0783358,0.0823008,0.069751,0.00934364,0.0231408,-0.0304169,0.0644961,0.071898,0.0763142,0.00177548,-0.00796418,0.0378078,0.0471006,-0.0148235,-0.0265488,-0.0663671,0.0426636,-0.0816035,-0.0063233,0.0262401,0.057533,-0.0399899,0.0543755,-0.0330627,-0.0639407,-0.00238449,-0.0515049,-0.0257735,0.0595875,0.0665759,-0.0939377,-0.0579867,0.026994,0.0795895,0.079346,-0.0173137,0.033144,-0.0529858,-0.0477708,0.0418341,-0.0814232,0.0936666,0.0127268,0.0487406,0.0872224,-0.00979348,-0.0477784,0.0667887,0.0274263,0.00937309,-0.0728559,0.00113188,-0.0195313,0.0322755,-0.029352,0.0192233,-0.0178852,0.046775,0.012571,-0.0492016,0.0856454,0.0917413,0.0343555,-0.0509212,0.0297067,0.0877059,0.0324971,0.0695359,0.0188455,0.0629988,0.0327041,-0.00898005,0.0523183,0.0217363,-0.0190021,0.00180281,0.0894189,-0.0294501,-0.0417275,-0.0687094,0.0440121,0.0338394,0.0041809,0.0477575,-0.0416259,-0.0337766,-0.0567874,0.0627008,0.0345814,-0.0558962,-0.0645528,-0.0728623,-0.0393133,-0.0834489,0.0784919,-0.0450134,0.00868043,-0.095049,0.0421334,-0.0403151,0.0338399,-0.0267121,-0.0286243,0.0856067,-0.0129177,0.0690536,-0.0746377,-0.0297734,0.0050905,0.0482044,0.0640094,0.0183909,-0.0306612,0.0724026,-0.0386822,0.0248975,0.0365101,0.00318085,-0.0622019,0.0612142,-0.0129655,-0.042922,-0.0217241,0.0385284,-0.0549528,0.0365796,-0.0324391,-0.0239147,-0.0676447,-0.0716615,0.0582077,0.0181727,0.0613705,0.0289423,0.0550541,0.0100069,0.0821403,0.00802538,0.0696682,-0.0228072,-0.0764965,-0.0327588,0.0292149,-0.0757196,-0.0372262,-0.0804906,-0.0566101,0.0613904,0.0226464,0.0503774,0.0380392,0.0718776,-0.0827502,0.0568067,-0.0656959,-0.0158975,-0.042737,0.0562995,0.00639415,0.0236197,0.0618643,0.0738457,-0.0559393,-0.0534107,0.0919667,0.0277582,-0.0326467,0.00830148,-0.0332267,-0.00596495,0.0824057,0.0123339,-0.0453835,0.0679598
0.0890638,-0.0656134,-0.0719248,-0.0592403,-0.0250488,-0.0763888,-0.0219556,-0.0099518,0.0145828,-0.0686651,-0.030967,-0.0809153,-0.0212222,0.0596718,-0.0763281,0.0280801,0.0576885,-0.0216371,0.0898019,-0.085812,0.035305,-0.0149783,-0.0073889,-0.0120372,0.0338355,-0.07293,-0.0346259,-0.0829529,-0.025722,0.0184358,-0.0653273,0.0818699,0.0309682,-0.0789116,-0.0321382,0.0805129,-0.0823666,0.00247346,0.055961,0.0684576,0.0748983,-0.0238114,0.0626237,-0.0461267,0.0881205,-0.0209107,-0.0155786,0.0449406,0.00181211,0.0745412,0.0084616,-0.0777679,-0.0493741,0.0779815,0.0573491,0.00173075,-0.0545979,0.0611961,-0.000188331,-0.0831576,0.0631116,0.0258409,-0.0383892,-0.0151991,0.0646333,-0.0111016,0.0100904,0.0636123,0.0401337,0.074321,-0.0124767,0.0483193,0.0818281,-0.0780962,-0.00766543,0.0408396,0.0642641,0.0205066,0.0113312,-0.0787954,-0.0332499,0.0082215,0.0608961,0.0924004,0.042053,0.083416,0.0466486,-0.0141217,-0.0735799,-0.0257419,-0.0722199,-0.0465936,0.0585148,0.0307907,0.0482306,0.0537387,0.0507039,0.0190419,0.0464365,-0.00524935,0.000235727,0.0510281,0.0667113,0.0722736,-0.0815303,-0.00325562,-0.00969592,-0.00181932,-0.0764014,-0.0468243,0.00277698,0.0608208,-0.0592561,-0.0709058,0.086698,-0.0108306,-0.0448505,-0.0550979,-0.0123894,-0.0137759,0.0342437,-0.0557028,0.0794427,0.0517816,-0.0341795,-0.0098909,-0.0803506,-0.0211457,0.0276394,0.00800591,-0.0688383,-0.0233067,-0.0270704,-0.0493582,-0.0358733,0.0609961,0.0717683,-0.0451708,0.0396711,0.070979,0.0591298,-0.0467565,0.0779338,-0.0225302,0.0141677,0.00116009,0.0818056,0.062477,0.0501719,0.0626391,-0.0847161,0.0292724,0.0511886,0.0155408,-0.0583919,-0.047253,0.0825933,-0.00910821,0.0184829,0.0660025,-0.0423546,-0.0655156,-0.050825,0.0183152,0.0447562,-0.0773648,-0.0696804,-0.0590162,-0.0427055,-0.0156978,-0.0109649,-0.0260328,-0.00966905,0.0275254,0.0673319,-0.0130682,-0.0475793,0.030104,-0.015891,-0.0689884,0.0395548,0.0147861,-0.0644889,0.000551333,0.0777457,-0.00394918,0.0468651,-0.058991,-0.0715071,-0.0019184,-0.0158067,-0.0778656,0.0910782,0.0699344,-0.0159151,0.0641633,-0.0614584,0.0815125,-0.0662436,-0.078762,-0.0411244,0.00689445,0.0203529,-0.0203656,-0.0257253,-0.0221133,0.0285383,-0.00241118,0.0096636,-0.0867106,0.0626464,0.0265277,-0.0670489,0.0430951,-0.0718611,-0.082619,0.055679,-0.0780993,-0.00203841,-0.0078334,-0.0566194,-0.0657371,0.029872,0.0460442,-0.0738751,-0.0688183,0.0380655,-0.051575,-0.0672439,0.0592059,-0.0676746,0.0666767,0.0869047,-0.0356404,0.0238212,0.0777026,-0.0419029,0.0202088,0.0677974,-0.0149381,-0.0104087,-0.0626272,0.0807198,0.0216924,-0.0411394,-0.019318,-0.063005,-0.0365388,0.00213775,-0.0602999,-0.0399917,-0.0839611,0.071806,-0.0535356,-0.0632447,-0.0213142,-0.0347754,-0.0764657,0.0360263,0.0606362,-0.067729,-0.0329419,0.0527819,-0.0316507,-0.0537149,0.0593502,-0.0390525,-0.0172442,-0.049729,-0.0438776,-0.0632878,0.0897642,0.0921253,-0.0462505,-0.0024042,0.0591598,0.0318199,0.0185715,0.0681925,-0.0716656,0.0121332,0.075379,-0.00916429,-0.00802004,0.0618042,0.0212582,0.0025456,0.0761264,0.0126613,0.0163204,0.00835488,0.0418659,0.0497614,-0.0276261,0.0101485,-0.000993174,-0.000467705,-0.00498257,-0.0755879,0.0872648,0.0674924,-0.00914276,0.00613277,0.0708256,-0.0583843,0.0295177,-0.0609349,-0.0748843,0.0698727,-0.00304523,-0.0411619,0.0790757,-0.0508836,-0.0791748,-0.0289985,0.0779218,0.0404756,0.000376441,0.0597964,0.0533541,0.0232515,-0.0891522,0.0527943,0.0419907,-0.0589267,-0.0624315,0.0661243,-0.00694881,0.0709051,-0.0291134,0.0748672,-0.0406272,-0.0496086,-0.0238718,-0.0393868,-0.0576015,-0.0292085,0.0498804,0.0525424,-0.0413262,0.00621683,-0.0236615,0.0781378,0.0746805,0.0677999,-0.0190813,-0.00144464,-0.0532108,0.0470787,-0.0772099,0.0614714,0.0744128,0.0310377,0.0216246,0.0248449,0.0311169,0.0814804,-0.000275971,0.0507488,-0.0520615,0.0211352,0.00270482,0.0494538,0.0708133,-0.0567542,-0.00722245,-0.0020141,-0.0635644,-0.085471,-0.0103018,-0.00595089,0.0366788,-0.0820604,-0.0869723,-0.0367015,0.0176167,-0.0468799,0.0555942,0.0642061,-0.0804336,-0.0507237,0.0517834,-0.0170788,-0.0482125,0.00540094,0.0129903,-0.0344432,0.0527779,0.0772624,0.0225674,0.0285339,-0.021209,-0.0757736,-0.0662823,0.0692593,-0.0353828,-0.0767545,-0.0495952,0.0620746,0.0816801,-0.0195978,-0.041607,0.0114594,0.0752089,0.0804015,0.0564307,0.0556453,0.0483215,0.0300755,0.0764224,-0.0753477,0.00302804,0.0570223,0.0636013,0.0490626,0.0722307,0.0408656,0.0649592,-0.076431,0.0817412,0.00635988,0.0152309,0.0299497,0.022646,-0.0144513,-0.018951,-0.0784783,-0.0639054,-0.0474585,-0.0797381,0.0199974,0.0169322,0.0389278,-0.0617292,-0.0419447,0.0205042,-0.0427036,-0.0530899,0.0198233,0.0365955,0.060058,0.0443928,-0.035576,-0.0102125,0.0660545,0.079758,0.0516472,-0.0724802,0.0814929,0.018225,0.0415718,0.0157461,-0.00426564,-0.0460816,-0.0393228,-0.0126286,0.0634269,-0.0135572,-0.0812186,0.0782801,0.0328099,0.0289715,0.0250097,0.0173891,0.0626435,0.00984209,0.0879022,-0.0133919,-0.022736,-0.0563346,0.042699,0.0120417,-0.0333513,-0.0109726,0.0761522,-0.0707392,-0.0682044,0.024825,0.0684991,0.0750805,0.0125981,-0.0113988,-0.0202276,-0.0575005,0.0527442,0.0548472,0.0353189,-0.0682714,-0.0698062,-0.044778,0.00675038,-0.0715567,-0.0267005,0.053048,-0.0258036,0.020526,-0.0327024,0.00963006,-0.0371522,-0.0612932,0.0791075,0.0716944,0.0764408,-0.00824827,0.0226546,0.0419001,0.00416409,-0.00148298,-0.00710649,0.067975,-0.0120441,-0.0359159,0.0768129,0.0841381,-0.0506582,-0.0427817,0.0321555,0.022937,-0.0364096,-0.0702431,0.0471133,-0.018092,-0.0444258,0.0834397,-0.0598729,-0.0504778,-0.00490414,0.0757925,-0.0369356,0.0537351,-0.0431203,0.0299985,-0.0503022,0.010021,-0.048042,-0.0225534,0.0425058,-0.0643388,-0.00751261,-0.0374408,0.0344934,-0.0846282,-0.0815997,-0.0703627,-0.050503,0.00843065,-0.00183598,-0.0545038,0.0706671,0.0443756,0.0333731,0.00135646,4.42191e-05,-0.00296025,0.0369085,-0.0774571,-0.0861941,-0.00632662,0.00620549,0.033041,-0.0841751,0.0651793,0.0408485,0.00317292,-0.0305655,-0.018945,0.0187511,-0.0454503,-0.0819288,0.0650801,0.0304832,0.0672407,0.0204388,-0.0595784,0.0675019,0.0318741,0.0675979,0.058544,0.0259246,0.0532443,0.0618432,-0.00384357,0.0382244,0.0542287,-0.0760495,-0.0524261,0.00489062,0.0645891,-0.0632815,0.0893513,0.0662824,0.0544725,0.038229,0.00878263,0.0113857,-0.0278048,0.0516641,-0.0383989,0.0844744,-0.0740286,-0.0407291,0.0240478,-0.00399657,0.0553097,-0.0375844,0.0697441,-0.0296705,0.0153843,0.0154437,0.00785944,0.0456495,-0.0056836,0.0537191,0.0314699,-0.0363943,-0.0139092,0.0457354,0.0326913,0.0810465,0.0687467,-0.013031,0.0796941,-0.075502,0.0464117,-0.060613,-0.0553479,-0.0628642,-0.00466336,-0.0330076,-0.0771025,-0.0676085,-0.0445623,0.0566465,4.44221e-05,0.0366173,-0.00550239,-0.025689,0.0862999,0.0414574,-0.0201682,0.0309382,-0.0736674,-0.050196,-0.0772795,0.0274073,-0.0585935,0.0153459,-0.0370671,0.0882671,0.0779422,-0.0617068,-0.0364311,0.0706827,-0.0299851,-0.0792171,0.0544868,-0.0595853,0.0278872,-0.0294014,0.0620318,-0.0594556,0.00433018,-0.0168851,-0.0369094,-0.0668449,0.0321011,0.00933141,0.0543809,-0.0679284,-0.0426344,0.0120382,-0.059936,0.0525114,-0.0834643,0.018336,-0.00124816,0.0401965,0.0544814,0.0549424,-0.0776474,-0.0390463,0.0260276,0.0613201,0.0586683,0.0587322,0.0243041,0.0460826,0.0367978,-0.0647307,-0.00129732,-0.0486937,0.0544731,0.0124023,-0.0706014,0.0799041,0.0163206,-0.0690027,-0.0318922,0.0511773,0.0194395,0.0105525,0.0788298,0.0716683,0.0215187,0.00599775,0.0492668,-0.0245098,0.0769448,-0.0745405,0.0840831,-0.0769689,0.0387847,-0.0184069,0.0858925,0.0583077,-0.022521,0.0272554,0.0635044,0.0891687,-0.0369517,0.0726934,0.0744716,-0.0893448,0.00416139,-0.022978,-0.0236959,-0.0500259,-0.0190015,-0.0265562,-0.0187248,-0.0694385,-0.0674563,-0.0433979,-0.0473026,0.0858528,0.0697653,-0.0642107,-0.0712923,-0.0743921,0.0225085,-0.0749412,0.0720052,0.0129448,-0.0309548,-0.0496948,-0.0624894,-0.0139772,0.0972293,0.0527519,0.0640906,0.000716731,0.0566952,0.0614918,0.0271867,0.0555122,-0.0316405,0.067385,0.0853776,0.0749919,-0.051937,-0.067224,-0.012173,-0.0838378,-0.0798265,-0.0167882,-0.0783707,-0.0455001,-0.0556616,-0.0610639,-0.0451756,0.015984,-0.0304239,0.0458663,-0.0856795,0.0242964,0.0547658,-0.0477739,-0.0217397,0.0286835,0.0845762,0.0630345,0.0265095,0.0872757,0.0116509,-0.05388,0.057864,-0.0749007,-0.0781727,0.0431334,-0.0502229,0.021379,-0.0787066,0.0146437,0.049485,0.0714315,0.0106597,0.0677997,-0.0410485,0.00362073,0.0465974
-0.0568734,-0.00241441,-0.00766837,0.0578307,0.0430823,-0.07803,-0.0362311,0.0159079,0.0379725,0.0202229,-0.0841336,0.0649208,0.0518204,0.0281819,-0.0208937,-0.0261821,0.017859,-0.0554649,0.0561721,0.0188398,0.0287352,0.0692094,0.0122752,-0.0829252,0.0474299,0.07699,0.0161617,-0.0303884,-0.00582827,-0.0546525,0.035846,0.0739031,0.0849393,-0.0787618,-0.0807873,-0.0300709,0.0528111,0.0442218,-0.0372189,-0.00510794,-0.0256997,0.062382,-0.0497125,0.0835813,-0.0577784,-0.0413337,-0.0252253,0.0654321,-0.0629291,-0.0481982,0.00129352,0.0722346,-0.071441,0.0439578,0.0539271,-0.0198207,0.00324104,0.0316869,-0.0192731,-0.0567874,0.0537368,0.0841138,0.000394842,-0.0380476,-0.0728254,0.0441528,-0.0644582,-0.0454889,0.0376486,-0.0290109,0.0630834,-0.0637642,-0.0019289,0.0472098,-0.0334192,0.0517839,-0.0404184,0.0490466,-0.0873283,0.0646231,-0.0704816,-0.00823247,-0.0494196,-0.00674199,0.065792,0.00625537,-0.0719193,-0.00271127,-0.0485074,-0.0101181,-0.00314409,0.0101878,-0.0863758,0.041515,0.0551388,0.0204279,0.0723261,-0.0761437,0.0200482,-0.0732986,-0.0429726,0.0652305,0.0290178,-0.0821888,-0.0819747,-0.027049,-0.0871898,0.0674641,0.0768287,0.0706645,-0.0400241,-0.0396705,0.0612188,-0.067805,-0.0608771,0.0330188,0.0174946,0.017666,-0.0323,0.0203967,0.0291054,0.0800062,0.0782574,0.0170253,0.0676979,0.055078,0.0540555,0.0211096,0.0189936,-0.00017993,-0.0393803,0.0831723,0.0821958,0.0329562,0.0427218,0.0630038,0.055138,0.0410091,-0.0769162,0.00878313,0.0656804,0.0115908,-0.0290465,0.0658507,0.0835377,-0.0315826,-0.0837004,-0.0871547,0.0497426,0.0129454,-0.0239298,0.0471695,0.0438718,-0.0389623,-0.0538519,0.0316249,-0.000211304,-0.00726717,-0.0153779,-0.00944216,0.0508904,-0.0515042,0.0794961,-0.0183456,0.00268486,-0.0426926,-0.0721194,0.0786956,-0.0824647,0.0622215,0.0541945,-0.0378034,0.065728,-0.0395011,-0.087774,-0.019231,-0.0781651,0.0515007,-0.0275915,-0.0351534,0.0149097,-0.0553993,0.0221934,0.0328209,0.0181357,-0.0319107,-0.0562197,-0.0155873,0.00951281,0.0536478,0.0734862,-0.0439067,0.0568187,-0.00587968,-0.00814975,0.00738058,0.0731288,0.0765589,-0.0333096,-0.0225566,0.038732,0.0753206,0.0277476,0.065753,0.0523481,0.070037,-0.0603191,-0.0114353,0.047407,-0.0807138,-0.0809574,-0.0824849,0.0841475,-0.0670287,0.0206073,-0.00465722,0.0150868,-0.0638445,0.052001,-0.0697669,0.0616865,0.0805855,-0.0301222,-0.0573655,-0.0158588,0.0178955,-0.0132672,-0.00031577,0.0783658,-0.0361438,-0.0739037,0.00846005,0.0489994,-0.0792643,0.0483454,-0.0105749,-0.0291692,0.0191816,-0.0240336,0.0119517,0.0251098,-0.0440509,0.0267067,0.0471072,-0.0769256,-0.0670847,0.014123,-0.0298882,0.0781375,-0.000640672,0.0636932,0.0151271,-0.0770081,-0.0682374,-0.0868646,0.0772786,0.000643803,0.0726965,-0.0795446,0.0717196,0.0142407,-0.0327248,0.0647338,0.00532104,-0.0620596,-0.0624864,0.0405902,0.0577151,-0.0636673,0.0148289,-0.0827797,0.0715065,-0.0371913,-0.0642931,0.0540324,-0.0497081,-0.000341185,0.0464643,0.0173625,0.0781025,0.0767007,0.0631346,-0.0457419,-0.00277252,0.00921668,-0.0182359,0.0750557,-0.0498725,0.0341618,0.0426364,0.0787988,0.0342427,0.0787528,0.0642267,-0.0834818,0.0437242,0.0290694,0.00917405,-0.0348511,0.0546277,-0.0565042,0.026841,0.0636596,-0.00947634,0.0704068,0.0357236,0.0504821,0.067518,-0.0747021,0.0197413,-0.0770283,-0.0786461,-0.0177804,0.0590938,-0.0533746,-0.0641651,0.0627714,-0.0104565,-0.075032,-0.0827379,-0.0269262,-0.0616831,0.0603366,-0.041682,0.035975,0.0532191,-0.0331669,0.0576239,-0.0669332,0.0708682,-0.0159128,0.0539894,0.0120336,0.0329185,0.0806101,0.0199455,0.00416082,-0.0030955,-0.036507,-0.00743363,-0.0602105,-0.0582441,-0.0465636,-0.0665704,-0.000163167,0.0171069,0.0562824,-0.0166549,0.0392712,0.0129899,-0.0601522,0.0631811,-0.000152538,0.000686736,0.0587772,0.0280061,0.0383142,0.0545901,0.0739592,0.0371852,0.0130205,-0.0703402,-0.0488224,-0.0447391,-0.0171462,-0.0138669,0.0414854,-0.0580814,0.0122407,0.00335317,-0.0667333,-0.0602379,-0.0839847,0.0793462,0.0573988,-0.0736942,0.0280624,0.0531838,0.0524486,-0.041163,-0.0539063,0.0206613,0.0366433,-0.002018,0.0696517,-0.075373,-0.0170213,-0.0593575,0.00155606,0.0566796,-0.027495,-0.00995448,-0.0597067,-0.0647739,0.0455807,0.00300512,0.0253982,-0.0143072,0.0362155,0.0519392,0.0709017,-0.0691895,-0.0259241,-0.0690914,-0.074426,0.0153397,0.00342921,0.0663976,0.00334145,-0.0386086,-0.0225458,-0.0640877,-0.0876975,-0.0590577,0.0386245,-0.0803414,0.023705,-0.040397,0.0725259,-0.0397037,0.0431947,-0.0623803,-0.0244292,0.0358192,-0.0238018,0.0540052,0.0709616,-0.0595004,-0.0897429,0.07901,0.0890941,0.0193651,0.0713498,-0.0344366,-0.0484394,0.023187,-0.0766965,-0.0486418,-0.0748636,0.0918839,0.00154935,-0.0129188,0.0635915,-0.087583,-0.0189219,0.0863741,-0.0787533,-0.0333284,-0.00208571,-0.0485294,0.0348508,0.0689163,-0.00856911,0.00895818,-0.0432727,-0.0310957,0.053722,0.0812169,0.050126,0.0105556,-0.0786119,0.0074356,0.0480504,-0.0319736,0.0289773,0.013369,0.0372593,0.0706977,-0.088942,0.0668309,-0.0123369,-0.0267545,0.0386597,0.0712955,-0.0815884,0.0802164,0.0157533,-0.00213886,-0.060743,-0.085562,0.066005,-0.0921629,0.0753388,-0.0226428,-0.0558915,-0.0128124,0.0509843,0.0643264,-0.0443906,-0.00875839,-0.0163031,0.0461563,-0.0506174,-0.0705234,0.0155677,0.0856068,-0.0239138,0.048135,-0.070666,0.0111513,0.025181,0.0212714,0.0444117,0.0522532,-0.0183526,-0.0418244,-0.0343519,-0.0974246,0.0186886,0.0534158,0.0569617,0.019934,0.0497298,0.0554529,-0.0761091,0.0786217,-0.0279814,-0.0341287,0.0601374,0.0189886,-0.0811163,0.0777672,0.0594712,-0.0085881,0.0516848,-0.0406498,-0.0152218,0.063758,-0.0754015,0.0499798,-0.0348353,-0.0322443,-0.0466288,-0.017092,0.0460556,-0.0292388,0.00340099,0.0308167,-0.0882231,0.0243445,0.0026413,-0.0702656,0.0753376,0.0723021,0.0304158,0.00315801,-0.0747026,0.0321815,-0.00172731,0.0657848,-0.0669831,-0.0703775,0.0228119,-0.0232195,0.0604763,-0.0831556,0.00699957,-0.0866757,-0.0828438,-0.0770834,0.0719356,0.0901483,0.0489076,0.0110232,0.0600561,-0.0246554,0.0806431,-0.0439081,-0.0503438,-0.0674862,-0.0396548,-0.0612806,-0.0838673,-0.0663768,-0.0828729,0.0230216,0.0768271,0.00341931,0.0733518,-0.0736796,0.0168284,-0.0675632,-0.0171901,0.0722192,-0.0664339,0.00647865,-0.0460076,0.0502839,-0.0233431,-0.00559773,0.0566149,0.0369268,0.0449656,0.0801635,0.0716777,0.021998,-0.0723992,-0.0429024,0.0498378,-0.00158055,-0.0764282,0.0805577,0.0786245,-0.0704974,0.0312441,-0.035997,-0.0112985,-0.0702916,0.0739706,-0.0425322,0.0285641,0.0276962,-0.0427796,0.0179442,-0.0492785,0.0619377,-0.025923,-0.0379809,-0.0533171,-0.0860679,0.0577846,0.0226127,-0.0529863,-0.0436108,0.0692084,-0.0260366,-0.0252861,0.031114,-0.0273292,-0.00380472,0.0690442,0.0514446,-0.0311294,0.033776,0.0567552,-0.0672596,0.0309227,-0.000566645,0.0108057,-0.00989946,0.083397,0.0324268,-0.0687004,-0.0382636,0.0689163,-0.0749984,0.0522364,-0.0448249,0.0110655,-0.0723603,0.0525447,-0.0780564,-0.0237414,0.013096,-0.0169946,0.0267377,0.00235618,0.00420953,0.0789967,-0.0151013,-0.0403055,0.0515861,-0.088458,0.0746523,0.0497646,-0.0365905,0.00796744,0.0293723,-0.0666744,0.0339082,0.0275031,-0.0744266,-0.0614673,-0.00294986,0.032122,0.0376966,-0.0220562,0.0343174,-0.0359887,0.053805,-0.0297205,0.0409135,0.0495217,-0.0819109,-0.0393938,0.0484021,0.0702799,0.0462125,0.0766793,0.0357348,0.0737976,-0.0412926,0.0797058,-0.0157958,0.0762879,0.000617346,0.0474449,-0.0400726,0.0297199,0.0385674,0.0398527,0.0218171,0.0641294,0.00343793,-0.0845343,-0.0497454,0.0651479,-0.0394592,-0.067074,0.0310028,-0.00264092,-0.0261641,-0.0128544,0.0703118,-0.0626998,-0.0258579,0.0464052,-0.0808652,0.0655916,0.0559325,-0.0426709,0.0722921,0.0701616,0.0221598,0.00221274,-0.0316226,0.0613621,-0.00358567,0.0265602,-0.0095377,-0.041154,0.0190686,0.0651654,0.0270021,-0.00727376,-0.0719577,-0.0705518,-0.0859372,0.00435846,0.0397482,0.00255511,0.0141925,0.0137059,-0.00830274,0.0600771,-0.0862542,-0.0455988,0.0338268,-0.0422683,-0.0619773,0.0816056,0.0073497,0.0787138,-0.0797881,-0.0747755,-0.0307093,-0.0063499,0.0259459,0.0705444,0.0459943,0.044316,0.0153965,0.0120747,0.0354542,0.0776627,-0.0636928,-0.0327445,0.00672734,-0.0840928,-0.0520208,-0.0875489,0.00011585,0.081495,-0.0230848,-0.00818449,-0.0490372,-0.00824888,0.0598525,-0.0409945,0.030615,-0.0342889,0.0144051,-0.00580608,-0.0784578,0.0414813,-0.0156205,-0.0639239,0.0760662,-0.013148,0.0258612,0.0821545,-0.0249682,0.0304535,-0.0848775,0.0106828,-0.0151605,0.0853241,0.00167175,-0.0236138,-0.0354628
-0.0377074,0.00928053,-0.0421028,0.0404278,-0.0329501,0.0589675,0.0835041,-0.0510873,-0.0395733,0.0698479,-0.0153863,-0.0507024,-0.0300368,-0.0143166,0.0752622,-0.0147758,0.0437821,0.0467671,0.0695932,0.0474292,0.0423328,-0.0612522,0.0010317,-0.0325162,0.0338881,0.0447519,0.0111677,0.0635115,-0.0151146,-0.0374304,0.0380577,0.0294127,0.0362275,-0.081152,-0.0364906,-0.0569053,-0.0551993,0.0180607,-0.0583276,0.0632289,-0.0667313,0.0853181,0.0698864,-0.0669399,0.00310482,-0.036882,-0.0600006,0.0412795,-0.000420898,-0.0447136,-0.00946868,-0.0730249,0.0259579,-0.00372334,0.0704124,-0.0714068,0.012142,-0.0132708,0.0756923,-0.0299769,-0.0339742,-0.0228509,-0.0108134,-0.0727816,0.0697235,0.0589738,-0.0069262,0.00708075,0.0255126,-0.0597766,0.0454969,0.0375679,0.0797716,0.0432245,0.0494936,0.00519178,0.0477389,-0.0274435,0.0633068,0.0867321,-0.0734357,0.0120976,0.0701911,0.0483343,-0.0451628,-0.0850288,-0.045695,-0.00303902,0.0780762,-0.0320701,-0.0660197,-0.0774279,0.0799534,-0.0576292,-0.0796239,-0.0845618,0.0630276,0.0524656,0.0629779,-0.0769046,0.0249332,-0.0835111,-0.04305,-0.0522495,0.00692596,-0.0780851,-0.0099045,0.0809583,0.0632658,-0.0808967,0.0812327,-0.0552394,0.0138825,-0.082752,-0.0440997,0.0368101,-0.0797001,-0.060055,-0.0268116,0.0716857,-0.0765123,-0.0320251,0.00858642,0.0589723,-0.0184802,0.0337785,-0.0143819,0.0189559,-0.00986938,-0.0830087,0.0661594,0.0415096,-0.00746678,-0.0183417,-0.0288223,-0.0858718,-0.0723672,-0.00484145,-0.0575208,-0.0589379,-0.0507385,0.0321585,-0.0116798,-0.0136936,0.0339493,-0.0559726,-0.0376983,0.0281777,-0.0208974,-0.0558824,-0.0280066,-0.0015903,0.0367921,-0.0460567,0.051526,-0.0700536,0.0116667,0.0643732,-0.0373456,-0.0301403,-0.0391885,-0.0436862,-0.0459601,0.0721952,0.0856905,-0.046217,-0.0317886,0.0298435,0.00399701,-0.0157066,0.032803,-0.00209749,0.0542853,0.074805,-0.0166257,-0.00207376,0.0507278,-0.0509825,0.0755955,-0.0763837,0.021036,-0.0415072,0.0469537,-0.0462013,0.00367232,-0.0782451,-0.0790254,-0.0039197,-0.0564887,-0.0214243,-0.0634311,0.0285517,-0.00905014,-0.020327,-0.0836497,0.0644822,0.014285,0.0579452,0.0675027,0.0743704,-0.0387156,0.0469242,-0.035402,-0.0708633,-0.0634887,-0.0355171,-0.0480459,0.0301251,0.0414313,-0.0180919,0.0426267,-0.017263,0.0209164,0.0608812,0.0812797,0.00145448,-0.0370599,0.0350718,-0.0370975,-0.0649384,-0.0130832,0.00237334,-0.0633675,-0.063988,-0.0265296,-0.0495385,-0.0509533,0.00140962,0.0519434,0.058511,-0.0720482,-0.0696037,0.0501431,-0.0801802,0.0854533,-0.0665978,-0.0139023,0.0370646,-0.0604198,-0.024689,-0.037663,-0.0210756,0.00194446,-0.0157156,0.0229161,0.0646841,0.0853452,0.0160924,-0.0187396,-0.00942689,-0.048255,-0.0713488,-0.0594557,-0.0185339,-0.0426661,0.0169034,-0.0559579,-0.0571832,-0.0284309,-0.0802396,-0.0729506,-0.00114757,0.0140206,0.0819008,0.0377455,-0.00550598,0.0548259,0.0384978,0.00148753,0.0504277,0.0798625,-0.0308922,-0.0253955,-0.0501492,0.0643094,-0.0311129,0.0565571,-0.0461743,-0.0160211,0.0560996,-0.00928673,0.0770528,0.0175114,0.060871,0.00930857,0.0180925,0.00477223,0.0367989,0.039062,-0.0409087,0.080145,-0.00784808,0.029989,-0.0331163,0.0592776,-0.01024,-0.058802,-0.0222377,-0.0202171,-0.0523516,-0.0748653,-0.0634498,0.0300316,-0.0640585,0.0229102,-0.0418709,-0.0387414,-0.0832345,0.0244736,-0.0108505,0.0205597,0.0160018,0.0139845,0.0776856,-0.0135005,0.00528495,0.00831347,0.0317165,0.0695058,-0.0455071,0.0445736,-0.0744644,-0.0666235,-0.0710663,-0.0537553,0.0593784,-0.0276983,-0.0463143,-0.0717084,0.034155,-0.0569711,0.00283424,-0.0644449,-0.0606158,-0.0113594,-0.0554163,0.0237131,0.00994696,0.0315559,-0.0699002,0.064813,-0.0257219,0.0105873,-0.0057385,0.0765427,0.0626097,-0.0815497,0.0575935,-0.0828961,0.0838155,-0.013215,0.013984,0.00696715,0.0553293,-0.0838885,-0.05496,0.00116873,0.0611201,0.0608658,0.0395227,-0.0614031,0.0386011,0.0309467,-0.0769313,0.0705202,-0.00476154,-0.0394554,0.0012955,0.0828829,-0.0360668,-0.0184741,-0.0389575,0.00876093,0.0171239,0.0285828,-0.0220645,0.069323,-0.0164213,-0.055581,0.0209939,0.0661488,0.0246435,-0.0770463,-0.0189043,0.0111194,-0.0763004,-0.0215585,-0.0383386,0.0530882,0.0686664,0.0592287,0.0720345,-0.0277785,-0.0616696,-0.0481595,0.00370555,-0.0316638,-0.0786763,-0.0334014,-0.0232477,0.0533793,0.0433127,-0.0456029,-0.0629672,-0.0580203,-0.0163914,-0.0499025,0.0130117,-0.0010987,-0.0114462,-0.00091374,-0.0660654,0.00858299,-0.00176348,0.0847782,-0.0638399,-0.07247,0.0533586,-0.0459034,-0.0769772,0.00175913,-0.00784983,-0.0276737,-0.0460542,-0.0495912,-0.0452384,-0.0226757,0.0813887,-0.0453974,-0.0236897,0.0413055,0.060897,-0.0218597,0.033111,-0.00238562,-0.0185415,-0.0323295,-0.0702,-0.0538393,0.0127688,0.0849826,0.0159527,0.0437511,0.0788384,0.0548367,-0.0530146,0.0692445,-0.0403607,-0.0439157,0.0709115,0.0513227,-0.0379966,0.0276665,0.0292841,0.069127,0.0557684,0.0195589,-0.0286776,0.0773765,-0.0701723,0.0741978,-0.0812877,0.00813661,-0.0611506,-0.0762264,0.0321612,0.044417,0.0503418,0.0596157,-0.0639854,-0.08084,-0.0538373,-0.0245734,-0.0250173,-0.0168849,0.0237528,-0.0570743,-0.0342138,-0.0678286,-0.0749635,0.0496749,-0.0126273,0.0778352,0.0681791,-0.0694822,-0.0673313,-0.0432931,-0.0345151,-0.00951793,-0.0294455,-0.0190854,0.0407076,-0.0285918,-0.0603284,0.0499146,-0.0763201,-0.0739051,-0.0446607,-0.0357054,0.0232273,0.0341935,0.0449658,-0.0532255,-0.0352706,0.0241446,0.0235143,-0.0442174,0.00405006,0.0654101,-0.0738841,-0.0731163,-0.0673684,0.0245967,-0.00539849,0.0749155,0.0369445,0.0580236,-0.000907804,0.014358,-0.000500114,0.00375374,0.0516161,-0.0642191,-0.0733454,0.0848794,0.0582506,-0.0544035,0.0285164,0.0579248,0.0260185,-0.0116072,-0.0358325,-0.0412886,0.0320016,0.0549575,0.075922,-0.0509271,0.0039895,0.0563905,-0.0639771,-0.0561386,0.0655276,0.0850008,0.0834393,-0.00372882,-0.00967846,0.0717094,0.0131443,-0.0758599,0.00856795,0.00153911,0.0657173,-0.0227715,-0.0627821,0.0403448,-0.0731118,0.0422179,-0.0538255,-0.0296915,-0.0471729,-0.0597307,-0.0803343,0.0411473,0.0480082,-0.0104321,-0.00403706,0.0788745,-0.00350328,0.0241389,-0.0489119,-0.000604451,0.0167609,-0.0101371,0.0332244,0.0630609,0.00928295,-0.0204858,-0.076217,0.0405698,-0.0752199,0.00752826,0.0688962,0.075252,-0.031995,0.00419924,-0.0123131,0.0820265,0.0864476,0.0212279,0.0590033,-0.0360349,0.0533864,0.041829,0.0744713,0.0068906,0.0568507,-0.0390288,-0.0232227,-0.00212147,-0.0505882,0.0767795,0.00391338,0.0390766,-0.0241933,-0.0709891,0.0669667,-0.0224274,-0.0332159,-0.0241661,-0.0250244,0.0283309,0.0211168,-0.0103196,-0.0138569,0.0235907,-0.0119992,0.0412777,-0.0214807,-0.0014662,-9.09006e-05,0.0138739,-0.0748746,-0.0397591,-0.0615025,0.0561991,-0.0429453,0.0251218,-0.0568211,-0.0153925,0.0577755,0.0544925,-0.0812158,0.0635729,-0.00901572,-0.0857513,-0.0140776,-0.0805279,-0.0383358,-0.0196785,0.00735366,-0.0715669,0.0312957,-0.0108638,0.0856244,0.0565309,-0.0530673,0.0478273,-0.0148956,0.0145139,0.0533725,0.0701348,0.0739969,0.0613986,0.00298183,-0.0107895,0.0448714,-0.0392092,0.0611598,-0.064818,0.0406179,0.0863472,0.00938262,-0.00285352,0.0317533,-0.0165534,0.0451599,0.0409851,-0.0496058,-0.00924717,0.06775,0.0849085,0.0854875,-0.0212989,-0.0416853,0.0750045,-0.0206387,-0.0805383,0.0288583,0.0316326,0.0387092,0.0117732,0.0359836,-0.0517532,-0.0137474,-0.0837334,0.0644499,0.0676538,-0.06862,-0.0119055,-0.05872,0.0339436,0.0763794,0.0226994,0.0337976,0.0450843,0.0724562,0.0044704,0.0724631,0.000816149,0.0426383,-0.0544966,0.0252141,0.0160452,0.0809916,0.048909,0.0297066,0.027651,-0.0591084,0.0744283,-0.0564194,-0.0628415,0.0190249,0.0421636,0.0638303,-0.0307449,-0.0169347,-0.0390979,-0.0652266,0.0330946,-0.0394182,0.00976342,0.0128806,-0.0395188,-0.000246364,0.019431,0.0236248,-0.0175611,0.012458,-0.0734436,0.0651629,0.0741953,0.0520555,0.0246819,0.0541128,0.0234142,0.0190273,0.0695407,-0.0551947,-0.0497026,-0.00297508,-0.0811732,0.076652,-0.0774773,0.0307405,-0.0300758,-0.0575527,-0.0726436,-0.0556913,0.0192069,0.0593554,0.0180619,-0.0805867,0.0418288,-0.0706801,-0.0643954,0.0323693,0.0626108,0.0571712,-0.0220847,0.0740105,-0.041088,-0.0662518,0.0854719,0.0528807,0.0613595,-0.0824596,-0.0561225,-0.0336726,-0.0760032,-0.0188859,0.0101873,0.0354125,-0.018371,0.05613,0.0375396,-0.0359972,-0.0617481,-0.0486595,0.0616734,0.0422629,0.0840413,0.035975,-0.0705575,-0.0551046,-0.0104014,-0.00835302,-0.0742907,0.0486722,-0.0253016,0.0666904,0.0494458,0.0193121,-0.0672383,0.0854463,0.0613619,0.011281,-0.0649522,0.0707729,-0.0279701,-0.0714777
0.0460134,0.0791298,-0.0227767,-0.0332339,-0.00852351,5.40862e-05,-0.0233091,0.0331509,0.0312362,0.0372643,0.0998095,-0.0469287,0.0578714,-0.0780125,0.0671883,0.0484328,-0.0355725,0.0217246,0.0155566,0.0490266,-0.0653965,-0.0706006,0.0162577,-0.0150291,-0.00897098,0.0507715,0.058546,-0.0075277,-0.00319086,-0.0207514,-0.000844596,-0.0363743,0.073773,0.0739131,0.0212824,-0.067074,0.0848109,-0.0135896,-0.0329731,-0.0511355,-0.051747,-0.0444504,0.0595728,0.0571769,0.0615346,0.020156,-0.037831,-0.0474924,0.059346,0.013382,0.0588022,0.0221984,-0.043697,-0.0717088,0.0331796,-0.0421793,0.0732917,0.0697512,0.0759577,-0.0429939,-0.0492319,0.0374428,0.0880149,-0.0607442,-0.0751072,0.0499551,0.00242644,0.0278135,0.07676,0.0923738,-0.098605,-0.0562692,-0.0691696,-0.00474302,0.0449271,-0.0308715,-0.0550593,-0.0618095,0.0287638,0.0521766,0.000875977,-0.0462528,0.00975241,-0.0167761,0.0503669,0.0622437,0.0623041,0.00453478,0.0666113,0.0123565,0.0654079,0.0774122,-0.0210779,-0.0226779,0.00400153,-0.0185346,-0.0124857,-0.0172972,0.0419195,0.0349587,0.0477354,0.00935727,0.00356891,-0.0482275,0.0372016,0.084588,0.00844393,-0.0400211,-0.0564766,-0.0249597,-0.0498985,-0.0664505,0.0145526,-0.0176465,-0.0220013,-0.0418577,0.0467308,0.012935,-0.030716,0.061193,-0.0043442,0.020854,0.00648788,0.0143584,0.0598079,-0.046335,-0.0317124,-0.0258105,-0.0503192,-0.0229269,0.0235352,-0.0381305,0.00730485,-0.03221,-0.0724044,-0.00398964,-0.0277287,0.0179722,0.00478302,0.0822016,-0.00415108,-0.0736881,0.0357838,-0.0941262,-0.0689974,-0.0138828,0.01157,-0.0190822,-0.0280966,0.065993,0.0107212,-0.0287926,-0.0801649,0.0568994,-0.0441332,0.0613423,0.0531696,-0.0565548,0.0625152,-0.0612244,-0.0587631,-0.0794606,0.0649307,-0.0655121,-0.037699,-0.0746884,0.00187292,-0.0696891,0.0185847,0.0344556,-0.0474286,0.0623308,-0.0200644,-0.0731878,-0.0502312,-0.035923,0.010312,-0.0306695,0.0164713,0.0165861,0.0402608,-0.0757246,0.0902325,-1.57486e-05,-0.01745,-0.0101962,0.0738818,0.0555189,-0.0203799,-0.0607776,0.0262316,0.0902864,-0.0444506,-0.0862238,0.0626136,0.0628443,-0.0410882,0.0357491,-0.0637037,0.0785406,0.0294767,-0.0169306,-0.00795309,-0.073694,0.0478922,0.0645288,0.0607786,-0.0341853,0.0780054,-0.0135964,-0.0574306,-0.0667637,-0.0337193,-0.0289187,0.0385831,0.0361198,-0.0209772,-0.0896844,-0.0489473,-0.0771417,-0.029006,0.0415674,0.0633345,0.0276508,-0.0695958,-0.00625433,0.0312701,-0.0734758,0.0866385,0.0297913,-3.07211e-05,0.0489559,-0.078368,-0.0175294,-0.00313208,-0.0531787,-0.076061,0.0440944,0.0342988,0.00562879,-0.0759698,0.0404466,-0.0272813,-0.0461459,0.03676,0.00507712,0.0426654,0.0100564,0.0215416,0.0575178,-0.032299,-0.0469855,-0.0511739,0.0769467,0.075437,0.0627946,0.00574356,0.0370025,0.0701244,0.0330476,-0.0244106,-0.0696221,-0.032699,-0.0780074,0.0782449,0.0229229,0.0298677,0.00543516,-0.045058,-0.0567776,0.0500258,-0.0206875,0.0682666,0.0124464,-0.0338912,-0.0280965,0.0307876,-0.0291107,0.0866804,0.0529887,-0.0498394,-0.00680578,-0.0242529,-0.0521643,-0.0821986,0.07871,0.0227151,-0.0424227,-0.0475451,0.101254,-0.0512656,0.0211131,0.0652317,-0.0327942,0.0847363,-0.0238897,0.0347074,0.0636524,0.0157383,0.0360366,0.0570829,0.0592893,-0.0679494,-0.083319,-0.0267825,-0.0735092,0.0751065,0.0494581,0.0648071,-0.00367444,0.0279374,0.00205331,0.0158425,-0.0155819,0.0219441,0.0307778,-0.0319897,-0.0400756,0.073184,0.023617,-0.0248612,-0.0670746,0.0546788,0.0131905,0.0210024,-0.0354403,0.0459674,0.0261322,-0.0484151,0.0644437,0.0585837,-0.0148741,0.0774374,0.0678704,0.0433844,-0.067818,-0.00985075,-0.069331,0.00428627,-0.0708521,0.0196885,-0.0787903,-0.0910479,0.0763939,-0.0178217,0.0837418,0.0857385,-0.0618735,-0.0658669,0.061528,-0.0354824,-0.0723821,0.0943532,0.0172697,-0.0195269,0.0274525,0.0709501,0.0219834,-0.0931663,0.0448444,-0.0157541,-0.0566471,-0.0184974,-0.0496862,0.0896905,0.0463992,0.0025489,-0.040336,0.0826271,-0.0493638,0.0519927,-0.0596622,0.0884736,0.0721838,-0.00784958,0.0235327,-0.0724579,0.0702032,0.0613971,-0.00749067,-0.0228025,0.0175439,0.0965809,-0.040768,-0.0647778,0.0301597,0.0866869,0.0354074,0.0116802,-0.0423625,0.031873,-0.0674316,-0.0169151,0.0443819,-0.0215293,-0.0149599,0.0830812,0.0212876,-0.0183028,-0.0491168,0.0210032,-0.0307903,0.0561262,-0.0140796,0.0576899,0.0272456,0.0835994,0.0262163,-0.0196759,-0.0746798,0.0451882,0.0267749,0.0876216,-0.0449766,0.0145921,-0.0929823,-0.0603611,0.00646082,0.0660291,0.00189108,0.101051,-0.049861,0.0110099,-0.0582683,-0.0222839,-0.0157003,0.0132872,0.0517229,-0.0188548,-0.00336932,0.00349298,-0.0438826,0.0353395,-0.05097,-0.044745,-0.0205354,-0.0497019,0.0258509,-0.0461872,-0.0448107,-0.0384425,0.0458517,0.0566201,0.0194966,0.073455,0.0252644,-0.0683236,-0.00433161,0.0210686,0.0403242,-0.034297,0.0698724,-0.0677845,0.0382996,-0.013114,-0.0531407,0.0701475,-0.00646498,-0.053318,0.0349067,-0.0789995,0.049752,0.024724,0.0861609,0.0402924,-0.0912011,-0.0753877,-0.0617405,0.0555793,-0.045258,-0.0477631,0.0129599,0.00782038,-0.029402,-0.0174359,-0.00789382,-0.0345613,-0.0752325,0.0307927,-0.07298,-0.00381457,0.034483,0.0937033,0.0617929,-0.0689576,0.0876039,-0.0480773,0.0352474,-0.05948,0.0376244,-0.0459865,-0.0839584,0.0335953,-0.0425662,-0.0108366,-0.0340403,0.0235722,-0.0279399,0.0260571,0.0350052,0.00323496,0.0934887,0.0806232,0.0800939,-0.040251,-0.0406137,0.0369269,0.053401,0.0403046,-0.0766175,-0.00730852,0.0257386,-0.0134899,-0.0557683,0.0303897,0.0130067,0.0805018,-0.0166169,-0.0463069,0.0205443,-0.0904694,-0.0640545,-0.0406618,0.0233996,0.0636248,0.00609415,0.00193752,0.0397878,0.0811732,-0.0231646,0.0227729,-0.060173,0.0325977,0.0574084,0.0145439,-0.0200612,0.00641326,0.0797737,-0.057114,-0.021794,-0.00621591,0.0241885,-0.00509794,-0.0852673,0.0601024,0.0648152,0.0563324,0.0560601,-0.0698012,-0.0300706,-0.0278831,-0.0777556,0.0246758,0.0153126,-0.0127329,0.0016509,0.0252657,0.0878064,0.0540939,-0.0352751,-0.0510003,-0.0133099,-0.0695756,0.0318673,-0.0119605,-0.0832958,-0.0348506,-0.0291339,0.0851071,-0.0841194,0.0815099,0.0469139,-0.0545171,0.0299674,-0.0198717,-0.0510356,-0.0675105,-0.072649,0.0354912,-0.0430315,0.0304717,-0.020325,0.035394,-0.0607506,-0.0236593,-0.0732806,-0.0874068,0.00236314,0.0103474,-0.0578033,0.00902232,0.01795,-0.027533,0.0423305,0.0326953,0.0773503,-0.0502777,0.0282782,0.0666985,0.0149555,0.0449153,0.0649069,0.042143,-0.0719612,0.0341937,0.00288005,0.0502256,0.0249022,0.0770372,-0.00564562,-0.00775711,0.0303877,-0.0708038,0.0526365,-0.00206374,0.0514181,0.0118558,-0.0121333,-0.00119439,-0.0602308,0.0645158,0.0607534,0.0748643,-0.0474344,-0.0336195,0.0703119,-0.0780424,-0.0261994,0.0621386,0.0865847,-0.0763465,0.0532059,-0.0193898,-0.0231689,-0.0440321,0.0778939,-0.0300714,-0.0591498,-0.082379,0.0708573,-0.0229311,0.0155509,0.0502369,0.00497999,-0.0194057,0.017243,-0.0341221,-0.0458151,-0.0349307,-0.0164789,0.0312306,0.0405847,0.0683365,0.0357482,-0.0717304,-0.0824257,-0.003759,0.0330749,-0.0200865,0.0492584,-0.0352878,0.0277688,0.0669503,0.0968433,-0.0441238,0.0261547,0.0731874,-0.00276444,-0.0973798,0.0562478,0.0151459,0.0374816,-0.0790408,-0.0734523,0.0946446,-0.0759078,-0.0797849,-0.0665082,0.0688888,0.036967,0.0343226,-0.0161263,-0.0577053,0.0495055,-0.0303644,-0.00112212,-0.0597711,0.0798241,0.0245191,0.0230582,0.0350627,0.0120884,0.0496243,0.0858665,0.0244257,-0.00278465,-0.00685022,-0.0266203,0.0689805,0.0150499,-0.0581441,-0.0255172,-0.0763866,-0.0236448,-0.00521273,-0.0767357,0.0260024,0.0674221,-0.0725663,0.000712029,-0.0303708,0.0573591,-0.0492918,0.0257335,-0.0866884,-0.0315198,-0.0283154,-0.00688341,0.0423061,-0.0335992,0.00801418,-0.0633916,-0.0199138,-0.0626407,0.0131687,0.0614874,-0.0237891,0.0729802,-0.0874678,0.060733,0.0746143,-0.0838368,0.00462579,-0.0803086,0.0629694,-0.0393216,0.00651822,-0.00277533,-0.0743157,-0.0441451,-0.0791843,0.00487517,0.0134173,0.0187791,0.0827505,-0.0910414,-0.0837392,0.0812631,-0.00543198,-0.0280469,0.00175232,0.0373816,0.0293452,-0.0176232,0.000324431,-0.0254271,0.070579,-0.0310782,-0.0177496,0.0372464,0.0654467,0.0664731,-0.062233,-0.00263778,0.022827,-0.0246849,0.0338927,-0.0545513,-0.0239959,-0.0236941,0.0561812,0.0507868,0.0721913,0.0852403,0.0759576,0.0853814,0.0845504,0.0396934,0.0589554,-0.0135113,-0.0605464,-0.0148408,-0.000742638,-0.0232471,-0.0292501,-0.0765963,0.0099263,-0.0556758,-0.0566213,-0.0794066,0.0802222,0.0738968,0.05786,-0.0872889,0.083403,-0.0103602,-0.0371441,-0.0221337,0.0201579,0.0238154
-0.00926516,0.0161842,0.0215131,-0.0774316,-0.0537367,-0.0666381,-0.0632297,-0.0610785,-0.0848044,0.0115293,0.0160849,0.0594924,0.0579054,-0.0748326,-0.0324482,0.063572,-0.0814357,-0.0170576,0.0641616,-0.037988,-0.0113706,0.0540426,-0.0489597,-0.0739299,0.0175867,0.0547932,-0.0499686,-0.00616065,-0.0470938,0.0815227,-0.0763729,0.0820564,0.00529403,0.0219053,0.0348492,-0.0747799,-0.0506297,-0.0611918,-0.0458251,-0.0564933,0.0278645,0.00339641,0.0551637,-0.0762289,-0.0476573,0.0273201,0.021151,0.0578031,-0.0719349,-0.0296592,-0.0555253,0.00772832,-0.079952,-0.0755268,0.0656381,0.0176353,-0.04156,-0.0339066,-0.062913,-0.0542369,0.0458497,0.0843961,0.0759958,0.0602717,0.0816411,-0.0151545,0.0623071,0.0283871,-0.0555709,-0.0480715,-0.0424288,0.048999,-0.0778415,0.0394272,-0.0733913,0.0129041,0.0486463,-0.0582477,0.0317435,0.00819015,0.0737059,-0.0285394,-0.0816759,0.0389849,-0.0836006,0.0270012,-0.064429,0.000560976,0.074213,-0.0546069,-0.00311022,0.0507158,-0.0817919,0.0439811,0.025424,-0.0352241,0.0466929,-0.0143828,0.0113672,-0.0700226,0.0857499,0.0241609,-0.0695263,-0.0591117,-0.0823111,0.0701154,0.00462413,-0.0677473,-0.0486309,0.0598875,-0.0527231,-0.0118404,-0.022883,0.0454976,0.0545929,0.0210362,-0.0255461,0.0571077,-0.0646981,-0.0136453,-0.0544472,0.0237149,-0.0043853,0.0270057,-0.0649497,0.0297533,-0.00822353,0.0723931,-0.0362582,-0.000158499,-0.0518796,-0.0786856,-0.0528319,-0.0606573,0.0316867,0.000763539,-0.0835483,-0.0620127,0.0721116,-0.0712351,0.0477839,0.0328204,0.0258242,0.0764287,-0.0101651,-0.0691271,0.0555749,-0.0529453,-0.0123353,0.0100849,-0.0727082,0.0178395,-0.0258003,-0.0544109,0.0311647,0.0208089,-0.0116509,-0.0143294,-0.0716203,-0.0433084,-0.0650983,-0.0128514,0.0260061,-0.0141026,0.0189976,-0.0839383,0.00712899,0.0252561,-0.0225893,-0.0061808,-0.0111181,0.0747537,-0.014071,-0.0470508,0.0513252,0.0548016,-0.00975382,0.0640746,0.0154976,0.0325964,-0.0209316,0.0542466,-0.0706676,-0.0130348,-0.0360491,-0.0238535,-0.0727093,-0.0699319,-0.0792844,-0.0648985,-0.032848,-0.0816298,-0.0540397,-0.0898007,0.0416574,-0.0370557,0.0763944,0.01818,0.0813052,0.00799777,0.00101111,-0.0798758,0.0725682,0.0119338,-0.042498,0.0172949,0.0298719,-0.0569287,-0.022253,0.0295074,-0.0355109,0.0544408,0.0130505,-0.0108522,-0.0429647,-0.0386353,-0.0745666,0.0285089,0.0479114,0.0230422,-0.0133348,0.00482487,-0.0579727,-0.0236862,0.0687531,-0.0551341,-0.0344562,-0.021829,0.0483651,0.0423236,0.0836462,-0.0409938,-0.0445894,0.0478055,-0.0806323,0.0715467,0.0304041,-0.0856868,-0.066548,0.0325159,-0.074378,0.0356005,0.0631324,0.00400152,0.0577295,-0.0270062,-0.0599421,-0.013488,0.00645959,-0.0420277,-0.0561506,-0.0460308,0.0162608,0.0158524,-0.0363661,-0.0195707,0.0309596,-0.0113421,-0.0282969,0.0137505,-0.0132992,-0.0382051,0.0712028,0.0740333,0.0346878,0.0126986,-0.000741855,-0.0852102,-0.0614365,0.0469097,0.0477891,-0.057199,-0.0784064,-0.0816769,-0.0466025,-0.0414418,-0.0530986,0.055496,0.0397523,0.0473271,0.035043,0.00186064,0.00774976,-0.0723899,0.0761546,-0.0627884,-0.0507635,-0.0337185,0.02315,-0.00548214,-0.00763974,0.0737726,0.000207287,0.00272878,-0.0202896,-0.0221055,0.0241172,0.0181957,0.0368637,-0.0203103,-0.0715737,-0.047444,0.00307129,-0.0174855,-0.0734722,0.0731188,0.0296425,0.0223964,0.0817216,-0.00585122,0.0135692,-0.0784833,-0.084616,0.0103995,0.0343474,0.0605747,0.00379773,-0.0176819,-0.0278624,-0.0483857,-0.0701116,0.0418272,-0.00832274,-0.0432471,-0.0770605,0.0291918,0.0844642,0.071662,0.0726853,0.011381,0.0141189,-0.0296681,-0.0566557,0.00519135,0.0565957,0.0164408,-0.0427802,-0.0827206,-0.075836,0.0467352,0.0714876,-0.0448821,0.0390892,0.0111358,0.0638547,-0.0535053,-0.0631563,0.0690351,0.0250785,-0.0401659,-0.0793988,-0.0719811,-0.0614472,-0.0624007,-0.00461697,0.0837353,-0.0427441,-0.0149887,0.0518359,-0.0397739,0.0129609,-0.0220867,0.0657598,-0.0490152,-0.0014988,0.0401046,-0.0575435,0.0434722,-0.00310563,0.00238946,0.00516661,0.0105498,-0.0552964,-0.0175625,0.0239737,0.00521786,-0.00073803,-0.0073792,0.0251329,-0.0119237,0.0430922,-0.0355012,-0.0527862,-0.0259652,0.0353514,-0.0148006,0.0507516,-0.036675,0.00828772,-0.0542751,-0.0176832,0.0152324,0.0485322,-0.00651794,-0.0300337,0.0262885,0.0651427,-0.0394829,-0.0540923,-0.0318455,0.0818787,-0.050412,0.0819016,-0.0603184,0.0314137,-0.021262,0.0262243,0.0558025,0.0503292,-0.0850853,0.0034881,0.0462658,-0.0619822,-0.00180029,-0.00161026,-0.0462335,-0.0129784,-0.0402243,0.0592573,-0.00332462,-0.0231547,0.0212717,-0.00679784,0.0287143,-0.0615112,-0.0322021,-0.0569848,0.000960503,0.0289824,-0.0848945,0.0689729,-0.00167801,0.05677,0.0726302,0.0265846,-0.0276048,-0.026094,-0.0164213,-0.0204273,0.0525615,-0.0767479,0.0668171,-0.0424661,-0.00493689,-0.0610558,-0.00159868,-0.0123887,0.0198861,-0.0490539,0.00258251,-0.0164299,-0.0150365,-0.0254693,-0.0423561,0.0137647,-0.0533934,0.0194238,0.0669342,0.0731975,0.0556901,0.0371309,0.00521394,0.0566816,0.0423828,-0.0798049,-0.0717582,0.0499,-0.0652896,-0.0806645,-0.0606329,-0.00105492,0.000137579,0.0255876,-0.0663968,-0.0844624,-0.0640502,0.0352864,-0.0543521,-0.0117972,-0.0704618,0.0476869,-0.0586017,-0.0738359,0.0370103,0.0455204,-0.0457714,-0.0418743,0.00494939,-0.0179532,-0.0778271,-0.0188144,-0.0178383,-0.0601993,-0.0506872,0.0195669,0.0525043,0.00622233,0.0641155,0.0231369,0.0774324,-0.0179776,-0.0747528,-0.0184979,-0.0575788,-0.0249951,-0.0833292,0.0498113,-0.0576378,0.0450437,0.0420852,-0.0564196,0.0830551,0.0519638,0.0734035,0.0339525,0.0177337,0.052972,0.0480781,-0.0859443,0.00037983,0.0666125,-0.0832963,0.000566766,-0.0697598,-0.00789089,0.0820214,0.0393762,0.0427724,0.0689932,-0.0752791,0.0425725,-0.0151545,0.0753947,0.0783248,0.0484517,-0.0105367,0.0679987,-0.0804107,0.0648422,-0.0703601,0.0175668,-0.0354391,-0.000277934,-0.0272879,0.00456085,-0.049092,-0.0153356,-0.0728066,0.0755566,0.0523781,-0.0599575,0.0621586,-0.0804991,-0.00450508,0.0125738,0.045795,-0.0602157,0.0839252,0.0724334,-0.0761014,-0.0204679,-0.0598654,-0.0608026,0.0578362,-0.0774669,0.0707344,0.0159071,0.0400213,-0.0294538,0.032265,0.0454453,-0.0727791,0.0478621,0.0329169,0.0416878,-0.081744,0.0626125,0.0307321,0.0797724,-0.0764683,0.00219869,0.00609694,0.0807658,-0.0464836,0.0327499,-0.0479317,-0.0101375,-0.0405698,0.0156738,-0.0803807,0.0442833,-0.0521603,0.0494303,0.0283687,0.0434505,-0.0689047,-0.0675297,-0.0851185,0.0681779,0.0684727,0.0148286,0.0787798,-0.0405798,-0.0505953,-0.0109754,-0.00883874,-0.0270272,-0.0111046,-0.0439521,-0.0731736,0.00978635,-0.0327669,0.0495425,-0.0758284,0.0147498,0.0222356,-0.0810124,0.0476268,-0.025588,-0.0849079,0.00148509,0.00068712,0.0229536,-0.0531222,0.0368018,0.0538317,0.0384541,0.0450719,-0.04198,0.0795962,-0.0673186,0.0597187,0.0157267,-0.00337265,-0.0353182,0.0205584,-0.0282288,0.0485394,-0.0780899,0.0605732,0.0240609,0.0630601,0.0311262,-0.0124823,0.00486326,-0.048868,-0.0490809,-0.0137096,0.0376615,-0.0383675,0.0263973,-0.0146788,-0.0867034,-0.0848743,0.0209486,-0.0347473,-0.0838095,-0.0337457,-0.0123753,0.0752258,-0.0503363,0.0153542,-0.0219759,0.0258514,0.0643258,-0.0775235,0.050848,-0.0879536,-0.0534324,-0.0584017,-0.0490711,0.00319851,0.033849,0.0522743,-0.046067,0.00962457,0.0814693,0.0135439,0.0389858,-0.0576619,0.021686,0.00220091,0.0474522,-0.0110698,0.0538976,-0.0391884,-0.0214605,0.0585056,-0.0273467,-0.0620069,0.0461548,-0.0473813,0.0548965,-0.0207401,0.0131251,0.0766098,-0.0322672,-0.0537023,0.0798255,0.074821,-0.0381472,-0.0426234,0.0588065,-0.0453624,-0.0342495,0.00755869,-0.0463837,0.0519562,0.000638927,-0.0177443,0.0607286,-0.00108498,0.0800401,0.074684,0.0472665,-0.083789,0.0735174,0.0069882,0.0521355,-0.0586565,-0.0383354,-0.0457891,-0.0267425,0.00437695,-0.0494189,0.0461862,0.000353369,-0.0401575,0.00457564,0.0549445,-0.0330953,-0.0601747,0.0712005,-0.0269509,-0.0620578,-0.0511574,0.0634726,0.0594723,0.0232202,0.0371641,-0.0372959,-0.0213725,0.0742926,0.0422362,0.0170414,0.0854834,0.0523697,0.0189092,-0.0192666,-0.038368,0.0544122,-0.00648826,0.0450668,-0.0670124,-0.0723489,-0.0203769,0.0327806,0.0576481,-0.0383423,0.0658918,-0.0354805,0.0732531,-0.0769822,-0.0480576,-0.0881557,-0.0115742,-0.0683416,0.0216822,-0.0244328,0.0647108,-0.0499468,-0.00506964,-0.0181532,-0.00726916,-0.0478183,-0.0351267,0.0136594,0.0781252,0.0553587,-0.0808967,-0.0814416,0.062957,-0.0331689,-0.0445194,0.0798227,-0.0197613,0.0553775,0.037404,-0.0282252,0.0662035,-0.0543534,-0.035032,0.018643,-0.03963,0.0730012,0.0820744,0.0497634,-0.043934,0.0239228,-0.0336079
-0.0487666,0.011274,-0.0789926,0.0705613,-0.0387181,0.0859593,0.0461802,-0.0762044,-0.0276869,0.0455402,0.00767742,-0.0712754,-0.0622237,-0.0812404,0.0467726,0.00949716,-0.0316681,-0.0419908,-0.0160317,0.0451534,0.0189509,-0.0682956,0.0387079,0.0614563,0.084642,-0.000242148,-0.0565912,0.0199793,-0.0132044,0.0467781,0.0845849,0.00528942,-0.0781622,-0.058524,0.0220338,0.0664752,-0.00589831,-0.00578572,0.028888,0.00734495,0.00864788,0.0499391,-0.0429564,-0.0753928,0.0186597,-0.0554642,0.00736652,0.0694907,-0.065907,-0.0133624,-0.0103974,-0.0615297,-0.0179389,0.0322067,-0.00347967,0.0707231,0.022597,0.0474345,-0.0233461,-0.0185738,0.0494786,-0.0772379,-0.0344633,0.0533914,0.00792012,-0.0821266,-0.066919,-0.0419938,0.0441771,0.0740537,0.00710645,0.0468362,-0.0545987,0.00217169,-0.0238826,0.0282088,-0.0792743,0.0226475,-0.0767845,0.017304,0.059889,0.0295782,-0.0325172,0.0277599,0.014143,0.0523605,0.018308,0.0175994,0.0478879,0.0532175,-0.0156122,0.0584207,0.0665054,-0.0739441,0.000958869,-0.00442647,0.00673516,0.0333793,0.0527078,-0.0586663,-0.0487153,-0.013431,-0.0280561,-0.0753083,-0.0751081,-0.019876,-0.0140833,-0.0706907,-0.0473881,-0.0731947,0.0509592,-0.0574276,0.0303431,-0.0875244,-0.00798026,0.0298793,0.0741519,0.0775058,-0.0286093,-0.0609521,-0.0489016,-0.0648155,0.0138668,-0.0680562,-0.0667107,0.0798184,-0.0143598,-0.092733,0.053084,0.0779582,-0.0363712,0.0541618,0.0194049,-0.0136023,-0.00636024,-0.0677842,0.0210448,0.0431991,0.0181924,0.0772734,-0.0487141,0.0263003,0.0162887,0.0186136,0.0393367,0.0907618,-0.0404268,-0.0483828,0.00360993,0.0568112,-0.0266509,0.070552,0.0779754,0.0791463,0.0351453,-0.0876593,-0.0456986,0.0177653,-0.0460809,-0.0162026,-0.0519902,0.0233909,0.0609944,0.0385541,0.0908528,-0.010796,0.0231061,0.0688414,0.0388393,0.0667971,-0.0634667,0.0506875,0.0495002,0.0632938,0.0319783,-0.0266249,-0.0870964,0.0481627,-0.0144523,-0.0953273,0.0455325,0.0378035,0.0606527,0.024546,-0.00301943,-0.0682474,0.00864975,-0.050946,0.0385613,0.0327603,-0.0151994,-0.0481988,-0.0539283,0.0562467,0.00773214,0.0137354,0.0511913,-0.0554942,0.00255778,-0.0552875,0.0308233,-0.0735662,0.00500612,0.0647227,0.01524,-0.0601019,-0.0537936,0.0673792,-0.0172243,-0.0504282,0.0797444,0.0696052,-0.0633969,-0.0776784,-0.0686264,-0.0666224,-0.0676157,0.0548957,-0.0487104,0.0231606,-0.0592396,0.0774654,0.0714774,0.0438778,-0.00485563,-0.0117607,0.055528,-0.046927,-0.0554457,0.0904042,0.0849163,-0.00194439,-0.0786277,0.0582756,0.0465724,0.0462954,0.00258706,-0.0612369,-0.0750346,0.0843877,-0.0962473,0.0105438,0.0744616,0.062392,0.0336289,0.0939595,-0.0885592,0.0631479,0.0822316,-0.0540808,0.012709,0.0682459,0.0751007,-0.0430524,-0.0735998,-0.068811,0.0271455,-0.014765,0.0577725,-0.0327225,0.0109309,0.0404055,0.000836168,-0.0360546,-0.0575077,0.0186031,0.0345183,0.0432579,0.0695634,0.0674183,-0.0445493,0.0186431,0.0245348,-0.0857897,0.0266153,0.0173548,0.0254686,0.0710349,-0.0607666,-0.0685092,0.0135579,0.0618887,-0.0151074,0.0424064,0.0889009,0.00279083,0.0784885,-0.0750543,0.0438105,-0.0574053,-0.0618827,0.0317789,-0.0305417,0.0723276,0.0546177,-0.0475584,-0.065079,-0.0648439,-0.00703676,-0.0590474,0.0296449,0.0468688,0.0334941,-0.0690218,0.0631575,0.00241115,-0.0555907,-0.0163152,-0.0205089,-0.0600124,-0.0784418,-0.00665042,0.00537443,0.00791909,-0.00793749,-0.0329036,0.0780542,-0.0300153,-0.0558164,-0.0250072,0.0199393,0.0271439,0.0138918,-0.00974779,-0.0182871,0.0253017,-0.0425731,-0.0555033,-0.0473377,0.0254241,-0.0775829,0.00769192,0.0613953,-0.0354256,-0.0791051,-0.0122182,-0.0369291,0.0869356,0.0908398,0.0740621,0.0250708,-0.0630003,-0.0135354,-0.0761533,-0.0192436,-0.00290994,0.0461697,-0.0568057,-0.060769,-0.0702664,-0.0225736,0.0595292,-0.0392963,-0.0183674,-0.0695534,0.0553791,0.00378541,0.0870113,-0.0528432,-0.00180037,-0.0244455,0.0837631,0.0453964,-0.0294007,-0.0522547,0.0226819,0.0487011,-0.0412207,-0.0470749,0.0769077,-0.0252706,-0.0589274,0.0199689,-0.0679384,0.0734467,-0.0536009,-0.0568732,0.10175,0.0744317,-0.0023213,-0.0778528,0.0461417,-0.0394975,-0.0463895,0.0174543,0.0318029,-0.0489344,-0.0375071,0.0659561,-0.0872269,-0.0549745,-0.0109462,-0.020755,-0.00585975,0.0711552,0.0741244,0.0675156,-0.0625732,-0.0557992,-0.0398882,0.026493,0.0798367,-0.0561464,0.0726759,-0.0929471,0.0859017,0.031835,-0.0649426,0.0202162,0.00193417,0.0657483,-0.00269614,0.0231264,-0.0139623,0.0940713,0.0679996,-0.0684802,-0.0644389,0.048553,0.0788345,-0.0851336,0.0483893,-0.0136355,-0.0289186,0.0749125,0.0277436,0.0844868,-0.0398482,0.0775147,0.0486003,-0.0245335,0.00397671,0.00638858,-0.000207055,-0.0771812,-0.0288782,-0.050094,0.032797,0.0414638,0.0378711,0.0688289,-0.0465491,0.0150647,-0.0246436,0.0260061,0.00770274,-0.0308442,-0.0375931,0.0476508,-0.0541584,-0.0731181,0.0714931,0.0196078,0.0810624,0.01399,-0.0250536,-0.0685196,0.0821624,-0.0095746,0.00250131,0.0701332,-0.0116026,-0.025765,0.0824448,-0.0465043,-0.0507741,-0.0680964,-0.0531815,0.058157,0.0353651,0.051845,0.000427035,0.00437009,0.0252859,-0.0843586,-0.0675967,0.0293785,0.0498039,-0.000402281,0.0730494,0.0166004,-0.0097252,0.0303042,0.0446521,-0.0549939,0.0622861,0.0208316,-0.0637557,-0.0811004,0.034628,0.0684406,-0.0472807,0.0416967,0.084521,-0.0262691,-0.026328,-0.00279998,0.0787118,0.0317452,-0.00697831,0.079504,0.01721,0.0782772,0.0743813,0.0186151,-0.020781,-0.0732323,-0.00849785,-0.0437191,-0.0728069,-0.0732318,0.0709325,0.0283462,-0.0742136,-0.0789138,-0.0414727,-0.0480671,0.0757002,-0.0450239,0.0415899,0.090656,-0.0504059,0.0134801,-0.0543799,0.0424415,-0.011803,0.0860715,-0.0255527,0.0739271,0.00830766,0.0664453,-0.00719214,0.0439562,0.0101726,-0.00288873,-0.0237768,-0.000337683,0.000620844,-0.0807995,-0.0309087,-0.000346167,-0.0927536,-0.0550168,-0.0414244,-0.0609674,0.00514766,-0.0722272,-0.00421286,-0.0150002,-0.0599642,0.0546805,0.0681904,-0.00253206,0.0814379,0.0767781,0.0826397,0.0658359,0.0285465,-0.0179688,-0.0567156,0.057648,0.0682911,-0.0837398,0.0854816,-0.0296565,-0.076334,0.0348117,0.0759807,0.0840434,-0.0504268,0.0419278,0.0733197,0.00214851,0.0235166,-0.0187222,-0.0488311,0.0154429,-0.036342,0.0442741,-0.0526634,0.0711655,-0.0137918,-0.0508596,-0.023585,-0.0066523,0.0303483,0.0375263,-0.00383378,0.0287496,-0.0491851,0.0899211,-0.055995,-0.00447044,0.0547473,-0.0213362,0.0614368,0.000231216,0.0854982,-0.0584593,-0.0849709,-0.0674671,0.0048294,-0.0344222,-0.0430841,-0.0122576,0.0743004,-0.0499782,0.0342393,0.0678669,-0.0446017,0.0783791,0.0677613,-0.0654894,0.0219941,0.0657564,-0.0620469,-0.0600702,0.0195499,0.0149814,0.0205476,0.0339852,0.063961,-0.0778663,-0.00923946,-0.0221553,0.0294707,-0.0462023,0.0514697,-0.0659813,0.0285069,-0.0278553,0.0128489,-0.0076868,0.0313315,0.083049,-0.048688,-0.0397999,-0.0120186,0.0723196,-0.0307024,0.0295964,0.0444506,0.0800207,-0.0806426,-0.0787971,0.0442984,-0.00521185,0.0255855,0.0322949,-0.0485547,-0.00561446,-0.0821035,0.0440748,-0.0294055,-0.0401741,-0.0727159,-0.0144881,-0.0290514,-0.0147442,0.0257313,-0.000642199,-0.0490625,0.0533051,0.01721,-0.0107584,-8.49881e-05,-0.0658861,0.0952681,0.0196416,-0.0825616,-0.0261027,-0.0584393,0.0856482,-0.0326492,0.0814287,-0.0572031,-0.0285795,0.0240885,0.00298099,0.0430881,0.0581249,-0.0314947,0.00747672,-0.0266242,0.0028813,0.0599169,0.00424871,0.0716368,-0.0259682,-0.0362133,-0.0627091,-0.072702,-0.0725319,0.0529105,-0.00921798,0.00736645,-0.0089568,-0.0668983,0.00437226,-0.0797,-0.0315465,-0.0848764,0.0450835,-0.0640687,0.0569769,0.0876152,0.0217538,-0.00489766,-0.00707631,0.0270605,0.0419625,0.00747627,0.055069,-0.0594773,-0.0770543,0.0463885,-0.0472458,0.0357228,-0.0770385,-0.0520092,-0.0136798,0.022098,-0.0772242,0.0911686,0.0807552,-0.0829248,0.0845599,-0.0638891,-0.0552094,-0.0795361,-0.0658012,0.0661782,-0.0662437,-0.0544273,0.0500624,-0.0118071,-0.0441817,-0.0470068,-0.0531656,0.00032118,-0.0418876,0.00500222,0.0734782,0.00382229,-0.0764515,0.0455784,0.0490245,-0.073681,-0.00666013,-0.0464005,-0.0559266,-0.0413556,-0.0564414,-0.00962285,-0.0812744,0.0538962,0.0443774,0.0175453,0.071389,-0.054436,-0.00499417,0.0841602,-0.0810061,-0.0356971,-0.0257186,-0.0439292,0.071739,0.0120776,0.0419853,0.0374083,-0.00204722,0.000276215,0.0131977,-0.0540637,-0.0121659,-0.0706897,-0.0535306,0.0569455,0.0277636,0.0297599,-0.0395025,-0.056851,0.0287016,-0.0451602,0.0752255,-0.0777326,-0.0827987,0.0361476,0.0025524,0.0275086,-0.0757573,-0.0884698,-0.0102645,0.024639,-0.0614341,-0.0414259,0.0265598,-0.00905074,-0.0609266,-0.0829405
-0.0335406,-0.0376929,-0.0401831,0.065932,0.00780049,0.0555691,-0.0189213,-0.0695918,0.0240968,0.0219204,0.0954317,-0.0387195,-0.0335369,0.0643951,-0.0292102,0.0869503,-0.0227996,0.0634933,0.0407854,0.0280881,0.0327035,-0.0633223,-0.0773912,0.0611199,0.0566112,-0.0168678,0.0514851,0.0138702,-0.0737517,-0.0255925,-0.00922742,-0.0104632,-0.0555419,-0.00494683,-0.0613671,-0.0516887,0.0705333,0.00213722,-0.0153746,0.0848633,0.0190107,-0.0440747,0.0848502,-0.0787598,0.0494079,-0.0217875,0.0491027,0.0530235,-0.0218469,0.0228602,-0.0514874,-0.0344569,0.0481735,-0.0370332,-0.0666244,0.0636578,-0.049946,0.0641152,0.0514676,0.0655534,0.00647277,0.0803099,0.00363604,0.01067,0.00302061,0.024641,0.0632438,-0.0832801,-0.0554556,0.051027,0.0110279,0.0427364,0.0112743,0.0757663,-0.0579702,0.0699869,-0.0468855,-0.00391297,-0.0253397,-0.0389344,-0.041285,-0.0662651,0.0691793,-0.0687701,0.0154404,-0.0495845,0.0582724,0.0456309,-0.0688463,0.0398099,0.00664264,0.0494853,-0.027314,-0.0337128,-0.00585779,0.0777967,-0.0119737,-0.00756843,0.0134329,-0.042852,0.0859256,-0.0366423,0.0569875,-0.036166,-0.009078,0.0845958,-0.0509061,0.0893718,1.26554e-05,-0.0631772,0.020746,0.0531677,-0.0792148,0.0155249,0.0392706,-0.0832802,0.0743551,0.078182,-0.028959,0.0547614,-0.0201521,-0.0445578,-0.0888351,-0.0518673,0.0181722,-0.0424218,0.0705848,0.0273198,0.0171873,-0.0126635,-0.0573107,-0.0780967,0.0793392,-0.050563,0.0790986,0.0756884,-0.0129844,-0.0203834,0.0780363,-0.0310735,-0.0667913,-0.0343547,0.033813,-0.0708998,0.101461,-0.0808569,0.046621,-0.00829906,0.0484466,-0.0311382,-0.0601729,-0.0348504,-0.0845833,-0.0468664,-0.0607579,0.0829809,0.0932304,0.0802048,-0.079055,-0.0880303,0.0801926,0.0716274,-0.0486435,-0.0834285,0.0107385,0.0735367,0.0173019,-0.0235853,0.000721992,0.0773892,-0.0517952,0.00823367,0.0715102,0.0508543,0.0150734,-0.0353443,-0.0722299,0.0619461,-0.0140013,-0.0199819,0.0525569,0.055483,0.0632173,0.0368337,-0.0687786,-0.0318036,0.0455554,-0.0024479,0.0790267,-0.0415894,0.0485872,-0.0354896,-0.0625906,-0.00842781,0.00247748,0.0175061,-0.0117495,-0.024234,-0.0611159,0.0687705,-0.0161189,0.0566417,-0.0580183,0.0207096,-0.0310429,0.0148476,-0.0111324,-0.0615036,-0.075749,-0.00358522,-0.0912753,0.00934043,-0.0258412,-0.0479667,0.0498328,0.00711034,-0.0532672,0.0526009,0.0682677,-0.0707829,0.0104973,0.0538426,0.0550999,0.0137133,-0.0850618,-0.0351916,-0.0462163,-0.0281249,-0.00870733,0.0265477,0.0174479,-0.0510006,-0.0545532,-0.075394,0.0573812,-0.0788473,0.0399255,0.0134138,-0.00443158,0.00463233,0.0146101,0.00450349,0.0312255,0.0205107,-0.00895945,0.0300768,-0.0664965,-0.0419105,0.0064749,-0.0278889,-0.0457292,0.0235953,-0.0690648,-0.0886654,0.0732092,-0.0818203,-0.0765689,-0.0344755,0.0567131,-0.0493127,-0.0651616,0.00919895,-0.0310462,-0.01723,-0.00617462,-0.0144048,-0.057557,-0.00246493,0.0105482,0.000325874,0.0678352,-0.082862,-0.0824018,-0.0231542,-0.00266638,0.0456543,-0.0502713,0.0454309,0.03622,-0.0794624,-0.0585452,0.0192375,0.0753631,-0.0386101,0.0278147,0.0885906,-0.0277707,0.0723997,-0.00506137,0.0391607,-0.0821266,-0.063375,-0.0333724,0.0598562,0.082583,-0.0352248,0.0619864,-0.0543183,-0.029497,-0.0787667,0.0510526,-0.0571952,-0.0275202,0.0713919,0.039997,-0.0204514,-0.0143738,0.00259243,0.0291553,-0.0644104,0.00889869,-0.0270507,0.0488998,-0.0284202,-0.0279615,-0.0315804,0.0118493,-0.0464368,0.00607914,0.0318233,0.0519882,0.0431554,-0.025563,0.066121,-0.0396027,0.0578151,0.0766525,-0.0165086,0.0254709,0.0618595,-0.0437463,0.0909635,-0.0147213,-0.0571078,0.0703294,0.030501,-0.0755281,-0.0447458,0.0267642,0.0114907,-0.00739328,0.0816552,0.0759366,-0.05097,0.0354747,-0.00565,-0.000320599,0.0673139,-0.00915845,0.0797721,0.00465034,0.0739241,-0.0695131,0.0343403,0.0468639,0.0821409,-0.0389128,0.0686521,-0.00854029,-0.0789578,-0.0627287,0.0971268,-0.0281302,-0.0387726,-0.000540255,0.0668875,-0.0566949,0.0292302,-0.0618303,0.0176027,-0.0717513,-0.0284828,0.0346826,0.0366467,-0.0118863,-0.0609556,0.061768,0.00222115,0.0211994,0.0576536,-0.0749939,-0.00929649,-0.0150361,-0.0631214,0.0674771,-0.0350557,-0.00303889,-0.00502407,0.0753488,0.0962993,-0.0129531,-0.0505842,0.0967417,0.0342943,-0.0162808,-0.0498077,0.0645674,-0.0765643,-0.0267743,-0.0481623,-0.0535851,-0.0439019,0.0355421,-0.0433726,0.111859,0.0710566,0.0456056,0.0663704,0.00674691,-0.0604006,-0.0431843,0.0678404,0.0566641,-0.00608059,0.0205339,0.0603439,0.0540873,-0.0767903,-0.0220886,-0.0697777,0.0766388,0.0666639,0.0624602,0.0583323,0.0571516,-0.0771613,-0.0770776,0.0836975,0.041612,-0.0726829,0.0155815,0.0700853,0.0353624,-0.0271182,0.0747642,0.0530427,-0.0695138,0.0188765,0.012527,0.0873883,0.0589754,0.0793456,-0.0648943,0.099448,0.0195324,0.0340908,0.0383999,0.018223,0.0794365,-0.0760296,-0.0701122,-0.077508,0.051814,0.0389189,0.0381739,-0.0553081,0.0231418,0.0126708,0.0249866,-0.0717587,0.069937,0.0775364,0.086232,-0.0760487,-0.0890812,0.0740888,0.0265428,0.0675934,0.0492744,-0.0834436,-0.0133314,-0.0639257,0.0289187,0.085881,-0.0475872,0.032937,0.0028944,0.0830743,0.0751888,0.0253919,-0.0239239,-0.00615633,0.0157752,-0.0678679,0.0160832,0.0729412,0.00740415,-0.0113183,-0.0493149,-0.0896242,0.0406069,-0.00775207,0.0876123,0.0870588,0.0789724,0.0554078,-0.075243,0.03046,-0.0200402,-0.0130486,-0.0683096,0.0654107,0.0230051,-0.00909357,-0.0424622,0.0348183,-0.0382834,0.0119111,-0.0455772,0.00085442,-0.071804,-0.00573894,0.0259659,0.00490321,0.0142353,-0.0157735,-0.0183679,0.0591516,0.00380454,0.00508792,0.0674626,0.00879511,0.0619707,-0.00884878,0.071263,0.00797616,0.0435006,0.02884,-0.0769276,-0.00813138,-0.0851363,-0.0312204,-0.0161962,-0.0238281,0.0552346,-0.0636293,-6.92367e-05,-0.0524798,0.00793075,0.0371777,0.0237073,0.0647508,-0.0582721,-0.0489708,0.0338773,-0.0440214,-0.0457757,-0.0755928,-0.0129646,0.0582307,-0.00492013,-0.0231064,0.0280084,-0.0303227,0.0160482,0.0699376,0.0474448,0.027449,0.0215069,0.0419789,-0.0762315,-0.0515005,0.0027427,0.0193659,-0.051838,0.0748372,0.0408782,0.0298289,-0.00326813,0.0477496,-0.0535779,0.00833444,0.0619978,-0.0613085,-0.058618,-0.0459839,0.023159,0.0328289,-0.0659293,-0.0418944,-0.0516414,0.0865519,-0.0352289,-0.0142956,-0.0456331,0.0721123,0.0152579,-0.0153674,0.0193233,0.0499267,-0.0610376,-0.0348417,0.00220816,0.106482,0.0171962,0.0025898,0.0259044,0.068303,0.0105292,0.0014779,-0.0314602,0.0793108,-0.0739015,-0.0761852,-0.0616328,0.00531547,-0.036139,-0.0101324,-0.0260058,0.0609312,-0.0278644,0.0200998,0.0748317,-0.0511272,0.079244,-0.0355283,0.0618531,-0.0213665,-0.019898,0.0192215,0.0342864,-0.0274854,-0.0248675,-0.0109057,-0.0101298,-0.019924,0.0723882,0.0652085,0.00765098,0.0494924,0.0721436,-0.0162792,0.0768427,0.0435534,0.0864574,-0.0895995,0.0850757,-0.0465194,0.0221638,0.0765103,-0.0198178,0.00370442,-0.0314774,0.0752358,-0.0394207,-0.0402668,-0.0675409,-0.0291737,-0.0244121,0.0084519,0.0612797,0.0183369,-0.0156755,-0.0103777,0.0374847,-0.065378,-0.0733035,-0.0845707,-0.0295772,0.0797596,0.0921892,0.0590417,0.0408636,-0.059321,0.029354,-0.0173707,0.0809921,-0.0480636,-0.0809868,0.0635156,0.0582922,0.000403776,-0.0521482,0.0322971,0.0149482,0.0574748,-0.0237559,0.039223,0.0160663,0.0507377,-0.0553796,0.0467293,0.0616084,0.0117983,-0.0869986,0.0758691,-0.0210874,-0.0765402,0.0448176,0.0812045,0.0673132,-0.00467327,-0.0859239,0.0135288,0.0591559,0.0896891,-0.0221764,-0.0789532,0.0745709,0.0936638,0.00785729,-0.0499869,0.0351226,0.0472427,0.033313,-0.0543614,-0.0554188,-0.0295723,0.0648186,-0.0760501,-0.0403273,-0.0606783,-0.0695977,0.0948366,-0.0194167,-0.0804716,-0.0424253,-0.0367122,0.0186848,0.0487114,0.0307498,0.0523151,0.050748,0.0306622,-0.0376725,0.0263588,0.0503276,-0.0560441,-0.0567062,-0.00472473,0.019924,0.0350625,0.0642859,-0.0687516,-0.0677458,-0.00267857,0.0204937,0.0499991,-0.0169081,0.0344443,0.0787711,0.0481207,0.0507617,-0.0886739,0.08438,-0.0759329,0.0705548,0.0140775,-0.0263522,-0.0714487,0.0212146,-0.01685,0.0145196,0.0684251,0.0343206,-0.0796075,-0.042179,0.0368876,-0.0318265,0.0285285,0.00211684,-0.0532529,-0.0254557,0.0605058,0.0692597,0.0144743,-0.0106387,0.0167851,0.0702185,0.0496864,-0.0584748,0.069325,0.0594523,-0.067155,-0.0276659,-0.068597,0.0569283,0.0449812,-0.0525312,0.0770692,-0.00664975,0.00427988,-0.0138517,-0.0567952,-0.0445376,-0.0569365,-0.0498067,0.0641331,-0.0214432,0.0712198,-0.0026175,-0.0176585,-0.0504414,0.0170491,-0.0718254,-0.0816907,0.00437974,-0.0348689,0.0140515,0.0400881
