100,300
0.121731,-0.0113582,-0.0354195,0.026297,-0.062628,0.0483574,-0.00123085,0.0888102,-0.10165,-0.0040944,-0.052135,0.0556963,-0.144153,0.062896,-0.0566535,-0.0937664,0.117452,0.0490751,-0.0810523,-0.107232,-0.0929241,-0.0810825,-0.0666889,0.0780844,-0.0405562,0.0760696,-0.119305,-0.0281992,-0.0689103,-0.0469881,-0.105354,0.132091,-0.0680792,-0.00274984,0.0368163,0.0292262,-0.00448439,0.0317444,-0.0530451,-0.0673853,-0.0240786,-0.117531,0.000623364,0.0920413,0.0226266,-0.00324468,0.0806703,-0.119671,-0.122032,0.0360145,0.0968381,-0.0130248,0.142662,-0.0873858,0.112872,-0.0904659,-0.0630791,0.109438,0.120341,0.0387153,0.0875693,-0.132613,0.129162,-0.114479,0.13126,-0.0639108,0.0777465,-0.109441,0.111496,-0.114109,0.0157626,0.0244801,0.0127975,0.118097,-0.0941765,0.0312938,0.0779842,-0.101753,-0.00578159,0.120687,-0.121517,0.0393688,0.0224421,0.0102143,-0.144156,-0.035474,-0.120608,0.00162081,0.0687928,0.0112827,0.063974,0.0494178,0.13803,-0.0721223,0.00843337,0.111287,0.0823712,-0.0892324,-0.106981,-0.0130468,0.144538,-0.120269,-0.0303756,0.0449654,0.0124665,0.10012,-0.100577,-0.0369631,0.0274196,0.0853118,0.127374,-0.0641301,-0.0868249,0.118591,-0.00545378,0.118163,0.0321423,0.0833498,0.139245,-0.0587125,0.0105979,-0.0020626,-0.082495,-0.0311269,0.0217711,-0.10187,-0.0892547,-0.0952869,0.0757557,-0.0639025,-0.00697304,0.143918,-0.0402713,-0.0652553,0.125677,-0.123312,-0.059665,0.115826,-0.0501551,-0.120846,-0.0540806,-0.00262543,-0.0976239,-0.127372,-0.0549211,-0.0912156,-0.108092,-0.0310644,-0.0269597,0.113035,-0.0168118,0.0881135,-0.13418,0.117437,-0.039638,-0.112235,0.00590157,0.0342574,0.162179,0.104404,-0.0214067,-0.0242718,0.032062,-0.0983627,-0.046636,0.0655184,0.113085,0.10131,-0.071526,-0.144722,-0.114023,0.0042799,0.0664772,-0.0621327,2.14475e-06,0.0680848,-0.13332,-0.0811701,0.0267584,-0.0891866,0.0121504,0.0577497,-0.0237444,0.107177,-0.080877,0.0868746,-0.130235,0.0586846,-0.106588,0.0150002,0.092524,-0.123987,0.112484,-0.0392152,0.0845472,0.152013,0.0091565,0.0997954,0.0263355,0.0120318,-0.0791435,-0.044359,-0.0149963,0.0823611,-0.135766,0.108818,-0.0375813,-0.0581108,0.140208,0.116663,0.105037,-0.00355126,-0.128282,-0.00673361,0.110524,-0.0733678,-0.0654312,-0.0426259,0.024065,0.125554,-0.144858,-0.101411,0.0829102,0.00277064,0.127585,0.165734,0.0433645,-0.0592207,-0.106519,-0.0409766,-0.126238,0.0804347,0.130779,-0.138717,-0.0090767,-0.10281,-0.00898417,0.103495,-0.118712,0.0162785,-0.107113,-0.0901034,0.072919,0.0101262,-0.0615424,-0.00354599,-0.0575985,-0.124169,0.13858,0.134043,-0.130808,-0.090207,-0.131495,0.0996233,-0.128452,0.017545,-0.0759963,0.0533115,-0.0833013,0.14197,0.0163871,0.0647953,-0.149613,0.0812721,0.102704,-0.0262263,0.057939,0.0830202,-0.0203681,0.0682572,-0.0946845,-0.0599522,0.132416,-0.0365767,-0.110166,0.0927513,-0.0896742,0.122094,-0.0169968,0.129633,0.0406367,0.0590407,0.139888,-0.0624219,0.0720772,-0.0431994,-0.109668,0.021128,0.0453473,0.0483318,-0.0556954,0.133141,-0.0401475,0.0539183,0.0820044,0.0676358,0.102314,0.0902597,0.102804,-0.0719842
0.0604039,0.0565779,-0.0912435,0.103925,0.0189441,-0.0375064,0.0624684,0.0444377,0.0870753,0.118338,-0.034089,0.00496427,0.0200817,0.0418742,0.000731355,0.0142659,-0.0278613,0.136434,-0.0937575,0.016048,0.0533114,-0.0764705,0.0451887,-0.137778,-0.029113,0.0317079,-0.0871751,0.0240619,0.0856916,-0.0998271,-0.0150163,0.0884169,-0.101943,-0.00219768,-0.0896386,-0.0300415,0.0706042,-0.0577725,-0.0294599,0.0650987,-0.0211928,0.0407325,0.0158111,-0.09045,-0.0076931,0.132487,0.10297,-0.104189,-0.0843877,0.0306559,-0.134768,-0.130539,0.0398292,-0.000107234,0.0152882,0.06645,-0.0664584,-0.0758446,0.000277684,0.136194,-0.00267851,-0.0131532,0.114309,-0.0930289,-0.0472747,-0.00941956,0.132912,0.0569753,-0.0806367,0.127901,0.0609668,0.00162752,-0.0929487,0.0765462,0.0692533,-0.00670399,-0.0852974,-0.0187128,0.00262233,-0.114896,-0.0278891,-0.116016,-0.0334288,-0.0210374,0.0315532,-0.101397,0.0200116,-0.0764044,-0.106054,0.0841437,0.0494338,0.0209781,0.14138,-0.064502,0.0131521,-0.132941,0.0423088,-0.051713,-0.109326,-0.085075,-0.0974835,-0.0465295,-0.0758835,-0.103202,0.116629,0.0418402,0.0591027,0.114652,-0.118896,-0.0385034,0.0807537,0.0336795,0.00255169,-0.0908913,-0.1204,0.059495,0.116936,-0.0474692,0.0188288,0.0587502,0.0694691,0.0225529,-0.0261869,-0.120244,0.0666025,0.0499061,-0.141047,0.0439157,-0.133905,-0.0595034,-0.0905672,-0.0538875,-0.0169478,0.108673,0.112827,0.120154,0.0852058,-0.0902336,0.0194708,-0.00398038,0.0866318,-0.12833,-0.0114426,-0.08295,0.120678,-0.0442989,0.1354,-0.134,0.112242,0.0276468,-0.121446,-0.0489208,-0.129687,-0.0573045,-0.00706362,-0.135066,0.0755862,-0.0328989,0.0123723,-0.0488959,-0.0415141,-0.0929061,-0.0294916,-0.119027,-0.125333,-0.104648,-0.102675,-0.122509,0.119891,-0.0676405,-0.0474172,0.141664,0.0211537,0.0424783,-0.097659,-0.0498876,-0.0834795,0.0834662,0.0407258,-0.0890033,0.00717095,-0.0294804,0.0871752,-0.0755078,0.136572,0.00389162,-0.135608,-0.11628,-0.121805,-0.0256187,0.0794759,-0.0120582,0.0671488,-0.00592259,-0.00124898,-0.0388467,-0.0919816,-0.126601,-0.0412007,0.108222,0.102051,0.0631693,0.00737452,-0.0941887,-0.0553668,-0.126742,0.0113391,-0.0209467,-0.0934105,-0.0345839,-0.0309444,0.0776562,0.106541,-0.13107,-0.124228,0.0842165,0.10729,-0.135395,-0.068379,-0.062198,-0.0255027,0.059374,0.129073,-0.0273057,0.0197176,0.000270207,-0.0706032,-0.0126585,-0.0324316,-0.0961769,-0.020372,0.10417,0.0540318,0.0908003,-0.0870127,0.120616,0.0991495,-0.0822804,-0.0511901,-0.0568701,-0.023448,-0.0954601,0.073095,-0.0824398,0.0542048,-0.0345237,0.0992563,0.129985,-0.124933,-0.0285176,0.0756923,-0.0607258,-0.0280784,0.0275709,0.062796,-0.11723,-0.108877,0.0354606,0.132667,0.130822,0.0221102,0.0584606,-0.0184124,-0.0693429,-0.100917,0.0702027,-0.0532086,-0.0919495,-0.0796772,0.0291093,-0.101256,-0.0547274,0.108445,-0.0531036,0.0887636,-0.025828,0.0462574,0.0733455,-0.0628572,0.122738,0.0973436,-0.0572241,0.130259,-0.0561376,-0.0215472,0.118857,-0.10861,0.0874225,-0.0242093,-0.0798604,0.120824,-0.0883371,-0.0316464,-0.0810388,-0.0462403,-0.138843,0.0754734,-0.0564222,-0.060245,0.0122167
-0.127681,0.0627055,-0.0664693,-0.081896,-0.122779,-0.119912,0.0918094,0.114681,0.0715759,-0.0998034,0.104878,-0.136559,0.127449,0.0979185,0.0832963,-0.00216647,-0.0176887,0.0604122,0.0986272,0.0670133,-0.0601806,0.0169946,0.0520762,-0.0302608,0.117787,0.0861806,0.0216181,-0.11043,0.0693862,-0.0671577,-0.0708718,0.0752367,-0.0456047,-0.0140282,-0.0249212,-0.105864,-0.108714,0.108881,-0.0358224,-0.115988,0.0698576,-0.071839,-0.0559463,-0.059741,-5.3599e-05,-0.122393,-0.0785802,0.0170982,0.00205144,0.13099,-0.116069,-0.0374881,0.129673,0.118938,0.0810941,0.0722426,0.00552538,0.0935567,-0.10831,-0.0426172,0.0396756,0.145066,-0.140273,0.0730088,-0.00944547,-0.103284,0.0976703,0.126141,-0.105066,0.0972829,-0.0732344,0.026573,0.0520744,-0.0662488,-0.0648865,-0.108475,0.0333754,0.0379932,-0.100604,0.1086,-0.0900605,-0.139634,-0.0215842,0.0477364,0.0685571,0.0989938,-0.0481222,0.131376,-0.141762,-0.0395997,-0.102207,0.090431,-0.0970617,-0.120626,-0.0138824,0.0168668,0.122538,-0.0729199,0.038494,0.0429997,0.0582902,-0.103263,0.10355,0.0497955,-0.0541189,-0.0641251,0.0984763,0.0257268,0.0117189,-0.00469845,-0.00235867,-0.019004,-0.0598866,-0.0918745,-0.0683303,-0.0555809,0.0350005,-0.0108371,0.028077,-0.0719819,0.0311717,-0.0605792,0.0883038,-0.0131669,-0.115961,-0.0128569,0.00460329,-0.0130608,-0.0227103,-0.0894513,0.0382994,-0.136064,0.0479663,0.13192,-0.0853777,-0.0110847,-0.0240106,0.0303499,0.110215,-0.0794353,-0.0377624,0.0702393,-0.147735,0.0951428,0.0923661,-0.0929186,-0.0223622,0.101921,-0.0671367,0.0889981,-0.0684731,0.134153,-0.135765,0.115846,0.0596297,-0.124318,0.129954,-0.0953701,-0.0679308,-0.055497,-0.0701758,0.048897,-0.0624689,-0.0958573,-0.0138786,-0.0823106,-0.0495775,0.101023,-0.0268286,-0.134001,0.130537,0.0661371,0.0771271,0.0741952,-0.0526608,-0.135977,0.0287279,-0.0369701,-0.108673,-0.0928574,-0.110813,0.011229,0.0882657,0.0855868,0.137634,0.0995737,-0.0073336,-0.116827,-0.101172,-0.0370944,0.0966305,-0.0169442,0.0350556,0.0811,0.0469535,-0.0121258,0.126846,-0.0565373,0.0916668,0.140375,0.0279855,-0.0575227,0.095423,-0.120302,-0.0497131,0.1077,0.0808057,0.117246,-0.0408297,-0.0944724,0.0612417,0.124611,-0.079683,0.0697075,0.00873389,0.00114076,-0.0403482,0.0918619,0.0577716,0.0679864,-0.110596,-0.0993319,0.12398,-0.0576436,0.135638,0.0818865,-0.0447092,0.0232982,0.0440449,-0.0286993,0.110829,0.0178049,0.0643155,-0.0168701,0.014033,0.0431329,-0.100884,0.0190812,-0.0653004,-0.0413924,0.134694,0.0133382,-0.0577655,0.0115105,0.127589,0.0302917,0.00703554,0.0986328,-0.0869691,-0.0693623,0.132399,0.0948913,0.0091541,-0.0875515,0.0429991,-0.0483868,-0.14124,0.0994112,0.0301311,0.113762,-0.00755793,0.0301468,-0.114419,-0.00553571,0.108181,-0.0553698,-0.0999388,-0.023186,-0.12799,-0.0424286,-0.0368436,-0.0745558,0.0116954,-0.0535459,-0.0152761,-0.128616,0.0371905,-0.104596,0.0513369,-0.018031,-0.0518296,-0.050513,-0.0507428,-0.126666,-0.0145684,0.10723,-0.0495758,0.0649525,-0.0633102,-0.0286338,-0.0440417,0.0612441,0.0281464,-0.073956,-0.094681,0.0253001,-0.135784,0.11672,-0.0651962,-0.117334
0.0735755,-0.155268,0.116906,0.0585242,0.0728773,-0.0682977,-0.0967456,0.0277982,-0.1338,-0.0442648,-0.0884339,-0.0526283,0.106092,0.0328052,-0.0638573,0.0031054,0.125873,0.110015,-0.097904,-0.048735,0.0442046,-0.121565,-0.0654537,0.000925704,-0.0106204,0.0598162,0.11091,-0.0115724,0.0894788,0.0613559,-0.0709171,0.0112168,0.0929896,0.0768778,-0.0518171,-0.13836,0.102835,-0.134302,-0.0320748,-0.0601806,0.103274,0.0464745,-0.0745559,0.102773,-0.120317,0.0869091,0.0945666,0.00996827,-0.115495,-0.094075,0.00856333,-0.0562219,0.025927,0.049082,0.13864,-0.109525,0.00362876,-0.118597,0.0813866,-0.110897,0.0752707,-0.108767,0.00133678,-0.0236573,0.00408966,-0.0666923,0.0526389,0.00661693,-0.0981758,-0.0642032,-0.133844,-0.122485,0.0622734,-0.0718427,-0.0609228,0.0883895,0.0288033,-0.0628323,0.0183678,-0.0602608,0.00687592,-0.0801287,-0.121504,0.134879,-0.0346858,0.138667,0.108822,0.0479364,-0.00838488,0.0124649,0.102068,0.118402,0.143807,-0.116705,-0.0174894,-0.0613952,-0.107508,-0.0530019,-0.0515462,-0.11508,0.0893334,-0.0151459,-0.0196123,-0.151101,-0.0608506,0.0542184,0.0308435,0.0885151,-0.0745152,0.123776,0.0309011,0.132767,-0.0143627,-0.0760532,-0.0131293,0.0392404,0.0618743,0.0900996,0.0658349,-0.0208731,0.0892482,-0.0801958,-0.0908342,-0.11002,0.0140477,0.0664792,-0.0788267,0.00329179,-0.0524176,-0.11489,0.0669397,-0.0251497,0.144131,-0.10111,0.127643,0.134093,-0.0720832,-0.108366,0.0672419,-0.0250587,-0.0343982,0.0141736,-0.132881,-0.0535112,-0.124896,-0.0774612,0.0203719,0.0155351,-0.0191551,0.0591496,0.156859,-0.00745793,-0.0844674,0.011041,-0.133372,-0.127963,-0.098229,0.0410965,-0.0159121,0.0383224,0.0266019,-0.116667,0.0128418,-0.0356963,0.0300869,0.142224,0.0258702,-0.092132,-0.0383416,0.0768028,-0.13288,-0.0546003,-0.12196,-0.0737465,0.0711538,0.0158708,-0.0649435,0.0978083,0.0189645,0.0734144,-0.00489075,-0.0779214,-0.132703,-0.0110482,-0.124807,0.085917,-0.0701887,-0.0216318,0.0743259,-0.037511,0.110129,0.131104,-0.0359062,0.0498994,0.177884,0.036451,0.00251014,-0.113258,0.108749,0.0233015,0.0891813,0.121918,-0.0737327,-0.0355173,0.0752358,0.0293879,-0.134102,-0.0964906,-0.108512,0.113134,0.0222187,0.0633556,-0.00430582,-0.0249852,-0.0127938,-0.0353877,-0.0693142,0.060155,-0.0334022,-0.110939,-0.143545,0.0908057,0.0381752,-0.0560859,0.0697901,0.131955,0.128659,0.0409879,-0.060102,0.104341,-0.0287887,-0.125316,0.0521392,-0.120858,0.0613682,0.103523,-0.00394176,-0.0408848,-0.131893,-0.0532662,0.0720187,-0.0987628,0.0971692,0.0245814,-0.0600394,0.134762,0.0964732,-0.118437,0.123485,0.0884709,0.044995,-0.0422424,-0.0482286,0.0716704,-0.00260377,-0.0226071,-0.0129169,0.0132018,0.110641,0.0847473,-0.00338078,-0.0818744,-0.033749,0.0139776,0.0422394,0.136339,0.103383,-0.0491995,0.0325504,-0.109339,-0.145646,0.0643056,-0.04271,0.0544588,-0.125726,-0.0213615,-0.0245349,0.143548,-0.105141,-0.146,-0.151394,-0.078841,-0.0505516,0.071434,0.106978,-0.0219598,-0.114931,-0.129007,-0.00969671,0.065805,-0.0728369,-0.1073,0.0983998,0.0224109,-0.0387325,0.00930513,-0.113181,0.0251436,-0.106,0.0171936
0.0630721,0.0935472,-0.0434686,0.162626,-0.095001,-0.0629004,0.122247,0.0549897,0.103943,-0.025126,0.102389,0.00188828,-0.0792076,0.0396417,0.106802,0.00499011,0.00637076,0.101807,0.0910274,-0.135949,0.0699315,0.0920879,-0.117488,-0.115363,-0.0716294,-0.0429617,0.104687,0.0568161,0.0971773,-0.0493297,0.141777,-0.0656191,0.162865,0.0751426,0.119949,0.0162865,0.0852887,-0.115742,0.0854637,-0.103205,0.113553,-0.0144929,0.123682,-0.138181,0.126066,0.114508,-0.0153708,-0.0115207,-0.075486,-0.112735,0.0654677,0.0819279,-0.0469211,-0.0702361,-0.0108045,0.0524539,-0.0167388,0.112886,0.0805793,-0.0550272,-0.0124494,-0.119677,-0.0100621,0.0882344,0.135772,0.0439744,0.0609895,0.132349,0.129545,-0.100835,-0.0791024,0.0940668,-0.117681,-0.0789439,-0.00363473,0.089992,0.0157743,0.12992,-0.114097,0.0477937,-0.0156148,-0.128766,0.103171,-0.133399,-0.122466,-0.0240266,0.074821,0.10262,0.034866,-0.08701,-0.072592,-0.12401,0.079038,0.00264338,0.00327766,0.121654,0.0168647,0.116591,-0.0229575,0.0594043,0.00824245,0.0280866,-0.0522576,-0.0187194,0.132854,-0.0010329,0.109073,-0.15578,0.0802139,-0.086289,0.113085,0.0844558,-0.0336007,0.0185592,0.076395,-0.115431,-0.0152778,0.0838576,-0.0883175,-0.0406069,0.100764,-0.017638,-0.112898,0.133084,-0.00347337,-0.109746,0.00755533,-0.105719,-0.0549048,0.0989566,0.0688787,-0.0810175,0.0505269,-0.0666953,0.0745524,-0.107517,0.129483,-0.0780744,0.123756,-0.0587168,-0.118557,-0.0927035,-0.122221,0.0857022,-0.0656312,0.0339051,-0.136411,0.0473177,-0.123774,-0.0517468,0.0895465,0.100713,0.0464868,0.144012,-0.0380121,0.138815,-0.00271634,-0.141863,0.00129287,-0.0593472,-0.0146647,0.0214763,-0.110551,-0.0545759,0.0917018,0.0489905,0.0304914,0.0411708,-0.144089,0.0588476,-0.0770355,0.0508613,0.101561,0.15174,0.0877071,0.0805257,0.0985978,-0.103441,-0.010667,0.0865895,0.0130597,-0.0957191,-0.0686865,-0.0120875,0.00299272,0.0426158,-0.0692534,-0.0813783,0.110829,0.046274,0.140513,-0.112825,-0.0189933,0.143136,0.0709219,-0.0272429,-0.0705056,0.0725723,-0.0770737,-0.0633751,0.0472913,-0.00698733,0.107317,0.0836936,0.101457,-0.077397,0.1301,0.131159,0.0966098,0.141274,0.0397657,-0.0845167,0.135044,0.136377,-0.10692,-0.0195453,0.0540964,-0.0934536,0.0441449,-0.0712157,-0.128702,-0.0182235,-0.0488865,-0.0378,0.121618,0.1017,0.0224643,-0.130775,-0.0288749,-0.083795,0.0928281,-0.0147541,0.0772186,0.0305163,-0.0260145,-0.0973492,-0.0567254,0.101181,0.0610496,0.0811129,0.0790241,0.0176175,-0.0990007,0.0386403,0.0924757,-0.00144964,-0.0672307,0.0209128,-0.0269114,-0.0431075,0.0742231,-0.0254932,-0.0935902,0.0992033,0.0639413,-0.140271,-0.0611834,0.135539,-0.065023,0.0126161,-0.102674,-0.0120422,0.0321376,0.0369369,0.0814351,0.0437921,-0.0429235,0.0753215,-0.0328349,-0.0273878,0.0225429,0.0531778,0.14045,-0.0743806,0.129892,0.138757,0.0334568,-0.101384,0.113838,-0.112968,-0.142246,-0.0433834,-0.0950992,0.104321,0.049346,0.0241551,0.00757407,0.111809,-0.0636791,-0.101464,0.112789,-0.0169268,0.0627036,0.0713127,0.100472,-0.000318003,0.0414097,0.053831,0.0608931,0.119183
-0.069901,-0.116495,0.02088,0.00336967,0.068028,-0.104363,-0.0168077,0.0207271,-0.128059,-0.117396,0.0332115,0.155936,-0.120229,0.115536,0.105682,0.123172,0.0264419,-0.0399834,0.0624532,0.0766429,0.106491,0.0687131,0.11218,0.0459184,-0.0136113,0.115925,-0.0197381,0.126991,0.0232622,0.0214198,-0.0224765,-0.0388917,-0.035265,0.0657038,-0.0526065,-0.000612898,-0.0909002,-0.122372,-0.11483,0.129314,0.0636152,-0.140045,-0.101749,0.0739476,0.0310716,-0.0697714,0.0619823,-0.000695771,-0.050917,-0.105509,0.0653304,0.143055,0.0928161,-0.141037,0.0524781,0.0765647,-0.0437161,-0.00412144,-0.104238,-0.0295902,0.108512,0.0471167,0.0276237,0.144621,-0.0450426,-0.0192817,-0.0810208,0.0567369,-0.0626395,0.00302124,0.0698476,-0.00143737,0.0286247,-0.0259748,0.0292888,-0.0685767,0.0390907,0.110935,-0.0439489,-0.100647,-0.0290419,-0.0896688,0.0687748,0.108276,0.00103518,0.0604279,0.153572,0.138423,-0.0380007,0.000458132,-0.109815,0.0605171,0.160923,-0.0430849,0.0428779,-0.0835206,0.112309,0.0968964,0.0110701,0.139587,-0.0475757,0.0199549,-0.146648,-0.0354273,0.00108005,0.143439,-0.0893734,-0.0339812,-0.075845,-0.0907381,-0.0201573,0.0637611,-0.0552361,-0.078083,0.059655,-0.118433,0.12652,-0.115295,0.0856971,-0.0858166,0.120962,0.139876,0.0412407,0.168997,0.0859467,-0.0989336,-0.00558007,-0.104852,0.0553259,0.139876,-0.127938,0.112796,0.0268243,-0.0434363,0.0280972,-0.0961143,-0.0515054,-0.042132,0.126914,-0.0610534,-0.0897542,-0.0120558,0.0409834,0.129547,0.0556344,-0.00777036,0.148875,0.136111,-0.0545951,0.0190069,0.0576705,-0.115227,-0.0592412,0.117887,0.13766,-0.0873659,-0.0745675,0.122804,-0.0584492,0.00430557,-0.0328732,0.0857084,0.097449,0.132628,0.0685749,-0.0692227,0.0470565,0.0557901,-0.0694591,-0.0312908,-0.108009,0.0494124,0.00133985,-0.0574917,0.0398617,0.118306,-0.086137,-0.0911515,0.107317,0.101847,-0.108242,0.037957,-0.114419,-0.0872555,0.135581,-0.130686,0.00156638,0.0671766,-0.0406158,0.098322,-0.0389923,-0.0734269,0.0394653,-0.0360259,0.0371884,-0.0881682,-0.0286287,-0.048649,0.117465,-0.0429754,-0.0582074,0.0881839,0.0450251,-0.030658,0.0864127,-0.126613,-0.027257,0.0104958,0.100038,0.100909,-0.138687,-0.13195,-0.0581557,0.114534,-0.0701663,-0.0669438,0.0880567,-0.045299,0.0671992,0.0776201,-0.113003,-0.113019,-0.0578558,0.0854178,0.0497273,0.0122778,0.101713,0.0328163,0.127798,-0.117646,-0.0867328,-0.0735748,0.0954643,0.106726,-0.0348795,-0.0697567,0.073825,-0.0259734,0.132678,0.0650879,-0.101612,-0.031837,0.0721543,0.102483,0.13114,0.0609459,0.118194,-0.0264854,-0.0707209,0.0747546,-0.107895,-0.092584,0.0659056,-0.00513036,-0.134643,-0.077501,-0.0873194,0.0195327,-0.0821322,0.144762,-0.0571931,0.0918655,0.135231,-0.061829,-0.052348,-0.0953969,-0.00100804,0.0160409,0.0593777,-0.0197188,0.0616677,0.138569,0.126296,-0.0689854,-0.067934,-0.0795784,-0.0967014,-0.0754451,-0.0389305,0.00459299,-0.100803,-0.113657,-0.0457981,-0.110078,0.154332,0.0716064,-0.131031,0.118759,0.101826,0.105106,-0.0259791,-0.0171183,-0.0390862,0.0449518,-0.10054,-0.0143763,-0.0935801,0.0905701,-0.0208161,-0.0549417
-0.0277803,0.0709312,-0.089435,0.0867193,0.10114,0.0129888,0.0765257,-0.0896674,-0.110375,-0.0424565,-0.0221949,-0.0608068,0.0403747,0.112303,0.087292,0.103655,0.108157,-0.017456,0.13494,-0.0616848,-0.130369,0.116798,-0.0177547,0.0861647,0.0181095,-0.0644094,-0.00652844,0.0516485,0.0632638,0.124532,-0.0889087,-0.0835421,0.0177314,-0.0395516,0.070825,-0.00540499,-0.0663423,-0.142771,0.0485952,-0.0824212,0.0658774,-0.0572735,-0.0719342,-0.114755,-0.105802,-0.0780164,0.0192338,-0.0739546,-0.0552388,-0.032552,-0.0239687,0.0910068,-0.037301,-0.0144638,-0.026471,-0.13442,-0.114758,0.00233694,0.122631,-0.113508,-0.0948126,0.00813359,0.0126414,-0.0589144,0.0327715,-0.00654594,0.00153217,0.0824235,0.132021,-0.00461631,-0.137941,0.0730984,0.113363,-0.0139082,0.100531,-0.074964,0.127941,-0.101926,-0.0945434,0.134514,0.0586771,-0.0684654,0.111506,0.0627055,-0.0959702,-0.0537169,0.0812047,-0.0996408,0.0293441,-0.0751095,-0.106323,-0.118515,-0.0415731,0.0360823,0.0375743,-0.0706863,-0.0675467,-0.0605065,-0.0534672,-0.0749279,-0.0187827,0.135182,-0.125224,-0.129974,-0.0318028,0.0462416,-0.0585675,0.0465502,0.0208587,0.0446189,-0.0705978,0.00115572,0.0593635,0.00466123,-0.0089956,0.10509,-0.0389979,0.056839,-0.0435538,0.0768973,0.128716,-0.0410525,-0.0631706,0.106074,-0.0381337,0.136796,-0.000568417,0.0366426,-0.00529967,0.0285815,-0.0751245,-0.121406,-0.0661105,-0.105018,-0.0582479,0.130907,-0.141431,0.0055759,0.054732,0.0837997,0.0540315,-0.0948223,-0.0894768,-0.10866,0.135479,0.0376918,-0.035734,-0.0315224,-0.0326118,0.100964,0.138027,0.0974578,0.0353453,0.0611128,-0.044015,0.110531,-0.0284943,0.00505991,-0.11225,0.0667316,0.0277632,-0.00478542,0.0413879,0.137265,0.113101,-0.0324572,-0.0807314,-0.108399,0.00724735,-0.137411,-0.12737,-0.0152036,0.0580129,-0.0542863,0.0866511,-0.138952,0.0273158,0.126063,-0.140721,-0.0174835,0.101392,-0.0882138,0.00356805,0.102426,-0.0591646,-0.120265,-0.140441,0.00853025,0.0482172,-0.0103347,0.00230948,-0.124685,-0.0627225,0.0386405,-0.059384,0.0870623,0.00109651,0.0469948,0.0639763,-0.0735045,-0.139455,0.101907,0.136298,0.0126214,-0.0997012,-0.0828808,0.139661,-0.131533,0.110965,0.0311652,-0.0549351,0.104863,-0.0598015,-0.0262651,-0.118107,-0.0807737,-0.0946727,0.10443,-0.0652812,0.116902,0.0897744,-0.0311654,-0.136356,-0.0812927,0.0855056,-0.0930196,-0.0126637,-0.124899,-0.123052,-0.0178358,0.0868446,0.0601934,0.0242812,0.0711659,-0.0306545,-0.0765194,0.0940413,-0.0357941,0.0203829,0.126027,0.0453126,0.0433975,0.0637418,-0.066888,0.104931,-0.0974587,0.041557,0.0219635,-0.0651379,0.125664,-0.00744841,-0.0511374,0.0250924,0.0915628,0.120006,-0.134283,-0.0875197,0.0877031,-0.0361532,-0.0633406,0.0140039,0.0550083,-0.113795,-0.00977542,0.078191,-0.0812315,-0.055567,-0.0339397,-0.00754997,-0.129696,-0.118037,-0.0368334,-0.0460825,0.0984579,-0.0753287,-0.0940278,0.0293969,0.130019,-0.139416,0.078919,0.0107234,0.0297363,0.000860888,-0.110363,-0.118927,-0.0562863,-0.0515163,-0.0714785,0.130064,-0.0817295,0.0581661,-0.042911,-0.133952,-0.116832,0.057422,0.067819,0.113555,0.0155502,-0.0388366,-0.0484532
0.0182609,0.152519,0.0670858,-0.00594615,0.0508998,0.12342,-0.00673358,-0.0891228,-0.0986672,0.0354893,0.0350846,0.0251778,-0.0625604,-0.0947711,0.046433,0.00957382,-0.0323573,0.0694026,0.059004,-0.0144785,-0.00906837,0.0484252,-0.110621,-0.039,-0.0916369,0.134007,0.15012,0.0451888,-0.0195188,0.0543789,0.0249321,-0.0645219,-0.00545356,0.0331285,-0.00995286,0.0741942,0.0877256,0.0654034,0.134547,-0.112762,0.00789871,-0.116263,0.136562,0.0541778,-0.0109713,0.118278,0.0886215,0.0768747,0.00723718,0.038118,-0.0267373,0.00276674,0.0443839,0.0075152,-0.00253508,-0.0283096,0.0147857,0.073743,-0.0124951,-0.120902,0.0601817,-0.0619328,-0.0355252,0.0637171,-0.117754,0.114716,-0.0267536,0.046227,0.129157,-0.126967,0.143963,-0.0973271,-0.133249,0.037881,0.0585135,-0.121924,-0.00305988,-0.128511,0.00940268,0.0727487,0.0470388,0.130234,0.0983657,0.059435,0.0799615,-0.0281137,-0.111964,-0.0694015,0.142661,-0.0514776,0.126889,-0.0369305,0.0498504,0.08074,-0.0409943,0.0704955,0.149859,0.0477915,-0.0777234,0.076843,-0.0295795,0.119669,0.0748238,-0.0240653,-0.0654762,-0.0759513,0.104073,0.0895219,0.0916342,0.0390961,0.0822703,-0.135376,-0.0882115,-0.0486262,0.0332537,-0.0805949,0.0715334,0.0297359,-0.078642,0.10257,-0.127463,0.00795644,-0.0993052,-0.144767,0.0653426,-0.0252807,-0.112558,-0.0234868,-0.111929,-0.0187761,-0.0442494,0.00935093,-0.115844,-0.0361016,0.137692,-0.0518871,-0.0455966,0.0724698,-0.129886,0.0325978,-0.0289712,0.1223,0.143846,-0.0749133,0.0275957,0.0701186,-0.0128898,0.0678276,0.0360329,0.114279,-0.00761264,-0.00946093,-0.0951268,0.0480948,-0.0596966,0.0904233,0.137344,-0.0659292,0.153988,-0.0453545,0.0324928,0.0241059,-0.0357628,0.107245,0.0775774,0.0361229,-0.0192475,-0.0170605,0.108757,0.0161442,0.0698854,0.13145,-0.031775,0.103293,0.0220675,-0.0693075,0.130768,0.00123313,0.0662952,-0.0194256,-0.0304319,-0.00206603,0.102178,0.110798,0.0236011,0.0174478,0.118741,0.143615,-0.122239,-0.076022,0.0389567,0.125823,0.0649604,-0.140236,0.0917532,-0.0620472,-0.134585,-0.113193,0.0374921,0.0977084,0.049028,0.107794,0.0317164,0.134457,-0.0418855,0.00962451,-0.0272656,0.00834654,0.07674,-0.114167,0.133319,0.03813,-0.0350644,0.0965193,0.0537629,0.122783,0.0966875,0.0282617,-0.0364484,-0.0961716,0.0397511,-0.0508613,-0.057699,-0.078822,-0.0835871,-0.0781375,-0.0590887,-0.0969905,-0.0559584,0.0242894,0.0548303,-0.139915,-0.150953,-0.0348541,-0.123186,0.132918,-0.0341834,-0.0676604,-0.0900146,-0.0386443,-0.11549,0.134826,0.019555,0.0133506,0.00844164,0.0211151,-0.0825866,0.124255,-0.118747,0.100229,-0.0219853,0.0481202,0.0579794,-0.0670344,-0.0183667,-0.00420269,-0.0412419,-0.0171069,-0.142026,0.0888067,0.000431784,-0.0774946,-0.106325,0.0377032,0.117835,-0.151416,0.0852677,-0.00184044,0.103798,0.120946,-0.00759358,-0.0402464,0.0468589,0.153735,-0.0599407,-0.0591025,0.150093,0.149491,-0.0790974,-0.065658,-0.0977811,-0.0593752,0.0496407,-0.0111272,-0.0200372,0.110862,-0.0318589,-0.136568,0.0213496,0.0576428,-0.118157,-0.0422617,-0.0770495,-0.0286744,-0.0205693,0.0844621,-0.0203962,-0.0444809,-0.0748864,-0.10735
-0.118286,-0.0249823,0.121844,0.164346,-0.0636377,-0.0513109,-0.0113469,0.0672683,-0.134403,0.110327,0.105841,0.126575,-0.1688,-0.0544427,-0.110999,0.103566,0.141857,0.0088458,-0.0789879,-0.00968363,0.0993986,0.074377,-0.0423302,-0.161578,-0.00201254,-0.0656357,0.0601074,-0.0669662,0.0550884,0.0539464,-0.149924,-0.0804361,0.0909828,-0.10136,0.0824343,-0.050951,0.115372,0.112086,0.0897063,0.115899,0.0877842,0.00507458,0.00336793,-0.00402025,-0.00405507,-0.0625708,-0.0798293,-0.0801532,-0.073449,-0.0926635,-0.0379013,-0.0777863,0.0983537,0.0772331,-0.0174026,0.137536,-0.100539,0.062654,0.0818736,-0.0193845,0.00121606,-0.0563994,0.0991916,-0.00661771,-0.0068287,0.0508237,-0.118603,0.0197365,-0.0772639,0.0621676,0.0138551,0.0890122,-0.0422456,0.138594,-0.0838796,-0.0731211,-0.00877158,0.0652402,-0.0867555,-0.043274,-0.0172658,-0.0153795,0.162258,-0.162154,0.0982337,0.105972,0.0177391,0.107119,-0.104969,-0.0188882,0.0767723,-0.0892861,0.0877527,0.0922984,0.0391535,0.111598,-0.0573893,-0.0478842,0.0329382,0.100151,-0.0162993,0.00995472,-0.0986038,0.0389239,0.0396681,0.0486719,0.0382569,-0.133343,0.118241,-0.109114,0.00447221,0.114357,0.171506,-0.0308806,-0.139076,-0.119441,-0.0641908,-0.141251,-0.0624722,-0.0292355,-0.114058,0.0295853,-0.0825466,0.126231,0.145303,-0.024154,-0.0840433,0.0270563,-0.088428,-0.164984,-0.104211,0.0198642,-0.0102098,0.0499519,0.033273,0.161118,-0.0238012,-0.0929735,-0.102983,0.110586,-0.0770541,0.135203,0.0457711,-0.153369,0.0791926,0.00530306,0.127662,0.0307461,-0.0313812,-0.116477,0.0388923,-0.0632755,-0.0322132,0.14363,0.0795449,-0.0298427,0.0581742,0.0722532,0.112089,0.0596507,0.120049,0.0375056,-0.108339,0.110578,-0.0258891,0.119505,-0.0348128,-0.106977,-0.0578116,0.0969746,0.0448924,0.0774983,-0.0465562,-0.0377877,0.0564386,-0.0538123,-0.0262155,0.0707297,0.148834,0.073784,-0.00681442,0.0947314,-0.063802,-0.0776727,-0.160973,-0.0446986,0.0833856,-0.144162,0.0463878,0.111624,-0.114336,-0.114988,-0.111864,-0.127843,-0.025621,0.144932,0.0152373,0.0594116,0.0578202,-0.165895,0.0703368,0.0768471,-0.0590996,-0.00821838,-0.0578797,-0.0538825,0.071369,0.0264063,-0.0240586,0.0327847,0.0114978,0.0409043,-0.0391537,-0.146618,0.0175151,0.0855201,0.111781,-0.108399,0.105014,-0.0130887,0.119965,-0.125142,-0.0764143,-0.00749811,0.0411181,0.0549323,0.108603,-0.061954,-0.0511721,-0.141937,0.0850081,0.0879449,-0.0436924,0.00990206,0.102548,0.147158,0.0318692,0.0269112,-0.106142,-0.142518,0.0541624,-0.112504,0.128065,0.102278,0.0325754,-0.0364621,0.0281306,-0.137753,0.0559377,0.0349542,-0.0304097,-0.113264,-0.0625114,-0.0411485,-0.0994592,0.106897,0.00497513,0.041162,0.0903709,-0.0127357,0.0276619,0.0596484,0.114627,0.0304,-0.122931,0.0352739,0.141847,0.120432,0.124323,-0.114123,0.0594397,-0.0805103,0.032996,-0.130876,0.0606375,0.130613,-0.0664699,0.150184,0.040767,0.0242443,-0.0404352,0.0143618,0.090063,0.0444224,0.0310564,0.0429692,-0.109347,0.0316933,0.0399526,-0.100366,0.0302533,0.129815,0.122068,0.0945345,0.0795864,0.00694556,-0.161303,0.0689561,-0.0557101,-0.0390596
0.021706,-0.0541658,-0.0180984,0.0369862,-0.149264,-0.0977061,-0.120378,0.10807,-0.01966,0.137984,-0.0565182,0.113275,0.00637412,-0.0558534,-0.0649609,-0.0600005,0.223079,0.0802462,0.0921367,0.0990128,-0.0918948,0.108029,0.0593418,0.0311284,0.0404288,0.0319909,0.1119,-0.071023,0.0895068,-0.0717326,0.139768,-0.0162713,-0.178045,0.0388726,0.11758,-0.0445991,-0.0213931,0.122229,0.056697,0.110465,0.120884,-0.113329,-0.0532022,-0.0234349,-0.0850995,-0.0725445,0.0325404,-0.0148424,0.0679629,-0.0830301,-0.0142512,-0.076475,0.178938,0.0301681,0.00770279,-0.0910948,0.138549,0.0414076,-0.0718114,-0.0679582,0.0802634,-0.0549186,0.0208265,-0.0340699,-0.0582525,-0.0455878,-0.0223293,0.0380962,0.021988,-0.0584383,-0.0078031,0.145663,0.0795744,-0.0523556,-0.0337036,0.131112,-0.00917699,0.0508281,-0.00455996,0.0302211,-0.101604,0.134408,0.103943,0.0879429,0.0666063,-0.0412327,-0.0985618,0.125158,0.104168,0.116408,-0.00325709,0.10183,0.123831,0.116031,0.0265727,0.142051,-0.06576,0.119206,-0.0233758,-0.0076508,-0.00413371,0.0265678,-0.0507406,-0.0488809,-0.0631269,0.0104875,-0.161616,0.123137,0.119552,-0.0931777,-0.110226,-0.0308733,0.126965,-0.0210139,-0.0665831,-0.0108629,-0.147893,-0.0194363,0.0259278,0.135941,-0.143395,0.101675,0.0691596,0.0621064,-0.132646,0.0365804,0.12707,0.0841149,-0.00220316,0.0562774,0.0753442,0.0915344,-0.0167519,0.105916,0.100898,0.115314,-0.114,0.0645249,-0.0834283,-0.0186382,-0.0632897,-0.0300742,-0.113415,-0.110549,-0.0518366,-0.0653631,-0.0584631,-0.151618,0.0633261,0.0915573,0.100673,0.0951471,0.00808548,-0.108321,0.0432241,0.162362,0.090706,0.00932216,0.031335,-0.106831,0.0183613,0.13127,-0.0687369,0.088203,-0.0067551,0.0731619,-0.115857,-0.0820894,-0.0235742,-0.0093731,0.0429664,-0.143384,-0.113616,-0.0360324,-0.0835113,0.146693,0.148396,0.0977354,-0.163185,0.126541,-0.0506043,-0.0289468,0.0789433,-0.135667,-0.125821,0.058124,-0.0733601,-0.101571,0.0852527,-0.054709,0.0453525,0.00204405,-0.0167835,-0.0747169,0.145582,0.11409,-0.124637,0.0794047,-0.0752483,-0.106738,0.149508,0.075902,-0.115156,0.157431,-0.045216,0.0147474,0.00356898,-0.0479277,0.00136462,0.106607,-0.000959596,0.149037,0.125344,-0.0949752,0.105825,-0.0873841,-0.00107739,0.00427755,-0.129308,-0.0389008,-0.0454468,0.146876,0.118531,-0.0919301,0.0601052,0.0504166,0.0189886,0.0382488,-0.0597971,0.0504162,0.0360023,0.0159823,-0.0352737,0.0551256,0.0549878,-0.0726871,0.0682523,0.0713135,0.130225,-0.0267239,0.0669907,-0.001796,-0.0171298,0.0972863,0.0989257,-0.100281,0.0103534,-0.0755876,-0.100429,-0.107746,-0.07452,0.0233217,-0.0964797,0.0452962,0.012302,0.0377337,0.0318676,-0.115619,-0.144574,-0.0633483,-0.141226,-0.0233422,-0.105197,-0.0145189,0.10447,-0.0877884,0.177125,0.0565831,-0.00152678,-0.0081798,0.0118641,0.00713237,-0.0744122,0.0887293,-0.0841082,-0.139525,-0.0180898,0.0512745,0.0164032,-0.130932,-0.18777,0.0538237,-0.0355574,0.0375615,0.1272,0.132204,0.0106034,0.0819239,0.0624904,-0.0984044,0.0365851,-0.0480798,-0.114845,0.0444223,0.136234,0.100115,-0.0719222,0.13258,0.018537,0.0926587
-0.011149,0.0800811,0.0639872,0.0188409,0.0461326,-0.00955583,-0.0919062,0.114755,0.0806906,-0.113357,-0.0621626,-0.0731601,0.0148555,0.0858851,-0.00957621,0.128214,0.123251,-0.122488,-0.112939,0.0495896,-0.127459,-0.120439,0.0395565,-0.0732727,0.0585767,0.0396884,0.0702071,0.0437462,-0.0290974,-0.0873024,-0.0967589,0.0156674,0.106682,-0.108109,0.00886897,0.111758,0.00207019,-0.0489548,-0.0302468,0.0815681,-0.0631616,0.124568,-0.0215479,-0.0465302,-0.0897257,0.058158,-0.12057,0.00771203,0.119005,-0.0214896,-0.144148,0.100482,-0.0289994,-0.0710643,-0.0156777,0.102337,0.010757,0.00971366,0.0346948,-0.0341308,0.0707344,0.053385,0.0414254,0.0252279,-0.0298248,-0.105701,-0.0464895,-0.104503,-0.0471155,0.12151,-0.061687,0.137136,0.0708004,0.0880572,0.0128149,0.0273798,0.0939296,-0.115685,-0.134844,0.0204424,-0.0657753,-0.00753012,-0.0443331,-0.0565064,0.00352175,-0.0897688,0.0640229,-0.0109995,0.118483,-0.115697,-0.109845,0.100288,-0.125784,0.0907828,0.0886413,-0.0734909,0.0918505,-0.0332442,-0.0392708,0.0597727,0.133396,0.0282606,0.101757,-0.0780067,0.0152655,0.0357514,-0.0220968,0.0921133,0.133301,0.00873194,0.0571413,-0.0169627,0.0310537,0.00758808,0.0676197,0.0879231,-0.109935,-0.06979,-0.031436,-0.126555,0.0465145,0.0215089,0.128351,-0.0700964,0.0102438,-0.143872,-0.06537,0.0520716,0.00982061,-0.0552218,-0.0525513,-0.121391,-0.0931814,0.0224733,-0.0980702,0.0219476,-0.127815,-0.0115279,-0.11267,-0.0913642,0.125826,-0.02428,0.0108051,-0.12614,-0.0604053,-0.0913144,0.0151095,0.0850243,-0.10852,-0.00547069,0.0569473,0.0153753,-0.00300286,-0.0808935,-0.0542994,-0.0240809,-0.104352,-0.112669,-0.0814283,0.0428046,0.0798472,-0.0474422,-0.0303209,-0.129805,-0.128186,0.0100987,-0.0949953,-0.0847433,-0.128689,0.0208156,0.0495124,-0.0583498,0.130717,0.102651,0.0258801,-0.136374,-0.141456,0.0197056,0.11448,-0.079621,-0.128171,0.00877404,-0.138802,-0.0760401,-0.116178,-0.0163366,-0.105883,0.00895755,-0.124061,0.0156129,-0.113433,0.138316,0.117695,0.0598626,-0.0961403,-0.0837937,-0.0111445,0.0660828,0.0322891,-0.0222662,0.0667747,0.0416499,-0.0121739,0.109874,-0.0474697,0.115098,-0.0571098,0.0303127,-0.102699,-0.0495586,0.0667165,-0.122201,0.124779,0.104981,0.129401,0.0643232,0.0459801,0.0572824,-0.0474857,-0.123204,0.0299618,-0.0988052,-0.0195783,-0.0421563,-0.00772167,-0.0245345,-0.11301,0.130008,-0.112455,0.0995959,-0.0578569,-0.0508877,-0.000980324,-0.0266131,0.0393093,0.132253,-0.0194191,-0.131644,-0.141621,0.017515,0.149143,-0.115404,0.0494383,-0.00566148,-0.0974452,0.0843612,-0.130259,-0.070716,-0.019039,-0.0438418,-0.0384459,0.0296828,0.0456354,0.102125,0.108936,-0.0978339,0.0850481,-0.0229544,0.124811,-0.0991514,-0.00403853,-0.0486644,0.0343876,0.0496359,-0.0292017,-0.0251788,0.026502,-0.0364362,0.0806261,0.0886494,0.0981274,0.0660363,-0.109087,-0.118674,0.0295902,-0.125273,0.106294,0.035503,0.0412287,-0.0924956,-0.127311,0.0384143,-0.0460563,0.0457571,0.12075,-0.0748822,0.07484,-0.0860029,0.0820269,0.0751289,0.116401,-0.0440676,-0.119672,-0.102324,0.0537132,-0.103298,0.0397182,0.0644177,0.0894496,0.124652
0.102659,-0.0901175,-0.0951442,0.0695569,-0.0821293,0.130047,-0.128144,-0.0197971,-0.0243034,-0.13955,0.12163,-0.0779472,0.0824993,-0.0669357,-0.10848,-0.00316972,0.037054,-0.0316326,0.0566773,0.0432669,-0.029368,-0.100377,0.0523051,-0.0754697,-0.0243061,-0.0221922,-0.0987947,-0.0869893,0.0400836,0.0779109,0.0245953,-0.0349112,-0.118105,0.0752668,-0.0376184,-0.0803807,-0.115891,0.0411699,0.0772135,-0.115732,0.139287,0.0642226,0.0477629,-0.111119,-0.0949436,0.0131059,-0.0101378,0.127499,-0.0927499,-0.10974,0.0319817,0.0965336,0.0534769,0.00155597,0.137339,0.0481765,-0.0222992,0.0319263,-0.039294,0.0414532,0.112297,-0.0475175,0.0714634,0.0641298,0.133291,-0.0760829,-0.0663612,-0.0499414,0.0406854,0.0298702,0.107682,-0.045274,0.023663,-0.0800454,0.0504741,-0.00336166,-0.108796,-0.0913795,-0.0388398,0.0765789,-0.0903996,-0.00286569,-0.105174,-0.0642515,-0.0265137,0.0670987,-0.0159645,-0.0240233,-0.0236202,-0.123734,-0.0908599,0.128582,-0.139341,-0.135286,-0.111467,-0.0235072,0.0552587,0.133037,0.106626,0.0372217,0.102698,0.063951,-0.0661073,-0.0127597,0.0992729,-0.131181,0.100296,-0.062696,-0.0993976,0.10018,0.0269867,0.101544,0.103663,-0.0365759,-0.024899,-0.124845,0.106746,0.0219256,0.0128969,0.0499144,-0.057078,-0.0127785,-0.084008,0.00974527,0.0522642,-0.034912,0.117425,0.0645824,0.0842504,-0.10695,-0.0517112,0.0906573,0.039336,0.048911,-0.0251497,0.0661308,-0.100199,0.095805,0.0543874,0.034615,0.125359,0.120051,-0.0308513,-0.121528,0.0224173,0.0721831,-0.0384551,-0.11234,0.00598385,-0.0279344,-0.0375713,-0.09214,-0.0404279,-0.0765937,0.0940373,-0.0090946,-0.0240636,0.0153275,0.027448,-0.0801959,-0.0469931,-0.100716,0.114194,-0.0794731,-0.11068,0.0109303,-0.0611303,0.0408788,-0.102415,-0.00273592,0.106403,-0.109083,0.0976672,0.104002,-0.0321749,0.0467106,-0.0986916,0.0535178,0.123623,-0.0697822,0.0537616,0.0293045,-0.0283855,-0.12628,0.0582734,0.090946,-0.0225461,0.0461335,0.0530752,0.0610477,0.0834922,-0.0119771,-0.0226343,-0.0416775,-0.136502,0.100871,0.110143,0.0848048,0.0406306,-0.0797281,0.104604,-0.0323314,0.13423,-0.0326801,-0.120157,-0.107929,-0.121859,0.0434335,-0.105964,-0.117566,-0.114672,-0.062842,-0.00382013,0.129342,-0.0670361,-0.00960993,-0.0478914,-0.123336,-0.0911224,0.0650792,-0.0363497,-0.0787918,0.0908891,0.132852,0.0845603,0.0977123,-0.132764,-0.134689,0.0961009,0.04132,0.118332,0.104521,-0.140219,-0.036461,0.018921,-0.032607,-0.0028186,0.12747,-0.0602658,-0.0899126,-0.102364,0.0369561,-0.127314,-0.104624,-0.130286,0.022198,0.110376,0.0929953,-0.121182,-0.0606278,0.129625,-0.000473947,-0.0365829,-0.13717,0.00612417,-0.140976,-0.0891725,0.0694692,-0.100574,0.106915,0.0832688,-0.0645476,0.0318751,-0.038453,-0.092159,0.00641677,-0.0596922,0.0752182,0.0890631,-0.0552002,0.0158728,-0.116737,-0.135253,0.0320887,0.0876619,-0.0535275,0.0295886,0.121047,-0.00567273,0.0747721,0.121658,0.00944134,0.0611557,-0.119034,0.00335594,0.121707,-0.115328,-0.0443661,0.110122,-0.0648587,-0.108007,-0.136928,0.056626,0.010749,-0.0513264,0.0939155,-0.0618148,-0.0670052,0.0480951,-0.0410844
-0.0422376,0.0739977,0.0333568,-0.122089,-0.00655482,0.0334223,0.0024535,0.0557656,-0.0632427,0.00247043,-0.126344,0.0666036,0.00219962,0.0511791,-0.0703424,-0.0378074,-0.112552,-0.00948202,-0.0575469,-0.0698625,0.129927,-0.0618689,0.048136,0.0101832,0.0382613,0.0196593,0.0881836,-0.0578989,-0.0288466,0.0822286,-0.119687,-0.0547315,0.061234,0.0590633,0.0878625,-0.0771918,0.0530356,0.0188043,0.0723972,-0.0726084,-0.0857045,0.0295367,-0.116513,0.158357,0.133937,-0.130942,0.0720637,-0.11293,-0.11841,-0.138824,-0.0561203,0.051554,0.0513785,-0.0620755,0.0273434,0.16933,0.110609,0.110675,0.127934,-0.117633,0.0680442,0.10987,-0.0642977,-0.10245,0.0807752,0.0333782,0.115515,-0.0254827,0.0881299,0.0712336,0.0595926,0.145606,-0.0934039,-0.0450489,0.113427,-0.044336,-0.0218251,0.0970614,0.00981454,0.0668802,0.0579946,-0.11865,0.0657976,-0.0146407,0.0786243,0.114183,0.0836675,0.135564,-0.107746,0.169813,-0.105981,0.1251,0.0216102,-0.107819,0.0170172,0.111813,0.0884441,0.0702899,0.111915,0.0806315,-0.0888317,-0.0692163,0.0669785,-0.0405413,-0.0121476,0.0556614,0.0109663,-0.123837,0.0522087,0.179123,-0.146056,-0.0828664,-0.0181987,-0.133843,0.0959898,0.00867021,-0.122391,0.0655012,-0.0888569,0.137091,-0.0195508,-0.0257068,-0.0565156,0.0999953,0.0120578,-0.0510944,-0.0877884,-0.110228,-0.0994571,-0.00218622,-0.0215733,-0.119392,0.155939,-0.0586789,-0.080352,-0.0244382,-0.0156002,0.0759035,0.0530247,0.00236227,-0.0854387,-0.114619,0.0326026,-0.132815,-0.12114,-0.0295585,0.104817,0.0793204,0.00998362,0.0706908,0.133542,0.042468,0.0121267,0.061976,0.151465,0.103611,-0.126108,-0.0588268,0.0712984,0.0839967,0.109424,-0.0978858,-0.0532495,-0.00994048,0.129588,0.119028,-0.0994397,0.0857753,0.037037,-0.00350958,-0.0966828,-0.0809357,-0.0996883,-0.135529,0.0570315,-0.00532892,-0.134645,0.139403,-0.0825083,0.118053,0.0412065,-0.0534827,0.136314,0.0259293,0.116321,0.135162,-0.0229422,-0.0117167,0.0289389,-0.0133151,-0.0935933,0.0144387,-0.0928405,-0.0335033,0.151188,0.0918345,-0.0808087,0.0955523,-0.067658,0.105238,0.0440428,-0.104336,-0.0187969,-0.115673,0.0701149,0.0497337,-0.10398,0.102892,-0.099084,0.0409092,0.00366231,0.00246055,-0.0669396,-0.00682452,0.0900251,-0.130847,0.114421,0.134704,-0.0123742,-0.0640174,0.117714,-0.0378593,-0.13921,0.0293344,0.133389,-0.142731,0.10221,-0.0398802,0.0436391,-0.107684,-0.0101619,-0.071782,-0.0523837,-0.0536336,0.102924,0.118447,-0.1077,-0.0648702,-0.0928395,-0.144301,-0.0302643,-0.0428622,0.00417763,-0.0291195,-0.05492,0.100854,0.019314,-0.147021,-0.136075,0.108319,-0.112939,0.128755,0.0270511,0.0627372,0.0482479,-0.0925664,-0.0913658,-0.112557,0.0717955,0.0855132,-0.0102818,0.0222649,0.129035,0.136304,0.0545615,-0.00138368,0.0857382,0.111128,0.065568,-4.51854e-05,0.137972,0.0180509,0.0421067,0.0418523,0.128954,0.126839,0.0732135,0.148148,-0.0556729,-0.0443237,-0.0225355,-0.0638957,-0.102755,0.0972461,-0.02326,-0.0566804,0.0133206,-0.0443691,0.0680456,-0.0897842,0.112633,0.137455,0.0929526,0.0611816,-0.0236909,-0.120726,0.0814289,0.0109961,0.0793106,-0.037106
0.0492753,0.0518961,0.133291,-0.037187,-0.0518846,0.104622,0.00812351,0.14039,0.0839296,0.0311066,-0.0320604,-0.134834,-0.0445603,-0.0507266,-0.0309554,0.0938518,-0.0722188,0.0274793,0.126227,-0.0515322,0.0382104,-0.134049,0.101616,-0.0901209,-0.131638,-0.13085,-0.0223354,0.102806,-0.131696,-0.132547,0.000130769,0.0509978,-0.0623067,0.104648,-0.0359427,0.0675463,0.0628507,0.0437063,0.0277882,-0.139832,0.0142093,-0.0440191,0.00967225,-0.0779007,0.0168119,-0.0467274,-0.0834787,0.0882903,-0.106901,0.0310151,-0.115147,0.13847,-0.0907339,0.142433,0.133541,0.0788675,-0.0848194,0.0694968,0.0319329,0.00271108,0.0973262,-0.0501685,0.0631009,-0.0528094,-0.108769,0.1041,-0.0905255,-0.0927565,-0.0402721,0.00868438,0.142274,-0.0727913,0.0555629,-0.0695625,-0.0485411,0.000934192,0.0298434,-0.0666199,0.0936756,-0.0303087,0.0853996,0.0861013,0.123165,-0.105518,-0.0492799,-0.0251144,0.00223934,0.00216479,-0.05882,-0.0999384,-0.0736035,0.112599,-0.0983914,-0.052344,-0.00669077,-0.0561714,0.00112652,0.0353615,-0.0194355,0.034918,-0.113084,-0.0753059,-0.118234,-0.056594,-0.101347,0.0173723,0.0308809,-0.0784766,-0.00325022,-0.0653325,-0.0563116,-0.0989403,0.00596064,-0.0393548,-0.100696,-0.122691,-0.0461159,0.01675,-0.0306676,-0.113634,-0.120146,0.122763,-0.118772,0.0413474,-0.116191,0.0875848,-0.114257,0.00223036,0.0391035,0.118748,-0.0782065,-0.0753472,-0.120839,-0.113428,-0.128755,0.0326225,0.0431478,-0.0870479,-0.116522,-0.113006,0.135745,0.0279951,-0.0153238,0.123328,-0.0692146,-0.0549736,0.0101336,-0.134566,0.0342288,0.0725604,-0.0322263,-0.137993,0.0340271,-0.044734,-0.0342452,0.063771,-0.0293197,0.104135,0.13645,-0.0593921,-0.0114235,-0.109169,0.087411,-0.135602,-0.025562,-0.129955,0.0116909,0.0665843,0.00236511,-0.0573395,-0.0325478,0.0201606,0.12534,0.127907,-0.0416936,-0.140893,0.0329818,0.114761,0.114089,0.129697,-0.135293,-0.106044,0.1203,0.123768,-0.108648,-0.0177034,0.115082,-0.080322,-0.113165,0.0982729,0.0573915,-0.0143632,-0.0998176,0.0184115,0.064215,0.123746,0.0661568,0.0611665,-0.0835454,0.00761471,0.0149715,0.0616705,0.0813233,-0.00958058,0.0622869,0.0380583,0.138562,-0.108517,-0.0327572,-0.0241154,0.102734,-0.00867534,-0.0352941,0.122207,0.0148968,0.0596159,-0.0619938,0.10082,0.1192,0.0996152,0.012769,0.107095,-0.098709,-0.0702056,-0.0215796,0.0723507,0.0718791,-0.0766404,0.0191451,-0.0198605,0.0299979,-0.0815699,0.0871742,-0.103107,0.0564151,-0.115297,0.0345715,-0.0392891,0.00285762,0.0882954,-0.045403,-0.126284,-0.00702529,-0.128193,-0.0381227,-0.0996506,-0.0243993,0.0104819,-0.119899,-0.0494506,-0.0365731,0.0856013,0.0634156,-0.101907,-0.0746163,-0.0866337,0.0187021,0.0572664,-0.0853228,-0.0371608,0.0366778,0.142642,-0.0956335,-0.0161083,0.0857873,0.00267732,-0.122638,-0.115624,0.0564123,-0.0219673,-0.0945333,0.0451635,-0.0408736,-0.101782,0.00200623,-0.126396,-0.0388394,0.0709097,-0.0548559,-0.0662123,0.123807,-0.0547922,-0.10897,-0.080193,-0.1264,0.0328782,-0.00735662,0.13295,0.0573509,0.00663329,-0.0013356,0.0160642,-0.0219908,0.114132,0.12292,-0.10306,-0.053043,0.124193,-0.0737851,-0.0442354
-0.0770425,0.00483103,0.0576823,0.0809713,-0.119967,-0.0761523,0.0363745,-0.00795189,0.0305941,-0.113992,0.0180515,0.106032,0.155048,-0.0963017,0.0810421,0.0788601,-0.13564,-0.129172,0.073561,-0.0539296,0.102574,-0.11757,-0.0527298,0.0667663,0.0126478,0.0101533,0.0987759,0.109995,-0.050483,-0.0509061,0.159283,0.107319,0.0163352,0.00358882,0.104527,0.0920772,0.15291,-0.0297389,0.129494,-0.117532,0.101175,0.00306097,-0.122197,-0.0284779,0.0669583,-0.0788231,0.0262707,0.125364,0.0151694,-0.121263,0.0464229,-0.132068,0.0578327,0.0254589,-0.151173,-0.0814651,-0.08435,-0.0302056,0.0722429,0.0737086,-0.0920615,0.146946,-0.131924,-0.0397588,0.117806,0.0361274,0.0782731,0.0345705,0.0526965,0.0339953,0.125282,0.00820728,-0.143909,0.0100126,0.0999549,0.00207058,-0.0587619,0.0234307,0.0644462,-0.061321,-0.0961104,-0.116105,0.0696547,-0.0512802,0.142454,0.00228223,0.126913,0.12935,0.057274,0.0773357,-0.0285858,-0.0357721,0.0538775,-0.0619359,-0.117971,-0.143793,-0.13204,0.00428441,0.0158448,0.042527,-0.019917,-0.0705769,-0.0347598,0.0884649,-0.0788085,-0.0233029,0.140342,-0.0890346,-0.046256,-0.0918908,0.106766,0.068752,0.0618755,-0.0792796,0.113699,-0.111571,0.0698458,0.116741,0.0228017,-0.124237,0.119146,-0.0471133,0.0757947,-0.114822,-0.10668,0.000671567,0.03378,-0.126444,0.0112979,0.13126,0.0169746,0.0206073,0.0722758,-0.0451939,-0.07769,0.0904256,-0.103057,-0.0722018,-0.0915223,-0.0305155,0.0170815,-0.00350208,0.0467504,0.00655024,-0.0972276,0.107868,0.0608846,0.0908444,0.0709821,0.0951582,0.145385,0.0278771,0.139318,-0.117728,-0.000652978,0.00679822,-0.0436217,0.123082,-0.132581,0.0837583,-0.136914,0.107164,0.0442489,-0.0703706,-0.129723,-0.132113,0.160953,0.0320942,0.0485236,-0.0849203,0.0618201,-0.0448233,0.106984,-0.0762515,-0.129744,0.157396,-0.0760949,0.1633,0.00569559,-0.0786071,0.114558,0.034511,0.0617086,0.00310118,0.0865051,-0.102641,-0.000460642,-0.0193696,0.0139972,-0.127631,-0.0976444,0.0682374,-0.01182,-0.0100436,0.0426756,-0.164789,0.09279,-0.117964,0.153571,0.140227,0.0598169,-0.0261004,-0.0428275,0.14007,0.0611281,0.0182563,0.100199,0.100527,0.0495422,-0.00766767,0.12749,-0.0226179,-0.0191176,0.123248,-0.0476948,0.0252052,0.05576,0.0938854,-0.139308,0.131699,0.119514,-0.08479,0.0174112,0.0445654,0.0493099,-0.141725,0.0779481,0.036551,0.0207584,0.152741,0.0633505,0.00444273,0.019348,-0.0438342,-0.0144308,-0.0209222,0.00791833,-0.0688506,-0.0841093,0.140165,-0.133138,0.114011,-0.110372,0.116181,0.0866669,0.0498264,0.0321212,-0.0162287,-0.137427,0.0936513,-0.112137,-0.0259747,0.0321375,0.0823833,0.0530751,0.0666826,-0.0604226,-0.0414293,0.10924,-0.120018,0.00827532,0.020206,-0.104504,0.179253,0.0341666,-0.0475626,-0.015969,0.0726851,-0.120726,-0.0549248,-0.0150528,-0.108926,-0.114248,0.0190352,0.0983129,0.0550669,-0.0283814,-0.0535183,-0.0728732,-0.017354,0.117757,0.0849651,0.0860649,-0.0273863,-0.0716927,-0.14434,-0.0272341,0.00357211,-0.039531,0.104161,0.121153,-0.150638,0.112941,-0.0166627,-0.133967,-0.0493018,0.0994223,0.0547098,-0.1203,0.0923008
-0.140868,0.0250976,0.0843282,0.106184,0.106433,-0.0480984,-0.027149,-0.0302808,0.0230037,0.102071,0.0319611,0.0723792,-0.106672,0.114248,-0.0738701,-0.10327,0.130624,0.050589,-0.0361638,-0.0548017,0.10407,-0.035772,-0.106933,-0.0313786,-0.104231,0.00358466,-0.0488075,0.0358137,-0.0844782,-0.153015,0.112062,-0.00519036,-0.0433741,-0.0957073,0.0249664,-0.0997013,-0.0053257,0.0221683,0.0328261,-0.0599078,-0.0451572,-0.00736785,-0.0797445,0.1288,0.063711,0.0502567,0.0792114,0.123166,-0.0123848,0.109063,-0.0481964,-0.0560717,0.0392363,-0.122957,0.0560577,0.105919,0.111005,-0.138133,-0.121453,-0.0594554,0.0637522,-0.103735,0.150691,0.123483,0.0465692,0.0767363,0.114139,-0.0936461,0.105893,0.141852,0.0506814,0.116088,0.121838,0.137595,-0.0946301,0.0460671,-0.108991,0.0823272,-0.00615115,-0.0182381,0.131687,0.136526,-0.129089,0.139522,0.0230417,-0.134692,0.00950721,0.141866,0.0424006,0.0761274,0.107922,0.08894,0.0660957,-0.0371044,-0.0296875,-0.0105983,0.11993,-0.0877962,-0.120683,0.122541,-0.117068,-0.0731186,-0.107,-0.00645771,-0.0602025,-0.0409668,0.119648,-0.0105528,-0.0218181,-0.142924,-0.117402,0.0277086,0.0859593,-0.062059,-0.0806781,-0.0938073,0.0629289,0.12597,0.0179933,-0.0546929,-0.0710756,0.0169154,0.0832194,-0.0285273,-0.142741,0.122924,-0.0703771,0.00175602,-0.0646342,-0.054246,0.104552,0.00314528,0.00231231,0.110778,-0.0877433,0.139494,0.0722655,0.0737813,-0.103539,-0.126112,0.0149412,0.0832857,-0.116009,-0.0986722,0.122819,0.102645,-0.0362031,0.0549084,-0.0938936,-0.00375649,0.00449039,-0.132515,-0.110831,0.0999839,0.114839,-0.105429,0.121279,0.116334,-0.105896,0.0765997,-0.0285116,-0.0730997,-0.0457823,-0.0511984,-0.0257346,0.109549,-0.125226,0.0464124,-0.0546108,-0.0809943,0.035918,0.0906985,0.0586363,-0.0451058,0.143121,-0.09463,-0.066165,0.0651361,0.034821,-0.10571,0.00625646,-0.0319192,-0.0477851,-0.00517648,-0.0725622,0.0776283,0.0981385,0.119615,-0.0765667,-0.135504,0.130884,0.0769362,-0.131136,0.113452,0.00684023,0.0724059,-0.0609738,-0.106273,-0.117349,0.128964,0.00144301,0.0395725,-0.0835572,-0.00943252,-0.062385,-0.112075,0.0161759,-0.0683257,0.0430543,-0.0145286,-0.0261598,-0.0844592,0.0984935,-0.0911272,-0.0638147,-0.132352,0.0794123,0.102677,0.0329143,-0.155521,-0.133233,-0.143982,0.112198,-0.118695,0.153097,-0.059079,-0.135451,0.0471448,0.095994,-0.0129028,-0.0970651,-0.031877,-0.0218092,-0.000255685,-0.108543,0.146214,0.112026,0.0173982,0.0857826,0.0291479,-0.00931729,0.105628,-0.0113785,0.137621,-0.0910014,-0.107749,-0.110101,-0.0892569,0.119205,-0.0630598,-0.0530849,0.0549228,0.0920798,-0.107085,0.0270272,-0.090938,-0.0523586,0.00991038,0.0850207,0.0519741,0.0280693,0.100446,0.0647191,0.0234107,0.145023,0.136473,-0.000665525,0.0249258,-0.0276696,-0.0628848,0.0674693,0.122988,-0.0532043,0.0904725,-0.0693748,0.0531966,-0.00833608,0.0397012,-0.134597,-0.0209189,-0.0134692,-0.134868,-0.145341,0.096769,0.113895,0.123088,-0.0929171,-0.143541,-0.133003,-0.0572031,0.0620016,0.0796374,0.042609,-0.113884,0.0327013,0.0848409,-0.110239,0.0333521,0.0479064,-0.08464
-0.0186853,-0.0447513,0.0808097,0.148107,-0.151733,0.0949252,-0.0369619,0.0627253,-0.101987,0.122777,0.120494,0.0758541,-0.0341775,0.130672,0.0908375,0.0568913,0.119299,0.00158359,0.0372351,0.00465058,-0.0303481,0.0346572,0.0984852,0.0704923,0.0790214,-0.0997424,0.0952559,0.0860349,-0.0356025,-0.0875092,-0.122308,0.0591017,-0.0773945,0.11444,-0.123165,0.0456462,0.0854181,0.0459867,0.0795388,-0.0791216,-0.113428,0.109164,0.122016,0.131979,0.0294502,-0.0186674,0.0920349,0.130063,-0.133653,-0.0774972,0.100957,0.0729463,0.0467933,-0.0633682,0.0842881,0.0542901,-0.0627638,0.0298203,-0.0564812,0.0950166,0.0357691,-0.0340467,-0.121642,-0.0469199,0.00788793,0.0533459,0.0203783,0.142146,0.0991362,-0.177601,-0.0719238,0.06911,0.130121,0.0877228,-0.0486958,-0.00425592,-0.0529343,-0.0600862,-0.0379592,-0.133729,0.126596,-0.0796522,-0.0389216,-0.0429236,0.122298,-0.00171576,-0.124554,-0.00574438,0.105112,-0.0433679,-0.0861731,0.0968054,-0.127948,0.131895,0.0488036,0.0535049,-0.0958599,0.0334702,0.111042,0.136594,0.051368,-0.0126339,0.00162515,-0.117779,0.0364025,0.0606683,-0.00890558,-0.123696,0.0474091,-0.0505109,0.0643739,0.0596942,0.0191714,0.130557,-0.0486197,0.0140751,0.156399,0.0185869,0.136913,0.118912,-0.0825226,0.118469,0.041386,-0.108631,-0.0149254,0.115075,0.0848371,-0.0586063,0.00044333,-0.0788741,-0.0829775,0.059563,-0.0529104,0.0473481,0.167945,0.0783143,0.113978,-0.0902905,-0.0645612,-0.0518672,0.035377,-0.00704941,0.138844,-0.116367,-0.0239073,-0.0173645,0.120505,0.139507,-0.0817846,0.150879,-0.0721138,-0.00704468,0.131651,0.0532508,0.172897,-0.143599,-0.142959,0.0361911,0.037457,-0.0378769,0.139407,0.0986682,0.113483,0.0510698,0.0958167,-0.083107,-0.0139281,0.126983,0.0640821,-0.0905202,0.0233958,-0.0642621,0.151028,-0.0354186,-0.00139342,-0.0195047,-0.110376,-0.0690443,0.171211,0.0223889,-0.121728,-0.0267237,-0.0884701,0.123373,0.0347678,0.109725,-0.0752631,0.150933,0.140787,0.0623456,-0.121647,0.0033634,-0.0993563,0.118476,0.00445581,0.109054,0.108058,0.140642,-0.0815836,-0.0906149,-0.0678334,-0.133209,-0.140096,-0.0579007,-0.0337658,0.11711,0.0211307,0.0921975,-0.116942,0.0994702,0.10517,0.119712,-0.0651241,0.00496433,0.109796,-0.0580279,-0.0401665,0.104731,0.0768977,0.100807,0.00645267,0.113893,-0.0436537,0.114494,-0.0841952,0.166585,0.0965941,0.053363,-0.0971632,0.0670922,0.0329697,-0.0703967,-0.130663,0.0254899,-0.165159,-0.0634195,0.0914948,-0.0697203,-0.0429477,0.133611,-0.0796398,-0.0321457,-0.0908609,-0.112084,0.0671865,-0.0836668,-0.0439122,-0.0722882,-0.0882513,-0.12574,-0.0749273,0.110479,0.0840777,-0.0572499,-0.0477571,0.0818833,0.13382,0.038869,0.0151408,0.0976959,-0.0346377,-0.0896686,0.000256068,0.0219629,0.137769,0.0592046,-0.0110727,0.0221211,-0.0953316,-0.0257964,0.0897756,0.182349,0.0751849,-0.0977377,0.0750537,0.038365,-0.106306,0.0971619,0.1028,0.10675,0.0262563,-0.13159,-0.0932762,0.117131,-0.0355568,-0.076565,-0.102609,-0.0512202,-0.00280103,-0.017904,0.00836009,-0.121146,-0.130827,-0.0215354,0.012814,0.125804,-0.0500608,-0.0507329,-0.0750452,-0.136078
-0.0840015,-0.0937203,-0.0589939,-0.000187227,-0.0305116,-0.0797808,-0.104291,0.100968,-0.11288,-0.0826166,-0.0994482,-0.0523121,-0.0733074,0.0216216,0.129761,0.135285,-0.0267818,-0.134698,0.0774129,-0.00136862,0.136259,0.0178665,-0.0705179,-0.00604388,0.0887182,-0.113421,-0.0301495,-0.0534714,-0.0494663,-0.072006,0.00809369,-0.0605009,-0.0844478,-0.0669808,-0.004739,-0.139681,-0.0430047,0.0826417,0.136989,0.00629482,-0.0444782,0.0722215,0.0101781,-0.133707,0.0470564,-0.0937619,-0.00643561,0.139616,-0.0964539,0.0920648,-0.089911,0.0172746,-0.0592512,0.137491,0.0780824,-0.0198247,-0.08352,-0.0437568,-0.0644458,0.0928448,-0.0402491,0.0334338,-0.0167885,-0.0392189,0.0369884,-0.0350067,-0.13116,0.121009,0.027158,-0.0245708,-0.0518001,-0.00636436,0.0453216,0.110785,0.0623715,-0.0697555,-0.122156,0.140834,0.0816361,-0.0597525,0.0023559,-0.029284,0.0531738,0.0884757,-0.0643376,0.0589763,0.118592,-0.0739446,0.123561,0.0655063,-0.0364374,-0.0459565,0.107497,-0.077986,-0.0658914,-0.0806356,0.0987828,0.133839,0.0946331,0.136159,0.0599708,-0.00109783,-0.0286947,-0.0374037,0.0706571,0.0279354,0.00364677,0.12942,-0.0718844,0.102055,-0.0552257,0.107557,0.0250566,-0.0332726,-0.0742354,0.000809142,0.0378801,0.0741723,-0.0836037,-0.00435985,-0.0218144,-0.0526879,-0.0730764,-0.128463,-0.105448,0.135067,0.00241459,0.0133833,0.0452601,0.0860348,-0.0137685,0.037581,0.0835246,-0.11158,-0.0247521,0.0739064,-0.0105964,-0.0796992,0.0493468,-0.0704342,0.0929651,0.125744,-0.113506,0.132732,0.109522,-0.0827552,0.10968,-0.125759,0.0071266,0.0644921,0.125457,-0.0406635,-0.0387661,-0.055524,-0.111729,0.115199,0.0962491,0.106664,-0.0885588,-0.116895,-0.134319,0.0780789,-0.0116496,0.0422574,-0.0273758,-0.0593833,-0.0167839,-0.0353736,0.118341,0.0569803,0.0491803,0.0279125,-0.0643954,-0.018078,0.0608219,0.0119468,-0.106608,-0.0656952,-0.126793,-0.0899039,0.0608067,0.0328381,0.0484853,-0.0101094,0.0439585,0.0258598,-0.130824,0.00454427,-0.106887,0.0475771,-0.0458102,0.0674784,0.106828,0.136604,-0.0819184,-0.0363193,-0.064532,0.111353,-0.094864,-0.0146515,-0.0202798,-0.0257718,0.135716,0.0752849,0.0944328,0.116783,0.102731,0.0904295,0.0754811,0.102262,-0.0821643,-0.00253479,-0.00844288,0.130941,0.0789499,0.0555417,0.0649842,0.117067,-0.135726,-0.077129,-0.0997265,-0.1045,0.108806,-0.124763,-0.128674,-0.118162,0.0235022,0.0129803,0.0118674,-0.0463684,-0.0868876,0.130737,0.0148106,-0.0333777,-0.119598,-0.136357,0.133692,-0.120369,0.0495748,-0.0335756,0.0494378,-0.126928,0.117839,-0.00107943,-0.00662219,-0.0481329,-0.0677872,-0.107859,-0.0401555,-0.0302042,-0.0937679,0.0788895,0.0351196,-0.0792237,0.0174646,-0.0621534,0.011594,-0.00995491,-0.0340542,0.0196894,-0.0981263,-0.0859915,0.117827,-0.0529318,-0.11755,0.114081,-0.131065,-0.015163,-0.00673312,-0.0192481,0.100081,-0.0933046,-0.117409,-0.0844695,0.0346385,-0.0323132,-0.0793017,0.0792864,-0.0280213,0.0668188,-0.0667284,-0.0332004,-0.121564,-0.0224525,-0.0852549,-0.047179,0.0983585,-0.0409287,-0.118966,0.0651789,0.0350219,0.109802,-0.0382418,-0.0734086,-0.00877424,0.0886236,-0.00823638,0.10988,-0.0701863,-0.0788166
-0.126255,-0.0864822,0.0871662,-0.0214392,0.12415,-0.0153906,0.0272414,-0.0235383,-0.0309111,0.107491,-0.119302,0.126338,-0.124404,0.14026,-0.130581,0.0570599,-0.0372831,-0.0461349,0.0741272,0.0191021,0.0584169,0.0180336,0.0576669,-0.0726448,-0.0419693,0.0640393,-0.0359872,0.00583571,-0.056329,-0.0236366,0.000878394,-0.00491325,-0.0453549,0.0574624,-0.0227544,0.132097,-0.0626707,0.01286,-0.0749576,0.0533295,-0.0925526,-0.100135,-0.137668,0.0784955,-0.118946,-0.120363,0.0368221,0.140818,0.128419,-0.0492782,-0.135778,-0.0737913,-0.0648029,0.0465523,-0.103342,0.0345567,0.120639,0.0541953,-0.0194577,-0.0701591,0.11429,-0.102945,-0.0148194,-0.0471874,0.082546,-0.0810297,0.0631102,0.0491979,-0.0182668,0.0927676,0.114077,-0.011515,0.0350878,-0.0968285,0.108933,0.0914836,-0.0232979,0.0653882,0.11151,-0.126496,-0.070724,0.0302772,0.131134,0.0802585,-0.0420944,-0.12869,0.10127,-0.127166,-0.0930352,-0.0648428,0.139634,-0.0967244,-0.0848539,0.0512404,0.122399,0.124514,0.0351593,0.0778821,0.130934,0.093513,0.06091,0.00924463,0.111423,-0.113207,0.101002,0.0750529,-0.147503,-0.110141,0.0338684,-0.099607,-0.122126,-0.0692642,0.0990203,-0.0932678,-0.0130399,0.0272713,-0.043603,-0.00148054,-0.124359,-0.00192801,-0.118527,-0.0904459,0.0404363,0.125052,-0.069794,0.131456,0.127782,0.0594845,0.0482976,-0.119801,-0.105834,0.0142323,-0.0144391,-0.127352,0.0793337,-0.0533523,0.0925336,-0.0421257,-0.132675,0.118553,0.115926,0.111729,0.0463375,-0.0744834,0.0416116,-0.118674,0.0384317,0.0156261,-0.0546793,0.00246394,-0.107603,0.0979482,0.10911,-0.133206,0.113934,0.102437,-0.148683,0.120165,-0.0116518,-0.0194222,0.0593756,0.0743891,-0.0362046,-0.0498335,-0.0917203,-0.0207649,0.0235051,5.95825e-05,-0.113903,-0.0207005,0.110347,0.0225164,0.0870445,-0.0785661,0.145692,0.0963057,0.000587078,-0.0421669,-0.0513281,-0.0375717,0.0577843,0.0765827,-0.0830787,0.0967739,0.101827,0.0213866,0.0863456,-0.00309561,-0.073965,0.11235,-0.0966905,-0.0495469,-0.00556351,0.0828725,0.0259921,0.168879,-0.108658,0.0276799,-0.105784,-0.0415828,0.132702,0.0735006,-0.0606252,-0.0164707,0.00939432,-0.0527728,0.0794487,-0.00947331,-0.003658,0.0453856,0.0716979,-0.130744,0.0195694,0.124285,0.0732771,-0.0334583,-0.0806019,-0.00216194,0.0341666,0.0569793,0.139902,-0.125264,0.0624117,-0.0404336,0.037444,-0.0468064,-0.0777032,-0.0254517,-0.0947691,-0.0309339,-0.0356419,0.0556785,0.044608,-0.0532076,0.0195702,0.0308121,-0.104142,0.00662284,-0.0289938,0.0962731,0.0490453,0.111044,0.0162309,-0.0395649,0.0849806,0.0516725,-0.0551846,0.0101926,-0.0524688,-0.0861483,-0.118511,0.0791665,0.0364161,-0.0195034,0.103494,-0.142649,0.140504,-0.01363,0.105118,-0.108263,-0.0278568,0.0295535,-0.0325879,-0.0289328,0.0431371,0.136346,0.010788,0.0870318,0.00839241,-0.000302884,-0.0957883,0.0938129,-0.034469,0.136903,-0.0618828,-0.1217,0.0220688,-0.0844235,-0.0763366,-0.00352048,-0.0218258,0.0451217,0.0643115,0.023325,0.118765,0.127001,-0.0202582,0.0527394,0.133035,-0.0161944,-0.0447267,-0.0459491,0.0373869,0.0846138,0.0571303,-0.00823179,-0.14866,-0.0552801,-0.0177275,0.00436467
0.00178624,0.031393,0.0437225,0.0122599,-0.08215,-0.00537042,-0.132698,0.108153,-0.0686848,-0.0178285,0.0999731,0.0151527,0.0526637,-0.00449368,0.147165,0.0317631,-0.0452236,-0.0799346,0.0556697,0.0967074,0.0166028,-0.0339247,-0.079833,0.123341,-0.0804861,0.0202054,0.0643086,0.0448258,0.158407,-0.0656054,-0.117543,-0.107398,0.150696,0.132667,0.0720201,0.108491,-0.116444,0.0393358,-0.143077,0.0264677,-0.0319315,-0.0203722,-0.0407038,-0.0124048,0.0273558,0.0308749,0.0922894,-0.0244653,-0.00567762,0.0734539,-0.0995183,-0.0936719,-0.0621025,-0.000928037,0.0449052,-0.153448,0.0841107,-0.0920657,-0.111894,-0.0421786,-0.0436918,-0.0982253,0.121422,0.109805,0.105049,-0.0842026,-0.0955122,-0.0438884,0.124242,0.0990535,0.0218402,-0.107941,0.139281,0.049329,-0.135168,-0.0423802,-0.0942892,-0.133295,0.0815198,-0.0341773,0.0583251,-0.0136981,-0.00526402,-0.126185,0.0303483,0.0125475,0.0891144,0.137653,-0.0350978,0.123854,0.0451211,0.0990694,-0.0522219,-0.0846226,-0.0770278,0.0688909,-0.102424,-0.0703633,-0.0747587,0.128949,-0.047075,0.123526,0.0554827,-0.0297196,0.0357989,-0.0400847,0.0489011,-0.0108794,-0.0561351,0.0746729,0.152558,-0.0574882,-0.0868725,-0.0659119,-0.0977655,-0.0344201,0.0105567,0.110201,-0.040914,-0.0537343,0.0452765,0.0659161,-0.0153495,0.0573481,0.114696,0.00527257,0.120675,0.0621138,0.0721483,0.10174,-0.0527883,-0.0780051,-0.0963909,0.0572802,-0.136551,-0.0833351,0.0351055,-0.0875513,0.0601455,0.0460564,-0.0676653,-0.109642,0.0131473,0.0994845,-0.116151,-0.114308,-0.0439817,0.126019,-0.000736415,0.157114,-0.0979215,-0.109732,-0.00765565,-0.0427745,-0.0693871,-0.127823,0.107103,-0.101536,0.134484,0.128439,0.0656714,0.125356,0.126352,-0.169013,-0.0800234,-0.0676762,0.119294,0.106254,0.0395846,-0.103623,0.103381,0.122975,0.0985667,-0.0108796,0.117066,-0.105084,0.156731,-0.0541626,0.123566,0.112073,0.0184413,0.121754,-0.114013,0.130903,0.059136,-0.0514922,-0.00481324,-0.0114937,0.0167203,0.0364931,-0.000428008,0.0253554,0.125462,-0.0309587,-0.0562837,-0.0734896,-0.121244,-0.0452395,-0.0801273,-0.054658,-0.00281613,-0.0929781,0.0958553,0.0807757,-0.112359,-0.14456,0.0295358,-0.135579,-0.0709277,-0.0719122,0.0420394,-0.13777,-0.149774,0.105541,-0.140822,0.0865602,-0.051429,0.100507,0.110981,0.096162,0.131323,0.0704091,0.0392455,-0.121113,0.0640142,-0.0819967,-0.00121807,-0.0962525,0.0660224,0.0943209,0.021216,0.0258138,-0.00246309,0.1214,-0.147122,0.104364,-0.0231426,0.126913,0.0324745,0.0757088,-0.00266472,0.0111523,-0.0468705,0.0806768,-0.0882517,0.0395806,0.0847907,0.0236227,-0.0561403,-0.0165095,-0.0412644,-0.0798406,-0.110902,0.0565933,0.108464,0.134384,0.0293054,-0.139286,0.116145,0.115141,-0.0431223,-0.00837216,0.0206801,0.032753,0.128426,-0.144832,-0.0625708,0.0382804,0.0297699,-0.13597,-0.0947428,0.047197,0.103166,-0.0155018,-0.0725282,-0.0404889,-0.029164,0.0272778,-0.0576877,-0.0372635,-0.151796,-0.0591731,0.108658,0.0945404,0.0290774,0.147358,0.0484281,0.00191678,0.079388,-0.0550466,0.0493269,0.0151028,-0.0413699,0.102944,0.029813,0.101008,-0.0722219,0.00576386,0.119164,-0.089401
-0.141252,0.0555601,0.0144871,-0.110746,-0.0281161,-0.109953,-0.0308101,-0.11568,-0.0626693,0.0888361,0.110702,0.0142057,-0.0299746,-0.00133027,-0.0486524,0.0839774,3.75375e-05,0.00569953,0.110539,-0.0401142,-0.0841706,0.130822,-0.104421,0.174508,0.0796694,0.168386,-0.078307,-0.0708113,-0.0180536,-0.0237993,-0.00606537,-0.0555764,0.0898333,0.0116488,0.0472664,0.00547692,0.106569,-0.106444,0.0839963,-0.0509318,-0.0867705,-0.131186,-0.121095,0.0619045,0.0356349,0.0858371,-0.134626,0.0824932,0.122028,0.137908,-0.0293612,-0.106641,0.112437,-0.0445387,-0.072464,-0.0438354,-0.0787741,-0.0280118,0.0448873,0.109336,0.0884737,0.120568,0.0388271,-0.0585193,0.0952068,0.106606,0.109617,-0.120685,0.0498919,0.0960562,0.0125682,0.0155397,-0.0420282,-0.0254227,-0.128152,-0.0620032,0.11024,-0.114021,-0.0763372,0.121293,0.0868525,0.0489187,0.161101,-0.0645051,0.0482982,-0.1365,0.0894352,-0.0541963,-0.034518,-0.00149844,-0.0979891,-0.0438691,-0.0213756,0.0584895,-0.0272279,0.0987959,0.00570572,-0.0926092,-0.145816,0.118724,0.160393,0.0607962,-0.0160837,-0.0989361,0.130636,0.0620389,0.0472511,-0.0780554,-0.131596,-0.0619745,-0.0442702,-0.108645,0.0574655,0.014971,0.154528,-0.0683251,0.00491761,0.100851,-0.078745,-0.0259458,0.0904106,-0.0875763,-0.010475,0.00531762,0.136717,-0.104576,0.05452,0.142866,-0.00726494,-0.0257752,-0.00271182,0.0835141,-0.0272396,0.124284,-0.0991362,0.00773369,-0.130294,-0.0688313,0.0580611,0.100566,0.1116,-0.0114547,0.110055,-0.144541,-0.0235227,0.105176,0.127105,0.0404336,-0.0150146,-0.0103896,0.093831,-0.105123,-0.0677369,0.0787492,-0.00392495,0.000990724,-0.00444948,0.040763,-0.0268778,-0.0842306,0.0412914,-0.0053656,0.0453777,0.0992381,0.0661915,0.114279,0.0790993,-0.111361,0.0640057,0.100129,-0.0330264,-0.0504978,-0.0837795,0.109314,-0.035479,0.112364,-0.014936,0.12561,0.164705,-0.00732247,0.0390187,0.12083,-0.0329871,-0.00333743,0.137181,-0.106802,0.107112,0.152761,0.032375,-0.132152,0.0442804,-0.0840588,0.0971056,0.110533,-0.0494952,0.0333234,0.0149297,0.119564,0.0968178,0.149088,0.00393652,0.0180001,0.0191695,0.0121124,0.107685,-0.116622,0.149103,0.0622997,-0.12745,0.101393,0.106381,0.00252508,-0.117569,0.119056,-0.0664833,0.118656,-0.0817485,0.117499,0.0519207,0.0108762,0.125714,-0.00700908,0.0124771,-0.023125,-0.110945,0.0953263,0.127224,-0.0751968,0.0522922,-0.10162,0.0483813,-0.107443,-0.069816,0.120861,-0.0102938,-0.0890081,0.016417,0.0833197,0.0921534,-0.0365834,0.0106293,0.106893,0.0878577,0.0899698,-0.108111,-0.0288074,-0.0263131,-0.0147967,0.118505,-0.061049,-0.0267693,-0.09546,-0.13388,-0.0976409,0.0492509,-0.0966852,-0.0745265,0.164667,-0.0405915,-0.12924,0.0211422,-0.021819,-0.0383782,0.0418538,0.0506853,-0.090506,0.0099771,-0.0148774,-0.0782845,0.0241852,-0.0328445,-0.127983,0.137401,0.0175058,-0.130143,-0.133222,0.0619057,0.0441967,-0.0375032,0.0796477,0.0972783,0.131506,-0.0101543,0.0924782,-0.0233443,0.0251993,0.0250976,-0.0454174,-0.14263,-0.00327335,0.0916006,-0.0509162,-0.0309186,-0.0632246,-0.0652382,-0.104225,-0.125121,0.117866,-0.0632471,0.139096
0.0382632,0.111081,0.105261,0.130548,-0.0314188,0.00920157,-0.112784,-0.060318,-0.0455604,-0.157316,0.147231,-0.0366361,0.109101,-0.0458201,-0.132705,0.115451,0.00597608,-0.102696,-0.140683,0.0564474,-0.0207707,-0.106486,-0.00108779,0.1551,0.00623784,0.115022,0.00945358,-0.131941,0.128296,-0.0615707,0.00214083,0.136176,0.18098,-0.0684486,-0.116091,0.0172052,-0.0640142,0.121489,0.0112319,-0.13377,-0.0875336,-0.0655688,0.105897,0.176558,0.136284,0.123142,-0.11533,0.103065,-0.0766882,-0.0853538,0.00160521,-0.033355,-0.0887397,0.0504057,0.12091,0.0162138,0.0686955,0.0548736,-0.0753344,0.00109266,0.0419241,0.0799675,-0.0290522,0.0158861,0.0961799,-0.0723289,0.100222,-0.132365,-0.122811,0.16752,0.117733,0.00251995,-0.0127909,0.108503,-0.0560224,0.0397975,-0.0599359,-0.141831,-0.0618925,0.0682184,-0.061289,-0.0762338,-0.10823,0.0624646,0.0833979,-0.121548,-0.0649298,-0.104835,0.0952305,0.133069,-0.0393657,-0.00225488,-0.0811641,-0.0550231,0.0219744,-0.0272826,0.000190655,0.101765,0.0890357,0.0727797,-0.0434295,-0.12335,0.079936,0.105619,-0.00956608,-0.0500097,0.0435817,-0.071643,0.110891,0.0225443,0.0647435,0.0448414,-0.136477,-0.00237471,0.0321787,0.0671189,0.0720756,-0.0667784,-0.119031,-0.132374,-0.106787,0.0171564,-0.126305,-0.0420618,-0.0036007,-0.153051,-0.0770225,0.0627487,0.0207307,-0.0697549,-0.137748,-0.0823808,0.0511392,-0.0930918,0.00244138,0.124283,0.0816611,0.0811198,-0.126072,0.103049,-0.0970477,-0.00528536,-0.0760883,-0.0337001,-0.137533,0.0867653,0.105826,0.0631939,0.115202,-0.133031,0.0231068,0.0376857,-0.0338239,-0.0312488,0.0292674,-0.036051,0.143087,0.142974,0.116274,-0.000771393,-0.108095,-0.0949273,0.0490892,0.0167498,-0.0434696,-0.134051,0.0111538,-0.0401296,0.0606379,0.155462,0.0253029,-0.0131416,-0.114188,0.132038,0.106499,0.00775116,-0.0790468,0.173207,0.0804298,0.123065,0.121884,-0.1029,-0.102132,0.0980009,0.0498514,0.0626772,0.115899,-0.114876,-0.0382009,-0.0322766,0.0256138,-0.111782,0.0671704,0.0929312,-0.0433361,-0.152694,0.0627727,0.00886167,0.0839365,0.123848,-0.170005,0.0178737,-0.0912477,-0.119206,0.14595,-0.0142375,0.124958,-0.0643588,0.0847272,0.117088,-0.0175896,0.155808,0.0354862,0.100121,0.059389,-0.0668346,0.0830042,0.106122,-0.00597305,0.139906,-0.129402,-0.0245557,-0.0352462,0.0153721,0.0212026,-0.150392,0.0692991,0.0535189,0.102402,0.125168,-0.106738,0.107173,-0.0829434,0.0583533,0.164907,0.113762,0.0147992,-0.140355,-0.105749,0.06962,0.096592,0.0456332,-0.126627,0.0128676,0.00411041,0.025164,-0.0307301,-0.0647529,-0.0255737,0.0515364,0.113715,-0.126679,-0.124127,0.0630744,0.0395839,-0.121965,0.0948241,0.0381319,-0.0831813,-0.0463461,0.0730506,0.00363036,-0.061141,0.0729497,-0.0913836,0.106059,-0.0658949,-0.0463865,0.115584,-0.0830806,0.153342,-0.0899919,0.0484576,-0.0943995,0.0975239,0.112451,0.024675,0.0335653,-0.04057,-0.0741318,-0.0177196,-0.131786,0.0709641,0.0827422,0.048403,0.0777212,-0.0315152,0.067704,0.0515702,0.00729729,-0.0103052,-0.0377272,-0.0894099,-0.0199872,-0.0682643,-0.0729635,-0.0874702,-0.0971787,0.160615,0.0282002
0.0041977,-0.0445483,0.0266681,-0.14117,-0.0399964,0.00440692,-0.136977,-0.0445346,0.0320911,-0.0976804,-0.100474,0.00865208,0.0939995,-0.120076,-0.0760756,0.0116741,-0.0279732,-0.0786776,-0.0755028,0.0856956,-0.0694076,-0.117688,-0.0893271,0.0745272,-0.0562669,-0.145666,0.0923781,0.162274,-0.0800804,-0.0565205,-0.125711,0.0822277,0.076117,-0.151156,-0.0107562,0.0667571,0.0295095,-0.140051,-0.110661,-0.116298,-0.142521,-0.0495021,0.106929,0.0371432,0.0748539,-0.014758,-0.130132,-0.122912,0.0414719,0.0348631,0.0669947,0.00413442,0.00906786,0.088632,-0.129455,0.0593588,0.0596047,0.0862172,0.126387,-0.0130628,0.0347205,0.110635,-0.071929,0.0415368,-0.12776,-0.0122381,-0.0951541,0.0208299,0.00639849,0.0792468,-0.0998155,-0.114245,0.10087,0.0492391,0.118722,-0.013194,0.0671745,-0.00525687,0.00383556,-0.0268693,0.0660949,0.0321842,0.0106962,0.101531,-0.123032,-0.122136,-0.144634,-0.101155,-0.103288,-0.037012,0.0351537,0.0454313,-0.00829647,0.134226,0.0143538,-0.0637658,-0.0130495,0.0565599,0.136682,0.0744978,-0.0528388,-0.0582995,-0.093347,-0.0431701,-0.136631,0.0706542,-0.0173057,-0.0206412,0.0994927,-0.0383862,0.123035,0.157663,0.106402,-0.139913,0.0870453,0.0259014,-0.0439977,0.133727,0.00129804,0.126785,-0.0752445,-0.130686,0.0577551,0.117485,-0.0112985,-0.0653891,0.0378354,0.0236114,0.101768,0.028398,0.0745976,0.0642205,0.0864432,-0.105636,-0.0768379,0.13099,0.0601134,0.105356,0.104055,-0.0525,0.0207803,0.0748223,-0.127152,0.0887611,0.00965396,0.0311079,-0.139668,-0.14294,-0.0119343,0.038709,-0.0985753,0.138719,-0.0563761,0.0837077,0.0436006,-0.0317391,0.0175409,-0.134422,-0.0451485,-0.0504402,0.0771727,-0.091466,0.12683,-0.0255061,0.0211739,-0.0122504,-0.0264912,-0.0699916,-0.0719781,-0.0333238,-0.0472179,0.0279699,0.0910949,0.0296093,0.0366106,0.0822323,0.113247,-0.0324381,-0.0207208,-0.0720161,0.123903,0.0822413,-0.0652616,-0.132886,-0.0320209,-0.0636058,0.132464,0.0634986,0.0137776,0.0329248,0.141705,0.110186,-0.0322548,-0.0390537,0.0779663,0.147537,0.0740816,0.0499792,0.0865004,0.0535914,0.0328281,-0.0522249,0.0595347,-0.0751898,0.0459128,0.0813546,-0.142178,0.0600679,-0.0783293,0.0329093,-0.00266259,0.0577621,0.0831249,0.0295148,0.0215539,0.103106,-0.111759,-0.0646613,0.0449126,0.0986634,-0.0384425,-0.105622,0.123946,-0.108153,0.0730643,0.122778,-0.0485996,-0.136717,-0.0458683,-0.0782395,0.0997699,0.02313,-0.080844,0.046606,-0.012798,-0.0793526,0.0425195,0.0128324,-0.138359,-0.123606,0.0432921,-0.0699183,-0.0946223,0.136024,-0.114113,-0.0774293,0.0189115,0.100821,-0.0692793,0.123135,-0.00902936,-0.0348529,-0.0964341,0.078885,0.125823,0.139672,0.0178694,0.0830335,0.00616145,-0.102445,-0.0489782,0.0555263,0.0339801,-0.0253382,0.012385,0.149828,-0.115847,-0.0503419,0.0113366,0.0134348,0.142581,-0.111056,0.106024,-0.107064,-0.118821,0.0766783,0.0920142,-0.152223,-0.114126,-0.0253758,-0.0342543,0.0443946,-0.125323,-0.0117514,0.147312,-0.0638572,-0.0257712,0.0175051,-0.0325977,-0.0910025,0.115308,0.11952,0.109813,-0.12661,-0.0125776,-0.0104514,-0.0055567,0.093187,-0.0355245,0.0834509
0.094414,0.1168,0.0671799,-0.00305835,-0.0612695,-0.0925112,-0.044059,-0.111909,0.0458495,0.0647382,0.0456935,-0.0862357,-0.0515921,0.122353,0.0253586,0.0961329,-0.00464589,-0.0489653,-0.111765,-0.00530534,0.00289486,-0.075259,-0.075187,-0.117177,0.0890941,0.0407739,0.0642077,-0.0121324,-0.00805482,0.147716,0.0125242,-0.135431,0.0622156,-0.120169,0.0717311,-0.0461695,-0.111493,0.031543,0.109473,0.0832408,-0.0262255,0.127987,0.0275382,-0.0886891,0.131765,0.0749557,0.0671515,-0.135466,-0.10223,0.0529857,0.00953499,-0.0318749,0.0698247,0.117889,0.117996,-0.154645,0.124566,-0.000604421,0.068977,0.00820964,-0.0426047,0.0807546,0.0332119,0.0269798,0.130525,-0.137,0.00615017,0.0233442,0.140244,0.0231475,-0.0435712,0.0388665,0.0356701,-0.0936933,0.0238076,0.0369149,0.0763347,0.0993373,-0.133139,-0.10151,-0.051486,0.0730367,-0.0564366,-0.13311,0.0701428,-0.0246447,-0.138536,0.0210459,0.0241272,0.0143797,0.103733,0.000200443,-0.0536324,0.0911646,-0.0855765,-0.143921,0.133089,-0.127088,0.0887409,-0.00688478,-0.0156497,0.072647,-0.00212366,0.117608,-0.015118,-0.0372882,0.0622321,0.0428759,0.089606,-0.0590548,0.0249359,0.000812929,-0.00599273,0.0411964,-0.00247319,0.123537,0.0400722,-0.0197103,0.0624614,0.0638326,0.136162,0.0795442,0.0903666,-0.110597,-0.136764,-0.0219361,-0.118196,-0.0887729,-0.13745,0.11986,0.0361641,0.0419867,0.0917479,-0.0216766,0.0478464,-0.0953816,-0.13849,-0.112696,0.000747083,0.0702992,-0.061885,0.112969,0.0218014,0.0518676,0.0475973,0.124206,-0.0651578,0.102553,-0.02389,-0.00460695,-0.0377793,-0.126101,0.123446,0.0342623,-0.163847,-0.0610481,-0.0822816,0.127416,0.0998766,0.090427,-0.00340202,-0.0148114,0.104967,-0.0861652,-0.114163,-0.0297908,-0.00327948,-0.0263619,0.0419808,-0.0667271,0.0871299,-0.0665961,-0.0560588,-0.0639998,0.0159787,-0.0726942,0.0195168,-0.119466,-0.0666577,-0.0877072,0.00951987,-0.0596568,0.113974,0.092551,0.130385,0.112405,0.104134,-0.0843327,-0.127529,0.133812,0.0996416,-0.080031,0.109473,-0.00943614,0.0791524,-0.00772633,-0.0838401,-0.139835,-0.0711529,-0.0764918,0.000111919,0.0644718,0.0215139,0.0562855,-0.0959319,-0.0139353,0.0148637,-0.0910639,0.0237702,0.1194,0.0808971,-0.0543458,-0.0440903,-0.0782526,-0.132427,-0.116851,0.124229,0.0589365,0.131628,0.0577233,0.0944547,0.0607554,-0.0262731,0.0833865,-0.00850677,0.0554355,0.00574886,0.128495,-0.0894111,-0.0874477,0.131885,-0.126779,-0.135464,0.0194707,0.143323,0.122045,0.00810708,0.140084,0.0393063,0.136873,0.0245171,-0.134475,0.126687,0.0538956,-0.11004,0.0408301,-0.0353136,-0.100516,0.031655,-0.06678,-0.0596789,-0.02411,-0.0194332,-0.0822033,-0.0317623,0.0593155,-0.00614811,0.106329,0.117569,-0.144886,0.0221104,0.0964839,-0.114735,0.0656192,0.0844247,0.0466778,-0.0327889,0.0205962,-0.101564,-0.063315,-0.0489815,0.0930015,0.014187,-0.129966,0.0694314,-0.124942,0.0306549,0.058855,-0.106028,0.0679278,0.0786355,-0.0532948,0.0321668,-0.0156651,-0.0180387,-0.131785,-0.0559667,0.0909458,0.114029,0.0200001,0.112664,-0.114269,0.0339353,0.0544559,-0.143102,0.0292396,-0.106675,0.0930393,-0.0766616,0.097341
0.0021095,0.0841501,-0.0154963,0.125207,-0.110582,0.0241314,0.056805,-0.112896,0.0365913,-0.00359582,0.0980409,-0.057639,0.148628,-0.050582,0.138256,-0.118442,0.0367301,-0.0466434,-0.0965558,-0.0400311,0.0874912,0.122194,-0.09609,-0.0690975,0.078382,0.117919,0.0502807,-0.0230162,0.0970606,-0.0455186,-0.00813114,-0.00360713,-0.103463,0.10952,-0.0381178,-0.0404908,-0.0729648,0.0136078,0.0573659,0.113881,0.0660744,0.123781,0.00786303,0.137089,0.0973618,0.048223,0.0665631,0.0498308,-0.0446595,0.175928,-0.0669969,-0.106557,0.0497875,0.122848,-0.0529559,-0.0903705,-0.00846455,0.040728,0.106924,-0.132267,-0.107641,-0.092796,-0.120866,-0.00385487,-0.122984,0.00988564,0.0770404,-0.0737116,0.128919,-0.113879,0.0478972,-0.0747691,-0.0111612,-0.0384084,-0.0614146,0.0646565,0.0460611,-0.0690772,-0.0882912,-0.115637,0.101319,-0.0998138,-0.104143,-0.0637117,-0.096343,-0.0407244,-0.0722998,0.047876,0.100461,0.145384,0.0559555,-0.0932591,-0.0120218,-0.0299199,-0.035754,0.147164,0.0450921,-0.0928148,-0.0800531,-0.0622103,0.0980095,-0.0428805,0.0241303,-0.0409862,-0.100192,-0.129034,-0.0219289,0.00466008,-0.071035,0.0430062,-0.0716071,-0.143287,0.160051,0.0259297,0.110143,0.154427,0.0845125,-0.138489,-0.0392912,0.0165467,-0.108188,-0.0866899,0.107531,0.0941338,0.137163,0.11617,-0.0737132,0.118387,0.030698,0.0641961,-0.0221434,0.0144029,-0.0637105,-0.115622,0.199483,-0.0877703,0.0849357,-0.101448,-0.11348,-0.0839772,-0.109507,-0.140764,0.179891,0.129982,-0.135047,0.0526018,-0.127208,-0.0827575,-0.0868968,0.114539,-0.110287,-0.0720337,-0.139953,-0.106598,0.135063,0.0455842,0.0282786,-0.0645184,0.0411444,-0.091125,-0.123372,-0.0384154,-0.021276,0.0600981,-0.105023,-0.0389887,-0.00464551,0.117341,-0.0538925,-0.0706149,0.110856,-0.0693695,0.116207,-0.0242417,0.156634,-0.10319,0.11606,0.0515134,-0.00265424,-0.00985524,0.0566505,0.127693,-0.0548443,0.10474,0.104676,-0.116662,-0.0434103,-0.0437385,0.0843545,-0.0707993,0.0103637,-0.0463869,-0.030562,0.0513855,-0.0195351,-0.0380196,0.0843624,0.057991,0.0939102,0.142064,-0.0145166,-0.0309767,-0.0870912,0.112541,-0.0562397,0.130226,0.0687691,0.0453553,0.0154336,0.148116,0.019403,0.0136913,-0.0659505,-0.0530254,-0.099942,-0.121266,0.141743,0.0985457,-0.108768,-0.0949347,0.120172,-0.0181003,0.0494757,0.143906,0.152124,-0.0288923,0.0859273,0.0867703,0.0674002,-0.0346805,-0.049599,0.0764934,-0.105165,0.02329,-0.122552,0.0177711,-0.0464818,-0.122215,-0.0866642,-0.0512217,0.0856643,0.0921839,0.0587089,-0.0998111,0.131961,-0.106898,-0.113966,0.112965,-0.0636972,0.0414635,-0.0765448,0.0859368,0.107111,0.116399,-0.121235,-0.0987826,0.135474,0.0621542,-0.103867,0.0625183,-0.105325,-0.120612,0.138563,0.161161,-0.0930644,0.0113382,0.0680381,0.0665427,0.00983316,-0.102719,0.105074,-0.047615,0.0552847,-0.0760219,-0.0326425,0.00518069,-0.0604739,-0.00716992,0.0824673,0.12445,0.10036,0.116881,0.0698086,0.0477505,-0.0729546,0.127128,0.0183991,0.112892,0.0129926,-0.0134257,0.0574193,-0.0592103,-0.0582666,0.0518411,0.0129503,-0.0820538,-0.0790465,0.0182866,0.0859345,-0.0860914
0.0558539,0.105191,0.0453436,-0.141973,0.132456,-0.132378,-0.0440996,-0.102565,0.127962,-0.0358365,0.079918,0.0637571,0.0198213,0.124042,-0.00202175,-0.0869999,0.0528689,0.0539852,0.0387497,-0.129606,-0.04377,-0.0810228,0.127655,-0.0581001,0.105066,-0.0575295,-0.060781,-0.0878462,0.0510827,-0.0533802,-0.10289,-0.0543732,-0.00181533,0.0929484,0.0536375,-0.0320697,-0.035959,-0.145039,-0.0168009,-0.0769965,-0.034903,-0.0239361,-0.114613,-0.0574051,-0.00580064,-0.0912773,0.0658545,-0.00358705,0.119357,0.00121704,-0.0433673,0.069153,-0.0235472,-0.0141094,-0.131799,0.0902274,0.00271045,-0.128735,0.0607269,0.0879722,0.105211,-0.104444,0.131971,0.054094,0.0755429,-0.012616,-0.0911908,-0.131571,-0.0902933,-0.0361025,-0.0143171,0.094603,0.126456,-0.0507731,-0.133046,0.0897015,0.0471673,0.0993556,-0.118728,0.046542,0.129885,-0.0069131,0.00678491,0.0113047,-0.119427,-0.107012,-0.0835278,-0.0713589,0.127407,0.128606,-0.0985678,-0.120367,0.0134921,0.0186387,-0.0200818,-0.137071,0.128037,0.134188,0.106655,-0.085716,-0.0326136,0.0154052,-0.135921,-0.110445,0.0194445,0.12246,0.126108,-0.0827812,-0.13018,-0.0795149,-0.131954,-0.0589404,-0.0227995,-0.0201379,0.024202,-0.132805,-0.0460219,-0.115962,0.00870965,-0.0581402,0.0835754,-0.102423,-0.064901,0.0543171,0.0853633,-0.027458,0.0192966,0.0158455,-0.00836035,0.137324,0.080174,-0.0477475,0.130465,-0.0100144,0.045673,-0.0973395,-0.0353999,0.0909142,0.0434974,-0.111887,-0.017359,0.091061,-0.130846,-0.13713,-0.137601,0.10406,0.00703313,0.0722872,-0.0127577,-0.0852067,0.0237591,0.130743,-0.0410097,-0.0299451,-0.0883748,-0.0512682,-0.113784,-0.0638937,-0.0801219,-0.133081,-0.116626,-0.0877338,0.00734307,-0.0983396,-0.0520781,-0.0718363,-0.0696675,0.131014,0.0700254,-0.032612,0.100608,-0.105137,-0.0333763,-0.124032,0.0650722,-0.0947091,-0.0868298,-0.0691138,0.0899721,0.0667017,0.110298,-0.135768,-0.078387,-0.115302,-0.0500201,-0.064154,-0.114147,-0.0258615,-0.0552926,-0.00384449,3.77309e-05,-0.0854259,0.0633418,0.0318294,0.0190458,-0.0542037,-0.119649,-0.0863981,0.085546,-0.0172762,0.0570641,-0.00105772,0.0360323,-0.0607064,-0.0990295,-0.0258383,0.0831598,0.115729,0.0237544,0.061817,-0.00996907,0.0139309,0.0371025,-0.071429,-0.0675574,0.0692688,-0.14327,0.10399,-0.125734,-0.116096,0.134021,0.0164486,0.00666939,-0.119949,0.0893649,-0.12467,0.128403,0.0109445,0.0261791,0.0774165,0.109556,0.0455267,0.0521718,0.138402,0.0854882,-0.0157791,0.105597,-0.0579795,0.122012,-0.0733236,-0.116298,-0.0472495,0.107791,-0.0492967,-0.0945938,-0.0104024,-0.0380409,-0.0527344,-0.038455,0.0321313,0.0164355,-0.0913924,0.0792944,-0.0781378,-0.0823483,0.0556436,-0.0590808,0.0243074,0.0970288,-0.0208127,-0.034467,-0.0527538,0.0863753,0.127096,0.108293,0.0686712,-0.0673852,-0.017973,-0.131903,-0.08955,0.0512219,0.0902419,-0.010414,-0.0988906,0.132152,0.0821284,0.100614,0.0530711,-0.08156,-0.117707,-0.0130711,0.0266769,0.0762674,-0.0765773,-0.126646,-0.142156,-0.015519,0.0200017,-0.138152,-0.111827,0.00827097,0.0546901,-0.130727,-0.0804855,0.106104,-0.136199,0.0934649,-0.101466,-0.0766197,0.107231
0.0313928,0.0981732,-0.0400358,0.103449,-0.0425054,0.0553777,0.0778722,-0.00647598,-0.123127,-0.026886,-0.122665,-0.0540812,-0.00206858,-0.0704757,0.0731074,-0.0185831,-0.00580243,-0.0286929,-0.110312,-0.0880079,0.093804,0.0100714,-0.00491567,0.106493,-0.0522538,-0.0509011,-0.109158,-0.086658,-0.0683882,-0.130492,0.0970412,0.0794694,0.148745,0.167508,0.116835,-0.0493118,0.0422817,-0.164849,-0.126426,-0.0227083,-0.0614157,-0.0769983,0.0328931,-0.0801546,-0.126312,0.0223048,-0.0559126,-0.123325,-0.0724157,0.0798156,0.0304191,0.0797156,-0.0538432,-0.0859471,0.056298,0.137075,-0.0595254,-0.00307407,-0.162934,-0.0933303,0.0363236,-0.10622,-0.0987002,0.0972257,0.0299814,-0.119721,-0.0203726,0.052812,0.133568,-0.160051,0.00832734,0.0844859,-0.114749,0.0774617,-0.0797896,0.0569141,0.0862731,0.0756872,0.130727,-0.115814,-0.113024,-0.0552513,-0.0495338,0.0964935,-0.0405464,0.060436,0.147156,0.12206,0.0409138,0.0640117,0.0643709,-0.0609785,-0.176167,-0.11989,-0.0995023,-0.0808139,0.0466549,0.0730086,0.0209868,0.0430848,0.00948165,0.122956,-0.0906239,-0.0414861,0.0341116,0.0170892,-0.101006,-0.088066,0.0326722,-0.127316,0.139429,-0.00831636,-0.135352,-0.00681693,-0.128435,0.103346,0.165658,0.085281,0.0429542,0.10824,0.0219239,0.109352,0.060147,-0.0447728,0.133625,0.0982489,0.0393159,-0.0555344,0.103929,0.156399,-0.127002,0.116456,-0.0612836,0.00633658,-0.0926515,0.130875,0.161753,-0.0778527,-0.11477,0.129992,-0.0845109,-0.138802,0.08983,0.022382,0.0317915,0.0682852,0.166566,-0.0823032,0.0794179,-0.0392166,-0.0184166,0.0833448,-0.133106,-0.121678,0.0133014,-0.0138097,-0.128784,0.018276,0.0665107,-0.0922669,-0.0226542,-0.054668,0.0995502,-0.148247,0.101052,0.00467251,0.0495616,0.0508826,-0.0339221,0.0796025,-0.106298,-0.0879892,0.0637684,-0.0183464,0.030024,0.142158,0.161587,0.12774,0.197693,0.0269872,0.135868,0.10711,-0.103433,0.0347515,-0.105855,0.137274,-0.080794,-0.0223755,-0.1072,0.04037,-0.024337,0.072764,0.142107,0.0769682,-0.0292955,0.0945292,0.100183,-0.0458697,-0.0258525,-0.0682543,-0.111074,-0.0509647,0.0512414,0.1418,0.100548,-0.0901215,0.0992362,0.0942881,-0.0463735,0.0834493,-0.0821114,0.0525846,-0.0358671,0.150685,-0.119584,0.136695,-0.00681051,0.0952433,-0.111353,0.0395713,-0.0950375,0.0574924,-0.118718,0.061053,0.0850133,0.0242363,-0.106785,0.10465,0.0446985,0.118727,0.122912,-0.0675251,-0.125193,-0.120703,0.113344,0.0749626,-0.0853098,0.0415984,-0.102265,-0.0121702,-0.133418,-0.0927415,-0.0131662,-0.017305,-0.0450247,0.0163891,0.0496839,0.0874359,-0.0610895,-0.0226944,-0.0618346,-0.0491573,0.0291339,0.0335321,-0.0315187,0.0869629,0.0479753,0.0537511,0.0495506,-0.0749297,-0.101523,0.126657,0.14396,0.0568054,-0.0177447,-0.0776458,-0.065588,-0.0572479,-0.0141033,0.0934404,-0.0613086,0.124526,-0.107172,0.113138,0.0100232,-0.0781841,0.0338176,-0.109504,-0.127499,0.154607,0.13669,-0.0766666,-0.0764406,0.171494,0.0832208,0.0997356,0.105582,-0.0487415,-0.116926,0.0597231,-0.0649577,-0.0307648,-0.104768,-0.0590074,0.0619951,0.0067219,-0.101827,0.0132964,-0.0773417,-0.115223
-0.066954,0.125011,0.0156466,-0.00500366,0.0570983,0.00506187,0.0370054,-0.135017,-0.071177,-0.0202803,-0.0759965,0.0541542,-0.118651,0.106022,0.10937,-0.0107117,-0.077366,-0.0528722,-0.0756648,0.0423524,-0.0658373,0.109273,-0.0766355,0.00947896,0.00502144,0.0879714,0.0717999,-0.00057089,0.0957566,0.06841,-0.00123399,-0.110106,-0.117179,-0.0932608,-0.126132,0.0954625,-0.0579448,-0.138283,-0.0366539,-0.106082,0.121618,0.0772775,0.0093457,0.0171946,-0.11169,0.0292255,0.124325,-0.0686604,0.114895,0.0556996,0.0266762,-0.05843,0.0319017,0.0620633,-0.113748,-0.0796142,-0.00850721,0.0985086,0.120962,0.0523441,0.0624404,0.10223,0.0776139,-0.020638,-0.11097,0.0615163,-0.0591793,0.0389282,0.0298083,0.090153,0.113851,-0.00663141,0.12338,0.0732696,0.0263662,-0.0380838,0.109801,-0.00089044,0.0943918,-0.131832,-0.0267852,0.027527,0.0503302,0.125634,-0.0458642,-0.067242,-0.0821494,-0.0376261,-0.0849247,-0.120392,0.0159356,0.0701131,-0.140999,-0.0482741,-0.109855,-0.13541,-0.135591,-0.0289242,0.143374,0.0116694,-0.0352682,0.0562213,0.00276536,-0.00918146,0.0184614,0.123935,-0.073208,-0.0576889,0.0213007,-0.00946691,-0.00557472,0.0648166,-0.0253772,-0.141356,-0.0840716,-0.0095295,-0.0932247,0.108126,0.0827439,-0.097127,-0.0317038,0.0547265,-0.0727669,-0.0394029,0.0699513,-0.0904499,0.100936,0.0194088,0.0621448,0.0373942,0.0264657,-0.139271,-0.0430457,0.0961332,0.127892,0.0851661,0.134094,-0.0165858,-0.093774,0.112513,0.137799,-0.0386434,-0.0591959,-0.0167626,0.0357627,0.011259,-0.13719,0.133948,0.0712932,0.0942864,-0.0746195,-0.138541,0.0558369,-0.0432559,-0.13773,-0.139201,0.103986,-0.0355827,-0.0930998,-0.103733,0.00507498,-0.0243834,0.0759638,0.0146626,0.0426079,0.0322726,-0.0260944,-0.0715235,0.13832,0.120941,0.0981899,0.0791544,0.12739,0.0728404,0.120404,0.0701841,0.0703089,-0.040637,-0.113257,0.0102877,-0.00609904,-0.0704506,-0.0997522,-0.0518694,0.111295,-0.0747721,-0.121661,-0.0162886,-0.0902407,-0.053492,-0.0329122,-0.104253,-0.137609,-0.0486294,-0.0603997,-0.100468,0.0355467,-0.0300689,0.00464717,-0.0825488,0.04132,-0.105616,-0.107637,-0.10815,0.123034,0.077274,0.121455,0.0236577,0.026287,0.0148663,-0.075791,-0.028938,0.0247981,0.0151964,0.131995,0.0918711,-0.0593574,0.087829,0.111613,-0.0402026,-0.137033,-0.0422264,0.00147233,-0.0492729,0.0391517,-0.0689348,0.0787384,0.0171987,-0.0581732,-0.0883409,-0.00735943,-0.0109618,-0.00255906,-0.0285814,0.128729,0.075466,-0.0338605,0.103911,0.0765508,0.133881,0.0557874,-0.00444786,-0.109676,0.142157,-0.00963954,-0.0361293,0.112591,-0.0182276,0.0082564,-0.0430254,0.0610478,0.00391361,0.107818,-0.0761123,-0.0911496,0.118494,-0.0409472,0.119537,-0.0786358,0.0396144,0.0123556,-0.000890044,0.0324946,-0.100629,0.0620545,-0.0237677,0.0628591,0.00832411,0.123482,0.0190954,-0.00987948,-0.0794672,-0.0558165,-0.0917389,0.136417,0.130988,-0.0553527,-0.0766188,0.118235,0.0931901,-0.115822,0.0392653,-0.129048,-0.038676,-0.0591833,0.076857,0.118557,-0.0618668,-0.114576,-0.0276822,-0.0853374,-0.0526765,-0.0428107,-0.110741,-0.105622,0.0643871,0.00481733,0.0141093,-0.0741456,-0.0765393
-0.130162,0.0249656,-0.0166466,-0.023604,0.0210441,-0.127959,-0.0884881,-0.0607536,0.103059,-0.119389,-0.0228818,0.137645,0.0138513,-0.135504,0.103265,-0.0132847,0.0592949,0.0869584,0.0610075,0.00576063,0.0805495,0.102027,0.0345829,0.0155048,-0.09169,0.112602,-0.0136616,0.01982,-0.0593412,0.000499658,-0.0197608,-0.0352779,-0.0914951,-0.0343559,-0.122164,-0.0876924,0.109386,0.0679862,-0.0831279,-0.02444,-0.111436,0.0360056,0.118992,0.107417,0.0731941,0.0725025,0.0134759,0.1269,0.0888887,0.088328,0.112752,0.140075,-0.12111,0.0332042,0.0658954,0.126005,0.0455149,-0.0151213,0.106759,0.0808512,0.109018,0.055493,0.106738,-0.111591,0.101207,0.0791252,-0.0658393,-0.0127755,-0.139185,-0.127644,0.101355,-0.0936638,0.102506,-0.0731519,-0.00574454,-0.0378894,-0.120117,-0.0425102,-0.0281125,-0.0627063,-0.102325,-0.0479509,0.0072044,-0.114767,0.107527,0.140104,-0.107851,-0.0580237,-0.143014,-0.117822,-0.111339,0.0871616,-0.0579006,0.0976074,0.119311,0.083949,0.0417489,-0.0981241,-0.102072,0.081636,-0.0184111,-0.111245,-0.063474,0.0664078,0.0357567,-0.0853616,0.0832563,-0.0252321,-0.0027111,-0.0563481,-0.112553,-0.0562801,0.0772212,0.0663873,0.111005,0.04727,-0.0348695,-0.0696281,0.129003,-0.104362,0.104795,0.106675,-0.0151984,0.118584,0.0153599,-0.133437,-0.00329617,0.0167168,0.124536,0.0129459,-0.0561831,-0.0356779,0.115764,-0.0163042,0.064668,-0.0238736,0.00989277,-0.11614,-0.0425952,0.0354387,0.0427479,0.0802508,-0.110318,-0.137057,-0.0986069,-0.0730983,-0.0185299,0.00289579,0.146334,-0.00129695,0.0134227,-0.0923852,0.130542,0.0469675,-0.107406,0.02227,0.0535898,0.0932632,0.0273083,-0.0975414,-0.102749,-0.0968616,-0.0523137,0.042677,-0.0631143,-0.00749015,0.118254,-0.107007,-0.142161,-0.0075624,-0.112795,-0.120089,-0.0276767,-0.0666944,-0.1078,-0.0682504,-0.0676487,0.132423,-0.0647121,-0.0424341,0.0298734,-0.00352754,-0.0917894,0.125185,0.0976113,-0.0336811,0.0901685,-0.100655,0.0438885,0.0523876,0.0849796,0.0455799,0.0355397,-0.0326148,-0.0127029,-0.0238287,0.127207,0.0650798,0.0521488,0.10492,0.0343977,-0.0837009,-0.044922,0.108551,-0.14659,-0.0846906,-0.115044,0.0380045,-0.0859742,-0.102282,0.12656,-0.0770031,0.122447,0.14414,-0.0354906,0.0256446,-0.00155012,-0.0124001,0.116346,0.0476148,0.0265639,0.0427596,-0.137065,-0.0480337,0.0604669,0.140491,-0.0869367,-0.0332424,-0.0335716,-0.117049,-0.0762774,-0.0663581,0.0901578,0.0451885,-0.119949,-0.0130942,-0.0552467,-0.0888376,-0.0540768,-0.0603588,0.11396,0.129772,0.0417596,-0.132352,0.0899823,0.0948353,0.0148632,-0.0736565,0.10312,0.0212207,0.119474,-0.0308839,0.026991,0.029428,0.116647,0.0106833,-0.13128,0.128081,0.143233,0.0653503,0.123021,-0.116555,-0.117223,0.0671064,-0.00335101,-0.0262067,-0.116732,0.0492347,-0.0247474,0.0493487,0.141951,-0.120386,-0.0752201,-0.120653,0.0474744,-0.0827328,-0.0326966,-0.0916064,0.0380109,-0.119598,-0.0182611,-0.0192012,0.0834613,0.106532,-5.96637e-05,-0.094997,-0.0703223,0.0470606,-0.119206,0.072546,-0.0134918,-0.103242,0.0316232,0.0238979,-0.116339,0.109024,-0.128542,-0.0849672,-0.0700567,0.0476198
-0.0754939,-0.128035,0.0762817,-0.0290177,0.00504266,-0.111624,0.119406,-0.0897871,-0.0673026,0.111922,-0.0909262,-0.13897,-0.139728,-0.0839274,0.0660034,-0.0675822,0.112198,-0.0209629,-0.0500949,0.0343149,0.0297887,-0.0039822,-0.101919,-0.108603,-0.0028738,-0.138859,-0.0994292,0.0546661,0.0642347,0.0629045,-0.117107,-0.0791041,0.120973,0.0200703,-0.0161214,0.119358,-0.0181547,-0.0587261,-0.0877157,0.0366829,0.106749,0.000809855,0.129716,-0.117498,0.130752,-0.0484571,0.00483169,0.0801354,-0.110723,0.101404,-0.0101255,-0.126477,0.0646648,-0.0142381,-0.139752,0.118851,0.0890555,0.113669,0.0234965,-0.0691066,0.124439,-0.0851694,-0.0949062,-0.0241233,-0.0339234,0.0890983,0.100937,0.0139174,0.133875,0.108347,-0.060874,-0.0860441,-0.0899115,-0.0136285,-0.11001,0.0668702,0.0132128,0.0351347,0.0161713,0.117712,0.0126456,0.0245519,-0.112076,-0.112751,0.0624722,0.0874429,-0.00550599,-0.0886933,-0.130149,-0.0577057,-0.0778897,-0.0532853,-0.0563604,-0.0753749,0.023748,-0.0751581,-0.109146,-0.0195905,-0.0727103,0.0561643,-0.109001,0.0722924,-0.130999,-0.135548,-0.0076992,-0.0769564,-0.100288,0.109262,-0.0729239,-0.0852265,0.048844,0.102419,0.0158095,-0.0587995,-0.135285,-0.0181605,0.078447,-0.102454,0.0764856,0.116267,-0.122066,0.0815026,0.0790778,-0.0866568,-0.0999254,0.0519801,0.000460041,-0.0613686,0.0281334,-0.0853444,0.127942,0.112678,-0.00498039,-0.131816,0.0804596,-0.0525204,0.0315153,0.0903019,-0.00539322,0.0630798,0.114098,-0.126879,0.0632729,-0.0402268,-0.133316,0.109179,0.0858665,0.035475,-0.0852567,-0.0102943,0.0250433,-0.107295,0.00967026,-0.0318365,-0.0542098,-0.0517319,0.128748,0.067863,0.0502686,-0.0127913,0.0189064,-0.00421536,-0.0065967,0.110959,-0.00815089,-0.0175308,-0.113619,-0.121973,-0.0498823,0.0386287,0.115136,0.0502077,-0.0774511,0.0813873,0.0128462,0.131015,-0.11531,-0.124597,0.0547722,0.083263,0.0576541,0.0583357,-0.121525,-0.0344898,0.0167294,-0.0737806,0.0648372,0.0595608,0.0145936,-0.0900942,-0.122466,0.0252596,0.00161261,0.052964,0.0891961,0.10149,-0.115535,0.0111913,-0.0225313,0.00615307,0.128098,0.00530128,0.0901489,-0.137702,-0.0772476,-0.042154,-0.14029,-0.0490471,0.0983663,0.0147297,-0.104282,0.0237038,-0.0479306,-0.00889596,-0.0440065,-0.0160497,-0.076985,-0.0492931,-0.019301,-0.0364414,0.0688702,-0.0803424,0.116528,0.102652,0.0746469,-0.0595816,-0.0350046,-0.0467045,0.00620198,-0.0794132,-0.085767,0.0865528,0.111702,0.0447756,-0.0112804,-0.121543,0.0380909,-0.0160322,-0.014937,-0.117472,-0.0199631,-0.0174841,0.0209563,0.0917538,-0.0618264,-0.10785,0.103433,-0.0988874,-0.0562011,0.0512816,-0.10247,0.0706215,0.125923,0.0104309,0.0463181,0.0564027,-0.123026,0.101668,-0.0768334,-0.0701553,0.0900835,0.137856,0.0994674,0.0573276,-0.0724238,0.136483,0.103215,-0.0659455,-0.000932263,0.0807074,0.0856496,-0.0341105,-0.11206,-0.111466,0.0905605,-0.0746811,0.00457368,-0.126884,0.137898,-0.0135096,0.052319,0.0304851,0.141222,0.0676778,-0.1047,0.050647,-0.12375,0.0151511,-0.0815937,0.122241,-0.104898,0.0821817,-0.137425,0.0969437,0.0547374,-0.0629485,-0.0209993,-0.125056,-0.0124476,0.0250587
0.112001,-0.0560697,-0.059878,-0.111239,0.0298855,0.0394034,0.0238812,0.13969,0.0576042,-0.0590651,-0.0190879,-0.0531356,0.0936852,-0.121505,-0.0144142,-0.1413,0.0782577,0.0214406,-0.0401362,0.0695166,-0.0103112,0.0292635,0.127408,-0.103626,0.104888,0.024421,-0.0113171,0.00696521,-0.0778317,-0.0569057,-0.10531,-0.0503002,-0.0712094,0.115503,-0.11147,-0.10751,0.0556635,-0.138526,0.00235905,0.00408225,0.135127,0.0980937,0.0377374,-0.0785666,0.0935333,-0.106086,0.114474,0.0749188,-0.00174774,-0.0704447,0.129626,-0.0274676,-0.0839997,-0.00944475,-0.0583351,0.0883922,0.0354125,0.139266,-0.0822742,-0.111876,-0.0822484,0.135909,0.0851052,-0.10737,-0.0955665,0.0895915,0.120726,-0.0144546,0.0551031,0.00141384,-0.0313206,0.125732,0.00466923,-0.127746,-0.0134204,0.0456853,-0.019171,-0.0148339,0.115508,-0.10079,0.0878852,0.0684776,-0.0558634,-0.0407928,0.0170465,0.0839192,-0.0675943,-0.106498,-0.113879,0.0655835,0.0125654,-0.0996202,-0.117341,0.0432692,-0.0788821,-0.0335504,-0.0676224,0.000404304,0.10192,0.107996,-0.0659833,-0.116147,-0.107631,-0.0869359,-0.102377,0.120805,-0.0567875,0.0981003,0.0414932,0.140904,0.0158154,-0.140691,0.0321711,0.108968,-0.0491774,0.0166784,0.0673784,0.0490893,0.0142435,-0.0319584,0.0635695,-0.0339641,0.0567245,-0.0948791,0.0236948,0.0288165,0.0903289,-0.0739223,0.0100401,-0.0619679,-0.0102057,-0.0530761,0.101015,0.0715097,-0.0562778,0.00371634,-0.0119485,-0.102683,0.0178984,0.0818851,-0.147104,0.0540274,0.119886,0.00241401,0.127289,-0.0498034,0.113628,-0.0693694,0.130929,0.0851065,-0.132877,-0.116417,0.0602722,-0.0685815,0.0843117,-0.139287,0.000897469,0.109398,0.13428,-0.0799584,-0.078318,0.070278,0.0671897,-0.0213393,-0.0786838,0.0487636,-0.0471397,-0.120271,-0.0733857,-0.117668,0.110995,0.0826804,0.118006,0.0446552,-0.0444469,0.0851796,0.0295446,0.0884159,0.105061,-0.0841188,0.0306356,0.0751329,0.00166717,-0.058263,-0.079024,-0.0868591,0.100411,-0.0407064,-0.0293235,0.0905369,-0.0936912,-0.131645,0.0300566,0.000740392,-0.116291,-0.0153162,-0.0428312,0.0371301,-0.0288522,0.0550826,-0.0234171,0.000362691,0.119105,0.033135,0.0682286,0.131328,-0.0527778,-0.106111,-0.08498,0.121823,0.110577,-0.0449745,-0.0594821,0.038523,-0.115001,-0.0470426,0.13117,-0.0647352,-0.0266428,0.104896,0.0900218,-0.0690005,0.0729134,0.0810114,0.0337422,-0.132211,-0.0415375,-0.116228,-0.0837074,-0.0547492,-0.0398608,-0.056617,-0.101059,0.0640732,-0.0735739,0.125784,0.0139506,0.129734,0.0405647,0.0471232,0.00276453,0.130064,0.0518812,-0.077103,-0.119443,-0.0540322,-0.136778,-0.10034,-0.0913701,0.134181,0.0284223,0.0683938,-0.0209931,-0.00241556,0.0625398,-0.0636879,0.0251415,0.0387389,0.136047,0.0325245,0.0110554,-0.0754634,-0.0631435,0.103015,-0.11413,-0.0810032,0.024383,-0.130351,-0.0651752,0.101572,-0.00916376,-0.0720413,-0.131598,-0.0397668,0.109435,0.141281,0.00187461,-0.0698764,0.0712062,-0.0488687,0.00895504,-0.118091,-0.0207572,0.000454454,0.0701325,-0.042955,-0.0277483,-0.0740188,0.0886327,-0.0643349,-0.1084,0.0984556,0.0933415,-0.134789,-0.0267427,-0.0288291,-0.129887,-0.0224933,0.0220298,0.0372303
0.00173461,-0.145571,-0.112835,-0.0974747,0.0603047,-0.0651324,0.116096,0.0987304,0.0340055,-0.0446486,0.0196294,-0.121721,0.0979994,-0.0740601,-0.0340103,-0.125458,-0.0465151,0.076371,0.0760072,0.140127,0.129552,0.120855,-0.053296,-0.11947,-0.12223,-0.123629,-0.00598387,-0.10806,-0.130542,0.103564,0.146968,0.0105262,-0.00486904,0.130667,0.129461,0.00416786,-0.0187062,0.129462,0.117618,0.0717723,-0.00122812,-0.0773142,0.0785616,-0.111346,-0.13869,-0.123806,-0.047893,-0.0181586,-0.0551302,-0.0632411,0.0600963,-0.121436,0.151679,-0.0339145,-0.148202,-0.0692956,0.102468,-0.0798315,0.0825985,-0.0880189,-0.0660824,0.0490866,-0.129494,-0.0845122,0.0504709,0.0827127,0.152106,-0.0399073,-0.0715938,0.0337916,0.037527,0.0726507,0.0123432,0.100663,0.039423,0.134021,0.0378947,0.115801,-0.00220244,0.0765561,0.0732652,0.0782462,-0.0119401,-0.071177,0.132974,-0.088854,-0.0583587,-0.0802508,0.132377,-0.0434586,-0.103083,0.0223652,-0.0793089,-0.0580442,-0.0437132,0.137636,-0.128228,0.123378,0.118777,0.0902891,0.0464833,0.0250202,0.0638102,0.0686172,0.021492,0.102663,-0.0499081,0.186023,0.013381,-0.0414127,0.065776,-0.0670724,-0.113736,0.132713,0.12676,0.0945024,0.060356,-0.0448812,0.0606751,-0.0166613,-0.0160617,-0.0443883,-0.107866,0.0606502,0.028361,0.178573,0.052181,0.124952,-0.116482,-0.00388748,0.145838,-0.102022,0.121345,0.0191583,-0.12978,-0.0641976,0.117258,-0.0933909,-0.0653634,-0.104583,0.102216,-0.0615697,-0.0695447,0.018245,0.0453734,0.0458172,-0.131929,0.0851999,-0.0413612,-0.0485676,0.0513084,0.0612323,0.118276,-0.0273984,-0.0121597,0.0240541,-0.102836,0.0970846,0.0434227,-0.0422195,0.136114,0.170809,0.113138,-0.0795274,-0.00300022,0.125638,0.1148,0.0276363,0.00160285,-0.116229,0.0305273,0.127998,0.0837788,-0.133537,-0.155814,0.0190692,-0.0826781,0.0337965,0.032199,0.0704505,0.105633,0.0800044,0.00809725,-0.0759369,0.137751,0.0204168,-0.0787848,0.10435,-0.142066,-0.103712,0.0619836,-0.00449473,-0.0515364,-0.00454127,-0.0381184,0.0806084,0.113014,-0.044656,0.115246,0.0317346,0.0714061,-0.0813378,0.0317114,-0.057405,-0.0665958,0.132516,-0.138268,-0.0982221,0.121452,-0.100229,-0.0551833,-0.0214476,0.0719923,0.00405382,0.0864201,-0.0523828,-0.0233802,-0.100692,-0.00968634,0.118829,0.123819,0.099468,-0.00162433,0.059053,0.120127,0.0754709,0.0601574,0.120531,-0.0997266,0.0833403,0.0712237,-0.124389,-0.0209077,-0.0490457,-0.144742,-0.142369,0.112418,-0.119801,-0.139702,0.0362487,0.0223858,-0.132917,0.0758361,0.0755796,-0.0771651,0.0991534,-0.0498894,-0.0242508,0.0511367,-0.127067,0.0166888,0.0853113,-0.0678525,-0.109599,0.0684524,0.161072,-0.0966649,0.132461,0.0727106,-0.136474,-0.0863581,0.0141344,0.0987775,-0.107032,-0.0548868,0.0507585,-0.0585501,-0.0400788,-0.0310852,-0.110602,-0.0264558,-0.0225059,0.11818,0.0854442,0.0595806,-0.132356,-0.0891948,-0.162921,0.121302,0.0947549,-0.0178298,0.0720301,-0.0889362,-0.0770385,0.0552358,0.054696,-0.0191916,0.0914935,0.0547602,0.137522,-0.0172813,0.0188202,-0.0886662,0.0630367,0.076597,-0.0968494,0.15374,-0.0953207,-0.120752,-0.0659999
