100,300
-0.018982,-0.000871929,0.0297399,-0.0351144,-0.0334319,-0.0223742,0.0442165,0.0271423,-0.0307903,0.00664545,-0.0157646,0.02664,-0.0143523,0.0377212,0.0455142,-0.00736018,-0.064831,-0.0585377,-0.0380899,-0.0248814,-0.0145999,0.0199418,-0.0548429,-0.0538907,-0.0346995,0.0389539,0.00837244,0.0267517,0.0273891,0.0232266,-0.0593577,0.0354689,-0.0520481,-0.0371737,0.0381401,0.0175831,0.034489,-0.00617978,-0.00532962,-0.0610638,0.0205249,0.0230662,-0.0401252,0.0411887,-0.0519052,-0.0616722,-0.0518852,0.00133137,0.0328825,0.0337327,-0.0190581,0.00568631,0.0194111,-0.0147881,-0.0426069,0.0427291,-0.030525,-0.00638405,-0.0263665,-0.0507385,-0.0592997,-0.0551937,-0.010469,-0.0154319,-0.0644435,-0.0602,0.0278465,-0.0699403,0.0266482,-0.0254208,0.0310367,0.00427602,-0.0126375,-0.0274892,-0.0581079,0.0283602,-0.0429688,-0.0644738,-0.0359464,0.0387747,-0.0690051,-0.0575523,-0.00319593,0.0372934,0.0236976,-0.0115404,-0.0563349,0.0237722,-0.0225257,0.00751512,0.0354662,0.0258467,-0.0699184,-0.0182174,0.0230547,0.0312206,0.0456006,0.0257492,-0.0218107,-0.0239823,-0.0612844,0.0428778,-0.0642336,0.0300553,0.0250467,-0.0350663,0.0147862,0.0318544,-0.024668,0.0421364,-0.0535442,-0.0368493,-0.0085222,0.0378718,0.0447202,0.00595005,0.0356277,-0.0569956,-0.0521762,0.0227169,-0.000487637,0.0150706,-0.0325192,-0.0366442,-0.0496145,-0.050834,-0.0602449,0.0412867,-0.0115027,0.0078216,0.0176092,0.0229215,-0.0196835,-0.0656326,-0.00363975,0.0313462,-0.0224016,-0.00088295,-0.00254695,-0.0075822,-0.0412459,-0.0408681,-0.0362901,0.00704224,-0.00393081,0.00178792,-0.0108667,-0.00872266,-0.064951,-0.0325694,0.00130025,0.0383232,-0.0109189,0.00195046,-0.0419308,-0.0363168,0.0312717,0.0413745,-0.039914,-0.0458259,-0.00507911,-0.00324178,-0.0488091,0.000755437,-0.00654338,-0.0620126,-0.0464771,-0.00395894,-0.00472899,0.00344,0.025301,-0.0646182,-0.0343123,0.0166626,0.0254442,-0.0488638,-0.0501782,-0.0171538,-0.0663723,-0.0276901,0.0252959,-0.026273,-0.0368379,0.00838592,0.0117806,-0.0389575,-0.030004,0.0276437,-0.0226627,-0.0320177,-0.0102578,-0.0621025,0.0160109,0.040098,-0.0303138,-0.0441336,0.0491633,0.0234588,-0.00984461,0.0291517,-0.0111099,0.0235559,-0.0220134,0.041413,0.0293112,-0.0675249,0.0144038,0.0240378,-0.0522046,0.0252004,-0.0646182,-0.00269445,0.0311637,-0.0695229,-0.0658016,0.036406,-0.0241898,0.0184059,-0.0519645,0.0339763,-0.0393657,-0.0477703,-0.020515,0.0209897,0.0207009,0.0284542,-0.00384693,0.0125927,0.0232506,0.00734019,9.98409e-05,-0.030656,-0.0236919,0.0427478,-0.00835648,-0.0559485,0.00700166,-0.0134956,-0.0228905,-0.0531921,-0.000908115,-0.0253725,-0.042245,-0.0277051,-0.0430374,0.00195347,0.0207911,-0.0564116,-0.0116484,0.0297455,-0.00633559,-0.0577168,-0.059114,-0.0273593,-0.0522667,0.0455348,0.021089,-0.0565763,-0.0364039,0.0359612,-0.0556556,-0.000660997,-0.0108334,-0.0185326,-0.0486725,-0.0213624,-0.0268448,0.0413746,-0.0311878,0.0217648,-0.0630887,0.0286032,-0.0541096,-0.00360456,0.0128575,-0.0223379,0.00491278,-0.0563278,-0.0156019,-0.0435859,0.0469157,0.0282917,-0.030328,0.0209848,0.00628794,-0.0335986,-0.0617083,-0.0346793,0.0409248,-0.0571239,-0.0462784,-0.0478328,0.0108419,-0.0341818,-0.000319655,-0.0410738,-0.0142071,0.0155481,0.00487731,-0.0194301
-0.0436903,0.0306288,-0.0250383,-0.0220034,-0.0687358,-0.0497087,-0.021761,-0.0161987,-0.0276117,-0.0244956,0.0305065,-0.0517943,0.00983146,-0.0295681,-0.0165492,-0.0691421,0.0405948,-0.00964904,-0.0711383,-0.022656,0.0450374,-0.04479,-0.0195764,-0.0353562,0.0334105,-0.0564431,-0.0399781,-0.0331708,-0.0418344,-0.043765,0.00987558,0.0422863,-0.0353684,0.0160738,-0.0674306,-0.00744344,0.0114084,-0.0316891,-0.0723128,0.0201353,-0.055441,-0.0558633,-0.0317693,0.0400756,-0.0566189,-0.015886,0.0423863,0.0256545,0.0336122,0.0026033,-0.0211676,0.0237528,-0.0553049,-0.0510422,-0.00270421,-0.050031,-0.0140461,-0.0327759,-0.0683521,-0.0636512,0.0382483,-0.0713432,0.0181697,0.0480021,-0.0422178,0.0432643,0.0290483,-0.0357256,0.00758201,-0.0539086,0.00071517,-0.0177703,-0.0306588,-0.0704303,-0.0199472,-0.00751871,-0.0518038,0.0175701,-0.0598725,-0.00398511,-0.0244554,-0.0337384,-0.0489091,0.0387137,-0.0634255,0.0391984,0.0402051,0.0465166,-0.0630611,0.0122335,-0.0157455,-0.0489937,0.0214137,-0.0378001,0.0152741,0.0178246,-0.0366977,0.0206938,-0.0606609,-0.0362994,-0.053324,0.0309401,-0.0452494,0.0279951,-0.0240815,0.0289694,-0.023083,0.00666641,-0.0569044,-0.0578113,0.0237996,-0.0341762,-0.067005,-0.00745777,0.0138542,-0.0374017,0.0175727,-0.00566048,-0.0660928,0.0255061,-0.0231331,-0.0303801,0.0290244,-0.0290407,0.0153429,0.0390866,0.00814234,-0.0240958,-0.00777002,-0.0224633,-0.0249355,-0.0631406,-0.0704793,0.0097425,0.0371202,0.0149576,0.00689037,-0.00985537,-0.0417769,-0.0506979,0.0329355,-0.0292679,-0.033503,-0.0486848,-0.0412078,0.0268856,-0.0639696,-0.0388639,0.0357173,-0.00569008,-0.039461,0.0328537,0.0165432,-0.0231414,0.0212683,-0.0447999,0.0137515,-0.0676824,-0.0226741,-0.0475494,-0.0286294,-0.0664638,-0.0288967,-0.0604805,-0.0630481,0.0114559,-0.0344381,-0.0258203,-0.0211343,-0.026122,0.0110586,-0.0595675,-0.0265824,-0.0225259,0.0468665,-0.0189652,-0.040619,0.0147881,-0.014008,-0.00250796,0.045218,-0.0585765,-0.0509251,-0.00759606,0.0106793,-0.0543526,0.00798695,-0.0520034,-0.035167,-0.0148027,0.0256842,-0.0111833,-0.0617865,-0.0151054,0.0405412,-0.00192072,-0.0148428,0.0168385,-0.0671734,0.0133821,-0.0294656,-0.0148551,-0.0362478,-0.0170491,0.0160585,0.0238751,0.0356978,-0.0293173,-0.0442123,0.00450994,0.00802782,0.0293684,0.0371101,0.0383779,0.0472434,0.0209155,0.0211516,0.0315712,-0.0142529,0.0451506,0.0166611,-0.0654749,-0.0406234,-0.0656333,-0.0529519,0.0268053,0.013073,-0.0515265,-0.0183845,-0.0205408,-0.0468374,-0.0414408,0.00184929,0.0424479,0.0413323,0.0386806,-0.0531651,-0.0102336,0.0397919,-0.020005,0.00481715,-0.0528961,-0.0180143,-0.00322324,-0.0407161,-0.0150843,-0.0186062,0.0207321,0.0408414,0.0329368,-0.00296548,-0.0576578,0.00675858,-0.017161,-0.0227627,-0.000504577,-0.0117646,-0.0267524,-0.0428679,-0.0454998,-0.0114167,-0.0587511,0.0247433,-0.06648,0.00017143,-0.0514152,-0.0490016,0.0140039,-0.0356494,0.0350763,-0.0268191,0.0128922,0.0134423,0.030866,-0.00986833,0.00881951,-0.00888325,0.0393012,-0.0300095,0.0133291,0.0322209,-0.0599484,-0.0502498,0.0187556,0.0346332,-0.00487433,-0.00770631,0.0331885,0.0500806,0.0406499,-0.0231915,-0.00961286,-0.0336054,0.0211142,0.00225054,-0.0357604,-0.0157262,0.0402736,0.0190181,0.024243
-0.0391352,-0.0166498,-0.0647654,-0.00609085,-0.0700069,-0.0619837,-0.0384284,0.0232559,0.0129207,0.0249182,0.0253905,-0.0265487,0.0152403,-0.0226039,0.0258293,0.0316645,-0.0374748,0.0180441,-0.072673,-0.021577,0.0171914,-0.00603513,0.0266223,-0.0395646,0.0125139,-0.0235928,0.0120585,0.00445947,0.0110642,0.0391051,0.0137607,-0.0201788,9.24171e-05,0.0278827,-0.00265684,-0.0285741,-0.0562461,-0.0272951,0.0327795,0.0173106,0.0106544,-0.0551339,-0.0156405,0.00576499,0.0370218,-0.0690583,-0.0450488,0.0156227,-0.00711064,-0.0447911,0.00900814,0.00434013,-0.0361185,-0.053726,0.0182417,-0.0318198,-0.0285017,-0.0423153,-0.0321989,0.00859091,-0.0620824,0.0373089,0.0329203,0.00190934,-0.0615589,-0.00883361,0.00837525,-0.0692956,-0.0643194,-0.029914,-0.0430704,-0.0269473,-0.0333077,-0.0711899,-0.0483643,-0.0107174,-0.0152773,-0.0276949,0.0220952,-0.044969,0.027165,-0.011173,0.00843813,-0.0444279,0.0372073,-0.0415075,0.0355804,0.000386516,-0.00725793,-0.0636756,-0.000268265,-0.0172285,-0.0429591,-0.0386776,0.0236808,0.0179688,-0.0196572,0.0105287,-0.0247131,-0.00566268,0.0118842,-0.0597084,0.0309681,-0.0451188,-0.0678423,-0.0578347,0.0137053,0.00195652,-0.0279869,-0.0569977,-0.00642105,0.0351151,-0.0178255,-0.0623115,-0.0192658,-0.00800506,0.00938806,-0.0680146,-0.0343941,-0.0204558,-0.00346541,-0.0205012,-0.0400895,-0.00065351,-0.010483,-0.0204406,-0.0132369,-0.0353073,-0.0187211,-0.0735554,0.00155795,0.0125485,-0.0564288,-0.0639884,0.0165802,0.0238585,0.0282308,0.00669189,0.039498,0.0309592,-0.0307682,-0.0395308,-0.0401707,0.0255987,-0.0598217,-0.00421464,-0.0186665,0.00253502,-0.0114867,-0.0494249,-0.0198656,-0.0318464,0.0364334,0.0191872,0.00214354,-0.0412016,-0.0740172,0.035175,-0.0210678,0.0234878,-0.0352459,0.0374604,-0.0389063,-0.0431559,-0.0219539,0.0222946,0.000790248,0.00224019,-0.0642302,-0.0204083,-0.00655952,0.0334156,0.0189871,-0.0598424,-0.0187896,0.0137798,-0.0658581,-0.0128577,-0.0558961,-0.012366,0.0295775,-0.0311955,0.0432761,0.0255721,-0.0482364,-0.0180731,-0.0469885,0.0315392,0.0397096,0.0132648,-0.0323467,-0.0569455,-0.00225381,0.0290554,0.0366552,-0.0301361,0.0141106,-0.0621493,0.025462,-0.0683487,-0.00496732,-0.0696836,-0.0173393,0.0401368,0.0257284,-0.0146264,0.00941373,-0.00293119,-0.021103,-0.0414971,-0.0174698,0.01801,-0.00873973,0.0327156,0.0416502,-0.0723623,0.00627696,-0.0523319,0.0123986,-0.0477482,0.0327749,-0.00501788,-0.0471295,0.0273077,0.0135422,0.0161305,-0.0402913,-0.0433021,0.0058777,-0.024003,0.0108857,-0.0534711,-0.0372429,-0.0687039,0.00844982,0.0156556,0.00129172,-0.038497,0.0356057,-0.0699217,-0.00151825,0.0112107,-0.0172135,-0.0212246,0.00215893,0.0133621,-0.026945,0.0230515,0.0350645,-0.0331421,-0.0465038,-0.00119648,0.0295954,0.0354317,0.0158058,-0.0179128,-0.0392354,0.0319897,0.00800068,-0.0406091,-0.0312634,0.0405668,0.01997,-0.0276711,0.033605,0.0261621,0.00745188,-0.0260352,0.0301756,-0.00553894,-0.0552741,0.0421581,0.0309607,-0.0253313,0.00797943,-0.0275294,-0.0625234,0.0197885,-0.0526339,-0.0209481,0.0386728,-0.00938755,-0.0519347,0.0280002,-0.0271378,-0.0614969,-0.0047135,-0.0714088,-0.0663562,-0.0212349,-0.0589086,0.0180303,0.0285615,-0.0273292,-0.0606021,0.0141491,0.0279856,-0.00297061,-0.0258772,-0.0197063
-0.0421165,-0.0338654,0.030781,-0.00458389,-0.00128656,-0.0385826,-0.0097267,-0.0636909,-0.0426296,-0.0471708,-0.0583309,-0.0230153,0.0252209,-0.00663997,0.0403437,0.0309208,0.0336867,-0.0629846,0.0122719,-0.0583281,-0.0423898,-0.0201738,0.00678907,0.0275474,0.0274785,0.0375728,-0.000558014,0.0319639,0.00183511,-0.0273485,0.0182981,-0.0402938,-0.0219039,0.0380087,-0.0128372,-0.0393012,-0.0117359,-0.0474498,-0.00206747,-0.0469142,-0.0293636,-0.0576349,0.0101519,0.0106119,0.0413898,-0.00459416,-0.026561,-0.0291951,-0.0122287,-0.0205506,-0.0711608,0.0244303,0.0121613,-0.0589889,0.0256786,-0.0356016,0.0361128,0.0352056,-0.0327604,-0.0243372,-0.0252249,-0.0548698,0.0389411,0.0129783,-0.0144908,0.0220488,-0.0267338,-0.004993,-0.0140315,-8.23153e-05,-0.0101753,0.0368831,-0.0120906,-0.00280376,0.0101784,-0.000812076,0.0049364,-0.0415208,-0.0518484,0.0112317,-0.0433174,-0.0637361,-0.0059317,-0.0514215,-0.029209,0.0310479,0.0048159,0.00757714,-0.0222926,0.0195649,-0.0625097,0.0193856,-0.0696538,-0.0438304,-0.028132,-0.0146369,-0.0410933,-0.050364,-0.0595016,-0.0548439,0.0297091,0.0153872,-0.049978,0.00504695,-0.0636363,-0.046268,0.0449257,0.0425863,0.0268694,0.0430431,-0.0588418,-0.0230895,-0.000278903,-0.0626736,0.00217845,0.0143592,-0.0373895,-0.0539604,-0.0120823,-0.0157055,-0.00504881,0.0392503,0.0310494,-0.023256,-0.00846456,-0.0381054,-0.0373839,-0.0213867,-0.0205251,-0.0655018,-0.00161334,0.00325535,-0.0189154,-0.03583,-0.0166377,-0.0348878,-0.0608358,0.041169,-0.0524993,-0.0668801,-0.048094,0.029021,0.0448324,-0.02013,-0.0168401,0.0380223,0.0197945,0.00488293,-0.0355195,0.0272931,0.0250174,0.0213371,-0.00817964,-0.0663755,0.00756941,0.00510116,-0.0204822,0.0258692,-0.0170814,-0.0240144,0.026156,-0.00381613,-0.0302752,-0.0144382,0.0412572,0.0310636,0.0428604,-0.0711131,-0.0389724,-0.0318179,0.0141112,-0.0150692,-0.036785,0.0113954,-0.0400476,0.0257154,0.0296374,-0.00167667,-0.0686028,-0.0567802,0.0391701,-0.0279373,-0.0668758,-0.03083,-0.0503597,-0.0688367,-0.0389832,0.00446579,-0.0607241,-0.0577539,-0.025786,-0.0593781,0.0119372,0.0218585,0.0264872,0.00526377,-0.0282661,0.0296475,-0.0656954,-0.0591183,0.0126826,0.0355852,0.044885,-0.0138086,-0.0340325,0.0235825,-0.0462048,-0.028279,-0.0168021,0.0388684,-0.0274987,-0.0473761,-0.0414387,0.0147266,-0.0263435,0.0248588,0.0123891,-0.00280443,-0.063851,-0.031556,0.0306359,-0.0173055,8.98938e-05,0.0431628,-0.0476289,-0.0598089,-0.027004,-0.00619395,0.0263779,-0.0633547,-0.027543,-0.0348791,-0.0522047,-0.0254938,0.0115402,-0.0339267,-0.0152227,-0.0183351,0.0369686,-0.0156138,-0.029403,-0.0326568,0.0112588,-0.0631055,-0.0708912,-0.0261088,0.0435886,0.00380651,-0.00247058,-0.0638166,-0.0311015,0.00167059,-0.0372661,0.027869,-0.00857168,-0.0595108,-0.0494252,0.00841899,-0.00668731,-0.0361166,0.0420784,0.0111913,-0.0122829,-0.0651434,0.0389785,-0.0306221,0.0179452,0.0276471,0.00521501,-0.02674,-0.0677179,0.031083,0.00849326,-0.0707954,-0.0645969,-0.0250437,-0.00314711,0.033412,0.0301164,-0.0359084,-0.0239898,-0.0386818,-0.0236114,-0.0683071,0.0389783,0.037239,0.00290333,0.0166986,-0.00535902,-0.055469,0.02761,-0.000120745,-0.011983,0.00579285,0.0141221,-0.0467622,-0.0183544,0.044944,-0.061499,0.0155664
-0.0382679,0.0449746,-0.0413408,-0.0592463,-0.065194,-0.0400934,0.0207423,-0.00908404,-0.00215168,-0.0347211,0.0152838,-0.0581686,0.00508237,-0.046537,-0.0223543,0.0019949,-0.0204292,-0.0627704,0.0250844,-0.0530017,-0.0558875,0.0259474,0.0057644,-0.0679573,0.000111691,-0.0715394,-0.0229315,-0.00789569,-0.0576414,-0.051708,-0.0594016,0.0161284,0.0407719,-0.00330531,-0.0492309,-0.00698911,-0.0713258,-0.0554151,-0.00531353,-0.0443105,-0.0511829,-0.0545508,-0.0350695,0.037023,0.0337623,-0.0322892,-0.0743412,-0.00528122,-0.0389678,-0.0593399,0.0372023,-0.0299686,-0.0502042,-0.0423079,-0.00281014,0.00718411,-0.0685234,0.0387796,0.0196154,-0.0416083,0.0277171,0.00601705,-0.0486191,-0.0641336,-0.00129974,0.0348063,-0.0461223,-0.00744133,-0.0452068,0.0400571,0.0329289,0.0394244,0.00162952,-0.0366719,0.0284062,0.0240323,-0.0626935,0.0103077,0.0299423,-0.00849381,-0.0636544,-0.0510466,-0.00417218,-0.0394958,-0.0388559,0.0122538,-0.0397125,-0.0369509,0.0404865,0.0147919,0.0185956,-0.044875,-0.0517627,-0.0389273,0.0237036,-0.00323007,-0.0563139,-0.0425484,-0.000944287,0.0309126,0.0086894,-0.0577155,-0.0430699,0.0191443,0.0398739,-0.0248455,-0.0614519,-0.0192353,-0.0711534,-0.0138815,-0.0258177,-0.0250698,-0.0643459,0.0345214,-0.0137403,-0.00909866,-0.0272243,0.0228075,0.0323122,-0.0624837,-0.0567647,-0.00562825,-0.0135621,-0.018997,-0.0259482,-0.0468513,0.0176222,-0.0147127,-0.0688368,0.0181897,0.0233078,-0.0284436,-0.057392,-0.0207338,0.000537407,-0.0226459,0.0285389,-0.0341052,0.0290429,0.0218635,0.0202662,-0.0545228,-0.035527,-0.00990642,-0.0310125,0.0419343,-0.0623239,0.0237847,-0.0439726,0.0458005,-0.0697133,-0.000417782,-0.00958339,0.0171549,0.00101496,-0.0693885,-0.0579897,0.0339711,0.027629,-0.00707224,-0.0129394,0.0399501,0.0308255,-0.04422,0.0413988,0.0113701,0.0421167,-0.0126625,-0.0283024,0.0121681,0.0121567,-0.0665633,-0.0211447,-0.0380857,0.0301419,-0.0461425,0.00415736,-0.0693571,-0.0411977,-0.0397919,0.026571,0.0154314,0.0160478,0.0140972,0.000206986,0.00505866,-0.0306328,-0.0574748,-0.0251951,-0.0114693,0.0416473,0.00466755,0.0267971,-0.0223907,-0.0232394,-0.00940893,0.0383688,0.0473302,0.0259668,-0.0733335,-0.0297406,-0.0450373,0.03557,0.0192904,0.0218138,0.00410992,-0.0637761,-0.0027763,-0.0524477,-0.0340024,-0.042323,0.0255619,0.0114283,0.0264522,0.04564,0.0247969,0.00150112,0.0303631,0.00875877,0.0205,-0.0591583,-0.0668902,-0.0118587,0.0138865,-0.00140067,-0.0709501,0.0453047,-0.0362265,-0.00808056,-0.000197902,0.0290855,0.00310899,-0.0327523,-0.0666387,0.027324,0.0247572,-0.0622235,-0.0598899,-0.00397678,0.0374383,-0.0349662,0.00345974,0.0214501,0.0144957,-0.0701613,-0.000865575,0.00829227,0.0263902,-0.0309355,-0.0497859,0.0407243,-0.0144161,-0.00362091,0.0275923,0.0157766,-0.0152802,-0.0303212,0.00516353,0.0412866,-0.0696811,-0.0368093,-0.0242239,-0.0512462,0.00985974,0.0152853,-0.0258022,-0.0583784,0.00586701,0.0393072,0.00516167,-0.0178932,0.0428672,-0.0692725,-0.0276862,-0.0452898,0.0357694,0.0387426,0.0285855,0.0339097,0.0372886,-0.0383798,0.00289607,-0.00857631,-0.0183552,-0.00606559,-0.0354125,0.00187165,0.038733,0.0364471,0.0101874,-0.0579309,-0.0123363,-0.0612543,0.00145283,-0.00587495,-0.0527202,0.0224259,0.000329424,-0.00144225,-0.0693645
0.00482358,-0.0666759,-0.0504767,-0.0215017,-0.00848051,0.015022,0.031088,0.0167623,0.0124455,-0.045154,0.00395263,-0.0426174,-0.0518679,0.0292921,-0.0438967,0.0160159,-0.0237043,-0.0594098,-0.0503855,-0.0332354,-0.0429227,0.02334,-0.0287877,0.0100676,-0.0313899,-0.00892964,-0.0292603,-0.0373496,0.0312741,-0.0620569,-0.0551271,0.0161926,-0.0292642,-0.0679044,0.0252968,-0.0280855,-0.0445243,0.0261618,0.0339429,0.032647,-0.0676606,-0.0477881,-0.0303285,0.0157778,-0.0523329,0.00354687,-0.0290983,-0.0326044,-0.0315113,-0.0263378,-0.0470623,-0.0140027,-0.0585872,0.0401193,0.00855586,-0.0705269,-0.0712256,-0.0443672,0.0246817,-0.0160373,0.0161023,0.0102587,-0.0584646,0.00134208,-0.0261378,0.00253297,-0.0377955,0.0307727,-0.00385504,-0.0112785,-0.0713785,-0.0698606,-0.0464239,-0.0185973,-0.0248451,-0.0655622,-0.0490933,-0.0201033,-0.0167701,-0.0436834,0.0407477,0.0141042,0.00547432,0.0377625,-0.0521651,0.0319047,-0.053489,-0.045041,0.0201408,-0.0666207,-0.0571749,-0.0155917,-0.0592232,-0.00464659,-0.0373095,-0.0626337,0.0329066,0.0248467,-0.026896,-0.0367148,-0.00125231,-0.0576072,0.0241285,-0.0295028,-0.0695304,0.00554789,-0.00655143,-0.0445342,0.0379035,-0.0191215,0.0331928,-0.0319192,0.0196016,-0.00995945,0.0230028,-0.0176629,-0.037113,-0.0262557,-0.00265062,-0.0306551,-0.0425906,0.0191304,0.00753582,0.0143934,0.0357323,-0.0422366,-0.0468776,-0.0147229,-0.0633605,0.00364094,0.00615486,-0.012983,-0.0679882,0.00542482,-0.0314029,-0.0255227,0.00587039,-0.0318394,-0.00675735,-0.0276835,-0.00673037,-0.0177706,-0.0587593,-0.00365051,-0.00634323,-0.0573564,-0.0205137,-0.00236382,0.035266,-0.0295573,-0.0563705,0.0289655,0.00683286,-0.00762574,0.0230934,0.016105,-0.00189809,-0.0578589,-0.0150936,0.0203365,0.0221751,0.0296136,-0.0335197,-0.054787,-0.0224677,-0.00905586,-0.0556599,0.000571828,-0.0487019,-0.0449142,0.0225331,-0.0232962,0.00605159,0.0416466,0.0379421,0.00456021,0.0394731,-0.0202157,-0.0282679,-0.0449454,0.0372136,-0.0414406,-0.0558108,0.0233911,-0.016334,-0.00950535,0.00394259,0.0223884,-0.017652,-0.0157628,0.038702,0.0398974,0.0293764,-0.0348005,0.0243062,0.0253264,-0.0373105,-0.0136668,-0.0342906,-0.0303363,0.0238342,0.0402176,-0.01594,0.0158023,-0.0665743,-0.0722345,-0.0642182,-0.0654633,-0.0617026,0.0198704,0.0273438,0.0204723,-0.0253584,0.0236231,-0.0342451,-0.0157177,-0.0271072,0.0325679,0.0336553,-0.00575595,-0.0676289,-0.0213124,-0.00269241,-0.0340413,-0.0338898,0.0262672,0.0301245,-0.0710422,0.0384772,-0.0149146,0.0397467,-0.0406383,-0.0435191,-0.0590562,0.0320822,-0.057026,-0.0171721,-0.00374979,0.0244435,0.0411681,-0.00260484,-0.0323807,-0.0652351,-0.0629374,0.00675192,0.0378228,0.00383137,-0.00659514,0.0349077,-0.0297,-0.0119856,0.0235571,0.0384461,-0.0123333,-0.0618588,0.032606,0.0480231,0.0166102,-0.0209804,0.000517479,-0.0503801,0.00868839,-0.0187022,0.0116399,-0.00726971,-0.0635274,0.0165259,-0.0172667,0.000602109,0.0328568,-0.039446,-0.0173633,0.0424822,-0.0592413,0.0250815,-0.00725052,-0.0344442,-0.0720393,-0.0681798,-0.0176527,0.00459092,-0.00115371,-0.0615963,-0.00608118,0.0368436,0.0236604,-0.0357463,-0.0271808,-0.0560551,-0.0047472,-0.00032304,0.0386201,0.000474112,-0.0142597,-0.0415587,0.00419335,0.0268065,-0.0505369,-0.0732924,0.0416087
-0.0251696,0.0011235,-0.00138049,-0.0458324,0.0131203,-0.0652147,-0.0246897,-0.0726985,0.0256168,-0.0537089,-0.0108661,-0.0233521,-0.00140393,-0.00274201,-0.072407,-0.0291057,-0.00481526,-0.00677382,0.0122241,0.0433496,-0.028664,-0.0649191,-0.0670158,-0.0695046,-0.021283,0.00389435,0.00156808,-0.0465358,0.0167437,-0.00588763,-0.0101836,0.0272486,0.00592074,0.00397162,-0.0244433,0.0351007,-0.0349216,-0.0514293,-0.0760417,-0.00718032,-0.0691279,0.0369859,0.0237799,-0.0652819,-0.0404501,-0.00399112,0.0209322,-0.0698215,-0.0199895,-0.0530938,-0.0594174,0.0361668,-0.021843,-0.00692532,0.0190108,0.0341642,-0.0643632,-0.0252306,0.0221403,-0.0608963,0.0123122,0.0377886,-0.0358294,-0.0597271,0.0442241,-0.0183418,0.0396582,0.0288294,-0.0125604,-0.050998,-0.0404874,0.0363852,0.00151903,0.00544752,0.0233443,-0.0244863,-0.0323619,0.00304764,0.0299585,0.0081374,-0.0285543,-0.0663682,-0.0156262,-0.0357631,0.020442,-0.0638642,0.0198619,-0.0421408,-0.0495198,-0.0592876,-0.0210021,0.00046797,-0.00874023,0.0222067,0.0181859,0.00179106,-0.0104191,0.0378368,-0.0241478,-0.0746558,-0.0255742,-0.0674542,-0.0558158,-0.0422816,-0.0712003,0.00686346,-0.00328851,0.021304,-0.0417708,-0.0221715,-0.0315043,0.0221223,-0.00710256,-0.0116198,-0.022053,0.0262242,-0.021469,0.0225181,-0.0565817,-0.000643413,-0.0113301,-0.0302081,0.00739785,-0.0504442,0.0242173,0.0118039,-0.0340475,0.0189199,0.0304711,-0.00100589,-0.00325227,0.020953,-0.0575871,-0.0531662,0.0376172,-0.0599359,0.00478042,0.0430011,0.0351646,0.00185279,0.00642991,-0.00139018,-0.0359058,0.029362,0.0317545,0.0435357,0.00858753,-0.0451802,0.00556273,-0.0245283,0.00448656,0.018364,-0.0209871,-0.0470166,0.00870785,0.00267912,0.0274091,-0.0403543,-0.066281,-0.00553682,0.0131492,-0.0241167,-0.01258,0.0230608,0.0167887,0.0199851,-0.0161975,-0.04803,-0.0518176,0.0113073,-0.0484544,-0.0396644,0.00501415,6.68065e-05,-0.0211073,-0.0533052,0.0240405,0.0209543,-0.0177755,0.0124101,0.00296181,-0.0482496,0.0199374,0.0240107,-0.0256628,0.00932018,0.0351281,-0.0238885,-0.0418613,-0.0355455,-0.0405007,-0.0242644,-0.0612777,0.0108186,0.00266793,-0.0741159,-0.0340368,0.0356497,-0.0151841,-0.0511677,0.00855766,0.00325186,0.0433483,0.0193534,0.021308,-0.0251914,0.0342907,-0.0470224,-0.05278,-0.0646735,-0.0286578,0.0196258,0.0200324,-0.0311554,0.0460753,-0.0158952,-0.0312771,0.0128892,-0.0692639,0.00197474,-0.00366433,0.0193355,-0.035272,-0.0677773,-0.0568044,-0.00818791,0.0302736,-0.000732196,-0.0465386,-0.00183335,0.0143407,-0.0362335,-0.0117496,-0.0342353,0.0102281,0.0159544,0.0271943,-0.0713692,-0.0359935,0.00366177,0.016884,0.00480939,0.0244225,-0.0167812,-0.0588936,0.0127322,-0.0190212,0.00478173,-0.0387238,0.0391531,-0.0151733,-0.0162387,-0.0259799,-0.0355352,-0.0182319,0.0339737,-0.0521738,0.0135087,0.0408131,0.0329781,-0.0267531,-0.0240959,-0.0202359,-0.0501918,0.0272674,0.0156651,-0.0227679,-0.0613894,0.0347878,-0.0535966,-0.0345831,0.00472857,-0.0331841,0.000927619,-0.0192581,0.0321649,0.00322197,0.0170972,-0.0629102,-0.0016478,0.0172008,0.0200925,-0.00404238,-0.0127902,-0.0515249,-0.0638353,0.0286426,-0.0553527,-0.009158,0.0248508,0.0349608,-0.0205776,-0.0174645,0.0267621,-0.0293143,0.0178156,-0.0318567,-0.0213853,-0.0382936,0.0346954
-0.0445382,-0.0222661,-0.027371,-0.0360148,-0.0248139,0.00521291,-0.0596605,0.0256357,-0.00861085,-0.0675059,0.0438361,0.00845226,0.00636099,0.0282567,0.0282285,-0.0379518,0.0116364,-0.0504295,-0.0248237,-0.0194484,-0.0388001,-0.0143298,0.0329563,-0.0530103,-0.0469891,0.034179,0.0105491,-0.0554529,-0.0330626,-0.0503158,0.00367867,-0.0110165,-0.0407703,0.00303965,0.0276092,-0.0257765,-0.0180905,-0.00217857,-0.0655266,-0.0145109,-0.0146633,0.0374184,-0.0420164,-0.0134847,-0.0370484,0.00344632,0.00130067,0.0246067,-0.0730841,-0.0707363,0.0104198,-0.0567774,0.0306398,0.0095551,0.0192721,-0.0534948,-0.0638758,-0.0464869,0.0344422,-0.0324392,-0.0324246,-0.0356563,-0.0433103,-0.00909548,0.0250359,0.0427597,0.0397847,-0.0480446,-0.0149753,-0.067,0.0380954,0.0115965,0.0389819,-0.00100041,-0.0191387,0.0240483,-0.0334234,-0.047832,0.0323295,-0.0445635,0.0113558,0.0205251,0.002032,0.00155787,-0.0271414,-0.0408383,0.0343337,-0.0153355,0.0329255,-0.0630858,0.0270073,-0.0211167,-0.0167427,0.027442,-0.00931803,-0.0125098,-0.00493472,0.0223755,-0.0413659,-0.0747545,-0.0339548,-0.0210448,-0.0349224,-0.0202651,-0.035276,0.00540348,-0.0403728,0.0176673,-0.0434727,0.00178632,0.024169,-0.0660166,-0.0419421,-0.0309762,0.0356973,0.0342545,0.0176405,-0.0490583,-0.0452289,0.000428918,-0.0571872,-0.0560574,0.0445209,-0.0633967,-0.0150092,0.039539,-0.00838442,0.017272,-0.0212566,-0.0249625,-0.0347056,0.00437146,0.0109642,0.0151524,-0.0126931,0.00393586,-0.0100884,0.0393777,-0.0483973,-0.0393771,-0.0646352,-0.0373241,-0.0455948,-0.0107695,0.0359108,0.0398804,0.0370871,-0.0144001,-0.0228015,0.0120093,0.0415739,0.0255907,-0.0142637,-0.0307996,0.0236335,-0.0262216,-0.0256159,-0.00397126,-0.00399094,-0.0605548,-0.0566774,-0.0219503,-0.0664509,-0.0356471,-0.0431142,-0.0231361,0.0145191,-0.0419767,-0.0119084,0.0380109,-0.00687306,-0.0706514,-0.0552069,-0.0278534,-0.0662662,-0.0255247,0.0158686,-0.00157488,0.0236434,0.0217362,-0.018644,-0.0291376,0.0220628,-0.0145151,-0.0559528,0.0405555,-0.000313347,0.0158105,0.0165576,-0.00179816,-0.0522848,-0.0526185,-0.0130279,-0.0207597,0.0109348,-0.055894,-0.0465063,-0.0232352,-0.0630508,0.0203929,-0.0334892,-0.0217135,-0.00127249,0.0403288,-0.00403566,-0.0063966,-0.0278689,-0.0632651,-0.0648807,0.00606389,-0.0179202,0.0138214,-0.0515034,-0.00175401,-0.0278502,0.030788,0.0133487,-0.0333475,-0.0251792,-0.0717671,0.00628765,-0.00873194,0.0239927,0.0407941,0.0412585,-0.0217892,-0.0448268,0.0253476,0.0070528,-0.0282054,0.0173946,0.00732818,0.0414231,0.0120251,0.0373686,-0.0142168,-0.0400721,-0.038157,0.0167355,0.0296246,-0.0653191,0.0268744,-0.00949227,-0.0653889,-0.000961771,-0.0122843,0.0150021,0.00973819,-0.0306687,0.0232526,0.00349353,-0.0606115,-0.0295759,0.00596073,0.0344261,0.00864167,-0.0543413,-0.00427113,0.0120256,0.00330888,-0.00628887,-0.0631802,-0.0478324,0.0366427,-0.0275342,-0.0354486,-0.0019411,0.0142815,-0.0179305,-0.0222464,-0.0648903,0.0329065,-0.00498691,-0.0052967,-0.0095865,0.0399702,-0.0537443,-0.0351308,0.0231832,-0.0356113,-0.037461,-0.0547652,0.00301504,-0.00206969,-0.0144073,-0.058054,-0.0135122,-0.0107947,0.0172925,-0.0430028,-0.0354794,-0.0635221,-0.032511,-0.0671211,0.0398197,-0.0183403,0.013731,-0.010968,-0.0271896,-0.00408814
0.00400592,-0.00584648,0.0389353,0.0143659,-0.00294108,-0.0218533,0.0412752,-0.0350822,-0.0358287,-0.0400453,0.0403642,-0.0437399,-0.0617332,-0.0569151,-0.0266827,-0.0461075,0.0435393,-0.042099,-0.023874,0.0244524,-0.00917353,-0.0102106,-0.0125661,-0.0504772,-0.0379052,-0.0401358,0.0322908,-0.0456881,0.00353314,0.042004,0.0313619,0.0404453,0.0441487,0.0142665,-0.0637555,-0.0652339,-0.0701329,0.00175952,0.0386345,0.0113609,-0.0053445,-0.0665534,-0.00411983,-0.027731,0.0190062,-0.0145932,-0.0545124,-0.0131624,-0.03859,-0.0535069,0.0265044,-0.0635284,0.0169776,-0.0109878,0.00140998,-0.0125594,-0.0647687,-0.0378466,0.0113941,-0.00863446,0.00306465,-0.0256487,0.045619,0.00446574,0.0367856,-0.055621,0.0391664,0.0215256,0.0450035,-0.0455983,-0.00545108,-0.0364741,0.0273903,-0.0537192,0.0422862,0.0321196,0.0236556,-0.00974558,-0.0233074,0.0103936,0.00984998,0.00896545,-0.0601937,-0.0643623,0.00578263,-0.0158781,0.0155284,0.011158,-0.00296811,-0.0558711,-0.0579497,0.0290151,0.0196371,-0.0676178,0.00208979,-0.00570159,-0.0443798,0.0181035,0.00295968,0.0258916,0.0298718,-0.0122265,0.00951685,-0.042952,0.00416649,0.0108998,0.0010568,0.0419901,0.0284575,-0.0568744,-0.0101723,0.0264977,-0.0270126,0.000166379,-0.0444879,0.0143307,0.0291279,-0.0184367,0.0115066,0.0318264,-0.00864063,-0.0641413,-0.0126389,0.020525,-0.0574768,-0.0484781,-0.0506258,0.0370385,-0.0519025,-0.0503816,-0.057289,0.0363053,-0.0106644,0.00117559,-0.0467897,-0.0511273,-0.0598463,-0.0620706,0.0359997,-0.0355159,0.00419438,-0.0457336,-0.0227097,0.0326942,-0.0121161,0.0317919,-0.000276637,-0.0208779,0.0446485,-0.0377334,0.0198949,-0.0578999,-0.022683,-0.0085979,0.0249426,0.0349092,0.0318167,-0.0634729,-0.00476661,-0.0257654,0.0177379,-0.0483929,-0.0455992,0.00552955,-0.0323683,-0.0015023,-0.0632943,-0.0164525,-0.0140194,-0.0173059,-0.0162553,-0.0437479,0.0382966,-0.063902,0.00112987,-0.00699531,0.0147112,0.0152802,-0.0325118,0.024894,-0.0181503,-0.0201419,0.0128401,0.00751694,-0.0378953,-0.00517931,0.0197705,-0.0364953,-0.0495866,0.0291713,-0.0456129,0.00605619,-0.0140157,-0.00161725,0.00238154,-0.0649817,0.0482072,0.0324277,-0.029506,0.0426527,-0.0615024,-0.0235071,0.0441835,-0.0480559,-0.0340361,-0.0738856,-0.0504105,-0.0501183,-0.0181053,-0.067611,-0.0385179,-0.0133729,0.0205572,-0.0505509,-0.054764,-0.0631742,0.00595578,0.0237668,-0.0615291,-0.0193079,-0.0395265,-0.0220353,0.0039443,-0.0159443,-0.0667596,-0.0237465,-0.00128991,0.00105236,0.00337585,-0.0440379,0.0363186,0.0135614,-0.0532188,0.0399706,-0.00240018,-0.0440245,0.031507,-0.00728651,-0.0393443,0.0392553,0.0340619,0.020986,-0.0223926,-0.0332434,0.0321261,-0.0366336,-0.00841871,-0.0213679,-0.0179624,0.00457151,-0.0402357,-0.017987,-0.0662102,-0.00081873,-0.0631289,-0.0137949,-0.0130192,-0.0337316,-0.0269087,0.0325765,-0.0336663,-0.0394846,0.0342121,-0.0593354,-0.0613629,0.027226,0.0218467,-0.0166916,0.00169251,-0.00612273,-0.0676374,-0.0689739,0.0186861,-0.0278221,0.0120337,-0.022233,0.0227547,-0.0468559,-0.00834805,-0.0647263,-0.0561338,0.0129626,0.000339608,0.0147293,-0.0583096,-0.0113249,-0.0571681,-0.0173239,-0.0394524,-0.0123418,-0.048351,-0.0360986,-0.0325223,0.0273456,0.00372237,0.0365354,-0.00782849,-0.0258918,0.0400232,0.00114345
-0.00999575,0.0152669,-0.0358367,-0.0484491,-0.0182205,0.00960563,0.0271852,-0.00898841,-0.00495724,-0.0110288,-0.0601798,-0.0211023,-0.0211621,-0.0607044,-0.0542719,-0.053692,-0.0600361,0.028567,0.00699228,-0.024518,-0.0284433,-0.028405,0.0432393,0.00822936,0.0358241,-0.0556636,-0.00145647,-0.0289853,-0.0439481,0.0460275,-0.00108478,-0.0335545,-0.00568015,0.0405219,-0.00156365,0.0221572,-0.0274826,-0.0210361,0.0377319,-0.0564271,0.0403282,0.0116281,0.0235648,-0.0586932,-0.0338686,-0.0157675,0.0344577,-0.0125787,-0.0624276,0.0235036,-0.0059827,-0.0434725,-0.070578,0.0245015,-0.040696,0.0338692,0.00924701,0.0294091,-0.0268988,0.0321416,-0.0436784,0.00657441,-0.0572667,-0.0488484,0.0178026,-0.0508496,0.0375985,0.0390273,0.0165951,-0.0536573,-0.0446494,-0.0610806,0.012073,-0.00230229,-0.0385896,-0.0271197,0.0138805,0.0256425,-0.0404523,-0.0675365,-0.0448796,-0.00446988,0.000844294,0.0112284,-0.0536849,-0.0656396,0.00418868,-0.04112,0.0200252,-0.0228513,-0.0473473,-0.0648691,0.0414555,-0.0180687,-0.0153024,0.0427706,0.0180039,0.00803713,-0.042019,0.0275631,-0.0546791,0.0448274,0.0192929,0.0268141,-0.0711247,0.0428404,0.0180664,0.035556,0.0413602,-0.0675213,-0.0606367,-0.00468005,-0.0668971,-0.00679715,0.0244184,0.00436395,-0.00352271,-0.0700786,-0.00265564,-0.0498358,-0.0181731,0.0203826,-0.0165603,-0.0329983,-0.0574883,-0.0495396,0.0160713,-0.0470669,-0.0367787,-0.0652002,0.0144357,-0.0489966,-0.0267109,0.0411897,-0.0395495,-0.0491049,0.0312203,-0.0489813,-0.0393744,-0.000872293,-0.0436333,-0.0327157,0.00111993,0.0465107,0.0487947,-0.0465059,-0.0610372,-0.0557917,-0.0638911,0.0350878,-0.0532236,0.00538481,0.00797822,-0.0122969,-0.0418952,-0.0483143,-0.0627736,0.037786,0.0414663,-0.057863,-0.0294147,-0.0453677,-0.0299716,0.0396725,-0.0370176,0.00783585,-0.0609841,0.00481022,0.0302189,0.0437244,-0.0399793,0.0322606,-0.0335167,-0.0557952,0.0421184,-0.0206334,0.0267551,-0.0211505,0.0219482,-0.0475,-0.0301094,-0.0189132,-0.0188327,-0.0478505,0.00592093,0.0205108,0.0205068,0.0121594,-0.0445426,0.0424063,0.01373,-0.0289635,-0.0183541,0.0238704,-0.0586464,0.0121435,-0.0593711,-0.0170338,-0.00720641,-0.000193539,0.0306725,0.0266362,0.0234522,-0.0383005,-0.0632079,-0.0172941,0.0063377,-0.0511784,0.0351234,-0.0224466,0.0311294,0.0371411,-0.0647651,0.0435796,0.00275398,-0.06728,-0.0201382,0.0134324,0.0428878,0.0369209,-0.0395825,0.0319461,0.00419535,0.00224194,-0.061678,0.0218221,0.0380311,-0.0109473,0.0269436,0.0305903,0.0255772,-0.0281023,0.0109049,-0.025225,-0.0277103,0.0190491,0.00509303,-0.0146293,-0.0521496,0.0411504,-0.0423591,-0.0485143,-0.0451147,0.021788,-0.000297074,0.0439332,0.0239556,0.0430307,0.000514548,-0.0454996,0.0127145,-0.0188008,0.0200834,0.0145602,-0.0501099,-0.00206019,-0.053844,0.0275102,-0.0237979,-0.0568202,-0.0536354,0.0376376,0.0173684,-0.0340541,0.00277941,0.0272751,-0.035296,0.0370377,0.0203515,-0.00790142,-0.0143569,-0.00586239,0.00422276,-0.0350617,0.047082,-0.057213,-0.0112425,-0.0679727,-0.0579319,-0.0589916,-0.0524598,-0.0712783,-0.0610623,-0.0643037,0.00140179,-0.05868,-0.0376299,-0.0212687,-0.0423124,0.0206528,-0.0360469,0.0236826,0.0116263,0.0224141,-0.0643172,-0.00693983,0.0172558,-0.0663763,-0.0487691,-0.0612755
0.0232688,-0.0578122,0.00461946,-0.0674061,-0.0181164,-0.00163911,0.0162941,-0.0563053,-0.0589673,0.0234936,-0.0155965,-0.0409007,0.0427584,0.0125452,-0.0420419,-0.0550903,0.0365495,-0.00584417,-0.0563965,0.0321004,-0.0216788,0.0373112,0.020644,0.0175139,-0.0504755,0.0417877,0.0467711,0.038057,-0.0324609,0.0421692,0.00466144,0.0381961,0.0192449,0.00260686,-0.0411965,0.00148914,0.0333486,-0.0249847,-0.0421495,0.00776042,-0.0525155,0.0294411,0.0424446,0.0328667,0.0220891,0.0294632,-0.0449187,-0.0532838,-0.0260825,-0.0680252,-0.0597045,-0.0637263,-0.0330905,-0.0375791,0.0106861,-0.00500363,-0.00613586,-0.00735363,-0.0640379,0.015635,-0.0690967,-0.0662544,0.0470722,-0.0547712,-0.0457307,-0.0449518,-0.000116406,0.0124804,-0.0493696,-0.0351986,-0.0156899,-0.0197659,0.00433385,-0.00608638,-0.062008,-0.0232267,0.00628068,-0.00174443,-0.0488367,0.00473565,-0.000608933,0.0192767,-0.0441863,0.0395593,0.0210885,-0.0119676,-0.052431,-0.036307,0.0246397,-0.0113205,0.0303533,-0.00869159,-0.069142,-0.0572833,-0.039286,-0.00361182,-0.0548342,-0.0372341,0.0234482,-0.0603674,-0.0296799,0.0344088,-0.012811,0.0105522,0.0272803,0.0445036,0.0414439,-0.0579483,-0.00940504,-0.0294591,0.0427647,-0.0144959,-0.0172308,-0.0268375,-0.0670058,0.0149139,-0.0362546,0.0234121,0.0199051,-0.0705273,-0.067574,-0.0468776,0.00602748,0.0363486,-0.027693,0.0103539,0.0278564,-0.00335263,-0.0230098,0.00624287,-0.058463,-0.0684061,0.00352321,-0.0137156,-0.0261364,-0.0331437,-0.0434528,-0.0111829,0.0210633,0.0123998,0.0132308,-0.0272356,-0.0188447,0.0364057,-0.033908,-0.0310605,-0.0412657,0.0363404,-0.0599409,0.0199333,-0.0100705,-0.0329775,0.0253049,0.0160497,-0.0439857,0.0313551,-0.0537731,-0.0111911,-0.0353482,-0.0537301,-0.0270624,0.0167318,0.0302606,0.00286405,0.00543154,-0.0577502,0.0306358,-0.00820303,0.031769,-0.0453063,-0.0590856,-0.0378579,-0.0534426,0.0448649,-0.0246368,0.0358193,-0.0504199,0.0234595,-0.0347647,-0.0314024,-0.00834899,-0.0150883,-0.0453991,0.00907091,-0.0344148,-0.0540638,-0.0198145,0.0070398,-0.0155996,0.0393196,-0.0252514,-0.0246315,-0.0554098,0.0389715,0.0285925,-0.00193632,0.0074416,0.0175297,0.0108516,-0.00906261,0.0349726,-0.0557776,0.00502107,-0.0176058,-0.0163465,-0.0556744,-0.0454965,0.0376491,-0.015951,-0.0321673,0.0391975,-0.05991,-0.029312,0.0284704,0.041407,-0.0616761,-0.0266209,-0.0254189,-0.0363076,-0.0462042,-0.0226733,-0.0040986,-0.0661396,-0.0618351,-0.038975,0.0161523,-0.00210953,0.0358093,-0.0182586,0.0299761,-0.0632428,0.0301141,-0.0409498,-0.05388,-0.0577579,-0.0513275,-0.058702,0.000991364,0.0450861,-0.0321499,-0.0303256,-0.0597181,0.0132988,-0.0366286,-0.00696953,0.0434427,-0.011806,0.0368923,-0.0625368,-0.0405034,0.0465398,-0.0211058,-0.0231053,-0.0189436,-0.0509673,0.00334394,-0.0197871,-0.00595925,0.0219625,0.00736122,0.0322012,0.0199544,0.0140405,-0.0247979,-0.0281699,-0.042516,-0.0478192,-0.0348504,-0.0104794,0.010601,0.0244668,-0.06139,-0.0274296,-0.0218037,-0.0214035,0.0189251,0.00636585,-0.0703304,-0.0464215,-0.0179096,-0.0433304,-0.0485278,-0.0636727,0.0401779,-0.0580014,-0.033086,-0.068053,0.0293456,-0.0143064,-0.0396393,0.0129615,-0.0197512,-0.030236,0.00370047,-0.000932203,-0.0181024,-0.00996764,0.0332852,0.0416893,-0.0144514
0.00850502,0.0358461,-0.0281129,-0.0406326,0.004123,-0.00631714,0.0171288,0.0359755,-0.0167483,-0.0484422,0.00338359,0.0203024,-0.0228229,-0.0456892,-0.0202402,-0.0152707,0.0296437,-0.0286275,0.0189696,0.0388504,0.0344177,0.0255078,0.024591,-0.0444327,-0.0406075,-0.0504497,0.0116044,-0.00815543,-0.0425517,-0.050725,0.0283286,-0.0537736,-0.0541557,-0.00394889,0.0435478,-0.0600929,-0.0348795,-0.0201447,3.58569e-05,-0.0111342,0.0330006,-0.00820642,-0.0241261,-0.047792,-0.00850841,-0.0668964,0.0202991,0.033855,-0.0421309,-0.0463116,-0.05798,-0.039256,-0.0552726,0.00680892,-0.0462394,-0.0131603,-0.0638204,-0.0619578,0.0140823,0.0327662,0.041652,-0.00673998,-0.0550948,-0.0582113,-0.0397418,-0.00840244,-0.0541919,0.025178,-0.0239907,-0.0388357,-0.0345929,-0.0584817,-0.0539259,-0.0106396,-0.00857776,-0.0322493,-0.00652327,-0.0554827,0.0378041,-0.0204225,-0.0285424,0.0243039,-0.000404631,0.0356342,-0.0158122,0.0453124,-0.0461883,0.0102579,0.043461,-0.0398458,-0.0447142,0.00549435,0.021058,-0.0621903,0.0362571,-0.0457838,0.0406885,0.0267772,-0.00267263,-0.0393188,-0.0553939,-0.0367557,0.00722795,-0.0224796,0.032976,-0.0325123,-0.0243871,-0.0192846,0.0370456,-0.0318849,-0.0438512,-0.0242146,-0.0236307,-0.0505914,-0.0522465,-0.0509454,-0.0182111,-0.0588145,0.02317,-0.0100473,0.0176187,-0.0630702,0.023013,-0.0678611,0.0304923,-0.0239592,0.0102971,0.0226519,0.000835614,-0.0503099,-0.015027,0.0428176,0.00867066,-0.00228437,-0.0330048,-0.0584174,-0.029492,0.0191658,-0.0625146,-0.00814915,0.0158789,0.0152094,-0.0224148,0.0101898,0.0420029,0.0454015,0.0452419,-0.0284433,-0.00111408,0.00146819,-0.0320505,-0.00578448,-0.0115811,0.0444104,-0.00389274,-0.0429008,0.0270776,-0.00490588,0.0201734,-0.00754788,0.0451792,-0.0021016,0.0321864,0.0290551,-0.0408753,0.00168253,0.024962,0.0410079,0.0160434,0.00529625,0.00634011,0.0296454,-0.0221029,-0.0588435,-0.0123639,-0.034708,-0.0231635,-0.0552137,-0.00822125,-0.0604017,-0.0390747,-0.0307913,0.0354591,0.00794131,-0.0323208,-0.0229723,-0.0180258,-0.0166689,-0.0500953,0.0216097,0.0358767,-0.055192,0.00584528,-0.0257483,-0.062766,-0.0660239,0.0320569,0.0420357,-0.0642412,0.0241446,-0.0538463,-0.0520503,-0.064346,-0.0347259,-0.0101764,-0.0181821,-0.0218681,-0.0263338,-0.00910275,0.0380871,-0.0411468,-0.00314496,-0.0344782,-0.0139719,-0.0631987,-0.0535375,-0.00715078,-0.063635,-0.0559244,-0.010604,-0.0215764,-0.0246287,-0.00126461,-0.01765,0.00298408,0.0312735,0.0308606,-0.067462,0.011548,0.0375622,0.0348383,0.0275448,0.0196425,-0.061505,-0.0655023,-0.0238842,-0.0524828,0.0218576,-0.00176194,0.0385177,-0.0323045,-0.0414286,-0.0259143,-0.0344786,-0.033102,0.0148417,-0.00251508,-0.0297574,-0.0283078,0.0158997,-0.0069403,-0.0599395,-0.0482111,-0.0271327,0.00563784,0.0132551,-0.0630665,-0.0300754,0.0416126,-0.0667355,-0.0313953,-0.0302544,-0.0200852,0.0061354,0.0198335,-0.0621996,-0.0491415,-0.00914042,-0.00570021,-0.0351566,-0.0459661,0.00983247,-0.01364,0.0299463,-0.0281872,0.00202364,0.0105706,-0.0668055,0.0113698,0.0191878,-0.00917282,-0.000793188,-0.0208397,0.0172295,-0.0116224,-0.011423,-0.0619116,-0.0560742,-0.0270205,0.00155464,0.0170034,0.0075139,0.0308458,0.0145079,-0.00466134,-0.0662979,0.0410011,-0.0597226,0.00736228,-0.0213733
-0.049605,0.0186195,-0.0293299,-0.0544713,0.0187413,0.0010343,-0.0163642,0.0197447,0.0234285,-0.0246311,-0.0189025,-0.0280891,-0.0102795,0.0128416,-0.0582439,0.0370662,-0.0433386,0.00103991,0.0401805,-0.0438006,-0.0545516,-0.0464483,-0.0344056,0.0253743,-0.0229936,0.0255094,-0.0570475,-0.0138507,-0.0440625,-0.0392039,-0.0140981,-0.0287639,0.0114998,-0.0661614,-0.0527423,0.0423883,-0.0455014,0.0185605,0.0413373,-0.0267709,-0.057937,0.0312254,-0.0417837,0.0380195,-0.0411213,-0.0193302,-0.0295218,0.0126682,-0.056867,-0.0318475,-0.0198878,-0.0207644,0.0283567,-0.00367999,0.024733,-0.047059,0.0379322,0.00390029,-0.0218709,-0.0587856,-0.00995599,-0.0465793,0.0186371,-0.0245035,0.0314809,-0.0503242,-0.00086036,-0.0665403,-0.00367247,-0.0369825,0.0116271,-0.0315866,-0.0402265,0.0173107,-0.054674,0.0193443,-0.0231966,-0.00747567,0.0409599,-0.070061,-0.0102313,0.0154673,-0.00290045,-0.00493759,0.0328673,-0.0060408,-3.31706e-05,0.036836,0.0173061,-0.0439962,0.0249382,-0.0614507,-0.048491,-0.0389095,0.0417334,0.00578564,-0.0675251,-0.0539749,-0.0045689,-0.00402623,-0.0045491,-0.0667849,-0.031172,0.0384936,-0.00223303,-0.0540723,0.0348293,-0.028076,-0.00163925,0.043974,-0.0291858,-0.0429264,0.0397706,0.00252033,-0.0468895,-0.0421973,-0.031023,-0.0634676,0.045649,-0.0088972,-0.0559836,0.0133565,-0.0290131,-0.0540353,0.0240149,0.0370234,-0.0393245,-0.0156381,-0.019849,-0.0293467,0.021389,0.0452056,0.020927,0.00404411,0.0402255,0.038033,0.0255007,-0.0586673,-0.00927665,0.0436216,-0.0581051,-0.038714,-0.0591927,-0.0552683,-0.0167011,0.0320577,-0.0109536,-0.0117564,-0.0567621,-0.0496145,-0.0240044,-0.0493207,0.0255195,-0.0133021,0.0295733,-0.0303436,-0.0467559,0.0338461,0.0090909,-0.0351171,0.0117068,-0.0260481,0.0194682,0.0269054,-0.0480512,-0.00196525,0.0238082,-0.0458548,-0.0408004,0.00655421,0.0281893,-0.0125841,-0.0225528,-0.013747,-0.000741065,-0.0384644,-0.0594754,0.015323,-0.0369711,0.00248572,-0.062081,-0.0631343,-0.0117688,0.0317697,0.0225774,0.00961788,-0.00252869,-0.0185008,0.0237419,-0.0627669,0.00325901,-0.0569495,0.025031,-0.0218522,-0.049458,-0.0531694,-0.046377,0.00731949,-0.0556159,0.0293117,-0.0371541,-0.0468825,-0.0444031,0.00123856,-0.0593836,-0.0193227,-0.0233835,0.0145714,-0.0423081,0.0100052,-0.0446755,-0.00577509,-0.0589189,0.03482,-0.00353406,-0.0594616,0.0173175,-0.0409418,0.015292,0.000430224,-0.0225304,0.00217554,-0.0475064,-0.067046,-0.0114251,-0.0111107,-0.0336119,0.00683134,0.0419483,-0.0617604,0.0444461,0.0171103,0.0297684,-0.00208966,-0.0213709,-0.0528868,-0.00792051,-0.0333167,-0.0538526,0.0156056,0.00959154,-0.00132929,0.0419507,-0.0235744,0.0132343,0.0230704,-0.0350818,-0.0451555,-0.0550281,0.0285374,-0.00510141,0.0435082,0.0339066,-0.0221121,-0.00429063,-0.0272948,0.0377587,0.00203753,-0.0232848,-0.00833497,-0.0452316,0.0107809,0.0304774,-0.0189161,0.0396825,-0.0626793,-0.0634482,0.0142143,-0.0614925,-0.023985,-0.0411081,0.0387509,-0.0209128,-0.0605111,-0.0118017,-0.0143724,0.0253408,-0.0384603,0.0246147,0.0179781,-0.0591821,-0.0443101,-0.0586968,-0.0495259,-0.0142834,-0.000183086,-0.0454636,-0.00435424,-0.00290008,0.0212737,0.0297104,-0.0226601,-0.0573033,-0.0033927,-0.0546443,0.0147341,-0.0319701,-0.000478981,0.0110362,0.00416512
-0.0667187,-0.00319958,-0.00503738,0.0360969,0.033055,-0.0601404,0.00888813,0.0238978,-0.0381104,-0.0029001,-0.011236,0.0347189,-0.00729876,-0.0638552,-0.000875969,-0.0590193,0.0485253,-0.0466149,0.0192067,-0.0480896,0.0210443,0.0255451,0.0267705,-0.064379,-0.00155011,0.00706936,-0.0110638,-0.0441114,-0.0520215,-0.00416669,-0.0645554,-0.044081,0.0426522,0.0467306,-0.0040165,-0.0567738,-0.0221389,-0.0014268,-0.00877503,0.0458668,0.0346954,-0.037357,-0.0296196,0.021418,0.0146462,-0.0467064,0.0280008,-0.0588782,-0.0488284,0.0280217,0.0477706,-0.0238378,0.04544,-0.0163726,-0.0312361,-0.0563793,-0.0626414,-0.0275594,0.00294683,-0.016671,-0.0532712,-0.00137259,-0.0467154,-0.0627366,-0.0543072,-0.0221435,-0.0140833,0.0390729,0.0450175,-0.0383156,-0.0366938,-0.0670933,-0.0569734,-0.044828,-0.0584941,0.0349986,0.0174797,-0.0162859,-0.0289663,-0.0324777,-0.0603048,-0.0518802,-0.00445675,-0.064878,0.000746856,-0.0179401,-0.0414525,0.0363293,0.0265268,0.0264299,-0.0314451,-0.0411436,0.0462055,0.0365001,0.0318139,-0.0240438,-0.0199708,0.0248357,-0.0150825,-0.0266235,-0.0452241,-0.0341461,-0.0556319,-0.0524344,-0.00106444,-0.0322152,-0.0488961,0.0386921,0.0442824,-0.0149035,0.00747589,0.028186,0.0162743,-0.057096,0.0407549,0.0266036,-0.024912,0.0313312,-0.0501849,0.00632872,-0.00514248,-0.0323564,-0.0539947,0.0227928,-0.0410274,0.0446794,-0.038967,-0.0396021,0.0210228,-0.037421,-0.0610056,0.0420412,0.036168,-0.00800284,0.0202278,0.0371393,0.0255564,-0.000381061,0.0340068,-0.0562847,0.0291526,0.0472351,-0.0336303,0.00122222,0.011297,-0.0339895,0.0357987,0.0391828,-0.0476275,-0.0582038,-0.0591228,0.0223484,-0.0184492,0.010605,-0.0248768,0.0257703,0.0391133,0.016166,0.0346792,-0.0281611,-0.0529692,4.51024e-05,-0.0319278,-0.0344959,0.0196758,0.00737542,-0.0237475,-0.0344191,-0.0552506,0.00502065,-0.0429795,0.0380292,0.0132846,-0.0577016,-0.0151355,0.027383,-0.00753334,-0.0486441,-0.0355818,-0.0263162,0.00336528,-0.0249611,-0.0272861,0.0413809,-0.0637489,-0.0397597,-0.0240819,-0.0467298,0.0286115,-0.00437133,-0.0239513,0.0410604,0.0344869,0.00397379,0.0148222,0.0215881,0.0139789,-0.0547761,-0.0128886,-0.0665613,0.0481856,0.048174,-0.019207,0.00330811,0.0330897,-0.053038,-0.0265587,0.0370275,-0.0501756,-0.0514826,-0.00210021,0.0128779,0.0258036,-0.0457138,-0.0465783,0.0274668,-0.0211901,0.0384014,-0.0325716,-0.00929057,-0.0514301,-0.0164148,0.0161469,0.0182478,-0.0529241,-0.0262148,-0.0379731,0.0304261,-0.0561016,-0.0525441,-0.050139,-0.0181281,-0.0425291,-0.0155861,-0.0600063,-0.0459639,-0.0514939,-0.00786598,-0.0390061,-0.0608118,-0.0267804,-0.064778,0.0285944,0.03857,-0.0269926,-0.00169129,-0.0619624,-0.030454,0.00768894,-0.00986487,-0.0615118,0.0194432,0.0321551,-0.0232366,-0.0335513,-0.0258918,-0.0611748,-0.0641618,0.0125805,-0.0411772,0.0127787,-0.0632425,0.0242721,0.0377389,-0.0199653,-0.0473147,-0.0644173,-0.0476103,-0.0160713,0.0298016,-0.0477084,0.0411992,-0.00987138,-0.0380982,-0.0166236,-0.0625153,-0.0280028,-0.0597174,0.0285011,-0.00845948,0.00871396,-0.0173019,-0.0429225,-0.0199618,-0.0363286,0.0448537,-0.0639626,-0.0507757,0.017264,-0.019228,0.0161176,-0.0233288,0.0116029,-0.0486071,-0.0535963,0.0203206,-0.0192576,-0.0146243,-0.0611057,-0.0506151
-0.0255032,-0.0558995,0.0332857,-0.0131426,-0.0521109,-0.0267571,0.00648283,-0.0296237,-0.0320943,-0.0118575,-0.0281605,0.0125828,0.012625,-0.006475,0.0301103,-0.0118112,-0.0101921,0.0259905,0.0179653,-0.0619082,0.0276222,-0.00320059,-0.0209325,-0.0110043,0.0373992,0.0260364,-0.040007,-0.031075,0.0105655,-0.00967058,0.0416683,0.0341658,0.0375357,0.0258576,0.0204583,-0.0508292,-0.0183754,-0.0599468,-0.053055,-0.016586,0.0068803,-0.0494202,0.031937,-0.0423694,-0.0173248,-0.0621947,-0.0286762,-0.0672165,0.0304236,0.0390577,0.0388216,-0.0312509,-0.0150261,0.0184735,0.0091028,-0.0468455,-0.0314028,0.00329079,0.0330826,-0.0630855,-0.038019,-0.052342,-0.0548566,0.0128848,0.000731966,0.0447171,0.0449595,-0.0505392,-0.0397934,-0.0581758,-0.0158655,0.0423444,-0.0356487,-0.0160458,-0.0252129,0.0133016,-0.0445241,-0.018583,-0.0590944,-0.0650683,-0.0537113,0.0359123,-0.00276254,0.0323646,-0.0431088,-0.00305203,-0.0455094,-0.0604452,-0.0282627,-0.0358357,-0.00120801,0.00375003,-0.0148926,0.0220375,-0.0579621,-0.00384817,0.0150821,0.0412863,-0.0295273,-0.0258752,0.0248605,-0.0183633,0.0323194,0.0123777,0.00517594,-0.0455993,0.0105235,-0.0574009,-0.00954269,0.00823227,-0.00196288,0.0309594,-0.0564405,0.0319276,-0.0272431,-0.0516945,-0.0437981,0.0327059,-0.0602749,0.028314,0.0347346,0.021638,-0.00686079,0.0395907,0.00891987,0.00795012,-0.00544215,-0.0704905,-0.0662533,0.0231263,0.0475658,-0.0629147,-0.0432256,-0.0183499,-0.0151498,-0.0142366,-0.00947957,-0.0188416,-0.054678,-0.0228338,0.00906389,0.0147224,0.0396325,0.0136323,0.0244984,-0.0119016,0.0103812,-0.0521913,0.0451006,-0.0364658,-0.0556199,-0.0331338,-0.00787918,-0.00901761,-0.00938403,0.0165294,-0.0445337,0.0165672,-0.0727757,-0.00882097,0.0376788,0.0208294,-0.0641715,0.0262544,-0.0552432,0.0103968,-0.0253786,0.0163645,0.0272149,-0.067687,0.0218877,-0.0363482,-0.0409961,0.00865583,-0.0455366,-0.0277314,0.0165212,-0.0434455,-0.0443491,-0.0190986,-0.0610121,-0.034137,0.0361418,-0.00593229,-0.0647128,-0.00593875,0.0028036,-0.0555103,-0.0544606,-0.00340525,-0.02964,0.014578,0.0387647,0.0336676,0.041898,-0.0302287,0.0310176,1.93748e-05,-0.0631117,-0.0252392,0.00490183,-0.0062223,-0.0261597,-0.0321885,-0.0222672,0.0423471,-0.0525725,0.020812,0.0305657,-0.0464038,-0.015501,-0.0287896,0.0401129,-0.0635591,-0.0676839,-0.0301711,0.000574253,-0.0464931,-0.0646186,-0.0321787,-0.0176423,-0.0246574,-0.0149905,-0.0145483,-0.057039,-0.00281915,-0.061304,-0.0313331,-0.0578898,0.0407812,-0.0674712,-0.0422904,0.0347442,-0.00216206,-0.0670301,-0.0326252,0.0435662,0.0271397,-0.0518163,-0.014139,-0.00146737,0.0157521,0.0278113,0.00947901,-0.0203405,0.0320786,-0.0596424,-0.0247391,-0.0407978,-0.00971899,-0.0590861,-0.0385233,0.0189692,-0.0460001,-0.0426521,-0.0571801,0.0190571,-0.0555652,0.00921632,0.0145834,-0.0146409,0.00938513,0.00577725,0.00402474,-0.0015764,-0.0124107,-0.00963756,0.0226743,0.0472135,-0.0542037,-0.0555569,0.0251769,-0.0238204,0.0243428,-0.0383768,-0.0211477,-0.0380491,0.0359401,-0.0590339,-0.0593747,0.0448502,-0.0473701,-0.0301412,0.0337065,-0.0270109,0.00387839,-0.00804922,-0.0167756,0.0198405,-0.0107035,-0.00309226,-0.0465228,-0.0121875,-0.0498678,-0.0283686,-0.048842,0.0293824,-0.0359279,0.0233775,-0.0196349
-0.0204616,0.00375416,0.0376709,-0.0322875,-0.0502895,0.0277656,-0.0614221,-0.0517259,-0.0294926,0.0230255,0.0222442,-0.0153901,0.0138727,-0.0296524,-0.060559,5.48692e-05,-0.000220415,-0.0314747,-0.0295131,0.00170656,-0.0323848,-0.0242069,-0.00352535,-0.0294087,0.0263336,-0.0495392,0.0291942,-0.0554626,-0.0551619,0.0312546,0.00395995,0.0254755,-0.0358338,-0.0190068,-0.064236,-0.065228,-0.0110109,-0.055111,0.0173134,-0.0219304,-0.0136506,0.0213702,0.0326488,0.0354556,-0.0381801,-0.00440252,-0.00382366,-0.00247938,0.000182137,-0.0222058,0.00918533,-0.0677598,-0.0220938,-0.0661166,0.0128871,-0.0251419,0.018973,-0.00719511,-0.0700199,0.0425912,-0.0330314,0.00246237,-0.0664934,-0.062519,-0.0276498,0.00354622,0.00658825,0.0187328,0.00221609,-0.030446,-0.00500468,-0.0427992,0.0148929,-0.0715905,0.0181355,0.0384466,0.023065,0.0120155,-0.0545055,-0.0144602,-0.0330478,0.0070272,0.00973376,0.0253892,-0.00892538,-0.0611751,-0.023038,0.0367886,-0.0367095,0.01407,-0.0281787,-0.0215746,-0.0378684,-0.020816,-0.0286418,-0.0657822,-0.0389811,0.0361562,0.0295919,0.0261802,-0.0350311,-0.0706111,-0.00860319,-0.0209184,0.0147785,-0.0532681,0.0012693,-0.0410001,-0.00901118,-0.027145,-0.0488085,-0.0585283,0.0247463,0.0294488,0.0109271,0.0172509,0.0349022,-0.0422268,-0.00898529,-0.0553444,-0.0296451,-0.0361876,-0.0138992,0.0228508,-0.0425155,-0.0607341,-0.0359008,-0.0368943,0.00773046,-0.0471708,-0.014916,-0.00059147,0.0376407,-0.0286349,0.0233509,-0.0182395,0.0231235,0.0362158,0.000339598,0.0181271,-0.0611555,-0.0473409,0.00809851,0.0322291,0.0211659,0.00776489,0.0347895,0.00544447,-0.00523981,0.022339,-0.0295893,-0.0125741,0.0226583,-0.00385119,-0.0498794,0.0377501,0.0127846,-0.0581023,-0.0472647,-0.0151012,-0.0252125,0.0214971,0.0101811,0.00112195,0.0293644,0.0145409,-0.0481306,-0.0215736,-0.0517968,-0.0393739,-0.0446095,-0.0634025,0.0165568,-0.0400556,-0.0150968,0.000664172,-0.0715452,-0.0262599,-0.0509148,0.0410751,-0.0597758,0.020602,-0.0166967,0.0395705,-0.0284889,-0.00481273,0.0266246,-0.0126979,-0.0672334,-0.0420031,0.0369213,-0.00163887,0.00306187,-0.0644461,-0.0573099,0.0027851,0.0297686,-0.0599223,-0.0089459,0.0346068,0.0118635,-0.0103748,0.0195178,-0.0421951,0.0201578,0.0167832,-0.0452816,-0.0471719,-0.00535074,-0.0363564,0.0045924,-0.0170396,0.0368066,0.0164092,-0.0489396,0.0398566,-0.0487981,-0.0357718,-0.0668519,-0.0170433,-0.0446442,0.0127884,-0.0209761,-0.0355586,-0.0326231,0.0161736,-0.0113797,-0.0644749,-0.0228312,0.011118,0.038482,-0.0698607,-0.0135068,-0.0429976,0.0312692,0.0389821,-0.0682639,-0.0418309,-0.0646699,0.0138621,0.0235671,-0.0657826,-0.0445057,-0.0173945,0.00448844,-0.0480215,0.0318896,-0.0312388,-0.0317966,-0.045487,0.0275309,-0.0449546,0.0112044,0.0106027,-0.0591324,0.0317565,-0.042611,-0.0575147,-0.0254679,-0.0324043,0.0382869,-0.0553661,0.00544465,-0.0359144,0.019414,0.0414164,0.0375576,-0.0443824,0.0239474,0.019213,-0.0119146,-0.00917975,0.0218348,-0.0620348,-0.044824,0.0419332,-0.0548731,-0.0431294,-0.00302196,-0.0238254,0.0223979,-0.074093,0.0142536,0.0275582,0.039993,-0.00762674,-0.0714242,-0.00874632,0.014387,-0.032805,0.00283491,-0.0145633,-0.0406747,-0.014606,0.0408728,0.0198654,-0.012121,-0.0311892,0.00379133,-0.040079
-0.0273023,0.0209103,-0.0228944,0.0240815,-0.00965709,-0.00633455,0.0179726,-0.0152572,-0.0548055,0.029044,-0.0563481,0.0254742,0.0401379,-0.0456006,0.0216952,-0.00308776,-0.0419594,0.00466196,-0.0107304,-0.0510804,-0.0155638,0.0459173,0.00694113,0.0305033,-0.00896628,0.0378077,0.022734,-0.0173156,-0.0210291,-0.062131,-0.050157,-0.0416003,-0.00230262,-0.010637,0.0164029,-0.016686,-0.0294175,-0.0127421,0.0408676,0.00198195,-0.0655321,-0.0122846,-0.0418511,-0.0092199,-0.0255367,0.00187639,-0.0677559,0.0190095,0.00955802,-0.00442253,-0.0220998,0.0262482,0.00111325,-0.0427585,-0.00523007,-0.00363705,-0.0577393,-0.0570231,-0.0589974,-0.0171143,-0.0619203,-0.0184159,0.0468928,0.0237782,0.0194506,-0.0540805,-0.0036874,0.00900353,-0.0573793,-0.0238287,-0.00569551,0.022143,0.0155973,-0.0139815,0.0121469,0.0387379,-0.0247999,-0.0150765,-0.0516184,0.0218358,0.0330297,0.00464847,-0.0177965,-0.0213156,0.00562308,0.0387088,0.0330304,-0.0607088,-0.0496821,-0.0504229,-0.0340438,0.0167031,-0.0433625,0.0298594,0.00997419,-0.0248155,-0.0434739,-0.00045667,-0.0150595,-0.0671253,-0.0718002,0.0249403,-0.0268309,-0.0620082,-0.0298619,-0.0454766,-0.0448263,-0.0393369,0.0206164,-0.0187606,0.00611728,-0.0329427,-0.0507564,-0.0309303,0.0368616,-0.0269415,0.0403916,-0.0424462,0.0333352,-0.0365245,0.0110175,-0.0179131,-0.00901445,-0.00236238,0.0268039,-0.037921,0.0330884,-0.0376408,0.0167503,-0.040695,0.0280436,-0.0249723,-0.0571764,0.0257885,-0.0427626,0.0371166,-0.0517862,0.04058,-0.0321127,0.0100564,-0.06985,0.000454423,0.0243758,-0.0649561,0.0482681,-0.00286178,0.0412391,-0.0469214,0.00432616,0.0195789,-0.0513372,-0.045344,-0.030082,-0.0103969,0.0171928,0.0406219,-0.0674917,0.0121897,-0.0234822,-0.00321471,-0.0621233,-0.0104164,0.0288241,-0.0271555,-0.0466828,-0.0511425,-0.0237141,-0.01576,0.0436885,-0.0247133,-0.0322152,0.0391933,0.0302579,-0.0468821,0.0271297,-0.0451352,0.0216612,0.00524589,-0.0694264,-0.00696429,-0.0657784,0.0135664,0.0301676,0.000983376,-0.0215462,0.0197918,0.0381725,-0.0109721,-0.0541667,0.00724575,0.0102612,0.0179776,-0.0677718,0.0105714,-0.0441744,-0.0629625,0.020765,-0.0269343,-0.0210741,-0.0443717,-0.0588454,-0.0418487,0.0375558,-0.0594271,-0.0321257,0.0274439,-0.0459741,-0.0216472,-0.061389,0.0396315,0.00447435,-0.0234813,-0.00204934,-0.00543429,-0.0576907,0.0315255,-0.0122571,-0.0356097,0.0127427,0.034594,-0.0304345,-0.0215839,0.0435061,-0.0437581,-0.0591672,-0.0483413,0.0136904,-0.0167883,-0.0275672,-0.00746632,0.0202968,-0.0200615,-0.0534366,-0.0515046,-0.0298781,-0.0119207,-0.0380318,0.00287037,0.0405066,-0.0228566,0.0445276,-0.00438207,-0.0598855,0.0363967,-0.03334,0.0115034,-0.00212396,0.0274928,0.000408422,-0.0112213,-0.0322748,-0.0242088,-0.0155087,-0.0535952,0.00440805,0.00304012,-0.0138989,-0.0251547,0.02309,0.0324142,0.00191045,-0.0640348,-0.0105589,0.00626523,0.0388962,-0.068071,-0.0604498,0.00854976,0.037848,0.00243839,-0.00595307,0.00309434,-0.0474466,-0.0150823,0.0179001,-0.0358322,0.0243502,0.0201098,0.00959333,-0.0170161,0.0032001,-0.045506,-0.0122254,-0.00648412,0.0119062,-0.0524585,-0.0150388,-0.058682,-0.00713143,-0.0483192,0.0379425,-0.0535341,-0.0360775,-0.0120784,-0.0447918,0.0236929,-0.0487192,0.0130314,-0.0279854,0.0398414
-0.0532988,-0.0322028,0.0302351,-0.0627616,-0.0357507,-4.50678e-05,0.00612756,0.0308095,-0.0153491,0.0299171,0.0284,-0.0154257,0.00215692,-0.0116883,-0.0199663,-0.0325403,-0.017995,-0.0148009,-0.0234757,-0.0641988,0.00924511,-0.0469655,0.0471014,0.0137726,-0.0351627,0.00321785,0.0299695,-0.0616625,0.0357979,0.0369201,-0.037422,0.0414153,0.0403063,0.0157368,0.0399452,0.00144398,0.0262641,-0.0296222,-0.0684436,0.0132729,0.0281925,-0.0596191,-0.0467901,0.00140492,-0.0466539,-0.0563175,0.0391796,0.000245037,-0.0676145,-0.0567704,-0.070496,-0.0607823,-0.0521566,-0.00724867,-0.04455,-0.0513913,-0.055634,-0.0155627,-0.0458356,-0.0182259,-0.0497809,-0.0471339,-0.0164201,-0.0225672,0.020574,-0.0448967,0.00402425,-0.0493726,-0.0668204,0.037059,0.00724891,-0.0449437,-0.0561697,-0.0458135,0.00797456,-0.0515092,-0.0369438,-0.065487,-0.0617108,-0.0180109,-0.0402708,-0.0422735,0.00798575,-0.0261276,-0.00991845,0.0400737,-0.0340384,-0.0604003,0.0194785,0.000249712,-0.0569889,-0.0236358,-0.0614811,0.0224485,-0.0325434,0.0388762,0.00321155,-0.0333455,0.03577,0.0357433,-0.0618698,0.0330005,-0.0543466,-0.00815973,-0.0238936,-0.00398619,-0.00597957,-0.0605543,0.0225992,-0.0311137,-0.0487954,0.019872,-0.0350363,0.0118856,-0.0105932,-0.0417617,-0.0520536,0.0332656,-0.00559702,0.00512594,-0.00951769,0.0318868,0.00418087,0.0437323,-0.00562776,-0.0594178,0.010508,-0.0540569,0.00940042,-0.0489272,-0.0453168,-0.0452493,0.0291089,-0.0686317,-0.0361827,0.0438282,-0.0644709,0.0187698,-0.0311156,0.0325842,0.0299264,-0.0417022,0.0177874,-0.0332088,0.00771026,0.0342904,-0.00875257,-0.0406904,-0.00156621,-0.0249226,0.0387142,-0.0189803,-0.00704871,0.0471179,-0.0396012,-0.00611433,0.0236942,-0.0604603,-0.0129843,-0.0142619,-0.0356242,0.0407831,-0.0501415,-0.0409075,-0.0607679,-0.0543783,-0.00230425,-0.0205366,0.0481323,-0.0359588,-0.0254218,-0.00441626,-0.0231849,0.0238317,-0.00873054,-0.00303053,0.00657731,0.0266609,-0.0385359,0.00353544,-0.0369132,-0.0629528,0.0394999,-0.0112189,-0.00873852,-0.0473316,-0.00369343,0.0213804,-0.0324172,-0.0384273,-0.0206315,0.0326635,0.0340482,0.00490959,0.00871293,0.0223603,-0.00898943,-0.03985,0.0269801,-0.0207987,-0.0403432,-0.0336774,-0.00818339,0.0387983,0.0290951,-0.0485114,-0.0353852,0.00836508,0.0116627,-0.0343614,0.0323249,-0.00504496,-0.043376,-0.0669723,0.044922,0.040503,-0.0447614,0.0181079,-0.0438789,0.0163916,0.0433485,-0.0256697,-0.0476475,-0.0216898,0.0465624,-0.0190224,-0.0249852,-0.0268754,-0.00510361,-0.011151,0.0322898,0.0045765,-0.0634509,0.0061357,-0.0193495,0.00139974,-0.0196623,-0.0600016,0.0248647,-0.0148125,0.00221075,-0.045143,-0.0418949,-0.0314857,0.0191342,-0.0382848,0.0442535,0.0133851,-0.0378739,0.00075343,0.0208565,0.00830637,0.0166311,0.0162162,0.0116109,-0.0121656,0.0364871,-0.00859189,0.000319457,-0.0179432,-0.0303064,-0.0694631,-0.0367293,-0.0152953,0.047126,-0.0468554,0.0221488,0.018428,0.00228272,-0.022607,-0.0666816,-0.0192876,-0.0316675,-0.0557927,0.0237886,-0.0351656,0.0236404,-0.0191397,0.0465524,0.0242672,-0.0234408,-0.0145056,0.0271554,0.0284824,0.00418203,0.0046241,-0.00791271,-0.0196442,0.0116111,-0.0286005,0.0364549,-0.0655307,-0.000956417,-0.0115483,-0.049761,-0.0332442,0.0340281,-0.063996,0.0194862,-0.0133929
-0.00835078,-0.0224096,0.0433175,-0.00691011,-0.00864957,-0.0629385,-0.0614776,-0.0629556,-0.0581059,0.0232937,0.0360443,-0.0028499,0.0350453,-0.0533089,0.0309523,-0.060259,0.0354185,0.0264263,-0.0366236,-0.0188558,-0.0104746,-0.0145353,-0.0162868,-0.0485176,-0.0342063,0.0373804,0.0413577,-0.0515908,-0.0325592,-0.0128829,-0.0619703,0.0427295,0.00399356,-0.0390147,-0.0591151,-0.0590172,0.0413156,0.0315632,0.00486307,0.0128172,-0.0226644,0.00771958,-0.0220816,-0.0280102,-0.0404848,-0.0469432,-0.0495519,-0.0582679,0.00845011,0.0116436,-0.0183088,-0.016439,-0.0289837,-0.0374002,-0.0406467,0.00474103,0.0131804,-0.052059,-0.0122351,0.0413613,0.0355513,-0.0145841,-0.0105392,0.0145398,-0.0384428,0.0168403,0.0215856,-0.052346,0.0227705,-0.025877,-0.0283728,-0.0286814,0.02841,0.035907,-0.0274738,-0.0497808,0.0479232,-0.000165953,0.0219406,-0.0472741,-0.00727382,0.00496545,-0.0107918,-0.00270348,0.00171276,0.0176813,-0.028453,-0.0472617,0.0327147,0.0356277,-0.0649256,-0.0132526,-0.0361349,-0.0598067,0.0368355,-0.0182106,-0.0585458,0.000889532,-0.021804,-0.0419661,-0.0647567,-0.0665153,0.0224985,0.0293948,-0.00648163,0.0452196,-0.0173045,-0.00498316,-0.0461949,0.000846,0.0133103,-0.0685789,0.0130857,-0.00217414,-0.0464707,-0.0329447,-0.0534627,-0.0509793,-0.0503881,-0.0211411,0.020172,0.0427932,0.04341,0.00653879,-0.0613752,-0.0338316,0.0332695,0.0132858,0.0116898,0.00944538,-0.0606316,-0.0101847,-0.0330743,-0.0678458,0.0335893,-0.0277898,0.038029,-0.0350007,-0.0291868,-0.0430923,-0.045936,0.00614174,-0.0515929,-0.0370766,-0.000113205,0.0454158,-0.0700517,-0.00741083,0.00323963,0.00485539,-0.00612343,0.0469492,-0.043853,0.00376518,0.0127792,0.0253831,-0.0614843,0.0101896,0.0192261,-0.00872543,-0.0436182,0.0100322,-0.0339173,0.0450407,-0.0198365,0.0192117,-0.0187214,-0.00194248,0.0410459,0.0144858,-0.0130921,0.0340906,0.0155973,-0.0400342,0.00619306,-0.0233614,0.0103218,0.00941855,-0.0576557,0.00815719,0.0253016,-0.0259948,0.0393307,-0.0217205,-0.00251519,-0.0425091,-0.0252048,-0.0292316,-0.0688269,0.00925722,-0.0484895,0.00657402,0.0385055,0.000505289,0.0153614,-0.00580616,-0.0433717,0.0315881,-0.0664641,-0.0401537,-0.0620351,-0.0411947,0.020118,0.0181473,-0.0137035,0.000826574,-0.0559821,-0.0431211,-0.0419806,-0.00526608,-0.00446346,0.041493,-0.0360851,-0.0581327,0.0200921,-0.00887739,-0.0237902,0.0112993,0.00674475,-0.0436764,-0.0137398,-0.0219418,-0.036722,-0.0276914,-0.0595234,-0.022366,-0.00649152,-0.0168413,-0.0298153,-0.0192019,-0.0695492,0.0321762,0.0363425,0.0197697,-0.00625117,0.0258338,0.0350267,-0.0593183,0.023545,0.039474,0.0459165,-0.0162239,-0.0381587,-0.0265594,-0.0573733,0.0042797,0.0228305,0.000144245,0.0337793,-0.0409731,-0.0376612,0.046692,-0.0443209,-0.0405779,0.0102469,0.0263189,0.0464047,0.0293763,0.0307717,-0.0613833,-0.0402973,-0.0128096,-0.0320363,-0.000450712,-0.0318157,-0.0252614,-0.0582826,-0.0343422,-0.0448469,-0.0582473,-0.026348,-0.0544925,0.0323425,0.0317587,0.043208,-0.0413501,-0.0607692,-0.067503,0.0393612,0.0321054,-0.0568463,-0.0472854,0.0025988,0.0434781,0.0198206,-0.0386517,-0.0306469,-0.0106155,0.00247584,0.0476144,-0.0532926,-0.0727156,0.000191377,-0.0524546,0.0190902,-0.0570586,-0.0228137,0.0447098,0.0130426,-0.045623
-0.0380813,-0.0452158,0.0295725,0.0171183,-0.0656943,-0.0480519,-0.0280324,-0.0498665,-0.0260326,-0.0437219,-0.0452609,-0.0220886,-0.0545083,-0.0498814,-0.0416957,-0.011288,-0.0130612,-0.0258386,-0.0582554,-0.0472575,-0.0162637,0.0297698,-0.0663612,-0.0690439,-0.0639585,-0.0342831,0.0445968,0.00466391,0.0401364,0.00830699,-0.0130765,-0.0646027,0.0337017,-0.039059,-0.0265238,0.0174943,-0.00409685,0.00662658,0.0320118,0.00957582,0.0327818,-0.0505913,-0.0395886,-0.0371927,-0.033103,-0.0209295,-0.0414393,-0.0317267,-0.0170781,0.0349549,-0.0620149,0.000875538,-0.0311803,0.0184156,-0.025203,-0.0164865,-0.0262103,-0.00674171,-0.0458928,-0.00803449,0.0278909,0.0149471,0.0500388,0.0137229,-0.0282171,-0.0148402,0.0204277,0.021651,-0.0680667,0.0397269,-0.0373404,-0.00793984,-0.0533775,0.0249999,-0.0470181,-0.0305784,-0.000870308,-0.0624786,0.0369232,-0.0650803,-0.000273819,-0.0481907,0.0040214,0.0049558,-0.0629354,0.0233141,0.0322066,-0.0251619,0.00522927,-0.0361443,-0.0481354,-0.0165099,0.00664127,0.0200866,-0.0112426,0.0437101,-0.0628908,0.0482899,0.0405252,0.00183417,0.0371228,0.015491,-0.0289324,-0.0228982,0.00493205,0.0467997,0.0099441,0.00996947,-0.0699605,-0.0128771,-0.0651009,0.00139123,-0.00816069,-0.0136585,0.0442653,0.0183339,0.00878943,0.0407565,0.0219535,0.00984921,-0.0634872,-0.0197033,0.00486451,-0.0100609,0.018936,0.0301423,-0.0686987,0.0130123,-0.029231,0.0310985,0.0398882,-0.0178535,-0.0254087,0.0188649,-0.0131611,0.0295569,-0.0157969,-0.0482091,0.0458702,0.0370469,-0.00254453,0.0332676,0.0123408,-0.0648609,-0.053802,0.044801,-0.0472647,-0.059927,0.00557532,-0.0517703,0.0351579,-0.00910545,-0.060305,-0.0326809,-0.0622586,0.0393779,0.0179199,-0.0153842,0.0317951,0.0294925,-0.0168072,0.0278393,-0.0588222,0.00556392,0.0429652,-0.0374846,0.00751925,-0.0221058,0.0156653,-0.0223824,0.0392598,0.0192387,-0.0344325,0.0278058,-0.0514444,-0.0617777,-0.035268,0.00658967,-0.017539,0.0345985,0.0143067,-0.0358916,-0.0332508,0.0438527,-0.026343,-0.00210347,-0.00907247,-0.0676746,-0.0299537,-0.0293922,0.0341092,-0.0123865,0.0149094,-0.0292426,0.0358031,-0.0568369,-0.03731,-0.0105673,0.0184709,-0.0680248,-0.0638311,0.00110405,-0.051449,-0.0413165,0.0437662,-0.0289396,-0.0323543,-0.0633869,-0.0530541,-0.049906,-0.0447578,-0.0274918,0.00583767,0.0288841,-0.0654991,-0.00686194,-0.00785207,0.00153636,-0.0199512,-0.0119916,-0.0275477,0.0389846,-0.00141754,-0.0030761,0.0377802,-0.00844405,-0.0328346,0.0384101,-0.0609477,0.0481488,0.0142324,-0.0678274,-0.0111702,0.0206966,-0.0369607,-0.0474248,-0.00141379,0.0242401,0.0145677,-0.0464343,0.045852,-0.00975089,0.033216,-0.0580378,-0.00603144,-0.0213642,-0.0450752,0.0125296,0.043912,-0.0724882,-0.0425294,-0.0587031,0.0156722,0.0309761,-0.0677361,-0.0187605,-0.00671218,-0.0255514,0.00735559,-0.031514,-0.0198459,-0.0455698,0.0310838,0.0201066,-0.0186345,-0.0343627,-0.0191161,0.00094069,-0.0231845,0.0175082,0.0208667,-0.00622375,-0.0220118,0.00549442,-0.0506435,0.00702963,-0.0634889,-0.0282413,0.0325251,0.0065998,-0.0404202,0.041375,-0.0167252,-0.029359,-0.0466336,-0.0505579,-0.0279602,-0.0118584,-0.0138471,0.0319942,-0.0670606,-0.0646796,0.0450782,-0.0379166,-0.023342,-0.0263108,0.0185924,-0.0615947,-0.0165635,0.0242763
-0.0171591,-0.019522,-0.0545987,-0.0419127,-0.0605022,-0.0344047,0.0304173,-0.0169337,-0.0328183,-0.0540066,0.0303097,0.0380084,-0.0277381,0.0463668,-0.0144554,0.0221016,0.0152013,-0.0647231,0.00529214,0.0247876,0.0228498,0.0369245,0.00935411,-0.0373911,0.000992621,-0.000125794,0.0212065,-0.0411082,-0.0578267,0.032004,0.00560335,-0.0253794,-0.0144266,-0.0626141,0.0448007,-0.0372238,-0.0589972,-0.00201577,-0.00033861,0.0276602,0.0157441,-0.0279738,-0.000172967,-0.062072,0.00213782,-0.0159121,-0.0140474,0.00379042,0.00483132,-0.0295212,-0.0432277,-0.0220533,-0.0109447,-0.0657,0.0188849,-0.0161243,-0.0695609,0.00272706,-0.0480348,-0.0177767,0.0283422,-0.0380126,0.0420974,0.0154518,0.0346286,0.0183458,0.0350221,-0.062402,-0.0430168,-0.0149784,-0.0207263,-0.0573071,0.0214023,-0.0228592,-0.012505,0.0323199,0.0314578,-0.00601542,0.0393605,-0.0345168,-0.00846787,-0.00772363,0.00293331,-0.0320204,-0.00230445,0.0141445,0.0351603,0.0111668,-0.0554879,-0.0487311,0.0246523,-0.0548906,-0.00277212,-0.000897683,-0.0635859,0.0441085,-0.0634153,-0.0163759,-0.0238836,-0.00139924,0.0110461,0.0263677,0.0211089,0.00729518,-0.0352627,0.00646235,0.01373,-0.0528781,0.0382804,-0.00329961,-0.0209195,-0.0440176,-0.0491613,-0.0249443,-0.0550479,-0.0512575,0.00105354,0.0197997,-0.0342086,-0.0269163,-0.0161606,0.0167375,0.0205074,0.0138317,-0.0301329,-0.0596427,0.00817269,-0.00771441,-0.0276034,-0.0334661,-0.0649511,0.0179791,-0.012803,0.0236286,0.00810177,0.0075346,0.006518,0.0169528,-0.0642382,-0.0573324,-0.0567382,0.0121928,0.0293381,0.00936131,-0.0168292,0.0205553,-0.0350644,0.0290251,-0.0598859,-0.0241012,-0.00827901,-0.00891911,-0.0427961,-0.0603406,0.0389663,-0.0416483,0.000955514,-0.0394722,-0.00573148,0.0395562,-0.0625056,-0.0336167,0.0253385,-0.0130466,0.033346,-0.0248801,0.0217288,0.00224332,-0.0366024,-0.0405497,-0.032562,-0.00804327,-0.0374925,0.00550042,0.0445718,0.0264159,-0.0495853,0.0274738,-0.031753,0.0436299,0.0259301,-0.0226472,-0.0571381,-0.0348742,0.0303944,0.011037,-0.0153573,-0.0457434,-0.0402655,-0.0227132,0.0379461,0.0361618,0.020963,0.0226234,-0.00285837,0.000364409,0.0186185,-0.00250678,-0.0567376,0.0334809,0.0224812,0.00578958,-0.044203,0.0317877,-0.0656267,-0.0369322,-0.0244271,0.0146678,-0.0366798,-0.0647244,-0.0514608,-0.0310108,-0.0564253,-0.0569274,-0.0421686,-0.041406,-0.0593788,-0.0598188,0.0225492,-0.061212,-0.0175778,-0.0663841,0.0480936,-0.0152001,0.0435163,-0.00634484,-0.0276646,-0.0220849,-0.0532566,0.0277582,-0.00402543,-0.0397315,0.0303946,-0.00347248,0.0450778,0.0372534,-0.063072,-0.0685496,-0.0419776,0.00869628,-0.00430382,-0.060982,0.0490687,-0.0278058,-0.0295058,0.029495,0.0176017,0.00928028,0.00899495,-0.0677674,-0.0644893,-0.066611,0.00188827,0.029116,-0.0668784,-0.0517928,0.0346115,-0.0469862,-0.0136693,-0.0462719,0.0105836,-0.00286029,-0.00213424,-0.0219032,-0.00939258,0.0174927,-0.016562,0.0267556,-0.00322067,-0.0436688,-0.0372058,-0.0579756,-0.0282619,0.027349,0.00332649,-0.0489024,-0.0134581,-0.00630511,-0.0631852,0.0450708,0.0399049,0.0377199,-0.0301324,-0.0503252,-0.0683806,0.0278054,0.0424149,0.00918913,-0.00377287,-0.063599,0.0105002,-0.0346708,-0.0107125,-0.0521945,0.0404116,0.0356991,0.0190953,0.00387589,0.0360776,0.00578982
-0.0536497,-0.0314879,-0.0167217,-0.0474966,0.0201649,0.0174069,0.0124923,0.0398344,0.0267771,0.0415734,0.0341708,-0.000653636,-0.0517208,-0.0251398,-0.0305839,0.0224812,-0.0114995,-0.0656341,-0.0157929,-0.0629405,0.0251146,-0.0254385,-0.063775,-0.06079,0.000574451,0.0324884,0.0474463,-0.0582294,-0.0424451,-0.0635424,-0.00879621,-0.0477579,0.0146731,-0.0290239,0.0456693,-0.0394423,-0.0459303,-0.00461694,-0.0717472,-0.0322173,0.029356,-0.0426143,-0.0429886,0.0434849,-0.0144537,-0.0574192,-0.0335975,0.0144653,-0.0139027,-0.0466485,-0.042038,0.00153894,0.00388063,-0.0425216,-0.0265648,0.0394816,0.00588642,-0.055541,0.0165858,-0.0473816,-0.00597336,0.00385054,0.015908,-0.000971775,0.015879,-0.0575474,-0.0664104,-0.0628929,-0.0197506,0.0198134,-0.0511529,0.0140857,0.0117039,0.0220837,0.0389846,-0.0615038,0.0355904,-0.0222627,0.0442056,-0.0482822,-0.0306816,0.00111791,0.0224381,0.00831848,0.0149206,-0.0611433,0.0260345,-0.0579704,-0.00947425,-0.0589242,0.0144834,0.0228467,-0.0447323,0.0313412,0.0383637,-0.0533035,-0.0252243,0.0223521,-0.040425,0.0168198,-0.0217595,0.023818,-0.0349802,-0.0606652,-0.0476561,-0.047712,0.00418089,0.0111123,-0.0592431,0.0307924,-0.0582125,-0.000155014,-0.00329328,0.00130769,0.0063225,-0.0672161,-0.0611785,-0.0739525,-0.00752338,-0.0466705,0.0207607,-0.0548463,0.0214808,0.0334152,-0.0495716,0.0425665,-0.00804862,-0.0645781,-0.00587371,-0.0676041,-0.0403041,0.0182387,0.0257587,-0.0325663,-0.0681556,0.0161356,-0.068754,-0.0452795,0.0292591,-0.0457751,-0.0506906,-0.0213346,0.0180962,-0.0304974,0.0262712,2.62046e-05,-0.0198694,0.0258303,0.0413707,-0.0251313,0.00948925,-0.0157693,-0.0565074,-0.0418525,-0.0462441,-0.00891459,-0.0117606,0.000532593,-0.0450193,-0.055638,-0.0325441,-0.0115147,0.0377525,0.0440124,0.0243228,0.0328556,0.0216097,0.0216185,0.0247992,-0.0518403,-0.0381647,-0.0239712,0.0422662,-0.0270865,-0.0309024,-0.0200051,-0.0133309,0.000460411,-0.0206216,0.00632853,0.042549,0.0133933,-0.00732472,0.0164052,-0.0184428,-0.0431948,-0.025896,-0.0654594,0.0423385,-0.0493587,0.0129064,0.00142551,-0.0469933,-0.0174707,0.0088854,-0.0319982,0.014154,-0.0537694,-0.0502763,-0.0362976,0.0125963,-0.0185078,-0.0314793,-0.0160737,-0.0109282,-0.0507958,0.0153458,-0.0101798,-0.0142314,-0.0139235,-0.0161168,0.0118939,-0.0331427,-0.0399602,0.00330389,-0.00176214,0.0374095,0.0363858,0.0222732,0.0259181,-0.0113561,-0.070129,-0.0427509,-0.00947922,0.0112191,-0.0622339,-0.00566843,-0.0287848,0.0329719,-0.0618219,-0.0666883,0.0365624,0.00563272,-0.0168953,-0.0191327,-0.0404776,-0.000177677,-0.0133086,0.0385641,0.0428311,-0.055635,0.038671,0.00262735,0.0228558,-0.058398,0.0437203,0.0322389,0.04619,-0.0613107,0.0178072,-0.0187275,0.0313094,-0.0680447,0.0297779,-0.0394368,0.00891308,-0.0134657,0.00287682,-0.0268941,-0.0223149,-0.0164859,0.0132571,-0.0621316,-0.0410304,-0.0343707,-0.0408517,0.0303396,-0.0234358,-0.0519795,-0.0212218,0.00362909,0.0203355,-0.0505846,-0.0594625,0.038996,0.0294568,-0.00715629,-0.0141172,-0.0634105,0.0147148,0.031864,0.0174547,0.00679146,-0.0398492,-0.0528555,-0.0323925,0.0419596,-0.00190138,-0.0441096,0.00753335,-0.000814977,-0.0473314,-0.00684433,0.0357919,-0.0432733,0.0244597,0.0228268,0.0243146,0.0123787,0.0162583
0.0157338,0.0146539,-0.0619592,-0.00724088,0.0383833,0.0199496,-0.0686076,-0.0642885,0.0102612,-0.03612,-0.0420364,0.00954625,-0.0367811,0.0206955,0.029447,0.0290197,0.00512581,-0.0356657,0.00497623,-0.0364666,-0.0550537,-0.0119984,0.00526193,0.0124026,0.0289139,-0.0351845,-0.0567378,0.0292343,-0.0594692,0.0126126,-0.0202712,-0.064184,0.0176585,-0.0184917,-0.0543344,0.0202542,0.0085262,0.0329946,0.00954664,-0.0219498,-0.0179485,-0.015118,0.00601868,-0.0470552,0.00670472,-0.0386859,-0.012592,-0.00242087,0.0165868,-0.0436675,0.00446423,-0.0336545,-0.0645599,0.00447577,0.0182593,-0.0515878,0.0373178,-0.067072,0.0279561,-0.0310547,0.0335495,-0.07353,0.0308183,0.0347935,-0.0595542,0.010447,0.0148225,-0.0259883,0.0371669,-0.040938,0.0107031,-0.00415011,0.0410457,-0.0681054,-0.037512,-7.60649e-05,-0.0566381,0.0392714,-0.0626663,0.0307153,-0.063872,-0.044361,0.0099472,0.039896,-0.040967,-0.0446426,0.0305584,0.0128218,-0.055869,0.00427805,-0.00758974,0.0317207,-0.051004,-0.0354415,-0.0227287,-0.0669347,0.0400884,-0.0535824,0.0409141,-0.0227785,-0.0334193,-0.0471126,-0.000701868,-0.00959074,0.000215204,0.0422572,-0.0418012,-0.0492935,0.0300307,-0.0541758,0.0345732,-0.0639614,-0.0221003,-0.0579525,-0.0379118,0.0220953,-0.0367085,-0.0285535,0.017023,-0.0412771,-0.0114338,-0.0638818,0.0127115,0.0365141,0.0293948,-0.015326,0.0382203,-0.0695538,-0.0520962,-0.0693175,0.035751,-0.0443918,-0.025862,0.0322083,0.0263347,0.0413383,0.0244468,-0.0503386,0.0335647,0.0201365,-0.0587971,0.0290341,-0.0346848,0.0205314,0.0366651,-0.0492462,0.0189856,0.0247509,0.0223398,-0.0603742,-0.0673084,-0.0250419,0.0230448,-0.0661957,-0.0326667,0.0226959,0.0163704,-0.027928,-0.00948783,-0.0268271,-0.0106885,0.0299034,-0.0519455,0.00562679,-0.0450164,0.00922432,-0.0564504,-0.0342478,0.0296602,-0.0136343,0.0195903,0.00438828,-0.0147796,0.00468152,0.030147,-0.00823296,-0.0643641,0.0336723,0.0141988,-0.0356893,-0.0416638,-0.0639427,-0.06292,0.0186217,-0.0573778,-0.0352226,0.0423019,-0.0283715,0.0121331,-0.0243851,0.0296353,-0.0455656,-0.0518394,-0.0653889,-0.00953526,-0.0493489,0.0110128,-0.0140944,-0.00737792,-0.0377633,0.0254766,0.00447173,0.0171735,-0.0528033,-0.0132062,-0.0695715,-0.0490434,-0.0697188,0.0141044,-0.00230783,-0.063072,-0.0518367,-0.00471923,-0.0609837,-0.0229868,-0.0426815,-0.0068208,-0.0103944,-0.000376115,-0.021012,-0.00311864,0.0332819,0.00558904,-0.0260309,-0.0579103,0.0258759,-0.0276983,-0.0036487,-0.0343159,-0.05158,-0.0148003,-0.0113664,-0.0145107,0.00417205,-0.0411039,0.0315751,-0.0190074,-0.0575528,0.0120614,0.0357968,-0.0289966,-0.0226182,-0.00209475,0.00938277,-0.0392351,0.00587137,-0.00354665,0.0310505,-0.0432665,0.0416771,0.0181171,0.00662945,-0.0573341,-0.0685826,-0.0741082,0.0255354,0.0348034,-0.0309105,-0.0209602,0.000528201,-0.0680976,0.0361341,-0.0326815,-0.00747969,-0.0206104,-0.0627281,-0.0283912,0.000310894,0.0232113,-0.00523419,-0.038524,-0.0359937,0.0397927,-0.00349382,0.0448868,-0.0349978,0.0446484,-0.0416958,0.00418591,0.0391431,-0.00393642,-0.00653598,-0.0299038,-0.0511018,0.00023463,0.0134826,-0.0332427,0.023682,0.00497409,-0.0514998,0.00416862,0.0151837,-0.0652208,0.0274836,-0.012274,0.0403718,0.0333713,0.041761,-0.0526862,-0.0174602
-0.0268692,-0.0548344,0.0362687,-0.0538974,-0.0575651,-0.0624951,-0.0110793,-0.0174273,-0.0508017,0.0224042,-0.0597114,-0.00598927,-0.00872482,-0.0232926,-0.0159408,0.0420679,-0.00189119,0.00574153,-0.0329465,-0.0422367,0.00807114,0.00468244,-0.00483216,-0.0659445,-0.030756,-0.0469143,0.0453034,-0.0417968,-0.0483661,0.0419314,-0.0271549,-0.0480931,0.0297235,0.0241262,-0.0366007,-0.0661356,-0.0472183,-0.0297962,-0.0283681,0.00261081,0.0296222,0.00934858,-0.0418699,-0.023107,0.00284525,0.0251398,0.0109493,-0.0426332,-0.0509619,-0.0428506,0.000949968,0.0168867,0.000171784,0.0125922,-0.0315676,0.0279594,-0.0399197,0.000215597,-0.0245434,0.0174832,0.0311655,-0.0358138,0.0436902,-0.0455168,0.00760006,0.031871,-0.0519306,0.0186535,-0.0416488,0.0198276,-0.0612084,0.0405851,-0.0366577,-0.0205233,-0.000342232,0.0215362,0.0429247,0.010108,-0.0115144,0.0196528,0.0437385,-0.0667322,0.00828191,-0.0700909,-0.0275985,-0.00215204,0.0341198,0.0236561,0.00351101,-0.0221837,0.0383706,0.0303404,-0.0559147,0.010915,-0.0249014,0.00857534,0.0118241,0.0198087,-0.0530476,-0.0189026,0.0394059,0.0050362,0.0317186,-0.043563,0.0266672,0.0353199,-0.0178114,0.0139465,0.0208451,0.0396957,-0.0388627,-0.0102162,-0.0432524,-0.0282653,-0.00435994,-0.00580115,0.00466974,-0.0716731,-0.00279875,-0.0124085,-0.00325188,0.0393063,-0.00193623,0.00770649,-0.0466159,-0.0452178,-0.028609,-0.0116717,-0.005958,0.00642482,0.0325391,-0.0516732,-0.0184519,0.0125898,-0.0660219,-0.023222,-0.00283105,-0.0510649,-0.0295436,-0.0342802,0.00424211,-0.0320465,-0.0180809,-0.00598436,0.000922843,-0.0494492,-0.00965447,0.0108773,0.045145,0.022664,-0.0692035,0.0418365,-0.0254767,0.0123104,-0.0126527,0.0361497,0.00133372,-0.0163784,0.01938,-0.0491982,-0.00580091,-0.0280714,0.0261899,0.00719269,0.0159685,-0.0431971,-0.0433641,-0.0203429,-0.0241138,0.000174893,-0.0496566,0.0015465,-0.0631168,-0.0607493,0.0143934,-0.0259473,-0.0385631,-0.029901,-0.0107917,0.0364676,0.0390183,0.0259653,-0.0365604,-0.0634566,0.00270538,0.0346929,-0.0583859,-0.0507873,0.0411207,-0.0112363,0.0165718,-0.0115663,-0.0353549,0.0132385,-0.0207646,-0.0669772,0.0320176,0.0297396,-0.0203117,0.0119657,-0.0361855,0.0249639,0.0269138,-0.0656332,-0.0579076,-0.0655008,-0.0696256,-0.0168136,-0.0487617,-0.0404142,0.0252378,0.0144653,0.00528551,0.00993868,-0.0432936,0.0220397,-0.0496872,-0.0442699,0.0237519,0.0170381,-0.0667442,-0.0169455,-0.0482644,-0.0518225,-0.0111371,0.0235198,-0.0356231,-0.0264815,-0.0440888,-0.0660536,-0.00907346,-0.00936734,0.00901526,0.0411691,-0.0651295,-0.0346646,0.0411948,-0.0463104,0.0125945,-0.01574,0.0280633,-0.0545064,0.0380976,0.0108992,0.00525172,-0.0432163,0.0100807,0.0357033,0.00294018,-0.00636182,-0.0439524,-0.044732,-0.0427424,-0.0194202,-0.00257785,-0.0603055,-0.042741,0.00809632,-0.0168357,-0.00764097,-0.0594236,-0.0626822,-0.000860572,-0.0638654,0.0251549,-0.0605669,-0.0118508,-0.0356197,0.0124125,-0.026198,-0.0631653,0.0318858,0.00806353,-0.0446062,-0.0465771,-0.017181,-0.0121354,0.0165418,-0.00472701,-0.0627726,-0.00406899,-0.0257946,0.0377564,0.00866012,0.0110893,-0.0303318,0.0328029,0.0211694,0.0465474,-0.0469641,-0.0593464,0.0166405,-0.0322488,-0.00287941,0.00590306,-0.0157341,0.0298666,-0.0463268,-0.0603359,0.0411955
-0.00398375,0.00673937,-0.0250986,-0.0202791,0.0350945,0.0107103,-0.00177501,-0.0167186,0.0088762,-0.0234367,0.0326123,-0.00604653,-5.07376e-05,0.0251214,-0.0165093,0.0110958,-0.0622791,0.0154712,-0.0106984,-0.0289563,-0.0257458,0.0158007,0.00916743,0.025096,0.0418903,-0.0130858,0.00229854,-0.0556069,0.0162364,0.022152,-0.00407723,0.0168746,-0.00136009,-0.0563579,-0.0255208,0.0432908,-0.0149343,-0.0404517,-0.0158312,0.0274703,0.0395073,-0.0220224,-0.033255,0.00753341,0.0358882,-0.00445529,-0.0104666,-0.0110894,-0.0543315,-0.071041,0.00863166,-0.0447341,-0.0671848,-0.0672028,-0.0654438,-0.0289702,-0.0240201,0.0176501,0.0403519,-0.0664929,-0.0498546,-0.00519643,-0.0423123,-0.0651711,-0.0539023,0.0241954,-0.0119057,-0.027442,-0.0481348,-0.0653307,-0.0165934,0.013976,-0.00424535,-0.0717248,0.0302512,-0.0395034,0.0232292,-0.0577662,0.0293053,-0.0177047,-0.0543468,0.0313315,-0.069881,0.0217921,-0.0241362,-0.0466745,0.0411835,-0.0649597,-0.0152679,0.0431513,-0.0101873,-0.0346299,-0.0162547,0.0211256,0.0151326,-0.0110651,-0.0355548,-0.0414291,0.00237262,0.0028731,-0.00445039,0.0236989,0.00586394,-0.00379912,0.0318571,0.0452779,-0.0331177,-0.00634986,-0.0714878,0.0383009,0.00977764,-0.0371659,-0.0609527,0.0218404,-0.0182846,-0.0534148,0.0311057,-0.0421805,0.0216421,-0.0670041,-0.0335913,-0.0123221,-0.0530209,0.0373493,-0.0283783,0.00115268,0.0217349,-0.0259911,0.0367459,-0.0206072,0.0221392,0.0110975,-0.0553384,-0.0311985,0.0289917,0.0121055,0.0111836,0.043732,-0.0633506,-0.0642882,-0.0577727,0.0402012,0.00460861,-0.0562526,0.0144833,0.00589876,0.036287,-0.0709692,-0.0227078,-0.0102894,0.00522519,-0.0507866,0.0136384,-0.0351992,0.0409722,-0.0658012,-0.0559642,-0.069557,-0.0195769,-0.000613731,-0.0119148,0.00509066,-0.0265558,-0.0440828,-0.0209895,-0.00662558,0.0396159,-0.0015843,-0.0073993,-0.0547282,-0.0210947,-0.00822399,0.0202579,-0.050506,-0.0328598,0.0106847,-0.0296442,-0.0492493,-0.0673883,0.0139742,-0.0152022,0.0298431,0.0144922,0.0312706,-0.0418418,-0.0267245,-0.0572667,0.0197113,0.0300453,-0.056419,-0.040116,-0.0294302,-0.041462,-0.0344288,0.0335538,0.00549695,-0.046276,0.0380348,-0.0713036,-0.0135229,-0.028832,0.0405149,-0.0542033,0.0274921,-0.0106291,-0.0304367,-0.0120214,0.0346512,-0.00575082,0.032899,-0.0687045,-0.0632003,-8.46213e-05,0.019908,-0.0135245,0.0166433,0.0354321,-0.0263098,-0.0103309,-0.0423958,0.0238015,-0.0253023,-0.00795628,-0.0525344,-0.0099137,0.0373202,-0.0410344,-0.0353874,-0.0543419,-0.0476602,-0.0444214,-0.00651418,-0.0640807,-0.0231153,-0.0588581,0.00190028,0.0421415,0.0411915,0.0124054,0.0355174,-0.0649081,0.0346322,-0.0382017,0.0378782,-0.020821,-0.0117376,-0.0574604,-0.0197384,-0.00651606,-0.0354741,-0.0494942,0.0228696,0.00742563,-0.0560285,-0.0207443,-0.0172196,0.0186921,-0.0634272,-0.0368439,-0.0454639,-0.033836,-0.0671317,0.00410186,-0.013256,-0.0241589,0.0254455,-0.0192551,0.0434551,-0.0675398,-0.0426161,-0.0315407,0.00362696,-0.0500257,0.0184188,-0.0499531,0.0278432,0.0274762,-0.0403575,0.0296383,0.0105944,-0.0605108,-0.0591691,0.0024551,-0.0268153,-0.0269231,-0.0218618,-0.0117444,0.0262276,-0.0567922,0.0450295,0.00595373,-0.023675,-0.0212375,-0.0512957,-0.0341064,-0.0535461,-0.0142594,0.0168562,-0.0561155,0.0350838
-0.0512154,0.00488328,0.0353023,-0.00573828,0.010731,0.0331394,-0.0484441,-0.0247296,0.0134742,-0.00893436,-0.00586769,0.0327791,0.00132729,-0.0641929,0.0227356,-0.0688705,0.0106309,-0.0067746,-0.0266769,-0.0284614,0.0346849,-0.0565344,-0.00826246,-0.0101136,0.0281208,-0.0679231,-0.0505392,0.0265029,-0.0185916,0.0313909,0.0104549,-0.0664819,0.020577,0.0363786,0.00246582,-0.0367744,-0.0286023,-0.04998,-0.0564631,0.0360101,-0.00837819,0.024102,0.0021482,0.0310146,-0.0358953,-0.032715,-0.057429,-0.0500326,0.0246205,-0.0372439,0.0341523,0.00400518,-0.00873317,-0.0132059,-0.0305579,-0.027627,0.0315182,0.0107272,0.023563,0.0125694,0.0113242,-0.030064,-0.0297053,0.0235554,0.00294289,0.0247412,-0.00571449,-0.0015837,-0.0127021,-0.0438383,-0.0541361,0.0336343,0.0307821,0.0247858,-0.0356856,-0.0324198,0.0420344,-0.0598327,-0.0343261,0.0011306,0.0346275,-0.0534555,-0.0526349,0.0152396,-0.0610071,-0.0713512,-0.0215174,0.0126468,-0.0298344,0.00145456,-0.0197255,-0.0403291,-0.0117048,-0.0621206,-0.0286115,0.0416719,-0.0454829,-0.0195973,-0.0294113,-0.0667176,-0.00652911,-0.0193475,-0.0725685,-0.0235342,-0.0633889,-0.0554366,-0.0383396,0.0337126,0.0365939,0.032233,-0.0243261,0.0332916,0.000521826,0.00963845,0.0071493,0.00597677,-0.0525695,-0.0739884,0.0119296,-0.0203534,0.0413825,-0.00088351,0.012463,0.0261408,-0.0225122,0.0361807,-0.0579842,-0.0128985,-0.00986582,-0.0568824,0.026679,0.0285226,0.0282426,0.0188977,0.0273696,-0.0460643,0.0445929,-0.0634725,0.0372891,-0.0655606,0.0342253,-0.0606144,-0.0506868,-0.025906,-0.0581646,0.0253229,0.0282412,-0.0220055,0.00198439,-0.0418939,-0.00475335,0.0460724,-0.0413509,-0.038687,-0.0271656,-0.0549111,0.016409,-0.0357361,-0.0478822,0.00667993,0.0323815,0.0366249,0.0081218,-0.0443734,-0.00395149,0.0151032,0.00861635,-0.0676884,0.0168701,-0.0341057,0.0060233,-0.0695637,0.0269051,-0.0200062,-0.00778756,-0.0731807,-0.00022542,-0.0664241,0.0428123,-0.00258796,-0.019893,0.00665115,0.0311326,-0.0474806,0.0217769,0.036975,-0.0121437,-0.0700516,-0.0194646,-0.018952,0.0150479,0.017447,-0.00113587,0.0372968,-0.0221059,-0.0611814,-0.0184226,0.0417853,-0.0620846,-0.00045676,-0.0625872,0.0272011,-0.0128039,0.00408105,-0.0656035,-0.00195353,0.0034452,-0.0238651,-0.0578779,0.00711213,-0.0534015,-0.0422871,0.0325655,0.0375794,-0.0282099,-0.0709733,-0.0290053,-0.0676434,-0.046027,-0.02429,-0.0139071,-0.0661771,0.0169065,-0.0128955,-0.0587569,-0.013963,-0.0157155,-0.00914366,-0.0293068,-0.0319278,-0.0177469,0.0320827,-0.0540713,0.0171298,0.0129557,-0.0610106,-0.0411595,0.0111827,-0.00393611,-0.0637443,-0.0641465,0.0199512,-0.0282385,0.00204325,0.033638,-0.0221331,0.00808326,0.0154211,0.00226311,-0.0601219,-0.0535784,-0.00852901,0.0378337,-0.0666461,0.0375371,0.0291932,0.0383558,-0.0225695,0.0226053,-0.015045,0.00056966,-0.0370015,0.0121423,-0.0238183,-0.0220425,-0.0328708,0.0182757,-0.0588298,-0.0395977,-0.037969,-0.0648889,0.0132436,0.000169839,-0.0436605,-0.025873,-0.0708027,-0.05535,-0.0329224,-0.0268627,0.0432137,-0.0560943,0.0129592,0.0206986,-0.00948605,0.0262014,-0.0137499,-0.0527099,-0.0460984,0.0494976,-0.0680637,0.0398029,-0.0381474,-0.0511133,-0.0204877,-0.0206927,-0.0445194,0.0459932,-0.000821238,-0.0214144,0.037412
-0.00200966,0.0455071,-0.0166655,-0.0675849,-0.0197353,0.00983164,-0.0493416,0.00645131,-0.0204197,0.0144843,-0.0427338,-0.0491061,-0.0412953,0.0344198,-0.0122403,0.0331963,0.0167754,-0.0249897,-0.0162045,-0.000527299,-0.0109563,-0.00398687,0.0351777,-0.0133581,-0.0403743,0.00753892,0.0405475,0.016097,0.0279773,-0.0122156,0.00735941,0.0121602,-0.0037523,-0.025167,-0.0447603,-0.0348855,-0.0442599,-0.0352051,0.0382388,0.0400436,0.036365,0.0312684,-0.0333675,-0.0293908,-0.0175347,0.00734267,-0.0657802,-0.0173321,-0.0176393,-0.0189662,-0.055493,-0.0472038,-0.046161,-0.0354757,-0.0146312,-0.00882799,-0.0707714,-0.0268781,0.00594246,-0.0357899,-0.0665126,-0.0683564,-0.0317536,0.026814,-0.00309913,0.0354804,-0.0666729,-0.0377243,0.0272831,0.0276863,-0.0435417,0.0091382,-0.0260466,-0.0537486,-0.0326186,-0.00558893,-0.0587039,0.0313581,0.0326681,-0.0518298,-0.00601235,-0.0479621,0.0391319,0.0121519,-0.0473258,-0.0660823,0.0332767,-0.0256323,-0.0430924,0.0102464,-0.0615498,-0.0381119,-0.0327988,-0.00352998,0.0171736,-0.00990392,-0.0408174,0.00022393,-0.00693943,0.00548989,-0.000622012,-0.0689223,-0.0353544,-0.00198216,-0.0499303,-0.0525972,-0.0137436,-0.031535,0.0201028,0.044945,-0.0548186,-0.0238719,0.0168656,-0.0425291,0.0291158,-0.0674605,-0.0286153,0.0163941,0.0206584,0.0133483,0.0222266,0.0136691,-0.0501773,-0.0693306,-0.046554,-0.052654,0.00646594,-0.0535554,0.0290747,-0.00595458,0.00652397,-0.0295919,0.0147827,-0.0670862,-0.00599104,0.0225049,-0.0599741,-0.0416193,-0.0275795,0.0157834,0.0284473,-0.0449697,0.0418303,-0.0235112,0.00215376,-0.0294056,-0.07036,0.0104851,0.00834631,-0.0443932,-0.0436527,-0.00524483,-0.0136663,0.0329624,-0.0245374,0.00288787,0.017895,0.00397781,-0.006135,-0.00535137,0.0138474,-0.0115908,-0.0346951,-0.0376495,0.00789285,-0.0301291,-0.0249961,-0.0175407,0.018794,0.0198034,-0.0287139,-0.0591251,0.0169316,-0.0167027,0.0354765,-0.0488561,-0.0476605,0.00251892,0.0237981,0.00134896,0.0377758,0.0334684,-0.0527245,0.0171568,-0.0451012,-0.0546278,-0.0657483,0.00072995,0.00626971,-0.0553126,-0.0356363,0.00721204,-0.0624398,-0.0473274,-0.0649083,-0.0621644,0.016653,-0.0427894,-0.0452257,-0.0322193,0.00448252,0.0313724,-0.0165583,-0.0157055,-0.0045754,0.0180259,-0.0292863,0.0218849,0.024616,-0.0699628,-0.0192411,-0.0122128,-0.0486418,0.0412216,0.0163907,-0.0396364,-0.0376321,-0.0477373,-0.061196,-0.0387896,0.0254653,-0.0572412,0.0254896,-0.065346,-0.0439802,-0.0168204,-0.0448547,0.0106032,-0.066242,0.0293073,0.045498,-0.00561818,0.0395986,-0.0408221,-0.0562466,-0.0538149,0.00311203,-0.0171345,0.0270533,-0.0541409,-0.0494072,-0.0529657,0.00179604,-0.0203123,0.00376661,-0.0298926,-0.0469951,0.0193914,0.0378712,-0.0156146,-0.0613203,0.0360184,0.0363031,0.0311148,0.00680169,-0.0391847,0.0308323,-0.00244503,0.00296461,0.0352889,0.0420766,0.0018336,-0.0432529,-0.0463289,0.036818,0.0434378,-0.00749461,0.0385383,0.0263134,0.026925,0.0386098,0.0393243,-0.0374318,-0.0292047,-0.0430003,0.0165456,-0.0620094,0.00219431,0.00316649,-0.0602932,-0.01669,-0.0323748,0.0120382,0.041753,-0.0378029,-0.0447685,0.0369797,-0.0231477,0.0247484,0.00204481,0.00578511,-0.0201594,-0.0606121,0.0402254,-0.0250895,0.0326827,-0.0525421,0.0119866,0.00253201,0.00487473
-0.0514006,-0.0172239,-0.0436124,-0.0176612,-0.0325938,0.000535712,0.0257863,0.0127801,-0.00921339,-0.030612,-0.0393065,-0.0286291,-0.0233549,-0.0308191,-0.0700978,0.0232543,-0.0511754,-0.0537431,0.00202887,-0.0220147,0.0406042,0.035887,-0.0394138,-0.0172679,-0.0389804,-0.0211936,0.0417383,-0.0375985,-0.0599871,0.0335342,0.00749,0.00163623,-0.0524312,-0.00491699,0.00233397,-0.0570664,-0.0400333,-0.0546471,-0.0319318,-0.00863329,-0.0419489,-0.00929882,0.0463654,-0.0626818,-0.0327301,0.0139983,0.0295213,0.0339649,-0.0361375,0.0439626,0.00133734,-0.0287684,-0.0149673,-0.0522271,0.0410744,-0.0187869,-0.0181326,-0.0510202,-0.0262926,-0.0656711,-0.0294712,0.0107966,-0.0184271,-0.056042,-0.0549497,-0.0321637,0.0111189,0.0379326,0.00649068,-0.0204164,0.0410452,0.0309529,0.0187799,0.0174108,-0.0500088,-0.0183356,-0.0394908,-0.0462026,-0.0419435,0.0200348,-0.0618227,-0.00290435,-0.0222453,-0.0698913,-0.0148133,-0.0438185,0.0482523,-0.0659765,0.000695472,-0.0143493,-0.0682284,0.0280029,-0.0356027,-0.0585436,0.0299959,0.0216863,-0.0654451,-0.0521665,0.0439865,-0.020092,0.039656,-0.0633751,0.0409496,0.0038871,0.00310175,-0.0312649,0.00691682,-0.0234302,-0.00974985,-0.0493538,-0.0670912,-0.0424704,0.0105891,0.0415811,-0.0336619,-0.0264042,-0.0474866,-0.0380482,0.0423438,-0.030317,-0.0106447,0.0369802,0.0464785,-0.00856454,-0.0300821,0.00274174,0.0285492,0.0217666,0.00903258,-0.0604345,0.0146065,0.0361789,-0.0297737,-0.0501576,-0.0306573,-0.0519926,-0.0543662,0.0185595,0.0464385,0.0348911,-0.0220268,-0.0452785,-0.0217148,-0.0369502,0.00755474,0.0144151,-0.0688457,-0.0623852,-0.0441895,0.04583,-0.00646109,-0.00990473,0.00241877,-0.00613179,0.00561638,0.0281184,-0.0317791,0.0206233,-0.0313478,-0.0494897,-0.0148453,-0.0417359,0.0171006,-0.0519088,-0.0367499,-0.0608879,0.0426383,0.030033,0.00367771,-0.036539,0.0431367,-0.0186721,0.0187297,0.0410817,-0.0517541,-0.0260398,0.0203381,0.0471046,0.034358,-0.0527928,-0.0531208,-0.0301184,0.0460071,0.00778099,-0.0431399,-0.0116497,-0.0248568,-0.0486844,0.0128716,-0.0077306,0.010343,0.00174181,-0.0361404,-0.0283806,-0.0611861,-0.00715992,0.0393151,-0.060294,-0.0456123,0.0376128,0.00808988,-0.0602132,0.0436234,-0.0091047,-0.0465535,0.0112727,0.0116105,-0.0185389,-0.0198068,-0.0415229,-0.0354733,-0.0348476,0.00212562,0.0192792,-0.0177826,-0.032475,-0.0507086,-0.0541478,0.0139591,0.0222213,-0.0578067,-0.0549112,0.000536281,-0.0257112,-0.0671703,-0.0533529,-0.0116784,-0.0123906,0.0222507,-0.0205991,0.0123479,0.0193427,-0.0582052,-0.0189557,-0.0217675,0.0450521,0.0254298,-0.0657858,-0.0661671,-0.0117174,-0.0585704,0.0362109,0.042035,0.0266273,0.00708325,-0.00736172,-0.0233254,0.0199828,-0.0592291,0.0366998,-0.0373119,-0.0356863,-0.00764211,-0.0510241,0.0234629,-0.00398321,-0.019533,0.0414154,0.00562022,-0.0646558,-0.0601469,0.0400774,0.00720165,-0.0161732,-0.0283274,-0.0347988,-0.0154902,-0.0236813,-0.0296876,0.0414931,-0.016267,-0.0468745,-0.0449386,0.0135314,0.0388101,-0.0344636,0.0182991,0.0366558,0.035286,-0.0628664,-0.00427781,-0.0242382,0.0246742,-0.043897,0.0237858,0.0360793,-0.0632613,-0.017671,-0.0477293,0.00900988,-0.0098793,0.0214603,-0.00759842,0.0431945,0.0248584,0.0117994,0.0170223,-0.0650095,0.0128753,-0.0518746
-0.00728649,0.00101932,-0.0195455,-0.0265654,0.0352852,-0.0553092,-0.04932,0.0363753,-0.0243716,0.037598,-0.0267742,-0.00741619,-0.0189257,-0.00558571,0.0143229,-0.0409476,0.00939499,-0.004209,-0.0163319,0.00949341,-0.00694679,0.0241911,0.00823355,-0.026114,0.0181231,-0.0256174,-0.00824369,0.0166213,0.0186737,-0.00483257,-0.0174952,-0.0134161,0.0157651,0.0424832,-0.0430723,-0.0399081,0.00210864,-0.0439224,-0.0708534,-0.0578451,0.00197973,-0.0165409,0.0097443,-0.0221139,-0.0115243,0.0309443,-0.0523921,-0.0063078,-0.0693133,-0.052625,-0.0401365,-0.0278484,0.0262447,-0.0220045,-0.0595611,0.0180004,-0.0160232,-0.0488914,0.00835764,-0.00915143,-0.0664877,-0.0234703,-0.0452419,-0.0325002,-0.0582351,0.0174202,-0.0548504,0.0169467,0.0191172,0.0264733,-0.0368869,0.0413824,-0.0492023,0.000105424,-0.0319026,-0.0571622,-0.0382791,-0.012049,-0.013378,0.0213002,-0.056952,-0.0622205,-0.0451224,-0.0619025,0.0308351,0.0463369,-0.00262351,0.0217266,-0.0298102,-0.0417867,-0.00808949,-0.0407797,-0.028323,-0.041726,-0.0411006,-0.0101771,-0.0671005,-0.0309907,0.0129569,0.0420674,0.0193414,-0.0407077,-0.0606028,0.0271164,-0.0186802,0.0199832,-0.0344396,0.017435,-0.0196931,-0.0377692,0.0412945,-0.0466486,0.0143571,-0.0506653,-0.0505138,0.025139,-0.0554356,-0.0321843,-0.0241659,0.0172364,-0.0123453,-0.00493938,-0.00258804,-0.0192933,-0.066339,-0.039238,-0.0337656,-0.0295685,-0.00489149,-0.0508563,-0.051394,-0.0602278,0.0125824,-0.00524028,0.0102995,0.0237891,-0.0286524,-0.00726585,0.0015156,-0.0639662,-0.0236186,-0.0430915,0.0323406,-0.00957421,0.00416399,0.0195547,0.0229656,0.00528525,-0.0255339,0.0172369,-0.0119296,0.0340653,-0.0170412,0.00803258,0.015833,-0.067125,-0.00568627,-0.0274734,-0.0444414,-0.0468393,0.00863697,-0.0287904,-0.00676957,-0.0575522,-0.065623,-0.0417766,0.0450708,0.031359,-0.0608006,-0.0128824,-0.00520372,-0.00969448,0.0238816,-0.0294345,0.0421675,0.00896777,0.0212983,-0.0662165,0.0279605,0.0235465,-0.0637577,-0.065899,0.0457502,-0.0142142,0.000282103,-0.0494024,-0.0172578,-0.055999,-0.0421273,0.0119793,-0.0254525,-0.00822971,-0.00354691,-0.0274049,-0.014423,0.0213147,0.0343717,-0.0365847,0.0140972,0.0434798,-0.050295,0.0132089,0.00407113,-0.0231995,0.00482192,-0.0189908,-0.0703112,-0.0276168,-0.0174471,-0.0436558,-0.0620817,-0.0473708,-0.0477173,-0.0108901,-0.0383523,-0.0270123,0.0312026,0.0279369,-0.0180911,0.00429713,0.0372963,0.0112573,-0.023866,0.0162944,-0.0421875,-0.00771384,-0.0256455,0.0234668,0.0199035,-0.0122058,-0.0205877,-0.0282495,0.0312728,0.00559918,-0.0631611,-0.0462053,-0.0253681,0.00392982,-0.0612687,-0.0679104,-0.0478114,0.0247732,-0.00264981,-0.00094127,-0.0599034,-0.0261167,0.0318328,-0.0233086,-0.0173859,-0.0639311,-0.0638405,-0.0377414,-0.0576108,0.00822817,-0.0651812,-0.061359,0.0266476,-0.0222019,0.00531622,-0.0413553,0.0244682,0.0125989,0.0341627,0.0462592,0.039031,-0.00129221,0.021552,-0.043976,0.0148093,0.0478289,0.0355845,-0.00384249,0.00800255,0.00459087,-0.0388324,-0.0287673,-0.00628405,0.00813782,-0.0341362,-0.0530441,-0.0117902,0.0392239,0.0470275,-0.0191793,-0.0556891,-0.0317212,0.0168355,-0.0135763,-0.0575878,0.0112112,0.00877073,-0.0444503,-0.0096756,0.0472605,-0.0322536,0.0120998,0.00455669,0.0196073,0.0330492,-0.040871
-0.0168714,-0.0164626,-0.00298574,-0.00325774,0.0105698,-0.024881,0.0484882,-0.0307647,-0.0204277,0.0226752,0.0195934,0.0235448,-0.00998838,-0.01095,0.0286907,-0.047094,-0.0628915,-0.0111407,-0.0406159,-0.0233251,-0.0275078,-0.00238496,-0.0393378,-0.0149511,0.0408699,0.0376878,-0.0317866,-0.0413708,0.0228007,-0.0436986,0.0164852,-0.0218158,-0.0435129,-0.0110477,-0.0390899,-0.0569364,-0.0249562,-0.0177934,-0.0353123,0.0133669,0.0224259,0.0348961,-0.00156531,0.0281337,2.72455e-06,-0.0437671,0.0432664,-0.0159411,-0.0478961,-0.0423828,-0.0252219,0.0171227,-0.0593941,-0.056769,0.0118041,-0.0137752,-0.0270179,-0.0568826,0.0274929,-0.0320746,-0.0592039,0.0176213,0.000451412,0.0383038,0.00677816,0.0371162,0.00999473,-0.071507,-0.0119636,-0.0351182,-0.0137544,-0.0561687,-0.0454172,-0.0358804,-0.0313452,0.0312119,0.0459998,-0.0436539,0.0282417,-0.0190289,-0.0329791,0.0394414,-0.0275577,-0.0314652,-0.0633298,0.0100675,-0.0445349,0.0102708,-0.036932,0.0195244,0.0182435,-0.0624714,-0.0225185,0.00494796,-0.00907478,-0.0358287,-0.0339934,0.0340206,0.0311222,-0.00604249,-0.0470636,-0.0597626,0.0253599,-0.0348139,-0.0300126,-0.0127643,-0.00470176,-0.0180919,0.0258441,0.0365616,0.0318538,0.00945168,0.00920644,0.0122309,-0.00437792,-0.0727541,-0.0010124,-0.0529152,0.016382,0.0221149,0.0222472,0.0214989,0.0102603,-0.0139557,0.0057977,0.0398186,-0.0675576,0.0338461,0.00231043,-0.0343262,0.0053613,-0.0331917,-0.032977,-0.0418267,-0.013385,0.0078942,0.0442109,-0.0601069,0.0296535,0.00177851,-0.0605842,-0.0474228,-0.0650175,-0.0635632,-0.0494345,-0.0580892,-0.0268509,-0.0454281,-0.0323876,-0.0330974,-0.0344769,0.00358932,-0.00139684,-0.0336207,0.0241907,-0.0343105,-0.0113815,-0.0674588,-0.0321025,0.0283758,-0.0502435,-0.00663883,-0.0389557,0.0422547,0.0420893,-0.0555431,-0.0154728,-0.0416651,-0.0482975,-0.0558772,-0.0458644,0.033229,-0.0289532,0.0201368,0.0359101,0.0398197,0.0160283,0.00272766,-0.0366281,-0.042943,0.00109937,-0.0110496,-0.00111644,-0.0609614,-0.0512718,-0.0226523,0.0277288,-0.0139329,0.022389,-0.0147472,0.0412468,0.0392332,-0.0592621,-0.0141184,-0.0018751,-0.0353605,-0.0583538,-0.0653406,0.007696,0.0337201,0.0237181,0.0161699,-0.00741356,-0.0416112,-0.0294169,-0.0203498,-0.0148022,-0.00986306,0.038285,-0.023501,0.0345459,-0.0270578,0.0457166,-0.0543207,-0.00352698,0.0285953,0.0172829,-0.0304864,-0.000717977,-0.0669743,-0.00564848,-0.0331504,-0.0674907,-0.0561687,-0.011128,0.0446161,-0.0104749,-0.00586716,0.028058,0.0265803,-0.0123969,-0.0573881,-0.0451593,-0.0183663,-0.00185297,0.00418057,0.0351732,0.0392786,0.0119199,-0.00368698,-0.0324369,0.0198121,-0.00246645,0.0149046,-0.00852109,-0.048503,-0.0677372,0.0211423,-0.0512365,-0.0414589,0.03893,0.0137877,0.0403627,-0.0270294,-0.0151036,0.00551201,-0.0479134,-0.00313914,0.009577,-0.04594,0.0258262,-0.0460283,-0.0512607,-0.0408441,-0.0371137,-0.0470809,-0.0616757,-0.0369575,-0.0608221,0.0115491,-0.0368429,-0.0383999,0.0327252,0.00303547,0.0224827,0.030539,-0.0336508,-0.0413189,-0.0326873,0.0181906,0.0290342,0.036213,-0.0657868,-0.0314767,0.0213305,-0.0230984,-0.0172206,0.0370266,0.0390583,-0.0416408,0.0220049,-0.0209281,-0.0125294,0.0367279,-0.0523257,-0.0076805,-0.0640993,-0.00353082,-0.0433302,-0.00722413
0.0375629,0.00713138,0.0225785,0.0245498,-0.0317082,0.0375003,-0.00677506,0.0317602,-0.0584725,0.0317073,-0.0540816,-0.00802724,0.0271804,-0.00349013,0.0304542,-0.0656581,-0.0283217,0.00499461,0.020283,-0.0344757,0.00528868,0.00705104,0.0179808,-0.0359775,-0.0242365,-0.0631652,-0.0461884,0.0236949,-0.000554933,-0.0476623,0.00743211,-0.0373622,-0.0720183,-0.0389543,0.00407836,-0.0282363,-0.068405,0.0177558,-0.0631394,0.0118428,-0.0154377,-0.0243883,-0.0334257,-0.0201051,-0.0673766,-0.00926752,-0.0475254,-0.0197622,0.0223045,-0.0634437,-0.0177069,0.0020895,-0.0190607,-0.0376212,-0.0275712,-0.0377396,0.0321935,0.0297813,0.0220106,-0.0598937,-0.0489092,0.0359429,0.0387332,-0.00873322,0.0203641,0.0125853,-0.0379822,0.0024185,-0.0397071,0.00132417,-0.00327736,-0.0465691,0.00449961,-0.0257422,-0.0452888,-0.0174069,-0.0357899,-0.0134027,-0.0536664,-0.0498515,-0.0569982,-0.00547419,0.0425892,-0.0114767,-0.0425733,-0.00869151,0.0171648,0.0279185,0.037996,0.0399249,0.00853607,-0.0503622,0.00429362,-0.0584773,-0.0165371,0.0321654,-0.00608859,-0.0359763,-0.0143892,-0.0289138,-0.0733401,-0.000376284,-0.00925075,-0.0242742,-0.0421155,-0.0577742,-0.0202449,-0.0579145,0.0384702,-0.0412661,-0.0101123,-0.063524,-0.0754036,-0.0564912,0.0308926,-0.037672,-0.0259581,-0.00408631,-0.0386754,-0.0109107,0.0378099,-0.0220061,-0.0034123,-0.00869026,0.00198678,0.0357536,0.0368257,-0.00387176,-0.0192522,-0.0114283,-0.0496402,0.0141079,-0.0243963,0.00536532,-0.0430069,-0.0102991,-0.0613144,0.0218965,-0.0591203,0.00800674,0.0359627,0.0427319,-0.0225714,0.030397,0.0025324,0.00832576,0.00673905,-0.0698683,0.00153375,-0.0395826,-0.0146679,-0.0358501,-0.0561205,-0.0148134,-0.0662019,0.00659546,-0.0606677,0.0218034,-0.0486473,0.0169734,-0.0249558,0.0333294,0.0479417,-0.0126117,-0.0277593,-0.00629215,-0.0185812,0.0382541,0.0334738,0.0344036,-0.0334676,-0.0243084,0.00678138,-0.0142378,0.0430658,-0.00920819,-0.0025862,-0.0582681,-0.0530473,-0.00063357,-0.0550138,-0.0264866,0.00316966,0.0399051,-0.0489383,-0.0101641,-0.0118722,0.0135579,-0.0494864,-0.0668337,-0.0219868,0.0116732,-0.0653939,-0.0631038,-0.0541364,-0.0475441,0.0396491,0.0446298,0.0211897,0.0201501,0.0149661,-0.0538316,-0.015781,-0.0223488,0.0416432,-0.0465999,0.03775,-0.066192,-0.0719218,0.0450701,0.0136222,0.0399262,-0.0346916,0.0172749,0.0134169,-0.0358614,0.0367202,-0.0359966,-0.0189868,0.0421771,-0.0425339,-0.0322579,-0.0111553,-0.0229369,-0.0338941,-0.00232267,0.0107457,-0.0259558,-0.013203,-0.0232792,0.0269537,0.0306908,-0.0157428,0.0248934,0.0368952,0.00430288,-0.0470845,0.0164744,0.022746,0.00605079,-0.0361841,0.00160404,0.0155104,0.00451805,0.00144538,-0.0412235,-0.021489,-0.00721263,-0.0559406,0.0376867,0.0230753,0.00660698,-0.0477094,0.0379233,0.0111864,0.00524166,0.0358904,-0.0412948,-0.062306,0.0132992,-0.0339609,-0.0683281,-0.0615988,0.0167727,-0.00204287,0.0230264,-0.0723169,-0.0131387,-0.0477634,-0.00388815,-0.0532707,-0.0385546,-0.0116411,0.0187756,0.0161592,-0.0676133,0.0231827,-0.0716263,-0.00678116,0.0198887,-0.0552931,0.0259754,-0.0029733,-0.041981,0.0209472,-0.0462808,-0.0265826,-0.0431503,0.00274651,0.0292793,-0.0228815,-0.0706862,0.0140815,-0.0610647,0.0154207,-0.021896,0.00619326,0.0374722,0.0237679,-0.0690772
