100,300
0.120807,-0.00878792,-0.0350456,0.026919,-0.0637975,0.0492009,-0.00125475,0.0906539,-0.102327,-0.00280954,-0.0510928,0.0589398,-0.14962,0.0627014,-0.0584548,-0.0939673,0.118765,0.051337,-0.0810695,-0.108128,-0.0928916,-0.0795493,-0.0665841,0.0759804,-0.0401469,0.0763851,-0.119659,-0.0291642,-0.0672882,-0.0442448,-0.110304,0.132155,-0.0674869,-0.00485595,0.0348437,0.0291149,-0.00457649,0.0329327,-0.053733,-0.0697081,-0.0250662,-0.118933,0.00184152,0.0956529,0.0246393,-0.00305484,0.0813309,-0.120863,-0.120308,0.0369394,0.0955571,-0.00884402,0.143302,-0.0890024,0.115093,-0.0934612,-0.0608883,0.109538,0.123036,0.0391888,0.0875382,-0.133647,0.134657,-0.111761,0.133486,-0.0644655,0.0777897,-0.109809,0.111494,-0.115024,0.0153699,0.0255002,0.0140544,0.120364,-0.0944572,0.0308865,0.0782147,-0.10176,-0.00656271,0.120173,-0.121572,0.0393914,0.0262362,0.00769263,-0.147256,-0.0359388,-0.121812,0.00185877,0.0676804,0.0124017,0.0634765,0.0509016,0.141521,-0.0694867,0.0087243,0.115986,0.0836626,-0.0940768,-0.108687,-0.0104646,0.148839,-0.124668,-0.0363005,0.0426837,0.0110453,0.100528,-0.0997999,-0.0384795,0.0286683,0.0856537,0.128667,-0.059056,-0.0850233,0.118561,-0.00706985,0.120113,0.0320126,0.0819899,0.139878,-0.0588192,0.0106915,0.000816363,-0.083001,-0.0321849,0.0200856,-0.10663,-0.0889972,-0.0972411,0.0748441,-0.0654994,-0.00693607,0.14946,-0.0376035,-0.0656624,0.128713,-0.125982,-0.0633019,0.117948,-0.0511341,-0.121798,-0.0535655,-0.00276792,-0.0986426,-0.130539,-0.0549324,-0.0912879,-0.111032,-0.0302778,-0.0271424,0.113297,-0.0165779,0.0866728,-0.133981,0.116218,-0.0416341,-0.111887,0.00760892,0.0339114,0.166237,0.105617,-0.0208857,-0.0277125,0.0320043,-0.0994136,-0.0463237,0.0653796,0.112268,0.10026,-0.0749786,-0.144663,-0.116717,0.00358936,0.0640477,-0.0606543,0.00158854,0.0667553,-0.134215,-0.0821365,0.0292236,-0.0875983,0.0115188,0.0578149,-0.0239652,0.111226,-0.0833746,0.0856977,-0.13008,0.0576359,-0.107426,0.015195,0.0925761,-0.126288,0.113155,-0.0414201,0.0856153,0.155781,0.00832266,0.0997802,0.0265553,0.00691033,-0.077148,-0.041852,-0.0149223,0.0826248,-0.136401,0.105352,-0.0407108,-0.0582574,0.141145,0.114687,0.105035,-0.00149699,-0.130677,-0.00814226,0.110576,-0.0728116,-0.0640001,-0.0427181,0.0256583,0.123952,-0.14635,-0.100109,0.083698,0.000959572,0.128753,0.16984,0.045038,-0.0590037,-0.106847,-0.0424987,-0.130994,0.0823362,0.130419,-0.139661,-0.0102648,-0.102031,-0.00948876,0.108291,-0.118464,0.013666,-0.108313,-0.0899819,0.0729154,0.0121711,-0.0594918,-0.00152049,-0.0578664,-0.125106,0.139409,0.135024,-0.134982,-0.0930741,-0.134383,0.0965718,-0.128259,0.0180339,-0.0751254,0.0518816,-0.0820251,0.14466,0.0163652,0.0660188,-0.152985,0.0799782,0.10299,-0.0268593,0.0608749,0.0828414,-0.0191192,0.0693342,-0.0969557,-0.0600002,0.134327,-0.0385179,-0.110949,0.0943652,-0.0882441,0.128514,-0.0181999,0.128072,0.035293,0.0584114,0.141031,-0.0613893,0.0751818,-0.0426118,-0.110211,0.0215385,0.0481251,0.045969,-0.0556517,0.13605,-0.0406287,0.0527729,0.0835003,0.0705316,0.10452,0.0909071,0.099941,-0.0707484
0.0603439,0.0556293,-0.0911615,0.103918,0.0189921,-0.0373678,0.0625681,0.0451373,0.0871865,0.117811,-0.0352285,0.00453673,0.0205306,0.0424279,0.000288892,0.0144785,-0.0278143,0.136573,-0.0938738,0.0159209,0.0540195,-0.0763852,0.0452057,-0.138198,-0.0291453,0.0313749,-0.08708,0.0241365,0.0847734,-0.0997807,-0.0147512,0.0884273,-0.102422,-0.00231558,-0.0892721,-0.0300113,0.0703627,-0.0586948,-0.0296063,0.0643328,-0.021349,0.0408065,0.0158397,-0.0905749,-0.00775539,0.132486,0.103001,-0.104155,-0.0844922,0.0293658,-0.134524,-0.130843,0.0400567,-0.000436848,0.0147803,0.0665017,-0.0663941,-0.0758463,-0.000147196,0.136311,-0.00267846,-0.0132845,0.113844,-0.0932368,-0.0485026,-0.00932076,0.132711,0.0569294,-0.0806367,0.127394,0.0606924,0.00188474,-0.0940979,0.0758689,0.069212,-0.00679553,-0.0852751,-0.0187197,0.00250422,-0.11476,-0.0277641,-0.116016,-0.0340553,-0.0206569,0.0319436,-0.101497,0.0203431,-0.0763655,-0.105586,0.0837054,0.0492581,0.020843,0.141457,-0.064766,0.0131722,-0.133484,0.0423223,-0.051571,-0.108125,-0.0850911,-0.0977011,-0.0465729,-0.0758741,-0.104281,0.116632,0.0417416,0.0583904,0.115018,-0.119534,-0.0387795,0.0803164,0.0328691,0.0024252,-0.0908884,-0.120134,0.0583912,0.117091,-0.0468605,0.018829,0.0586161,0.0694964,0.0218495,-0.0261861,-0.120538,0.0665897,0.0498235,-0.141067,0.0440185,-0.133717,-0.0601096,-0.0907781,-0.0540387,-0.0174671,0.107751,0.112778,0.119831,0.0850415,-0.0906912,0.0193842,-0.00541293,0.086806,-0.12833,-0.0115469,-0.0829763,0.120708,-0.0444757,0.135334,-0.133544,0.112153,0.0273357,-0.121806,-0.0493243,-0.129902,-0.0579657,-0.00726451,-0.135801,0.0742031,-0.032891,0.0111075,-0.0488615,-0.0419347,-0.0927921,-0.0294931,-0.118421,-0.125343,-0.104642,-0.102286,-0.122802,0.120177,-0.0677261,-0.0474559,0.142279,0.0208413,0.0415293,-0.097845,-0.0502117,-0.0837858,0.0837392,0.0391358,-0.0894558,0.0072224,-0.0295235,0.0871719,-0.0755574,0.136566,0.00372897,-0.135607,-0.11644,-0.121905,-0.025619,0.0794814,-0.0117741,0.0661134,-0.00729988,-0.00109423,-0.0389405,-0.0916971,-0.126599,-0.0404791,0.108213,0.102554,0.063127,0.00739071,-0.0943973,-0.0556802,-0.127016,0.011774,-0.0207243,-0.0933464,-0.0347793,-0.0320173,0.0779252,0.106258,-0.131241,-0.124196,0.0835518,0.107072,-0.135444,-0.0683241,-0.0620588,-0.0254583,0.0598106,0.128801,-0.0272851,0.0198738,-0.00032626,-0.0707246,-0.0126236,-0.0327138,-0.0971322,-0.0195357,0.104339,0.0546578,0.0907472,-0.0869587,0.119847,0.0987689,-0.0824318,-0.0512079,-0.056801,-0.0239452,-0.0952802,0.0731757,-0.0829715,0.0543717,-0.0350219,0.0992706,0.130194,-0.12503,-0.0286714,0.0757875,-0.0610103,-0.0276526,0.0273602,0.0628055,-0.116608,-0.109343,0.0355278,0.132458,0.130164,0.0223325,0.0587003,-0.0188721,-0.0694353,-0.101255,0.070419,-0.0533272,-0.0920134,-0.0800783,0.0293019,-0.101402,-0.055292,0.107997,-0.0524532,0.0893069,-0.0257715,0.0459931,0.0729955,-0.0628072,0.122611,0.0977582,-0.0571448,0.129537,-0.0565532,-0.0214526,0.118671,-0.108833,0.0875342,-0.0243076,-0.0797568,0.120834,-0.0883632,-0.0312811,-0.0813661,-0.0464205,-0.138834,0.0757359,-0.0565394,-0.0603269,0.0121036
-0.127524,0.0619508,-0.0648468,-0.0824791,-0.123182,-0.120306,0.0920445,0.115628,0.0717133,-0.0995043,0.108065,-0.136097,0.130102,0.0972644,0.0838656,-0.0023262,-0.0192832,0.0591745,0.0995681,0.0675386,-0.0603367,0.0162025,0.053557,-0.0309771,0.117728,0.0850922,0.0218452,-0.105964,0.0706245,-0.0669684,-0.071938,0.075216,-0.0436155,-0.0133578,-0.0248626,-0.105738,-0.10954,0.111377,-0.0355974,-0.114777,0.0701062,-0.0715374,-0.0556142,-0.0576376,0.000118667,-0.121965,-0.0795071,0.0172172,0.00391948,0.132868,-0.115796,-0.0356119,0.128956,0.123094,0.0818808,0.0726675,0.00583044,0.0936633,-0.107536,-0.0431974,0.039621,0.146619,-0.140117,0.0742635,-0.00848117,-0.102421,0.0974866,0.126369,-0.105064,0.0990321,-0.0732173,0.025574,0.0511362,-0.0644393,-0.0648394,-0.108691,0.0359537,0.036965,-0.100354,0.10861,-0.0902448,-0.139634,-0.0210031,0.0486713,0.0676694,0.0989763,-0.0479688,0.131352,-0.141776,-0.0393157,-0.102078,0.089304,-0.09691,-0.120644,-0.013549,0.0156606,0.123406,-0.0722038,0.040227,0.0432103,0.0583756,-0.100873,0.105371,0.0505488,-0.0535927,-0.0627456,0.101166,0.0256476,0.0125934,-0.00502624,-0.00135948,-0.0164175,-0.0600998,-0.0918569,-0.0675358,-0.0539208,0.0344615,-0.0106697,0.0280972,-0.0717572,0.0312063,-0.0621483,0.088146,-0.013505,-0.116134,-0.0135124,0.00487796,-0.01202,-0.0233944,-0.0893145,0.0395162,-0.136084,0.0475876,0.131203,-0.0840371,-0.0102773,-0.022554,0.0305736,0.109328,-0.0789167,-0.0375173,0.0702308,-0.146329,0.0957245,0.092332,-0.0941323,-0.0240799,0.102942,-0.0670647,0.0891358,-0.068591,0.134621,-0.136083,0.119735,0.0587393,-0.124303,0.129971,-0.0959098,-0.0674124,-0.0554029,-0.0703532,0.0480211,-0.0624468,-0.0949824,-0.0139902,-0.0823214,-0.0492205,0.101139,-0.0260828,-0.134557,0.131378,0.0662923,0.0772173,0.0749264,-0.0487332,-0.1362,0.0300096,-0.0381634,-0.108474,-0.0934801,-0.110706,0.0114841,0.0882321,0.0859763,0.138006,0.100041,-0.00733887,-0.117656,-0.100725,-0.0370934,0.0966328,-0.0175564,0.0351396,0.0812674,0.0459197,-0.00881107,0.126586,-0.0565434,0.0924589,0.141064,0.0295755,-0.056989,0.095579,-0.121142,-0.048082,0.107626,0.0806191,0.117547,-0.0413384,-0.0927626,0.0637035,0.123176,-0.0781396,0.0708936,0.00854701,0.00105804,-0.0394588,0.0920456,0.0595525,0.0692206,-0.110627,-0.098332,0.126524,-0.0576822,0.137634,0.0829597,-0.0448325,0.0232392,0.0449255,-0.029658,0.111002,0.020388,0.0636739,-0.0157618,0.0170947,0.0460183,-0.0989096,0.0186698,-0.0654014,-0.0412293,0.137147,0.0148628,-0.0566069,0.0127917,0.129512,0.0306469,0.00697033,0.0971852,-0.0869802,-0.0689333,0.134118,0.0952167,0.00915662,-0.0857256,0.0429586,-0.0466469,-0.141233,0.0993264,0.030957,0.113893,-0.00710252,0.032502,-0.112733,-0.00576003,0.110872,-0.0535048,-0.0993762,-0.0237645,-0.123058,-0.0429313,-0.0348872,-0.0715266,0.0114981,-0.0549524,-0.0157765,-0.128921,0.0397578,-0.103511,0.0515545,-0.0184828,-0.0499457,-0.0502679,-0.0520878,-0.124435,-0.0130949,0.106921,-0.0490113,0.0659741,-0.0633191,-0.0280601,-0.0440759,0.06293,0.0282651,-0.0752834,-0.0949254,0.0289611,-0.136729,0.11746,-0.0637525,-0.117179
0.0740826,-0.155658,0.120122,0.0596172,0.0737013,-0.0689015,-0.0971332,0.0305952,-0.134011,-0.0435491,-0.0886317,-0.0487457,0.105471,0.0341397,-0.0650425,0.00433924,0.130748,0.112419,-0.0987491,-0.0495274,0.0451413,-0.122764,-0.065714,0.00136428,-0.0106665,0.057837,0.10983,-0.0116493,0.0895045,0.0639601,-0.0724308,0.0112324,0.0958316,0.0776718,-0.0519232,-0.138336,0.102277,-0.136133,-0.0329894,-0.059695,0.103516,0.0469536,-0.074524,0.106476,-0.120646,0.0866613,0.0958515,0.0106257,-0.115865,-0.0948432,0.0077463,-0.0551957,0.0268232,0.048697,0.142269,-0.110859,0.00371808,-0.118592,0.0799382,-0.110964,0.0752276,-0.109141,0.00320797,-0.021441,0.00575073,-0.0662043,0.0539863,0.00813671,-0.0981647,-0.0649007,-0.133559,-0.119859,0.0622203,-0.0714017,-0.0618288,0.088954,0.0292042,-0.0619892,0.0182358,-0.0615438,0.00708335,-0.0801308,-0.120239,0.134973,-0.03562,0.138624,0.11083,0.0484272,-0.00965838,0.0130247,0.102319,0.118873,0.144893,-0.115409,-0.0174373,-0.0587549,-0.108452,-0.0527583,-0.0507791,-0.113531,0.0913661,-0.0169502,-0.0216176,-0.152134,-0.0606535,0.0547122,0.0313126,0.0907194,-0.0728316,0.126869,0.0287189,0.13662,-0.0138009,-0.0760302,-0.0152294,0.0381339,0.06262,0.0919874,0.06621,-0.0210837,0.0891853,-0.0795536,-0.0908676,-0.107014,0.0121238,0.066059,-0.0782226,0.00299954,-0.0509883,-0.114284,0.0672236,-0.0232946,0.145394,-0.102067,0.127693,0.134001,-0.070968,-0.108398,0.0694768,-0.0268468,-0.033901,0.014187,-0.13223,-0.0558348,-0.124856,-0.0761743,0.0210163,0.0164577,-0.0186207,0.0587855,0.161657,-0.00733702,-0.082552,0.0105553,-0.132633,-0.129578,-0.100165,0.0406675,-0.0161987,0.039187,0.0275334,-0.117146,0.0126474,-0.0358077,0.030195,0.142274,0.0261679,-0.0924191,-0.0413787,0.0773714,-0.133047,-0.0546792,-0.121485,-0.0743752,0.0715664,0.0159439,-0.0649566,0.0987608,0.0226447,0.0759471,-0.00498806,-0.0781234,-0.132655,-0.009123,-0.12692,0.0857891,-0.0701364,-0.02166,0.0742769,-0.0373735,0.110122,0.131278,-0.0366943,0.0492504,0.181195,0.0396703,0.00271722,-0.113235,0.107417,0.0215085,0.0882015,0.124772,-0.073777,-0.0369458,0.0734212,0.0290908,-0.137058,-0.0965538,-0.108337,0.11362,0.0221015,0.0650532,-0.00410542,-0.0252945,-0.0131437,-0.0357371,-0.0703138,0.0588748,-0.0300053,-0.109597,-0.145014,0.0911318,0.0374423,-0.0574908,0.0717348,0.13528,0.130096,0.0411091,-0.0600014,0.103164,-0.0291718,-0.126544,0.0553432,-0.121331,0.0631921,0.102863,-0.00557552,-0.0404755,-0.131812,-0.0539201,0.0708265,-0.0986257,0.0975071,0.0264035,-0.0568303,0.136926,0.0966236,-0.118601,0.124038,0.0869167,0.0438682,-0.0430876,-0.0482218,0.0729884,-0.00223233,-0.0206993,-0.0135869,0.0112301,0.112306,0.0862747,-0.00353369,-0.0813165,-0.033272,0.0138214,0.0432898,0.137889,0.103817,-0.0483829,0.0326744,-0.109303,-0.14575,0.0663274,-0.0393196,0.0528052,-0.123987,-0.0212199,-0.0234169,0.14599,-0.105754,-0.146746,-0.153661,-0.0807398,-0.0508714,0.0739293,0.112231,-0.0228666,-0.116104,-0.127735,-0.00871799,0.0653125,-0.0728169,-0.104626,0.0993202,0.0232148,-0.0359458,0.00980459,-0.112354,0.0259125,-0.10538,0.0177836
0.0590106,0.0928518,-0.0406349,0.164219,-0.0943518,-0.0654114,0.121728,0.0567185,0.103297,-0.0255816,0.102885,0.00467583,-0.0817,0.038032,0.109455,0.00671367,0.00887887,0.100663,0.0918391,-0.13577,0.0691591,0.0912655,-0.11945,-0.113712,-0.0719631,-0.0451522,0.104502,0.0550697,0.0963012,-0.0490355,0.138931,-0.0655934,0.166191,0.0746218,0.120208,0.0170234,0.0853595,-0.12054,0.0837469,-0.100691,0.113174,-0.0141046,0.125641,-0.139361,0.124209,0.114975,-0.0159703,-0.0114205,-0.0786295,-0.116525,0.0656266,0.080384,-0.0518709,-0.0703982,-0.0107827,0.0540034,-0.0190509,0.112864,0.0823343,-0.0564287,-0.0126221,-0.121374,-0.0114246,0.0914533,0.136957,0.0440409,0.0603757,0.132008,0.129537,-0.105321,-0.0810601,0.0952433,-0.114473,-0.0776156,-0.0063266,0.0895879,0.0169229,0.130547,-0.113499,0.0488236,-0.0153158,-0.128728,0.0973758,-0.133607,-0.125136,-0.0237241,0.0782909,0.102135,0.0319214,-0.088494,-0.0723852,-0.12596,0.0754624,0.000334709,0.00311487,0.119467,0.0141688,0.121052,-0.0237949,0.0577277,0.00906492,0.0285268,-0.0521993,-0.0210595,0.133419,0.000420796,0.109306,-0.159129,0.0829387,-0.0875318,0.112673,0.088935,-0.0357637,0.0182415,0.0731548,-0.118698,-0.0104645,0.0855962,-0.0883443,-0.0402031,0.102094,-0.0175659,-0.113502,0.134684,-0.00718444,-0.112167,0.0078222,-0.104919,-0.0549664,0.0974571,0.0679402,-0.0799465,0.0503815,-0.0659886,0.0728753,-0.103399,0.131022,-0.0794844,0.126019,-0.0545717,-0.119548,-0.092604,-0.124661,0.0823767,-0.0656126,0.0373019,-0.134972,0.0474856,-0.124518,-0.0526277,0.0904806,0.101827,0.0499791,0.144342,-0.0395637,0.136705,-0.00486404,-0.144618,-0.00131971,-0.059285,-0.0142942,0.0226042,-0.110472,-0.0559928,0.0915249,0.0488679,0.0303708,0.0412061,-0.148809,0.05933,-0.0754696,0.0534168,0.104335,0.156486,0.0882028,0.0791241,0.0992899,-0.101514,-0.00718262,0.0885814,0.0135807,-0.0953842,-0.0686466,-0.0117051,0.00362419,0.0431287,-0.0692657,-0.0806838,0.111122,0.0463956,0.140569,-0.111462,-0.0163074,0.143687,0.0705948,-0.0240865,-0.0701861,0.0725543,-0.07855,-0.0632294,0.0439296,-0.00818791,0.107294,0.0803228,0.104786,-0.0789939,0.129959,0.132133,0.0963056,0.141685,0.0390881,-0.0859108,0.137791,0.138022,-0.10702,-0.0181731,0.0520577,-0.0970573,0.0420833,-0.0677193,-0.129594,-0.0164314,-0.049939,-0.0392612,0.119468,0.103662,0.0219656,-0.131043,-0.0288529,-0.0831699,0.0948722,-0.019081,0.0767298,0.0310764,-0.0234579,-0.0978298,-0.0575821,0.0999021,0.0610002,0.0807898,0.0777446,0.0153883,-0.104109,0.0387943,0.0926974,0.00169015,-0.0662396,0.0190528,-0.0272454,-0.04556,0.0765287,-0.0257208,-0.0956074,0.0970613,0.0643757,-0.144584,-0.062055,0.138176,-0.065301,0.0132475,-0.103507,-0.00986445,0.0355275,0.0368835,0.0831206,0.0456384,-0.0448692,0.0734197,-0.0348697,-0.0282736,0.0212339,0.0529531,0.143159,-0.0768172,0.129748,0.137229,0.0325574,-0.103529,0.113336,-0.112572,-0.144258,-0.0449932,-0.0983357,0.105873,0.0525986,0.0244,0.00843991,0.109573,-0.0649278,-0.102715,0.112808,-0.0132573,0.0627109,0.0741235,0.100057,0.00227473,0.0388476,0.0540278,0.06187,0.120151
-0.0703777,-0.115357,0.026147,0.00529023,0.0697537,-0.104243,-0.016335,0.0236238,-0.127884,-0.117929,0.0353211,0.162448,-0.120354,0.117658,0.105792,0.125198,0.0302573,-0.0375976,0.0619765,0.0758022,0.110839,0.0692025,0.112895,0.0481749,-0.0134744,0.119536,-0.0187247,0.129457,0.0221646,0.0220948,-0.0201961,-0.0389237,-0.0352964,0.0725227,-0.0509776,-0.00103648,-0.0879444,-0.123068,-0.114652,0.128997,0.0646048,-0.140047,-0.102672,0.0788751,0.0305894,-0.070657,0.0643686,0.00023479,-0.0508805,-0.103399,0.0653612,0.14524,0.0955041,-0.14096,0.0555235,0.0825114,-0.0435373,-0.0041134,-0.10725,-0.0289285,0.108551,0.0488436,0.0284997,0.146846,-0.0430749,-0.0176634,-0.0773435,0.0600892,-0.0626646,0.00284198,0.0714615,0.000774675,0.0291021,-0.0268211,0.0296697,-0.0665462,0.0406155,0.110814,-0.0444727,-0.10106,-0.0278085,-0.0897417,0.0742096,0.107715,0.00262979,0.060133,0.156551,0.13888,-0.0366132,0.00442627,-0.109663,0.0639754,0.162945,-0.0400826,0.0425605,-0.0801841,0.114217,0.0959883,0.0139858,0.143161,-0.0452634,0.0193325,-0.148207,-0.0373024,0.00194355,0.143348,-0.0862371,-0.032901,-0.0759519,-0.089052,-0.0197364,0.0671553,-0.0522245,-0.0780035,0.0601989,-0.118225,0.128309,-0.112683,0.0854297,-0.0862691,0.120541,0.139959,0.0426264,0.173747,0.0872733,-0.0976288,-0.00528135,-0.103554,0.0581171,0.141545,-0.128484,0.114936,0.0286845,-0.0436967,0.0343509,-0.0955861,-0.0478003,-0.0404784,0.126604,-0.0610248,-0.0879304,-0.0120145,0.0426282,0.128906,0.0556346,-0.00675745,0.155342,0.141051,-0.0513051,0.0191937,0.0638725,-0.114821,-0.0567619,0.120654,0.141293,-0.0853894,-0.0776908,0.124634,-0.0586007,0.00537661,-0.0326405,0.086376,0.0974101,0.134186,0.0686881,-0.0689776,0.0478107,0.0549749,-0.0703978,-0.029167,-0.108859,0.0498201,0.00209823,-0.0586102,0.0438368,0.121627,-0.087195,-0.0839689,0.115133,0.104289,-0.10815,0.0373136,-0.114356,-0.0826461,0.135174,-0.1314,0.00155602,0.0680956,-0.0415043,0.0982605,-0.0391567,-0.0725739,0.0392476,-0.0337982,0.0403811,-0.0874384,-0.0284604,-0.0485787,0.119691,-0.0432992,-0.0590788,0.0905398,0.0445898,-0.0288136,0.0836746,-0.127074,-0.0270628,0.0115781,0.100136,0.101854,-0.135252,-0.130596,-0.0593328,0.1161,-0.0699901,-0.0666466,0.0909056,-0.0446851,0.0716917,0.0782779,-0.112567,-0.112966,-0.0592765,0.0880058,0.0519313,0.019603,0.103096,0.0327789,0.127769,-0.116873,-0.0860141,-0.0728451,0.0980256,0.106408,-0.0315011,-0.067491,0.0720497,-0.0260192,0.132489,0.0647639,-0.100147,-0.029893,0.0748062,0.102163,0.135091,0.0635238,0.118372,-0.026332,-0.070384,0.0747299,-0.107215,-0.0913707,0.0680823,-0.000773162,-0.134529,-0.0725744,-0.0872705,0.0200321,-0.0805667,0.145735,-0.0569425,0.0925476,0.134396,-0.0588131,-0.0523688,-0.0942365,0.001505,0.0175729,0.0609856,-0.0176412,0.0657668,0.142002,0.129476,-0.068616,-0.0672481,-0.0798987,-0.0955543,-0.0711598,-0.0382869,0.00512866,-0.0999686,-0.112682,-0.0459572,-0.104524,0.158957,0.071543,-0.130505,0.11951,0.10124,0.106079,-0.0260898,-0.0140939,-0.0373003,0.0481303,-0.0978395,-0.0146173,-0.0935275,0.0904783,-0.0199979,-0.0541005
-0.0278137,0.0709223,-0.0894497,0.0866968,0.101117,0.0129805,0.0765255,-0.0896655,-0.110375,-0.0424666,-0.0221807,-0.0608118,0.0403731,0.112265,0.0872914,0.10364,0.108079,-0.0174934,0.134962,-0.061682,-0.130374,0.116771,-0.0177548,0.0861322,0.0181095,-0.0644176,-0.00658318,0.0516584,0.0632676,0.124517,-0.0889625,-0.0835421,0.0177366,-0.0395978,0.0708224,-0.005405,-0.0663426,-0.142791,0.0486066,-0.0824274,0.0658809,-0.0572735,-0.0719343,-0.114787,-0.105819,-0.0780164,0.0192332,-0.0739575,-0.055226,-0.0325509,-0.0239616,0.0909982,-0.0373614,-0.0144365,-0.0264558,-0.13443,-0.114779,0.00233708,0.122621,-0.11351,-0.0948112,0.00814837,0.0126441,-0.0589144,0.0327787,-0.00654603,0.0015057,0.082417,0.132021,-0.00462277,-0.137944,0.0730942,0.113363,-0.0138998,0.100536,-0.0749641,0.127956,-0.101963,-0.0945434,0.134519,0.058677,-0.0684654,0.111484,0.0626874,-0.0959794,-0.0537171,0.0811963,-0.0996426,0.02931,-0.0751183,-0.106323,-0.118526,-0.0415719,0.0360542,0.0375743,-0.0707038,-0.0675576,-0.0605172,-0.0534764,-0.0749308,-0.0187968,0.135208,-0.12521,-0.13,-0.0317994,0.0462457,-0.0585656,0.0465166,0.0208392,0.0445648,-0.0705938,0.00117384,0.0593326,0.00466123,-0.00901342,0.105053,-0.0389928,0.0568325,-0.0435538,0.0769006,0.128715,-0.0410738,-0.0631719,0.106068,-0.0381659,0.136812,-0.000568417,0.0366438,-0.00530746,0.0285572,-0.0751499,-0.121421,-0.0661175,-0.105022,-0.0582554,0.130924,-0.141417,0.00557179,0.0547455,0.0837929,0.0540323,-0.0948223,-0.0894802,-0.108653,0.135479,0.0376845,-0.035734,-0.0315281,-0.0326243,0.100965,0.138027,0.0974531,0.0353452,0.0611591,-0.0440184,0.110497,-0.0284779,0.00506193,-0.112273,0.0667316,0.0277813,-0.0048089,0.0413844,0.137239,0.1131,-0.0324572,-0.0807669,-0.108398,0.00721824,-0.137416,-0.127381,-0.0152074,0.0580167,-0.0542863,0.0866216,-0.138958,0.027304,0.126053,-0.140718,-0.0174917,0.101392,-0.0882139,0.00356805,0.102416,-0.059163,-0.120268,-0.140441,0.00851934,0.0482117,-0.0103347,0.00230948,-0.124687,-0.0627201,0.0386457,-0.0594115,0.0870561,0.0010872,0.0469948,0.0639753,-0.0735063,-0.13947,0.101901,0.136299,0.0126064,-0.0996961,-0.0828953,0.13965,-0.131532,0.110962,0.0311586,-0.0549515,0.104801,-0.0597819,-0.026271,-0.118105,-0.080774,-0.0946784,0.104441,-0.0652882,0.116876,0.0897684,-0.0312024,-0.136355,-0.0813324,0.0854963,-0.0930301,-0.0126574,-0.124899,-0.123061,-0.0178296,0.0868315,0.0601941,0.024281,0.0711659,-0.0306605,-0.0765134,0.0940528,-0.0358355,0.0203829,0.126039,0.045311,0.0433893,0.063688,-0.0668899,0.104907,-0.0974593,0.0415452,0.021959,-0.0651378,0.125647,-0.00745724,-0.0511287,0.0250659,0.0915438,0.120004,-0.13429,-0.0875221,0.0877018,-0.0361518,-0.0633413,0.0139912,0.0550121,-0.113798,-0.0098104,0.0782203,-0.0812314,-0.0555904,-0.0339642,-0.00753614,-0.129716,-0.118066,-0.0368005,-0.0460886,0.0984388,-0.0753145,-0.0940558,0.0294053,0.129979,-0.139416,0.0788993,0.0107347,0.0297303,0.000825662,-0.110343,-0.118949,-0.0562965,-0.0515146,-0.071479,0.13003,-0.0817393,0.0581661,-0.0428995,-0.133959,-0.116867,0.0574231,0.0678447,0.113513,0.0155503,-0.0388371,-0.0484651
0.0183355,0.155491,0.066451,-0.00759519,0.0487544,0.124505,-0.00687702,-0.09301,-0.0985709,0.0389952,0.0380113,0.0232023,-0.0626814,-0.0942532,0.0483251,0.00824023,-0.0331013,0.0691108,0.059708,-0.014564,-0.0114878,0.0505019,-0.109986,-0.0403033,-0.0914874,0.135195,0.152797,0.0446643,-0.0178671,0.0510708,0.0247586,-0.0644745,-0.00888683,0.0346325,-0.0121357,0.0744911,0.0873277,0.0678671,0.134544,-0.112792,0.00844789,-0.117622,0.136277,0.0523322,-0.0095042,0.11821,0.087752,0.0773778,0.0101102,0.0405477,-0.0271562,0.00273166,0.0446671,0.00767325,-0.00427485,-0.0304478,0.0138619,0.0737756,-0.0142129,-0.120788,0.0603722,-0.0633875,-0.034379,0.0651434,-0.119116,0.114695,-0.0297621,0.0443941,0.129176,-0.128822,0.143728,-0.0988943,-0.132333,0.0386774,0.0593475,-0.122198,-0.00207865,-0.129773,0.00897833,0.0726372,0.0465572,0.13026,0.1006,0.0590837,0.0797755,-0.0280982,-0.1138,-0.0703124,0.144294,-0.0539046,0.125639,-0.0363985,0.0480727,0.0829825,-0.0414818,0.0706261,0.149064,0.0469294,-0.0808884,0.075039,-0.0289943,0.121281,0.074273,-0.0217514,-0.0659553,-0.0746537,0.103455,0.0893508,0.0923798,0.0386139,0.0830606,-0.137247,-0.088382,-0.0485084,0.0335951,-0.0773246,0.0704918,0.0275252,-0.0785439,0.102545,-0.128465,0.00949466,-0.0984365,-0.1486,0.0672052,-0.0258986,-0.112532,-0.0226486,-0.115571,-0.020353,-0.0440929,0.010655,-0.117091,-0.0339336,0.140354,-0.0532272,-0.0479669,0.0736484,-0.131879,0.0331052,-0.0301574,0.122194,0.143627,-0.0754049,0.0275525,0.0687975,-0.0145567,0.0659781,0.0353359,0.116871,-0.010565,-0.0102727,-0.0971777,0.0486738,-0.0620851,0.0912638,0.140479,-0.0670813,0.158502,-0.0451269,0.0334135,0.0233111,-0.0355847,0.107143,0.0775178,0.0359877,-0.0180222,-0.0165615,0.110964,0.0161822,0.0699319,0.128439,-0.0322028,0.106277,0.0232404,-0.0717196,0.133309,-0.000532595,0.0660068,-0.0219177,-0.0305566,-0.00162506,0.102,0.111142,0.0228709,0.0171416,0.118745,0.144041,-0.122154,-0.0759652,0.0389821,0.124783,0.0661794,-0.139941,0.089565,-0.0613079,-0.13536,-0.113185,0.0370151,0.0962377,0.0500888,0.106727,0.0319913,0.137042,-0.0412237,0.00877624,-0.0252824,0.00822497,0.0772302,-0.113553,0.135507,0.0400251,-0.0354123,0.0959322,0.0538858,0.124746,0.0973633,0.0298302,-0.0354369,-0.0983276,0.0399817,-0.0485625,-0.0558469,-0.0786104,-0.0825986,-0.0772573,-0.0613665,-0.096837,-0.05567,0.0247392,0.0539452,-0.139003,-0.153719,-0.0350025,-0.125499,0.13485,-0.0310516,-0.0658817,-0.0899081,-0.0370101,-0.114527,0.134394,0.0212203,0.012281,0.00837709,0.0220455,-0.0833147,0.125113,-0.118067,0.101259,-0.0227823,0.0497012,0.0578329,-0.0681665,-0.0188893,-0.00465233,-0.040139,-0.0179951,-0.141748,0.0899474,0.000755481,-0.0787199,-0.105915,0.038197,0.117634,-0.15424,0.0863886,-0.00181192,0.10447,0.120245,-0.00850263,-0.0391679,0.0450085,0.156241,-0.0630246,-0.0598038,0.1512,0.150633,-0.0790256,-0.0654742,-0.0997011,-0.059146,0.050161,-0.00865937,-0.0219641,0.113991,-0.0306692,-0.137026,0.0214318,0.0574502,-0.11817,-0.0428525,-0.0795606,-0.0281961,-0.0219659,0.0861994,-0.0203646,-0.0451417,-0.0768595,-0.108787
-0.119764,-0.023172,0.124851,0.163434,-0.0615029,-0.052487,-0.0112554,0.0685659,-0.135419,0.113515,0.107695,0.134851,-0.170014,-0.0529841,-0.111753,0.104377,0.144607,0.00915556,-0.0773105,-0.0117412,0.0967292,0.0766913,-0.0426992,-0.162553,-0.00195179,-0.0656498,0.0582192,-0.065864,0.0542214,0.0540185,-0.155838,-0.0803264,0.0942048,-0.104696,0.0796948,-0.0508573,0.113358,0.113688,0.0884944,0.114799,0.0893156,0.00406184,0.0050639,-0.00132887,-0.00291465,-0.0630833,-0.0800116,-0.0784817,-0.0710783,-0.0922111,-0.0392085,-0.0709606,0.101338,0.0779441,-0.0142632,0.140063,-0.101201,0.062822,0.0828592,-0.0209773,0.00104189,-0.0570891,0.10496,0.00114328,-0.00647292,0.0504257,-0.120984,0.0204087,-0.077309,0.0603883,0.0146562,0.0916641,-0.0394563,0.13927,-0.0848248,-0.0700699,-0.00626174,0.0643365,-0.0875099,-0.0440033,-0.0175442,-0.0153659,0.166438,-0.165105,0.0954967,0.105791,0.0171128,0.107817,-0.109035,-0.0180614,0.0766382,-0.0877862,0.0926462,0.0946684,0.0395106,0.118169,-0.0553259,-0.0490781,0.0339921,0.105791,-0.0118359,0.0059336,-0.103461,0.0368301,0.039427,0.0482423,0.0418429,-0.134455,0.117339,-0.109173,0.000692756,0.121192,0.175129,-0.0310687,-0.145912,-0.116284,-0.0610147,-0.141392,-0.0618627,-0.0292836,-0.114842,0.0307178,-0.0815733,0.126182,0.143529,-0.026969,-0.0839522,0.0272665,-0.088478,-0.167959,-0.104416,0.0269041,-0.0064938,0.0499024,0.0374169,0.161925,-0.0272795,-0.089051,-0.105106,0.109293,-0.0758775,0.135079,0.044379,-0.154634,0.0792168,0.00511122,0.127687,0.0332647,-0.0318124,-0.118128,0.0430031,-0.063659,-0.0311646,0.145352,0.0812239,-0.0290188,0.0593464,0.0704157,0.115683,0.0615734,0.121987,0.0354893,-0.108521,0.109608,-0.0256658,0.119348,-0.0365234,-0.10886,-0.0634486,0.0957529,0.0436017,0.0768652,-0.0453799,-0.0334118,0.0640228,-0.0552445,-0.0282339,0.0713668,0.154715,0.0764454,-0.00746822,0.0944581,-0.0641873,-0.0707227,-0.164011,-0.0445176,0.0835394,-0.145297,0.0466661,0.112018,-0.114449,-0.116674,-0.111894,-0.129125,-0.0246175,0.154696,0.0138232,0.0594294,0.0553561,-0.171101,0.0722634,0.0806553,-0.0589675,-0.00926033,-0.0605729,-0.0592271,0.0678951,0.0266077,-0.023466,0.0361375,0.0113522,0.0419433,-0.0403978,-0.149361,0.0176204,0.0862403,0.113655,-0.112373,0.104541,-0.0143259,0.116992,-0.125237,-0.0749692,-0.00795539,0.0465296,0.0589659,0.109273,-0.0618876,-0.0512216,-0.144092,0.0808687,0.0911149,-0.0423944,0.00888246,0.105749,0.148805,0.0327054,0.0306087,-0.106016,-0.144729,0.0533283,-0.112291,0.129202,0.100743,0.0373229,-0.0319453,0.0281452,-0.138316,0.0571955,0.0339803,-0.0337985,-0.116194,-0.0626267,-0.0406568,-0.0993157,0.107141,0.004748,0.0400755,0.0938392,-0.0111948,0.028059,0.0620281,0.11291,0.0265275,-0.119689,0.037477,0.147675,0.120271,0.127584,-0.115751,0.0620985,-0.0771851,0.0347223,-0.133315,0.06112,0.131378,-0.0651419,0.154971,0.0390209,0.0247598,-0.0416352,0.0122694,0.0882473,0.0479793,0.0377222,0.0424283,-0.107953,0.0286485,0.0412221,-0.102822,0.0301848,0.137745,0.121748,0.0923183,0.0823725,0.0115066,-0.1638,0.0676073,-0.0561966,-0.0365743
0.0252629,-0.0541048,-0.0207243,0.0353444,-0.151825,-0.0977084,-0.120885,0.106392,-0.0188266,0.142819,-0.0550941,0.112612,0.00816445,-0.0536125,-0.0675454,-0.0648127,0.232746,0.0864519,0.091789,0.0993602,-0.0945655,0.108878,0.0612719,0.0261979,0.040396,0.0332465,0.11406,-0.0755585,0.0899361,-0.0712782,0.141922,-0.0162044,-0.183561,0.0410333,0.11651,-0.0448577,-0.0196447,0.125596,0.0577822,0.107911,0.123199,-0.11479,-0.0536354,-0.0206131,-0.0832713,-0.0710979,0.0303001,-0.0137964,0.0717676,-0.0816328,-0.014757,-0.0737242,0.189354,0.0362472,0.00584826,-0.0943154,0.141188,0.0413971,-0.0714154,-0.0699422,0.0805484,-0.0564111,0.0234021,-0.0352659,-0.0604083,-0.0436124,-0.0217229,0.038353,0.0219534,-0.0575288,-0.0107406,0.147781,0.0796588,-0.0548059,-0.0315742,0.133139,-0.00647269,0.0526819,-0.00446833,0.0293912,-0.104055,0.134601,0.10737,0.0901523,0.0637632,-0.0414146,-0.102653,0.125757,0.106878,0.113022,-0.00491273,0.102746,0.124649,0.121569,0.0260159,0.153209,-0.0657635,0.118052,-0.0206736,-0.0109949,-0.00276483,0.0231425,-0.0522028,-0.0525349,-0.0666089,0.014221,-0.1685,0.128259,0.122636,-0.0935409,-0.111855,-0.0315662,0.130335,-0.0211058,-0.0634509,-0.00417802,-0.155899,-0.0204592,0.0263353,0.136736,-0.145067,0.101609,0.0693357,0.0624605,-0.132751,0.0406388,0.126392,0.084129,-0.00637674,0.0535898,0.0781557,0.0932983,-0.0183384,0.106894,0.109091,0.112665,-0.119168,0.0649141,-0.0852733,-0.0223561,-0.0615796,-0.0299831,-0.1164,-0.114868,-0.0519004,-0.0699639,-0.0626978,-0.156965,0.0669729,0.0949289,0.0972243,0.0962935,0.00655657,-0.112207,0.0421765,0.165255,0.0907722,0.00958171,0.0319519,-0.108623,0.0192573,0.133314,-0.068947,0.0941896,-0.00676165,0.0729092,-0.117573,-0.0827423,-0.0221358,-0.00956143,0.0421114,-0.149359,-0.11548,-0.036066,-0.0839356,0.147018,0.15106,0.095165,-0.167714,0.1251,-0.051674,-0.0289859,0.0792875,-0.139469,-0.130552,0.0556654,-0.0732512,-0.102,0.0829087,-0.0544569,0.0452927,2.71011e-05,-0.0172532,-0.0749168,0.148632,0.122759,-0.124592,0.0793373,-0.0698504,-0.110378,0.153384,0.0821219,-0.115421,0.160518,-0.0500925,0.0165749,0.00163286,-0.0481318,0.00373748,0.106107,-0.00666292,0.150365,0.128069,-0.0960802,0.1072,-0.0895022,-0.00144769,0.00283815,-0.12576,-0.0434278,-0.0458748,0.148028,0.121566,-0.0960556,0.0651941,0.0528835,0.0197124,0.0384974,-0.0652096,0.0458452,0.0368584,0.01608,-0.0345638,0.0551646,0.0558469,-0.0768397,0.0684055,0.0734234,0.129925,-0.030395,0.0666177,0.000217457,-0.0149179,0.0953339,0.10289,-0.101775,0.00936811,-0.074053,-0.0994404,-0.106535,-0.0730423,0.0285533,-0.0952141,0.0456696,0.0119076,0.0409945,0.031228,-0.118312,-0.147199,-0.0633689,-0.142087,-0.025591,-0.105126,-0.0171723,0.107053,-0.0885534,0.179094,0.0576826,-0.00137312,-0.00825634,0.00992328,0.00938635,-0.0817038,0.0935025,-0.0842567,-0.141731,-0.0151711,0.0524862,0.0161255,-0.129213,-0.199054,0.0519489,-0.0351204,0.0353358,0.1317,0.134235,0.0114756,0.0826049,0.0630811,-0.099022,0.0368007,-0.0471059,-0.116299,0.0446883,0.136617,0.100237,-0.0675233,0.134058,0.0190126,0.0930051
-0.0117118,0.0806207,0.0665565,0.0168777,0.0466464,-0.0100174,-0.0919411,0.114608,0.0806834,-0.110584,-0.0594957,-0.0722195,0.0145866,0.0840446,-0.00981733,0.128851,0.126408,-0.123067,-0.113184,0.0494578,-0.13009,-0.122057,0.0400006,-0.0735413,0.0583812,0.0410513,0.0690552,0.0428326,-0.0301137,-0.0897854,-0.0975256,0.0156391,0.107331,-0.107269,0.00736212,0.111826,0.00447952,-0.0504535,-0.0298024,0.082643,-0.0620893,0.12462,-0.0217113,-0.0471234,-0.0902818,0.0587134,-0.12092,0.00800472,0.120757,-0.02082,-0.144974,0.1007,-0.0314942,-0.0704796,-0.0148467,0.107494,0.00944827,0.00984844,0.0348398,-0.034912,0.070734,0.0544445,0.0417134,0.0263241,-0.0298222,-0.10478,-0.0476741,-0.104227,-0.047121,0.122127,-0.0647249,0.137726,0.0726707,0.087108,0.0129955,0.0286586,0.0968311,-0.116036,-0.134437,0.0196027,-0.0653614,-0.00751657,-0.0444609,-0.0562938,0.00375823,-0.0896309,0.0668388,-0.0109937,0.117146,-0.116698,-0.109906,0.0998577,-0.127189,0.0932344,0.088211,-0.0718846,0.0899285,-0.0320393,-0.0391847,0.0578504,0.133382,0.0262117,0.103132,-0.0784558,0.0149965,0.0382893,-0.0227273,0.0882818,0.136129,0.00878051,0.0535134,-0.0165152,0.0316932,0.00746264,0.0657473,0.0890775,-0.110416,-0.07058,-0.0315268,-0.126412,0.046017,0.021299,0.12793,-0.0701241,0.0093166,-0.14406,-0.0659989,0.051512,0.00954926,-0.0579569,-0.0543828,-0.121184,-0.0931008,0.0231178,-0.0963706,0.0236268,-0.126827,-0.0117272,-0.112625,-0.0890634,0.125075,-0.0242621,0.00758082,-0.127778,-0.060372,-0.0914538,0.0189615,0.0851198,-0.107814,-0.00353144,0.0579128,0.0165572,-0.00409551,-0.0797195,-0.0547479,-0.0267306,-0.10428,-0.112645,-0.0823815,0.0425638,0.0802468,-0.0467482,-0.0303911,-0.130297,-0.128135,0.0101386,-0.0974203,-0.0853781,-0.133473,0.0205122,0.050233,-0.059344,0.131991,0.103147,0.0261694,-0.137876,-0.143841,0.0226081,0.116126,-0.0815782,-0.128384,0.00908667,-0.138676,-0.0761653,-0.116788,-0.0165632,-0.105877,0.00819648,-0.123602,0.0156798,-0.113703,0.138746,0.119411,0.0607913,-0.0963452,-0.0842395,-0.0109327,0.0661149,0.0323576,-0.0223737,0.0646218,0.0430065,-0.0123895,0.108173,-0.048319,0.114172,-0.0566905,0.0304476,-0.102547,-0.0495252,0.0665881,-0.122586,0.12714,0.103902,0.130674,0.0645427,0.0451239,0.0563296,-0.0446218,-0.122911,0.0299465,-0.0990326,-0.0218869,-0.0430077,-0.00553052,-0.0214427,-0.113928,0.130122,-0.113068,0.09914,-0.0574974,-0.0519808,0.00105107,-0.0262174,0.0428784,0.130374,-0.0205219,-0.133939,-0.141658,0.0154651,0.150192,-0.114049,0.0473813,-0.00722116,-0.0966646,0.0884863,-0.130606,-0.0709591,-0.019027,-0.0432227,-0.034009,0.0326729,0.0473839,0.103198,0.1088,-0.0992528,0.0848733,-0.0233276,0.126667,-0.0984085,-0.00439989,-0.0499616,0.0351322,0.0465965,-0.0285192,-0.0254897,0.0257161,-0.0385565,0.0801025,0.0887274,0.0967928,0.0673376,-0.111032,-0.119585,0.0294852,-0.126184,0.106953,0.0349948,0.042148,-0.0925092,-0.12917,0.0381336,-0.0470061,0.0467074,0.125702,-0.074989,0.0766118,-0.087687,0.080192,0.0768273,0.116411,-0.0386839,-0.120156,-0.102415,0.0532481,-0.104628,0.0380399,0.0638681,0.0932689,0.125897
0.102775,-0.0901166,-0.0951672,0.0695271,-0.0820712,0.130033,-0.128144,-0.0198668,-0.0243036,-0.139527,0.121581,-0.0780764,0.0826514,-0.0669367,-0.108503,-0.00314378,0.0369559,-0.0315922,0.0566788,0.0432549,-0.0294363,-0.100328,0.0522233,-0.0754409,-0.0243061,-0.0221839,-0.0987685,-0.0869275,0.040063,0.0779345,0.0245882,-0.0349112,-0.118053,0.0752739,-0.0376335,-0.0803717,-0.115901,0.0412617,0.0772216,-0.115716,0.139283,0.0642226,0.0477622,-0.111208,-0.094941,0.0131003,-0.0101388,0.127495,-0.0926968,-0.109792,0.031968,0.0964805,0.0534577,0.00160714,0.137353,0.0481888,-0.0222744,0.0319255,-0.0392723,0.0414492,0.112297,-0.0474929,0.0714657,0.0640219,0.1333,-0.0761048,-0.0664026,-0.0499429,0.0406854,0.0298681,0.107756,-0.0453271,0.0237045,-0.0799928,0.050473,-0.00330535,-0.108805,-0.0913785,-0.0388391,0.0765951,-0.0904,-0.00286569,-0.105248,-0.0642113,-0.0264899,0.0670987,-0.0159968,-0.0240113,-0.0236026,-0.123675,-0.0908602,0.128539,-0.139303,-0.135287,-0.111456,-0.0234787,0.0553048,0.133051,0.10664,0.0372163,0.102651,0.0639929,-0.0661163,-0.0126814,0.0992724,-0.131224,0.100359,-0.0626115,-0.0993738,0.100218,0.026966,0.101504,0.103611,-0.0365763,-0.0249138,-0.124781,0.10673,0.0219114,0.0128969,0.049914,-0.0570778,-0.0127709,-0.0840193,0.00972291,0.0522862,-0.0348091,0.11743,0.0645659,0.0842883,-0.106952,-0.0516429,0.0906287,0.0393152,0.0488957,-0.025227,0.0660587,-0.10024,0.0959219,0.0544035,0.0345941,0.125382,0.120051,-0.0308917,-0.121427,0.0224172,0.0721985,-0.0384716,-0.112325,0.00599586,-0.0279764,-0.0375623,-0.0920875,-0.0405034,-0.0765482,0.0940712,-0.00911099,-0.0239324,0.015328,0.0274773,-0.0802149,-0.0469714,-0.100691,0.11419,-0.0794431,-0.11068,0.0109303,-0.0611307,0.0409301,-0.102357,-0.00277465,0.10642,-0.109083,0.0976788,0.104022,-0.0322685,0.0466849,-0.0985911,0.0534408,0.123523,-0.0698389,0.0537613,0.0293047,-0.0283855,-0.126316,0.0582797,0.0909664,-0.0225461,0.0461316,0.0531154,0.0610477,0.0834928,-0.0120026,-0.0226361,-0.0416855,-0.136573,0.100845,0.110143,0.0848048,0.0406098,-0.0797456,0.104745,-0.0323615,0.134228,-0.0326654,-0.120112,-0.107931,-0.121868,0.0434296,-0.105962,-0.117576,-0.114779,-0.0628212,-0.00376169,0.12923,-0.0670374,-0.00960549,-0.0479187,-0.123311,-0.091151,0.0650394,-0.0364245,-0.0788014,0.0909304,0.132892,0.084557,0.097597,-0.132751,-0.134687,0.0961328,0.0413603,0.118324,0.104538,-0.140212,-0.036461,0.0189445,-0.0326234,-0.00274794,0.127468,-0.0602428,-0.0899137,-0.102417,0.0369879,-0.127257,-0.104684,-0.130311,0.0221511,0.110376,0.0929931,-0.121182,-0.0606248,0.129553,-0.000475638,-0.0365714,-0.137127,0.00612236,-0.140925,-0.0891949,0.0694696,-0.100621,0.106872,0.0832692,-0.0645486,0.0317923,-0.0384931,-0.0921163,0.00638644,-0.0596072,0.0752458,0.0890164,-0.0551996,0.0159171,-0.116756,-0.135293,0.0321715,0.0877018,-0.0535365,0.0296098,0.121033,-0.00567622,0.0747523,0.121835,0.00944828,0.0612003,-0.119048,0.00334209,0.121687,-0.11536,-0.0444135,0.110135,-0.0648286,-0.108007,-0.136936,0.0566069,0.0107258,-0.0513421,0.0939391,-0.0618154,-0.0670056,0.0480655,-0.0410639
-0.038864,0.0732783,0.0343675,-0.123134,-0.003794,0.0338863,0.00429233,0.0574312,-0.0633193,-0.000483355,-0.131319,0.0714893,0.00210762,0.053297,-0.0742104,-0.0366091,-0.111418,-0.0114607,-0.0577775,-0.0700707,0.131617,-0.0631699,0.0475637,0.011926,0.038595,0.0240667,0.0859618,-0.0564642,-0.0293322,0.0852382,-0.119719,-0.0547776,0.0631281,0.0595242,0.0885854,-0.0784153,0.0552029,0.0162202,0.0740185,-0.0748052,-0.0846451,0.0298494,-0.117967,0.16074,0.135344,-0.13264,0.0743233,-0.113846,-0.120484,-0.139168,-0.0553699,0.0524717,0.0534481,-0.065329,0.0274693,0.175648,0.110818,0.111015,0.125974,-0.115993,0.0678284,0.1136,-0.0653616,-0.103732,0.0814586,0.0338622,0.121912,-0.0207888,0.0881403,0.0777295,0.0618167,0.146902,-0.096871,-0.0467325,0.11518,-0.0426629,-0.0246551,0.096296,0.00945814,0.0664832,0.0585033,-0.118716,0.0674974,-0.0171645,0.0807372,0.113804,0.0843357,0.137299,-0.109047,0.175387,-0.104874,0.128455,0.0277241,-0.105244,0.0172386,0.11355,0.0911792,0.0671928,0.118035,0.0849768,-0.0871312,-0.0722151,0.0672308,-0.0406584,-0.0114122,0.0519165,0.0142074,-0.124843,0.0510801,0.183324,-0.148747,-0.0819012,-0.0165663,-0.13364,0.0962148,0.00773102,-0.12265,0.0688239,-0.088953,0.136458,-0.0201647,-0.026475,-0.0558855,0.103521,0.0123745,-0.0526643,-0.0883826,-0.11087,-0.0975645,0.0025968,-0.0248401,-0.119864,0.158327,-0.0616327,-0.08049,-0.0252457,-0.0126721,0.0790317,0.0535423,0.00405158,-0.0831434,-0.114654,0.0318885,-0.133081,-0.12104,-0.0281684,0.107935,0.0818018,0.0127635,0.0679489,0.138487,0.0429534,0.0143632,0.0611593,0.153557,0.103687,-0.130354,-0.0565718,0.0688535,0.0849572,0.107678,-0.100064,-0.0534248,-0.0089359,0.129761,0.119304,-0.100565,0.0854305,0.0369699,-0.00313569,-0.0976593,-0.0802303,-0.10133,-0.140364,0.0558146,-0.000949205,-0.140147,0.144326,-0.0814399,0.120328,0.0409586,-0.0543443,0.136492,0.0296138,0.120909,0.135447,-0.0229277,-0.013615,0.0285317,-0.0134404,-0.0937378,0.0152029,-0.0937452,-0.0342457,0.154385,0.0867538,-0.0802434,0.0955744,-0.0668042,0.107605,0.0417351,-0.102473,-0.0193636,-0.117618,0.067798,0.0493616,-0.10583,0.103285,-0.0990647,0.0376128,0.00216114,0.00549409,-0.0713334,-0.00664433,0.0905595,-0.132474,0.117376,0.138653,-0.0130712,-0.0638443,0.117985,-0.0419551,-0.143671,0.0312018,0.1342,-0.141837,0.10481,-0.039817,0.0477891,-0.106349,-0.0156543,-0.0703864,-0.0480656,-0.0544023,0.10471,0.118514,-0.113943,-0.0634856,-0.092498,-0.1463,-0.0310448,-0.0408258,0.0041806,-0.0303805,-0.0530401,0.0987294,0.0194434,-0.147926,-0.137123,0.112575,-0.112957,0.126882,0.0284834,0.0678115,0.0483056,-0.0908964,-0.0907011,-0.113487,0.0724435,0.0836901,-0.00870489,0.0226756,0.125463,0.136254,0.052397,-0.00172551,0.0863892,0.111181,0.0614914,0.00105279,0.139508,0.0149935,0.0452323,0.0387863,0.129166,0.129779,0.0731831,0.150256,-0.0554262,-0.0441342,-0.0191083,-0.0625091,-0.101719,0.097821,-0.0255255,-0.0619076,0.0112882,-0.0434591,0.0680947,-0.0893515,0.112587,0.137594,0.0952933,0.0585613,-0.0213703,-0.126439,0.0791301,0.0112379,0.0814734,-0.0345398
0.0497311,0.0523454,0.133814,-0.0378761,-0.0514418,0.104668,0.008132,0.140468,0.0843746,0.0310133,-0.0315838,-0.135848,-0.0430268,-0.0505016,-0.0313849,0.0936942,-0.0727434,0.0275912,0.126237,-0.0515458,0.0378128,-0.134326,0.101744,-0.0900578,-0.131629,-0.130747,-0.0216454,0.102847,-0.131371,-0.132089,-8.76099e-05,0.0510041,-0.0615343,0.105834,-0.035912,0.0675259,0.0625244,0.0443082,0.0283664,-0.1395,0.0142356,-0.0439632,0.00948924,-0.0770571,0.0167792,-0.0467087,-0.0834337,0.088321,-0.106886,0.03213,-0.114931,0.138233,-0.0905954,0.143371,0.134192,0.0794142,-0.0847266,0.0694924,0.0320757,0.00283062,0.0973262,-0.0490807,0.062327,-0.0536425,-0.108789,0.104337,-0.0908713,-0.0929205,-0.0402721,0.0092968,0.142523,-0.073043,0.0552421,-0.0689777,-0.0486075,0.000931425,0.0298389,-0.0663741,0.0936574,-0.0304269,0.085376,0.0861013,0.122391,-0.105235,-0.0487329,-0.0250904,0.00247197,0.00216876,-0.0583401,-0.0998483,-0.0733242,0.112734,-0.0984938,-0.0529905,-0.00669175,-0.056759,0.0015768,0.0354138,-0.019342,0.0346683,-0.113453,-0.0747262,-0.117806,-0.0558501,-0.101178,0.0174804,0.0319011,-0.0773524,-0.00278118,-0.0650143,-0.0564904,-0.0994143,0.00583126,-0.0393605,-0.100852,-0.122432,-0.0462009,0.0176377,-0.0306725,-0.113645,-0.120168,0.122472,-0.118773,0.0408909,-0.116382,0.0876922,-0.114358,0.00204009,0.0386952,0.118474,-0.0778404,-0.0760406,-0.121032,-0.11308,-0.129666,0.0324414,0.0437598,-0.0861642,-0.116457,-0.11318,0.136015,0.0279953,-0.0156407,0.123802,-0.0692158,-0.0549649,0.0100148,-0.13489,0.0340467,0.0729005,-0.0320258,-0.137917,0.0333498,-0.0437779,-0.0341298,0.0635031,-0.0290847,0.104231,0.136966,-0.0594482,-0.0113709,-0.109085,0.0874185,-0.13552,-0.0255816,-0.129955,0.0118693,0.0667191,0.00286965,-0.0563319,-0.0326061,0.0197901,0.125353,0.127705,-0.0418798,-0.14112,0.0336754,0.115391,0.114505,0.129332,-0.135238,-0.105979,0.120297,0.123132,-0.108522,-0.0177496,0.115082,-0.0807442,-0.113192,0.0982733,0.0573988,-0.0143827,-0.100163,0.0183445,0.0639403,0.123375,0.0660848,0.0611641,-0.0834282,0.00783017,0.0151622,0.0614475,0.081319,-0.00998993,0.062594,0.0379362,0.138719,-0.108476,-0.032813,-0.0242352,0.103495,-0.008286,-0.0351079,0.122115,0.0148931,0.0594887,-0.0619736,0.101462,0.120133,0.100085,0.012355,0.108002,-0.0987772,-0.0700354,-0.0217844,0.0723432,0.0718642,-0.0766891,0.0198961,-0.0196223,0.0302982,-0.0816722,0.0873291,-0.103092,0.057812,-0.115173,0.0342675,-0.0393507,0.00285979,0.0882568,-0.0449952,-0.125846,-0.00660117,-0.128713,-0.0372431,-0.0996156,-0.0244926,0.0105981,-0.119898,-0.0490967,-0.036456,0.0861213,0.0637015,-0.100422,-0.0746538,-0.0857998,0.0185177,0.0570227,-0.0855261,-0.0368513,0.0369143,0.142903,-0.094878,-0.016693,0.0858031,0.00238391,-0.122766,-0.115637,0.0571601,-0.0215665,-0.0937425,0.0447574,-0.0411835,-0.101366,0.00289929,-0.126369,-0.0389541,0.0711638,-0.0545188,-0.0662452,0.124807,-0.0548315,-0.108508,-0.0793516,-0.126821,0.0335192,-0.00761148,0.13341,0.0572394,0.00715764,-0.00134688,0.0155384,-0.0214123,0.114164,0.122917,-0.102963,-0.0530396,0.124232,-0.0735277,-0.0440542
-0.078781,0.00271488,0.0571447,0.0833845,-0.118694,-0.0777738,0.0371592,-0.00735199,0.0305485,-0.117223,0.0171654,0.105028,0.156944,-0.094216,0.0826698,0.0805397,-0.138774,-0.13154,0.0740386,-0.052028,0.10869,-0.1191,-0.0536156,0.0713427,0.0124697,0.0132185,0.0978868,0.11483,-0.0497898,-0.0520437,0.161321,0.107207,0.0154711,0.00593726,0.107978,0.0919364,0.155168,-0.0332177,0.131314,-0.118401,0.101041,0.00415547,-0.12463,-0.0284335,0.0644659,-0.0796468,0.0294098,0.125257,0.0144259,-0.122893,0.0492071,-0.134651,0.056211,0.0237858,-0.156275,-0.0799815,-0.0835259,-0.0301514,0.0671358,0.0765988,-0.0921847,0.147624,-0.136706,-0.0417091,0.120262,0.0387407,0.0839945,0.0391265,0.0527401,0.0325292,0.125864,0.00931305,-0.145682,0.00901152,0.100881,0.00121537,-0.0618707,0.0216488,0.0640351,-0.0602487,-0.0948314,-0.116201,0.0692069,-0.0485207,0.14412,0.00238412,0.130518,0.129373,0.0590474,0.0823613,-0.0281359,-0.0333279,0.0553837,-0.0644559,-0.119225,-0.150439,-0.130632,0.00556339,0.021172,0.0441039,-0.0219727,-0.0648639,-0.0328296,0.0913318,-0.0769674,-0.0259731,0.142256,-0.0897625,-0.0477398,-0.0908973,0.110001,0.0677816,0.0607175,-0.079021,0.119466,-0.117318,0.0734474,0.120741,0.0220627,-0.125189,0.120751,-0.049053,0.0766663,-0.110271,-0.10651,0.00240824,0.0342791,-0.126484,0.0127761,0.136773,0.0150065,0.0171027,0.0688441,-0.0467437,-0.0751662,0.0932079,-0.0971317,-0.072939,-0.0889026,-0.0287334,0.0177121,-0.00352946,0.0498298,0.0127048,-0.0971466,0.111259,0.0651321,0.0948084,0.0726844,0.095403,0.148673,0.0270425,0.142464,-0.116459,0.000770177,0.00695103,-0.0479506,0.123908,-0.136856,0.0832865,-0.138888,0.107817,0.0443149,-0.0714007,-0.130034,-0.131913,0.163795,0.0321261,0.051568,-0.0846308,0.0627236,-0.0429543,0.109347,-0.0797335,-0.131273,0.162426,-0.0743404,0.169858,0.00656876,-0.0780897,0.115276,0.0340507,0.0620781,0.00448211,0.0896347,-0.100618,-0.000639143,-0.0173415,0.0151609,-0.128082,-0.0974944,0.071727,-0.0119741,-0.00714795,0.0415813,-0.170525,0.0947397,-0.117945,0.156116,0.144434,0.0590276,-0.028129,-0.0432423,0.140475,0.0633526,0.0200574,0.100701,0.102226,0.0478819,-0.00924686,0.12977,-0.0245581,-0.0193312,0.127997,-0.0483281,0.0256044,0.0555264,0.0988509,-0.140695,0.133419,0.12208,-0.0876423,0.0145552,0.0474996,0.04558,-0.143052,0.0775688,0.0367071,0.0211324,0.157526,0.0639093,0.0023388,0.0200055,-0.0447086,-0.014357,-0.0180966,0.00562193,-0.0731377,-0.0837805,0.143185,-0.133305,0.116995,-0.111095,0.118121,0.0837372,0.0472278,0.0332204,-0.0172457,-0.139175,0.0922863,-0.110471,-0.026085,0.0319784,0.0868423,0.0530347,0.0677168,-0.0593994,-0.0395372,0.110239,-0.121109,0.00821926,0.0196102,-0.103951,0.185176,0.0326353,-0.046843,-0.0170617,0.0740604,-0.123136,-0.0536416,-0.0139229,-0.110091,-0.112061,0.0189181,0.0993827,0.0547987,-0.0312993,-0.0538753,-0.0702668,-0.0178622,0.124849,0.0883318,0.0852784,-0.0242124,-0.0763396,-0.147669,-0.027653,0.00721462,-0.0409853,0.107302,0.1212,-0.155996,0.11509,-0.0155847,-0.134411,-0.0503731,0.0977442,0.0564212,-0.121283,0.0896792
-0.14286,0.0257378,0.0876242,0.107126,0.108851,-0.0474414,-0.0274096,-0.0298659,0.0228376,0.103221,0.0329642,0.0747975,-0.107131,0.113884,-0.0730104,-0.102287,0.130556,0.0510785,-0.0360746,-0.0559323,0.102595,-0.0337309,-0.106211,-0.0333755,-0.103973,0.00548974,-0.05221,0.0352303,-0.087061,-0.156956,0.112805,-0.00516362,-0.0431696,-0.0969494,0.0253566,-0.0998651,-0.00437762,0.0226964,0.0321777,-0.0597262,-0.0444083,-0.00780019,-0.0791641,0.130244,0.0631563,0.0500572,0.0798735,0.1241,-0.0114246,0.110083,-0.0484098,-0.0525395,0.0405876,-0.122887,0.0595234,0.112672,0.109996,-0.138198,-0.120055,-0.0599195,0.0637873,-0.103233,0.153313,0.126015,0.0467353,0.076846,0.112307,-0.0936706,0.105853,0.14325,0.0502587,0.11759,0.123767,0.13777,-0.094808,0.0491115,-0.10776,0.0823284,-0.00622366,-0.0182822,0.132377,0.136516,-0.127264,0.139463,0.0234836,-0.13486,0.01005,0.14251,0.0408966,0.076936,0.107508,0.0893085,0.0694944,-0.0371097,-0.0291961,-0.00555816,0.121647,-0.0886418,-0.120557,0.126238,-0.116316,-0.0751224,-0.106612,-0.00892994,-0.0595584,-0.0413503,0.119464,-0.0142442,-0.0247393,-0.145734,-0.121372,0.028701,0.0880859,-0.0622682,-0.0834717,-0.0925393,0.0643222,0.124678,0.0178797,-0.0542661,-0.071339,0.0159388,0.0840853,-0.0284543,-0.141521,0.125583,-0.0709359,0.000612717,-0.062872,-0.0562598,0.102316,0.00458738,0.00571803,0.110749,-0.0859,0.139791,0.0720595,0.0743586,-0.103875,-0.127869,0.0155305,0.0832858,-0.117267,-0.0976788,0.122834,0.102483,-0.0312804,0.0583125,-0.093906,-0.00462095,0.0068163,-0.132992,-0.111224,0.102512,0.117851,-0.105195,0.12406,0.118292,-0.105589,0.07692,-0.0281702,-0.0716653,-0.0458105,-0.0520505,-0.0255401,0.109608,-0.126937,0.0462062,-0.0582396,-0.0803546,0.035769,0.0915903,0.0588538,-0.0440407,0.147189,-0.0943842,-0.0674372,0.0687524,0.0390283,-0.106446,0.00611299,-0.0321781,-0.0479981,-0.00337302,-0.0716856,0.0770756,0.0981511,0.120045,-0.0761129,-0.135448,0.130656,0.0764894,-0.132347,0.113195,0.00656741,0.0734636,-0.0614968,-0.106223,-0.118137,0.129433,0.00173742,0.0416787,-0.0837407,-0.00853841,-0.0647666,-0.112663,0.0167189,-0.0685136,0.04338,-0.011573,-0.0239541,-0.0845438,0.0994947,-0.0932824,-0.063319,-0.133764,0.0808573,0.100171,0.0308661,-0.156316,-0.133728,-0.147006,0.111615,-0.117285,0.156264,-0.0588207,-0.136222,0.0470268,0.095469,-0.0140476,-0.0968162,-0.0298348,-0.0188681,0.000225288,-0.105689,0.146228,0.113133,0.0181049,0.0855921,0.0282941,-0.00912498,0.107438,-0.0117822,0.136871,-0.090534,-0.105582,-0.110412,-0.0878382,0.120129,-0.0636842,-0.0531237,0.0550438,0.0946176,-0.105349,0.0267651,-0.0915986,-0.0527546,0.0108701,0.0865069,0.0516646,0.029383,0.0988967,0.0641131,0.0215042,0.145823,0.138538,0.00196522,0.0255358,-0.0252217,-0.0646129,0.0699898,0.124902,-0.0539916,0.0900449,-0.0677371,0.052673,-0.00996034,0.0414759,-0.134168,-0.0207382,-0.0123495,-0.134183,-0.147863,0.0961684,0.118302,0.12293,-0.0920519,-0.146089,-0.134389,-0.0560866,0.0618927,0.0843293,0.0425468,-0.115087,0.0339851,0.0834832,-0.110988,0.0316447,0.0508557,-0.0845491
-0.0257521,-0.0452747,0.087028,0.150392,-0.153386,0.0934236,-0.0381934,0.0625412,-0.102391,0.124636,0.124177,0.0795632,-0.0382664,0.131285,0.0951866,0.0599306,0.118594,0.00151177,0.0375417,0.00356043,-0.0319663,0.0358988,0.0982388,0.0709218,0.0786154,-0.100993,0.0949309,0.0847641,-0.0357309,-0.0935467,-0.125378,0.0591442,-0.079671,0.118691,-0.124247,0.0461456,0.0857875,0.0421114,0.0769996,-0.079053,-0.113758,0.108812,0.121729,0.129459,0.0272465,-0.0190415,0.0924183,0.13247,-0.133539,-0.0806994,0.0995078,0.0745085,0.0420843,-0.0647449,0.0869999,0.0563427,-0.0669047,0.0296561,-0.0603861,0.094865,0.0359011,-0.0359279,-0.120228,-0.0408255,0.00751839,0.0542512,0.0177873,0.142381,0.0991523,-0.184566,-0.0713242,0.0696806,0.134062,0.0861636,-0.0502503,-0.00335611,-0.0526337,-0.0619708,-0.0385873,-0.133831,0.127634,-0.0797114,-0.0397614,-0.0430677,0.122639,-0.00152246,-0.121142,-0.00649485,0.103803,-0.0434511,-0.087118,0.0969824,-0.132672,0.129289,0.0479171,0.0545488,-0.100209,0.0357815,0.108531,0.137793,0.0525831,-0.0106132,-0.00175822,-0.122932,0.038026,0.063374,-0.00857865,-0.129272,0.0454683,-0.0518549,0.0603043,0.0628148,0.0180704,0.130495,-0.0532207,0.0142329,0.160933,0.0213165,0.136674,0.117855,-0.0827375,0.120079,0.0426286,-0.107585,-0.0177542,0.117702,0.0860161,-0.0559452,0.000724474,-0.0831927,-0.0874593,0.0626505,-0.0548214,0.0497286,0.170857,0.0814693,0.113965,-0.0900647,-0.0658069,-0.0514321,0.035354,-0.00706037,0.14082,-0.11874,-0.0238891,-0.0149379,0.126503,0.142236,-0.0827814,0.151206,-0.0696956,-0.00827478,0.132648,0.056899,0.175869,-0.14737,-0.145487,0.0347677,0.0357453,-0.0367521,0.14198,0.100273,0.113623,0.0487247,0.0957704,-0.0830878,-0.0138875,0.126121,0.0584257,-0.0910455,0.023543,-0.0644011,0.154244,-0.0295227,0.00175985,-0.0216528,-0.108845,-0.0650033,0.180631,0.0234019,-0.121253,-0.026529,-0.0885834,0.125711,0.0308606,0.109661,-0.0753212,0.153886,0.141799,0.0624034,-0.121689,0.00483757,-0.0984086,0.120536,0.00293813,0.112614,0.108032,0.140722,-0.0852982,-0.0946907,-0.0714501,-0.133358,-0.140331,-0.0572861,-0.0344052,0.11463,0.022345,0.0938808,-0.117813,0.102648,0.106025,0.120141,-0.0644706,0.00404968,0.109263,-0.0545516,-0.0411742,0.101554,0.0779601,0.101111,0.00421945,0.115573,-0.0435793,0.115013,-0.0843541,0.168854,0.0941024,0.0532836,-0.0999992,0.066345,0.034455,-0.073876,-0.130808,0.024519,-0.166838,-0.0615598,0.0936143,-0.0722588,-0.0430195,0.132996,-0.079697,-0.0355462,-0.0940552,-0.113914,0.0689775,-0.0783519,-0.0437483,-0.0731271,-0.0872933,-0.131201,-0.0748636,0.111546,0.0845285,-0.0564122,-0.0473895,0.0805731,0.133439,0.0389289,0.0157762,0.100125,-0.0351552,-0.0902191,0.00255411,0.0210008,0.139342,0.0596096,-0.00906597,0.021639,-0.0959516,-0.0281595,0.0900959,0.18733,0.0765484,-0.0958611,0.072613,0.0364271,-0.107862,0.095422,0.102349,0.105837,0.0266055,-0.133726,-0.0962669,0.121704,-0.0338346,-0.0752238,-0.100006,-0.0526707,-0.00491906,-0.019736,0.0082414,-0.118356,-0.131166,-0.0169211,0.0145405,0.129405,-0.055654,-0.0516186,-0.076844,-0.140057
-0.0840193,-0.0936506,-0.0587683,-0.000313301,-0.0305184,-0.0797241,-0.104241,0.101036,-0.11288,-0.0824618,-0.0996471,-0.052183,-0.0734107,0.0215628,0.129814,0.135101,-0.0268992,-0.134634,0.0772529,-0.0012971,0.136382,0.0169975,-0.0705203,-0.00633816,0.0887161,-0.113408,-0.0298685,-0.0536724,-0.0494594,-0.0717265,0.00844706,-0.0605009,-0.0847329,-0.066592,-0.00461739,-0.139684,-0.0426978,0.0816804,0.137044,0.00619875,-0.0444238,0.0722326,0.0101992,-0.133973,0.0471359,-0.093762,-0.00640193,0.139623,-0.0969624,0.092451,-0.0897291,0.0171298,-0.0596035,0.137186,0.0777506,-0.0197867,-0.0837993,-0.0437298,-0.0645844,0.0929403,-0.0402484,0.0333786,-0.0170771,-0.0394045,0.0374293,-0.0350044,-0.130582,0.120981,0.027158,-0.0244481,-0.0521826,-0.00640797,0.0453396,0.110636,0.0623201,-0.0697564,-0.12266,0.140941,0.0816361,-0.0599053,0.00242631,-0.029284,0.0527198,0.0883414,-0.0641456,0.0589764,0.118623,-0.0740177,0.123226,0.0654954,-0.0364278,-0.0461373,0.107071,-0.0781527,-0.0658894,-0.0815856,0.0986199,0.133752,0.0944716,0.135134,0.0600985,-0.00150008,-0.0292842,-0.0374779,0.0705857,0.0279101,0.00342084,0.12908,-0.0715643,0.102165,-0.055002,0.107958,0.0250162,-0.0332741,-0.0738388,0.000326898,0.0380765,0.074366,-0.0836038,-0.00438373,-0.0218148,-0.0525211,-0.0730835,-0.128437,-0.105444,0.134007,0.0024094,0.0134143,0.0450698,0.0863834,-0.0138128,0.0374953,0.0838327,-0.111375,-0.0253666,0.073855,-0.0104308,-0.0801742,0.0495149,-0.0703028,0.0926968,0.125742,-0.113869,0.132233,0.109522,-0.0827279,0.10968,-0.125772,0.0073514,0.0645186,0.125814,-0.0405794,-0.0384885,-0.056057,-0.112429,0.115772,0.0958776,0.10691,-0.088402,-0.116996,-0.13415,0.0776904,-0.011657,0.0421586,-0.0273572,-0.0593837,-0.0166798,-0.0354534,0.118597,0.0570691,0.0491002,0.0281757,-0.0643133,-0.01791,0.0607257,0.0120207,-0.106694,-0.0656839,-0.126615,-0.0902636,0.0608066,0.0328404,0.0484853,-0.0100797,0.044026,0.0257399,-0.130824,0.00459398,-0.107245,0.0475771,-0.0458102,0.0675098,0.106969,0.137119,-0.0819032,-0.0376769,-0.0645297,0.111353,-0.0946546,-0.0146068,-0.0212393,-0.0257894,0.135729,0.0754103,0.0946223,0.116846,0.103405,0.090397,0.075536,0.102077,-0.0817937,-0.00227392,-0.00925791,0.131067,0.0789718,0.0557943,0.0651013,0.117254,-0.135154,-0.0772334,-0.0996827,-0.10417,0.108716,-0.124888,-0.128874,-0.118025,0.0237626,0.0129568,0.0118359,-0.0459421,-0.0865783,0.13005,0.0149819,-0.033378,-0.119298,-0.136295,0.133146,-0.12037,0.0495095,-0.0334998,0.0496763,-0.126966,0.117588,-0.00068275,-0.00656011,-0.0481209,-0.0677865,-0.107861,-0.0401405,-0.0301361,-0.0938233,0.0788927,0.0352291,-0.0789897,0.0174646,-0.0621116,0.011697,-0.00996577,-0.0338895,0.0197225,-0.0983662,-0.0864781,0.117793,-0.0530956,-0.118185,0.113646,-0.132041,-0.0153711,-0.00732317,-0.0188484,0.0998685,-0.0936819,-0.117344,-0.0850411,0.034504,-0.0322109,-0.0791362,0.0795507,-0.0280198,0.066899,-0.0673829,-0.0332636,-0.121927,-0.0221406,-0.085802,-0.047252,0.0983781,-0.0408363,-0.118959,0.064948,0.0350219,0.1097,-0.0381153,-0.0730286,-0.00871188,0.0875669,-0.00794149,0.109868,-0.0701854,-0.0784677
-0.125836,-0.0870562,0.0886877,-0.0220983,0.12552,-0.0167056,0.0276809,-0.0242425,-0.0309281,0.107729,-0.121334,0.134521,-0.123722,0.142624,-0.132292,0.0588675,-0.0341077,-0.0457457,0.0757162,0.0193445,0.0617077,0.0190458,0.0576116,-0.0714596,-0.0420611,0.0694539,-0.0382562,0.00848968,-0.0590149,-0.0255245,0.00448039,-0.00486421,-0.0488861,0.0562978,-0.020567,0.131769,-0.0606609,0.0119287,-0.0739975,0.0514512,-0.091282,-0.100502,-0.138941,0.0801409,-0.119942,-0.120805,0.0370452,0.141408,0.130513,-0.0499076,-0.13604,-0.0691621,-0.0558842,0.0482194,-0.10694,0.0409548,0.119864,0.0542779,-0.0206534,-0.0705121,0.11421,-0.100941,-0.016017,-0.0457032,0.0794266,-0.0808344,0.067011,0.0530301,-0.0183212,0.0932345,0.11504,-0.00876001,0.0358146,-0.101701,0.109429,0.0941777,-0.0224658,0.0664924,0.111015,-0.126911,-0.0703765,0.0302662,0.138511,0.0800065,-0.0436143,-0.128814,0.101422,-0.125928,-0.0938054,-0.0608629,0.139542,-0.0936996,-0.078853,0.0571929,0.122478,0.131957,0.0386729,0.077716,0.136782,0.0979503,0.0642459,0.00796409,0.11205,-0.116795,0.101322,0.0755754,-0.147503,-0.110916,0.0334339,-0.101517,-0.126392,-0.0674496,0.105217,-0.0932525,-0.0126273,0.0303299,-0.0444448,-0.000756541,-0.124624,-0.0022256,-0.119447,-0.0924906,0.041618,0.129845,-0.0671294,0.137728,0.126658,0.0606625,0.0488512,-0.119646,-0.107447,0.017513,-0.0137902,-0.127198,0.0883108,-0.0503711,0.0935053,-0.0393584,-0.134135,0.119175,0.119397,0.11181,0.04717,-0.0749716,0.0416545,-0.119548,0.0426146,0.0188448,-0.052162,-9.02101e-05,-0.103979,0.102838,0.11116,-0.131765,0.120582,0.105666,-0.15133,0.120909,-0.0150512,-0.0192575,0.0589549,0.078177,-0.0363661,-0.046411,-0.0916284,-0.0206423,0.0231124,-0.00130006,-0.116283,-0.0224432,0.110001,0.0216651,0.0884719,-0.078899,0.148029,0.10325,-0.00441667,-0.0387014,-0.0486967,-0.0354449,0.0576703,0.0762601,-0.0829701,0.10094,0.102661,0.0213516,0.0863121,-0.00218952,-0.0741052,0.112295,-0.0966216,-0.0487215,-0.00500462,0.086535,0.0287233,0.17281,-0.108612,0.0277309,-0.102944,-0.0422353,0.134998,0.078501,-0.0614325,-0.0144296,0.00529278,-0.0519657,0.0780829,-0.00854602,-0.00328317,0.0459122,0.0680852,-0.133613,0.0206419,0.124208,0.0744554,-0.0355109,-0.0801231,-0.00368734,0.0331618,0.0559173,0.141842,-0.129951,0.0609313,-0.0412504,0.0408393,-0.0433092,-0.0765465,-0.0256648,-0.0961447,-0.0321097,-0.0363172,0.0565235,0.0480824,-0.0536752,0.0204749,0.0296529,-0.105814,0.00546053,-0.0290209,0.093011,0.0499501,0.115285,0.0200302,-0.0434749,0.0861756,0.0524935,-0.0553426,0.0104394,-0.0522398,-0.086228,-0.115353,0.0820591,0.0398058,-0.0163163,0.103362,-0.142365,0.140971,-0.013779,0.106604,-0.110915,-0.0277606,0.0287281,-0.0335178,-0.0284367,0.0447256,0.138057,0.0179409,0.0896852,0.00643966,0.000242145,-0.0924798,0.0982235,-0.0358323,0.13903,-0.0621366,-0.12312,0.0222927,-0.0853462,-0.0760064,-0.00200043,-0.0216328,0.0470341,0.0622442,0.0228157,0.122075,0.124811,-0.0185599,0.0502383,0.130105,-0.015057,-0.0448345,-0.0427242,0.0382913,0.0846706,0.0597651,-0.00836856,-0.150319,-0.0558746,-0.0154993,0.00551819
0.00215922,0.0365924,0.0476822,0.0154758,-0.0829143,-0.00505864,-0.132926,0.109735,-0.0694186,-0.0164466,0.10318,0.0171343,0.0491934,-0.00578632,0.151942,0.0371673,-0.0468852,-0.081201,0.0548798,0.0957606,0.0157397,-0.032158,-0.0808754,0.127529,-0.0807271,0.0169328,0.0671923,0.0452821,0.160672,-0.0666788,-0.122781,-0.107325,0.153121,0.138146,0.0704648,0.109065,-0.117264,0.0390496,-0.144042,0.0291073,-0.0324219,-0.0198727,-0.038757,-0.0143697,0.0273487,0.0309076,0.0923084,-0.0237686,-0.00866386,0.0723892,-0.101206,-0.0937876,-0.0695724,-0.00503373,0.0501547,-0.157324,0.0822966,-0.0920526,-0.112462,-0.0412926,-0.0436553,-0.100392,0.123337,0.114221,0.110877,-0.0859825,-0.0971528,-0.0451838,0.12425,0.0955712,0.0252063,-0.109668,0.140724,0.0532587,-0.137098,-0.0446338,-0.0925077,-0.133495,0.0812603,-0.0334254,0.0598628,-0.0137099,-0.00689261,-0.128225,0.0317161,0.012969,0.0926271,0.136977,-0.0378509,0.123261,0.0449514,0.0974289,-0.0567933,-0.0850473,-0.0775537,0.0691042,-0.107919,-0.0695278,-0.0824498,0.128463,-0.0430809,0.124508,0.051938,-0.0287643,0.0369971,-0.0374682,0.049013,-0.0114258,-0.0537553,0.079136,0.154266,-0.0537199,-0.0907529,-0.0661247,-0.102,-0.0353528,0.0193345,0.109155,-0.0408078,-0.0538743,0.0461218,0.0706685,-0.0157219,0.0567678,0.115124,0.00139774,0.122433,0.0651513,0.072292,0.104001,-0.0562291,-0.0734302,-0.0962444,0.0586596,-0.139081,-0.08248,0.033168,-0.087119,0.060154,0.0494598,-0.0698337,-0.109617,0.0124049,0.0977065,-0.116171,-0.110599,-0.043045,0.130674,-0.00151252,0.159243,-0.0937967,-0.111319,-0.00605583,-0.0391402,-0.0693802,-0.129047,0.110215,-0.102956,0.138952,0.130622,0.0680098,0.124795,0.126539,-0.174333,-0.0799285,-0.0677711,0.121271,0.106515,0.0367485,-0.103137,0.104369,0.125962,0.100551,-0.00500757,0.118446,-0.109843,0.161127,-0.0521764,0.129414,0.116229,0.0190765,0.122258,-0.114242,0.134587,0.0601994,-0.0508428,-0.00487058,-0.0112859,0.0166568,0.0365996,-0.000387495,0.0252496,0.127182,-0.0291343,-0.057803,-0.0723706,-0.12179,-0.0452467,-0.0866544,-0.0561653,-0.00527761,-0.0971703,0.0959345,0.0802381,-0.108154,-0.146355,0.0311274,-0.135429,-0.0715102,-0.0703921,0.0479871,-0.136616,-0.149707,0.10598,-0.141448,0.0907373,-0.0519124,0.0976636,0.112383,0.100455,0.130525,0.0754528,0.0406483,-0.114862,0.0626807,-0.0782993,-0.00120844,-0.0962925,0.0672945,0.0984664,0.0214461,0.0195341,-0.00446902,0.120842,-0.147306,0.108891,-0.0224847,0.128365,0.0327207,0.0818965,-0.00228764,0.00628586,-0.0494313,0.0834876,-0.0863085,0.0453849,0.0847666,0.0228778,-0.0562189,-0.0187999,-0.0426225,-0.0808141,-0.114456,0.0556427,0.109675,0.133948,0.0291501,-0.140384,0.119007,0.11974,-0.0416666,-0.00488731,0.0240908,0.0350203,0.127621,-0.142986,-0.0615114,0.0379067,0.0323622,-0.136865,-0.0958348,0.0497502,0.109222,-0.0141375,-0.0770731,-0.0391354,-0.0290165,0.031974,-0.0585908,-0.0374842,-0.152622,-0.060948,0.111084,0.0992473,0.0307687,0.149594,0.0483532,0.00142989,0.0816318,-0.0578908,0.0492482,0.0192563,-0.04221,0.110067,0.0295762,0.102998,-0.0718059,0.00614933,0.118278,-0.0906806
-0.145568,0.0562952,0.0165883,-0.107676,-0.0289838,-0.108879,-0.0302577,-0.117388,-0.0626721,0.0866314,0.112172,0.0159162,-0.0340552,-0.00201261,-0.0460225,0.0844684,-0.00249009,0.00456474,0.110313,-0.0399181,-0.0833253,0.134145,-0.104802,0.176959,0.0797757,0.17262,-0.0795431,-0.0714467,-0.0186515,-0.0274464,-0.00579402,-0.0555783,0.0875912,0.0107887,0.0476216,0.0056509,0.109155,-0.110481,0.0833315,-0.0524685,-0.0870508,-0.132402,-0.121165,0.062308,0.0358576,0.0851556,-0.134092,0.0823366,0.120072,0.137593,-0.0285775,-0.105163,0.110146,-0.0475193,-0.0728849,-0.0371762,-0.0798599,-0.0279667,0.0438852,0.110961,0.0885249,0.120143,0.0384572,-0.0582302,0.0932896,0.106869,0.111459,-0.120989,0.0498979,0.0968337,0.0132992,0.0136541,-0.0406717,-0.0263349,-0.126858,-0.0610556,0.1085,-0.115875,-0.0766144,0.123178,0.0876555,0.0488545,0.161572,-0.0660141,0.0490028,-0.136817,0.089518,-0.054308,-0.0349999,0.00103123,-0.0984958,-0.0409124,-0.0223388,0.0575675,-0.0276466,0.0993829,0.00750296,-0.0945881,-0.145283,0.12192,0.161596,0.0622612,-0.0160467,-0.103049,0.131561,0.062281,0.0472933,-0.0854183,-0.133775,-0.0633286,-0.0441766,-0.109415,0.0585301,0.0150614,0.155549,-0.0685808,0.00580206,0.101397,-0.0790958,-0.0262398,0.0906386,-0.0863708,-0.00908984,0.00661155,0.137223,-0.106885,0.0546492,0.14458,-0.00775794,-0.0250647,-0.00624285,0.0839395,-0.0270948,0.123794,-0.0947586,0.00926619,-0.130881,-0.0694212,0.0557571,0.104097,0.111554,-0.0114845,0.111195,-0.145842,-0.0234801,0.107223,0.131611,0.0449486,-0.013834,-0.0119514,0.0921957,-0.107092,-0.0672032,0.0795834,-0.00179097,0.00205151,-0.00621713,0.0427133,-0.0300568,-0.0838929,0.0410213,-0.00500666,0.0456401,0.0999714,0.0661774,0.114377,0.0781973,-0.111334,0.0635526,0.101092,-0.0337077,-0.0491423,-0.084469,0.111762,-0.0323458,0.114811,-0.0177903,0.129494,0.168499,-0.00673682,0.0392273,0.120448,-0.03293,0.000791704,0.140234,-0.107727,0.107081,0.154437,0.0315948,-0.132315,0.0441602,-0.0824876,0.0988377,0.11122,-0.0520061,0.0301702,0.015254,0.1196,0.0984391,0.152327,0.000860496,0.0170672,0.0186803,0.0132046,0.108534,-0.118206,0.153075,0.0639386,-0.127826,0.102223,0.107234,0.0037635,-0.11969,0.120703,-0.0662592,0.120088,-0.0791751,0.118751,0.0474741,0.0119768,0.126438,-0.00828147,0.0103588,-0.0202577,-0.113105,0.0953854,0.126707,-0.0752527,0.0530581,-0.101384,0.0463924,-0.107662,-0.0701533,0.120129,-0.0122726,-0.0856948,0.0156156,0.0838907,0.0923655,-0.0389982,0.0107798,0.106142,0.0840955,0.088552,-0.109515,-0.0291946,-0.0259554,-0.0158475,0.118654,-0.0591097,-0.0254078,-0.0959906,-0.134472,-0.0973778,0.0487354,-0.09972,-0.0730292,0.168355,-0.0418103,-0.129865,0.0218379,-0.0219316,-0.0405689,0.0450336,0.0487308,-0.0906148,0.0108713,-0.0144281,-0.0792752,0.0238331,-0.0307546,-0.12941,0.13865,0.0165286,-0.133966,-0.133455,0.059335,0.0424334,-0.0378522,0.0796357,0.0991937,0.133751,-0.0107514,0.0921834,-0.0282943,0.0259835,0.0263324,-0.0461971,-0.144957,-0.00429544,0.0915269,-0.0518464,-0.0305563,-0.0629931,-0.0650101,-0.103509,-0.128294,0.117322,-0.0642846,0.138778
0.0393365,0.112453,0.107113,0.133265,-0.029041,0.0110325,-0.111228,-0.0581443,-0.0457653,-0.162588,0.143369,-0.0366958,0.108952,-0.0472673,-0.132905,0.118497,0.00248571,-0.105534,-0.141854,0.0562233,-0.0201956,-0.10741,-0.00246072,0.158891,0.00665014,0.116839,0.00817664,-0.131357,0.127645,-0.0600894,-0.000647186,0.136142,0.184838,-0.067708,-0.114682,0.0170437,-0.0616837,0.119114,0.011821,-0.133545,-0.089081,-0.0644645,0.10705,0.177789,0.137182,0.121603,-0.112011,0.10124,-0.0816353,-0.086765,0.00328479,-0.0335715,-0.0924309,0.044346,0.123711,0.0235141,0.0703261,0.0550935,-0.0731404,0.00418763,0.0416545,0.0829948,-0.0305723,0.0141945,0.0990316,-0.0740286,0.102747,-0.131458,-0.122867,0.174542,0.120692,0.00156036,-0.0153289,0.111451,-0.0554527,0.0397653,-0.0633913,-0.142264,-0.0617027,0.0698553,-0.0588542,-0.0763521,-0.111344,0.0611215,0.0875602,-0.121582,-0.0627733,-0.103829,0.0944455,0.136967,-0.0378494,-0.000260847,-0.0784871,-0.0573932,0.0227441,-0.0304061,0.00160629,0.0995661,0.0896488,0.0740856,-0.0431013,-0.124661,0.0812083,0.106753,-0.00789659,-0.0528361,0.046952,-0.0750423,0.109234,0.0244754,0.0644583,0.0438822,-0.137841,-0.00230141,0.0311443,0.0638256,0.0760391,-0.0659795,-0.119257,-0.132505,-0.105696,0.0176781,-0.126705,-0.0418764,-0.00434566,-0.158678,-0.0771003,0.0611938,0.0220392,-0.0659342,-0.141994,-0.0842134,0.0542033,-0.0943174,-0.00527895,0.123072,0.0853017,0.0812718,-0.124068,0.106909,-0.0965694,-0.00535737,-0.0794192,-0.0325687,-0.137472,0.0907917,0.111699,0.0673242,0.115337,-0.135661,0.0264754,0.036971,-0.0333502,-0.0302316,0.0283638,-0.0358706,0.143292,0.145748,0.113447,0.000861888,-0.109294,-0.0965667,0.0490884,0.0146247,-0.0431262,-0.133734,0.0105708,-0.039274,0.0605608,0.159769,0.0247585,-0.007149,-0.116019,0.129807,0.106159,0.0082497,-0.0829258,0.178795,0.0820459,0.124307,0.122364,-0.103465,-0.102192,0.100422,0.0587622,0.0630119,0.115896,-0.115366,-0.0381594,-0.0324391,0.0255544,-0.112217,0.0680911,0.0916909,-0.0437803,-0.162445,0.0634109,0.00890563,0.0825285,0.130212,-0.172595,0.0151789,-0.0915863,-0.121213,0.148177,-0.0151542,0.12833,-0.0639325,0.0844249,0.115984,-0.0152669,0.159759,0.0300948,0.101139,0.0590388,-0.0679222,0.0860787,0.109714,-0.00947511,0.143621,-0.129817,-0.025279,-0.0392259,0.0203547,0.0180836,-0.153823,0.0703736,0.0533341,0.107592,0.129055,-0.108716,0.10731,-0.0793811,0.0586876,0.167051,0.115821,0.00972994,-0.139507,-0.105553,0.0707628,0.0960303,0.0451613,-0.129198,0.0137836,0.00255267,0.024953,-0.0301156,-0.0643809,-0.0262858,0.0558904,0.113874,-0.130115,-0.125001,0.0649372,0.0398534,-0.122889,0.0950049,0.0402897,-0.0834293,-0.0462234,0.0763583,0.0047602,-0.0626676,0.0739885,-0.0950919,0.10712,-0.0680976,-0.046651,0.114259,-0.0819106,0.155794,-0.0977208,0.0526801,-0.097725,0.0964287,0.115622,0.0219079,0.0348612,-0.0409045,-0.0749108,-0.0133615,-0.13059,0.075193,0.0803172,0.042692,0.076549,-0.0341946,0.0682369,0.0514486,0.00791878,-0.0103948,-0.037571,-0.0869977,-0.019986,-0.0689844,-0.0786001,-0.087935,-0.0965607,0.163857,0.0300042
0.00682877,-0.0458082,0.02603,-0.142104,-0.0380765,0.00331767,-0.137377,-0.0434572,0.0318957,-0.097238,-0.0992961,0.00914319,0.101064,-0.121566,-0.0756884,0.0124946,-0.0247615,-0.0780539,-0.0736402,0.0867031,-0.0697464,-0.118637,-0.0898607,0.0754088,-0.0562938,-0.146653,0.0926564,0.167463,-0.0803569,-0.053188,-0.125223,0.0822672,0.0802066,-0.156254,-0.0101418,0.0670357,0.0283973,-0.136664,-0.111034,-0.113165,-0.142023,-0.0492929,0.107889,0.0394194,0.0741669,-0.0135515,-0.131173,-0.123227,0.0425236,0.0369226,0.0660858,0.00304025,0.0111691,0.0945886,-0.12972,0.0583975,0.060482,0.086204,0.131834,-0.0149932,0.0345746,0.112279,-0.0732197,0.0405262,-0.127489,-0.0126426,-0.0975683,0.0198696,0.00634211,0.0812353,-0.102211,-0.113966,0.101953,0.0504107,0.117079,-0.013207,0.0720421,-0.00433665,0.00489552,-0.0264366,0.0653006,0.0322799,0.0110811,0.103467,-0.127631,-0.122042,-0.145293,-0.101118,-0.104319,-0.0380594,0.0355256,0.0432477,-0.00679764,0.137119,0.015769,-0.0657721,-0.00767802,0.0590918,0.141534,0.0736765,-0.0524892,-0.0572094,-0.0896426,-0.0408725,-0.136894,0.0712341,-0.0157985,-0.017037,0.104096,-0.0411452,0.124556,0.163463,0.108303,-0.140225,0.0860333,0.0276437,-0.0458471,0.132324,0.00156813,0.128312,-0.0735568,-0.1319,0.055973,0.11726,-0.0107074,-0.0633937,0.0367211,0.0226473,0.101948,0.0266347,0.0810827,0.0645252,0.0879338,-0.106138,-0.0758764,0.135325,0.0627902,0.10598,0.106288,-0.0513122,0.0205905,0.0749138,-0.126788,0.0898183,0.00964246,0.0314901,-0.142567,-0.145075,-0.0132028,0.0392329,-0.0974402,0.143554,-0.0555073,0.087525,0.0433666,-0.0306391,0.0203773,-0.135966,-0.0435217,-0.0509014,0.0763644,-0.0903494,0.126648,-0.0233651,0.0210077,-0.0123471,-0.025943,-0.0688781,-0.0717649,-0.032414,-0.0465101,0.0290928,0.0908419,0.0307669,0.0393898,0.0818564,0.115435,-0.0347102,-0.0240662,-0.072504,0.123802,0.082677,-0.0652386,-0.13448,-0.0296712,-0.0627557,0.13249,0.0638855,0.0156798,0.0329686,0.141766,0.109609,-0.0314719,-0.0395901,0.0770464,0.155395,0.0740995,0.0499045,0.0886099,0.0566023,0.0373551,-0.0522923,0.0596143,-0.076971,0.0490121,0.0829359,-0.145591,0.0592002,-0.0782217,0.0352224,-0.00316516,0.053821,0.0893973,0.0297104,0.0218786,0.101682,-0.113217,-0.065781,0.0463666,0.0995449,-0.0374648,-0.107928,0.12824,-0.110072,0.0760445,0.125566,-0.0489945,-0.136765,-0.0440175,-0.0795641,0.102247,0.0247285,-0.0797463,0.0483079,-0.00633872,-0.0815709,0.046326,0.0129498,-0.138385,-0.124184,0.0429881,-0.0654046,-0.092959,0.138638,-0.114145,-0.0781431,0.0190093,0.101244,-0.0690494,0.123859,-0.00673125,-0.0348351,-0.0970102,0.076507,0.125773,0.140478,0.0180559,0.0856347,0.00632011,-0.10305,-0.0497409,0.0582214,0.037454,-0.0249128,0.0189371,0.152884,-0.115096,-0.0481572,0.0139919,0.0147712,0.145502,-0.109626,0.104198,-0.107725,-0.115042,0.0763207,0.0958966,-0.153021,-0.114132,-0.0235516,-0.0331288,0.0444929,-0.12562,-0.0104019,0.154537,-0.0646122,-0.0254886,0.0165638,-0.0329541,-0.0899839,0.115423,0.122921,0.109584,-0.129405,-0.0146095,-0.00701676,-0.00384628,0.0935638,-0.0334314,0.0875043
0.0968599,0.118943,0.0645589,-0.00307416,-0.061101,-0.0926105,-0.0437992,-0.110916,0.0453515,0.0647988,0.0456799,-0.0871165,-0.0507636,0.122071,0.0252199,0.095437,-0.0049055,-0.0498809,-0.110468,-0.00507715,0.0036265,-0.0753241,-0.0764225,-0.116702,0.0891157,0.0387682,0.0671067,-0.0090063,-0.00563294,0.151314,0.00948743,-0.135383,0.0652544,-0.121083,0.0703987,-0.0458628,-0.113826,0.0346029,0.110188,0.0827556,-0.0270606,0.127996,0.028863,-0.0888478,0.132955,0.0747506,0.0668009,-0.136651,-0.102158,0.0538452,0.00977462,-0.0332054,0.0691079,0.118508,0.117567,-0.162444,0.125758,-0.000519294,0.0696539,0.00796059,-0.0427246,0.0795543,0.0335741,0.0287289,0.132693,-0.139077,0.00445127,0.0228489,0.140233,0.0204359,-0.0429723,0.0392696,0.0347995,-0.0900906,0.0233709,0.0341938,0.0776067,0.0991004,-0.133181,-0.101158,-0.0523179,0.0730667,-0.0558546,-0.133474,0.0687763,-0.0245949,-0.139424,0.0206455,0.0244004,0.0133918,0.104171,-0.00119547,-0.0529457,0.0915167,-0.0853121,-0.147146,0.133238,-0.127541,0.0858603,-0.00728224,-0.0148436,0.0730217,-0.00326663,0.122557,-0.0156813,-0.038265,0.0639044,0.0464314,0.0915961,-0.0586018,0.0298647,0.00202039,-0.00690517,0.041255,-0.00287458,0.122617,0.0424055,-0.0212195,0.0629704,0.0640607,0.136722,0.0813106,0.0891941,-0.113432,-0.136611,-0.026348,-0.117745,-0.089642,-0.139482,0.12161,0.0381283,0.0436828,0.0905455,-0.0217769,0.0469359,-0.097236,-0.139698,-0.112229,0.00131091,0.0707222,-0.0628054,0.11291,0.0211148,0.0525886,0.047572,0.124256,-0.0723289,0.102292,-0.0259694,-0.00349242,-0.0376701,-0.126361,0.123587,0.0357634,-0.167518,-0.0596005,-0.0795609,0.124993,0.105097,0.0911149,-0.00387765,-0.0182068,0.105057,-0.0882924,-0.114342,-0.0299339,-0.00179684,-0.0261817,0.0441514,-0.0675039,0.0870951,-0.0663375,-0.0564529,-0.0637323,0.0162015,-0.0751494,0.0218087,-0.12418,-0.0688749,-0.0872282,0.00941834,-0.0594806,0.113822,0.0932578,0.129628,0.113562,0.104201,-0.0852711,-0.12701,0.133888,0.0998355,-0.0815232,0.109271,-0.0112621,0.0786071,-0.00544276,-0.0843681,-0.139875,-0.0728508,-0.0791813,0.00384109,0.0634679,0.0220118,0.055532,-0.0933793,-0.0151272,0.0128762,-0.0918459,0.0233218,0.118443,0.0829019,-0.0547834,-0.0451102,-0.0780161,-0.133159,-0.116226,0.123633,0.0593791,0.132017,0.0596574,0.0940394,0.0634404,-0.0241266,0.0838911,-0.00939248,0.0558139,0.00581618,0.128703,-0.0881423,-0.0851669,0.13126,-0.125859,-0.137952,0.0192992,0.142442,0.124785,0.00975261,0.142906,0.0395063,0.139828,0.0234538,-0.135816,0.128818,0.0557393,-0.109779,0.0402957,-0.0348728,-0.101487,0.0310002,-0.0664934,-0.0624116,-0.0273161,-0.0235209,-0.084331,-0.0315121,0.0598833,-0.00580606,0.105401,0.118903,-0.143275,0.0218876,0.0993214,-0.114516,0.0669189,0.0850816,0.0463989,-0.0332259,0.0212639,-0.0984272,-0.0632162,-0.0506985,0.0926739,0.0175615,-0.130871,0.06964,-0.124037,0.031899,0.0621453,-0.106399,0.0687003,0.0785756,-0.0531353,0.0337632,-0.0132815,-0.0192694,-0.131178,-0.0573456,0.0930379,0.117125,0.0190103,0.112758,-0.11402,0.0332043,0.0553648,-0.144669,0.0329519,-0.105263,0.0941403,-0.0786119,0.0972515
0.000536394,0.085829,-0.0182737,0.124096,-0.112513,0.0262239,0.0577985,-0.117288,0.037118,-0.00222801,0.100425,-0.0578906,0.14705,-0.0496414,0.138729,-0.120908,0.0350035,-0.0466533,-0.0961488,-0.0394159,0.0875542,0.125849,-0.0944051,-0.0700557,0.0785235,0.124122,0.0516175,-0.0245552,0.0971974,-0.0504106,-0.00444521,-0.00359677,-0.110275,0.111324,-0.0389764,-0.0407969,-0.0697639,0.0155947,0.0585005,0.110905,0.067612,0.122106,0.00693592,0.136188,0.0991004,0.0481427,0.0659307,0.0499536,-0.0413434,0.178313,-0.0665996,-0.103217,0.0539942,0.122085,-0.0577269,-0.0851779,-0.00808753,0.040877,0.105225,-0.131828,-0.107486,-0.0927621,-0.119917,-0.00449482,-0.125452,0.0105602,0.0775098,-0.073823,0.128916,-0.112251,0.0479555,-0.0763651,-0.0110918,-0.0400111,-0.0584567,0.0664076,0.0452602,-0.0710842,-0.0887562,-0.115091,0.101356,-0.0998206,-0.0989826,-0.0647973,-0.0954533,-0.040909,-0.0759023,0.0479204,0.102059,0.146462,0.0548721,-0.0899765,-0.00914112,-0.0252536,-0.0364007,0.151225,0.0474326,-0.0954832,-0.0796685,-0.0608677,0.0985331,-0.0422823,0.0238703,-0.0424603,-0.101335,-0.128607,-0.0244794,0.000110285,-0.0743893,0.0412314,-0.0715876,-0.146942,0.163403,0.0260515,0.113544,0.158563,0.0806675,-0.141642,-0.0396015,0.0162834,-0.109937,-0.0870006,0.10903,0.0934163,0.14167,0.117402,-0.074415,0.119771,0.0284138,0.0639666,-0.0235839,0.0140807,-0.0638313,-0.114356,0.20784,-0.0889072,0.0829218,-0.0996377,-0.118241,-0.0830097,-0.108262,-0.140831,0.17996,0.130754,-0.135062,0.0498065,-0.125808,-0.0826426,-0.0847265,0.116009,-0.113469,-0.0724293,-0.14185,-0.108144,0.136361,0.0487653,0.0306873,-0.0623235,0.0434935,-0.0917953,-0.124129,-0.0382724,-0.0211431,0.062479,-0.104944,-0.03896,-0.00546996,0.117173,-0.0510846,-0.0705964,0.110272,-0.0720088,0.114708,-0.0233529,0.158744,-0.100851,0.113841,0.0519516,-0.00336825,-0.0123618,0.056213,0.127637,-0.0548305,0.10673,0.10647,-0.118064,-0.0434365,-0.0435509,0.0831676,-0.0708974,0.0101774,-0.0468675,-0.0298525,0.0527377,-0.0200919,-0.0417131,0.0839174,0.058005,0.0974451,0.142363,-0.0129899,-0.0302293,-0.0872804,0.117486,-0.057306,0.130748,0.0726051,0.0456969,0.0163545,0.147751,0.0203124,0.0150655,-0.0678645,-0.0533448,-0.0988314,-0.12052,0.144813,0.101836,-0.110933,-0.0994167,0.122053,-0.0196638,0.0486506,0.145856,0.153326,-0.0298664,0.084082,0.0868436,0.0660942,-0.0345534,-0.0514544,0.0793361,-0.105801,0.022741,-0.126059,0.0197421,-0.0467818,-0.120688,-0.0866624,-0.0526378,0.0879861,0.0936662,0.0597252,-0.104214,0.130253,-0.108829,-0.114914,0.114716,-0.0633184,0.0451435,-0.0754617,0.0883429,0.109318,0.116704,-0.12246,-0.100418,0.137122,0.0630903,-0.103996,0.0604219,-0.104521,-0.123054,0.13562,0.162829,-0.0951719,0.009895,0.0707393,0.0673821,0.00908011,-0.102782,0.105759,-0.0463854,0.0501675,-0.0728721,-0.035848,0.00487441,-0.0624809,-0.00698881,0.0832974,0.125441,0.0995592,0.119469,0.070105,0.0459812,-0.076243,0.128725,0.0207779,0.111727,0.0112379,-0.0124218,0.0573923,-0.0617767,-0.0599016,0.0504694,0.0122646,-0.0836696,-0.079486,0.0170836,0.0858642,-0.0873525
0.0557842,0.105207,0.0452064,-0.142089,0.132483,-0.132365,-0.0440989,-0.102692,0.127962,-0.0357499,0.07976,0.0635348,0.0198672,0.124029,-0.0020396,-0.0870155,0.0523935,0.0536907,0.0387467,-0.129612,-0.0439678,-0.0810051,0.127626,-0.0579077,0.105066,-0.0575184,-0.0610193,-0.0877441,0.0510097,-0.0534956,-0.103095,-0.0543739,-0.0019449,0.0927006,0.0536233,-0.0320701,-0.0361161,-0.145024,-0.016817,-0.0770925,-0.0349368,-0.0239349,-0.114616,-0.0575878,-0.00581426,-0.0912358,0.065768,-0.00347359,0.119412,0.00121243,-0.0433855,0.0691565,-0.0235839,-0.0139943,-0.132053,0.0899149,0.00271945,-0.128735,0.0605237,0.0879601,0.105211,-0.104328,0.131749,0.0539864,0.0753439,-0.0126409,-0.0913996,-0.131729,-0.0902915,-0.0362722,-0.0142856,0.0945348,0.126303,-0.0509243,-0.133002,0.0896102,0.0472333,0.0992898,-0.118705,0.046559,0.129859,-0.0069131,0.00673849,0.0111641,-0.119442,-0.107017,-0.0836947,-0.0713537,0.127232,0.128531,-0.0985699,-0.120554,0.0133218,0.0184525,-0.0201632,-0.13721,0.128101,0.134258,0.106513,-0.085788,-0.0326162,0.0155025,-0.135876,-0.110729,0.0194497,0.122422,0.126103,-0.0828433,-0.130243,-0.0795345,-0.131919,-0.0593838,-0.0228757,-0.0201217,0.0242031,-0.132928,-0.046051,-0.115983,0.00870473,-0.0581818,0.0836074,-0.10253,-0.0649227,0.0540815,0.0853832,-0.0275572,0.0192954,0.0158135,-0.00835171,0.137347,0.0799623,-0.047705,0.130117,-0.0100379,0.0455628,-0.0973542,-0.035805,0.0908725,0.0434298,-0.111878,-0.0174298,0.091061,-0.130841,-0.136938,-0.137601,0.103854,0.00682587,0.0722559,-0.0127476,-0.0852969,0.0234529,0.130711,-0.0411572,-0.0300953,-0.0883639,-0.0513693,-0.113901,-0.0638972,-0.0801923,-0.133084,-0.11667,-0.0878539,0.00734307,-0.0982487,-0.0520977,-0.0718377,-0.0696433,0.130942,0.0701473,-0.0328643,0.100616,-0.105105,-0.0333658,-0.124092,0.0648516,-0.0948212,-0.0868885,-0.0692675,0.0898225,0.0666016,0.1103,-0.135776,-0.0783866,-0.115194,-0.0502119,-0.0639873,-0.114147,-0.0259536,-0.0553079,-0.00384478,3.9743e-05,-0.0854347,0.0632286,0.0317822,0.0189729,-0.0541367,-0.119668,-0.0863981,0.0855493,-0.0175266,0.056938,-0.00116013,0.0360323,-0.0609108,-0.0991115,-0.0258042,0.0830395,0.115714,0.0237543,0.0617717,-0.0101133,0.013788,0.0370673,-0.0714616,-0.0675688,0.0692647,-0.143291,0.103864,-0.125845,-0.116099,0.134049,0.0162902,0.00659015,-0.119876,0.0891986,-0.12468,0.128394,0.0109424,0.0259984,0.0772715,0.109506,0.0454109,0.0520251,0.138358,0.0853972,-0.0159251,0.105652,-0.0579415,0.122012,-0.0732399,-0.116489,-0.0472686,0.107891,-0.0492869,-0.0946583,-0.0105003,-0.0380576,-0.0527359,-0.0384507,0.0320046,0.0165208,-0.0914126,0.079051,-0.0781372,-0.0823415,0.0556437,-0.0591276,0.0243444,0.0969233,-0.0208977,-0.0344173,-0.0525447,0.0863466,0.127002,0.108332,0.068558,-0.0673949,-0.0179624,-0.131981,-0.0895609,0.0513407,0.090247,-0.0104299,-0.0990531,0.132158,0.0821323,0.100478,0.0530714,-0.0815611,-0.11776,-0.0128612,0.0266855,0.0762624,-0.0765273,-0.126918,-0.142241,-0.0155078,0.0198743,-0.138166,-0.111789,0.00827025,0.0547791,-0.130698,-0.0806549,0.106005,-0.136122,0.0935053,-0.101442,-0.0766744,0.107247
0.0268582,0.0947742,-0.0360176,0.105124,-0.0432023,0.0535844,0.0768831,-0.00533166,-0.123414,-0.0271518,-0.120547,-0.0533092,-0.000557406,-0.0692399,0.0780413,-0.0170437,-0.00745381,-0.0284233,-0.109479,-0.0878479,0.095666,0.00881031,-0.00507599,0.107803,-0.0528227,-0.0516001,-0.106021,-0.0856321,-0.0679289,-0.134177,0.100063,0.0794551,0.149951,0.176173,0.117863,-0.0486283,0.0433806,-0.168929,-0.128799,-0.0204761,-0.0623695,-0.0760238,0.0319755,-0.0825568,-0.13015,0.0221186,-0.0558204,-0.122903,-0.0746028,0.077296,0.0309786,0.076268,-0.0567358,-0.0874146,0.0554286,0.139125,-0.0632274,-0.00325786,-0.166105,-0.091879,0.0363002,-0.10689,-0.102824,0.101321,0.0286678,-0.11885,-0.0216702,0.0541233,0.133602,-0.165192,0.0088807,0.0858319,-0.112114,0.0761344,-0.0818355,0.0561093,0.08596,0.0751787,0.130888,-0.115336,-0.111752,-0.0553445,-0.0513626,0.0981636,-0.0389805,0.0609259,0.151653,0.121121,0.0437931,0.0624181,0.064999,-0.0619636,-0.181871,-0.1221,-0.100014,-0.0883073,0.0431857,0.0787674,0.022275,0.0416718,0.00709845,0.127488,-0.0899148,-0.0428617,0.0360684,0.0171834,-0.0979244,-0.0904192,0.0323722,-0.129655,0.140173,-0.00545132,-0.138583,-0.00675433,-0.130188,0.101005,0.170671,0.0893609,0.0424571,0.106491,0.022847,0.109969,0.0602383,-0.044332,0.133215,0.101176,0.0395511,-0.0535619,0.10466,0.154504,-0.128026,0.115527,-0.0637353,0.0093661,-0.0922074,0.135929,0.169283,-0.0780942,-0.113987,0.132267,-0.084718,-0.138804,0.0909629,0.023637,0.0317922,0.0714904,0.173037,-0.081799,0.0785502,-0.0380102,-0.0163457,0.0845196,-0.130791,-0.117935,0.0156434,-0.0162335,-0.133116,0.0171314,0.065151,-0.0911983,-0.0215729,-0.0530803,0.0996691,-0.148215,0.100794,0.00480623,0.050291,0.0515206,-0.0350593,0.0794816,-0.104193,-0.0868431,0.0683512,-0.01449,0.030227,0.141413,0.163475,0.131961,0.205601,0.0270771,0.136684,0.107478,-0.103453,0.0345643,-0.107268,0.139386,-0.0809292,-0.0198941,-0.105292,0.0402231,-0.0242302,0.0762362,0.143483,0.0779806,-0.0306887,0.0938753,0.100715,-0.045792,-0.0280708,-0.0667277,-0.112176,-0.053696,0.0515335,0.144135,0.10282,-0.0896857,0.102683,0.0954527,-0.0486787,0.0851535,-0.0797861,0.0525134,-0.0364407,0.153664,-0.12041,0.140311,-0.00891929,0.0943458,-0.108671,0.0422734,-0.0944462,0.0597119,-0.119067,0.0617333,0.0818256,0.0281888,-0.108868,0.10445,0.043875,0.121607,0.128647,-0.070645,-0.125089,-0.120311,0.112052,0.0775951,-0.084108,0.0364383,-0.102293,-0.00994282,-0.132815,-0.0953294,-0.0121535,-0.0175392,-0.0450491,0.018868,0.0507339,0.0872808,-0.0619446,-0.0286072,-0.0597995,-0.0484484,0.0309909,0.0348286,-0.0315723,0.0884046,0.0479144,0.0563369,0.0492488,-0.0743199,-0.10284,0.125335,0.148801,0.0595338,-0.0173473,-0.0783918,-0.0676527,-0.0591704,-0.017041,0.0942741,-0.0612944,0.12677,-0.104541,0.115194,0.010143,-0.0802484,0.0320115,-0.113251,-0.126498,0.154957,0.140684,-0.0771982,-0.0806689,0.176983,0.0841737,0.0997908,0.108252,-0.0481896,-0.119354,0.0602492,-0.0650366,-0.032476,-0.104419,-0.0543368,0.0621248,0.00725692,-0.107307,0.0125376,-0.0770542,-0.117497
-0.0661663,0.124795,0.0159071,-0.00436316,0.0563914,0.00530047,0.0371568,-0.133446,-0.071097,-0.0200841,-0.0748601,0.0543234,-0.117818,0.106182,0.109985,-0.0109944,-0.0766644,-0.0524661,-0.0758802,0.0421226,-0.0657659,0.109589,-0.0757074,0.00893986,0.00502045,0.0872342,0.0736983,-9.66939e-05,0.096675,0.0682561,-0.00136625,-0.110132,-0.117974,-0.0928502,-0.126106,0.0954956,-0.0583171,-0.136841,-0.0365307,-0.106471,0.121472,0.0772937,0.00967579,0.0175869,-0.111257,0.0292276,0.124466,-0.068829,0.115477,0.0568892,0.026972,-0.0575843,0.0324934,0.0624653,-0.113694,-0.0807466,-0.0082106,0.0985057,0.121392,0.0521503,0.0624424,0.10234,0.0785768,-0.0195867,-0.110764,0.0618299,-0.059349,0.039814,0.0298066,0.0898756,0.113811,-0.00659349,0.123208,0.0738764,0.0262115,-0.0386446,0.110816,-0.000732157,0.0941702,-0.13184,-0.0269826,0.027527,0.0518858,0.126646,-0.0452842,-0.0673834,-0.0821333,-0.0377309,-0.0831465,-0.121129,0.0158449,0.0704444,-0.140815,-0.0481936,-0.109749,-0.134123,-0.136239,-0.0294502,0.144303,0.0123897,-0.0353396,0.0566459,0.00237423,-0.00874621,0.0182611,0.124284,-0.0727118,-0.0563891,0.0205234,-0.0105398,-0.00473671,0.0666564,-0.0249817,-0.141364,-0.0827892,-0.00794349,-0.0928137,0.108992,0.0827651,-0.0971934,-0.0318105,0.0549246,-0.0727672,-0.0391837,0.0708932,-0.0902533,0.101086,0.0189795,0.0620387,0.0377559,0.0277674,-0.139058,-0.0426543,0.0961525,0.12934,0.0846613,0.134196,-0.0158924,-0.0943067,0.112336,0.137979,-0.0386434,-0.0593239,-0.017013,0.0357593,0.0108322,-0.138314,0.134737,0.0711521,0.0952772,-0.075262,-0.139428,0.0558893,-0.0425697,-0.138007,-0.137486,0.103506,-0.0358944,-0.0911233,-0.103402,0.00504291,-0.0245939,0.0759072,0.0154137,0.0426608,0.0322727,-0.0263915,-0.0721083,0.138074,0.121563,0.0979178,0.0791705,0.126992,0.0736702,0.122201,0.069954,0.0709074,-0.0413735,-0.113764,0.0111836,-0.00619311,-0.0703977,-0.0997965,-0.0512051,0.109839,-0.0749917,-0.121657,-0.0160067,-0.0903331,-0.0534936,-0.03278,-0.104757,-0.137521,-0.0483291,-0.0609052,-0.0982245,0.0353302,-0.0300598,0.00507526,-0.0830553,0.0440314,-0.105337,-0.107577,-0.107373,0.122147,0.0771638,0.121968,0.023681,0.0264915,0.0153088,-0.0750365,-0.0286721,0.0246266,0.0155924,0.131819,0.0920066,-0.0591526,0.0876905,0.111804,-0.0398532,-0.137172,-0.0412379,0.00331544,-0.0493721,0.0394512,-0.0681824,0.0786975,0.0173321,-0.0585501,-0.0879905,-0.00664823,-0.00937738,-0.00291724,-0.0285515,0.127721,0.0769554,-0.0336299,0.10451,0.0764618,0.134542,0.0566138,-0.00438806,-0.108507,0.142773,-0.009295,-0.0359405,0.112543,-0.0180048,0.00842963,-0.0433761,0.0611169,0.00400313,0.107711,-0.0765185,-0.0911021,0.119594,-0.041019,0.119276,-0.0779156,0.0402718,0.0128422,-0.00158379,0.0321753,-0.0998801,0.0619611,-0.0239757,0.0634869,0.00865782,0.125322,0.019063,-0.0104206,-0.0787553,-0.0558074,-0.0912593,0.135803,0.130749,-0.055042,-0.0755282,0.118319,0.0932393,-0.116592,0.0399252,-0.129343,-0.0394814,-0.0577599,0.0775879,0.118842,-0.0612641,-0.114501,-0.0278196,-0.0853787,-0.0530316,-0.0431954,-0.109705,-0.10536,0.065858,0.005873,0.0136074,-0.0756134,-0.0766749
-0.136102,0.0230903,-0.0149399,-0.0235827,0.0197786,-0.128235,-0.0882337,-0.0610816,0.103205,-0.119905,-0.0208767,0.1405,0.0120014,-0.134994,0.104028,-0.0137721,0.0581813,0.0892526,0.0612944,0.00534871,0.0818065,0.100685,0.0347974,0.0137546,-0.0916511,0.115369,-0.0139798,0.0177305,-0.060271,-0.0017245,-0.0186412,-0.0352581,-0.0943965,-0.0302021,-0.121427,-0.0879817,0.112006,0.0649231,-0.083235,-0.0270436,-0.111157,0.0357328,0.118305,0.107237,0.0728166,0.071893,0.0147088,0.127695,0.0898525,0.0877468,0.112781,0.140317,-0.120929,0.0322314,0.0662399,0.131166,0.0438747,-0.0151675,0.103148,0.0812667,0.109052,0.0563961,0.105952,-0.110353,0.0996423,0.0807516,-0.0654872,-0.0125198,-0.139129,-0.131582,0.0998845,-0.0923087,0.103501,-0.075981,-0.00494224,-0.036089,-0.122392,-0.0437822,-0.0285755,-0.0633628,-0.101766,-0.0480644,0.00755966,-0.11431,0.108673,0.140033,-0.107036,-0.0583003,-0.142061,-0.11775,-0.111891,0.0890365,-0.0585746,0.0989187,0.119231,0.0829522,0.0428497,-0.0990611,-0.100119,0.083296,-0.0193186,-0.111567,-0.0655813,0.0633274,0.0360341,-0.0855576,0.0842718,-0.0302958,-0.00511488,-0.0583336,-0.113107,-0.0563331,0.0780314,0.0665993,0.112071,0.0469623,-0.0370681,-0.067606,0.128791,-0.10517,0.104433,0.107118,-0.0142656,0.120825,0.0140204,-0.133229,-0.00342539,0.0178077,0.125293,0.0101335,-0.0590864,-0.0357976,0.116328,-0.0149227,0.0685677,-0.0243938,0.0115598,-0.116681,-0.0434625,0.0342455,0.043806,0.0802383,-0.109003,-0.138889,-0.0985818,-0.0725369,-0.0131347,0.00415341,0.146313,-0.00184139,0.0145095,-0.0935429,0.130373,0.0477917,-0.108494,0.0213633,0.0492026,0.0943194,0.0245458,-0.0969044,-0.102602,-0.0996099,-0.0522572,0.0440652,-0.0629903,-0.00731375,0.119349,-0.107912,-0.145112,-0.00689294,-0.113638,-0.120686,-0.0280898,-0.0673455,-0.105754,-0.066657,-0.0702752,0.136654,-0.0594659,-0.043488,0.0300842,-0.00368147,-0.0917345,0.125873,0.0957672,-0.0346716,0.0901576,-0.09862,0.0436894,0.0523001,0.0849646,0.0461674,0.0350128,-0.0320552,-0.0109983,-0.0261379,0.127392,0.0651754,0.0540653,0.103102,0.0323028,-0.0828323,-0.0446724,0.110953,-0.148712,-0.0853237,-0.112722,0.0388783,-0.0859999,-0.101648,0.127297,-0.0754167,0.11959,0.142915,-0.035566,0.0267811,0.000206831,-0.012044,0.117884,0.0448335,0.0255395,0.0421472,-0.1389,-0.0498243,0.0601201,0.142336,-0.0882022,-0.0334204,-0.0349523,-0.118747,-0.0743693,-0.0661972,0.0910871,0.0450927,-0.119384,-0.0135141,-0.0561062,-0.0903705,-0.054125,-0.0638004,0.114744,0.130501,0.0406491,-0.133609,0.0923465,0.0957997,0.0148647,-0.0732208,0.103527,0.0209816,0.119042,-0.0306924,0.0284782,0.0304195,0.1162,0.011989,-0.131136,0.129176,0.142934,0.0655909,0.122156,-0.118379,-0.116907,0.06587,-0.00426335,-0.0274101,-0.117825,0.0489461,-0.0260052,0.0485749,0.14333,-0.119963,-0.0782773,-0.121394,0.0479922,-0.0840193,-0.0333585,-0.0911693,0.0386407,-0.119999,-0.0205009,-0.0195911,0.0815044,0.109345,-0.00176355,-0.0953582,-0.0692757,0.0465726,-0.121023,0.0719411,-0.0135068,-0.103842,0.0318994,0.0241268,-0.114479,0.107731,-0.131934,-0.0852779,-0.0706724,0.0455259
-0.0758606,-0.128085,0.0760285,-0.0298615,0.00484465,-0.111602,0.11941,-0.0907309,-0.0673026,0.111592,-0.0919373,-0.13922,-0.140314,-0.0841668,0.0659302,-0.0676052,0.110985,-0.0216783,-0.0500102,0.0342181,0.0287122,-0.00406113,-0.102094,-0.109108,-0.00287379,-0.138843,-0.0999502,0.0543902,0.0642019,0.0621227,-0.117806,-0.0791137,0.119834,0.0193332,-0.0166129,0.119368,-0.018481,-0.0588876,-0.0877763,0.0358148,0.106534,0.000810105,0.129678,-0.118567,0.130765,-0.0484573,0.00474149,0.0800989,-0.110567,0.100995,-0.0101203,-0.126956,0.0643156,-0.0148404,-0.140114,0.118576,0.0888324,0.113669,0.0228901,-0.0692959,0.124444,-0.0852551,-0.0950487,-0.0240011,-0.0346367,0.0887925,0.0998332,0.0137454,0.133868,0.107222,-0.0608105,-0.0861111,-0.0899538,-0.0137923,-0.11001,0.0668275,0.0130027,0.0350702,0.0161624,0.117651,0.0125546,0.0245531,-0.113127,-0.112894,0.0624772,0.0874463,-0.00550954,-0.0888363,-0.130469,-0.0584149,-0.0779368,-0.0533995,-0.0564189,-0.0761025,0.0237342,-0.0753647,-0.109635,-0.0196269,-0.0741039,0.0556851,-0.109118,0.07235,-0.131361,-0.135512,-0.00767126,-0.0770529,-0.100646,0.108695,-0.0733678,-0.0854921,0.047772,0.100994,0.0159224,-0.0587997,-0.135724,-0.0187395,0.0784002,-0.102604,0.0764856,0.116274,-0.122092,0.0813265,0.0790349,-0.0873,-0.0998532,0.0518886,0.000414398,-0.0614841,0.0277201,-0.0853893,0.126386,0.112636,-0.00597567,-0.131919,0.0793803,-0.0530477,0.030646,0.0902874,-0.00571503,0.0632031,0.114097,-0.126879,0.0628706,-0.0407025,-0.133316,0.109076,0.0858526,0.0352547,-0.0857979,-0.0104265,0.0243287,-0.107333,0.00907478,-0.0322624,-0.0547433,-0.0514238,0.128489,0.0677202,0.0502292,-0.0128052,0.0188801,-0.00479318,-0.00659821,0.109755,-0.00815019,-0.0175313,-0.113894,-0.122171,-0.0509555,0.0382681,0.115121,0.0497883,-0.0773987,0.0814786,0.0126995,0.130627,-0.115573,-0.1247,0.0544222,0.0829894,0.0576541,0.0583359,-0.121528,-0.0344855,0.0167078,-0.0738195,0.064837,0.0593928,0.0145979,-0.0900942,-0.122466,0.0247427,0.00157704,0.0529204,0.088637,0.100698,-0.115511,0.0111934,-0.0232783,0.00510756,0.127842,0.00542102,0.0901437,-0.138183,-0.0776951,-0.0421771,-0.140515,-0.0490643,0.0983688,0.0147534,-0.105028,0.0235297,-0.0490665,-0.00976262,-0.0440112,-0.0162093,-0.0768656,-0.0494031,-0.0207056,-0.0365211,0.0683628,-0.0802918,0.116445,0.102638,0.0742174,-0.0612523,-0.0350389,-0.0467104,0.00623585,-0.0794635,-0.0863612,0.0857972,0.111662,0.0448463,-0.0123095,-0.121633,0.0377832,-0.016008,-0.0149369,-0.117471,-0.0201037,-0.0180741,0.0208897,0.0911025,-0.061988,-0.107824,0.103334,-0.0989392,-0.0560523,0.0513205,-0.102665,0.0707315,0.126034,0.00990969,0.0463181,0.0557422,-0.123,0.101133,-0.0768161,-0.0702413,0.0901903,0.13687,0.0988834,0.0558577,-0.0731129,0.135627,0.10281,-0.0659548,-0.00147128,0.0796766,0.0853911,-0.0346733,-0.112557,-0.111613,0.0901717,-0.0748733,0.00365433,-0.126892,0.13789,-0.0137266,0.0517713,0.0303589,0.141355,0.0668112,-0.10661,0.0506619,-0.123693,0.0151826,-0.0816041,0.122173,-0.1049,0.0817567,-0.137744,0.0966464,0.0547937,-0.0637856,-0.0214249,-0.125149,-0.0127333,0.0243566
0.112172,-0.0560203,-0.0597539,-0.11121,0.0299719,0.0394067,0.0239096,0.139782,0.057604,-0.0590255,-0.0188957,-0.0531172,0.0939321,-0.121466,-0.014364,-0.141291,0.0783573,0.0214603,-0.0401163,0.0695177,-0.0102445,0.0292661,0.127431,-0.10358,0.104889,0.0244279,-0.0111859,0.00700823,-0.0777894,-0.0568637,-0.105317,-0.0503002,-0.0710486,0.115663,-0.111469,-0.107508,0.0557205,-0.138358,0.00240338,0.00414876,0.135147,0.0981302,0.0377665,-0.0784065,0.0936033,-0.106076,0.114476,0.0749421,-0.0017262,-0.0702587,0.129678,-0.0274029,-0.0839652,-0.00938119,-0.0582064,0.0884388,0.0354161,0.139271,-0.082219,-0.111872,-0.0822484,0.136039,0.0851407,-0.107368,-0.0954425,0.0896143,0.120799,-0.0144391,0.0551033,0.00165642,-0.0313038,0.125734,0.00467249,-0.127723,-0.0133666,0.0456882,-0.0191,-0.0147966,0.115521,-0.100791,0.0878934,0.0684776,-0.0558244,-0.0407601,0.0171592,0.0839225,-0.0675862,-0.106491,-0.113841,0.0656884,0.0125875,-0.0995958,-0.11734,0.0432793,-0.0788768,-0.0334993,-0.0675967,0.000437892,0.101991,0.107996,-0.0659794,-0.116106,-0.107568,-0.0867537,-0.10237,0.120847,-0.0566097,0.098249,0.0416231,0.141058,0.015873,-0.140568,0.0321765,0.108968,-0.049125,0.0167538,0.0674234,0.0491722,0.0142435,-0.031929,0.0636097,-0.033937,0.056721,-0.0948741,0.0237012,0.0288333,0.090346,-0.0739052,0.010068,-0.0618694,-0.0100935,-0.0530586,0.101117,0.0715404,-0.0562751,0.00375494,-0.0118197,-0.102679,0.0179256,0.0819982,-0.147105,0.0540274,0.119896,0.00248889,0.127289,-0.0497822,0.113643,-0.0693117,0.130946,0.0851555,-0.132804,-0.116338,0.0603191,-0.0684401,0.0843398,-0.139242,0.00101711,0.10945,0.134418,-0.0799599,-0.0783157,0.0702988,0.0671897,-0.0212959,-0.0786838,0.0487636,-0.0470608,-0.120254,-0.0732267,-0.117647,0.111014,0.0827297,0.118011,0.044664,-0.04442,0.0851706,0.0296144,0.0884364,0.105158,-0.0841099,0.0306356,0.0751349,0.00166717,-0.0582616,-0.0789907,-0.0868534,0.100411,-0.0406839,-0.0293155,0.0905369,-0.0936912,-0.131626,0.0300854,0.000863669,-0.116299,-0.0152552,-0.0428303,0.0371301,-0.028827,0.0552704,-0.023392,0.000374664,0.11911,0.033165,0.0683574,0.131335,-0.0526867,-0.106107,-0.0849625,0.121874,0.11071,-0.0448514,-0.059387,0.0385642,-0.114995,-0.047039,0.13121,-0.0646518,-0.0265169,0.104914,0.0900208,-0.068961,0.0729505,0.0810879,0.0338259,-0.13216,-0.0415345,-0.116228,-0.0836215,-0.054624,-0.0397713,-0.0565578,-0.101037,0.0640806,-0.0733587,0.125863,0.014066,0.12976,0.0405647,0.0472213,0.00285236,0.130077,0.052013,-0.0770329,-0.119345,-0.0540269,-0.136778,-0.100334,-0.0913466,0.134325,0.0284474,0.0684398,-0.0209517,-0.00228571,0.0625415,-0.0635502,0.0251573,0.0387431,0.136084,0.0325278,0.0110686,-0.0753667,-0.0631107,0.103076,-0.114006,-0.0809672,0.0244548,-0.130286,-0.0651249,0.101606,-0.00899596,-0.0719802,-0.131567,-0.0396914,0.109514,0.141361,0.00195373,-0.0698296,0.0712073,-0.0488109,0.0091402,-0.118091,-0.0206877,0.000554837,0.070272,-0.0429476,-0.02774,-0.0740169,0.0886392,-0.0643393,-0.1084,0.0985205,0.0933806,-0.134729,-0.0267411,-0.028794,-0.129883,-0.022473,0.0221492,0.0373164
0.00534012,-0.147412,-0.114163,-0.0962329,0.0583681,-0.0659942,0.114981,0.0991234,0.0347484,-0.0442462,0.017509,-0.128099,0.100803,-0.0743459,-0.0320446,-0.123985,-0.0429705,0.0802794,0.0741564,0.141822,0.131979,0.120802,-0.053071,-0.118008,-0.122555,-0.129132,-0.000771283,-0.111465,-0.131864,0.101375,0.152541,0.0105197,-0.0083537,0.133772,0.131635,0.00431034,-0.0167951,0.129285,0.116523,0.0745669,-0.00167436,-0.0763144,0.0789033,-0.112916,-0.141524,-0.123073,-0.0497512,-0.0182044,-0.0588047,-0.0653198,0.0601109,-0.124819,0.154831,-0.0309841,-0.152303,-0.0741537,0.104361,-0.0801554,0.0853651,-0.0886886,-0.0661848,0.0465024,-0.132988,-0.0885957,0.0475449,0.0817715,0.151755,-0.0390476,-0.0716059,0.0339738,0.0389489,0.0712178,0.0110982,0.101132,0.0391098,0.132038,0.038042,0.120223,-0.00200022,0.0771709,0.0731634,0.078363,-0.0140498,-0.0653155,0.134654,-0.0885331,-0.0571783,-0.0801431,0.13611,-0.0468568,-0.103546,0.0189251,-0.0839706,-0.0585466,-0.0443037,0.140586,-0.134297,0.126002,0.120829,0.0860496,0.0457368,0.0278145,0.0667247,0.0667066,0.0216727,0.105586,-0.0565199,0.192804,0.0144274,-0.0422012,0.0653278,-0.068867,-0.116278,0.1325,0.129915,0.0977787,0.0597801,-0.0442536,0.0600811,-0.0173333,-0.0167146,-0.045202,-0.109767,0.0620973,0.0309395,0.187856,0.0523822,0.12558,-0.117003,-0.002337,0.148467,-0.105855,0.118263,0.0193238,-0.130718,-0.0623229,0.116806,-0.0974502,-0.0633332,-0.107298,0.101009,-0.061264,-0.0700304,0.0177226,0.0453476,0.0462468,-0.132406,0.0823131,-0.0403622,-0.0469439,0.0487339,0.0628943,0.11819,-0.0315231,-0.00883836,0.0214136,-0.102461,0.098023,0.0423478,-0.0438423,0.137307,0.177875,0.113184,-0.076055,-0.00314453,0.125572,0.113858,0.0272987,0.00529209,-0.112722,0.0325943,0.12905,0.0844146,-0.133243,-0.160581,0.0188091,-0.0775117,0.0308397,0.0242962,0.0718512,0.105725,0.0802939,0.00844847,-0.0813644,0.136233,0.0201056,-0.078933,0.105457,-0.144131,-0.103811,0.0620243,-0.0036021,-0.0525094,-0.00207991,-0.0379244,0.0824326,0.114643,-0.0447006,0.117231,0.034381,0.0751505,-0.0822769,0.0311879,-0.0559389,-0.0691956,0.139195,-0.137469,-0.0981377,0.122549,-0.100568,-0.0583546,-0.0216454,0.0760611,0.00607599,0.0868198,-0.0531926,-0.0282385,-0.102127,-0.00974537,0.12088,0.126044,0.102567,0.000130302,0.0609802,0.119474,0.0759592,0.0617269,0.120489,-0.10385,0.0825819,0.0778166,-0.129209,-0.0203791,-0.0487795,-0.147832,-0.147222,0.113154,-0.123862,-0.140024,0.0402624,0.0213295,-0.132975,0.076395,0.0762982,-0.0785577,0.0977368,-0.0501968,-0.0219946,0.0507313,-0.130615,0.0199904,0.0905866,-0.0669121,-0.111879,0.0690709,0.162346,-0.0986355,0.133604,0.0685996,-0.136369,-0.0869087,0.0118402,0.0998846,-0.105132,-0.0560662,0.051144,-0.0581125,-0.0389773,-0.0316056,-0.111123,-0.0299905,-0.0211156,0.114695,0.0927136,0.0591176,-0.135385,-0.0901973,-0.167716,0.121508,0.0959125,-0.0214181,0.0707641,-0.0873406,-0.0830427,0.057879,0.0581035,-0.0204863,0.0908362,0.0540962,0.139233,-0.0171551,0.01575,-0.0893681,0.0682569,0.0752222,-0.0971645,0.15912,-0.0951068,-0.120873,-0.0679747
