512,1
0.0247263
-0.0651455
0.018736
0.0724027
-0.0343043
0.0499009
0.0573806
0.0500928
0.0219405
0.0868658
0.0462397
-0.00184504
-0.0119056
-0.0505936
-0.0033257
-0.0516285
-0.0612429
0.0143105
0.0264283
0.0572445
-0.0327994
-0.00499108
-0.0554873
-0.0641954
0.0838683
0.0165297
-0.0521614
-0.0431911
0.0257293
0.0194235
-0.0535675
0.0508728
-0.0880438
-0.0168685
0.0343462
0.0169129
0.0830935
0.0594242
0.0638946
0.0540112
0.0872954
-0.049606
0.0817281
0.00182427
-0.00237733
0.0492531
0.039806
0.0267831
-0.0295173
0.0111346
0.0634254
-0.0110957
-0.00695389
0.00621391
0.0137883
-0.00401744
-0.0724027
-0.0297328
-0.00813301
0.0317086
-0.0350783
0.072443
0.0655495
0.0275319
0.100436
-0.034312
0.055084
-0.0237087
-0.039804
0.0272839
0.045662
0.0919932
-0.0302168
-0.0713833
0.0431749
-0.0312462
-0.0208635
0.0642606
0.0279648
-0.0802612
-0.0443771
-0.0387514
-0.0396954
0.0122881
-0.0479841
0.0189611
0.018539
0.0915696
-0.0993385
0.024333
0.0701929
-0.0144351
-0.089655
-0.0272705
0.0903718
-0.0312012
-0.0394881
0.00110646
0.0201616
0.0193279
0.0189668
0.0505527
0.0338507
-0.055464
-0.0523679
-0.00713249
-0.0566374
-0.00527376
0.00645918
0.0781813
0.0262277
-0.0744011
0.0845456
-0.0143192
-0.0768231
-0.0544447
0.0211545
-0.0696657
-0.0340761
-0.0332108
-0.0730347
0.0532803
0.0912387
0.0580395
0.045548
0.0512399
0.054046
0.0685943
0.0182561
-0.0152912
0.0436374
-0.0572143
-0.0693904
-0.0101744
0.0926301
0.0465243
-0.00275606
0.0548106
0.000179857
-0.0716608
0.090812
0.107204
0.0283536
-0.0344813
0.0273964
0.0486959
0.0553106
-0.0389213
0.0616451
0.0463809
-0.0473818
0.0361424
0.0642157
-0.0321035
-0.0406096
0.0530683
0.0431127
0.0794038
0.0671078
0.0383751
0.041362
-0.0780734
0.0268426
-0.0581501
0.0484989
-0.0241331
0.0274935
0.0297779
-0.0190009
0.098586
0.111192
0.0523851
0.0432995
0.00189611
0.0205008
-0.0552704
-0.0702485
0.0137805
0.035815
-0.0721584
0.0327328
0.00663232
0.0785945
0.0497193
-0.0527858
-0.0464753
0.00410187
-0.0736677
-0.0352183
-0.0581381
-0.0343632
0.0157618
-0.0309161
-0.0668911
-0.00257766
0.103987
-0.0520673
0.0625977
0.00203831
0.0211479
0.0739829
0.0124132
0.0106166
0.0493973
-0.0530144
-0.0853685
-0.0472764
-0.0324603
0.0172721
0.0495869
-0.0418842
0.0884485
0.0398029
0.0671142
0.0440558
-0.002034
-0.0751402
0.0868238
-0.047806
-0.0320071
0.053073
-0.0449944
-0.0519627
0.0198487
-0.0703643
-0.0134081
0.0974455
0.0600468
0.0232723
0.0558224
-0.0220843
-0.0277138
0.0229743
-0.0684968
-0.0715586
0.0631944
-0.0179369
0.0081917
0.0804705
-0.0667491
-0.0588612
-0.00341885
0.109895
-0.0380804
0.0782339
0.083185
-0.0112566
0.0142664
-0.0167589
0.0171409
0.0358614
0.0853069
-0.0482547
-0.0750603
-0.0795289
0.00550851
-0.033851
0.0837236
0.0223352
-0.053828
0.0906845
-0.0303658
-0.0521442
0.0668777
0.0112629
0.0526948
-0.0838514
0.0938607
0.0256418
0.0360304
0.0282113
0.019242
-0.0300079
0.0435647
-0.065559
0.0252099
-0.0104744
-0.0812509
-0.0397274
0.0661905
-0.00819836
-0.0357216
0.0215606
0.0301005
0.0667227
-0.0061303
-0.0512603
0.0845907
0.0422887
0.0300751
-0.0306111
0.0548334
0.0988766
-0.0432756
0.0331067
-0.0716833
-0.0846812
0.050162
0.0390863
0.0295428
-0.0971041
0.0452744
-0.044077
0.0577258
0.0371161
-0.069816
-0.0405614
0.0194537
-0.0606179
-0.0789795
-0.0487155
-0.0108986
0.0222449
0.0793404
0.0935935
0.0964573
-0.0860357
0.0125843
0.106094
0.1045
0.0446067
-0.0117082
0.079516
-0.0501567
0.0489071
0.0640215
-0.0654344
0.0284044
-0.0378072
0.0567497
0.061113
-0.0599233
-0.0628798
0.0554558
0.0122267
0.0175127
0.0666533
0.0493524
0.0687594
0.0448051
-0.00568732
0.0338038
0.0563783
-0.0259302
0.0618235
0.0962602
-0.00554011
0.0728208
0.048206
-0.0642522
0.0592578
0.0357467
-0.00517668
-0.0264309
0.0997935
0.0654065
-0.0692627
0.0131783
0.0153356
0.071356
0.00199626
-0.0192394
-0.083586
0.0967882
-0.00145718
0.0192615
-0.0461567
0.0517382
-0.015733
0.0488388
0.0228048
0.0658784
0.0268485
-0.0344772
-0.0680417
0.0434482
-0.0316383
-0.0706528
0.0748152
-0.0564869
0.0702312
0.048791
0.0473495
-0.0820022
0.0167417
0.0972793
0.0706093
-0.0421616
-0.0681745
-0.06736
-0.0173392
-0.00521582
-0.0742238
0.0909348
-0.0744311
0.108832
-0.0133996
0.114737
-0.0345253
-0.0399096
0.0304197
-0.0821811
0.0125673
0.0969629
0.0509824
0.064002
0.0666588
0.000824863
-0.0704626
0.0605003
-0.0080169
-0.0460768
-0.0584929
0.0574761
0.0533474
0.045891
-0.00465284
0.000510972
-0.0702764
0.0450571
0.0440974
0.0503732
0.00501614
-0.0744512
0.0590781
0.0712852
0.0609431
-0.0244718
-0.0395026
-0.0660576
0.07397
-0.0630575
0.0482702
-0.0376558
0.0510489
0.0687455
-0.0287441
-0.00828497
0.0201556
0.0667283
0.0597196
0.0164931
0.073193
0.0405738
0.0190054
0.0374074
0.0509459
-0.0837208
-0.0231647
-0.0672421
-0.00816601
0.00778011
0.01533
-0.0977955
-0.0515574
0.00424763
-0.0462528
-0.019879
0.113366
-0.0400217
0.091931
0.0468428
-0.0132353
0.00365483
0.0414963
0.00819667
-0.012978
0.0122188
0.0653999
0.0511573
0.076419
0.0418678
0.0888515
0.0736428
-0.0122452
0.0605973
0.0342539
-0.0685489
0.074542
-0.0811737
0.0089797
-0.06804
0.0881966
0.0805061
-0.0208952
0.0644589
0.017205
-0.0437099
0.0453044
0.0773565
-0.00121326
0.0461184
0.0866614
0.0151179
0.0572083
-0.0668793
-0.0699202
0.0437786
0.0157345
0.010925
0.0733473
-0.0332063
0.0118042
0.00453569
-0.0186378
-0.0250687
0.064578
0.0205322
-0.0451131
-0.0712476
0.00598183
-0.057118
