256,512
0.0703577,-0.0113892,0.0763376,0.0763986,0.0375881,-0.0448197,-0.023671,0.0832693,-0.00245345,-0.0634146,0.0250302,0.0301287,0.00284701,-0.0409982,-0.0897929,-0.0500227,0.0987525,0.0519577,-0.0855078,0.0958885,-0.0322156,-0.0521821,0.00208318,-0.0489292,-0.0180887,0.0998371,0.111856,0.0312845,0.097631,0.00940367,0.104362,-0.0580701,0.084839,-0.0370127,-0.00374234,-0.0864862,0.0149893,-0.0101066,-0.0767961,0.0926688,-0.0247778,0.0868721,0.0732907,-0.0546267,-0.0957388,0.0309325,0.0811355,-0.0698196,-0.0978598,0.0439947,0.053198,-0.0508066,0.0751399,0.0518801,-0.102826,0.0282982,-0.0696415,-0.108871,-0.0700525,0.0450414,-0.00164063,-0.039337,0.0271224,-0.027915,-0.0277919,-0.0361798,0.0609371,0.00643735,-0.0226609,0.091522,-0.084128,-0.0657227,0.0814936,-0.00121897,0.0648984,-0.0534028,0.0116478,-0.0551469,-0.029713,0.1091,0.0522702,-0.0113861,-0.114025,0.050553,0.105777,0.0485746,-0.0195541,0.0328569,0.0426255,0.0604836,0.00515636,0.104466,0.00194256,0.0215249,-0.0267113,0.00322069,0.0835581,-0.0127728,-0.104319,-0.0853946,-0.0274689,-0.0310809,0.0637553,-0.0731656,0.0834748,-0.0889884,-0.0554815,0.00464264,0.0546197,-0.0544431,-0.0687486,-0.041168,0.0343002,-0.0516513,0.0650433,-0.0973726,-0.0651987,-0.025386,-0.0900864,-0.0327289,0.093581,-0.0842865,0.0887174,-0.0941732,-0.0587891,-0.00375872,0.046684,0.00437939,0.0227544,-0.0156845,-0.114426,-0.0564201,-0.0535719,-0.0905043,-0.115449,0.0947201,-0.0240036,0.0549904,-0.00728473,0.0856082,-0.0739987,0.00762493,-0.0455772,-0.0938703,0.00273962,0.0129875,-0.0188664,0.0351144,-0.0677428,-0.033923,-0.103135,-0.007683,-0.00977632,-0.00380501,-0.00599462,0.00692559,0.042042,-0.119634,-0.0584658,-0.0612594,-0.00105538,-0.0309205,-0.0596571,-0.0798886,0.0213516,-0.0248854,0.0354129,0.0117925,-0.0344431,0.0584165,0.114718,0.0882441,-0.100034,-0.0368771,0.0266896,0.0250814,-0.0475757,0.104511,0.0216219,0.00686348,-0.110295,-0.0274591,0.0330535,-0.0420875,0.0257167,0.0544367,-0.0808617,0.0976799,0.0106211,0.00545156,0.0101321,-0.0782865,0.053319,-0.104378,0.0160208,0.0960624,-0.0737522,0.0828819,-0.0669713,0.0103205,0.0304134,0.0541,0.054139,0.0141491,-0.0581166,0.115917,0.00826889,0.0746513,-0.0345699,0.0378485,0.045616,-0.00631453,-0.0237897,-0.0960902,-0.0351972,-0.114315,-0.0153161,0.109093,0.104403,0.103849,-0.0686456,-0.0259458,0.0164544,-0.0245868,0.0791523,0.0900463,-0.0142659,-0.0285429,0.0549934,-0.0405845,-0.0686798,-0.00723388,0.0858289,0.0984823,0.0721519,0.0571459,0.0593217,-0.0184847,-0.0111567,0.108234,-0.0579282,0.0217978,0.0844681,0.0389392,0.130942,-0.0696199,-0.0351186,-0.106294,0.0891956,-0.0274876,-0.0389476,0.0941126,0.0370201,-0.070532,0.0376613,0.0811444,-0.0775243,0.0854285,-0.0627149,-0.115777,0.0594519,0.0761698,-0.00399485,0.08817,-0.0195414,-0.0108967,0.0849431,0.0187727,-0.100657,0.0842659,-0.0803314,0.0532819,0.0822292,-0.108127,0.0633652,-0.0842034,0.0508825,-0.0959298,-0.0526537,0.040626,0.0596378,0.00870945,-0.093055,0.0549373,-0.117233,0.0449007,0.0971985,0.0123304,-0.0080917,0.0905443,-0.0709784,0.0335708,0.0638816,-0.0454849,0.0011678,-0.0329239,-0.0216192,-0.0409663,-0.101781,-0.0753799,-0.0890784,-0.0167068,0.0970553,-0.0890146,-0.0987101,0.0863654,-0.0876461,-0.00179567,0.0100259,0.0420538,0.0841822,-0.0196075,-0.0538772,-0.0910153,0.0910723,-0.00611719,-0.0565205,0.0617688,0.0373782,-0.00902876,0.0864917,-0.065497,-0.0828007,-0.0568689,0.0454585,0.0700492,-0.0529904,0.0589038,0.0968937,0.068047,-0.0804078,0.0410311,0.0227702,-0.00664947,0.0799495,0.0734142,-0.0606182,0.0316411,-0.0400116,-0.0920749,-0.102811,0.0374947,-0.0791197,-0.0817542,-0.00608018,-0.00203489,-0.0549,0.0435697,-0.0365151,0.0295191,0.073739,-0.00553766,-0.0717105,-0.0245968,0.0890229,0.116679,0.0306754,-0.0587168,0.0844968,0.0132498,0.0582856,0.0219377,0.0755184,-0.0789722,-0.027931,-0.0677825,-0.129453,-0.0419383,0.103701,0.0582975,0.0956295,0.11604,-0.107883,0.0822651,-0.0110268,0.0829773,-0.0719915,-0.10396,0.0687833,0.033981,0.0296653,0.0318499,-0.060808,0.0551602,0.0312703,0.0907281,-0.0247569,0.0572794,-0.0945396,0.067463,0.0740031,0.0423673,0.00151711,0.0181918,-0.0497939,-0.0756411,0.0306728,-0.0223532,0.0231728,-0.0540513,-0.0822015,0.0147576,0.0911621,0.0734441,0.0836283,0.0814409,-0.0673437,-0.0305917,-0.039697,-0.0616148,-0.0803815,0.114653,-0.0370643,0.00484461,-0.0213614,0.0328417,0.108454,-0.0677393,0.00298338,-0.042684,-0.0093114,-0.0537447,-0.0387473,0.0962489,0.0422219,0.0782132,0.0292971,0.01618,0.114956,-0.0189365,-0.0501747,-0.0658646,-0.0449166,0.074832,0.0709843,0.0941818,0.102014,-0.118089,0.117286,-0.0312417,0.0225771,0.0486859,0.0419571,0.0236651,0.0373412,0.00561522,0.0366386,0.0039057,0.0191134,0.0503164,0.0121054,-0.0153727,0.100473,0.100122,-0.000581965,0.0706908,-0.0116381,-0.109642,0.103017,-0.0501213,0.106451,0.0790283,-0.0539276,0.0103424,-0.0268065,-0.050883,-0.0367534,-0.0687695,0.0136069,0.0827994,-0.0730673,-0.100128,0.0597265,-0.0840855,0.0767803,0.0732731,0.0964494,0.00610065,-0.0840562,0.0843912,-0.0577385,0.0435821,-0.0797629,-0.0919854,-0.0627265,0.108955,0.0935257,0.0218926,0.0229599,0.038212,0.0444078,0.100759,-0.0257113,0.034049,0.135199,-0.0710241,-0.0273777,-0.0802813,-0.0548278,0.00519909,-0.0528514,0.000113691,-0.0831664,-0.026419,0.107466,0.0212361,0.067286,-0.080694,-0.0427818,-0.099146,0.0100863,0.0891681
0.077866,-0.0428513,0.10253,0.0706336,-0.00477282,0.0419909,-0.0824067,-0.0436854,-0.0283943,0.098964,-0.112857,0.0143425,0.062741,0.0319884,0.0782477,-0.0512809,0.115324,0.0827242,0.0729999,-0.102963,-0.00799098,0.0416606,-0.0650085,-0.0144797,0.0025393,-0.0300966,-0.042168,0.0368847,0.114071,0.0884953,-0.00666669,0.0979272,-0.0921313,0.092289,-0.0986525,0.0224585,0.0109415,0.0615433,0.062245,0.00538175,0.0922834,-0.00799758,-0.0113267,-0.00302938,0.00929774,-0.0460065,-0.0738455,0.0458264,-0.0665845,-0.0876452,-0.100787,0.105298,-0.017329,0.0290677,0.0584321,0.0910998,0.0899626,0.121109,-0.073605,0.0269436,-0.015346,-0.0981499,-0.0371877,0.0948734,0.028737,0.0255807,0.0515969,-0.0810017,0.0786548,-0.0850723,-0.0479108,0.0857514,0.0196433,-0.0896783,0.00711266,-0.0555332,-0.0418663,0.000167836,-0.060897,0.0853561,-0.0895361,-0.0198051,0.0328102,0.0241043,0.032409,0.0612142,0.0618902,-0.057654,0.0880824,0.0525451,-0.0974553,0.012447,0.0675535,0.0658807,-0.0389102,0.00543759,-0.023676,-0.0553398,0.0326284,0.0316897,-0.0417697,-0.0214111,-0.0836055,-0.0136135,0.0913965,0.0118095,-0.00433994,-0.0692134,0.024781,0.0926128,0.00815993,-0.0997381,-0.0756163,0.0336753,0.0570068,0.0326195,-0.0860127,0.0272714,0.0153592,-0.1063,-0.0261777,-0.100552,0.0791695,-0.0223378,-0.0697819,-0.0317672,0.0102815,0.013459,0.0461819,0.0618528,-0.080812,-0.0120839,0.0389322,-0.0238761,0.0815741,-0.0940153,-0.108348,-0.011436,0.110348,0.0112001,-0.0282474,-0.090808,-0.0120714,0.0369832,0.0705205,0.0301168,-0.00232646,0.0691888,0.0630578,0.0327803,0.0923883,0.118545,-0.0401646,0.0043727,-0.00600741,-0.0317538,0.0540686,0.0718694,-0.0322543,-0.0301552,0.116325,-0.0850804,0.0269627,-0.0190039,0.0404478,0.00221585,0.0413112,0.0850841,0.105292,0.00124951,0.0649667,-0.055346,-0.067125,-0.0588539,-0.0658485,-0.0305403,0.0592041,0.0576143,0.0630703,-0.0678361,0.0907726,0.0289274,-0.0786742,-0.075295,0.07035,0.0507142,0.0819252,0.0796424,0.00644477,0.0110543,-0.092398,0.0114212,-0.0678819,-0.0394848,0.112003,-0.0480667,-0.0470485,0.108058,0.0795186,-0.045024,-0.0595865,0.0367411,-0.0762581,-0.062934,-0.0976634,-0.0156971,0.0104697,0.0411298,0.0341195,-0.0774956,0.0783109,-0.104156,-0.0248272,-0.107393,-0.00588749,-0.0439082,-0.0344313,-0.0385819,-0.082701,-0.0421501,0.110671,0.0100981,0.0510022,-0.0541391,0.0316458,0.0575616,0.0606964,-0.0445745,0.10084,0.039033,0.0341383,0.0417716,-0.0748247,-0.0696028,-0.0585737,-0.0534503,0.100987,0.00151446,0.102417,-0.084553,-0.0656502,0.0676281,-0.0220619,0.100693,0.0698649,-0.051658,-0.00850467,0.054986,-0.0710065,0.0239122,-0.0167253,0.00684693,0.00135434,-0.0726718,0.105006,0.0293148,0.0853761,3.6295e-05,0.117123,-0.0540508,-0.0212564,0.0508113,0.0907821,-0.100197,-0.0737747,0.0757922,0.0133065,-0.0625607,-0.0260789,0.0355545,-0.0166683,-0.029228,0.0695775,-0.0379868,-0.075228,-0.0780387,-0.0225517,0.0652386,0.119516,0.0375773,-0.0823692,-0.0940365,-0.0801534,-0.0888071,-0.0654964,0.104504,0.0275233,-0.0776672,0.03271,0.0850921,0.0908869,-0.0252298,0.0192146,0.0659403,-0.0174262,-0.0299719,0.0607764,0.129526,-0.0119069,0.0835706,-0.0712432,0.052665,-0.100287,-0.0868423,0.107813,0.0601861,0.0942807,0.083643,0.0560161,0.0796161,0.104247,-0.0246224,0.00819976,0.0546027,0.0337495,0.03815,0.110151,-0.0646262,0.011496,-0.00185549,0.0817957,0.0620363,-0.102617,0.0505838,-0.0837566,0.117458,0.0741379,-0.0256584,0.00483202,0.114805,0.034735,-0.0223224,0.00784427,-0.0422785,-0.024997,0.0893352,0.0735744,-0.1085,-0.0833703,0.0904016,0.0295109,-0.07248,0.0948715,-0.0349515,0.0525916,0.0726424,0.0226459,0.0448146,-0.0703315,0.068857,-0.0980772,-0.0843609,0.0752574,-0.0663595,-0.0680039,0.0238241,0.0771323,0.0389712,0.0101749,0.0247695,0.100673,0.0287019,0.110142,0.0250905,0.0314648,0.00639774,0.0889936,-0.105701,0.10978,-0.0089801,0.0552273,0.068153,0.0885943,-0.0512499,-0.12161,-0.0654127,-0.0191966,0.0134041,0.00440509,0.00678109,-0.014569,-0.0563841,-0.0276918,-0.00634398,-0.0722404,0.0819045,0.0399754,0.133694,-0.0537889,0.0714598,-0.0769212,-0.058943,0.0430482,-0.0976859,0.0880404,0.0373095,0.101185,0.0614233,-0.0837763,-0.0112457,0.0536532,0.0464668,0.0456589,0.101514,0.109963,-0.0888316,0.0889283,-0.06129,-0.0104017,-0.0886544,-0.0548714,-0.00673738,-0.0965674,0.0413851,0.0401345,-0.0647684,-0.111492,0.0154528,0.0391387,0.00822399,0.0844581,-0.0962819,0.043805,0.0948946,-0.0576755,-0.0919558,0.0514707,-0.00684767,0.0990953,-0.0785466,0.112951,0.102973,0.0151512,0.0646095,-0.0576528,0.0773544,-0.00624445,-0.0550448,0.062641,0.106816,-0.0434828,0.00549635,-0.0345774,-0.0650481,-0.0880094,0.0866781,0.0180456,-0.0557638,0.0946396,-0.01445,-0.0409752,0.0724137,-0.0225254,0.063677,-0.0429392,0.0772351,0.0223139,-0.0154944,-0.0798478,0.0315269,-0.0791284,-0.111013,-0.0850199,0.063488,-0.0282894,-0.0510792,0.0258207,0.016559,0.107614,0.0013362,-0.0891908,-0.064735,-0.0997344,-0.0643724,-0.0518617,-0.0750538,-0.0114179,0.00871796,0.0836549,0.0515353,-0.0146809,-0.0717029,0.0361705,0.00627167,0.00275704,-0.0650326,-0.0193858,0.050464,0.0969977,0.103932,0.0301423,0.108262,0.00524968,0.00678109,0.0281397,-0.0694818,0.0544661,0.0492725,-0.0848471,0.0673654,-0.0465113,-0.00650726,-0.0326822,0.0992673,-0.0563945,0.112514,0.0570915,-0.0810141,-0.0271904,0.108555,0.04404,0.0730842
0.0768658,-0.0628708,-0.0734725,0.0934428,0.00389638,-0.0181988,0.0390417,-0.0559835,-0.0587452,-0.075556,-0.0450903,0.0489831,0.0826429,-0.0155297,0.100621,-0.0510057,-0.063628,0.0910498,-0.0294818,-0.00671899,-0.0256647,0.0794634,-0.0928369,-0.11342,-0.0613604,0.0571616,-0.0115273,0.0261233,-0.0457035,0.0325891,0.0158856,0.0995688,-0.0760801,-0.00782507,-0.082411,-0.101103,0.138026,0.0981319,0.0310298,-0.0967407,0.0148751,0.115468,-0.092503,-0.0802642,-0.0400245,-0.0197655,-0.0742035,-0.0293533,-0.00206033,0.0183403,0.109796,0.000496459,0.00917497,-0.0653516,0.0597454,-0.0118267,0.0488367,-0.0534034,-0.0348037,0.0336519,-0.0507205,-0.0581946,0.00381746,0.0687524,-0.0446043,0.00486441,0.0149666,-0.0266181,-0.00547594,-0.0928266,-0.077221,0.069343,-0.00495738,0.0891741,-0.0324342,0.0218887,0.0898289,0.0813689,0.0738254,-0.0893912,0.098466,0.0656009,0.0759061,0.0608749,-0.0771289,-0.0925489,0.107611,0.0696666,0.0565063,0.030072,0.0932635,0.00521298,-0.00754487,-0.0655349,-0.0452825,0.00351013,-0.0773899,-0.0295408,0.0326107,-0.0307127,0.0899932,0.056487,0.0592966,-0.0707376,-0.0401162,-0.0539696,-0.0546023,0.0947965,-0.0794672,-0.0657879,-0.0550529,-0.0488417,0.0941591,0.038393,-0.0839131,0.108688,-0.00285412,-0.121151,0.0249569,0.119592,-0.0970268,-0.10233,-0.0842617,-0.0699443,0.105891,0.00716874,0.105998,0.0460773,-0.0193134,-0.0149062,-0.0176328,-0.0659462,-0.0452629,-0.000336544,0.12555,0.0308978,-0.00584909,-0.0015004,0.0904207,0.0372794,0.0249642,0.124269,0.0898325,0.0229938,0.0938241,0.0300108,-0.0421019,-0.0409489,-0.0506299,0.00131368,0.0730407,0.00482407,-0.0956312,-0.0462614,0.102685,0.0453283,-0.000823237,0.090242,-0.118354,0.112181,0.00878283,0.0678265,0.109698,-0.0684251,-0.0326375,0.118259,-0.0784809,-0.119521,0.0835313,-0.055898,-0.0603345,-0.00313978,0.0829785,0.0824226,0.0762646,0.0457968,0.0643355,-0.0281082,-0.00844117,-0.095477,-0.0546449,-0.0787267,-0.0293737,0.0554832,-0.0918843,8.92121e-07,0.0700141,-0.0517291,-0.0107023,0.113183,-0.0371041,0.118053,0.0161152,0.00058991,-0.107207,-0.0674922,-0.0709766,-0.0333371,-0.036573,-0.0631828,0.105077,0.125125,0.0160029,0.0497094,0.0693178,0.0631663,-0.015603,0.00603019,-0.0251369,0.079003,0.115924,-0.115579,-0.0515585,0.0259647,0.106741,-0.0843927,0.0750047,0.0193604,-0.011494,0.0935782,0.0185158,-0.0777173,0.012178,0.0132498,0.0884243,0.0210877,-0.0416823,0.109951,0.0443866,0.00336393,-0.0258089,0.049274,0.0208264,-0.100072,-0.0657897,-0.0427903,0.078787,-0.0450452,-0.028472,-0.0354769,-0.0995544,-0.00235378,-0.0309213,0.0332104,-0.0785384,0.0292073,-0.0488922,-0.0852383,0.00391806,-0.0538402,0.122555,0.060181,0.0349302,-0.0495649,-0.10432,-0.0358154,0.0296382,0.116833,-0.00116488,0.0881926,0.0567599,0.0840731,-0.0798922,-0.00325327,-0.0939422,0.0582935,-0.0948353,-0.0419032,0.113521,-0.0288892,0.0600843,-0.0342839,0.0643698,-0.0856031,0.0670352,0.0520291,-0.0297464,-0.00274435,-0.0019961,-0.0151528,0.00827004,0.0449163,0.0448574,-0.107208,0.00664303,-0.0274358,0.0195419,0.0629605,-0.0010012,-0.117589,0.0684112,0.015611,0.10229,-0.035046,0.00768661,0.0162033,-0.0643629,0.0999667,0.0795084,0.116747,-0.0244739,-0.0273047,-0.101388,-0.0869463,0.0497631,0.0765058,-0.121258,0.0827687,0.0653517,-0.0700197,0.0292658,0.0683077,-0.10224,-0.0624298,-0.0229578,0.105209,0.0649129,0.00989917,-0.00275412,0.123991,0.0316515,-0.0312979,-0.0658172,-0.100504,0.106785,-0.0321856,0.0428214,-0.117523,0.013361,0.0619953,-0.0143945,-0.0349423,0.0375936,0.1198,-0.0493581,-0.0959283,0.0755435,-0.00585119,-0.0119194,0.106274,-0.0860465,0.0167154,0.0654574,-0.0362221,-0.0299136,-0.0323559,0.0474701,-0.00906763,0.090807,0.117505,-0.0696926,-0.0106838,0.052364,0.026699,0.0750337,0.0870555,-0.0620905,0.094662,0.108345,-0.078909,-0.074043,0.024448,0.0272163,0.118277,-0.0981766,-0.0411764,-0.0704166,0.0172191,0.0860896,0.121385,0.0102266,0.0437366,0.102254,0.0722311,0.0561254,0.022497,0.107249,-0.0873838,-0.0890648,0.0829322,0.0483011,0.0996365,0.0858528,-0.0902323,0.0635189,0.0275791,0.00706256,0.0585352,-0.00507822,-0.103878,-0.0660617,0.0862458,0.0879056,0.0306654,0.0777564,-0.0369415,0.0584259,0.0215883,-0.107181,-0.0424201,0.00531765,0.101004,-0.0168458,0.0214082,0.0716446,-0.115082,0.0267218,0.0921394,-0.0689414,-0.106696,-0.114214,-0.0963402,0.0457326,-0.0661997,0.0489967,-0.109281,0.0926626,0.0491677,-0.108348,-0.0430867,0.0785932,-0.0166302,-0.0873694,0.0154539,0.0547257,0.0177748,0.0256022,0.00388776,0.0836874,-0.0695228,0.0546638,-0.0709627,0.0293858,0.038375,-0.00744437,0.111031,0.112725,0.0708248,0.0607445,-0.0342819,-0.0336812,-0.0400935,-0.00738503,0.0482463,-0.106492,-0.0454725,-0.0368104,0.103334,0.0476983,-0.0594267,-0.0772967,0.00230854,0.0516716,0.0144694,0.011443,-0.0114096,-0.039977,0.0389404,-0.0263463,0.109616,0.113437,-0.11227,0.0400826,0.0564367,0.0150959,0.090491,-0.105801,0.0905972,-0.0575772,-0.0916811,0.133282,-0.0176282,-0.0869869,-0.0496691,-0.00378803,-0.11144,0.107354,-0.0967477,-0.0892948,-0.0582342,-0.0967019,0.0769124,-0.0412175,-0.112909,-0.0395992,-0.0995225,-0.0557492,0.055203,-0.000491516,0.0193216,0.0175384,-0.0886315,-0.013765,0.105298,-0.050164,0.066721,0.0761085,-0.104051,-0.0862834,-0.0636364,0.0490683,-0.084117,-0.0862357,-0.0990107,0.0541042,-0.0521278,0.0878812,0.0740116,0.0802388,0.0787465,-0.00545738,0.0685668
0.0387664,0.00804622,-0.0911711,-0.0746306,0.0687161,0.0723073,0.0481018,0.025792,0.0641719,-0.0505848,0.0275062,-0.0551524,-0.073154,-0.0221587,0.0023798,-0.10342,-0.0823622,-0.0924803,-0.0107831,-0.0454289,-0.0450689,0.0768838,-0.0115467,0.0665318,-0.0398312,0.00479755,0.0414068,-0.0537784,-0.0880282,-0.0189254,0.0861459,0.0573622,0.0881568,0.0563816,-0.0653535,-0.0743506,-0.0856061,0.0352248,0.0651955,0.0892182,0.0350706,-0.0608415,0.0918345,0.0971509,0.0475974,0.0191786,0.0659015,-0.102318,-0.0688591,-0.094773,-0.102734,0.0610817,-0.0472458,0.0728138,-0.0239683,-0.109774,-0.0982972,-0.0177164,0.0530079,0.0985616,-0.0353687,0.00782436,-0.0863238,-0.0760165,0.059838,-0.0505753,0.0646382,-0.0453086,0.0387432,-0.0430238,-0.0260182,-0.0305264,0.0133086,0.0750631,-0.0943025,-0.0417867,0.0896039,0.0657655,0.0894404,0.0305757,-0.00208284,-0.0330984,0.025923,-0.110991,-0.0889569,-0.0106952,-0.0920574,0.0614658,-0.0839854,-0.0583264,-0.0370538,-0.0674487,0.052423,-0.00562431,-0.0927422,-0.0840313,0.0164026,-0.0441561,-0.0837188,-0.053661,0.0435909,0.107388,0.0831232,-0.00849485,0.0832252,0.00521999,0.00112781,-0.108329,-0.0907059,0.110094,-0.0572642,-0.0240219,0.0114756,0.0761135,-0.105083,-0.0811819,-0.0989353,-0.00768451,-0.0619576,-0.0684183,0.0616178,0.0577972,-0.018151,0.0181465,0.0823483,0.0513891,0.0768514,-0.0520674,0.0035399,0.0820519,0.0334803,-0.0223873,-0.0908318,0.00216862,0.0747401,-0.0113136,0.000545667,0.0945903,0.084485,0.0129792,0.102334,0.0796416,-0.00433565,0.101423,-0.0480292,0.000676957,-0.0427432,0.0563617,-0.0829993,0.113901,-0.102322,0.0374427,0.0789514,0.0360614,0.0346053,0.099748,0.0648866,0.0669163,0.0377407,-0.0204552,-0.103384,-0.0295538,0.0848946,-0.0756618,-0.0734939,-0.107495,-0.0402014,-0.0973223,0.107464,0.10237,0.0694222,-0.0461027,-0.059117,-0.0363823,0.10712,-0.107952,-0.0639896,0.0211728,0.0503927,0.0762243,-0.0734634,-0.0287328,-0.0331835,-0.0118073,-0.0663806,-0.0338491,-0.079494,-0.0444934,0.00835247,-0.0539598,0.00201913,0.0527716,-0.0716605,0.0138118,0.0496973,0.00881878,-0.0613541,-0.0285447,-0.103318,0.0103211,-0.0178956,0.0590926,-0.033284,0.0841745,-0.00864098,0.0475945,-0.0929782,0.0328805,0.11374,0.0601239,-0.0162165,-0.0131215,0.0723476,0.00291007,-0.00379192,-0.0522773,-0.10061,0.00289818,0.00549427,0.0308688,-0.0694616,0.0442332,-0.0554928,-0.0607837,0.0772126,-0.0973771,0.0937308,-0.0798389,0.0126151,0.0442687,-0.085124,0.000955082,-0.0165111,-0.0526421,0.105003,0.066809,0.00651707,0.0455189,-0.0955187,0.0161357,0.0640313,0.0140688,-0.109158,0.0523494,-0.0941975,0.0820862,0.112513,0.0748634,0.0409922,-0.0553988,0.0987245,-0.0417227,-0.00204936,0.0735941,-0.0794604,0.0326667,-0.0268916,0.0239761,-0.111052,-0.077998,-0.0142227,-0.0853108,-0.0716943,0.0521375,-0.0935431,-0.0390088,0.0648848,-0.0949594,0.0366353,-0.0195866,0.129065,-0.0749474,-0.0214511,-0.0705064,-0.0535541,0.0112166,0.00761425,-0.0102359,0.0175888,0.109753,0.0286999,0.0698424,0.0852266,-0.0247382,-0.00310196,0.112969,-0.0663075,0.019592,0.0306902,-0.00088996,0.0484924,0.0487405,0.0503723,-0.0500017,0.0419681,-0.0384898,0.00344581,0.0682565,0.0224375,-0.0634567,-0.0569346,-0.037086,0.0382065,-0.0374574,-0.0106855,0.000976178,-0.0552586,0.0958005,0.0669789,0.0219789,-0.0807575,-0.00532224,-0.0959818,0.102278,-0.0214876,-0.0752123,0.0640062,0.0707388,0.062888,-0.028006,-0.0937043,-0.0236595,0.0150506,-0.0751094,0.0836856,0.0909147,-0.0592219,0.0841196,0.10304,-0.0102411,-0.00574367,-0.00448331,-0.0296418,-0.0238331,-0.0183774,0.0652317,-0.062311,0.0647533,0.0148031,0.03058,-0.0898223,0.100301,0.113598,-0.0568177,0.11013,-0.0898358,-0.0341541,0.0244525,0.0307335,0.0347795,0.0789586,0.00681066,0.0638482,-0.00492846,-0.00750929,0.095957,0.0516858,-0.00206711,0.0102462,0.117734,0.0771273,-0.0460057,0.0720176,0.0795324,-0.0532045,0.0865671,-0.117403,-0.000973664,-0.00453543,-0.0586796,-0.05134,0.0350733,0.101554,-0.0871945,-0.0700222,-0.0361568,-0.0396218,0.0128928,-0.0285246,-0.0116307,-0.00309075,0.0560574,0.0520643,-0.050638,-0.00633856,0.0301184,-0.0980272,0.00876587,0.000819253,-0.0303365,0.0989519,0.0281132,-0.0641181,-0.0560671,-0.0963769,-0.0671102,0.0904316,-0.0373582,0.0150658,-0.075585,-0.0305795,0.0932221,0.0508088,-0.0195123,0.0783323,-0.0419965,-0.0082052,0.0719807,0.0693758,-0.0588758,0.0444259,-0.0761428,-0.103651,-0.0682199,-0.0882982,0.00756748,-0.029075,0.0248504,-0.0960133,-0.0597325,-0.109104,0.0445652,0.0700405,-0.0543118,-0.0950881,0.0274675,0.0447062,-0.070321,0.00437199,-0.00787148,0.0357461,-0.108092,0.0803829,0.0975135,-0.0241375,0.0838876,0.0479829,0.0819666,0.000134528,-0.0257482,-0.0602172,-0.0424672,-0.080917,-0.0886884,0.0625398,-0.0402992,-0.0899548,0.0388838,0.0506514,0.0102525,0.0708814,0.0289165,-0.0106535,0.0182278,-0.110875,-0.00159882,-0.0962475,0.0789394,-0.111446,0.00123303,0.0531398,-0.0415353,0.016377,0.0605827,-0.078925,0.00405377,-0.0005811,0.101406,0.048428,-0.062155,-0.076367,-0.0645225,-0.0914401,-0.0493715,-0.0501875,-0.0381769,0.0928756,0.0781338,0.0170819,0.0733222,-0.0213828,-0.0422161,-0.0803782,-0.060782,0.0654599,-0.0864709,-0.0107862,-0.0536873,-0.102814,0.0152531,0.00410477,-0.0546221,0.0137895,0.0533067,-0.114557,-0.0794748,0.022095,0.00880832,-0.0603452,0.0395578,6.94092e-06,-0.060009,0.0236163,-0.00626583,0.0716168,0.103287,-0.0997129,-0.0207031,-0.0909495,0.0255794,-0.0305136,0.0106352
0.0184115,-0.0437733,0.0991019,0.0991847,-0.064623,0.00545154,0.089896,0.0238988,0.0536302,-0.0652373,-0.0374037,-0.01579,-0.0130591,-0.0998426,0.0448359,-0.0380628,0.0524177,-0.0915146,0.10878,0.0614131,0.0141861,-0.0462249,-0.0629936,0.0208401,0.0669088,0.0823739,0.0574491,-0.0225716,-0.00943166,0.0546823,-0.0840557,0.0523473,0.0656636,-0.00161672,-0.0636699,0.0881967,0.0547639,0.0724188,0.00878233,-0.0191218,0.0501111,-0.0848818,-0.00336443,-0.0496529,0.067974,-0.112585,0.0973454,-0.0551355,-0.114913,-0.075985,-0.0530494,-0.100778,-0.0517078,0.0878422,-0.0100086,-0.110662,0.100394,-0.0736414,0.0502911,0.108309,-0.0986448,-0.0401942,-0.0428299,-0.0449259,-0.0333133,-0.0459374,-0.0644564,-0.0418978,-0.0758305,-0.0658434,0.0981169,-0.0139961,-0.0122296,0.0721606,0.00362512,0.031599,-0.0668239,-0.0226166,0.102079,0.0744375,-0.0929695,0.0122643,0.0465274,-0.0803684,-0.106112,-0.0985729,-0.0634981,0.105749,-0.0954526,-0.0569641,0.0547177,0.00591284,0.0780229,0.0891273,0.0162942,-0.0526536,-0.0561915,-0.0159112,-0.0375005,0.102678,-0.0715364,-0.0938971,0.0047189,-0.0657487,-0.0536919,-0.0616818,-0.107755,-0.0929052,-0.0575306,0.0148343,0.0052048,0.039635,0.0481865,0.0785448,0.0174497,0.0283662,0.0589057,0.0389774,-0.101356,0.0604231,-0.0740744,0.0342974,-0.0377704,-0.0257168,-0.0799885,-0.0586566,-0.0436892,-0.0346206,-0.0412936,0.0610539,-0.0608658,0.0175095,0.0869542,-0.0357444,0.00939751,-0.0522923,0.049308,-0.0689653,0.0451911,0.0270044,0.0662381,-0.100091,-0.0870156,0.00781828,0.0279052,-0.0154825,0.0751737,-0.0517043,0.0320755,0.0329904,-0.0668705,0.0856993,-0.00776809,-0.100076,-0.0737052,0.00234193,0.0903181,-0.0141449,-0.0996016,-0.0837486,0.0577681,-0.0624772,0.0177803,0.0529061,0.00979131,0.0749123,-0.0269307,0.0444929,-0.0807147,-0.0646293,-0.0310143,-0.0589986,-0.0944452,-0.0150726,-0.0803361,0.0259635,0.0352844,-0.102093,-0.0067614,0.090098,-0.00699301,-0.00519393,-0.0748111,0.0234012,0.0868401,-0.0685092,0.0398516,0.0251886,0.0309315,0.059431,0.0286427,0.07837,-0.0245448,-0.00741158,0.0776764,0.0931796,0.0317901,0.0977688,-0.0579291,0.0933401,-0.0057671,-0.0640067,-0.0484848,-0.0239264,0.0497165,0.0786808,0.0139608,-0.0129383,0.0931981,-0.0537413,-0.0638947,0.0604266,0.0817884,-0.0214714,0.0123192,0.0800847,0.0569944,-0.0687743,0.0129057,0.0784752,0.0122492,-0.0916961,-0.0603259,0.0269602,0.0544427,0.0921955,0.100018,-0.134741,-0.0176093,1.95188e-05,0.0618587,-0.0445581,0.0440997,-0.0717683,-0.0877007,-0.0722213,-0.0318121,-0.0950846,-0.117439,0.00216288,-0.0093202,0.0482369,0.127309,0.0992203,0.100425,-0.0830986,0.0453921,0.0172287,-0.0380709,-0.0922351,-0.0106937,0.101056,-0.0421117,-0.044799,-0.0835212,-0.0077107,0.0231667,-0.0945153,-0.0511822,0.079979,0.0738867,0.111344,-0.0214989,0.062751,-0.0607475,-0.0646377,0.0967712,-0.0336746,-0.0359377,-0.0354689,0.00370585,0.0114291,-0.109945,0.115957,0.0683575,0.0332009,-0.0453582,-0.128662,-0.12419,0.0193956,-0.0138631,0.0350174,0.0778141,0.0127544,-0.0161731,-0.0863269,-0.000241498,-0.0396308,0.0222184,-0.0616705,0.102365,0.106574,-0.0196316,0.0838802,0.0856152,-0.101986,0.0719166,0.0671341,-0.0744744,0.0285189,0.0623806,-0.0361971,0.0412234,0.144266,0.0696895,0.0216372,-0.113374,0.0407403,0.0415531,0.0907396,0.0669305,-0.0383169,0.05677,-0.0490069,0.102255,0.0023349,0.016844,-0.111111,-0.109449,0.0286136,0.0766156,0.0585611,-0.0777341,0.0159704,0.0564969,-0.0903815,-0.0674786,0.103874,0.0650231,0.0719598,-0.0240628,-0.0271827,-0.0221693,0.0251073,-0.0352068,0.118522,-0.0653021,-0.0566174,0.0577052,0.0392697,0.00252046,-0.0463137,0.044355,-0.00269406,0.0755117,-0.0353443,0.0699087,0.107154,0.00865217,0.00133941,-0.0697858,0.0281518,0.0207669,-0.0285007,-0.0395961,0.0735764,0.0600921,-0.0626563,-0.0357991,-0.061954,0.0830713,0.074188,-0.0937504,-0.0846454,-0.0830189,0.095289,0.0649581,-0.0753311,0.0830076,0.102707,-0.0615487,0.0295299,-0.00721541,0.0729862,0.0907808,-0.0495737,0.0484923,-0.00820617,-0.0529605,0.0511177,0.0975271,0.0172708,-0.0632778,0.0127779,-0.0772574,0.0891859,0.0141962,0.082184,0.0105374,0.0924939,0.0713058,0.0456224,-0.0140818,-0.0346142,-0.0209591,0.0832814,0.0655774,-0.0656774,0.0406308,0.0537708,0.0880044,0.00627473,-0.115945,-0.0926772,-0.0338484,-0.070748,-0.0119088,-0.0457209,0.0549538,0.0200705,0.0719392,-0.0222626,-0.0163491,0.0241474,-0.00106525,-0.0994785,-0.0104226,0.0439016,-0.0959432,-0.0736456,0.0505113,-0.0716185,-0.0766909,0.10344,0.0150668,-0.0327124,-0.0288929,0.11991,0.0632833,-0.060215,-0.0308817,-0.0177998,0.00365102,-0.0247816,0.0544901,-0.0575019,-0.0818284,0.0512805,0.105088,-0.0441959,-0.104871,-0.089018,-0.0569194,0.0372131,0.0408569,-0.0186455,-0.0343219,-0.0431536,0.0834352,0.0246307,0.103593,-0.101294,-0.0635362,0.0140058,-0.0255894,-0.0896504,-0.000348478,-0.0513851,0.0578246,-0.0969777,0.0893869,-0.0257714,0.0567511,-0.0557244,-0.029809,0.0304247,-0.0108699,0.0801689,-0.0703698,-0.0754299,0.00742035,-0.0935058,0.0144116,0.0833824,-0.00790556,-0.101579,0.044971,-0.0422595,-0.100352,0.0376054,-0.0403734,-0.0445739,0.0681607,0.105924,-0.0654414,0.0639609,0.0713463,0.0939336,-0.116678,0.0688976,-0.0722464,0.0106116,-0.0466608,0.0344767,-0.0500196,-0.10943,0.0929159,-0.0517273,-0.0939804,0.0137506,-0.0948721,0.0895623,0.0146813,0.0113449,-0.0308075,0.104976,0.0281503,0.0453449,-0.0731808,0.0437211,0.034059,0.0272197
0.0419318,-0.00994948,-0.0498946,-0.0024949,0.0936106,-0.0634381,-0.0884316,-0.0281511,-0.00669445,0.0712909,-0.0903651,-0.0485587,0.0872531,0.0526554,-0.053401,-0.0809481,0.120489,0.0412504,-0.0317878,-0.0587635,-0.00302106,-0.0133525,-0.0801259,-0.0747643,0.0782929,0.10003,0.0829984,0.0370857,-0.104382,-0.0734115,0.0476319,0.0581882,0.104383,0.114108,0.0629845,0.126551,-0.0571279,-0.100346,0.0754663,0.0597155,-0.00119674,0.00886966,-0.0172317,-0.0137367,-0.0175559,0.0197057,-0.0135214,-0.0874823,0.0544373,-0.0414843,-0.105877,0.0683135,0.0464601,-0.0713165,0.103202,-0.0405738,0.0450034,0.00820388,0.0928167,-0.0213391,0.0062396,0.0431169,-0.0481341,0.0870666,-0.0437677,-0.0408017,0.0700517,0.12325,0.0133793,-0.0199116,-0.0263634,0.0422098,0.0844492,-0.120838,-0.0865024,-0.0155245,0.0877651,0.120064,0.0530298,0.0095649,-0.0976633,-0.0714016,-0.0150618,-0.0198935,0.0912847,-0.0192273,-0.0638669,0.082153,-0.00787417,-0.0793268,0.0229825,-0.0157334,-0.0448852,-0.0511316,-0.0390949,0.0127831,0.0185804,-0.0378266,-0.100064,0.0526841,0.00151587,-0.00627266,0.0419229,0.0531374,-0.103971,0.0756803,0.0432932,-0.118088,-0.0450349,0.0228185,-0.00213829,0.106029,0.046814,-0.0973877,-0.0829379,0.0613366,-0.0910894,-0.0341677,0.0484912,0.0951345,0.0418128,-0.00334773,0.0594522,0.0454991,0.0379959,0.0785222,0.10866,0.01305,-0.0741068,0.107015,-0.0203836,0.0306666,-0.00375836,0.00789266,-0.0784879,0.0787271,-0.0556631,-0.0620909,0.00743621,0.0763528,0.0445269,0.0502378,-0.029075,-0.0398515,-0.107316,0.109081,-0.0753394,-0.040574,-0.0973151,0.0188595,-0.0592588,0.0454716,0.103546,-0.125483,0.0829705,0.0884725,0.0772499,0.056902,0.0537913,-0.108254,-0.0734058,0.0909693,-0.0526909,-0.0741645,-0.0483554,-0.117892,-0.00244275,0.0157806,0.0283503,0.0568721,-0.0568404,0.0728373,0.0190042,-0.00195602,-0.0401634,-0.043416,-0.0202466,0.0430871,0.0879285,0.0498327,0.0565274,-0.0913624,0.094288,-0.0903106,0.07119,-0.0601575,0.118348,-0.0363432,-0.0109962,0.0188714,-0.0244191,-0.0107553,-0.0312212,-0.0347533,0.00402861,-0.0515514,-0.0938308,-0.0418369,0.0183527,-0.0162656,-0.0967171,-0.0691792,-0.0465946,-0.102422,0.0279515,0.00389573,0.106954,-0.0231475,0.0894992,-0.055185,0.0262237,-0.00789586,-0.0522108,-0.00913208,-0.00116518,0.0840224,0.10381,0.0536335,-0.0399179,-0.0841872,-0.0943722,0.104915,0.0932298,0.0587855,0.052321,-0.0130852,-0.0744945,0.00541808,-0.0657707,-0.0203205,0.0558167,-0.0148357,0.0807752,0.100624,0.0936733,-0.043739,0.00566193,-0.0356522,-0.0379882,-0.0780236,-0.0271241,-0.0479821,-0.065346,-0.04324,-0.0890067,0.101648,-0.010534,-0.0759302,0.0317848,0.0295944,-0.0311332,0.0319468,-0.0538539,-0.0780552,0.0594534,0.0719814,-0.0339201,-0.119779,-0.0159687,0.130318,0.0719,-0.00998014,0.0816448,-0.0998342,0.0430765,-0.025581,-0.107542,-0.0802812,0.107914,-0.0137593,-0.0928473,0.0469823,0.0169111,-0.0107037,0.0660382,0.0130926,-0.0763653,0.113518,0.0864202,-0.046798,0.0143539,-0.0947195,0.0298238,-0.0431439,-0.032037,0.0623358,0.0510074,0.0911641,0.101115,-0.0662808,0.0329272,0.123301,-0.0672438,-0.05623,0.0647481,-0.000452492,-0.0159875,0.0664115,-0.0628136,-0.0382856,0.0607156,0.0105676,0.101762,0.100776,-0.0733912,-0.0299473,0.0361799,0.0437088,0.00284608,-0.0750753,0.108214,-0.0839847,0.0583748,-0.0350692,0.0475966,-0.00956452,0.0926206,0.0813599,-0.0513725,0.0272385,0.0134826,0.027883,0.0141986,0.0158518,-0.0904939,-0.0166349,-0.0974592,-0.0699313,0.0687845,0.076387,0.0564048,0.07752,0.084825,0.0259716,0.0361835,-0.0840044,-0.0481677,0.123269,-0.0105512,-0.0548751,0.0561893,-0.00765949,-0.0649649,-0.0150489,-0.095171,0.107135,-0.0509972,-0.0361514,0.0197254,-0.0155894,-0.107548,-0.0721042,0.0575994,0.026632,0.022301,0.0713957,-0.0819471,0.0725596,0.0981624,-0.0868326,0.0927835,0.120201,-0.0752575,-0.0519808,-0.0749813,-0.00115637,0.0198017,-0.0689227,0.0392959,0.0970147,0.0901512,-0.0443127,-0.0305086,0.00392107,0.00756582,0.111156,0.0704087,0.0129636,0.0611169,-0.083881,-0.0148897,0.0575947,-0.0674669,-0.0266336,-0.033799,0.0504653,-0.0162106,-0.0702882,0.0910142,-0.10567,0.129553,0.0201831,0.000145333,-0.0394964,0.0256857,0.100747,-0.0686722,-0.0139813,-0.0320055,0.071687,0.0467558,0.0447424,0.108378,-0.0643708,-0.0881174,-0.0399391,0.102328,-0.0255004,0.0699933,0.0823248,0.0985626,0.108785,-0.0630183,0.099222,-0.00698893,-0.00936779,-0.100988,0.11294,-0.0698416,0.037236,-0.0889682,0.024314,0.021312,0.0798415,-0.0573892,-0.0970658,0.0155521,0.0497743,-0.0166568,0.00852807,0.0149279,-0.0173933,0.0852964,-0.0637883,0.0660768,0.0428037,0.0780344,0.138364,0.0618634,-0.0647461,-0.0475498,-0.0401969,-0.0384571,-0.0784052,-0.0269628,-0.114569,-0.0249867,0.0967335,-0.0938898,0.113789,0.0353594,0.0514662,0.0806012,0.0864846,0.0239871,-0.00690635,0.037391,-0.104945,-0.0462702,0.0743178,-0.0555116,-0.0133966,0.0297217,0.00735298,0.0667516,-0.00465576,0.0489173,0.0437442,-0.021817,-0.114109,-0.00570953,0.0210884,0.116683,-0.00169194,-0.0304803,0.122498,-0.056315,-0.00025396,0.016412,0.00669641,0.0402171,0.038414,0.0151728,-0.0133559,-0.115982,-0.021429,-0.043411,0.105422,-0.0113663,0.0378364,0.0328756,0.0866634,0.119852,-0.0488609,0.0102153,0.0645416,0.068759,-0.0348249,-0.0533852,0.00424639,-0.0887948,0.0792041,0.0750473,0.0879837,0.104895,-0.00223189,-0.105351,-0.0464648,0.0749305,0.118057,-0.039627,-0.0278535
-0.0862094,-0.0986849,0.0556442,-0.00119112,-0.102455,-0.0672942,-0.0918414,-0.0505548,-0.00139748,0.103028,-0.0115556,0.0842701,0.0130342,-0.0196151,-0.0833693,0.0188059,-0.053787,0.059937,-0.112377,0.0751811,-0.0736134,-0.102107,-0.0986967,-0.000211954,-0.0406844,-0.0970566,0.0747783,0.00691033,-0.0451392,-0.0770514,-0.0374673,0.000442468,0.0225479,0.0316696,0.0810407,-0.085325,0.0981494,0.0389589,-0.0985814,0.11998,0.0332938,-0.0446571,-0.00385112,-0.064642,0.0896756,-0.0652758,0.0997,-0.0331354,-0.0398588,-0.115192,0.0672668,-0.0214763,0.0295092,0.0213754,0.08519,0.0401045,-0.0184848,-0.0352237,0.0128831,0.0536137,-0.043492,-0.062122,0.0764627,-0.00451544,-0.0610473,-0.0845647,0.0231899,0.0111343,-0.0487599,0.0349482,-0.0240873,0.0947706,-0.0767296,0.105262,-0.0142342,0.0303887,-0.0583027,0.0912952,0.0839657,-0.0255292,0.0903587,-0.0530054,0.0164207,0.0324373,-0.0627147,0.0664303,-0.0232621,-0.0661923,0.0154171,0.0555924,0.103198,0.0591488,0.0161153,0.0413436,0.121125,-0.00681066,-5.21074e-05,0.0706308,0.0897144,0.0824709,-0.0324179,0.10377,0.0955441,0.0360305,-0.00378499,-0.0558498,0.0467587,-0.0785261,0.0723946,0.0842808,-0.0496788,0.0526892,0.0958283,-0.0377656,0.0307012,0.0949001,0.0445646,-0.0283345,0.0844804,-0.0164461,-0.0136513,-0.0306678,-0.10934,0.0341817,-0.00696794,-0.0363761,-0.073246,-0.0440575,0.0532945,-0.105665,-0.0644026,0.0669907,0.0718968,-0.0623152,-0.0647583,0.0841317,-0.0404848,-0.0681155,-0.0344494,-0.029447,-0.0142617,0.0399652,0.0931495,-0.0506348,0.100782,0.0931965,0.0219135,-0.0216211,-0.0396863,-0.0434254,0.0921622,-0.0279382,0.076571,0.0601691,-0.0250477,-0.0255566,-0.0640501,0.0631206,2.1141e-05,-0.114698,-0.0985434,0.00896592,-0.0670071,0.0748656,0.107402,-0.0578095,-0.0147062,-0.0178225,0.0538226,0.113531,-0.0142909,-0.0208946,-0.101374,-0.0711256,-0.0407813,-0.0303376,0.100009,-0.107154,-0.0858482,0.0294085,-0.0337758,0.010922,-0.0492172,-0.0769757,0.0363623,0.0224052,0.0449553,-0.00391258,0.0841641,-0.0533037,-0.0332291,0.0953652,-0.0764138,0.0790567,0.0787361,0.0622053,0.109604,-0.00105996,0.0241198,0.00162866,-0.0974826,-0.0309085,-0.0639833,-0.0779247,0.0440353,-0.0225679,0.0321257,0.0477313,0.110264,-0.0804014,0.0391481,-0.0225572,0.0111674,0.0667584,0.022251,-0.0576214,0.00902141,-0.0734244,-0.0963003,-0.0372664,-0.0494493,0.0695652,-0.0560433,-0.114981,-0.0131965,0.0436836,-0.0563519,-0.0619644,-0.0178726,-0.00846805,0.024392,-0.00870124,-0.0441549,-0.018903,-0.0554588,0.00434004,-0.0274109,0.0284317,-0.0974154,0.0289391,0.0168342,0.0135613,-0.0476935,-0.0962666,-0.0974677,0.0730329,0.00525114,-0.0116726,-0.0733106,-0.108111,0.0590407,-0.100481,0.0125959,-0.0930414,0.0153884,0.0814355,-0.0401755,-0.107022,-0.0259528,0.0422205,0.0896496,0.0591529,-0.00358719,-0.101171,-0.0406476,0.0801274,-0.0754482,-0.0798639,-0.0711481,-0.0948519,-0.0460904,-0.0275912,0.0137024,0.109276,0.0242675,-0.00825664,0.0356761,-0.0813169,-0.0812948,-0.0433677,0.0891118,0.0702533,-0.0476482,0.0188801,0.0208336,-0.0898496,-0.0328901,0.111923,0.0099858,0.00618896,-0.0268326,-0.0392317,0.0925714,-0.0920285,-0.0720053,-0.0130421,0.0691904,0.114662,0.0456688,0.0302224,0.115126,0.0237976,0.101097,-0.0704907,-0.0977454,0.0821154,0.0686186,-0.0694378,-0.0356221,0.0478954,0.0184204,-0.0198804,-0.0583162,-0.0943001,-0.0901427,-0.072304,-0.0186868,-0.0791858,0.101726,0.0177728,0.0823856,-0.0584047,-0.0819598,0.0522438,-0.0381295,-0.0645699,-0.00447076,-0.0623987,0.0670999,0.102765,-0.0153196,-0.00145655,-0.103558,-0.0372489,-0.00919364,0.0329618,-0.0641532,0.0321859,0.00843632,0.0977863,-0.06552,-0.0416903,0.0554083,0.0328631,-0.00185541,0.0642667,0.0357092,0.0206352,-0.0895385,-0.000689359,-0.0430571,-0.011596,-0.0577004,0.0644976,0.0907071,0.0845535,-0.0799001,-0.0339859,-0.0839911,0.0972253,-0.0989912,-0.0846146,-0.00878289,0.00201644,-0.0729567,-0.00784455,-0.0158211,0.10425,0.0116641,-0.0881143,-0.0326756,0.062116,-0.0835767,-0.0916682,0.0156288,0.0904267,-0.0916133,0.0512516,0.0689688,0.0676771,0.0273672,-0.107611,0.0265821,-0.0779866,-0.050826,-0.0538546,0.0365854,-0.00325408,-0.0920231,-0.0170092,0.0679568,0.116104,0.0813201,0.0771346,-0.0716792,-0.00252407,0.0738872,0.00760224,0.0836631,0.0670304,0.00736625,0.0521512,0.0248261,0.041479,0.0613035,0.00186952,-0.091932,0.0207754,0.101015,-0.0219827,0.0852367,0.0216228,-0.0186944,-0.0466454,-0.102593,-0.0732589,-0.0937962,-0.0198767,0.0185315,-0.0703474,-0.078925,-0.0627409,-0.0304537,0.0482899,0.0243502,-0.0231832,-0.041678,0.102269,0.0203441,-0.0669047,-0.0177643,0.0980862,0.0963734,-0.0236573,-0.0427679,0.0835797,0.000208402,-0.000304067,-0.0954076,-0.0557512,0.0693602,0.0821533,0.095057,0.0982474,-0.0367665,0.0248064,0.0747366,0.00164785,-0.0997794,-0.108443,-0.051367,-0.0728672,-0.0642368,-0.0538379,0.00159627,0.00989213,0.0185643,-0.0119058,-0.0682623,-0.0571811,-0.0458593,0.00680711,-0.107864,-0.0391814,-0.00474694,0.0135492,0.0492922,0.0360978,0.0195934,0.0807573,0.0717506,-0.0437172,0.0570391,-0.0621641,-0.0130185,-0.0939949,0.0653426,-0.0835233,0.0656469,-0.0381495,0.0521174,-0.0619995,-0.0742065,-0.0779882,0.0130883,0.0309955,0.0784228,0.0971369,0.043102,0.0288841,0.105774,0.0790375,-0.0122554,0.101245,0.105421,0.0516379,0.0494624,-0.0751179,0.0478277,-0.0752644,0.104789,-0.0241078,0.0776992,-0.0766285,-0.0115432,0.0968427,-0.00573535,0.0995998,0.0682499,0.0586939,0.069322,-0.00980031
-0.068736,0.0246488,-0.0266702,0.0958959,0.0200327,0.0551736,0.0128072,0.0572066,-0.00552376,0.0756695,-0.0364557,0.0355492,-0.044181,0.0313053,0.0931173,0.0719879,-0.0623387,-0.0398152,0.0559322,-0.0190623,0.0232941,-0.0991976,-0.0109296,-0.11026,-0.00187619,-0.0140904,-0.0475684,0.0927434,0.0410766,-0.0294225,0.0838553,0.0583406,-0.100761,-0.0980767,0.0635123,-0.0968377,0.084516,0.0623272,-0.00895508,0.0630215,0.0629501,0.0226565,-0.03395,-0.0867173,0.0689668,-0.0403904,-0.0142548,0.0403082,0.0771707,0.0734352,0.101849,0.0126598,-0.0524539,0.0259524,0.024364,0.112516,-0.0168378,-0.0495949,0.0178526,-0.0867279,0.101266,0.0319038,0.0114748,0.0603245,-0.0841577,0.0683963,0.114323,0.131168,-0.0666486,-0.0530769,0.108244,-0.10274,-0.035866,-0.0674456,-0.0345712,-0.0899057,-0.0777784,-0.0439344,-0.100893,0.0727279,0.0186178,-0.0114855,0.0545541,-0.0539483,0.0540669,0.0801546,0.113044,0.0688806,-0.0148545,-0.118112,-0.0898819,0.0241094,-0.0888037,0.111808,-0.00316224,-0.0275197,0.0807423,-0.0599892,0.06629,-0.0778378,-0.112625,-0.0443946,-0.0495973,0.0886313,-0.0431079,-0.101814,0.0101456,0.00458864,-0.112293,-0.0534621,-0.0908928,-0.0990838,0.0989728,0.0934644,0.108154,0.0696948,0.0600402,0.104169,-0.0343069,-0.116385,-0.0421946,0.0598154,-0.0528914,0.0411753,-0.096019,0.104611,-0.0699972,-0.104599,0.0277864,-0.0599232,-0.082906,0.0191464,0.0750403,0.0731866,-0.0193734,0.0129578,0.0381942,-0.0154565,0.0252086,0.0196919,-0.00593474,0.093909,0.0916134,-0.0537775,-0.0301009,-0.0578781,-0.000924341,0.08752,0.00844999,0.0381674,0.109274,0.115267,0.0411566,-0.0856549,0.0369154,0.0872819,0.114244,0.0470838,-0.00717399,-0.0652488,0.112291,0.0536941,0.0399934,0.00136237,-0.0207989,-0.101452,0.0305184,0.0928768,0.0641015,-0.0238893,-0.045921,-0.0735494,0.0311685,-0.0309647,-0.00607981,0.0837828,0.10048,-0.0123546,0.0938547,-0.0535992,0.015551,0.0306232,-0.0481652,-0.0631218,-0.0926207,-0.0056443,-0.0515587,0.108192,0.0376685,0.019026,0.0649637,-0.102916,0.0795096,0.089447,0.00344819,0.0326353,-0.0698155,0.0502048,-0.0576816,0.00850332,-0.0100651,-0.0846221,0.0431813,0.0279233,-0.0572505,-0.0104161,0.0453738,0.0735128,-0.0997892,0.0604415,-0.0291148,0.025458,-0.0186225,-0.0143869,0.0969815,0.0374265,-0.0554565,-0.106241,-0.0267949,-0.0878222,0.0880791,0.0248091,-0.0527648,0.110508,0.0237922,0.0744754,0.0084883,0.134156,-0.0117489,0.0850831,0.0688224,-0.0640116,0.0388063,0.0762352,0.0972363,-0.052384,-0.0951556,0.0169156,0.0980664,0.0066224,0.0804918,0.0501403,-0.00426443,-0.0563436,0.0184861,0.0143765,0.0414586,-0.0601445,-0.120501,0.115287,-0.0987766,-0.0314438,-0.0482304,0.0147685,-0.0289926,0.0200172,0.070074,0.050936,0.019072,0.0594621,-0.101469,-0.0525874,0.0443513,-0.0329348,0.0702906,-0.0711238,-0.0123649,0.0711501,-0.119663,-0.0867274,-0.0734212,0.00294175,0.0932282,0.122256,-0.065892,-0.0895877,0.0438326,0.0421552,0.0070184,0.103386,-0.0594038,-0.119741,-0.0315508,0.0612088,0.11132,0.0950105,0.0626938,-0.0585908,-0.0221202,0.056125,0.010739,-0.0128968,0.0351218,0.00468657,0.0263138,-0.0940072,0.103886,-0.0215801,0.0923901,0.0647348,0.0574793,0.0335971,-0.0374648,-0.0114756,-0.0350198,0.0349538,-0.0719075,-0.054058,0.0253493,0.0118631,-0.0942871,-0.0320009,0.122404,-0.0489401,0.0568054,0.106032,-0.107033,-0.0397413,0.09173,-0.0876241,0.0129665,0.0721542,-0.0198138,0.0637984,0.033186,-0.022496,0.113311,-0.0633067,-0.038857,-0.0368632,-0.0543328,-0.104999,0.0648516,0.0444043,-0.021287,-0.00463219,0.109981,0.0212303,0.072595,0.0511263,0.101687,-0.0766385,0.0524117,0.112506,-0.0289389,-0.016035,0.0762659,-0.0638815,-0.000940716,0.043005,-0.0801832,-0.0752645,0.0704187,-0.0866105,-0.0893085,0.0823648,0.0313118,-0.00584837,-0.0551104,-0.0430332,-0.0451526,0.088907,-0.0997961,-0.0256228,-0.108045,-0.0696675,0.128017,-0.0683953,-0.087068,-0.00165253,-0.0127576,0.0855765,0.0488112,0.0542587,-0.0537155,0.0222969,-0.0151134,0.0414065,3.76873e-05,-0.0742152,-0.0208846,-0.0992668,-0.0313101,0.0997951,-0.0737055,0.111037,-0.0570469,-0.0259709,0.0607485,-0.059905,0.0494862,0.0745637,-0.0188077,-0.0192953,-0.0865683,-0.0328798,-0.00242383,0.027048,-0.0385896,-0.103055,0.0399734,0.0828287,0.0588561,0.0773847,0.0990958,0.0442322,0.0732356,-0.0891923,-0.0122951,0.0074545,0.0429729,0.0898021,-0.0974927,0.0482435,-0.0806396,0.114477,0.0237757,-0.0492218,-0.0504827,-0.121495,0.087837,-0.0244933,0.0563653,-0.0704074,-0.019532,-0.0551055,0.033824,-0.0227063,0.0384872,0.0353755,-0.0726436,0.0915131,0.017622,-0.0136296,0.0774488,-0.0837967,0.0928667,0.059946,-0.066999,0.0526582,-0.0998366,0.104403,-0.024219,0.0680548,0.0113722,-0.0588097,-0.0122986,-0.0503886,0.018295,0.0954759,-0.0354633,0.0889096,0.074008,0.0668699,-0.058485,-0.0979951,0.00745327,0.0965542,0.0194978,-0.106083,0.0207649,0.102113,0.00869252,-0.0531254,0.029007,-0.0543537,-0.068918,0.104971,-0.0900428,-0.0308937,0.0776369,-0.0742707,0.0592686,-0.0468831,0.0364741,0.039601,0.130179,-0.00109784,-0.0418024,-0.0583405,-0.0337293,0.0320787,-0.0426705,0.0381356,-0.0300561,0.0911908,0.0386238,-0.0660578,-0.0953062,-0.023626,-0.0927244,-0.0778505,-0.0047762,0.0444654,-0.0996092,-0.00510782,-0.0730412,0.00513017,0.0442303,0.0985462,0.0218748,0.0802646,0.0467857,0.084051,-0.07754,-0.0501467,0.0107498,0.0894882,0.0698078,-0.05241,-0.101652,0.0199945
-0.0247731,0.104316,-0.0393726,-0.0621597,-0.0975168,-0.000361337,0.108179,0.0103456,-0.122369,-0.07326,0.0955804,-0.134262,-0.0805452,0.051383,-0.0213609,0.0220887,-0.00151162,0.0435692,0.036677,0.0359895,-0.0610767,0.0552043,0.0489712,0.0991734,-0.111055,0.0698049,-0.0665593,-0.0632602,-0.0222883,0.042133,-0.0350578,-0.0273818,0.0314887,0.0111693,-0.0498749,-0.0359341,0.066464,-0.0128924,-0.098706,0.0872755,-0.0278414,-0.00355675,-0.0680438,0.0830073,0.0893271,0.0142548,0.100036,0.0622446,-0.0535266,0.0358075,-0.0422024,-0.111607,-0.0981315,0.044343,0.0705422,-0.0157898,0.101084,-0.00949222,0.0632596,0.0652762,0.0642822,0.0701988,-0.0609965,0.0594558,0.0193738,-0.0141221,-0.024141,0.0640723,-0.0554104,0.0621323,-0.034111,0.091272,0.0576216,0.043903,-0.0546927,0.0495377,0.0188694,-0.137717,-0.0653729,0.0743438,0.0392589,0.0538949,-0.0659371,0.0876856,0.0931753,-0.041077,-0.0796192,-0.000173314,0.081308,0.068098,0.0521255,-0.001284,0.0358116,-0.0182178,-0.0246841,0.106277,-0.0548898,0.0238481,0.092225,0.0225165,0.0941665,0.0819171,-0.00783672,-0.0439194,0.0366314,0.086101,0.0969467,-0.00961812,-0.0537537,-0.0370674,0.0120735,0.011418,-0.0692637,-0.104291,-0.0618068,-0.0600132,0.0849479,-0.0535278,-0.00319631,-0.1069,0.0597326,-0.104242,0.100558,0.0305378,0.0868495,-0.0931576,0.0846133,0.0185918,-0.0664435,-0.0309124,0.0771347,-0.0391386,-0.0846845,-0.0315936,0.0204201,-0.0469192,-0.0885494,0.029127,0.0707508,-0.0741954,0.0658355,-0.045532,0.0891808,-0.0802991,-0.0937693,0.103037,0.116183,-0.0462595,-0.00821804,-0.000453822,-0.0766405,0.0914505,-0.0380512,0.103989,0.107191,-0.0272927,0.0721589,-0.0449717,0.00241626,-0.0614306,-0.094996,-0.059559,-0.0226721,0.073934,-0.074933,0.0816104,-0.0900035,0.0745574,-0.0438962,-0.0339601,0.109109,0.0562705,0.0458923,-0.0121004,0.00413998,-0.069592,0.0707241,0.0732255,-0.0616609,-0.0164067,-0.077146,0.101771,-0.0906886,-0.050783,0.127933,0.103097,-0.0292466,-0.0172926,0.0711443,-0.104957,-0.0244164,-0.0145168,0.0868669,0.0025829,-0.0077635,0.0623504,-0.0398328,-0.0859036,-0.0959608,0.101378,-0.0638741,0.0622288,-0.0940757,0.102043,0.0554926,-0.0409614,0.0902005,-0.0977042,-0.0212964,0.0713283,0.00463974,0.0625918,-0.0840146,-0.0777893,-0.0959473,-0.0867993,-0.0929143,0.0715348,0.00943923,-0.0932971,-0.0692417,-0.0310661,0.103254,0.0621121,-0.0461739,0.0804138,0.0279082,-0.0254378,0.128097,-0.0830095,0.0178924,0.100319,0.100378,0.0256582,0.0190996,0.0734706,0.0214172,-0.0630115,0.0237872,-0.0288361,0.0580395,0.0918424,0.0962614,-0.0238228,0.0532382,0.00372733,-0.00261274,0.0601596,0.102903,0.099921,-0.0809025,0.0419046,0.0182665,-0.0124196,0.0585359,-0.01688,0.0424076,-0.0231554,-0.0684875,0.05896,-0.0453769,0.0314177,-0.0165001,0.0213296,0.0593104,0.0288352,0.0843963,0.011542,-0.0822567,-0.0248732,-0.0593644,-0.0131351,0.0506569,-0.0133758,-0.0691724,-0.0255581,0.0691889,-0.131256,-0.123219,-0.0911712,-0.00306435,-0.0365205,0.0669337,0.100834,0.0255538,0.0878741,-0.0892989,-0.0847957,0.013791,-0.0604514,0.100993,0.0787779,-0.109763,0.0608982,0.084624,-0.0350475,0.0293507,-0.105907,0.0239001,-0.0360614,0.0122964,-0.0299163,0.016159,-0.0166342,-0.0497229,-0.0302713,-0.0532136,-0.0356283,-0.00495905,0.0887893,-0.0112218,0.0323109,0.102915,0.00288089,0.0280696,0.121625,0.0298119,-0.0666241,0.0945577,0.0243131,-0.0978789,0.107107,0.0363044,0.0604231,0.0304193,-0.0951002,-0.0338653,0.00893206,-0.0474923,-0.0613811,-0.0588593,-0.100446,0.0659312,-0.0666416,0.0523547,0.0300171,0.102794,-0.0771276,-0.0218274,-0.112556,0.0429268,0.0453672,-0.0158783,-0.0186022,-0.0759151,0.129377,0.0650626,-0.00206577,0.0475326,0.0922782,0.0350984,0.0444801,0.00767505,0.0428138,0.00246033,0.12757,0.0304107,0.0508291,-0.0522227,-0.0868106,-0.0782884,0.0977166,-0.101158,0.0290472,-0.0114049,-0.0316242,-0.0440306,0.0541713,0.00924634,-0.118633,-0.0371089,-0.0361905,-0.0731331,-0.113934,0.102987,-0.0474701,-0.00428511,-0.128478,0.046551,-0.0816644,0.0852501,0.0161722,0.0716839,-0.102553,-0.101142,0.0738978,0.0941411,-0.0339088,-0.0304003,-0.0342737,0.0891251,0.0232443,0.0141945,-0.0549041,0.0297387,-0.0829716,0.0557291,0.00771726,0.0787235,-0.0482973,0.0751059,-0.0964951,0.0958795,-0.0680565,0.0644365,-0.00318691,-0.00241925,0.00699459,-0.0546193,-0.0153158,0.0556052,0.0453221,-0.0461002,0.07243,-0.0477825,-0.0718976,0.0642585,0.0153324,0.0388582,-0.0484122,0.0100206,0.107594,0.0685703,0.0370699,-0.0445683,-0.0676285,-0.0832071,0.13219,0.0790041,-0.0436344,-0.0716474,0.0905717,0.109382,0.00633625,-0.0933913,0.052698,0.0618056,-0.112641,0.0260049,-0.0710087,0.062078,-0.0495141,0.0351106,-0.0101448,-0.00980092,-0.0233841,0.00927705,-0.0661988,0.0599935,-0.0977076,-0.0816525,0.0251593,-0.0394133,-0.0373463,-0.0382045,-0.103304,0.0996232,0.0574113,0.151485,0.0383364,0.0943127,0.14452,0.00161304,0.0416556,0.00370422,0.000498437,0.0435692,-0.114048,-0.0813114,0.128293,0.0539802,-0.0865979,0.0588222,0.0743412,-0.0891524,0.0865058,0.00833586,-0.0716058,-0.0415225,-0.000890487,-0.0133822,-0.0956595,0.040185,0.0348365,-0.0173752,0.0783238,0.0274134,-0.107767,-0.0135663,0.0160747,0.0511671,-0.0132598,-0.140339,0.0333052,0.095901,0.102733,-0.0270462,-0.0410104,0.0166399,0.109438,0.0334361,-0.0146365,-0.092006,0.0155254,0.0648178,0.0147057,-0.114997,-0.00783166,0.00347759,-0.0457973,0.00420108,0.0438908
0.0875837,0.0604392,0.10831,0.0542429,-0.0566155,0.0716752,0.0111784,-0.0546024,0.0736913,0.10769,0.0785145,0.0111344,-0.0595217,0.0310227,-0.0105225,-0.0707693,0.114956,0.0655461,0.0570711,-0.0466451,-0.100003,-0.0372387,-0.104028,0.0358403,-0.00887439,0.0487501,0.0694447,0.0863854,-0.055188,0.0438138,0.0727239,-0.0879481,0.0558435,-0.0671553,0.110538,-0.0906043,-0.000180186,-0.0404075,-0.0366131,0.0696768,0.0349428,-0.114381,-0.0644265,0.0336676,-0.0499706,0.0250526,0.0499444,-0.0216312,0.0694011,0.0788349,-0.0933669,-0.0306069,0.0490174,0.0176326,-0.0941874,-0.0868418,0.108314,-0.0859999,-0.00928071,0.097732,0.0253002,0.0014122,-0.115647,-0.0322626,-0.063289,-0.0352776,-0.0822319,0.0249424,0.0562625,-0.0660674,0.0144805,0.050746,-0.050613,0.00022486,0.0929026,-0.0800355,0.101286,-0.0521093,0.0219735,-0.00163602,0.0763018,-0.0700751,-0.0874252,-0.0411617,-0.0962898,-0.0746488,0.0775793,-0.00428666,-0.0642681,-0.104928,-0.0820551,-0.0286922,0.0228326,-0.0171063,0.0179591,-0.111953,0.0266354,0.00081044,0.0195538,0.0298336,0.00247992,0.000359858,0.076223,-0.0588148,-0.0697815,0.0589457,-0.0919545,-0.0615227,0.0414281,-0.0104078,-0.0838618,-0.0780005,0.0124199,-0.0780292,-0.047486,0.0203047,0.0298906,0.0407892,0.0770173,0.0212422,0.0242247,0.0952524,0.0184086,-0.0864925,0.108286,0.0914515,-0.0102826,-0.000709117,0.0670555,0.045295,0.119206,-0.0523077,-0.0760224,0.0521163,0.0337919,-0.0838637,-0.0207401,-0.0867554,0.0880406,-0.00733552,0.0986999,-0.0923328,0.0312107,0.0182052,-0.00161168,-0.044919,0.00125006,0.0383963,-0.109774,0.00235141,0.0939454,-0.0344256,0.0462282,0.029969,0.10567,-0.0623025,-0.0256361,-0.071929,-0.0612647,0.0501318,0.00978586,-0.0745241,-0.112469,-0.0802198,0.0675552,0.0130146,0.0028459,-0.0551254,0.107683,-0.101699,-0.0622564,-0.00741242,-0.0462552,0.07159,-0.0242757,-0.0280948,0.00484977,0.0618218,-0.089295,0.0795603,-0.107439,-0.0393832,-0.0214908,-0.0825867,-0.024517,-0.0405758,0.0273402,0.0974031,0.0308317,0.0233364,0.0457724,0.0146201,0.0971405,0.0584234,-0.0830919,0.0997071,0.0662138,-0.088476,-0.0728163,0.0833159,-0.0441338,0.0597611,0.0984788,0.0521527,-0.105873,-0.098898,0.0845629,0.0322578,-0.0628839,-0.0706269,-0.0981887,-0.0799978,-0.0590256,0.0627437,0.0774644,0.0173587,0.0712894,0.0187039,0.0433528,0.113802,0.0631925,-0.0542236,-0.0411549,-0.0520935,0.0402671,-0.119398,0.0754222,-0.088715,-0.0140175,0.0830795,0.0949869,-0.0304619,-0.098404,-0.0299823,0.0821125,-0.00972016,-0.103595,-0.00897089,0.05534,-0.088093,-0.0967605,0.0794847,0.0274373,-0.0361778,0.0285352,-0.0873096,0.0499424,-0.000210551,-0.0361096,0.0605277,-0.0466273,0.102653,0.0559841,-0.1025,0.0296141,-0.0853463,0.0381397,-0.0978884,-0.0494002,0.0870192,-0.0713723,0.0733313,0.0245058,0.0596421,0.0305662,-0.0655675,-0.103041,0.0206176,-0.0256745,-0.101024,0.0390392,0.00466305,0.00556686,-0.0552184,-0.103042,-0.0532838,0.088364,0.0424533,0.0306098,-0.120364,0.0350013,0.0767669,-0.0868326,0.0349894,-0.0262451,0.0527672,-0.0651341,-0.0334038,0.100535,-0.0296376,-0.0704007,-8.58489e-05,0.0585353,-0.0894307,-0.0715209,-0.0161156,0.0454242,0.1103,-0.0812022,0.0582754,-0.0348985,0.085088,-0.00507164,0.090515,0.0172751,-0.00345848,0.0340001,0.0790879,-0.00975354,-0.107904,-0.0430711,0.0393443,-0.0243574,-0.0175261,0.0224216,-0.0577044,-0.0980361,0.0465735,0.0207962,-0.0676987,-0.0419752,-0.0850517,-0.0895799,0.0777881,0.0127875,-0.0634793,-0.067971,-0.0228619,-0.0633032,0.0262511,-0.0119484,0.0735997,-0.0614522,-0.052489,0.0199946,-0.0977105,-0.0593438,-0.0144728,-0.0995689,-0.111644,-0.0200809,0.0412503,-0.0710269,0.0781523,-0.055277,0.00564674,0.058817,0.0730269,-0.113001,-0.00290774,0.108015,0.0522668,-0.0685728,-0.00968785,0.0583784,0.0328432,-0.0115796,-0.108276,0.0583631,0.120237,0.101554,0.0367598,-0.0387536,-0.0859772,-0.0991158,0.106237,-0.00500705,0.0382329,-0.000574798,0.104472,0.108156,-0.0932991,0.0944234,-0.0762045,-0.0603088,0.0501042,0.0800733,0.0589197,-0.0895264,-0.0251893,-0.083194,0.0914328,-0.00845614,-0.00417229,0.0776089,-0.107528,-0.013913,-0.0178811,-0.0514515,0.0682238,-0.0304535,-0.0186126,-0.102391,0.061786,0.107152,-0.026795,0.0696575,0.00555533,0.0885434,0.0883255,0.0351197,-0.0793512,-0.0997436,0.0430626,-0.0573474,0.0550103,0.0497439,-0.0459983,-0.0365375,0.00853242,-0.0149936,-0.00287032,-0.000718341,-0.0406907,0.0310041,0.0766981,-0.0303017,0.0847345,0.074893,0.0159472,-0.00239118,-0.0316773,0.00403575,0.0878413,0.0849976,-0.0866811,-0.00126984,-0.0379512,-0.0606122,0.0171127,-0.0757399,-0.0853467,0.120951,-0.0577119,-0.105077,-0.0509653,0.0595649,0.0650116,-0.026331,0.0663184,0.11045,-0.0811693,-0.094843,0.0731076,0.0593359,-0.0094603,-0.0810861,0.0588446,0.0661849,0.0923468,0.0299944,-0.00128484,-0.060332,0.0952269,-0.0535916,0.0409057,0.0207065,-0.0721316,-0.0032376,0.0964947,-0.0750696,-0.0290531,-0.0662932,0.0161364,0.0489425,0.0760105,0.0194049,0.0626228,-0.104761,0.0830042,-0.0112739,0.105623,0.0296698,0.0230048,0.0927012,-0.0567611,-0.109466,0.0735767,0.0825626,-0.0720724,-0.108821,-0.103488,0.0271068,0.0927429,0.034653,0.0794685,-0.0235065,0.0418362,-0.0533171,-0.072019,0.0355732,0.105621,-0.0726922,-0.0818151,0.107058,0.0207362,0.0803156,-0.058626,0.0528074,-0.0704934,-0.0586907,-0.0564489,0.0795737,0.0540754,0.0530257,-0.11799,-0.0648149,0.0643978,-0.0586419,-0.0579364,0.050563,-0.0190172
-0.0425877,-0.0133285,-0.0520445,0.0497185,0.039354,-0.0923055,0.0492234,-0.0477629,-0.0534361,-0.0591455,0.0843554,0.104084,0.0828197,0.0694731,-0.0665516,-0.0221346,-0.0169729,-0.0279493,0.000827895,0.0416988,0.0168203,-0.0338177,0.0324489,0.0322434,0.0196094,-0.0470509,-0.00730767,-0.072916,-0.100262,-0.00849899,-0.0876717,-0.0892518,-0.035423,-0.0125981,0.0542094,-0.0549116,-0.081129,-0.0116317,0.0193187,0.0670104,-0.00422678,0.0329472,-0.0496407,0.0627198,-0.0993227,0.00190535,0.0635007,0.0102543,0.068511,0.0871119,0.0427381,-0.0391425,0.0147825,-0.0925801,-0.0733649,0.0384441,0.0763539,-0.00773646,0.0854242,0.0112892,0.0568626,0.0112145,-0.0387513,-0.0158731,-0.063448,0.0845158,-0.0782299,-0.00213153,-0.0692864,0.0914353,0.0738183,-0.0265746,-0.0271506,0.0794555,0.0310757,0.042552,-0.105457,-0.0872247,0.0284904,0.0730873,-0.0377923,-0.0152075,0.047078,-0.0874907,0.0945957,-0.0706021,0.101971,-0.0597384,-0.0194665,0.0158044,0.0485138,0.00370542,-0.0433619,-0.0735066,0.0168077,-0.0557113,-0.0613313,0.0854137,0.0996273,-0.0377883,0.0475264,0.0224704,-0.026312,-0.105979,-0.0347932,0.0713327,-0.0473047,-0.0494347,0.0996738,0.040333,-0.00888654,0.0218583,0.100022,0.0691007,-0.0396681,-0.0729936,-0.044694,0.0282395,0.0288257,-0.108325,-0.0979166,0.00229655,0.115305,0.0472117,0.0291152,0.0716886,-0.0183252,0.0883687,-0.0235848,-0.0967118,-0.0601277,0.0975587,-0.0417325,-0.0364247,-0.00631353,-0.0873754,0.00458229,-0.063001,0.00402845,0.080703,-0.0679984,-0.011341,0.0952312,-0.0421699,-0.0329859,0.0314707,-0.0894707,-0.0166398,0.0887269,-0.053205,0.0934157,-0.0928863,0.00378364,-0.0541136,-0.0027959,-0.0209948,-0.0114729,0.076891,-0.110407,-0.0483789,-0.0908227,0.0180675,-0.0067604,0.0324603,-0.011756,-0.064279,-0.00858889,-0.0552074,0.0484267,-0.060127,0.0719181,-0.106403,0.056376,0.0651014,-0.0799096,0.074972,0.00172613,-0.0882102,0.0347166,-0.0158056,0.0673899,0.0557752,0.10682,0.0109064,-0.102802,-0.107252,0.044851,-0.0719905,0.0899043,-0.0326973,0.0646016,0.0459018,0.0266472,0.084335,0.0372602,0.106483,-0.0929955,-0.0553164,-0.0383144,0.0238377,0.0796484,-0.0823812,0.0529839,-0.0604102,-0.028769,-0.0251395,0.0151756,-0.101411,-0.00252698,0.0649267,-0.0528573,-0.0120375,0.063671,0.0286372,-0.0738687,0.0492495,0.0066203,0.0811028,0.0993511,0.085068,-0.0883868,-0.0337537,-0.0253294,0.0783884,-0.101339,-0.0495457,-0.0875094,-0.087544,-0.0796336,0.0122273,-0.0828857,0.0785643,0.0485039,-0.0226533,0.10194,-0.00235508,0.0964773,0.0208145,0.101598,0.0661715,0.107641,0.00355913,-0.0409435,-0.012456,-0.024575,-0.0121815,0.0571489,-0.0826541,0.0294012,0.0197202,0.0573285,-0.00298394,0.0711024,-0.0937152,-0.0272841,-0.0921858,-0.0577789,-0.0197297,-0.0607273,-0.0705903,0.0146419,0.0194627,0.00730169,-0.0553362,-0.0595475,0.0707364,0.0543754,0.0458041,0.0080039,-0.0406053,-0.0414429,0.0412918,0.0834342,0.0940663,-0.0596866,-0.0593114,0.0427476,-0.100389,-0.0933267,-0.0649516,0.0314741,-0.0756357,-0.0671115,-0.0613738,-0.106057,-0.0604782,0.0878125,0.086863,-0.0393642,0.0400095,-0.0564446,0.0734982,-0.0334445,0.000437852,0.0729107,0.066437,-0.0908671,0.0878531,-0.0498411,0.0152947,0.00909183,0.0865271,0.0321085,-0.0959323,-0.0125736,0.0158706,0.0695484,0.0257962,-0.0536419,-0.0085925,0.0274247,0.0255717,-0.0396192,-0.0714407,-0.0830013,-0.031596,-0.0674945,0.0623271,0.0424325,-0.0836572,-0.0182776,0.0153665,-0.0510706,-0.0681097,-0.0817024,0.0441557,-0.0364807,-0.0464668,0.0969953,-0.0663733,-0.0691642,-0.0573893,0.108791,0.056182,0.0456351,0.0557083,-0.0595153,-0.0217506,-0.0781436,-0.0997144,0.0563186,0.0959275,0.0302955,0.0275628,0.00510928,0.102255,0.0441195,-0.011776,-0.0409793,0.038578,0.0278783,0.0663091,-0.102052,0.0304774,-0.087673,-0.00920406,-0.0277832,-0.043392,-0.0853905,0.0894726,0.00138588,0.0432246,-0.0254986,0.0272303,-0.00251217,-0.0320234,-0.0355377,0.0446342,-0.0232075,-0.105267,-0.0504715,-0.00646737,-0.0832055,-0.075952,0.0127318,-0.0729704,0.0565486,-0.0687568,0.0693644,-0.091136,0.0853975,0.0162617,0.0988175,0.047589,0.0589218,0.0670598,-0.0956675,0.0509947,-0.0539271,0.113474,-0.0959084,-0.0122205,0.039318,0.0626538,-0.00868121,0.103336,0.0175152,0.0123221,-0.0362896,-0.0523472,0.016909,-0.00791917,-0.0908379,0.0399572,0.100426,-0.0233849,0.0749223,0.102044,0.101768,-0.0827404,-0.0138032,0.0328111,0.0265521,0.107738,-0.0133823,-0.101953,-0.0970922,0.0979595,-0.0141511,0.0804309,-0.0911478,-0.0876107,-0.031236,-0.0605875,-0.0789051,0.0898661,0.031579,-0.0874177,0.00650035,-0.082935,0.053012,-0.05409,-0.0892836,-0.0490531,-0.0103176,0.0245905,-0.00696164,0.0126856,-0.102849,-0.0804228,-0.10233,-0.0670117,-0.107926,0.0638895,-0.0158614,-0.0285499,0.06752,0.0685172,0.0259605,-0.035399,-0.00348685,-0.0890995,0.0860615,0.0207211,-0.0256473,-0.0221057,0.0777996,0.000492255,0.0853625,-0.0407707,0.0355714,-0.00545646,-0.0614837,-0.0319186,0.00910486,0.040275,0.0231341,-0.0172942,0.073208,-0.106951,-0.103432,0.103574,0.0787453,0.0560866,-0.0511216,-0.0347555,-0.0956229,0.0706614,0.101288,-0.00869729,0.0165373,0.0870092,0.10208,-0.0110447,0.072188,0.0178347,0.0974741,-0.0883889,0.0781351,0.0355773,-0.081763,-0.00777142,-0.0797804,-0.0203799,-0.045566,-0.0802709,0.0896705,0.0226701,-0.0935955,-0.0293799,-0.0806097,-0.063608,0.0237714,0.0385608,-0.0350024,0.0468347,-0.102279,-0.0342522,-0.00188688,-0.0326605,-0.054984,-0.00450193
0.00963142,-0.070674,-0.0473601,-0.0981698,0.0558294,-0.0790148,0.0658095,0.112225,0.00499202,0.107866,0.0122683,0.0555768,0.0186111,0.0657148,-0.0393197,0.0916847,-0.00475317,0.0678734,0.0994786,0.0505835,0.0286102,0.0659606,0.0119647,0.100234,0.0962324,0.0463,0.0313369,0.0735377,0.100922,0.00402649,-0.0277307,0.0600203,0.0745497,-0.0821949,-0.0627162,0.0448799,-0.0159163,0.103898,-0.0774197,-0.032385,-0.0389952,-0.0393773,-0.0437635,-0.0844641,-0.0274874,-0.0942109,-0.0488901,-0.0473687,0.0552786,-0.0323247,-0.0600459,0.0117599,-0.0676834,-0.0336578,-0.0859008,-0.0386659,-0.0836999,0.0615124,0.0458333,0.0850654,-0.0638447,0.048392,0.0816795,0.0120419,0.0106355,0.116152,-0.042194,0.101672,0.0657154,-0.0651377,-0.05702,-0.0648983,0.0845739,0.0660861,0.0239346,-0.00589724,-0.0042639,0.0247103,-0.0757019,-0.0248115,0.0511884,0.0159452,-0.0236083,-0.056143,-0.0977473,0.0437333,0.00266655,-0.051055,0.0230797,-0.0626004,-0.0217851,0.0512067,0.0434001,0.0721738,-0.0203333,-0.0554707,0.0982208,0.108385,-0.0645962,0.00642735,0.00113,-0.0283618,-0.0190142,-0.0741914,-0.0824009,-0.0328355,0.100342,0.0480235,0.055846,-0.0318427,-0.0412178,-0.030982,0.0513714,-0.0830552,-0.0745826,0.0842714,0.100929,0.00888615,-0.0659319,-0.0817426,0.0789995,-0.0395641,-0.0554856,-0.0652104,-0.00412163,0.100106,-0.10443,0.0523966,0.0496483,0.0657249,0.094972,0.0327091,-0.0491249,0.062225,-0.0453022,-0.014208,-0.0818075,0.0683074,-0.0291312,-0.0131358,-0.00378748,0.00664297,-0.0769543,-0.0922318,-0.0841057,0.133021,0.0315975,-0.0579327,0.0147189,-0.112063,0.0974179,-0.0579828,-0.100791,0.0615745,-0.00348183,-0.0105766,0.0558433,0.105759,-0.0293818,0.0356651,-0.0715577,0.0729426,0.0629711,0.0543803,0.0690227,0.0633448,-0.0161058,0.0648792,-0.0930435,0.0586012,-0.0618316,-0.0726514,-0.0281307,0.0958375,-0.0821251,0.0653275,0.0846464,-0.0303957,-0.0303504,0.0653536,-0.0667695,0.0988755,-0.0719099,-0.0787876,0.101244,0.0225076,0.00405513,-0.027433,0.0816452,-0.00251901,-0.00107726,0.0799437,0.0297965,-0.00974297,-0.0970135,0.106716,0.082017,-0.0840599,-0.0828492,0.0136728,-0.0330577,-0.0619983,-0.0491155,0.09944,-0.0384353,-0.0706656,0.0194282,0.0970415,-0.0109083,0.0726092,0.0569078,-0.0432704,0.0632986,-0.00193063,0.0861955,0.120605,0.000403771,0.029756,0.0186988,-0.0976654,0.0771804,-0.0489359,-0.0938852,0.0854588,0.0373772,-0.123814,-0.0960466,-0.145547,-0.013114,0.106311,-0.0521616,-0.0302723,0.0878775,0.0609172,-0.00688979,0.01323,0.109085,0.0564277,-0.0885542,0.00956715,-0.0469086,0.0333285,0.0847522,-0.0861533,0.107021,0.0586053,-0.062922,0.0711745,-0.00470158,-0.0863332,0.100294,-0.0564296,0.106748,0.0878157,0.0627617,0.0218061,-0.0805184,0.0715361,-0.0536783,-0.00771128,0.0810223,-0.0122177,-0.017755,-0.0332353,0.0586723,-0.0355721,0.026562,-0.0312848,-0.0521684,0.0913922,-0.0141239,0.107465,-0.0601727,-0.0731535,-0.0572072,-0.0359667,0.0953543,0.0590791,0.0773916,0.0390037,-0.0430928,0.0112014,0.0029403,0.0766707,-0.00607829,-0.0546428,0.0583002,0.0108995,0.0142217,0.0237018,0.0533486,0.0203669,-0.00754606,0.0460285,0.0129432,0.0182293,-0.0110204,-0.0880873,0.0474164,-0.0889642,0.0379997,-0.0691151,-0.0214718,0.100906,-0.066454,-0.0572988,0.0943454,0.00335484,0.0567582,0.0758197,0.0750939,-0.0280632,-0.0657686,0.0570282,-0.0960252,0.106579,0.0757486,0.0654849,-0.0857408,-0.0531444,0.104404,0.0403471,-0.0469083,-0.107862,-0.103299,-0.0263062,-0.0471669,0.0375388,-0.0903764,0.101021,-0.00303415,0.0328206,-0.0174064,0.00291646,-0.0669199,0.105386,-0.0166965,-0.0498126,0.104736,0.0733967,-0.0657165,-0.0788563,-0.0127308,0.0588586,-0.0887968,0.136565,0.00630191,-0.111082,0.100278,0.0870836,-0.0246545,0.101914,-0.0376932,0.0138462,0.0028569,-0.0461773,0.0991592,-0.107905,-0.110128,-0.0712861,-0.0535706,0.0358133,0.0148167,0.0651045,-0.0521983,0.0972267,0.0535152,0.0621154,0.0843254,0.0502457,0.00231845,0.069909,0.0613473,-0.0937324,-0.10039,-0.00152513,0.0706949,-0.104087,0.0728362,0.00919786,0.0465301,0.0167201,0.0435181,0.0424238,0.0994837,0.0870191,0.0859756,0.0159706,-0.0904636,0.0467929,-0.0858665,-0.0771985,-0.0364731,0.0991329,0.0656817,-0.0322903,-0.0882447,0.0316915,-0.0490674,-0.0485923,0.0868031,0.0828113,-0.0298719,0.045122,0.075175,0.0778395,0.0319772,0.0831387,0.0747979,0.00887595,0.0177093,-0.0173275,0.108794,0.0295976,-0.10295,-0.0827109,-0.0570173,-0.0800632,-0.0485038,-0.0422831,0.0125766,-0.0985005,0.0290036,0.0666058,-0.0338722,0.111874,-0.0826899,0.0681709,-0.0717155,0.015234,0.0502318,-0.0474456,0.0833266,-0.00306759,-0.0936256,0.0385995,-0.0761179,0.0381633,0.0791262,0.108027,-0.0230228,-0.0841039,-0.0492661,0.0358977,0.104878,0.0412479,0.060952,-0.0283656,-0.0195504,-0.0855383,0.0553814,0.0640176,0.0135073,-0.102012,-0.0781296,0.0603914,-0.0642352,0.00718856,0.0697338,-0.0317525,0.0734434,-0.098813,-0.10424,-0.124407,0.0570839,0.0549037,-0.0859623,-0.0351772,0.00421187,0.0491672,-0.0907804,0.0692933,0.0125259,0.0285615,-0.0865331,0.100708,0.083387,-0.0325674,0.0571451,-0.102749,0.0655534,-0.040654,0.102861,-0.0670462,0.0523566,0.0166145,-0.0135652,0.081215,0.0849326,-0.0202712,0.00562168,-0.0198578,-0.11038,0.00861903,-0.00819215,-0.0896007,-0.0583864,-0.113687,-0.00998213,-0.0965964,-0.0300013,-0.0478918,-0.0160784,-0.0521339,-0.10789,0.0699874,0.0476364,0.060397,-0.0764515,0.0496649,-0.0722814,0.0725452
-0.00931976,-0.114521,0.0861296,0.0598494,0.0152818,-0.017257,-0.0808682,-0.0691992,-0.0161636,-0.100769,0.0869662,0.0380629,-0.014779,0.0355699,0.0339541,-0.0948024,0.0104072,0.0428999,0.00733174,-0.0128022,0.0602216,-0.0620203,-0.0948534,0.022925,0.00777548,0.0178923,-0.0846664,-0.0804575,-0.0526093,-0.050165,0.101903,0.0171105,-0.0280416,0.048069,0.0621399,0.0115773,-0.0731683,0.0100004,0.0150365,-0.0586833,0.0110777,0.0589607,-0.0344113,-0.0572515,0.0888157,-0.0429411,0.106213,-0.0443696,-0.0732315,-0.0118165,0.0595148,0.0845217,0.0512955,0.0607154,-0.0329547,0.0117424,-0.0257473,0.00167928,0.105026,-0.0678506,-0.0468572,-0.0951935,0.0514206,0.0567337,-0.120956,0.0307768,-0.0113748,-0.0678904,0.0511305,0.104368,-0.0758242,-0.0324573,0.0525201,0.00704558,-0.0814457,0.0578332,-0.0147479,0.0580658,0.0148558,-0.0975943,0.0185566,0.0226279,-0.0614073,0.0851004,0.0517524,0.0052966,-0.0316842,0.0922547,0.104325,0.0194734,-0.0028409,-0.0120018,0.0149883,-0.0274834,-0.0873304,-0.104473,-0.0275993,-0.0803783,-0.0426405,0.0880779,-0.0317926,-0.0201976,0.088554,-0.0659189,-4.11231e-05,-0.0242359,-0.0325249,0.0569472,0.05889,-0.0783037,-0.0872147,0.0110986,0.0536948,0.050099,-0.0907092,0.0818481,-0.043715,0.0243514,0.0521773,0.0854839,-0.103621,0.0653214,-0.00133453,0.0345907,0.0845165,0.00672181,-0.0690436,-0.0158625,-0.0321317,0.0985,-0.114614,-0.0148576,-0.0566532,-0.0203441,0.0979177,-0.0653081,-0.0288148,-0.0283726,0.064506,-0.0960559,-0.0592162,0.0893807,0.0384231,-0.0988567,0.0639084,-0.0706148,-0.0953955,-0.00283803,0.0615973,-0.0121292,-0.0772394,0.0392799,-0.00213882,-0.0680061,-0.0600057,-0.054699,0.115122,0.00504283,-0.0539693,0.0931601,0.0222018,0.0267981,0.10879,0.0104138,0.106515,0.0861117,0.0434643,0.0836781,0.0647911,0.0915999,0.00747432,0.00570601,0.024907,0.0658172,-0.0395399,0.0160224,-0.0957718,0.0439623,-0.0296116,0.0635498,-0.110244,0.0133318,-0.0782293,-0.0599295,0.0187507,-0.0240417,0.00905146,0.0588727,0.0828273,-0.0967566,-0.0739855,0.047511,-0.0943434,-0.105333,0.0180621,0.0444679,-0.0499516,0.0737313,-0.017481,-0.0266471,0.0778688,-0.0889529,-0.0303071,0.101823,-0.0980712,-0.00590581,0.0157058,0.048098,-0.0713289,-0.00918973,-0.0190348,-0.014081,-0.103484,0.00157513,-0.0387255,-0.0190157,-0.0278519,-0.0273965,0.0542886,-0.058729,-0.0782066,-0.102834,-0.0849681,0.0894429,-0.0871601,-0.0218699,-0.0655309,0.0123723,0.046726,-0.0109619,-0.00870608,0.0996958,-0.0329078,0.0584634,-0.0583802,0.0879971,0.0415209,-0.0969837,-0.0560892,-0.0789507,-0.112894,0.0367388,0.0277106,-0.0488826,0.0716404,-0.0345609,0.0965469,-0.0282189,0.0848252,0.0265536,0.0507489,-0.0442208,0.0956847,0.0956102,0.0820693,-0.0209966,-0.0908614,-0.0367395,-0.0928011,-0.112682,0.100784,0.0362087,-0.0530956,-0.0555935,-0.0096254,0.0396975,0.0928607,0.0033581,0.00134802,0.00851725,0.0818138,0.0987372,-0.100807,-0.0905882,-0.038712,-0.0516457,0.0276659,0.0561875,-0.0108018,-0.0400467,-0.0970896,-0.0435289,-0.00253419,0.0250154,0.00835725,-0.0397919,0.0216288,0.0208021,0.0574925,-0.0642495,0.085044,0.0446947,-0.10591,0.100238,-0.0927496,0.04152,-0.0994454,0.0174563,0.0575287,0.0805636,0.0206694,0.0758565,0.0588922,-0.120112,0.0818703,-0.10095,0.0830616,-0.00924222,-0.0165486,-0.00705447,0.0681926,0.0860356,0.0566986,0.00347764,-0.111233,0.063768,0.0748391,0.0694486,0.0748247,-0.0106963,0.0508937,0.0913538,-0.040954,-0.00996272,0.0675047,-0.0538797,0.0312554,-0.0998654,0.0574519,-0.074631,-0.109074,0.00456192,-0.0938818,0.0309096,-0.00192519,0.0895077,-0.0666372,-0.0844454,-0.00295738,0.107941,0.00715342,-0.0661464,0.0857052,0.0601771,-0.0439582,-0.0917626,0.0102573,0.104598,0.0228605,0.0833909,0.0549392,-0.048726,0.0590969,0.0490991,0.0746273,0.0888728,0.107266,-0.0156812,-0.12721,0.0302932,0.106235,-0.0435405,-0.102204,0.0156237,0.071058,-0.00211176,-0.023251,-0.0185676,-0.0689435,0.0968738,-0.0575812,-0.0719066,-0.0088417,0.00659903,0.0681694,0.084319,0.0131891,-0.0872476,0.0464169,0.0420844,0.00767802,0.00984287,0.0974361,-0.0356943,-0.0815399,-0.0239043,-0.0320391,0.0830369,0.0911202,-0.0576442,0.0853293,0.0685013,-0.0513141,-0.0102785,-0.0402037,0.04798,0.0636718,0.0650392,0.0672881,0.0296767,-0.0715034,-0.0444761,-0.0411649,-0.110713,0.0276792,-0.0609954,-0.0574173,-0.0263047,0.071143,0.0015046,0.0619342,0.0225573,0.0785807,-0.0391833,0.0741673,0.0423092,0.0913425,0.0150546,0.0304005,0.0958513,0.0151091,-0.00690747,-0.0407446,0.0573705,-0.0083291,-0.0820948,0.0343455,-0.084546,-0.068013,-0.128465,0.0672261,0.0552472,-0.0487742,0.0313362,-0.040944,0.100196,0.0107957,-0.0593969,-0.0144632,0.0308511,0.0811674,0.111044,0.0511414,-0.0151907,0.0697823,-0.0815927,0.0938026,-0.0441557,-0.0243968,0.0531351,-0.104328,-0.0200225,-0.0388978,0.0150085,0.0189416,0.0361615,-0.0362364,-0.0817503,-0.072948,0.0216787,-0.073618,0.0881772,-0.0209919,0.0380684,0.0577489,0.0228629,0.0334247,-0.0401254,0.0472635,-0.0846455,0.101714,0.0490369,-0.0429229,0.0826797,-0.0608341,-0.0232532,-0.0748589,-0.0712726,-0.00658049,0.0676005,0.103567,-0.0937309,0.0175318,0.0517831,0.0895401,-0.0642119,0.0542251,0.0380381,-0.0638127,0.0706545,0.0627978,-0.0184021,0.0764552,-0.0277457,0.0865143,0.0309412,-0.0240856,-0.0247586,-0.086668,0.031232,0.0526924,0.0326929,0.0203567,-0.059268,-0.000483889,-0.0625971,0.00520329,-0.0476319,0.0630816,-0.0222898,-0.0052805,-0.0103933
-0.0637604,0.083494,0.0121062,0.0986744,-0.0411422,0.108889,-0.0925505,0.00502885,0.0828196,-0.0389995,0.0575835,0.0434911,0.0154342,0.085381,0.0744123,0.0874093,-0.0528763,-0.0776968,0.053924,-0.0389636,-0.0865512,-0.0829028,0.0141935,-0.0212724,0.0653493,-0.0731792,0.0568047,-0.0961909,-0.0772871,-0.0776473,-0.0851321,0.0764093,-0.00793127,0.0788413,-0.044336,-0.0724866,0.0332076,-0.0592198,-0.0714408,-0.0422256,-0.0685702,-0.00945602,-0.0612665,0.025572,0.0933906,-0.107448,-0.0327845,-0.0618893,-0.0485727,-0.0399193,0.0421276,0.111238,0.0644196,-0.0852632,0.00179265,0.0739353,-0.0657829,0.0204423,-0.10133,0.0510365,0.00905245,-0.0109384,0.0206845,-0.0341267,0.0362145,-0.0403769,0.0842856,-0.017889,0.0253931,0.0332241,0.0697636,-0.00949496,0.00908751,0.0401345,-0.106965,-0.0470689,0.0258753,0.0270636,0.0326337,0.0807792,0.0133368,0.0908463,0.00311691,-0.0235242,-0.0335664,0.0391749,0.0470973,-0.0533037,0.105554,0.00867966,0.0613776,-0.0735612,0.0798575,-0.06154,0.0864143,0.0487175,-0.0969553,0.0716925,0.088871,0.0930396,0.0886867,-0.0881671,-0.0961794,0.0793706,0.104914,0.00187701,0.0316607,0.017485,0.054051,0.0390867,0.0847079,-0.0842908,0.109824,0.00430865,0.038554,0.0861524,0.00584973,0.0404595,0.0519099,0.111899,0.0245826,0.0129427,-0.0803591,-0.0358572,0.063558,0.101248,0.0909577,-0.0446558,0.0216535,0.00822853,0.0418077,0.05992,0.0162386,0.00884131,-0.0832185,-0.0847735,-0.0185824,-0.0737366,-0.0115006,0.0558632,0.118611,-0.0958662,0.10397,0.0119473,-0.0971463,0.0193915,0.0687551,-0.0805732,0.102477,0.0855872,-0.0176809,0.0946876,0.0980976,-0.0182185,0.0859869,-0.0708166,0.112431,0.101183,0.0439372,-0.0647717,-0.0135734,-0.067803,0.00513313,-0.0547315,-0.0179977,0.0288085,0.0922358,0.0756644,-0.0906595,-0.080463,-0.017491,-0.1111,-0.0874581,-0.0687286,-0.0798011,0.0765253,0.0386175,-0.0543368,0.076137,-0.00235523,-0.0159381,-0.0299182,0.00155547,0.0313225,-0.099485,0.010347,-0.00882568,-0.0953133,-0.06718,-0.0596429,-0.056585,-0.0391103,0.0278509,-0.0649946,0.0748644,0.0508147,-0.0380296,-0.0210943,0.101584,-0.0291061,-0.00821968,0.0111562,0.100535,-0.0944236,-0.104899,0.0701655,-0.0493716,0.0498229,-0.0201624,2.8316e-05,0.100539,-0.0949309,0.0595072,-0.116673,-0.0490121,-0.0228619,0.0758461,-0.0938418,0.0589604,-0.0145574,0.0644512,0.0759698,0.0947555,-0.024035,0.0100124,0.0369267,-0.0217243,0.0925994,0.0740771,0.0387683,0.0756398,-0.0396423,-0.00499914,-0.0647756,-0.0515784,-0.0981356,-0.0417365,0.0408083,-0.00892982,0.0292223,-0.0510029,0.0357547,-0.0375878,-0.101267,-0.0680517,0.0991391,0.0769397,0.0525639,0.0141776,-0.103363,-0.0728907,-0.0843746,-0.0838346,-0.111072,-0.0968608,0.0396296,-0.0105012,0.0971679,-0.101785,0.00942518,0.00566021,0.0935888,-0.0233291,0.0427928,-0.04432,-0.0887876,-0.0145849,-0.019571,0.0730721,-0.0257511,0.0107368,0.0486403,-0.00445441,0.0467637,-0.0388808,0.062267,0.0597143,-0.101518,-0.01185,0.00458597,-0.0631499,0.0823763,-0.0608802,-0.0680073,-0.0819393,0.00059088,-0.0877536,-0.0452473,0.0440387,-0.0719505,-0.00687363,-0.0452908,0.0551745,-0.0916057,0.0859205,-0.0671066,-0.0986616,0.00532263,0.0349287,0.0321637,-0.0242775,0.04137,-0.0167455,-0.020143,0.032432,0.0582974,-0.0069356,-0.0211346,-0.102788,-0.0813504,0.0664207,-0.104494,-0.0400898,-0.0382013,-0.0595421,-0.00142269,0.00634417,0.0700628,-0.0034576,-0.0831123,0.105296,-0.0744274,-0.0813642,-0.0377983,-0.0454873,0.101645,0.0231658,-0.0801835,-0.0795616,-0.0346306,0.0308611,-0.0614154,0.0541035,-0.0983823,-0.0718523,0.0773866,0.0380541,-0.0785473,-0.0479702,-0.0389417,-0.10347,0.0387935,0.0920922,-0.0671337,-0.00330964,0.0114002,0.0520532,-0.0254025,0.103687,-0.0879782,0.0370632,0.0138851,0.0992733,-0.0186539,-0.0396698,-0.0471471,-0.0828401,-0.0844163,0.0713814,0.0639379,0.0201888,-0.0495502,-0.0326581,-0.0716243,0.0844063,0.0668364,-0.00967332,0.00702058,-0.0751915,0.115648,-0.00417688,-0.0129616,0.00744985,0.0208995,0.108739,0.0745838,-0.0188093,0.0120441,0.00291018,-0.0587418,0.102588,0.102222,-0.00270748,-0.0427885,-0.0725563,0.0706182,-0.0261499,0.0156783,0.00336982,-0.108991,0.102455,-0.1142,0.0585488,0.0668834,-0.0330735,-0.0375655,0.0896104,0.0428401,0.0833006,-0.0396558,0.0449436,0.039902,-0.0757133,-0.0134859,0.00919386,0.106013,0.100701,0.0545957,-0.105884,-0.0242535,-0.00304108,-0.0758684,-0.0924227,0.0306668,-0.0224073,0.0457256,0.0752888,0.022221,0.02597,0.0970962,-0.00759132,-0.100872,-0.00820261,0.096989,0.0333923,-0.0768496,-0.070581,0.0327222,-0.00207907,-0.0409869,-0.0876929,0.0502801,-0.0949803,-0.0201617,0.0352864,-0.0852841,-0.00938183,0.102116,0.0323838,0.0182441,0.0120229,0.0532047,0.0129775,-0.0791338,-0.0430604,-0.0988978,-0.0298422,0.097548,-0.0896641,-0.0552656,0.0763153,0.101546,-0.0730897,-0.0577009,-0.0751767,0.0125496,0.0697662,0.0578355,-0.103691,0.0248944,-0.0414991,-0.0415665,-0.0883877,-0.0471467,-0.0328313,0.0481345,0.000119513,0.0154735,-0.0567422,0.00748015,-0.0400547,0.120037,-0.0139906,-0.0784826,-0.0473396,0.00640457,-0.0368872,0.101714,0.0113537,0.0919258,0.00417382,-0.0358848,-0.0745495,-0.00930811,0.000670999,-0.0643359,-0.118156,-0.102278,-0.00441139,0.0761311,0.00385424,-0.013722,0.0151774,0.0770043,0.0532559,0.043915,0.109053,0.0484622,0.0742994,-0.0690665,-0.0280195,-0.0624094,-0.0468982,-0.0741082,0.0533946,-0.102999,-0.0223971,0.103567,-0.0684523,0.0589226,0.0295834,-0.10623
0.081818,-0.113279,0.0971916,-0.073813,0.0764886,-0.0440984,-0.0816934,-0.0702321,0.00619185,0.0370859,0.0019587,-0.0370786,0.0960359,-0.045092,-0.0127092,-0.0190503,0.11334,-0.066901,0.00986146,0.0033937,0.107865,0.0968357,-0.0531835,0.0281692,0.00647405,0.0212662,0.0876738,-0.0581382,0.0578018,0.0752304,-0.0739779,-0.0557676,0.109096,0.0508645,-0.0807591,-0.0516555,0.000581586,0.037743,-0.00934606,-0.0451097,0.070162,0.0167821,0.0254139,-0.0356652,-0.0818371,0.0132881,0.10741,0.00878524,-0.0581374,-0.0632172,-0.0510473,-0.0361734,-0.0339726,0.0204731,-0.0920902,0.0490713,-0.0877705,-0.0537785,0.107514,-0.0564948,0.0950264,-0.0901578,-0.0788573,-0.00648332,0.0637068,-0.0874974,0.0857658,0.0220401,0.0946742,0.00775934,-0.0600106,0.0391715,-0.0919224,-0.0867249,0.0264671,0.0214429,-0.00409337,0.0798149,-0.0785582,0.0368924,0.00889766,0.031006,0.0235581,-0.0298733,0.0242837,-0.0122453,0.085047,0.0436288,0.0968126,-0.0652722,-0.0226475,-0.0751811,-0.0633458,-0.010502,-0.0660741,0.105686,-0.0634392,-0.0215394,0.0131429,0.0658096,0.0768147,0.0275808,0.027649,0.0597304,-0.0739806,0.0882412,0.0750199,0.00620844,-0.0752061,-0.00306827,-0.0780869,-0.105027,-0.0325144,0.0206659,0.0996156,0.081245,0.0892339,-0.0132832,0.009758,-0.0719113,0.0990099,0.0618666,0.0923531,0.0996952,0.0270482,0.0607069,0.0547807,-0.0800605,0.051382,-0.0257027,-0.0304333,0.0370337,-0.0655198,-0.0632185,0.0123767,-0.0151042,0.10952,-0.0925695,0.0727261,0.0625283,-0.0502133,0.100144,0.0612043,-0.0534993,-0.0574812,-0.0651849,-0.101146,0.0403047,0.102705,-0.105962,0.0956866,0.0142825,-0.0447915,0.0398922,0.0771358,0.0359007,-0.0522621,0.0443535,-0.106495,0.0156542,0.00467639,-0.102987,0.0827004,-0.0722978,0.0325646,-0.00639698,-0.0555093,0.0169345,-0.0803255,0.0241648,-0.101059,-0.0287405,-0.0785712,0.0674654,0.0488096,-0.0793367,-0.0396948,-0.0195865,0.0983285,0.113521,0.0141468,0.0973466,-0.0245926,-0.029206,-0.0594475,-0.105251,0.0812976,0.0303926,0.0464891,0.0848642,-0.0964209,-0.0735841,0.0884601,-0.0646232,0.0144115,-0.0876594,-0.0338178,-0.0609866,0.0153585,0.0615516,-0.037771,0.0777507,0.0832344,0.0911213,0.0706289,-0.0828672,-0.0863672,0.104795,0.00276878,-0.0854553,0.060385,-0.109639,0.046909,-0.0153204,0.0464175,0.0224545,-0.00854543,-0.0765785,0.0698231,0.0275395,-0.0677526,-0.086812,-0.0937348,-0.0983368,0.0842645,0.0918748,-0.00774554,-0.0471478,0.122987,0.00497262,0.112114,-0.0235535,-0.0441901,0.0267533,-0.0427357,0.0465699,0.0732226,-0.0370519,0.0174964,-0.0763747,0.00461372,0.0294451,0.0326068,0.0325337,-0.0428127,0.0732578,0.0957476,-0.0869869,0.0367896,0.09303,-0.0726497,0.101652,0.00993108,0.0402047,0.0547631,-0.0888789,0.032124,0.0316749,0.0518296,0.0311746,-0.107226,-0.0274987,-0.0432918,-0.0489081,0.0472536,0.075976,-0.066451,0.0717679,-0.0218757,0.0894327,0.082126,-0.0323268,-0.0629416,-0.0527878,0.101515,-0.0987151,-0.0199459,0.0663752,-0.0813109,-0.0884416,0.0710814,0.00771612,0.0180914,0.0856392,-0.0476907,0.0411932,0.0805921,-0.0444749,0.0177114,0.0391463,-0.0463195,0.0691196,0.112968,-0.0397883,-0.110126,0.100654,0.0800179,0.0309411,-0.0272624,0.0995828,-0.0775677,-0.052571,-0.11054,-0.052231,0.00399701,-0.0570004,-0.0558495,-0.0249376,0.10353,-0.101881,-0.0919783,-0.0572561,-0.0313284,0.0526164,-0.0537547,-0.0504231,-0.0778278,0.0735046,0.111507,0.0593136,-0.086054,-0.105057,-0.0662584,0.00499206,0.00949653,-0.0155872,0.0779336,-0.113351,0.0375758,0.11386,-0.0375323,0.0333891,-0.0671977,0.0863072,0.0461297,-0.0322952,0.0552636,0.0568881,-0.064929,0.0845116,0.0729405,0.0222239,-0.0306638,0.0352975,-0.0989588,-0.0212488,-0.0321739,-0.0875332,-0.0931733,-0.0289737,0.0212016,-0.0714536,0.0298986,0.118254,-0.0973881,0.0592172,-0.0888794,-0.102877,0.0339699,0.0493387,-0.0767988,-0.0468975,0.0533646,0.0553985,-0.0527094,-0.00254058,0.102456,0.0775981,0.104573,0.0493319,0.0558333,0.0617245,-0.00155814,-0.0604726,-0.117313,0.058099,0.0810033,0.10489,-0.0675356,0.0733007,0.0467993,-0.0868887,-0.0574171,0.0983208,-0.0707317,0.0440538,-0.0888019,0.0174661,-0.0701331,0.0621698,-0.0141513,-0.0291755,-0.0769322,0.0116685,0.11181,0.096708,0.0328757,0.0151368,0.0983184,-0.0596168,-0.0529953,0.101926,-0.0535924,0.0934467,0.0230214,0.0376927,0.0563157,-0.0558858,-0.0943055,0.0235743,-0.0959551,0.067819,-0.0112439,-0.10531,0.0031898,-0.011391,0.00919618,-0.0700295,0.0688145,-0.103149,-0.0390323,0.068826,-0.083254,-0.0995252,0.0847855,-0.0896718,-0.0957293,0.0430409,-0.108015,0.0996425,-0.0376533,0.0403024,-0.09289,-0.0680806,0.0287644,0.077303,-0.0255756,0.0875394,-0.0796611,0.0359877,0.0622284,0.00996691,-0.0433511,-0.105036,-0.0891718,-0.0944996,-0.0764574,0.0947714,-0.00369141,-0.0599037,-0.0391101,0.0155989,0.0355313,0.0127592,-0.0878882,-0.0914212,0.000336224,0.0303397,0.00557425,0.0947587,0.00712914,0.101086,0.0614248,0.0684065,0.00550232,0.0478903,0.0840075,-0.0735705,0.0917584,0.104363,0.0432243,-0.0796153,-0.0259672,-0.0934033,-0.0297793,-0.0255299,-0.0603041,0.0303436,-0.0571623,-0.0826758,-0.0159474,-0.0270377,-0.0130106,0.0719502,0.10757,0.0929218,-0.0472632,-0.107357,-0.0685123,-0.0691033,0.0769317,-0.072675,-0.0560911,0.0240429,0.0660201,-0.0320875,-0.0245003,0.0823268,-0.0527184,0.0569237,0.0715885,-0.0864475,0.0252656,0.0359482,0.0833449,-0.0844909,0.0376508,0.000464699,0.0231556,-0.0425474,0.0511062,0.0274801
-0.0969386,0.0294397,-0.103004,0.089823,0.0244857,0.0647783,-0.105693,0.0975824,-0.0490965,0.0301256,-0.0576199,0.0712022,0.0612858,-0.0884528,0.057732,-0.0734807,-0.0083027,-0.0233137,0.020759,0.0272736,-0.00434519,0.0784952,0.0661214,-0.0915642,0.0354909,-0.0856368,0.00254755,0.0980524,0.0225531,-0.00334858,0.0416915,0.0280563,0.00711617,-0.0369789,0.0627724,-0.0767216,-0.0198207,-0.091842,0.114113,-0.0720269,-0.00966847,0.0997788,0.0103054,-0.0210814,-0.0751481,0.0520641,0.0919702,-0.0469266,0.0335354,-0.061645,0.0756477,-0.0477155,0.0480498,-0.0563125,0.0109796,0.0665194,0.0202136,-0.0238962,-0.0423987,-0.100566,0.0237556,0.0496661,-0.0570081,0.0817814,-0.0958906,-0.0877031,0.0265971,-0.065664,0.0373424,0.0787699,0.0833043,0.0760761,0.0473167,-0.0836343,0.0288759,0.0854577,0.000332259,-0.069988,-0.0852228,0.0161479,-0.0140729,-0.0331484,-0.0739101,-0.055849,-0.0672072,0.00282884,0.0619766,0.0233189,0.0682845,-0.0060733,-0.0818283,0.0724998,0.0181754,-0.0794214,0.0300055,-0.0193499,-0.0106784,-0.101986,0.071224,0.0100308,0.0592603,-0.0636425,0.0216156,0.044917,-0.00397299,-0.0950765,0.0340804,-0.00871375,0.0112704,0.0575116,-0.0308818,0.0153975,-0.0134501,0.0150036,-0.0177298,-0.0996217,-0.0875668,-0.0174553,-0.0838348,0.0808234,0.00801431,0.0854904,-0.0612365,0.0460635,0.0786636,0.107736,-0.0262781,0.0248936,-0.084582,0.0182699,-0.0516245,0.00136566,-0.00331666,-0.0460823,0.0411299,-0.0896783,-0.0830235,0.128227,0.0446168,0.0902851,0.0127367,0.103373,0.0422055,-0.00555918,-0.0299837,-0.112523,-0.0902177,-0.0183841,-0.0175007,0.0325904,0.0246661,0.0179274,-0.0391101,-0.00285738,-0.0110289,-0.0493253,-0.0723818,-0.00355316,-0.055866,0.0525709,-0.0393533,0.0889045,0.105216,0.083076,-0.0855278,0.0714819,0.0511722,0.00445652,-0.0650728,0.00529064,-0.0684422,0.0265762,0.0977916,0.0201806,0.0844397,0.0527563,-0.100085,-0.0265694,-0.0633736,0.0179633,0.0460453,-0.0278192,-0.112179,0.0308356,0.0146962,0.0283073,0.0585438,0.0245567,-0.0600129,0.0452053,0.0239296,0.00704349,0.0447607,-0.0565193,-0.055831,0.0458795,-0.0926853,-0.0425428,0.0466481,0.0648071,-0.113053,0.0115196,0.0348141,-0.0226552,-0.0379019,-0.0787122,0.0188141,0.0646632,-0.0232914,-0.0477355,0.0142109,-0.107275,-0.108994,-0.0105184,-0.038023,0.0609977,0.105195,0.067291,0.0637652,-0.0467602,-0.0485408,0.0788961,0.0526745,-0.0489387,-0.0836364,0.0942498,-0.0398274,-0.0972201,-0.0978793,-0.092941,0.0862982,-0.088673,0.0422304,0.0292805,-0.0981929,0.0748799,-0.0817574,-0.0138904,-0.00237124,0.00417679,0.0987684,0.0101046,0.0113247,0.0711701,-0.0230612,-0.0588491,0.0525624,0.0494028,0.103072,0.121518,0.0922532,0.0554935,-0.00988442,0.0230412,-0.032342,-0.0917391,-0.0552913,0.101895,0.0160842,-0.09095,0.0582514,0.0259693,0.0122302,-0.0809193,0.0888442,0.000640202,0.0351529,0.00472868,0.0740482,0.0761953,-0.0920804,0.0974529,0.0522679,0.0606551,0.009472,-0.041316,-0.0353497,-0.0489596,0.0587409,0.111415,-0.0726487,0.00328634,0.00565781,0.00863772,0.0394501,0.0970994,0.0541876,-0.0741555,-0.0955366,0.0548206,-0.00528329,0.0132927,0.105346,0.0471927,0.0671249,-0.0939827,0.0247265,-0.0144328,-0.0856913,-0.0750975,-0.0641391,0.100962,-0.0414357,-0.068913,-0.0578013,-0.068428,-0.0618523,-0.0888977,-0.0926031,0.0388786,-0.0122159,-0.0130298,0.055545,-0.00762763,0.0533118,0.00594456,0.0168932,-0.0949733,0.077458,0.0812679,-0.0511801,-0.0585228,-0.0236582,0.0959288,0.0385088,-0.0960874,-0.101923,0.0434896,-0.00634991,0.0331785,-0.0907747,-0.0475351,-0.00836279,-0.0875685,0.0151011,-0.0788265,0.0566614,0.00771698,-0.0710058,0.0921311,-0.0204168,0.0434808,-0.0711468,-0.109161,-0.0807769,-0.00813961,-0.101564,0.0172452,-0.0505846,-0.0157316,0.0639924,-0.081249,0.0444348,0.0612872,-0.10816,0.0205267,0.0477957,0.00887534,0.0145909,0.0568557,0.0605687,-0.0403865,-0.083418,-0.0430617,0.0926817,-0.0802394,0.0103218,0.0228732,-0.0778889,0.0962793,-0.0494928,-0.0238066,-0.0955506,-0.0355287,0.0665857,-0.0804052,-0.0612943,-0.0422968,-0.0934202,0.0630967,-0.0718335,0.0923664,0.026584,-0.0903956,0.00821674,-0.0707539,-0.0285735,-0.101179,-0.086093,-0.0163397,0.0150121,-0.0114002,0.0100836,-0.0359582,-0.0836805,-0.0744141,-0.0518524,-0.033108,-0.0705566,-0.0197913,0.0223421,-0.0204629,0.0803745,-0.0386092,-0.0936176,-0.101273,0.100076,0.104271,0.103319,-0.0795607,0.0566981,-0.0726633,-0.0977447,0.0700036,0.0449678,0.0188112,-0.0127069,0.0209813,-0.0158983,0.0125344,0.0660417,-0.0339662,-0.021302,0.0809116,-0.0958315,-0.0736724,-0.063758,0.077814,0.0402888,-0.0997617,-0.00779144,-0.073709,0.0626469,0.0590631,0.106433,0.10075,0.0831334,0.029613,-0.0483795,0.00666935,-0.109977,-0.0856007,0.0337858,-0.027749,-0.0661217,0.0780838,0.00489091,-0.0568812,0.0757677,0.0690949,-0.0484051,-0.00216196,0.0690774,-0.0859044,-0.0719518,0.0571788,0.054257,0.0377368,0.0527738,0.0337894,-0.00586431,-0.00184268,-0.0149127,0.0621914,0.0973304,0.0468809,0.00107374,-0.0963796,-0.0215924,0.113116,-0.0760654,0.101955,-0.0937623,-0.0554338,0.0985647,0.0439987,-0.0320461,0.10702,0.0689734,-0.0262459,0.0591828,0.0785599,0.0787916,-0.0595785,0.0681932,-0.0558988,0.089796,0.0672951,-0.037325,0.0329362,0.0937342,0.0943382,-0.05943,0.0579865,0.06699,-0.0941217,0.0808379,0.0985598,-0.097191,0.0648904,0.0366941,0.000480058,0.0953569,-0.0433932,0.0488446,0.0152801,0.00481815,0.00486503,0.0761736,-0.114255,0.077009,-0.0241865
0.070001,0.0916015,-0.105464,0.0819009,0.10475,0.0259024,-0.0818402,0.109973,0.107163,0.0842556,-0.0437835,-0.0663223,-0.0484171,-0.00173363,0.0987411,-0.0364636,0.0327172,-0.0599592,0.0907021,0.0331259,0.047453,0.019022,-0.0397905,-0.0803373,-0.0479844,0.114037,-0.0168577,-0.0138163,0.000139486,0.0443476,0.0173251,0.0813802,0.0788472,0.0673838,-0.0473155,-0.000276795,-0.105651,0.00244032,0.0560277,0.0658124,0.0376071,-0.0533794,0.0205018,0.0571708,-0.0940398,0.0944907,0.104779,-0.0401564,0.0345439,0.0611213,-0.00216994,0.0100631,-0.0648543,-0.00260644,-0.00633981,-0.0233559,-0.0846024,0.0410954,0.0205203,-0.0426099,-0.086209,0.0370056,-0.119853,-0.0370638,-0.0366485,-0.107914,0.0342496,0.0450361,0.0125141,-0.0262759,0.0317894,-0.0587839,0.0421877,-0.0639759,0.0694797,0.101912,0.0249899,0.10906,-0.0880588,0.078934,-0.0349612,0.0361576,0.029219,0.110648,-0.0694966,-0.0889305,-0.0922711,-0.0139095,-0.119364,0.0856841,0.0662103,-0.0368106,0.0147659,0.0154564,0.10768,-0.0746736,-0.0196952,0.0923617,0.05542,0.0410722,0.0402763,-0.0344777,-0.0726449,-0.0744475,0.0559588,0.00190583,-0.00585169,0.0739632,-0.0684924,-0.0863918,0.0315268,-0.0316925,0.0492857,-0.0233575,0.109422,-0.0370234,0.0405029,0.0720408,-0.104094,0.00717263,-0.0517782,0.077686,-0.0910411,0.00768551,0.0554293,0.0488321,0.0542913,-0.102715,-0.0636974,-0.0552917,0.0151295,0.0811143,0.0484676,-0.0782996,-0.115103,0.105096,0.0512482,0.0985171,0.0443571,-0.0162498,0.0085918,0.0422495,-0.0317289,-0.0357435,-0.108204,0.0150481,0.0571339,0.0112883,0.0993566,-0.0833807,0.0560411,0.0666994,-0.0725168,-0.0712294,0.0706669,-0.05855,-0.006438,-0.0901552,-0.043801,-0.0434857,0.00293641,-0.0264304,0.00903934,-0.065552,-0.00959501,0.0511981,-0.0865142,0.0753945,0.00267118,-0.0144237,-0.096371,-0.044147,0.0436159,-0.0312286,-0.00265661,-0.0908401,0.00577783,0.0190309,-0.0669407,-0.0359302,0.0779351,0.0803888,-0.00391953,-0.0002964,0.0593834,0.0159615,0.0363178,0.0834575,-0.00476479,-0.0282649,0.0317977,0.0326706,0.0189302,0.086744,0.0218367,-0.0196599,-0.0695461,0.0198756,-0.000799733,0.0646169,-0.00764833,-0.0038364,-0.078241,-0.0811715,0.0432,0.0266073,-0.0847571,-0.0300338,0.00307729,-0.0639448,-0.00803099,0.121441,0.0184111,0.0720181,-0.0525489,0.0410369,-0.0889756,0.00687536,0.0307471,-0.0621337,0.0532338,0.0921142,-0.0490863,0.0761968,0.0590698,0.10605,0.00446669,-0.11,0.0582167,-0.0915601,0.0836642,0.011544,0.0356885,0.0787562,-0.00321422,-0.0848353,-0.082596,0.0189897,-0.0691305,0.0350663,0.0630713,-0.0478863,0.041952,-0.0890324,0.0015766,0.0970844,-0.00156716,-0.0610907,0.00987104,0.0673911,0.00307933,0.0486195,0.0899729,0.0296026,-0.000200003,-0.0223296,-0.0131408,0.0732198,-0.0553633,0.0244101,-0.0135598,0.0129194,-0.00166296,-0.0658768,0.107893,-0.0671105,-0.0149239,0.075099,-0.0367016,0.0379696,-0.0585884,-0.0148185,-0.0326908,-0.0513785,-0.106401,-0.0683507,-0.057596,-0.0771296,-0.0421851,0.0820717,-0.0837932,-0.0824674,0.0712586,-0.0996865,-0.0149934,0.0363338,0.0540388,-0.142044,0.0796058,0.0595309,0.0964828,-0.000164329,-0.0199707,-0.0711297,-0.108809,0.0524316,-0.0667887,0.0528341,0.0935343,-0.0835392,0.0648355,0.0130051,-0.00282111,0.134226,0.0848921,-0.0475755,0.0140067,0.018609,-0.0973651,0.0647359,0.0295998,-0.0514134,0.04095,-0.114489,-0.0358224,0.0256448,-0.0966844,0.017869,-0.073642,-0.0322098,0.0265258,-0.0576464,0.0116259,0.0676692,0.0365349,0.082387,-0.0275478,0.00860216,-0.0575006,0.0797163,-0.101485,0.00387805,-0.0721351,-0.0951799,-0.0969105,-0.0317072,-0.100619,-0.0752231,-0.0467296,0.0397854,-0.0258088,0.0315239,0.0537394,0.00433843,-0.0270319,-0.016514,-0.106322,-0.0336109,0.0992872,0.00959488,0.0307747,-0.0943276,-0.0494678,-0.101864,0.0316335,0.0715436,0.00853077,-0.097312,0.0324766,0.0945705,0.0091458,-0.0734063,-0.0214608,0.0902248,-0.0422734,0.0299868,0.0590992,-0.0331975,0.00604353,0.0689689,-0.0237895,0.0545504,-0.0521618,-0.0361277,-0.07232,-0.0543102,-0.0389928,0.0281809,-0.0828325,-0.120044,-0.0352497,0.0732128,0.0584464,-0.0555051,0.0392696,0.0978369,0.0867736,0.0262413,0.0962611,-0.104775,0.0120703,0.0473443,0.0910318,-0.00088031,0.0212562,0.035354,-0.0117871,-0.104186,0.120035,-0.0407942,0.0573868,-0.00593971,0.0266397,0.0990102,0.0476602,0.0505694,-0.0372234,0.0228665,-0.0767637,-0.0172629,0.0633592,0.094866,0.0754226,0.00295272,-0.0642105,-0.053387,-0.055134,-0.0603752,0.0371432,-0.0314303,0.0763473,0.0866023,0.0145613,0.0890401,-0.062102,-0.096938,-0.00463223,-0.0630921,0.0570609,-0.0739096,0.084014,0.0963398,0.0750757,0.0458074,-0.0122156,0.038214,0.0747034,-0.0855644,0.0996793,-0.0141309,-0.016168,0.056893,-0.0367117,0.0453236,0.0713071,0.0730503,-0.0102557,0.0818776,-0.0695777,-0.031087,-0.0715427,-0.057499,0.0348653,0.00368534,0.076806,0.0933581,-0.0664707,-0.108281,0.112804,-0.0656871,0.00800668,0.123942,-0.0366433,-0.0544831,0.0615905,-0.091405,-0.0935971,-0.0864203,-0.0843826,-0.0221137,-0.0882038,-0.0481421,-0.082324,0.0587284,-0.0424028,-0.0612441,-0.0928188,0.115084,-0.0992135,0.0824384,-0.0397678,-0.087437,0.0372384,-0.0499134,-0.0621857,-0.0555527,-0.0977685,-0.0891341,-0.0541278,-0.0222526,-0.0102198,-0.0988305,-0.0163765,-0.0655221,-0.0992315,0.0228944,-0.0247733,0.0367116,0.100467,0.0797254,-0.0665717,-0.0987295,0.00266995,0.094014,-0.00280078,-0.0234211,-0.110234,-0.0435565,-0.0910559,0.0996393,-0.0843216,-0.0790971
-0.0640494,0.0403039,0.114109,0.0994304,0.0149015,-0.036332,0.0532741,-0.0400452,-0.0720142,-0.0875063,-0.0479362,0.0774932,-0.0640608,0.0885413,-0.0816765,-0.0976817,0.094364,0.0590274,-0.0659527,-0.00677761,0.0785453,-0.0210559,-0.0930436,3.16067e-05,-0.030159,0.0484698,-0.0680164,0.0931529,-0.05905,-0.029746,-0.0275229,0.0987073,0.0499909,-0.0507938,0.0565924,-0.063734,-0.0434358,0.0987719,-0.0317829,-0.0436742,0.0266995,-0.0826381,0.0841746,-0.0682802,0.0551295,0.0177089,0.0130284,-0.0891827,0.113459,-0.039522,-0.0642413,0.0344424,0.0889595,-0.0725442,0.102008,-0.0320372,0.0257041,-0.0293987,-0.00219263,-0.0584643,-0.0526664,-0.0681043,0.0175119,-0.0416158,0.0874728,0.0600716,-0.0236336,0.00638172,0.0947214,-0.017371,-0.0432471,0.0300893,-0.0957699,0.100605,0.0812206,-0.0870932,0.0838331,0.0716893,-0.0444844,0.00396974,-0.0941859,-0.0779802,0.0183431,0.0477655,-0.0795319,0.0590885,0.00781951,0.0241582,0.0232335,0.0867985,0.0888538,-0.0313918,-0.0692781,0.0869199,0.0252646,-0.0490856,0.0828441,-0.102047,-0.023319,0.106305,0.0653145,-0.0938894,-0.0334563,-0.0683034,0.0141813,0.0517121,0.0668834,-0.089638,0.0673197,0.0788017,-0.014763,0.0226076,-0.10387,0.101964,-0.0670238,-0.0781629,0.0882707,-0.0746941,-0.0359046,-0.078329,-0.0680438,0.0669419,-0.0902002,0.0984899,0.0869692,0.0583655,-0.0616857,-0.0169398,-0.0888707,-0.0436759,0.0145664,-0.091571,-0.0475391,-0.0877085,-0.0611151,0.108044,-0.0377751,0.0225639,0.0216661,0.0931942,-0.0669429,-0.0831731,0.0174298,0.0811251,-0.0299907,0.0385468,0.030893,0.0406103,0.106873,-0.0154839,0.0578132,0.00792653,0.0332751,-0.106191,-0.0140076,-0.0774334,-0.0889648,0.0745698,-0.0894636,0.0847614,0.0216881,0.0794467,-0.0165772,0.099964,0.097389,0.0615047,0.0997398,-0.0226062,-0.0982231,-0.0822683,0.101492,-0.079038,-0.0932249,0.00849161,0.101837,-0.0797246,0.0899345,-0.0361988,0.0500717,-0.0330282,-0.042029,0.0119076,-0.0512941,0.0998985,-0.0562957,0.0945936,0.0304758,-0.0758796,0.0820588,0.0560532,0.120888,-0.0376309,-0.0619815,0.0487556,0.0969113,-0.0148801,-0.0571066,0.0554787,0.0112964,-0.085491,-0.0670405,0.0871479,0.0329505,-0.0977071,0.0370268,0.0517682,0.0795248,0.00877594,0.061239,-0.0927017,0.0882224,-0.0565491,-0.0233138,0.0334768,0.087672,-0.0512895,0.0327936,-0.0754444,0.00349547,-0.0816277,-0.0116543,-0.0507173,0.0683706,-0.0147263,-0.0925291,0.115742,0.0968672,0.111952,0.0385184,0.0621342,-0.103345,0.0909154,0.0875084,0.0362116,0.0651253,-0.0725262,-0.0861343,-0.0375497,0.0117914,-0.0358038,0.0798487,-0.0961506,-0.0123335,-0.0304036,-0.0317688,-0.101564,-0.0892248,0.0273994,0.00338689,-0.0743335,0.102799,-0.0909017,-0.0375473,-0.085369,-0.0595357,-0.0737602,-0.106665,0.0798524,-0.0658861,-0.0909429,0.106284,0.00818694,0.0433488,-0.111565,-0.0361049,0.0166374,0.0282538,-0.106871,-0.0136289,-0.00229789,-0.101537,0.0448992,-0.043885,0.0399203,-0.018419,0.107874,0.00595729,0.108313,0.0893636,-0.0892418,0.100983,0.0605129,-0.00251193,-0.0343451,-0.0994218,-0.0227948,-0.106834,-0.0824819,0.046461,0.105207,0.00620005,0.105677,0.0979014,0.059112,0.0340285,0.0874574,-0.059531,0.0233806,0.0349414,0.0210715,0.0227488,0.0171008,0.0703946,-0.0681002,-0.0146751,-0.107984,0.0626716,-0.0729433,-0.0238326,0.0912998,0.0370586,0.0211296,-0.052735,-0.0869447,-0.00464654,0.00290156,0.0863437,-0.0606649,-0.0698527,0.0312655,0.0904678,-0.00760921,-0.0748172,0.0219515,0.052697,0.0034892,-0.0572832,0.0322907,-0.00487475,0.0550146,0.00052998,0.0189336,0.045485,0.0618141,-0.0338726,0.0156399,-0.0347694,-0.0951581,0.0467014,-0.0988252,0.0733464,0.00867305,0.0880506,0.0121449,-0.0972279,0.0403375,0.00332882,0.0934714,-0.0188171,0.035962,0.0225941,0.0104374,-0.0783082,-0.00545819,-0.0619437,-0.0863343,0.0429539,0.0362551,0.106727,0.0402101,-0.0619362,-0.0221454,0.0210121,-0.0316969,-0.100717,-0.105357,0.0693789,-0.0415289,-0.10126,0.033592,0.025307,-0.0565258,-0.0170314,0.0623212,0.011466,-0.0199737,-0.0141459,-0.0823806,0.00903784,0.0812751,0.0216686,-0.0932133,-0.0827792,-0.0583427,-0.0121098,-0.0274835,-0.0827602,-0.00916216,0.00293479,-0.0560342,-0.0872878,-0.00586601,0.012972,-0.0492464,0.0919087,0.0722893,0.0337718,-0.0140269,0.0990373,-0.0502352,-0.0143623,-0.0250565,0.0803087,-0.0825158,0.0434426,0.0611278,-0.00846495,0.034344,0.0235965,-0.0712609,-0.0781469,-0.103619,0.0265981,0.0409555,0.0979868,0.033868,0.0952421,0.00991388,-0.09096,0.0491541,-0.0570272,-0.0498147,-0.0840128,0.106983,0.00875133,0.0372344,-0.0989566,0.0832359,0.0429256,-0.0283276,0.0836017,0.0666345,0.082671,-0.0581721,0.0618991,0.0944722,-0.0455977,0.090384,0.000248047,0.0275985,0.0304459,0.0959561,-0.071151,-0.0573318,0.0931608,0.0899882,0.0184037,-0.0333167,0.0347256,-0.0250238,0.0471902,0.0631039,0.00564977,0.0602978,0.0709511,-0.085648,-0.0950997,0.0617596,0.077467,0.009706,-0.0782204,0.0680842,0.0148641,0.0239211,0.0592416,0.0588439,-0.0425527,0.0673324,-0.0210635,-0.0140695,0.00393497,-0.0210274,-0.085945,0.100312,-0.0547038,0.0259423,-0.0434705,0.0369849,-0.00102447,-0.0970153,-0.0904866,-0.0122336,0.0653183,0.0337368,-0.0385551,0.100158,-0.00481278,0.00585281,0.0104387,-0.00817183,-0.0536877,0.0368435,0.0578834,0.00435079,0.0666897,0.101793,0.0953937,0.0965624,-0.0418559,-0.0265265,-0.108569,-0.0234485,-0.0633001,-0.0282402,0.0174371,-0.0105812,0.0646808,-0.0555509,-0.0765906,-0.07021,0.0628653,-0.00687088
