10,256
-0.0393886,0.0912524,0.0741604,0.0938298,0.0509634,0.285816,-0.17057,-0.215498,-0.0676604,0.0672637,-0.0758857,0.0126206,-0.135089,0.154721,-0.0384406,-0.122912,-0.132547,-0.0925489,-0.129839,-0.0481165,-0.184152,0.0705604,-0.0116664,-0.08976,-0.0496278,0.0225844,0.0147116,0.101815,0.0232448,0.0131379,0.252624,0.121372,-0.154769,-0.226405,-0.104044,-0.0978889,-0.150364,0.0281524,-0.24393,-0.00950375,-0.0708872,-0.063106,-0.177084,-0.172114,0.00167348,0.0622712,0.0358037,0.0169795,-0.0829825,-0.121287,0.203784,-0.0829609,-0.12949,0.17246,0.151582,0.0180509,0.0209284,-0.115735,0.219977,0.0643127,-0.230057,0.079755,0.0329607,-0.192557,0.151833,-0.0516591,0.16,-0.171486,0.0983774,-0.151083,0.0524527,-0.17361,0.00909378,0.148216,0.0996373,0.072998,0.0494718,-0.104408,0.0166573,-0.167235,0.0813774,0.0401269,-0.0670512,0.111127,-0.185832,-0.0433838,0.0374049,-0.173176,0.110176,-0.148858,-0.165763,-0.0333361,0.0494637,0.181038,-0.0637353,0.0852597,-0.060895,0.0328052,0.119786,0.216811,-0.218111,-0.063967,-0.0169351,-0.047413,0.0243031,-0.0453459,0.0871338,-0.0869491,0.0464556,0.100971,-0.137374,-0.0646307,-0.173048,0.10336,0.297445,-0.0342883,-0.106485,-0.0150493,-0.0212112,0.128925,0.0651946,0.0979854,0.153517,-0.0434848,-0.144454,-0.0162854,0.0112329,-0.0654323,-0.124144,0.128374,-0.197361,0.100485,0.0238404,0.11318,-0.0198707,0.00417669,0.0583977,-0.0613195,-0.0573257,-0.0583468,-0.180888,-0.182631,0.138507,-0.0905292,0.175562,0.210841,0.00901897,0.150503,-0.0308766,0.0940774,-0.0384288,-0.0942065,-0.130879,0.250929,-0.108573,-0.111368,-0.152622,-0.161633,-0.190751,-0.0500639,-0.0338618,-0.0785275,0.0671022,0.0409825,0.0485049,-0.0339588,-0.134605,-0.121789,-0.290856,-0.0351355,0.129353,-0.0673562,0.12239,-0.145468,-0.174288,-0.104351,0.00825677,-0.0743962,-0.100226,0.100887,0.00769425,0.166688,-0.0860161,-0.118721,0.108544,-0.195903,0.254854,0.137455,0.0355949,-0.134873,-0.0447679,0.266726,0.127745,-0.198346,-0.185655,-0.0386041,-0.109755,0.0447956,-0.14145,0.128516,-0.148607,0.169942,-0.0305344,0.15552,-0.135819,0.0135516,-0.1023,0.0616438,0.0761163,-0.101531,-0.20381,0.143422,-0.112811,-0.165804,0.0673457,-0.125924,0.152664,-0.0667543,-0.178143,-0.0316881,-0.185202,0.141535,0.253045,0.0551502,-0.118552,0.0363413,-0.0470325,-0.137697,0.0276141,0.142997,0.0977439,-0.115101,-0.151679,-0.0500268,0.0802207,-0.191319,0.123674,0.105891,0.0825125,-0.0779108,-0.0379672,0.0708992,-0.0295525,0.0185475,-0.0144172,-0.0158213,0.0292159,0.0240077,-0.0977649,0.0698751,0.00149296,0.194765,-0.22656,-0.15311,0.126685,-0.0917386
0.00743524,0.111854,-0.16387,-0.0245151,0.164299,-0.198545,-0.161356,0.0156515,0.110933,0.125738,-0.00661812,0.176194,0.148485,-0.120587,0.0172044,0.00796352,0.0159959,-0.11944,-0.111785,-0.0755945,-0.0266683,0.147055,0.000942765,-0.00879853,-0.184648,0.0730648,0.100874,-0.123583,-0.0916353,0.145198,-0.153143,0.297445,0.154316,0.043618,0.137717,-0.131002,0.186503,-0.269752,0.161929,-0.151186,-0.00229347,0.205757,0.126513,-0.172864,-0.190997,-0.070255,-0.230078,0.134034,-0.084632,-0.166087,0.197451,-0.0383444,-0.0215241,-0.072484,-0.0615859,0.235457,-0.272404,-0.105024,-0.175999,0.119509,0.015231,-0.185445,0.0876432,-0.157045,-0.117176,0.144739,-0.119797,-0.0126214,0.125505,0.153026,0.106366,0.0657417,0.0765996,0.0497532,-0.124397,-0.176674,-0.0442027,0.104814,0.238607,-0.229973,-0.144335,-0.06257,0.135239,0.0129764,0.13342,-0.217121,-0.114174,-0.0325557,-0.061562,-0.0661335,-0.01622,-0.0547952,-0.0667005,-0.189438,0.150108,0.0654002,-0.00278681,-0.0290501,-0.067571,0.0831438,-0.159052,-0.121213,-0.0847813,-0.135552,-0.12423,-0.269062,0.0778718,0.216728,0.109421,-0.0617729,0.137062,0.151767,0.0345326,0.175019,0.09654,0.14168,0.106145,0.20037,-0.208386,-0.148884,0.0609512,0.223411,-0.11049,0.115729,-0.0752271,-0.097699,0.130511,0.0615981,-0.0196636,0.0666151,0.250373,-0.10367,0.0866028,0.0241223,0.147676,0.0862166,0.199812,0.00957785,-0.133655,-0.214727,-0.0652375,0.165581,0.18829,-0.0403602,0.125013,0.0904203,-0.130353,-0.0297263,0.151952,0.0724283,0.110643,-0.203886,-0.139869,0.068974,0.0592305,0.0479302,0.206273,0.0897674,0.0678925,0.12567,0.089392,0.117229,0.101572,0.0474554,-0.13722,-0.0887212,-0.124969,0.226121,0.0764178,0.217139,-0.249152,-0.0205924,0.0112496,0.131024,0.077395,0.0688998,-0.110095,0.0159766,0.0870239,-0.0566377,0.0739696,-0.1383,-0.115045,0.315752,-0.173089,0.00705983,-0.0187936,-0.0588084,0.0617583,0.249926,0.205803,0.0441768,0.067438,0.19359,0.208841,0.0646989,0.239972,-0.0521392,-0.0604706,-0.125857,0.141846,-0.0852279,-0.171279,-0.0858197,-0.255866,-0.0428153,-0.0460272,0.21788,-0.0466136,0.106435,-0.0282307,-0.0275358,0.163466,0.140711,-0.230039,0.0267061,-0.0023076,0.0566491,0.0588003,0.0214725,-0.234385,0.14078,-0.213595,-0.0762608,-0.178045,0.085592,0.0680423,0.0557317,0.0739997,-0.0128099,0.142291,0.0859335,0.0916387,0.0109621,-0.000886075,-0.280003,-0.142193,-0.00840648,0.0574938,0.0881331,-0.00277327,0.100243,-0.132413,0.098271,0.0724878,-0.0793837,-0.214612,-0.0216709,-0.151332,-0.216434,-0.074857,0.0684959,0.231178,0.300059,-0.0479577,0.0365444
-0.175366,0.261039,-0.062914,-0.156021,-0.184864,-0.0420136,0.145113,0.148161,-0.256021,0.0992124,0.0334394,-0.141218,0.0817094,0.161542,0.118232,0.00685329,-0.142042,-0.014711,-0.0357634,0.209228,-0.227196,0.0671395,-0.107096,-0.195759,-0.244007,-0.0946403,-0.00525157,0.126805,-0.130305,-0.0574251,0.298092,-0.163934,0.0359582,-0.130569,-0.0126333,0.163505,0.0390412,-0.0323418,0.0743947,-0.213309,-0.0874076,-0.254046,0.0571104,-0.105715,0.0908741,-0.0909391,-0.21009,0.0820118,-0.166431,-0.0538419,-0.121163,-0.0431071,-0.0860451,-0.147188,0.331197,0.213378,-0.0330172,-0.0589129,-0.251347,-0.03037,0.0364424,0.184734,0.197773,-0.0623959,0.118799,0.0171974,-0.0340756,0.158176,0.255645,0.0586404,0.0118863,0.257052,0.113803,0.137385,-0.126701,-0.11831,-0.00450953,-0.00620582,0.16791,-0.0107354,0.0923373,0.0681722,0.0487222,0.0520399,-0.0953678,0.203275,-0.016519,0.0106255,0.10954,-0.0845066,-0.283027,-0.215043,-0.192595,0.190394,-0.141851,0.0414152,-0.173751,0.0195247,0.172452,0.15798,-0.14815,0.317937,-0.121737,0.176304,-0.0817498,-0.0252347,0.241728,0.0016639,0.0406337,-0.0458533,-0.159914,-0.174445,0.0461073,-0.167422,0.206275,0.143847,0.0481192,0.279888,-0.175526,0.138667,-0.176796,-0.0799332,-0.118345,0.237498,-0.154421,-0.200398,0.231798,-0.00753705,-0.121774,0.120721,-0.0740043,-0.177066,0.260296,-0.0874538,-0.21544,-0.147096,0.162284,-0.0888417,0.170799,-0.238909,0.135094,0.0780371,0.331661,-0.22931,0.114975,-0.0734373,-0.132593,0.0765022,-0.0900932,-0.140733,-0.0375677,0.0420843,-0.00573179,-0.29729,-0.0210745,0.0590189,0.100352,-0.231428,-0.130299,0.0822096,0.121639,0.0477165,-0.00367918,-0.0105801,0.253011,-0.215473,-0.184029,-0.220778,-0.302275,-0.00757937,-0.102243,0.132363,0.0291873,0.149291,0.154363,0.0922657,0.158844,0.0381365,0.121594,0.0235388,-0.139201,0.20759,-0.245844,-0.0369363,-0.155999,0.0608979,0.0937941,0.107173,0.0405868,-0.0508876,-0.228071,-0.137602,0.135926,0.0461089,0.152337,0.137087,0.210845,-0.0506855,0.0623718,-0.00471388,-0.22401,-0.157484,-0.156405,-0.198778,-0.0159335,0.16212,0.255228,0.0734423,-0.0901858,0.128069,-0.0696712,0.073001,-0.235883,-0.0112696,0.0405996,-0.21289,0.0211343,0.0259459,0.0240164,0.133154,0.145861,-0.0926555,0.216881,0.0506258,-0.0220409,-0.130608,0.239003,-0.111891,0.226084,0.283287,0.14813,0.0640977,0.18442,-0.0606,-0.0593132,0.210015,0.0982044,-0.0527626,0.01867,0.100081,-0.0301986,0.010223,-0.13069,0.164076,-0.246125,-0.00723039,-0.0977699,0.150238,0.218655,0.0291914,0.149551,-0.218496,0.3606,-0.0351969,-0.098266,-0.230497
-0.092656,-0.0471431,0.235215,-0.15825,-0.00144764,0.231339,-0.0301978,0.136553,-0.213708,-0.0676517,0.0664208,-0.167222,0.0687631,-0.174975,0.153314,-0.113235,-0.11907,-0.0802828,0.260781,0.243788,0.18673,-0.0180293,0.0947265,-0.228674,0.411835,0.0947292,-0.0147098,-0.0861737,0.0913886,-0.0200673,-0.138953,0.00278921,0.211536,0.144055,0.179006,-0.0445864,-0.225298,-0.0395716,0.0259667,0.165592,-0.0479624,0.135932,-0.107853,-0.139648,0.200982,-0.136511,-0.129881,-0.182184,0.0942419,0.0660818,-0.163498,-0.17345,0.212248,0.00652549,-0.284099,-0.168726,0.123112,-0.0141803,0.00189382,-0.0927821,0.000571299,-0.00106855,0.129214,-0.146414,-0.0391364,0.21271,-0.266505,0.0577294,-0.100208,-0.0342736,0.223143,0.0457522,0.0548647,-0.0721991,-0.0585961,0.182745,-0.301027,-0.0433314,0.00582489,-0.260628,0.256974,0.0362621,0.182048,-0.0242356,0.185976,0.0159965,-0.0419021,0.282286,-0.134423,0.296875,-0.18138,0.177133,0.178996,0.0991231,0.0438442,0.170118,0.112023,-0.0904716,-0.198557,0.0124785,0.217751,-0.065889,-0.0851492,-0.213716,0.0386697,-0.129738,0.125553,0.156317,0.0695615,-0.224858,-0.0158328,-0.249246,-0.0425836,0.0543438,-0.0882566,-0.266324,-0.100936,0.124074,-0.0273737,-0.169319,0.112348,0.0502326,-0.172386,0.0778872,0.278695,0.166023,0.174597,-0.0623622,0.127188,-0.124731,-0.107406,-0.107157,0.010601,-0.0836093,0.242868,-0.25329,-0.0713296,-0.0160992,0.0461135,0.0899837,0.004209,-0.0647686,-0.123491,0.145388,-0.00833515,0.098618,-0.173635,0.0756873,-0.0972749,-0.245886,0.199269,0.0215852,0.179811,-0.288607,0.175557,0.195109,0.11731,0.287173,0.0669614,0.00090732,0.0356949,0.029355,0.219606,-0.0676214,0.248635,0.151829,-0.122649,-0.194574,-0.0148957,-0.0839843,-0.127341,-0.131695,-0.169179,0.0996054,-0.186833,0.215729,-0.113024,-0.165703,-0.242416,-0.18622,0.0583366,0.152123,-0.117752,0.0756346,-0.188992,0.159676,-0.132029,0.08029,-0.0889385,-0.139176,-0.156114,-0.0481507,0.115465,0.198449,0.284856,-0.165823,-0.196818,-0.0084926,-0.0502513,0.0459641,0.235537,-0.0281865,-0.167451,0.112605,-0.00600492,0.00650385,-0.131187,-0.17235,0.237614,-0.124943,0.214432,-0.00206226,-0.149187,0.0354934,0.0417266,0.250583,-0.104987,-0.0596624,-0.00533588,0.0584239,0.0374606,-0.169059,0.0863203,0.0227,-0.23338,-0.0724217,-0.201097,-0.16812,-0.0461068,0.102613,-0.00535857,0.0711191,0.119993,0.0994563,-0.0213608,0.010733,0.0571548,0.138601,0.0767936,0.0918364,0.161528,-0.0095327,0.111315,-0.0300503,-0.227008,0.1124,0.120613,-0.0146515,0.264066,0.319625,0.0224857,-0.121429,0.14559,0.0845756,-0.156063,0.0210123
-0.233648,-0.0468131,0.273546,0.159054,-0.0570338,-0.130473,0.141522,0.156801,0.11678,-0.00305309,-0.16801,-0.00678484,0.080364,0.0409799,0.125836,0.213213,0.0113183,-0.118122,-0.169953,-0.297189,-0.0945446,0.0502365,-0.0580559,0.280052,-0.275054,0.102424,-0.226827,0.0557816,0.175625,0.0527702,0.0483154,-0.157265,0.0337297,0.162618,-0.167178,0.133443,0.193437,0.0986627,0.162465,0.261897,-0.141534,0.310198,0.0553991,0.0465128,-0.00391051,-0.183276,0.0795326,-0.00326912,-0.0667556,-0.075356,-0.0855018,0.214516,-0.053262,-0.0829671,0.117568,0.243542,0.226711,0.328954,0.0812791,-0.136407,-0.145754,-0.320514,-0.121377,0.134226,-0.0967228,-0.196262,0.0256631,-0.0923784,-0.134085,-0.0544771,0.0240892,-0.0718895,-0.084725,0.0839985,-0.0880442,-0.145543,0.137467,0.0962461,0.1321,-0.0349905,-0.173774,0.16553,0.0780761,-0.0214689,0.0983396,-0.0664793,0.177985,-0.095799,-0.0658126,0.0111095,0.103226,-0.148285,-0.10055,0.0693066,-0.0883369,0.1229,0.00425755,0.142692,-0.330876,-0.104803,-0.125095,0.165694,0.0990288,0.225111,0.0849084,-0.0877996,-0.298944,-0.262279,-0.0813396,0.143666,0.114858,-0.101144,0.0690254,0.0787552,0.0375157,0.236508,-0.0450313,-0.32886,0.241988,-0.00831194,-0.184392,-0.00267269,-0.189325,0.000931788,0.114814,0.046598,-0.29124,-0.0823239,-0.0815315,0.0814482,0.117621,0.204574,-0.0802208,0.171042,0.248174,-0.138453,-0.0404912,-0.033265,-0.164946,0.0815567,0.111239,-0.0502046,0.0349081,0.225947,0.0208035,-0.138151,-0.173186,-0.0592369,-0.33558,0.111893,0.0162817,0.0311854,-0.0704552,0.202023,0.0228688,0.054038,-0.172546,0.202857,-0.155449,0.043704,-0.10172,0.0416874,-0.0557982,-0.0860265,-0.0316636,0.0387012,-0.163599,0.284327,0.254641,0.15237,-0.181921,-0.0785168,0.018361,-0.239907,0.255101,0.173991,0.187289,0.325775,0.168851,0.00681334,0.00775255,-0.270934,-0.0821906,0.00200569,-0.0550668,-0.180963,-0.0609832,0.0549358,0.0930074,-0.0819762,0.127361,-0.0699286,0.0865636,-0.0909595,-0.105423,-0.0617162,0.104246,0.153743,-0.0117429,0.0150246,0.0226446,0.13658,0.0881955,0.10963,0.0732091,-0.0737674,-0.113135,0.0362064,-0.164876,0.0647107,0.054904,-0.0161898,-0.149446,-0.0946498,-0.0466876,0.140076,-0.159998,0.157255,-0.156246,0.127821,-0.0599813,0.0161931,-0.0436816,0.0788177,0.142444,0.0199849,0.0788464,-0.0613168,-0.255707,0.159327,0.158773,0.113764,-0.176717,0.13183,0.0749961,0.06503,0.160032,-0.106202,0.00731897,0.134831,0.00737916,-0.127842,0.0440504,-0.0840806,0.243138,-0.14092,-0.132126,-0.0496896,0.0433273,-0.0993459,-0.221776,-0.0547883,-0.179148,0.100201,-0.0571152,-0.118196
0.237764,-0.114319,-0.00182869,-0.116534,0.0424439,0.128504,0.232708,-0.27225,0.220118,-0.051379,-0.0787486,0.174747,0.205868,-0.0735332,-0.130809,0.164513,0.0199064,-0.0202773,0.0431955,0.154031,-0.08753,-0.14769,-0.0285982,-0.184463,0.256654,0.0119348,0.0704309,-0.144203,0.153045,-0.0415734,-0.0862454,-0.103858,-0.246902,-0.159463,0.0198855,-0.147848,0.202189,-0.108975,0.094826,-0.128581,0.0213349,-0.194019,0.0438093,0.0301713,0.289075,0.0658516,-0.119306,-0.104952,0.0928697,0.274696,0.0662441,0.166333,0.282767,0.0229072,-0.0495895,-0.0808161,0.024124,0.165819,-0.175538,0.190162,0.27588,-0.0966211,0.0521825,0.0416283,0.111488,0.0228293,-0.150609,-0.206314,-0.0619417,0.0446236,-0.170548,-0.00302719,-0.0769227,-0.093213,-0.0505644,0.322397,0.19498,0.0221281,0.058603,0.170226,0.0774188,-0.12537,-0.190253,-0.0143741,0.231666,-0.021744,0.0031363,-0.132824,-0.0469461,-0.223114,0.126249,0.0473121,0.36845,-0.00290046,0.194993,0.0666354,-0.183529,-0.00640194,0.339133,-0.295429,0.417791,-0.142115,-0.148789,-0.0175982,-0.0987608,0.422068,-0.119326,0.089035,-0.194409,0.134453,0.0994702,0.315593,0.00721591,-0.0938911,-0.188819,-0.217639,0.0102312,-0.0698929,0.136931,-0.243941,-0.146658,-0.204999,0.0326807,0.106482,-0.234531,-0.0717702,-0.189931,-0.167787,-0.183073,0.0489926,0.117764,-0.158845,-0.248845,-0.0468836,-0.253167,0.071119,0.176933,-0.146624,-0.146131,0.112807,-0.00799152,0.193542,-0.14491,-0.168932,-0.0789404,-0.0284148,0.0534661,-0.234925,0.292548,0.140132,-0.241916,0.143698,-0.0373344,-0.109919,-0.20715,0.0178631,-0.134056,0.0899683,0.0691137,0.0857594,-0.0215958,-0.0427059,-0.076348,0.124467,0.0397607,0.36734,-0.125303,-0.0190327,0.0682335,-0.218793,-0.0120764,-0.226353,-0.195662,-0.20668,-0.11124,-0.108799,-0.0331846,-0.0053848,-0.13376,-0.115162,0.0259828,0.105298,0.107604,0.203349,0.257869,0.14557,0.0136581,-0.08779,0.125823,0.153717,0.251374,-0.0878607,0.0947138,-0.216616,-0.0864129,-0.198062,-0.0678478,0.0485216,-0.0726196,-0.142302,0.137891,-0.0490504,0.331563,0.00223037,0.193242,-0.020732,0.241446,0.230094,0.171017,-0.0725474,-0.0149056,-0.0123866,0.260233,0.1565,-0.310582,-0.244464,-0.218752,-0.191302,0.0397933,0.0721375,0.163527,0.0505502,-0.098055,-0.169797,-0.00135722,-0.0977614,-0.099744,0.135158,0.235739,0.135449,-0.131673,0.102879,0.0316886,-0.0525325,-0.0258379,-0.20595,-0.114969,-0.132931,0.190265,0.0734746,0.166777,-0.137574,-0.0675278,-0.00128194,-0.107852,0.0562355,-0.187249,0.0462365,0.109977,0.189939,-0.225213,-0.02963,0.229035,0.107903,0.134088,0.0856191
0.132065,0.0341451,-0.208958,-0.152463,-0.03259,-0.0745621,0.0282441,0.176469,0.173332,-0.0160971,0.151045,-0.0460317,0.0200092,0.0792861,0.00884144,-0.166091,-0.0667087,-0.145677,0.0281908,0.0167706,0.190019,-0.116662,0.122392,-0.0777318,-0.234099,-0.0785769,0.0361038,-0.107469,0.0698259,0.105518,0.120158,0.109433,-0.230133,-0.178506,0.280039,0.0986747,-0.176561,0.055892,-0.180958,0.206094,0.0381153,-0.153203,-0.12608,-0.227723,0.0437149,-0.178806,-0.167468,0.0717993,-0.038046,-0.0112924,0.0171391,-0.0078914,-0.0298681,-0.117289,0.10349,-0.179092,0.0319314,-0.104456,0.215388,0.116791,-0.0385,0.0993649,0.0479105,0.0976897,-0.119005,0.253963,0.0669179,-0.318782,-0.199202,0.0910227,0.0510382,-0.0269189,-0.0339009,0.0498164,0.108307,-0.157038,0.0317204,0.0368582,0.0252798,0.147439,-0.203945,-0.0801613,0.144271,-0.0244932,0.192764,0.0626297,-0.202289,-0.0513242,-0.00229575,-0.137534,-0.0640428,0.0475373,-0.190275,0.111423,0.198864,0.126759,0.0419574,0.0837753,-0.125491,0.159276,0.0335963,-0.207428,-0.102221,0.0293404,-0.124204,-0.260299,0.04159,0.184645,0.0657429,-0.167783,0.0543387,0.0162441,0.168419,-0.0958055,-0.186556,0.195663,0.249793,-0.206894,0.158187,0.0384806,0.133735,-0.148056,-0.0163613,-0.0296641,-0.0922465,-0.0928493,-0.173409,0.12624,-0.149812,-0.111444,0.0890289,0.251097,0.204167,-0.111002,-0.14296,0.218273,0.0442319,0.107962,0.16039,0.100494,-0.0887126,0.056954,-0.131526,0.176553,-0.151236,-0.100832,0.0142413,-0.167241,0.0885167,0.0632604,-0.0822936,0.180677,0.0842221,0.302295,-0.151936,-0.009019,-0.203659,0.0475958,-0.268706,-0.0600061,-0.0442601,0.000269651,0.0571262,0.120375,0.114224,-0.0981927,0.0636328,-0.15588,-0.0901847,-0.144825,-0.127557,0.20138,0.0358506,0.160333,-0.114419,-0.166581,0.295866,-0.199259,0.181006,0.215744,-0.143075,-0.175791,0.125241,-0.00670423,0.0672081,-0.0162124,0.240809,0.0573719,-0.00193827,0.167249,0.215823,-0.052185,0.0254116,-0.252009,-0.279696,0.198508,-0.131197,-0.0659784,0.0150639,-0.0727994,0.00519933,-0.136542,0.123781,-0.159039,-0.107053,-0.115255,-0.10734,-0.00499395,-0.156602,0.150021,-0.017571,0.186572,0.16811,-0.025509,-0.13391,-0.145784,0.169823,0.0146154,-0.185343,-0.152825,0.0901496,0.228997,-0.283396,0.0752268,0.199614,-0.0603306,0.18112,0.0971206,0.00840396,-0.0419013,0.0130609,-0.126046,0.191298,-0.116918,-0.0125561,-0.159965,-0.094858,0.0917451,-0.14554,-0.137075,-0.126171,0.0948631,0.0290727,-0.0407808,0.0603077,-0.146563,-0.0258149,0.0348247,-0.0913949,-0.108444,0.0564604,-0.0754226,-0.0674565,-0.174536,0.135556,-0.0125328
-0.0648508,0.194645,0.220103,0.0679973,-0.122495,0.0225933,-0.0932146,-0.184203,-0.0691361,0.237274,0.0474887,0.156563,-0.022248,0.0166764,0.119387,-0.106532,-0.166588,0.0513276,-0.227384,-0.0478013,-0.0703062,0.254622,-0.0650832,0.204402,0.195028,0.0642248,-0.374976,0.0262657,-0.0145644,-0.106875,-0.107147,0.285647,-0.025065,-0.205344,-0.188448,0.0525421,0.111346,0.111805,0.0312766,-0.0392671,-0.116787,-0.142551,0.115766,0.294801,-0.206769,0.338384,-0.0272142,-0.0540154,0.0801191,0.238174,-0.151869,-0.0602212,-0.214083,0.287316,0.275513,0.199485,-0.162888,-0.162129,-0.0676892,-0.0416814,0.283801,0.269941,-0.128096,-0.0429144,0.1211,-0.0471759,0.208398,-0.000802852,0.036053,-0.101681,-0.0460957,-0.146739,-0.0483091,-0.129466,0.169975,-0.0902406,-0.175082,0.112353,-0.100834,0.103842,0.0684695,-0.0558848,0.00394477,-0.0890671,0.0418891,-0.117143,0.0638642,0.100901,-0.101386,-0.138197,-0.0895061,0.0512119,0.24646,-0.0985143,-0.0190944,0.0903907,-0.0317839,-0.10879,-0.0988728,-0.16208,-0.274117,-0.156515,0.0712989,-0.161049,0.109351,0.0623883,-0.105311,-0.274019,-0.0627288,-0.111217,0.190161,-0.00187319,-0.151036,0.0399024,0.0822793,0.148322,-0.0592575,-0.155437,0.0556036,0.305284,0.119809,0.189501,-0.276529,0.0722226,-0.0219536,-0.0211318,0.102075,-0.180617,0.0123505,0.0303412,-0.0118414,0.155793,-0.203427,0.157735,0.0187206,-0.170067,-0.0306944,-0.045,0.100773,0.131834,0.0334632,-0.112158,0.186356,-0.0353581,-0.0452848,-0.0628028,-0.123698,0.0416917,0.114784,0.121742,0.279155,0.270891,-0.177132,-0.257523,0.109762,-0.0453245,0.124432,0.187777,-0.0578365,-0.0533953,-0.00874058,-0.0933477,-0.298926,-0.0731177,-0.316353,-0.189541,0.117507,0.0663518,0.039216,0.0126698,-0.0566449,-0.16394,-0.258527,0.269416,-0.172289,-0.0533927,-0.255646,0.0135717,0.148753,-0.0822245,0.0349661,-0.205234,0.209681,-0.0083257,-0.0689763,0.16658,-0.21978,0.129701,-0.0760636,-0.0607132,0.0145193,0.0608465,0.14469,0.249066,-0.0321463,0.00143544,-0.1085,-0.151986,-0.110603,0.0666841,-0.155463,-0.163735,0.122562,0.169294,0.108266,-0.0429076,0.00112281,0.0961252,0.0372061,0.102021,-0.0575234,0.052718,0.110063,0.143654,0.0830312,-0.0383741,0.250268,0.103687,-0.119246,-0.132061,0.100112,-0.0783665,-0.0117795,-0.0923927,-0.158934,-0.0587715,-0.128144,-0.029542,0.0132999,-0.12311,-0.187289,-0.212003,0.0731321,-0.0756486,-0.152473,0.0121927,-0.18924,-0.00943517,0.085953,0.12841,-0.0623735,-0.137107,-0.140236,0.0367825,0.0268182,0.0213653,0.0661693,0.0364735,-0.0738893,-0.0745372,-0.0589296,-0.00956308,0.285878,0.0567809,0.0642405,-0.133528
0.197817,-0.0685257,-0.0931886,-0.134867,0.103489,-0.293583,-0.206689,0.125303,0.269918,-0.0774524,-0.134399,0.121318,-0.064971,-0.136813,-0.0241422,0.0676293,-0.011498,-0.208036,0.17925,-0.150104,-0.0404139,-0.0585649,0.119531,0.0726159,-0.214524,0.0434931,0.0815735,-0.137878,-0.0293071,0.119624,-0.336138,-0.114678,-0.120119,0.121343,-0.221716,0.226903,0.0826532,0.0939097,-0.239842,0.0335168,-0.108891,0.154784,-0.195904,0.0166704,-0.096443,-0.215628,0.106915,-0.040535,0.348231,-0.235869,-0.165754,0.248271,0.113879,-0.202066,-0.156364,-0.335717,0.11943,0.144671,0.136374,-0.0393538,-0.0806534,-0.130969,-0.0424256,0.0789169,-0.0724766,0.0227027,0.223808,0.277498,-0.158676,0.173347,-0.254735,-0.0540802,-0.168069,0.0525327,-0.10114,0.0748306,-0.107872,0.0595612,-0.0461888,0.101914,0.173468,0.158326,-0.10467,-0.152554,-0.0287259,-0.155853,0.0794381,-0.0811177,0.153558,-0.156989,0.311949,0.118326,-0.244835,0.11382,-0.0188987,-0.196001,-0.15293,0.017358,0.210233,0.129089,0.178662,-0.0407782,0.016783,0.0637529,0.113185,0.252271,0.0599041,0.245873,-0.0889684,-0.176668,-0.115224,0.0404923,-0.0545276,0.0467643,-0.091036,0.167845,-0.121295,0.104428,0.116139,0.13432,-0.116847,-0.0333398,0.130791,0.19422,-0.00579038,0.102609,0.13025,-0.0692251,0.0102535,0.138456,0.118753,-0.368282,0.17553,-0.30778,-0.14238,-0.036675,-0.144973,-0.0878989,-0.0469658,0.179026,0.110398,-0.159048,0.0945772,0.184607,0.00439892,0.189944,0.056088,0.207343,0.00309718,0.057444,0.160863,0.0368031,-0.180415,0.108521,-0.284467,-0.263372,-0.0306447,-0.0376576,0.00284473,0.143206,0.107515,-0.117957,-0.0137355,-0.049195,0.0170259,-0.129152,0.0258988,-0.159911,0.152972,-0.223413,-0.0388931,-0.0150965,0.151237,0.173379,-0.0744501,0.200425,0.0340798,-0.11636,-0.029599,-0.120468,-0.117306,0.156997,0.143966,0.0133414,-0.177713,-0.0471263,-0.053884,-0.0979181,0.00026201,-0.190719,-0.168329,-0.109875,0.0667319,0.0257323,0.325141,0.168911,-0.0753552,-0.117856,-0.135851,0.131071,-0.0496987,-0.0927996,-0.000675539,-0.156329,0.151661,0.00918559,-0.159518,-0.156619,-0.291878,0.109468,-0.127888,-0.311686,0.114954,-0.213117,0.115863,-0.0374221,0.0279176,0.106076,-0.1428,0.110664,0.193746,0.229356,0.185291,0.0464627,-0.000341977,0.117311,-0.0099588,-0.0134669,-0.22194,-0.0834597,-0.223118,0.0794218,-0.161804,0.018567,-0.0973019,-0.0371789,-0.230692,0.0596928,-0.0813704,-0.143846,0.152899,-0.132599,-0.338457,0.118114,0.130767,0.152523,0.124709,0.11962,-0.147121,-0.147885,-0.152388,0.0979497,-0.300807,-0.0502904,-0.0941562,-0.0604759
-0.0798247,-0.304685,-0.204335,-0.0263103,0.177711,0.188859,-0.0717322,0.0274004,-0.159208,-0.248784,0.0767158,0.234763,-0.0906001,-0.155773,-0.0520043,-0.122205,0.233526,-0.014502,0.0674939,0.161992,0.0844852,-0.191897,0.108048,0.105218,0.0734641,-0.0784213,0.266348,0.234831,-0.0547809,0.000623848,0.0728653,0.169706,-0.0970751,0.184317,-0.129788,0.136219,0.0854539,0.0665093,-0.12669,-0.262362,-0.0130269,0.149742,0.138302,-0.0288186,-0.145461,0.0845011,0.366626,0.00156437,-0.127667,0.0289325,-0.0887299,-0.0445141,0.20308,0.362929,-0.0451495,0.338479,-0.00748713,0.0755174,0.185119,0.0244422,-0.14245,0.161755,0.0235564,-0.213364,-0.0762235,-0.218272,0.113573,0.160945,-0.193822,-0.177461,0.254218,0.140502,-0.136695,0.0259103,-0.216993,0.00421829,0.0954321,-0.0867446,-0.185822,-0.0998389,-0.219963,0.0268448,-0.100486,0.043778,-0.279151,-0.00985315,0.14103,-0.0112759,0.0270298,-0.0409007,0.208494,0.25128,-0.116026,0.0619345,-0.0946964,-0.138519,-0.196881,-0.0713736,-0.16345,-0.157928,-0.195719,0.0997876,-0.0161264,-0.0615507,0.0956643,0.0757731,0.0178855,0.0562945,-0.14282,0.0196832,-0.13373,0.0703084,0.241415,-0.0931734,0.171614,-0.32022,0.0951399,0.127905,0.200529,0.0390002,0.0919925,-0.136519,-0.00111938,0.0988268,0.0518154,-0.0356854,0.114853,-0.0311279,0.189169,0.100061,-0.223893,0.0889028,-0.22679,0.0099162,-0.116132,-0.0211686,0.0304657,-0.138721,-0.0493817,0.0408566,0.0942498,-0.189839,-0.330433,0.0750073,0.131687,0.126374,-0.118545,-0.102399,0.0881874,0.0758481,-0.24136,-0.0993121,0.00214028,0.0460984,-0.259,-0.0788081,0.219794,-0.319178,-0.00108505,-0.297838,-0.119967,0.0418609,-0.15865,0.0305759,-0.143078,0.0178888,0.0483242,0.00883401,0.25757,-0.249065,-0.0516084,-0.0509705,0.0580786,-0.260109,-0.183017,0.212016,-0.184434,0.156369,0.134951,-0.213087,0.0331714,0.145746,-0.086789,-0.136055,0.094229,-0.286577,0.0100223,-0.0179109,0.135771,0.134229,0.118624,0.129696,-0.0710824,0.172981,-0.133919,-0.0632941,-0.097914,0.0743571,-0.13648,0.0477628,-0.179608,-0.031225,-0.101115,-0.0509964,0.0982195,-0.0695233,-0.237978,-0.214312,0.121766,-0.0611574,0.0837777,-0.0480288,0.119089,0.215807,0.165411,0.253075,-0.282983,0.10626,0.284428,-0.0752663,-0.195297,0.0746201,-0.168238,-0.0517221,-0.117864,-0.078936,-0.0762301,0.138978,-0.254068,-0.345133,0.254974,-0.00646841,0.10083,-0.018621,-0.00116279,0.168856,0.153033,-0.0749099,0.184516,-0.0509284,0.0998971,0.0209167,0.0156924,-0.156573,0.204772,-0.0249878,0.172089,-0.170187,-0.0282112,-0.186823,0.101585,-0.0883274,-0.299043,-0.065925,0.0543058,0.0181904
